tree
version=v4
num_class=1
num_tree_per_iteration=1
label_index=0
max_feature_idx=96
objective=regression
feature_names=Column_0 Column_1 Column_2 Column_3 Column_4 Column_5 Column_6 Column_7 Column_8 Column_9 Column_10 Column_11 Column_12 Column_13 Column_14 Column_15 Column_16 Column_17 Column_18 Column_19 Column_20 Column_21 Column_22 Column_23 Column_24 Column_25 Column_26 Column_27 Column_28 Column_29 Column_30 Column_31 Column_32 Column_33 Column_34 Column_35 Column_36 Column_37 Column_38 Column_39 Column_40 Column_41 Column_42 Column_43 Column_44 Column_45 Column_46 Column_47 Column_48 Column_49 Column_50 Column_51 Column_52 Column_53 Column_54 Column_55 Column_56 Column_57 Column_58 Column_59 Column_60 Column_61 Column_62 Column_63 Column_64 Column_65 Column_66 Column_67 Column_68 Column_69 Column_70 Column_71 Column_72 Column_73 Column_74 Column_75 Column_76 Column_77 Column_78 Column_79 Column_80 Column_81 Column_82 Column_83 Column_84 Column_85 Column_86 Column_87 Column_88 Column_89 Column_90 Column_91 Column_92 Column_93 Column_94 Column_95 Column_96
feature_infos=[-3.1436137381203491:1.8747339926573592] [-2.9456947730335923:2.3023461922382684] [-1.9214982655591348:2.3127511643628611] [-2.8206285863213494:3.1396152193407207] [-3.1436137381203491:1.8747339926573592] [-3.1436137381203491:1.8747339926573592] [-3.1436137381203491:1.8747339926573592] [-3.1436137381203491:1.8747339926573592] [-3.1436137381203491:1.8747339926573592] [-3.1436137381203491:1.8747339926573592] [-3.1436137381203491:1.8747339926573592] [-2.4167236952191371:1.8747339926573592] [-2.9456947730335923:2.3023461922382684] [-2.9456947730335923:2.3023461922382684] [-2.9456947730335923:2.3023461922382684] [-2.9456947730335923:2.3023461922382684] [-2.9456947730335923:2.3023461922382684] [-2.9456947730335923:2.3023461922382684] [-2.9456947730335923:2.3023461922382684] [-2.9456947730335923:2.1095348647637602] [-1.9214982655591348:2.3127511643628611] [-1.9214982655591348:2.3127511643628611] [-1.9214982655591348:2.3127511643628611] [-1.9214982655591348:2.3127511643628611] [-1.9214982655591348:2.3127511643628611] [-1.9214982655591348:2.3127511643628611] [-1.9214982655591348:2.3127511643628611] [-1.9214982655591348:2.3127511643628611] [-2.8206285863213494:3.1396152193407207] [-2.8206285863213494:3.1396152193407207] [-2.8206285863213494:3.1396152193407207] [-2.8206285863213494:3.1396152193407207] [-2.8206285863213494:3.1396152193407207] [-2.8206285863213494:3.1396152193407207] [-2.8206285863213494:3.1396152193407207] [-2.8206285863213494:3.1396152193407207] [-3.0944400997221435:1.8599716246029767] [0.0026764592121244:1.645293274289489] [-3.1436137381203491:1.8304468884942124] [-2.9960928229257324:1.8747339926573592] [-2.9296301880955831:1.8022133054737608] [0.027759399514255201:1.4822928362679113] [-3.1436137381203491:1.705332494534648] [-2.7010509925364974:1.8747339926573592] [-2.5877502371402685:1.7005705465951813] [0.057965947907529097:1.4654300354425009] [-3.1436137381203491:1.5226315663682937] [-1.9476856939459719:1.8747339926573592] [-2.9180705673625682:2.2473998789928071] [0.0024028631714775:1.3393603788891415] [-2.9456947730335923:2.137507252501885] [-2.8628221560205205:2.3023461922382684] [-2.8358259391117802:2.0464691477191801] [0.0065770337413709997:1.2411263048401728] [-2.9456947730335923:1.9437896307376168] [-2.6970769219943778:2.3023461922382684] [-2.6496765452135107:1.9100426336467944] [0.026125602957564501:1.1095090014648661] [-2.9456947730335923:1.612299162685332] [-2.2827138369290214:2.3023461922382684] [-1.9140965071559533:2.3091775024481351] [0.00066197234498080004:0.85738701167726239] [-1.9214982655591348:2.3020301786186832] [-1.8992929903495912:2.3127511643628611] [-1.8784728735646239:2.2863502102820434] [0.0139811846015992:0.938929978413098] [-1.9214982655591348:2.218671354343023] [-1.843731264033748:2.3127511643628611] [-1.7899148409758243:2.1363204820716875] [0.058773164469634299:1.1384432322602362] [-1.9214982655591348:2.0276220029102845] [-1.6443517680489976:2.3127511643628611] [-2.7516742620645029:3.1287580558595529] [0:1.8104419330760275] [-2.8206285863213494:3.1070437288972159] [-2.6354906964931168:3.1396152193407207] [-2.5601258145824897:3.0853294019348798] [0.0020680105006647001:2.4812887862777475] [-2.8206285863213494:3.0093292575667019] [-2.2000396680097309:3.1396152193407207] [-2.1253131764258288:2.9903292214746577] [0.0093116775430298008:2.5235108937734081] [-2.8206285863213494:2.8139003149056738] [-1.4654962184571301:3.1396152193407207] [-0.95199108778837038:2.8290121784015625] [-2.7880157955644478:2.8290121784015625] [-2.0538181296402058:2.2789837836424791] [-2.1993229536789611:2.2789837836424791] [-0.98357508756868395:1.3940667050027256] [-1.2596528450146576:1.226362536703284] [-2.8555537924868721:2.0461820012180407] [-2.8555537924868721:2.8555537924868721] [0:23] [-1:1] [-1:1] [1:6] [1:6]
tree_sizes=1911 1954 1954 1949 1862 2045

Tree=0
num_leaves=21
num_cat=0
split_feature=58 80 67 90 46 54 19 3 32 94 53 80 93 23 2 8 10 11 55 94
split_gain=264.307 80.3595 66.2875 31.2755 36.709 27.6764 19.5072 16.1508 11.7608 11.6978 9.39719 6.6967 1.44564 1.37506 3.44369 0.908817 0.780643 0.554597 0.382052 0.0771893
threshold=-1.6735727693702516 1.5761836780524956 2.1435416950951298 0.038812929856478107 -1.9389620628421438 1.0484480616107927 0.068409492853159268 -0.23509631460988792 -0.025765862253315498 0.60355339059327384 0.037833295758543009 0.096952725444282767 -0.70710678118654735 -0.33025053836736956 0.41292359539831819 -0.77026199307369181 -0.44179569210955555 -1.1027998524893563 0.55012923135299152 -0.78656609248549325
decision_type=2 2 2 2 2 2 2 2 2 2 2 2 2 2 2 2 2 2 2 2
left_child=-1 2 3 4 6 7 -2 10 -5 11 -6 12 -9 15 -15 -12 -14 -16 19 -17
right_child=1 -3 -4 8 5 -7 -8 9 -10 -11 13 -13 16 14 17 18 -18 -19 -20 -21
leaf_value=0.16184571804043107 -0.055466294775217487 0.11085638700688272 0.093965218187231234 0.0767312388641231 -0.017164878544515323 -0.02993829019597144 0.0078104452158460798 0.026808421401784244 0.030296822358304526 0.0691694887694628 0.019277079568483617 0.0037720817247054172 0.035310777835515152 0.037005467571079004 0.018334507280387213 0.013471606631434003 0.048959577678463623 0.0080936220602534879 0.0037553843331925747 0.0094874377024762487
leaf_weight=38 29 26 29 25 23 29 21 26 30 22 37 21 22 25 39 31 20 20 20 20
leaf_count=38 29 26 29 25 23 29 21 26 30 22 37 21 22 25 39 31 20 20 20 20
internal_value=0.034591 0.0252014 0.0206471 0.0160249 0.0112204 0.0168698 -0.0288901 0.0210337 0.0514034 0.0365224 0.0130372 0.0284524 0.0360742 0.0166551 0.021453 0.0129234 0.0418102 0.014863 0.00961234 0.0119092
internal_weight=553 515 489 460 405 355 50 326 55 111 215 89 68 192 84 108 42 59 71 51
internal_count=553 515 489 460 405 355 50 326 55 111 215 89 68 192 84 108 42 59 71 51
is_linear=0
shrinkage=1


Tree=1
num_leaves=21
num_cat=0
split_feature=54 80 67 16 46 54 19 32 79 94 53 10 93 16 0 90 3 22 65 93
split_gain=233.124 80.7831 60.361 29.1361 30.1586 29.185 19.9895 19.5745 13.6274 8.93336 7.81501 5.5011 2.57348 1.16441 1.15914 0.525265 0.309596 0.273299 0.246188 0.0484105
threshold=-1.3522309356375974 1.5761836780524956 2.1729226316319519 1.0627790953748097 -1.9530516803294524 1.098482699183845 -0.13058897401228955 1.0000000180025095e-35 -0.24098448581665713 0.60355339059327384 0.037833295758539907 0.51198462521405952 -0.60355339059327362 -0.17318802354211557 -0.083752982476903187 0.005878066156532801 -0.49871133428931907 0.4622834448633269 0.052536372018270459 0.60355339059327384
decision_type=2 2 2 2 2 2 2 2 2 2 2 2 2 2 2 2 2 2 2 2
left_child=-1 2 3 4 6 8 -2 -5 10 11 -6 14 -12 16 -10 -16 -14 -17 19 -18
right_child=1 -3 -4 7 5 -7 -8 -9 9 -11 12 -13 13 -15 15 17 18 -19 -20 -21
leaf_value=0.12123403968037785 -0.085554470995376858 0.073898545971938553 0.059229925026496259 0.053727513338838309 -0.051492971777915952 -0.074273337636675152 -0.024544850897043946 -0.0061479400031459637 -0.012482230968307704 0.025842638663947582 -0.030395934896336664 -0.031000081542879344 -0.023735674917697909 -0.0077964987354101362 0.0073576150421539076 0.0016307857411447914 -0.02011639246096214 -0.0062831933610141277 -0.01197504373267293 -0.017233036740406143
leaf_weight=37 29 28 27 21 20 21 25 39 20 25 36 20 20 37 23 24 24 20 20 37
leaf_count=37 29 28 27 21 20 21 25 39 20 25 36 20 20 37 23 24 24 20 20 37
internal_value=-2.55987e-11 -0.00869314 -0.013432 -0.0176877 -0.02255 -0.0171407 -0.0573093 0.0148085 -0.0134604 -0.00106727 -0.0218929 -0.00735464 -0.0184905 -0.0153848 -0.0019189 0.00123433 -0.0181647 -0.00196648 -0.0167891 -0.0183675
internal_weight=553 516 488 461 401 347 54 60 326 132 194 107 174 138 87 67 101 44 81 61
internal_count=553 516 488 461 401 347 54 60 326 132 194 107 174 138 87 67 101 44 81 61
is_linear=0
shrinkage=0.05


Tree=2
num_leaves=21
num_cat=0
split_feature=58 82 67 90 46 54 19 88 79 13 42 10 79 48 9 18 51 35 39 47
split_gain=215.683 65.3443 54.199 26.3398 30.1393 23.1128 15.7486 13.0899 10.2709 9.63419 4.56483 4.66672 5.22955 1.85705 1.30835 1.27413 0.614687 0.21941 0.266466 0.0324482
threshold=-1.6735727693702516 1.3970404806132197 2.1729226316319519 0.038812929856478107 -1.9389620628421438 1.0484480616107927 0.068409492853159268 0.080599957911062767 -0.86103676175613642 -0.093825453829381483 1.0479321603233378 0.82909237233360389 -0.24098448581665713 -0.49904934523778011 -0.38409652029589614 0.12803724005024267 0.28865289620381224 0.14920589628861317 -0.30246524551849335 -0.70163704715842623
decision_type=2 2 2 2 2 2 2 2 2 2 2 2 2 2 2 2 2 2 2 2
left_child=-1 2 3 4 6 7 -2 8 -6 -5 11 12 14 -14 17 16 -15 18 19 -10
right_child=1 -3 -4 9 5 -7 -8 -9 10 -11 -12 -13 13 15 -16 -17 -18 -19 -20 -21
leaf_value=0.11495479737457477 -0.081276748200942731 0.068757148316273317 0.056268428704114984 -0.0059603968273020461 -0.046105365330974264 -0.058721972777154942 -0.024421901717072442 0.027046437431126835 -0.017520061656832696 0.035543685263536615 0.009834918235851961 -0.037089828206226229 -0.015092195959194846 0.0016088780475978705 -0.026787210302427412 0.010931557684164981 -0.0097969333508184982 -0.018727645847727271 -0.0097706991820954367 -0.014995434028761729
leaf_weight=38 29 26 27 27 24 29 21 20 20 29 22 20 23 27 32 23 21 34 26 35
leaf_count=38 29 26 27 27 24 29 21 20 20 29 22 20 23 27 32 23 21 34 26 35
internal_value=-3.64724e-10 -0.0084821 -0.0125889 -0.016613 -0.0210469 -0.0159415 -0.0573977 -0.0121475 -0.0147008 0.0155328 -0.0120376 -0.0138812 -0.0119552 -0.00274458 -0.017845 0.00125535 -0.00338116 -0.0153567 -0.0139417 -0.0159135
internal_weight=553 515 489 462 406 356 50 327 307 56 283 261 241 94 147 71 48 115 81 55
internal_count=553 515 489 462 406 356 50 327 307 56 283 261 241 94 147 71 48 115 81 55
is_linear=0
shrinkage=0.05


Tree=3
num_leaves=21
num_cat=0
split_feature=58 82 22 26 80 3 19 82 45 53 23 48 72 77 35 19 84 93 19 17
split_gain=194.654 59.4794 50.1023 27.6042 21.2949 31.8961 15.4447 14.7416 11.9328 5.52427 4.17102 4.04237 2.88544 2.20225 1.69322 1.44156 0.550193 0.486734 0.066896 0.0252497
threshold=-1.6735727693702516 1.2993260092827059 2.0416629389414607 1.0492757728533164 0.97750712676133311 -0.016554424512867597 -0.05181804259232569 -0.31914265778271861 0.60040486823950345 0.037833295758549108 -0.26398650384955452 1.0016661093019932 0.41194563424534186 0.037174726140624156 -0.53745315121660575 -0.53588342449350368 0.046086037852043557 -0.60355339059327362 0.63705411740107676 -0.6534346653179427
decision_type=2 2 2 2 2 2 2 2 2 2 2 2 2 2 2 2 2 2 2 2
left_child=-1 2 3 4 5 8 -5 10 9 -2 -7 13 15 17 -15 -9 -16 -11 19 -19
right_child=1 -3 -4 6 -6 7 -8 12 -10 11 -12 -13 -14 14 16 -17 -18 18 -20 -21
leaf_value=0.10920706046255012 -0.03463330750486681 0.061503477445964162 0.061518525413537806 -0.065402595030191621 -0.059414018131792548 0.05566804103553296 -0.019297418677631548 -0.00099708819318385339 -0.053863970711827282 -0.023061967280603224 0.023763053700150479 0.010379331298172475 -0.015012646722607315 0.0013408363494090737 -0.018915238807147201 0.017759460089728236 -0.0083489579880344014 -0.01593564236536622 -0.018255379274487497 -0.013949371315538884
leaf_weight=38 28 29 22 39 21 20 34 21 20 31 21 20 20 35 22 20 28 32 20 32
leaf_count=38 28 29 22 39 21 20 34 21 20 31 21 20 20 35 22 20 28 32 20 32
internal_value=5.74011e-11 -0.008058 -0.0122088 -0.0157045 -0.0104349 -0.00765505 -0.043929 0.016141 -0.0167118 -0.0137156 0.0393265 -0.0110534 0.000557335 -0.0131966 -0.00709384 0.00815245 -0.0129981 -0.0177074 -0.0157313 -0.0149425
internal_weight=553 515 486 464 391 370 73 102 268 248 41 220 61 200 85 41 50 115 84 64
internal_count=553 515 486 464 391 370 73 102 268 248 41 220 61 200 85 41 50 115 84 64
is_linear=0
shrinkage=0.05


Tree=4
num_leaves=20
num_cat=0
split_feature=58 82 67 80 75 26 19 16 58 79 83 57 33 6 33 9 65 0 16
split_gain=175.675 53.6801 45.3926 25.2179 35.0107 11.7016 15.4665 11.3755 10.9136 6.56812 5.8841 5.28572 1.75646 1.91634 0.649495 1.03468 0.302213 0.0532122 0.00978115
threshold=-1.6735727693702516 1.2993260092827059 2.1729226316319519 0.97750712676133311 -0.015720537644698496 1.249067238035966 -0.52355929083941144 1.0627790953748097 -1.2657120486091509 0.41438490821753787 -0.83003884089967528 0.14691460717637947 -0.46021371550769924 -0.2682749473372219 0.094305283111117674 -0.12291912909673214 0.052536372018273804 -0.2682749473372219 -0.60764756220975746
decision_type=2 2 2 2 2 2 2 2 2 2 2 2 2 2 2 2 2 2 2
left_child=-1 2 3 4 5 8 -7 9 -2 11 -10 -6 13 -12 15 16 17 18 -14
right_child=1 -3 -4 -5 7 6 -8 -9 10 -11 12 -13 14 -15 -16 -17 -18 -19 -20
leaf_value=0.10374670546305807 -0.052898100018501287 0.058428301790664938 0.05140579228668854 -0.058115609642118218 0.00036453278203095712 -0.076108991390182859 -0.014671425633132458 0.03534236117407228 -0.039110665971582588 -0.015164301967298663 -0.012891701172505108 0.032586661381646995 -0.014924223124980927 0.0044888475672984172 -0.0088689798968178881 -0.023301036751423129 -0.0082260322890111391 -0.017301038280129435 -0.013360481783747675
leaf_weight=38 20 29 27 32 35 21 20 33 22 37 35 20 20 29 35 39 21 20 20
leaf_count=38 20 29 27 32 35 21 20 33 22 37 35 20 20 29 35 39 21 20 20
internal_value=-2.76765e-10 -0.0076551 -0.0115983 -0.0153045 -0.0120961 -0.0213072 -0.0461394 0.0101577 -0.0174063 0.00112405 -0.0144609 0.0120817 -0.0119847 -0.00501614 -0.014862 -0.01661 -0.0133884 -0.0151952 -0.0141424
internal_weight=553 515 486 459 427 302 41 125 261 92 241 55 219 64 155 120 81 60 40
internal_count=553 515 486 459 427 302 41 125 261 92 241 55 219 64 155 120 81 60 40
is_linear=0
shrinkage=0.05


Tree=5
num_leaves=22
num_cat=0
split_feature=58 80 22 90 46 54 19 49 32 3 24 87 49 43 34 82 23 9 6 9 11
split_gain=158.878 45.9244 41.4164 23.1507 20.7151 17.9942 14.1238 9.24027 8.51176 6.28726 4.94865 3.30289 2.8144 2.14535 1.78502 2.9826 0.610285 0.244327 0.211798 0.164192 0.0727747
threshold=-1.5684450919851602 1.5761836780524956 2.0416629389414607 0.038812929856478107 -1.9389620628421438 1.0484480616107927 0.068409492853159268 0.29901504953476993 -0.025765862253315498 -0.77888733650819431 0.33220826596055641 0.0020809405501421166 0.028662067527828152 -0.26091602085658461 0.32426732564138017 -0.28594092515980901 -0.33025053836736956 -0.031865038852789594 -0.48989442443274828 0.22636018071690436 -0.94129372851388238
decision_type=2 2 2 2 2 2 2 2 2 2 2 2 2 2 2 2 2 2 2 2 2
left_child=10 2 3 4 6 7 -2 9 -5 -6 -1 12 13 -11 15 16 19 20 -18 -14 -15
right_child=1 -3 -4 8 5 -7 -8 -9 -10 11 -12 -13 14 17 -16 -17 18 -19 -20 -21 -22
leaf_value=0.077754945059617372 -0.070993640916100872 0.058508417129516599 0.056058992411602629 0.03592923651966784 -0.032107260350037269 -0.051733175228381979 -0.019139937072759496 0.02229557799641043 -0.0024707314794913176 -0.016717023485236699 0.11250702977180481 0.0075791666293904816 -0.016654112764767238 -6.0162720778449015e-05 -0.0020746793458238247 -0.035893692150712017 -0.013559663550634133 0.0045098108860353626 -0.0072028635442256935 -0.02233320198953152 -0.0041751976257988384
leaf_weight=21 29 25 22 27 37 29 24 20 31 27 20 24 35 22 20 20 38 21 20 20 21
leaf_count=21 29 25 22 27 37 29 24 20 31 27 20 24 35 22 20 20 38 21 20 20 21
internal_value=-1.02163e-10 -0.00758397 -0.0109768 -0.0141484 -0.0183599 -0.0139953 -0.0475127 -0.0106279 0.0154051 -0.0127868 0.0947072 -0.0101194 -0.0118603 -0.00489732 -0.0160016 -0.0180959 -0.0149459 8.9114e-05 -0.0113677 -0.0187192 -0.00206983
internal_weight=553 512 487 465 407 354 53 325 58 305 41 268 244 91 153 133 113 64 58 55 43
internal_count=553 512 487 465 407 354 53 325 58 305 41 268 244 91 153 133 113 64 58 55 43
is_linear=0
shrinkage=0.05


end of trees

feature_importances:
Column_19=8
Column_58=6
Column_80=6
Column_54=5
Column_82=5
Column_3=4
Column_9=4
Column_16=4
Column_46=4
Column_67=4
Column_79=4
Column_90=4
Column_93=4
Column_10=3
Column_22=3
Column_23=3
Column_32=3
Column_53=3
Column_94=3
Column_0=2
Column_6=2
Column_11=2
Column_26=2
Column_33=2
Column_35=2
Column_48=2
Column_49=2
Column_65=2
Column_2=1
Column_8=1
Column_13=1
Column_17=1
Column_18=1
Column_24=1
Column_34=1
Column_39=1
Column_42=1
Column_43=1
Column_45=1
Column_47=1
Column_51=1
Column_55=1
Column_57=1
Column_72=1
Column_75=1
Column_77=1
Column_83=1
Column_84=1
Column_87=1
Column_88=1

parameters:
[boosting: gbdt]
[objective: regression]
[metric: rmse]
[tree_learner: serial]
[device_type: cpu]
[data_sample_strategy: bagging]
[data: ]
[valid: ]
[num_iterations: 1500]
[learning_rate: 0.05]
[num_leaves: 31]
[num_threads: 0]
[seed: 42]
[deterministic: 0]
[force_col_wise: 0]
[force_row_wise: 0]
[histogram_pool_size: -1]
[max_depth: -1]
[min_data_in_leaf: 20]
[min_sum_hessian_in_leaf: 0.001]
[bagging_fraction: 0.8]
[pos_bagging_fraction: 1]
[neg_bagging_fraction: 1]
[bagging_freq: 0]
[bagging_seed: 400]
[bagging_by_query: 0]
[feature_fraction: 0.8]
[feature_fraction_bynode: 1]
[feature_fraction_seed: 30056]
[extra_trees: 0]
[extra_seed: 12879]
[early_stopping_round: 0]
[early_stopping_min_delta: 0]
[first_metric_only: 0]
[max_delta_step: 0]
[lambda_l1: 0]
[lambda_l2: 0]
[linear_lambda: 0]
[min_gain_to_split: 0]
[drop_rate: 0.1]
[max_drop: 50]
[skip_drop: 0.5]
[xgboost_dart_mode: 0]
[uniform_drop: 0]
[drop_seed: 17869]
[top_rate: 0.2]
[other_rate: 0.1]
[min_data_per_group: 100]
[max_cat_threshold: 32]
[cat_l2: 10]
[cat_smooth: 10]
[max_cat_to_onehot: 4]
[top_k: 20]
[monotone_constraints: ]
[monotone_constraints_method: basic]
[monotone_penalty: 0]
[feature_contri: ]
[forcedsplits_filename: ]
[refit_decay_rate: 0.9]
[cegb_tradeoff: 1]
[cegb_penalty_split: 0]
[cegb_penalty_feature_lazy: ]
[cegb_penalty_feature_coupled: ]
[path_smooth: 0]
[interaction_constraints: ]
[verbosity: -1]
[saved_feature_importance_type: 0]
[use_quantized_grad: 0]
[num_grad_quant_bins: 4]
[quant_train_renew_leaf: 0]
[stochastic_rounding: 1]
[linear_tree: 0]
[max_bin: 255]
[max_bin_by_feature: ]
[min_data_in_bin: 3]
[bin_construct_sample_cnt: 200000]
[data_random_seed: 175]
[is_enable_sparse: 1]
[enable_bundle: 1]
[use_missing: 1]
[zero_as_missing: 0]
[feature_pre_filter: 1]
[pre_partition: 0]
[two_round: 0]
[header: 0]
[label_column: ]
[weight_column: ]
[group_column: ]
[ignore_column: ]
[categorical_feature: ]
[forcedbins_filename: ]
[precise_float_parser: 0]
[parser_config_file: ]
[objective_seed: 16083]
[num_class: 1]
[is_unbalance: 0]
[scale_pos_weight: 1]
[sigmoid: 1]
[boost_from_average: 1]
[reg_sqrt: 0]
[alpha: 0.9]
[fair_c: 1]
[poisson_max_delta_step: 0.7]
[tweedie_variance_power: 1.5]
[lambdarank_truncation_level: 30]
[lambdarank_norm: 1]
[label_gain: ]
[lambdarank_position_bias_regularization: 0]
[eval_at: ]
[multi_error_top_k: 1]
[auc_mu_weights: ]
[num_machines: 1]
[local_listen_port: 12400]
[time_out: 120]
[machine_list_filename: ]
[machines: ]
[gpu_platform_id: -1]
[gpu_device_id: -1]
[gpu_use_dp: 0]
[num_gpu: 1]

end of parameters

pandas_categorical:null
