tree
version=v4
num_class=1
num_tree_per_iteration=1
label_index=0
max_feature_idx=96
objective=regression
feature_names=Column_0 Column_1 Column_2 Column_3 Column_4 Column_5 Column_6 Column_7 Column_8 Column_9 Column_10 Column_11 Column_12 Column_13 Column_14 Column_15 Column_16 Column_17 Column_18 Column_19 Column_20 Column_21 Column_22 Column_23 Column_24 Column_25 Column_26 Column_27 Column_28 Column_29 Column_30 Column_31 Column_32 Column_33 Column_34 Column_35 Column_36 Column_37 Column_38 Column_39 Column_40 Column_41 Column_42 Column_43 Column_44 Column_45 Column_46 Column_47 Column_48 Column_49 Column_50 Column_51 Column_52 Column_53 Column_54 Column_55 Column_56 Column_57 Column_58 Column_59 Column_60 Column_61 Column_62 Column_63 Column_64 Column_65 Column_66 Column_67 Column_68 Column_69 Column_70 Column_71 Column_72 Column_73 Column_74 Column_75 Column_76 Column_77 Column_78 Column_79 Column_80 Column_81 Column_82 Column_83 Column_84 Column_85 Column_86 Column_87 Column_88 Column_89 Column_90 Column_91 Column_92 Column_93 Column_94 Column_95 Column_96
feature_infos=[-3.1436137381203491:1.8747339926573592] [-2.9456947730335923:2.3023461922382684] [-1.9214982655591348:2.3127511643628611] [-2.8206285863213494:3.1396152193407207] [-3.1436137381203491:1.8747339926573592] [-3.1436137381203491:1.8747339926573592] [-3.1436137381203491:1.8747339926573592] [-3.1436137381203491:1.8747339926573592] [-3.1436137381203491:1.8747339926573592] [-3.1436137381203491:1.8747339926573592] [-3.1436137381203491:1.8747339926573592] [-2.4167236952191371:1.8747339926573592] [-2.9456947730335923:2.3023461922382684] [-2.9456947730335923:2.3023461922382684] [-2.9456947730335923:2.3023461922382684] [-2.9456947730335923:2.3023461922382684] [-2.9456947730335923:2.3023461922382684] [-2.9456947730335923:2.3023461922382684] [-2.9456947730335923:2.3023461922382684] [-2.9456947730335923:2.1095348647637602] [-1.9214982655591348:2.3127511643628611] [-1.9214982655591348:2.3127511643628611] [-1.9214982655591348:2.3127511643628611] [-1.9214982655591348:2.3127511643628611] [-1.9214982655591348:2.3127511643628611] [-1.9214982655591348:2.3127511643628611] [-1.9214982655591348:2.3127511643628611] [-1.9214982655591348:2.3127511643628611] [-2.8206285863213494:3.1396152193407207] [-2.8206285863213494:3.1396152193407207] [-2.8206285863213494:3.1396152193407207] [-2.8206285863213494:3.1396152193407207] [-2.8206285863213494:3.1396152193407207] [-2.8206285863213494:3.1396152193407207] [-2.8206285863213494:3.1396152193407207] [-2.8206285863213494:3.1396152193407207] [-3.0944400997221435:1.8599716246029767] [0.0026764592121244:1.645293274289489] [-3.1436137381203491:1.8304468884942124] [-2.9960928229257324:1.8747339926573592] [-2.9296301880955831:1.8022133054737608] [0.027759399514255201:1.4822928362679113] [-3.1436137381203491:1.705332494534648] [-2.7010509925364974:1.8747339926573592] [-2.5877502371402685:1.7005705465951813] [0.057965947907529097:1.4654300354425009] [-3.1436137381203491:1.5226315663682937] [-1.9476856939459719:1.8747339926573592] [-2.9180705673625682:2.2473998789928071] [0.0024028631714775:1.3393603788891415] [-2.9456947730335923:2.137507252501885] [-2.8628221560205205:2.3023461922382684] [-2.8358259391117802:2.0464691477191801] [0.0065770337413709997:1.2411263048401728] [-2.9456947730335923:1.9437896307376168] [-2.6970769219943778:2.3023461922382684] [-2.6496765452135107:1.9100426336467944] [0.026125602957564501:1.1095090014648661] [-2.9456947730335923:1.612299162685332] [-2.2827138369290214:2.3023461922382684] [-1.9140965071559533:2.3091775024481351] [0.00066197234498080004:0.85738701167726239] [-1.9214982655591348:2.3020301786186832] [-1.8992929903495912:2.3127511643628611] [-1.8784728735646239:2.2863502102820434] [0.0139811846015992:0.938929978413098] [-1.9214982655591348:2.218671354343023] [-1.843731264033748:2.3127511643628611] [-1.7899148409758243:2.1363204820716875] [0.058773164469634299:1.1384432322602362] [-1.9214982655591348:2.0276220029102845] [-1.6443517680489976:2.3127511643628611] [-2.7516742620645029:3.1287580558595529] [0:1.8104419330760275] [-2.8206285863213494:3.1070437288972159] [-2.6354906964931168:3.1396152193407207] [-2.5601258145824897:3.0853294019348798] [0.0020680105006647001:2.4812887862777475] [-2.8206285863213494:3.0093292575667019] [-2.2000396680097309:3.1396152193407207] [-2.1253131764258288:2.9903292214746577] [0.0093116775430298008:2.5235108937734081] [-2.8206285863213494:2.8139003149056738] [-1.4654962184571301:3.1396152193407207] [-0.95199108778837038:2.8290121784015625] [-2.7880157955644478:2.8290121784015625] [-2.0538181296402058:2.2789837836424791] [-2.1993229536789611:2.2789837836424791] [-0.98357508756868395:1.3940667050027256] [-1.2596528450146576:1.226362536703284] [-2.8555537924868721:2.0461820012180407] [-2.8555537924868721:2.8555537924868721] [0:23] [-1:1] [-1:1] [1:6] [1:6]
tree_sizes=2161 2014 1854 2183 1932 2017 2016 1935 1935 2016 2027 1943 2021 2031 1855 2040 2098 1926 2117 1950 1867 2125 2041 2043 1940 2048 1964 2063 2236 1962 2063 1894 2071 2132 2045 1892 2057 1966 2251 2051 2158

Tree=0
num_leaves=24
num_cat=0
split_feature=39 38 82 55 58 23 94 70 81 38 57 43 39 51 69 11 29 1 32 20 39 39 3
split_gain=221.258 71.7299 42.8163 21.0841 19.8602 17.6757 14.9157 8.39856 7.72714 5.15972 4.85489 4.84222 3.18845 2.76202 1.69443 1.60764 1.37305 1.31436 1.2096 0.740986 0.698891 0.344731 0.176424
threshold=-0.38409652029589614 0.52929593412458076 -1.7653956143169667 1.3498496166747549 0.21092581714120659 0.20150264202679907 1.0000000180025095e-35 0.1459862418305293 0.15477480971577279 1.1479903169683534 0.16740475895505821 -0.10137128577559838 -1.1534635924477443 0.20438990740981564 0.098535073139791471 0.11214277687753792 0.094305283111117674 0.42027275867331093 -0.42197496049554378 -0.20371948824667702 0.93704820476534212 -0.57771333103712974 -0.37157629064815506
decision_type=2 2 2 2 2 2 2 2 2 2 2 2 2 2 2 2 2 2 2 2 2 2 2
left_child=2 3 -1 7 6 9 10 11 17 15 21 -2 -8 14 -13 20 -11 -9 -14 -16 -3 -4 -20
right_child=1 5 4 -5 -6 -7 12 8 -10 16 -12 13 18 -15 19 -17 -18 -19 22 -21 -22 -23 -24
leaf_value=-0.22709056814996109 -0.12427241460407309 -0.073989099484228799 -0.14897972359909983 -0.16439297932167224 -0.20646204314782593 -0.11067117750394466 -0.18328312086218965 -0.10714448436130455 -0.15094953915319714 -0.04083571917965384 -0.11436064067884656 -0.10669728513849083 -0.15252256014255899 -0.11807611023663851 -0.097474361648453994 -0.084741774197959613 -0.0589371102946257 -0.12427296415539921 -0.16870152611228659 -0.08491537887745601 -0.060770828198933313 -0.140004083442753 -0.16261778055600876
leaf_weight=27 31 20 20 24 20 25 21 21 25 20 20 29 26 20 24 20 22 24 26 23 20 23 22
leaf_count=27 31 20 20 24 20 25 21 21 25 20 20 29 26 20 24 20 22 24 26 23 20 23 22
internal_value=-0.127212 -0.102938 -0.168419 -0.120147 -0.15952 -0.0729933 -0.153578 -0.114756 -0.128662 -0.0637585 -0.134713 -0.107092 -0.166088 -0.101544 -0.0971929 -0.0731672 -0.0503174 -0.11628 -0.161208 -0.0913285 -0.06738 -0.144179 -0.165913
internal_weight=553 348 205 221 178 127 158 197 70 102 63 127 95 96 76 60 42 45 74 47 40 43 48
internal_count=553 348 205 221 178 127 158 197 70 102 63 127 95 96 76 60 42 45 74 47 40 43 48
is_linear=0
shrinkage=1


Tree=1
num_leaves=22
num_cat=0
split_feature=0 42 82 54 94 86 37 11 22 0 67 0 14 4 67 25 18 19 0 75 3
split_gain=209.775 62.5509 39.4875 17.7428 17.3731 15.9965 10.0704 7.42603 5.48342 9.89058 3.4151 3.32401 3.2458 1.55712 1.18127 0.914112 0.848813 0.660333 0.508439 0.336357 0.136351
threshold=-0.37908468588498517 0.52929593412458076 -1.7653956143169667 0.26951384627007152 1.0000000180025095e-35 -0.061196594734325892 0.11418649321160501 0.17864666415478772 0.68894717599579369 0.11406799554397691 1.5877839194105732 -1.1646634844673156 0.55621063521144931 0.31797777679026035 0.37245481517114393 -0.54685772900904317 -0.55495728324269156 -0.60066099059141664 -0.53056430128852672 0.012360993935826901 -0.376393811841432
decision_type=2 2 2 2 2 2 2 2 2 2 2 2 2 2 2 2 2 2 2 2 2
left_child=2 5 -1 4 6 -2 18 12 9 14 -10 -6 -3 -11 16 -13 -7 -14 -4 -15 -17
right_child=1 7 3 -5 11 8 -8 -9 10 13 -12 15 17 19 -16 20 -18 -19 -20 -21 -22
leaf_value=-0.087826584324692245 -0.023494322324792545 0.054449778569467144 -0.019507277336332104 -0.064613660656172661 -0.053686577894470913 0.01070033111050725 0.026310643299948422 0.037170103115204259 -0.012128403957467527 0.024928311903316243 0.014027194247151223 -0.023724445424973966 0.069209413081407545 0.044764058156446983 0.017472033513089024 -0.038373169432515689 -0.0020854097532315391 0.082057881951332096 -0.0094309850019358467 0.035804875940084462 -0.03272828668355942
leaf_weight=33 30 33 31 29 22 25 20 32 24 26 26 25 20 22 24 23 27 20 21 20 20
leaf_count=33 30 33 31 29 22 25 20 32 24 26 26 25 20 22 24 23 27 20 21 20 20
internal_value=3.02301e-10 0.0254103 -0.0373214 -0.0285954 -0.0221477 0.0104838 -0.00384116 0.0572536 0.0157381 0.0206915 0.00147251 -0.0367929 0.0660574 0.0345447 0.00829646 -0.0313273 0.00406158 0.0756336 -0.015438 0.0404978 -0.0357476
internal_weight=553 329 224 191 162 224 72 105 194 144 50 90 73 68 76 68 52 40 52 42 43
internal_count=553 329 224 191 162 224 72 105 194 144 50 90 73 68 76 68 52 40 52 42 43
is_linear=0
shrinkage=0.05


Tree=2
num_leaves=20
num_cat=0
split_feature=39 42 82 55 58 87 27 39 86 39 70 54 5 39 65 70 25 1 77
split_gain=180.655 63.363 35.2805 18.3456 16.6085 9.64591 8.83872 7.09547 6.85834 5.11554 5.06922 3.78376 2.11027 2.01578 1.57648 0.631589 0.4798 0.432619 0.361968
threshold=-0.38409652029589614 0.52929593412458076 -1.7653956143169667 1.3498496166747549 0.21092581714120659 -0.024720387760344045 -0.22034026152413677 -0.10667576963343854 0.022524464120070354 -0.99547198002710968 -0.064498717298801689 0.63408788846437292 0.32058174636033793 -0.67257206044744511 0.16983400864066031 -0.73801712282086684 -0.33025053836736956 -0.074025291237463736 0.057991799773594956
decision_type=2 2 2 2 2 2 2 2 2 2 2 2 2 2 2 2 2 2 2
left_child=2 3 -1 5 6 -2 -4 17 -3 -8 12 16 15 18 -12 -9 -10 -7 -11
right_child=1 8 4 -5 -6 7 9 10 11 13 14 -13 -14 -15 -16 -17 -18 -19 -20
leaf_value=-0.090492898777679173 -0.014949264337441752 0.031531818442046645 0.0023269279428792221 -0.033590580227125126 -0.072083761543035516 0.0054946111869953931 -0.045141439719332592 0.017325954247886934 0.057351498250608091 -0.025387795359799362 0.004486397875321878 0.075205543541139175 0.039063689547280477 -0.013889641716220492 0.021909912203554996 0.02868154633045197 0.047404202547940338 -0.0039990211302730521 -0.033363927721977236
leaf_weight=27 28 25 27 24 20 21 36 24 27 33 37 31 36 37 20 25 22 28 25
leaf_count=27 28 25 27 24 20 21 36 24 27 33 37 31 36 37 20 25 22 28 25
internal_value=5.18606e-11 0.0219341 -0.0372344 0.00790951 -0.0291559 0.0124575 -0.023722 0.0164752 0.054391 -0.0290909 0.0221363 0.0615344 0.0298724 -0.0230085 0.0105999 0.0231196 0.0528854 6.96784e-05 -0.0288258
internal_weight=553 348 205 243 178 219 158 191 105 131 142 80 85 95 57 49 49 49 58
internal_count=553 348 205 243 178 219 158 191 105 131 142 80 85 95 57 49 49 49 58
is_linear=0
shrinkage=0.05


Tree=3
num_leaves=24
num_cat=0
split_feature=39 42 82 55 58 94 22 67 77 4 93 13 39 34 42 79 49 25 94 82 25 26 4
split_gain=163.041 57.1851 31.8407 16.5569 14.9892 11.0825 10.7021 7.63197 6.32782 6.3211 3.92838 3.25722 2.42833 1.92359 2.02918 1.78555 1.13611 0.851775 0.408984 0.394039 0.30218 0.253769 0.235326
threshold=-0.38409652029589614 0.52929593412458076 -1.7653956143169667 1.3498496166747549 0.21092581714120659 1.0000000180025095e-35 0.7638349212354002 1.431425556899762 0.17584487427204293 0.25124190147743664 0.60355339059327384 0.6230237255038934 -1.1534635924477443 -0.83450872745149118 -0.37359243978244444 0.19441828271180009 0.082872617013043409 -0.90351403334644875 -0.37940952255126009 -0.48587879469544576 -0.36211008560765234 0.055686420830113111 -0.64090474895333016
decision_type=2 2 2 2 2 2 2 2 2 2 2 2 2 2 2 2 2 2 2 2 2 2 2
left_child=2 3 -1 6 5 10 9 -8 11 13 -4 20 -7 -2 -15 -11 18 -14 -16 -13 -3 -19 -12
right_child=1 8 4 -5 -6 12 7 -9 -10 15 22 19 17 14 16 -17 -18 21 -20 -21 -22 -23 -24
leaf_value=-0.085968254230640556 -0.0010322456565918401 0.052789857536554345 0.010769871903837405 -0.03191105171572417 -0.06847957581281662 -0.04832574824492137 -0.028502107032303076 0.0093263720880107336 0.029714183390140536 0.039543298631906511 -0.019117360331472898 0.073584656119346614 -0.020539070262263218 0.028668389334343375 0.010539580846340289 0.021501912688836458 0.0012179573913189499 -0.036708672841389976 0.020418771957047284 0.063659452944993977 0.044098194912075998 -0.029635039903223515 -0.011539053898304702
leaf_weight=27 25 20 22 24 20 21 24 30 25 32 21 20 21 20 22 24 22 21 20 20 20 32 20
leaf_count=27 25 20 22 24 20 21 24 30 25 32 21 20 21 20 22 24 22 21 20 20 20 32 20
internal_value=2.08582e-10 0.0208374 -0.0353727 0.00751403 -0.0276981 -0.0225359 0.0118346 -0.00748629 0.0516714 0.0181578 -0.00627474 0.058533 -0.0333196 0.0111431 0.0147668 0.0318113 0.0104225 -0.0290611 0.015244 0.0686221 0.048444 -0.0324378 -0.0154206
internal_weight=553 348 205 243 178 158 219 54 105 165 63 80 95 109 84 56 64 74 42 40 40 53 41
internal_count=553 348 205 243 178 158 219 54 105 165 63 80 95 109 84 56 64 74 42 40 40 53 41
is_linear=0
shrinkage=0.05


Tree=4
num_leaves=21
num_cat=0
split_feature=0 42 82 58 94 86 37 11 22 0 94 29 69 37 39 4 5 31 0 39
split_gain=155.262 43.203 31.1069 15.4087 14.283 13.127 8.19835 5.96922 4.4297 4.84264 2.76351 2.72363 2.38613 2.24706 1.07287 0.785156 0.729186 0.707312 0.547696 0.186192
threshold=-0.30779052295874015 0.52929593412458076 -1.7653956143169667 0.21092581714120659 1.0000000180025095e-35 -0.061196594734325892 0.1522360584904153 0.20800229700423054 0.055686420830113111 0.13791601430304098 0.1294095225512602 0.094305283111117674 0.61060515737314891 0.11226003276794772 -0.83170130225537775 1.2907502800802579 0.32058174636033793 -0.28088927243776157 -0.52033759889017395 -0.99547198002710968
decision_type=2 2 2 2 2 2 2 2 2 2 2 2 2 2 2 2 2 2 2 2
left_child=2 5 -1 4 6 -2 18 10 9 -7 -3 13 14 17 19 -12 -11 -10 -4 -6
right_child=1 7 3 -5 12 8 -8 -9 11 16 15 -13 -14 -15 -16 -17 -18 -19 -20 -21
leaf_value=-0.075728238170797185 -0.022025350946933031 0.044645807209114236 -0.016659330954665649 -0.065055593699216846 -0.034376038965724769 0.008360034479453651 0.024390270020812749 0.029788517528052991 -0.00031433655901558021 0.02483666696302269 0.056703755110502241 -0.0064379674641208522 -0.043943627497979573 0.025904615431846606 -0.017540566640144046 0.069881021403349369 0.036434107838254987 0.012514541493978218 -0.0073058855880437229 -0.028194061795185354
leaf_weight=33 28 30 34 20 21 37 20 29 22 23 20 27 28 21 22 26 33 21 29 29
leaf_count=33 28 30 34 20 21 37 20 29 22 23 20 27 28 21 22 26 33 21 29 29
internal_value=1.57054e-10 0.0228595 -0.0307054 -0.0233864 -0.0188324 0.00986907 -0.00349979 0.0490878 0.0147226 0.0223967 0.0564521 0.0068798 -0.0315584 0.0124982 -0.0267419 0.0641518 0.0316709 0.00595093 -0.0123538 -0.0307905
internal_weight=553 317 236 203 183 212 83 105 184 93 76 91 100 64 72 46 56 43 63 50
internal_count=553 317 236 203 183 212 83 105 184 93 76 91 100 64 72 46 56 43 63 50
is_linear=0
shrinkage=0.05


Tree=5
num_leaves=22
num_cat=0
split_feature=0 42 17 74 94 23 41 81 77 55 0 25 13 1 13 24 39 0 82 25 30
split_gain=140.124 38.9907 28.5599 18.2605 13.1158 9.07286 7.91975 5.74206 5.49044 4.80913 4.41583 3.28513 2.64086 1.03024 1.10552 0.781578 0.515557 0.481477 0.343615 0.265406 0.191612
threshold=-0.30779052295874015 0.52929593412458076 0.94367605947924005 -0.016554424512867597 1.0000000180025095e-35 0.59576334687138233 0.28636641517878725 0.15477480971577279 0.17584487427204293 0.57803474471162042 0.045100961050301501 1.2211494706226336 0.6230237255038934 -0.56069517043531303 -0.2824393656273903 -0.90580886491705481 -0.5969733119194246 -0.10137128577559838 -0.48587879469544576 -0.36211008560765234 -0.38468947193083675
decision_type=2 2 2 2 2 2 2 2 2 2 2 2 2 2 2 2 2 2 2 2 2
left_child=2 5 4 -4 6 9 16 -7 12 10 17 15 19 -12 -15 -6 -1 -2 -14 -3 -17
right_child=1 8 3 -5 11 7 -8 -9 -10 -11 13 -13 18 14 -16 20 -18 -19 -20 -21 -22
leaf_value=-0.019033240389240827 0.0037055607957380086 0.048013355135917667 -0.031004966949594433 -0.086645719408988964 -0.019512146957164918 0.0070953361450365798 0.023222384932450952 -0.023480701539665461 0.026180591821670537 -0.0067995293485000738 0.018155178179343544 -0.04887758280549731 0.066743603944778448 0.038649052071074649 0.024453012383310126 -0.033827202093033568 -0.0094498498779204167 0.013646650190154711 0.05747517883777619 0.039867705376818774 -0.027599948942661285
leaf_weight=23 29 20 29 30 26 34 20 28 25 20 24 21 20 24 32 21 36 21 20 20 30
leaf_count=23 29 20 29 30 26 34 20 28 25 20 24 21 20 24 32 21 36 21 20 20 30
internal_value=-2.2081e-10 0.0217165 -0.0291701 -0.0592969 -0.0191278 0.00937561 -0.0039685 -0.0067132 0.0466334 0.0160257 0.0195372 -0.0313481 0.053025 0.0268225 0.030537 -0.0265673 -0.0131857 0.00788082 0.0621094 0.0439405 -0.0301641
internal_weight=553 317 236 59 177 212 79 62 105 150 130 98 80 80 56 77 59 50 40 40 51
internal_count=553 317 236 59 177 212 79 62 105 150 130 98 80 80 56 77 59 50 40 40 51
is_linear=0
shrinkage=0.05


Tree=6
num_leaves=22
num_cat=0
split_feature=39 4 82 86 58 11 94 84 41 70 18 39 94 69 57 4 22 40 4 6 47
split_gain=119.84 34.3876 24.2397 14.186 10.9075 9.71198 8.36563 4.83437 4.21433 3.00858 2.85064 2.59607 2.56281 2.54278 1.573 2.30739 1.45848 1.17324 0.598468 0.313255 0.301068
threshold=-0.38409652029589614 0.78197684361663511 -1.7653956143169667 -0.037534516234696148 0.21092581714120659 0.20800229700423054 -0.37940952255126009 0.022399784039143104 0.35938108383167638 -0.15474502455284214 -0.6190103600814254 0.4331704519190121 0.1294095225512602 0.61060515737314891 0.33418636946952013 0.028266768104099855 -0.40137439637303229 -0.83602024763038429 1.3109301698069074 -0.2682749473372219 -0.94060311054520895
decision_type=2 2 2 2 2 2 2 2 2 2 2 2 2 2 2 2 2 2 2 2 2
left_child=2 3 -1 8 6 12 10 14 -2 11 -4 16 -3 17 15 19 -9 20 -14 -5 -8
right_child=1 5 4 7 -6 -7 13 9 -10 -11 -12 -13 18 -15 -16 -17 -18 -19 -20 -21 -22
leaf_value=-0.074471783417242546 -0.0359205954708159 0.039701747361881042 -0.012868444848319758 -0.003613849480170757 -0.058418861329555517 0.019717553313318138 -0.030171291254184864 0.010431050948682241 -0.0042079473845660692 0.0032845057293095373 0.012611244649936758 0.035014377173149223 0.05212155714631081 -0.040834966053565347 -0.0083882164023816579 0.020839562923753299 0.027388986007177402 -0.013561509717972235 0.063725669026374818 0.0048589008976705379 -0.023227295037862417
leaf_weight=27 20 30 23 20 20 37 27 32 22 22 21 33 20 24 20 22 21 26 25 24 37
leaf_count=27 20 30 23 20 20 37 27 32 22 22 21 33 20 24 20 22 21 26 25 24 37
internal_value=-1.50624e-10 0.0178647 -0.0303265 0.00703708 -0.0236303 0.0406801 -0.0192267 0.0127409 -0.0193092 0.0197842 -0.000707684 0.0240051 0.0510217 -0.0263743 0.00389585 0.00761829 0.0171502 -0.0225182 0.0585683 0.00100765 -0.0261568
internal_weight=553 348 205 236 178 112 158 194 42 108 44 86 75 114 86 66 53 90 45 44 64
internal_count=553 348 205 236 178 112 158 194 42 108 44 86 75 114 86 66 53 90 45 44 64
is_linear=0
shrinkage=0.05


Tree=7
num_leaves=21
num_cat=0
split_feature=0 42 17 28 94 86 37 86 66 0 24 2 27 54 34 33 32 39 1 71
split_gain=114.296 31.9695 23.9465 15.2769 10.7049 9.93506 7.00888 5.01334 3.39942 3.30287 2.67917 2.45566 2.55048 2.16561 1.47535 0.811488 0.764024 0.480135 0.331824 0.203208
threshold=-0.30779052295874015 0.52929593412458076 0.94367605947924005 -0.016554424512867597 1.0000000180025095e-35 -0.061196594734325892 0.1522360584904153 0.022524464120070354 0.048836649441641601 0.41597399242324623 1.1010729890469175 0.67792111334831573 -0.11377628964818094 0.63408788846437292 -0.3187224336248779 0.094305283111117674 -0.52009890027910788 -0.5969733119194246 0.43658636855949245 0.73574664611111873
decision_type=2 2 2 2 2 2 2 2 2 2 2 2 2 2 2 2 2 2 2 2
left_child=2 5 4 -4 6 -2 17 -3 9 14 16 -10 -13 18 -7 -16 -6 -1 -9 -18
right_child=1 7 3 -5 10 8 -8 13 11 -11 -12 12 -14 -15 15 -17 19 -19 -20 -21
leaf_value=-0.017974533885717393 -0.019308492268568705 0.022631429014727474 -0.025267687688868209 -0.076514899008201839 -0.016470859665423634 0.0030609432357148487 0.022125408779829742 0.03698852247602883 -0.0051318237983754705 0.031874885305296634 -0.044020016988118492 0.025121948938994183 0.00047938401943870956 0.058625626756298933 0.011744516794211589 0.024637649532245554 -0.029633990201083101 -0.0086470248932773996 0.045302970068795342 -0.023246857449412347
leaf_weight=22 28 25 26 33 24 26 20 21 35 32 21 21 21 31 26 23 33 37 28 20
leaf_count=22 28 25 26 33 24 26 20 21 35 32 21 21 21 31 26 23 33 37 28 20
internal_value=7.54489e-11 0.0196133 -0.0263449 -0.0539314 -0.0171494 0.00843859 -0.00345407 0.0421755 0.012661 0.0184262 -0.0281896 0.00464953 0.0128007 0.048283 0.0126881 0.0177964 -0.0238722 -0.0121251 0.0417396 -0.0272238
internal_weight=553 317 236 59 177 212 79 105 184 107 98 77 42 80 75 49 77 59 49 53
internal_count=553 317 236 59 177 212 79 105 184 107 98 77 42 80 75 49 77 59 49 53
is_linear=0
shrinkage=0.05


Tree=8
num_leaves=21
num_cat=0
split_feature=0 42 82 58 94 86 65 86 22 0 22 54 69 34 28 39 68 0 1 0
split_gain=103.152 28.8524 21.8269 10.0193 9.71255 8.96639 6.20612 4.52454 3.35216 4.3808 2.54791 1.95447 1.68388 1.04299 0.897139 0.843042 0.752265 0.390363 0.299471 0.155101
threshold=-0.30779052295874015 0.52929593412458076 -1.7653956143169667 0.21092581714120659 1.0000000180025095e-35 -0.061196594734325892 0.15010060824001623 0.022524464120070354 0.68894717599579369 0.11406799554397691 1.4804402680138915 0.63408788846437292 0.71503537499195002 -0.3187224336248779 0.19441828271180009 -0.81609937297281443 -0.25957110647215637 -0.52033759889017395 0.43658636855949245 -0.99547198002710968
decision_type=2 2 2 2 2 2 2 2 2 2 2 2 2 2 2 2 2 2 2 2
left_child=2 5 -1 4 6 -2 17 -3 9 13 -10 18 15 -7 16 19 -11 -4 -9 -6
right_child=1 7 3 -5 12 8 -8 11 10 14 -12 -13 -14 -15 -16 -17 -18 -19 -20 -21
leaf_value=-0.062741564981865158 -0.01834306779783219 0.021499857872724536 -0.015166319786540925 -0.05249770887196064 -0.02830677580833435 0.0017132453339843033 0.018855888326652349 0.035139095948432529 -0.011904276382516732 0.023038323862212048 0.011426545441150666 0.055694343678412896 -0.037590400550676431 0.014113835965593655 0.017910197471199488 -0.01362934165323774 0.036587806344032289 -0.0070217018747436152 0.043037821512137142 -0.023013542063774602
leaf_weight=33 28 25 31 20 25 39 24 21 22 21 25 31 23 30 27 21 20 28 28 31
leaf_count=33 28 25 31 20 25 39 24 21 22 21 25 31 23 30 27 21 20 28 28 31
internal_value=4.99765e-11 0.0186326 -0.0250277 -0.0188969 -0.0152246 0.00801666 -0.00258099 0.0400667 0.0120279 0.0159808 0.000505735 0.0458688 -0.0257188 0.00710481 0.0249873 -0.0221728 0.0296478 -0.0113011 0.0396527 -0.0253766
internal_weight=553 317 236 203 183 212 83 105 184 137 47 80 100 69 68 77 41 59 49 56
internal_count=553 317 236 203 183 212 83 105 184 137 47 80 100 69 68 77 41 59 49 56
is_linear=0
shrinkage=0.05


Tree=9
num_leaves=22
num_cat=0
split_feature=0 42 82 43 86 61 86 52 22 4 67 49 54 25 34 69 47 65 1 68 0
split_gain=93.095 26.0393 19.6988 9.02736 8.09217 6.16045 4.0834 3.72775 3.02533 4.20397 2.41703 2.15319 1.76391 1.60546 1.46502 0.63623 0.585952 0.539054 0.270273 0.26356 0.157065
threshold=-0.30779052295874015 0.52929593412458076 -1.7653956143169667 -0.78635719097607748 -0.061196594734325892 0.16770416829942739 0.022524464120070354 -0.55657853069591179 0.68894717599579369 0.31797777679026035 1.5877839194105732 0.04908926526456716 0.63408788846437292 -0.18751696551444433 -0.3187224336248779 0.16916859503614867 -0.52033759889017395 0.051127338942412358 0.43658636855949245 -0.17992439742433142 -1.074546084328851
decision_type=2 2 2 2 2 2 2 2 2 2 2 2 2 2 2 2 2 2 2 2 2
left_child=2 4 -1 5 -2 13 -3 -5 9 14 -10 16 18 -4 15 -6 -9 -16 -8 -11 -15
right_child=1 6 3 7 8 -7 12 11 10 19 -12 -13 -14 20 17 -17 -18 -19 -20 -21 -22
leaf_value=-0.059604488222888025 -0.017425914344910001 0.020424864605069162 -0.0093617231026291853 0.0067737500788643962 0.0079934692904353143 -0.049539055689065546 0.033382141120022253 -0.014416944264219359 -0.012136068872530902 0.024382860066058734 0.010670712648593159 -0.027212471955201847 0.05290962640316256 -0.029661587327718737 0.010755277265395437 -0.0039711311273276807 -0.0043115463253343483 0.021502906142268331 0.040885930774467338 0.032154543739743531 -0.023767895767321953
leaf_weight=33 28 25 20 30 25 27 21 26 21 24 26 22 31 20 28 20 32 20 28 20 26
leaf_count=33 28 25 20 30 25 27 21 26 21 24 26 22 31 20 28 20 32 20 28 20 26
internal_value=4.45531e-11 0.017701 -0.0237763 -0.017952 0.00761583 -0.0294192 0.0380633 -0.00825702 0.0114265 0.0151817 0.000480449 -0.0138936 0.0435754 -0.0211884 0.0091572 0.00267587 -0.00884155 0.0152335 0.03767 0.0279154 -0.0263304
internal_weight=553 317 236 203 212 93 105 110 184 137 47 80 80 66 93 45 58 48 49 44 46
internal_count=553 317 236 203 212 93 105 110 184 137 47 80 80 66 93 45 58 48 49 44 46
is_linear=0
shrinkage=0.05


Tree=10
num_leaves=22
num_cat=0
split_feature=0 42 17 74 94 86 37 77 22 4 67 40 55 48 84 82 39 66 68 46 39
split_gain=84.0728 20.7286 20.036 13.1387 8.90222 7.54351 5.26928 4.03359 2.96439 2.79362 2.5996 2.0184 1.62975 1.25521 0.913139 0.889681 0.721921 0.421419 0.237863 0.106264 0.0670026
threshold=-0.17848207060283863 0.52929593412458076 0.94367605947924005 -0.016554424512867597 1.0000000180025095e-35 -0.061196594734325892 0.1522360584904153 0.17584487427204293 0.68894717599579369 0.31797777679026035 1.5877839194105732 -1.5021210599119768 0.60595170923389996 0.10382938582446861 0.066422120649587815 -0.36943753404917617 -0.45714931898666916 -0.46177623970556014 -0.17992439742433142 -1.1372431088494828 -0.30246524551849335
decision_type=2 2 2 2 2 2 2 2 2 2 2 2 2 2 2 2 2 2 2 2 2
left_child=2 5 4 -4 6 -2 16 12 9 13 -10 -6 -3 15 19 -7 -1 -14 -11 -13 -18
right_child=1 7 3 -5 11 8 -8 -9 10 18 -12 14 17 -15 -16 -17 20 -19 -20 -21 -22
leaf_value=-0.013083215401722834 -0.016031299824653952 0.032666196650074378 -0.022639437395458421 -0.069434641997019458 -0.037761894166469578 0.023409293070435527 0.020487330015748741 0.018629608735442161 -0.011980615565553307 0.02316371696845939 0.01320720759547493 -0.025486138405708167 0.043464075183046277 0.0015107980892062188 -0.010753635086584837 0.0098830737954666553 -0.0055694129317998891 0.052898401618003847 0.030546816596761346 -0.021266183086803982 -0.0014766560003045017
leaf_weight=39 27 31 30 30 20 20 20 25 20 24 21 26 29 25 20 31 20 20 20 35 20
leaf_count=39 27 31 30 30 20 20 20 25 20 24 21 26 29 25 20 31 20 20 20 35 20
internal_value=-5.7513e-11 0.0183649 -0.0206958 -0.046037 -0.0130934 0.00842601 -0.00243859 0.0361602 0.0125276 0.0164933 0.000920465 -0.0235373 0.0416385 0.0106886 -0.020025 0.0151875 -0.00824262 0.0473148 0.0265197 -0.0230649 -0.00352303
internal_weight=553 293 260 60 200 188 99 105 161 120 41 101 80 76 81 51 79 49 44 61 40
internal_count=553 293 260 60 200 188 99 105 161 120 41 101 80 76 81 51 79 49 44 61 40
is_linear=0
shrinkage=0.05


Tree=11
num_leaves=21
num_cat=0
split_feature=0 82 42 43 18 61 66 11 51 26 37 49 29 31 39 53 43 50 0 2
split_gain=75.9297 19.0692 17.4335 10.2205 5.86698 5.19953 4.20063 3.6878 2.78026 2.40134 2.24627 2.09411 1.8096 1.54603 1.12231 0.659704 0.337961 0.297958 0.297301 0.148575
threshold=-0.12291912909673214 -1.7653956143169667 0.52929593412458076 -0.66211790683821581 0.37375127775117784 0.16770416829942739 0.048836649441641601 0.20800229700423054 -0.31931318617167753 0.071429538735785766 0.069174017261350709 0.042745140089984958 -0.34802869267708969 -0.46021371550769924 0.32058174636033793 0.15504046980412917 -0.33841480902920701 -0.29352210769724946 -1.074546084328851 -1.3183187937223002
decision_type=2 2 2 2 2 2 2 2 2 2 2 2 2 2 2 2 2 2 2 2
left_child=1 -1 4 5 6 12 14 13 10 -8 -5 16 18 -4 -2 -15 -10 -16 -3 -20
right_child=2 3 7 8 -6 -7 9 -9 11 -11 -12 -13 -14 15 17 -17 -18 -19 19 -21
leaf_value=-0.053281570672988887 0.013507537460444788 -0.026718310341238977 0.051681484920637948 -0.0033446058509871363 -0.0097141557080405103 -0.04113559329416603 0.010945438422641019 0.019182827922210485 -0.0079237539395689959 -0.010513478784229268 0.019136718128575012 -0.022956419494003059 -0.0048182289870012376 0.03126276394521648 0.028195218536360513 0.042440599744970151 0.00029769376665353777 0.020262323152273894 -0.022799631059169771 -0.017197847340641351
leaf_weight=35 38 20 21 25 35 32 32 29 25 22 20 20 21 33 29 22 25 20 20 29
leaf_count=35 38 20 21 25 35 32 32 29 25 22 20 20 21 33 29 22 25 20 20 29
internal_value=3.93454e-11 -0.0188314 0.0182282 -0.0137438 0.00860884 -0.0238247 0.0131571 0.0343522 -0.00304922 0.00220292 0.00664709 -0.00928257 -0.0176698 0.0401405 0.0199563 0.0357339 -0.00381303 0.0249573 -0.0215811 -0.0194843
internal_weight=553 272 281 237 176 122 141 105 115 54 45 70 90 76 87 55 50 49 69 49
internal_count=553 272 281 237 176 122 141 105 115 54 45 70 90 76 87 55 50 49 69 49
is_linear=0
shrinkage=0.05


Tree=12
num_leaves=22
num_cat=0
split_feature=0 0 17 74 47 94 41 23 34 43 25 25 19 15 70 3 41 5 39 70 92
split_gain=68.6043 18.6945 15.7569 10.5359 8.13459 6.60566 4.89638 4.81091 4.60173 3.24505 1.77949 1.72442 0.901466 0.888849 0.723969 0.584398 0.340389 0.248451 0.240953 0.15099 0.0889856
threshold=-0.30779052295874015 0.78197684361663511 0.94367605947924005 -0.016554424512867597 0.77314701488389548 1.0000000180025095e-35 0.28636641517878725 0.20150264202679907 -0.076244002817304937 0.16133485839395917 -0.79429141911549783 1.2211494706226336 0.43558635612779245 0.6374290285397336 -0.30740500350384387 -0.26749544946627141 0.12941273632939818 0.4331704519190121 -0.61051307763369067 -0.61905419405746775 3.5000000000000004
decision_type=2 2 2 2 2 2 2 2 2 2 2 2 2 2 2 2 2 2 2 2 2
left_child=2 4 5 -4 9 6 18 10 -6 12 -3 16 15 19 17 -2 20 -11 -1 -12 -7
right_child=1 7 3 -5 8 11 -8 -9 -10 14 13 -13 -14 -15 -16 -17 -18 -19 -20 -21 -22
leaf_value=-0.013738955417647958 -0.0038655732516557554 0.024168170873253122 -0.021297764129422862 -0.063561993141969045 0.0042294298699125646 -0.023186237974600357 0.019186571538448334 0.011237802542746068 -0.025814647714679059 0.019798463210463524 0.033071385100483901 -0.034324277156875249 0.012743678561485098 0.047863840394549904 0.011737106332438999 0.0063761030836030838 -0.014110669000975549 0.026811930731586789 -0.0070653416510475311 0.03914169300170172 -0.018783814273774624
leaf_weight=21 26 21 29 30 25 22 20 23 26 28 20 21 27 27 20 30 31 23 38 21 24
leaf_count=21 26 21 29 30 25 22 20 23 26 28 20 21 27 27 20 30 31 23 38 21 24
internal_value=7.39437e-12 0.0151953 -0.0204107 -0.0427881 0.00622042 -0.0129515 -0.00219329 0.0316226 -0.0110872 0.0119521 0.0368905 -0.021624 0.00523925 0.0408195 0.0197996 0.00162104 -0.0181603 0.0229614 -0.0094407 0.0361806 -0.0208893
internal_weight=553 317 236 59 205 177 79 112 51 154 89 98 83 68 71 56 77 51 59 41 46
internal_count=553 317 236 59 205 177 79 112 51 154 89 98 83 68 71 56 77 51 59 41 46
is_linear=0
shrinkage=0.05


Tree=13
num_leaves=22
num_cat=0
split_feature=39 42 82 44 33 55 94 77 33 42 42 22 10 39 81 39 64 41 22 92 43
split_gain=58.823 21.1026 13.5789 8.73767 7.09887 4.26591 3.73886 3.41276 2.9399 2.50467 1.9626 1.42326 1.26394 0.998181 0.863416 1.24683 0.374278 0.48726 0.323962 0.260842 0.213991
threshold=-0.41975456274076345 0.52929593412458076 -2.5564458844122133 0.48554783570155763 -1.6979806248805891 0.58416597638198997 -0.37940952255126009 0.17584487427204293 -0.076244002817304937 0.079723596279880612 -0.25015354651225402 0.089715048938167355 0.13285052023300667 -1.0926068597830196 0.28007389997901638 0.043731502158620504 -1.689667098331624 0.12941273632939818 -0.40137439637303229 5.5000000000000009 -0.23315183217060773
decision_type=2 2 2 2 2 2 2 2 2 2 2 2 2 2 2 2 2 2 2 2 2
left_child=2 3 -1 5 -4 8 11 12 9 14 -10 -6 -3 -8 15 20 -15 19 -14 -18 -2
right_child=1 7 4 -5 6 -7 13 -9 10 -11 -12 -13 18 16 -16 -17 17 -19 -20 -21 -22
leaf_value=-0.057018559860686463 -0.0033563578523518075 0.02725972257278584 -0.044947740659117698 -0.020091442455304788 -0.0094379718991972148 -0.0078233704190804731 -0.026560184703423431 0.014900789878331126 0.030574328422546388 0.021951015649496447 0.0126280992745589 0.0091992068701074459 0.037507486072453584 -0.020891309691512067 -0.0063555684796301653 0.013705545180710033 -0.02024819850921631 -0.0069762773974798619 0.045572090148925784 -0.012632855772972108 0.0033733556685210382
leaf_weight=24 21 27 20 32 21 36 26 25 25 21 39 20 33 23 20 28 22 20 20 23 27
leaf_count=24 21 27 20 32 21 36 26 25 25 21 39 20 33 23 20 28 22 20 20 23 27
internal_value=-8.0975e-11 0.0122266 -0.0217498 0.00429919 -0.016913 0.00789597 -0.0132956 0.0310259 0.0110225 0.00630951 0.0196383 -0.000346665 0.036065 -0.0179527 0.00288793 0.00532043 -0.0154096 -0.0134699 0.0405507 -0.0163559 0.000429106
internal_weight=553 354 199 249 175 217 155 105 181 117 64 41 80 114 96 76 88 65 53 45 48
internal_count=553 354 199 249 175 217 155 105 181 117 64 41 80 114 96 76 88 65 53 45 48
is_linear=0
shrinkage=0.05


Tree=14
num_leaves=20
num_cat=0
split_feature=39 42 82 44 24 55 77 61 38 71 39 20 9 43 38 40 66 84 69
split_gain=53.0878 19.0451 12.255 7.88575 5.13112 3.84999 3.08001 2.48408 2.61891 2.32219 1.92485 1.38932 1.23074 0.799572 0.736466 0.37877 0.321084 0.16835 0.129113
threshold=-0.41975456274076345 0.52929593412458076 -2.5564458844122133 0.48554783570155763 1.1010729890469175 0.58416597638198997 0.17584487427204293 0.15257485215874469 -0.024507972231659847 0.93547051256149072 -1.112925957556399 0.34961309754606712 0.41597399242324623 0.51198462521405952 -0.8632437944207404 -0.33938155264900222 -0.42772324754454555 0.022399784039142903 0.16916859503614703
decision_type=2 2 2 2 2 2 2 2 2 2 2 2 2 2 2 2 2 2 2
left_child=2 3 -1 5 9 7 12 8 15 10 -4 13 -3 -10 17 -2 -14 -12 -17
right_child=1 6 4 -5 -6 -7 -8 -9 11 -11 14 -13 16 -15 -16 18 -18 -19 -20
leaf_value=-0.054167630088826024 -0.0048355227018791165 0.025324215396092489 -0.030390291661024096 -0.019086870254250245 -0.038077084201833478 -0.0074322022512205883 0.014155750614590942 0.022226981809621474 0.013621932574931314 -0.0020326296884664581 -0.01912604344742639 0.0031318916052225088 0.035607985933037371 0.0262210825830698 -0.0080524491940219042 0.0054726030946207734 0.043592008054256441 -0.013375507199452841 0.00026811202247203751
leaf_weight=24 22 26 20 32 23 36 25 36 34 38 35 21 34 20 39 26 20 20 22
leaf_count=24 22 26 20 32 23 36 25 36 34 38 35 21 34 20 39 26 20 20 22
internal_value=-1.89912e-11 0.0116153 -0.0206624 0.00408423 -0.0160673 0.00750117 0.0294746 0.0104713 0.0075527 -0.0127369 -0.016305 0.0140445 0.0342618 0.0182883 -0.0133082 0.000597209 0.038565 -0.0170349 0.00308721
internal_weight=553 354 199 249 175 217 105 181 145 152 114 75 80 54 94 70 54 55 48
internal_count=553 354 199 249 175 217 105 181 145 152 114 75 80 54 94 70 54 55 48
is_linear=0
shrinkage=0.05


Tree=15
num_leaves=22
num_cat=0
split_feature=0 82 43 23 35 24 33 73 18 7 61 15 64 43 22 18 13 10 41 33 39
split_gain=50.9882 15.3263 9.22484 8.91323 4.6692 5.02023 3.87867 2.73398 2.58509 2.22575 2.18979 1.46502 1.2009 0.782445 0.719253 0.455887 0.455774 0.412382 0.259934 0.25026 0.135537
threshold=0.050243197936887606 -1.7653956143169667 -0.66211790683821581 0.59576334687138233 -0.40609831330292334 -1.0468192502793616 -1.6318827242548022 0.25121760616081873 0.21092581714120659 0.13285052023300667 0.15257485215874469 0.61220592263873053 0.59709636890844919 -0.23315183217060773 -0.83354812829379943 -0.6190103600814254 -0.60764756220975746 0.13285052023300667 0.041906158706091302 0.23198706870341698 -0.44179569210955555
decision_type=2 2 2 2 2 2 2 2 2 2 2 2 2 2 2 2 2 2 2 2 2
left_child=1 -1 6 4 8 -6 -3 10 15 -5 13 17 14 20 19 -2 -15 -7 -18 -8 -4
right_child=3 2 7 9 5 11 12 -9 -10 -11 -12 -13 -14 16 -16 -17 18 -19 -20 -21 -22
leaf_value=-0.043134309955545375 0.012987141345034947 -0.03946012575179339 -0.0075782327567257227 0.0082577775721438245 0.0051412373315542943 0.024285735387135955 -0.010978867757049475 -0.01754008310169659 -0.0033459922112524508 -0.015331147145479918 0.016306342894122715 0.040650142315361237 -0.004393649930134416 0.0089634377002948892 -0.025791746919805354 0.022951755424340567 0.0036419755623986329 0.032017360095466886 -0.0043227113797911446 -0.017679849557431512 -0.0027790657610499434
leaf_weight=37 22 20 31 20 20 34 22 22 20 20 21 36 20 20 22 24 21 35 20 38 28
leaf_count=37 22 20 31 20 20 34 22 22 20 20 21 36 20 20 22 24 21 35 20 38 28
internal_value=3.88718e-11 -0.0128594 -0.00892896 0.0179252 0.0224199 0.0281004 -0.0193267 -0.00114657 0.0116612 -0.00353668 0.00141128 0.0324736 -0.015379 -0.00119536 -0.0180584 0.0181861 0.00277534 0.0282076 -0.000243238 -0.0152228 -0.00530066
internal_weight=553 322 285 231 191 125 122 163 66 40 141 105 102 120 82 46 61 69 41 60 59
internal_count=553 322 285 231 191 125 122 163 66 40 141 105 102 120 82 46 61 69 41 60 59
is_linear=0
shrinkage=0.05


Tree=16
num_leaves=23
num_cat=0
split_feature=0 17 28 23 94 42 42 18 47 7 55 39 37 65 47 58 25 0 51 9 47 40
split_gain=46.0169 14.0149 9.45793 8.04419 5.34427 4.30446 3.5303 3.13612 2.21786 2.00874 1.78946 1.74226 1.71972 1.36916 0.716597 0.613667 0.5439 0.266371 0.185695 0.171543 0.0616923 0.0413075
threshold=0.050243197936887606 0.98474251956575054 -0.016554424512867597 0.59576334687138233 -0.5 0.63638501606169584 -0.63356603913531273 0.23528668431787617 -0.86886422210580128 0.13285052023300667 0.6959612239621934 -0.51159240848442433 0.059983319960190656 0.087777273829744665 0.52699915659300045 0.59409373778708918 1.1528714868903018 -0.24261712901551782 -0.24848701603576803 0.46317915004345883 -0.67238885760456524 -0.14599530983707912
decision_type=2 2 2 2 2 2 2 2 2 2 2 2 2 2 2 2 2 2 2 2 2 2
left_child=1 4 -3 5 6 7 -1 14 16 -5 11 20 15 17 -2 19 -6 -8 -16 -7 -10 -19
right_child=3 2 -4 9 8 12 13 -9 10 -11 -12 -13 -14 -15 18 -17 -18 21 -20 -21 -22 -23
leaf_value=0.020399854130810129 0.013713785213155624 -0.012419689732736775 -0.051928781108422722 0.007844888708496001 -0.017444251680916009 0.026147465929389005 -0.0039413621934892779 -0.0035705647221766414 -0.012048843740062281 -0.014564590174704789 -0.018144760642419846 0.0064002892770804471 0.01661810828927195 -0.014382585026323797 0.026464987014021193 0.039624382101971174 -0.027893754988908771 0.00139838130659579 0.019733088444918397 0.032257001819433993 -0.0082600696145423824 0.0044751181779429314
leaf_weight=20 39 28 33 20 33 20 22 20 22 20 34 25 21 20 21 23 20 24 20 27 21 20
leaf_count=20 39 28 33 20 33 20 22 20 22 20 34 25 21 20 21 23 20 24 20 27 21 20
internal_value=1.11679e-11 -0.0122164 -0.0337935 0.017029 -0.00717351 0.0212989 0.00147829 0.0141385 -0.0130902 -0.00335985 -0.00877893 -0.00409601 0.0291674 -0.00292207 0.0185658 0.0329321 -0.0213875 0.000550811 0.0231811 0.0296572 -0.0101985 0.0027969
internal_weight=553 322 61 231 261 191 106 100 155 40 102 68 91 86 80 70 53 66 41 47 43 44
internal_count=553 322 61 231 261 191 106 100 155 40 102 68 91 86 80 70 53 66 41 47 43 44
is_linear=0
shrinkage=0.05


Tree=17
num_leaves=21
num_cat=0
split_feature=0 17 24 22 94 0 46 67 0 31 31 79 43 10 68 13 18 46 77 0
split_gain=41.5302 12.8176 7.29146 7.15724 4.21522 4.0388 3.13322 3.06737 2.01119 1.72423 2.4658 1.59777 0.657498 0.612342 0.610018 0.599063 0.341942 0.316819 0.188292 0.135317
threshold=0.050243197936887606 1.3359201221400643 1.7627041897540174 0.7638349212354002 -0.5 0.71937653189272399 -0.84812952699105659 1.5789378021924427 -0.52033759889017395 -0.011569478377435797 1.3970404806132197 0.22536703372879402 -0.87839902520097468 -0.93140333928097929 -0.21782678388272017 0.77461581471488428 -0.2954675414665448 -1.074546084328851 0.057991799773593207 -1.1314116290189968
decision_type=2 2 2 2 2 2 2 2 2 2 2 2 2 2 2 2 2 2 2 2
left_child=1 2 4 5 6 11 -1 -5 12 15 -11 14 19 -8 -2 -7 -15 -14 -19 -6
right_child=3 -3 -4 7 8 9 13 -9 -10 10 -12 -13 17 16 -16 -17 -18 18 -20 -21
leaf_value=0.019493542185574326 0.013155463020558712 -0.038877387462477937 -0.033193771598430781 -0.016004703380167486 -0.021244221702218055 0.029002743669682082 -0.0094718272221230339 0.011019835156565976 0.00079568241102000083 0.0065079250209964818 0.029328854844487946 0.0041918997730438909 -0.0052398860547691588 -0.0026119969421042467 0.024517867856082464 0.03979554519057274 0.0047905958150155272 -0.010123175432284673 -0.01629623972943851 -0.015934689765175186
leaf_weight=21 27 38 26 21 20 36 21 21 30 20 29 36 20 39 21 20 26 30 21 30
leaf_count=21 27 38 26 21 20 36 21 21 30 20 29 36 20 39 21 20 26 30 21 30
internal_value=3.43457e-11 -0.0116056 -0.00795656 0.0161775 -0.00541328 0.0203264 0.00217891 -0.00249243 -0.0107932 0.0268639 0.0200142 0.0121545 -0.0136664 -0.00204908 0.0181265 0.0328573 0.00034904 -0.0105734 -0.012665 -0.0180585
internal_weight=553 322 284 231 258 189 107 42 151 105 49 84 121 86 48 56 65 71 51 50
internal_count=553 322 284 231 258 189 107 42 151 105 49 84 121 86 48 56 65 71 51 50
is_linear=0
shrinkage=0.05


Tree=18
num_leaves=23
num_cat=0
split_feature=0 0 17 74 86 27 23 25 22 4 25 39 88 34 31 1 16 77 47 19 1 19
split_gain=37.5303 10.4257 9.37646 6.73797 5.70892 3.00875 2.91708 2.40245 1.5132 2.05535 1.20519 0.969721 0.83686 0.81599 0.571407 0.512789 0.452246 0.349926 0.184883 0.127557 0.126882 0.0891275
threshold=-0.33040038046609288 0.78197684361663511 1.1592825686345904 -0.016554424512867597 -0.061196594734325892 -0.56295110719644825 0.20150264202679907 1.5361892418191414 0.68894717599579369 0.31797777679026035 -0.79429141911549783 -0.6479657778632133 0.028081872062350955 -0.3187224336248779 -0.47437388137546138 -0.31001004467052229 -0.51070735912460063 0.05799179977357561 -0.86886422210580128 -0.40670975174171614 0.6230237255038934 0.18640186956968849
decision_type=2 2 2 2 2 2 2 2 2 2 2 2 2 2 2 2 2 2 2 2 2 2
left_child=2 4 5 -4 -2 -1 10 11 9 13 -3 18 -10 17 -12 -13 -15 -6 -7 -11 -16 -20
right_child=1 6 3 -5 8 7 -8 -9 12 19 14 15 -14 16 20 -17 -18 -19 21 -21 -22 -23
leaf_value=0.0080365261982660741 -0.016955053917546242 0.01704586022311733 -0.013669686391949654 -0.052271876082970549 0.0051202238161260124 -0.015953881273928442 0.0075405443411158488 -0.027490734535714857 -0.0081239449186250572 0.021674690502030511 0.037849842384457592 0.0015178781514987351 0.0063403203780762855 0.0054513914915530585 0.024996048163368621 -0.0085183763025062417 0.015166417121887208 -0.0035575933133562411 -0.013844965575706393 0.01638876320421696 0.030155378809342017 -0.0095978837894896678
leaf_weight=20 27 21 20 26 26 38 23 23 20 21 20 20 20 23 22 35 25 21 21 25 26 30
leaf_count=20 27 21 20 26 26 38 23 23 20 21 20 20 20 23 22 35 25 21 21 25 26 30
internal_value=6.90492e-12 0.0111148 -0.0152649 -0.0354883 0.00449225 -0.0102902 0.0234138 -0.012485 0.00769157 0.0101266 0.0275159 -0.0100883 -0.000891812 0.00592588 0.0307493 -0.00486883 0.0105113 0.0012429 -0.0133138 0.0188019 0.0277907 -0.0113467
internal_weight=553 320 233 46 208 187 112 167 181 141 89 144 40 95 68 55 48 47 89 46 48 51
internal_count=553 320 233 46 208 187 112 167 181 141 89 144 40 95 68 55 48 47 89 46 48 51
is_linear=0
shrinkage=0.05


Tree=19
num_leaves=21
num_cat=0
split_feature=39 38 82 7 24 11 38 41 49 71 43 17 19 94 53 69 47 84 4 38
split_gain=32.3272 12.3299 7.50497 5.9284 2.73489 2.72979 2.37622 2.80681 2.6741 1.15898 1.0653 0.958527 0.844361 0.678709 0.34867 0.334301 0.289683 0.273464 0.183497 0.109274
threshold=-0.53877418919428299 0.70740540999281032 -2.5564458844122133 1.0159270655965329 1.1729954322029184 0.20800229700423054 0.23866818619293004 0.53903486951881707 0.17413547563777707 0.93547051256149072 -1.1252725706889732 0.26951384627007152 -0.56709234592976576 -0.37940952255126009 0.15504046980412917 0.16916859503615372 -0.19914935318759108 0.036540185633270557 0.5303630906581549 -0.88918242927493429
decision_type=2 2 2 2 2 2 2 2 2 2 2 2 2 2 2 2 2 2 2 2
left_child=2 3 -1 6 9 12 7 8 11 10 -4 13 14 15 -3 16 -2 19 -8 -12
right_child=1 5 4 -5 -6 -7 18 -9 -10 -11 17 -13 -14 -15 -16 -17 -18 -19 -20 -21
leaf_value=-0.045073301277377388 -0.0033724602648622492 0.02023610716749882 -0.024061916992068291 -0.017037252397002541 -0.030600719295796899 0.010137610713718459 0.012733639044348488 0.019308443416071977 -0.016005933958859669 -0.0025355167686939243 -0.014996046446921193 0.011578451421034213 0.035064004063606262 0.0070293399086222052 0.028479693635650307 -0.0068925435841083529 0.0033299806547706558 -0.0071818996886057517 0.019267910348606254 -0.010338357612490655
leaf_weight=22 28 29 20 34 21 32 22 23 21 30 34 27 25 35 23 20 38 28 21 20
leaf_count=22 28 29 20 34 21 32 22 23 21 30 34 27 25 35 23 20 38 28 21 20
internal_value=-3.95138e-11 0.00822555 -0.0177672 0.00247723 -0.0138408 0.0224118 0.0053006 0.00292122 0.000691006 -0.0111745 -0.0137153 0.00306017 0.0275127 0.00115939 0.0238823 -0.00122954 0.000486521 -0.0111918 0.0159248 -0.013271
internal_weight=553 378 175 269 153 109 235 192 169 132 102 148 77 121 52 86 66 82 43 54
internal_count=553 378 175 269 153 109 235 192 169 132 102 148 77 121 52 86 66 82 43 54
is_linear=0
shrinkage=0.05


Tree=20
num_leaves=20
num_cat=0
split_feature=0 82 23 33 92 0 18 45 7 84 5 17 25 39 10 65 18 47 11
split_gain=30.8648 9.94875 5.71587 5.52772 3.53589 2.87606 4.30252 2.42389 1.66339 1.63622 1.19416 0.940035 0.757443 0.636311 0.303326 0.283009 0.160396 0.100639 0.087355
threshold=0.050243197936887606 -2.5564458844122133 0.59576334687138233 -1.6979806248805891 7.5000000000000009 1.3109301698069074 0.29428287267614089 0.51643512020256177 0.13285052023300667 0.01906960619034655 0.52929593412458076 0.26951384627007152 -0.90351403334644875 -0.41975456274076345 0.13285052023300667 0.051127338942413302 0.53146423967016265 -0.19914935318759108 -0.2682749473372219
decision_type=2 2 2 2 2 2 2 2 2 2 2 2 2 2 2 2 2 2 2
left_child=1 -1 5 -3 12 6 10 9 -4 -6 15 13 -5 -11 -12 -2 18 -15 -14
right_child=2 3 8 4 7 -7 -8 -9 -10 11 14 -13 16 17 -16 -17 -18 -19 -20
leaf_value=-0.035583977182121841 0.0095598503148981509 -0.03234233275055886 0.0069558399775996801 -0.0050797233753132097 -0.01468285253681445 0.031222200859338047 -0.0026211340333624133 0.015361910548315131 -0.013436479130759835 -0.009058635160326959 0.01964398444091019 0.0092316943474791257 -0.014126898944377901 -0.0019545892932607482 0.026004071493406555 0.016734330659663236 -0.016795473761158065 0.0023006880881659914 -0.010079792638619741
leaf_weight=34 28 20 20 33 23 32 29 22 20 25 38 22 30 24 37 27 32 33 24
leaf_count=34 28 20 20 33 23 32 29 22 20 25 38 22 30 24 37 27 32 33 24
internal_value=5.37552e-11 -0.010005 0.0139464 -0.00698526 -0.00509294 0.0175457 0.0147932 3.95999e-05 -0.00324032 -0.00261466 0.0186779 5.42689e-05 -0.0115194 -0.00240797 0.0227816 0.0130819 -0.0139904 0.000508992 -0.0123282
internal_weight=553 322 231 288 268 191 159 149 40 127 130 104 119 82 75 55 86 57 54
internal_count=553 322 231 288 268 191 159 149 40 127 130 104 119 82 75 55 86 57 54
is_linear=0
shrinkage=0.05


Tree=21
num_leaves=23
num_cat=0
split_feature=0 82 23 43 35 24 33 73 35 24 46 77 5 53 0 49 0 10 49 84 36 14
split_gain=27.8555 8.97875 5.15858 5.04095 2.61963 3.38827 2.5911 2.02034 1.80303 1.57485 1.22221 0.875693 0.868207 0.556435 0.53179 0.33827 0.278576 0.266576 0.262136 0.131512 0.0387295 0.0375172
threshold=0.050243197936887606 -2.5564458844122133 0.59576334687138233 -0.66211790683821581 -0.40609831330292334 -1.0468192502793616 -1.6979806248805891 0.25121760616081873 -0.62493928070761695 0.63681694928066024 -0.96260336346000874 0.5208285143166852 1.2699594326250341 0.079968834583284923 -1.105177033160887 0.042745140089960103 -0.36336182518115118 0.13285052023300667 0.082872617013016001 0.022399784039142903 -0.17778349981979305 0.47760478287283314
decision_type=2 2 2 2 2 2 2 2 2 2 2 2 2 2 2 2 2 2 2 2 2 2
left_child=1 -1 4 6 8 -6 -3 10 18 -4 -5 14 17 15 -8 16 -12 -7 -2 -16 -18 -19
right_child=2 3 9 7 5 12 11 -9 -10 -11 13 -13 -14 -15 19 -17 20 21 -20 -21 -22 -23
leaf_value=-0.033804778513662953 0.017518416404724121 -0.030725216157734395 0.006842779433354736 0.011384867720305919 0.0020614728890359403 0.018453761051808085 -0.0204293030500412 -0.01462461059184178 -0.0039233874506317086 -0.012999386340379716 -0.005341639819865426 -0.0016711841244250536 0.031704830825328829 0.005194319975722967 -0.012963514353491759 -0.0083302468693416034 -0.00018128959403838964 0.025960175767540936 0.0099407987314320753 -0.0083486012935351864 0.0028588216921145268 0.022897611781954767
leaf_weight=34 25 20 20 25 20 35 20 23 20 20 24 20 30 29 38 21 20 20 21 26 22 20
leaf_count=34 25 20 20 25 20 35 20 23 20 20 24 20 30 29 38 21 20 20 21 26 22 20
internal_value=4.62925e-11 -0.00950475 0.013249 -0.006636 0.0166684 0.0209233 -0.0142435 -0.000883996 0.00860984 -0.0030783 0.00135738 -0.0110739 0.024516 -0.000803715 -0.0133127 -0.00280306 -0.00104441 0.0216405 0.0140591 -0.0110887 0.00141115 0.0244289
internal_weight=553 322 231 288 191 125 124 164 66 40 141 104 105 116 84 87 66 75 46 64 42 40
internal_count=553 322 231 288 191 125 124 164 66 40 141 104 105 116 84 87 66 75 46 64 42 40
is_linear=0
shrinkage=0.05


Tree=22
num_leaves=22
num_cat=0
split_feature=39 42 17 9 24 41 81 25 77 42 94 47 61 9 88 47 66 47 22 24 4
split_gain=24.143 8.98869 6.38672 5.35225 4.04882 2.46858 2.45078 1.91989 1.81539 1.78732 1.19221 1.16337 1.10773 0.657339 0.479297 0.416387 0.217499 0.150628 0.145332 0.0766809 0.0510046
threshold=-0.53877418919428299 0.52929593412458076 1.2970606242265059 1.0830796370279445 1.0026336726344711 0.60465116208213587 0.17215495905313802 1.3756433459042214 0.17584487427204293 0.10560449496612716 -0.37940952255126009 0.77314701488389548 0.046918926430881712 0.41597399242324623 0.022336500959068153 -0.10137128577559838 -0.42772324754454555 -0.86886422210580128 -0.056801538552410345 -1.0290818192290805 -0.37908468588498517
decision_type=2 2 2 2 2 2 2 2 2 2 2 2 2 2 2 2 2 2 2 2 2
left_child=2 3 7 4 5 9 -6 10 13 11 -1 12 15 -3 -11 20 -15 -12 -17 -19 -2
right_child=1 8 -4 -5 6 -7 -8 -9 -10 14 17 -13 -14 16 -16 18 -18 19 -20 -21 -22
leaf_value=0.0023599043893425364 -0.0032013565534725788 0.01668447837806665 -0.035546472016721967 -0.022573416465311313 0.00071799861125327886 0.021921543136704715 -0.02126441451366104 -0.021847845181342095 0.0077802267074584958 0.0088458761838929988 -0.012906071378125085 -0.0082833646397505491 0.014888814184814692 0.023927393161198674 0.019406398622827097 0.0084092001896351586 0.030498539879918098 -0.0067022441215813166 0.0027248417614432782 -0.010512046555855446 0.00021749704167935613
leaf_weight=23 20 26 32 20 32 26 21 31 25 21 36 21 21 34 22 22 20 25 23 28 24
leaf_count=23 20 26 32 20 32 26 21 31 25 21 36 21 21 34 22 22 20 25 23 28 24
internal_value=1.05337e-11 0.00710848 -0.0153543 0.00232674 0.00429513 0.00755123 -0.00799201 -0.0108358 0.019541 0.00540394 -0.00778781 0.00250062 0.00455938 0.0232162 0.0142489 0.0021221 0.0263612 -0.0104102 0.00550386 -0.00871497 -0.00133653
internal_weight=553 378 175 273 253 200 53 143 105 174 112 131 110 80 43 89 54 89 45 53 44
internal_count=553 378 175 273 253 200 53 143 105 174 112 131 110 80 43 89 54 89 45 53 44
is_linear=0
shrinkage=0.05


Tree=23
num_leaves=22
num_cat=0
split_feature=0 17 25 23 92 0 18 31 26 79 47 61 84 2 35 0 69 18 50 36 0
split_gain=22.7043 7.99049 4.38479 4.34534 2.42991 2.19168 3.3923 1.53045 1.49491 1.16942 0.897773 0.753081 0.543012 0.376915 0.28111 0.168645 0.147007 0.128484 0.142601 0.113748 0.0412144
threshold=0.050243197936887606 1.3359201221400643 1.7327623462555988 0.59576334687138233 8.5000000000000018 1.3109301698069074 0.29428287267614089 0.25811960906422521 0.011839626805033102 0.063882016481317416 0.61860522872785217 0.046918926430861804 0.036540185633270557 -0.90249526434826055 -0.33768770262328157 -0.36336182518115118 0.098535073139791776 0.55621063521144931 -0.55495728324269156 0.87015687133540454 -0.19577142593779354
decision_type=2 2 2 2 2 2 2 2 2 2 2 2 2 2 2 2 2 2 2 2 2
left_child=1 2 4 5 12 6 10 9 -5 11 16 15 17 -14 -12 -6 -2 18 -1 -16 -17
right_child=3 -3 -4 8 7 -7 -8 -9 -10 -11 14 -13 13 -15 19 20 -18 -19 -20 -21 -22
leaf_value=-0.013240840397775172 0.0082179237777988117 -0.03011361174285412 -0.022546651126707302 0.0066422492545098067 -0.0046606401062530027 0.027038628677837552 -0.0027660217160230568 0.013658369749429682 -0.012689782414818183 -0.012008029678836466 0.014573236935488558 0.0096489531132170851 -0.0082954448289596118 0.0008345128991641105 0.018213469060984526 -0.0010498934541135982 0.013873687647283079 -0.014562723288933436 -0.0078588464733911675 0.0227311289624164 0.0019547552168369293
leaf_weight=20 27 38 34 20 23 32 29 21 20 20 23 21 26 20 22 21 20 21 32 38 25
leaf_count=20 27 38 34 20 23 32 29 21 20 20 23 21 26 20 22 21 20 21 32 38 25
internal_value=-9.40743e-12 -0.00858103 -0.00569991 0.0119614 -0.00340876 0.0150997 0.0126969 0.00128946 -0.00302377 -0.00107187 0.0161463 0.00135838 -0.00858074 -0.0043259 0.0192731 -0.00116483 0.0106246 -0.0112619 -0.00992884 0.0210747 0.000583068
internal_weight=553 322 284 231 250 191 159 131 40 110 130 90 119 46 83 69 47 73 52 60 46
internal_count=553 322 284 231 250 191 159 131 40 110 130 90 119 46 83 69 47 73 52 60 46
is_linear=0
shrinkage=0.05


Tree=24
num_leaves=21
num_cat=0
split_feature=0 17 25 23 94 38 18 45 7 0 38 32 71 65 17 69 39 19 38 61
split_gain=20.4906 7.21141 3.95727 3.92167 2.20158 1.98646 3.57447 1.80312 1.40085 0.887604 0.666062 0.382633 0.241916 0.240841 0.235482 0.203276 0.181484 0.19073 0.171353 0.0464589
threshold=0.050243197936887606 1.3359201221400643 1.7327623462555988 0.59576334687138233 -0.5 1.1479903169683534 0.41227524939267007 0.37017206597444724 0.13285052023300667 -0.52033759889017395 0.59212154757764557 -0.46021371550769924 0.39736128083384414 0.084811427891348865 -0.19768526723946964 0.10125062963182917 -0.8632437944207404 0.49430675347208286 0.23866818619293004 0.045333615092972061
decision_type=2 2 2 2 2 2 2 2 2 2 2 2 2 2 2 2 2 2 2 2
left_child=1 2 4 5 7 6 10 14 -5 16 12 -7 18 -12 15 -1 19 -18 -2 -6
right_child=3 -3 -4 8 9 11 -8 -9 -10 -11 13 -13 -14 -15 -16 -17 17 -19 -20 -21
leaf_value=0.00051213658880442379 0.0060904902272990776 -0.028607931458636333 -0.021419318370959339 0.0064844105998054158 -0.012948719287912051 0.028632256956327529 -0.0075127534044440837 0.01467611982041727 -0.012229566890746356 0.00031038425006573242 0.016278069325395533 0.019196544570679014 0.015912122860373485 0.022982140524046762 0.0021488653117557989 -0.0060402128656780159 -0.010047425582043586 -0.0044061783733295992 0.012112546822539082 -0.010018505201104188
leaf_weight=20 21 38 34 20 24 21 21 23 20 31 37 22 21 21 32 29 31 29 27 31
leaf_count=20 21 38 34 20 24 21 21 23 20 31 37 22 21 21 32 29 31 29 27 31
internal_value=-1.6936e-11 -0.00815198 -0.00541492 0.0113634 -0.00323832 0.0143447 0.0115962 0.00232107 -0.00287258 -0.00719843 0.014756 0.0238047 0.0114361 0.0187054 -0.00118716 -0.00336578 -0.00922254 -0.00732082 0.0094779 -0.0112971
internal_weight=553 322 284 231 250 191 148 104 40 146 127 43 69 58 81 49 115 60 48 55
internal_count=553 322 284 231 250 191 148 104 40 146 127 43 69 58 81 49 115 60 48 55
is_linear=0
shrinkage=0.05


Tree=25
num_leaves=22
num_cat=0
split_feature=39 38 82 9 24 33 23 34 45 94 38 32 18 33 35 69 39 49 69 84 40
split_gain=17.9117 6.60257 5.03127 4.80619 3.42655 2.23468 2.09635 1.7736 1.46696 1.09605 0.916041 0.64115 0.59552 0.364843 0.509865 0.391902 0.305822 0.147975 0.141389 0.115251 0.0721213
threshold=-0.53877418919428299 0.70740540999281032 -2.5564458844122133 1.0830796370279445 0.92543028559460594 -1.6979806248805891 0.20150264202679907 -0.29459943103567449 0.39487766153382337 -0.37940952255126009 0.16502209172478277 -0.469252562941676 -0.033360922137163643 -0.010142451820461048 -0.66228202789568313 0.16916859503615372 -1.1534635924477443 0.04908926526456716 0.098535073139793164 0.036540185633270557 -0.93023576298783672
decision_type=2 2 2 2 2 2 2 2 2 2 2 2 2 2 2 2 2 2 2 2 2
left_child=2 3 -1 4 8 -4 11 -6 10 -7 13 -3 18 14 -2 -16 -11 -12 -13 20 -18
right_child=1 6 5 -5 7 9 -8 -9 -10 16 17 12 -14 -15 15 -17 19 -19 -20 -21 -22
leaf_value=-0.03558273528787223 0.0055211518620568757 0.027846991568803787 -0.025593107193708421 -0.021051013392085829 -0.00021345254690937796 0.0022592800628879798 0.0027147550982507796 -0.018319425980250041 0.016226029088850031 -0.015170061552808398 0.013507795989513398 0.017669221262137096 0.010419372655451299 0.0085608200717251764 0.0013931563504350683 -0.0076426695752888924 -0.011744129568338396 0.0078145048625412449 0.023185293605694407 -0.0058062847587279981 -0.0082483393424707986
leaf_weight=22 37 20 20 21 38 23 22 21 36 21 25 21 20 20 30 20 25 21 26 28 36
leaf_count=22 37 20 20 21 38 23 22 21 36 21 25 21 20 20 30 20 25 21 26 28 36
internal_value=3.89402e-11 0.00612278 -0.0132252 0.00191631 0.00386112 -0.0100104 0.0165039 -0.00665795 0.00714485 -0.00766712 0.0050081 0.0199908 0.0176457 0.0024714 0.00107154 -0.00222117 -0.00974264 0.0109087 0.0207207 -0.00846202 -0.00968104
internal_weight=553 378 175 269 248 153 109 59 189 133 153 87 67 107 87 50 110 46 47 89 61
internal_count=553 378 175 269 248 153 109 59 189 133 153 87 67 107 87 50 110 46 47 89 61
is_linear=0
shrinkage=0.05


Tree=26
num_leaves=21
num_cat=0
split_feature=0 9 25 22 67 31 9 43 61 43 20 45 8 65 35 43 43 68 37 0
split_gain=16.7581 6.26527 4.50681 3.4978 2.20819 1.76269 2.71435 1.7617 1.07114 0.74182 0.601735 0.493936 0.37684 0.219788 0.200638 0.182644 0.17657 0.0689857 0.0499998 0.0235026
threshold=0.050243197936887606 1.1403756406239496 1.7727369081102073 0.7638349212354002 1.5789378021924427 -0.42100142373989008 1.0830796370279445 -0.53056430128852672 0.15257485215874469 0.80275641170856404 0.84072202949595554 0.31455966319512657 -0.090497554753082174 0.051127338942413302 0.012360993935826901 -0.8581052962659067 -0.17743140335960736 -0.21782678388272017 0.030535382353853054 -0.37908468588498517
decision_type=2 2 2 2 2 2 2 2 2 2 2 2 2 2 2 2 2 2 2 2
left_child=1 2 7 5 -5 -2 9 10 12 13 11 15 16 -7 -11 -1 19 -15 -17 -9
right_child=3 -3 -4 4 -6 6 -8 8 -10 14 -12 -13 -14 17 -16 18 -18 -19 -20 -21
leaf_value=-0.0099491216482654708 0.023131334947215188 -0.030904873757838059 -0.021885518574466311 -0.014240037366038278 0.0086894085162341414 0.0074527225084602827 -0.0054165146482939071 -0.0028259347592081343 0.010181164079345764 0.014288013055920602 0.00046219093725085263 -0.015124826416373253 -0.0062833252031331156 0.010845712217546646 0.020452399687333544 -0.0067848156951367854 0.0030041482853325639 0.014948857733979821 -0.0033998078414394211 -0.00062957037913167428
leaf_weight=31 36 26 36 21 21 35 22 21 25 22 20 25 28 21 33 20 37 20 24 29
leaf_count=31 36 26 36 21 21 35 22 21 25 22 20 25 28 21 33 20 37 20 24 29
internal_value=3.00551e-11 -0.0073722 -0.00530514 0.0102764 -0.00277531 0.0131768 0.0108345 -0.0030094 0.000801052 0.0135637 -0.00745493 -0.00903835 -0.0012381 0.0103629 0.0179866 -0.00700953 0.000385647 0.0128472 -0.00493845 -0.00155204
internal_weight=553 322 296 231 42 189 153 260 140 131 120 100 115 76 55 75 87 41 44 50
internal_count=553 322 296 231 42 189 153 260 140 131 120 100 115 76 55 75 87 41 44 50
is_linear=0
shrinkage=0.05


Tree=27
num_leaves=22
num_cat=0
split_feature=0 9 25 22 29 32 9 39 61 19 31 0 57 8 10 58 47 84 9 0 78
split_gain=15.1241 5.66194 4.13071 3.15676 2.01985 1.98656 3.52036 1.64766 0.940921 0.771164 0.687511 0.622917 0.451613 0.332153 0.307202 0.243167 0.156692 0.139193 0.0870031 0.0396346 0.0190115
threshold=0.050243197936887606 1.2221790485813597 1.7727369081102073 0.7638349212354002 -0.097800457769591329 -0.40417008227841061 1.0730812775829734 -0.52211632897009641 0.15257485215874469 -0.47233444634696764 0.34231901988584462 -1.1314116290189968 0.10334255413318046 -0.090497554753082174 0.13285052023300667 -0.71000256661061711 -0.080928077799345341 0.036540185633270557 -1.2718470859737125 -0.24261712901551782 -0.3746460332381924
decision_type=2 2 2 2 2 2 2 2 2 2 2 2 2 2 2 2 2 2 2 2 2
left_child=1 2 7 5 -5 12 9 10 13 14 11 -1 -2 16 -7 -11 19 18 -13 -9 -20
right_child=3 -3 -4 4 -6 6 -8 8 -10 15 -12 17 -14 -15 -16 -17 -18 -19 20 -21 -22
leaf_value=-0.016569640748202802 0.016670256908982991 -0.03210501156392552 -0.020898227091576602 0.0083283624855712765 -0.013601459979656198 0.013164461109983296 -0.0097201745491474877 -0.0018517226811710339 0.010398756352845919 0.0039925658656284214 0.0007527869912640502 -0.010451683153708776 0.027051548185673631 -0.0065924699994779762 0.019706558151280182 0.010903784643326487 0.0039538826034201877 -0.0037320711759653378 -0.0055579147394746549 0.00073077165191837894 -0.0077119149622463055
leaf_weight=20 20 21 37 21 21 38 20 39 22 20 24 24 22 21 34 35 23 26 20 24 21
leaf_count=20 20 21 37 21 21 38 20 39 22 20 24 24 22 21 34 35 23 26 20 24 21
internal_value=2.91591e-11 -0.00700359 -0.00525233 0.00976258 -0.00263655 0.0125179 0.00977791 -0.00305954 0.000981329 0.0128485 -0.00692081 -0.00857996 0.0221081 -0.000954965 0.0162538 0.00839061 0.000421635 -0.00682399 -0.00806075 -0.000867915 -0.00666118
internal_weight=553 322 301 231 42 189 147 264 129 127 135 111 42 107 72 55 86 91 65 63 41
internal_count=553 322 301 231 42 189 147 264 129 127 135 111 42 107 72 55 86 91 65 63 41
is_linear=0
shrinkage=0.05


Tree=28
num_leaves=24
num_cat=0
split_feature=39 39 7 17 82 22 27 8 4 34 57 45 30 54 4 93 90 57 43 39 38 35 85
split_gain=13.3422 4.96429 4.40074 4.20257 3.12388 1.47846 1.26524 1.05835 0.851037 0.804649 0.724691 0.957237 0.555568 0.584843 0.504174 0.35183 0.122472 0.117871 0.119137 0.0682585 0.042214 0.0255631 0.0188502
threshold=-0.53877418919428299 0.78853945679336401 1.0271696647368695 1.2970606242265059 -0.79444537449570796 0.81185501981244579 -0.19141000489868243 -0.16042561115923401 -1.4785633031951992 -0.75246648270004601 0.38575244517402724 0.33184355365928281 -0.011569478377435797 -0.16580550530917768 0.22636018071690436 -0.60355339059327362 0.0095990623325689015 0.44653488973561467 -0.78635719097607748 0.53564661652727474 -0.30779052295874015 -0.28594092515980901 1.0408340855860844e-16
decision_type=2 2 2 2 2 2 2 2 2 2 2 2 2 2 2 2 2 2 2 2 2 2 2
left_child=3 2 5 6 -3 9 -1 -7 -8 20 11 14 15 -14 16 -6 -11 18 21 -16 -2 -10 -20
right_child=1 4 -4 -5 12 7 8 -9 17 10 -12 -13 13 -15 19 -17 -18 -19 22 -21 -22 -23 -24
leaf_value=0.0039144938334356996 -0.0020834801352715921 -0.0032092888880035151 -0.019596431234284589 -0.027793803147505972 0.016367958131290616 0.0016172919317238754 -0.019083735831081867 -0.013135482652578504 -0.010147806052118541 0.0018264632014667289 -0.0014231717307120562 0.018833498936146498 0.0069578125793486843 0.0176760114303657 0.0089155026152729997 0.025069352927116248 0.0066829405858048379 -0.011258423924446107 -0.0061637184140272442 0.012996963872796015 0.0010506083802531729 -0.0076779307966882539 -0.0040188782138838655
leaf_weight=20 21 23 23 32 21 31 20 20 20 34 20 20 20 35 20 26 21 20 20 21 22 22 21
leaf_count=20 21 23 23 32 21 31 20 20 20 34 20 20 20 35 20 26 21 20 20 21 22 22 21
internal_value=-1.00416e-11 0.00528438 0.00125677 -0.0114143 0.0134363 0.00334209 -0.00774891 -0.00416811 -0.0096454 0.00548187 0.00736687 0.00888239 0.0171897 0.0137785 0.00680925 0.0211815 0.00368075 -0.00781272 -0.00698243 0.011006 -0.000479993 -0.00885406 -0.00506514
internal_weight=553 378 253 175 125 230 143 51 123 179 136 116 102 55 96 47 55 103 83 41 43 42 41
internal_count=553 378 253 175 125 230 143 51 123 179 136 116 102 55 96 47 55 103 83 41 43 42 41
is_linear=0
shrinkage=0.05


Tree=29
num_leaves=21
num_cat=0
split_feature=0 9 24 91 0 18 41 0 16 41 61 23 71 41 22 0 75 57 92 0
split_gain=12.3625 4.83623 3.49009 2.86887 1.76284 1.62656 1.57693 1.40769 1.16672 0.83594 0.570865 0.597615 0.364455 0.430823 0.229382 0.183971 0.136197 0.0968414 0.0507554 0.041
threshold=0.050243197936887606 1.1403756406239496 1.7627041897540174 0.026111772754189102 1.0830796370279445 0.37375127775117784 0.50867110791485992 -0.52033759889017395 0.97704085399272211 0.17773043770730509 0.045333615093095657 -0.056801538552410345 1.1929052650816949 0.10815124823888957 -0.3209507185035812 0.51198462521405952 0.028922048319705254 0.11001214915799522 4.5000000000000009 -0.24261712901551782
decision_type=2 2 2 2 2 2 2 2 2 2 2 2 2 2 2 2 2 2 2 2
left_child=1 2 6 4 5 10 7 8 9 17 11 15 13 19 -6 -2 -12 -1 -19 -9
right_child=3 -3 -4 -5 14 -7 -8 12 -10 -11 16 -13 -14 -15 -16 -17 -18 18 -20 -21
leaf_value=-0.0051957437805341261 0.0071603158749639993 -0.027007400852520593 -0.020682635245223843 -0.005326779840153552 0.015673853336803375 -0.0040957892829876236 0.010456936025903339 -0.0017885298357300816 0.0038696841499768196 -0.017978919111192228 0.018214350566267967 0.00049572534093385908 -0.0039670445504324404 0.0083557808705206436 0.022110988289117815 0.012743584853079585 0.012379178833216429 -0.0098107424654787587 -0.006710731126772969 0.0010060232417059265
leaf_weight=38 25 26 30 31 31 23 21 21 20 22 20 20 34 21 25 36 20 31 23 35
leaf_count=38 25 26 30 31 31 23 21 21 20 22 20 20 34 21 25 36 20 31 23 35
internal_value=-1.34658e-11 -0.00633197 -0.00451588 0.00882638 0.0110201 0.00809277 -0.00269256 -0.00381966 -0.00726911 -0.00922328 0.0104096 0.00799619 0.000344537 0.00224835 0.0185476 0.0104554 0.0152968 -0.00712954 -0.00849037 -4.19342e-05
internal_weight=553 322 296 231 200 144 266 245 134 114 121 81 111 77 56 61 40 92 54 56
internal_count=553 322 296 231 200 144 266 245 134 114 121 81 111 77 56 61 40 92 54 56
is_linear=0
shrinkage=0.05


Tree=30
num_leaves=22
num_cat=0
split_feature=0 82 91 33 87 37 0 18 39 61 24 41 24 22 10 80 5 18 0 6 3
split_gain=11.1572 4.45442 2.58915 2.30158 1.83583 1.82338 1.59096 1.46797 1.45703 0.515206 0.525808 0.31054 0.273138 0.207017 0.17119 0.14584 0.128534 0.0963484 0.0454234 0.040766 0.0123292
threshold=0.050243197936887606 -2.5564458844122133 0.026111772754189102 -1.6979806248805891 -0.020028249622116297 0.15968782532320758 1.0830796370279445 0.37375127775117784 -0.44179569210955555 0.045333615093095657 0.019936259465803751 0.092106708122812062 -0.83791128691380146 -0.3209507185035812 -0.090497554753082174 -1.0344697105273342 0.68660639840575988 -0.085494067750472844 -0.068646328136578297 -0.96560515444425732 -0.29209782865023498
decision_type=2 2 2 2 2 2 2 2 2 2 2 2 2 2 2 2 2 2 2 2 2
left_child=1 -1 6 -3 -5 8 7 9 12 10 14 18 15 -8 -2 -6 -11 19 20 -14 -10
right_child=2 3 -4 4 5 -7 13 -9 11 16 -12 -13 17 -15 -16 -17 -18 -19 -20 -21 -22
leaf_value=-0.023131064594011097 0.0078739638868215913 -0.020356857115402818 -0.0050604406563985738 -0.017346076183021069 -0.0072389003537271339 0.010667312483268757 0.014890161024466639 -0.0038909998221282405 -0.0013037036369747386 0.011697609871625901 0.00078700686780004106 0.0072220273502171042 -0.00892055867239833 0.02100543922185898 0.013367090439018998 -0.0021944034881399648 0.017366242948919537 -0.011173003718256951 0.0021364188908288878 -0.0058340015456728317 0.00026598157657479695
leaf_weight=34 37 20 31 20 23 27 31 23 29 20 21 20 20 25 23 38 20 25 21 23 22
leaf_count=34 37 20 31 20 23 27 31 23 29 20 21 20 20 25 23 38 20 25 21 23 22
internal_value=4.65819e-11 -0.00601537 0.00838506 -0.00399476 -0.00277371 -0.00159852 0.0104691 0.00768813 -0.00309706 0.00988912 0.00759638 0.00171032 -0.00652558 0.0176202 0.00997966 -0.00409643 0.0145319 -0.00870468 0.000179291 -0.00726961 -0.000626585
internal_weight=553 322 231 288 268 248 200 144 221 121 81 92 129 56 60 61 40 68 72 43 51
internal_count=553 322 231 288 268 248 200 144 221 121 81 92 129 56 60 61 40 68 72 43 51
is_linear=0
shrinkage=0.05


Tree=31
num_leaves=20
num_cat=0
split_feature=42 9 25 41 17 69 69 38 18 73 26 47 43 5 84 40 38 1 80
split_gain=9.21261 6.79506 3.7322 2.32246 2.25888 1.31928 2.22691 1.43044 0.812335 1.09588 0.437925 0.187439 0.180581 0.121358 0.0731452 0.0851885 0.0458784 0.0255101 0.0188559
threshold=0.13285052023300667 1.195005594623749 1.7727369081102073 0.53903486951881707 0.98474251956575054 0.75865270871880197 0.39157149968969829 -0.30779052295874015 -0.4759564597144908 0.032571490443758004 -0.69022898732440996 -0.84812952699105659 0.16133485839395917 0.80275641170856404 0.036540185633270654 -0.57395444760550518 -0.059334804575854341 0.058298119243082355 -0.51922227657766984
decision_type=2 2 2 2 2 2 2 2 2 2 2 2 2 2 2 2 2 2 2
left_child=1 2 3 5 8 6 7 11 9 13 -10 -1 16 -2 15 18 17 -9 -13
right_child=4 -3 -4 -5 -6 -7 -8 12 10 -11 -12 14 -14 -15 -16 -17 -18 -19 -20
leaf_value=-0.0077390072814055855 0.010583873330192133 -0.029214955773204567 -0.01737345591237819 0.011357212788425386 -0.0051769799459725624 0.010014402959495784 -0.014235084802892648 0.0021401625243015589 0.012889115038243207 -0.00044646176531733505 0.021165142640952143 -0.0047938895644620066 0.0062149412471405943 0.015675680965185165 -0.0012682043899850991 -0.0024373177837012064 0.0033940660465439712 -0.00023505675892990371 -0.0069151390530169015
leaf_weight=35 22 25 37 36 20 21 38 20 33 21 31 22 33 25 27 34 27 26 20
leaf_count=35 22 25 37 36 20 21 38 20 33 21 31 22 33 25 27 34 27 26 20
internal_value=-2.50777e-11 -0.00397327 -0.00229497 -0.000649234 0.0104821 -0.00207574 -0.00297607 -0.00122262 0.0128547 0.00904943 0.0168978 -0.00457785 0.00314552 0.0132923 -0.00350368 -0.00429786 0.00175797 0.000797647 -0.00580401
internal_weight=553 401 376 339 152 303 282 244 132 68 64 138 106 47 103 76 73 46 42
internal_count=553 401 376 339 152 303 282 244 132 68 64 138 106 47 103 76 73 46 42
is_linear=0
shrinkage=0.05


Tree=32
num_leaves=22
num_cat=0
split_feature=0 58 0 87 94 35 61 92 81 0 84 16 24 0 80 69 25 49 0 87 35
split_gain=9.14153 3.67838 3.25033 3.04527 1.97178 1.70453 1.31788 0.97734 0.732886 0.696506 0.517713 0.187102 0.140918 0.140737 0.0725934 0.063614 0.0463164 0.0457514 0.0432816 0.0274419 0.014431
threshold=-0.52033759889017395 0.26951384627007152 0.71937653189272399 -0.024720387760344045 -0.37940952255126009 -0.3929851320202416 0.099622320277872864 18.500000000000004 0.37201934475076898 0.017732401055029951 1.0000000180025095e-35 0.61220592263873053 -0.83791128691380146 0.4331704519190121 -0.83181982878649741 0.098535073139793553 0.19576024893604696 0.028662067527890852 -0.24261712901551782 -1.0000000180025095e-35 -0.39780265321351849
decision_type=2 2 2 2 2 2 2 2 2 2 2 2 2 2 2 2 2 2 2 2 2
left_child=1 4 3 -2 -1 -4 8 12 9 18 -7 15 14 17 -6 -12 -14 -11 -5 -18 -20
right_child=2 -3 5 6 7 10 -8 -9 -10 13 11 -13 16 -15 -16 -17 19 -19 20 -21 -22
leaf_value=0.0058733894279406921 -0.01522898428264307 -0.023340928876506434 -0.0021512439119396732 -0.0015272072772954982 -0.0063427523267455405 0.0073041699981937812 0.012407640847518589 -0.018323856079950931 -0.0064151301560923454 0.006786123146302999 0.013024242398770234 0.019858727753162386 -0.0096402480351653972 0.0098833679814230319 -0.0022640286091094217 0.01631234157830477 -0.0055209215142808504 0.0035776876620948316 -8.1996062495322399e-05 -0.0079958802399535973 0.0017737411550479013
leaf_weight=31 25 35 20 38 20 24 33 20 25 20 38 20 22 22 24 24 21 25 22 24 20
leaf_count=31 25 35 20 38 20 24 33 20 25 20 38 20 22 22 24 24 21 25 22 24 20
internal_value=1.55071e-11 -0.00864189 0.00478217 0.00124602 -0.00546617 0.011237 0.00325517 -0.00814958 0.00149917 0.00284514 0.0137631 0.0156536 -0.00631638 0.00660595 -0.00411799 0.0142971 -0.00776009 0.00500366 -0.000304537 -0.0068409 0.000801688
internal_weight=553 197 356 230 162 126 205 131 172 147 106 82 111 67 44 62 67 45 80 45 42
internal_count=553 197 356 230 162 126 205 131 172 147 106 82 111 67 44 62 67 45 80 45 42
is_linear=0
shrinkage=0.05


Tree=33
num_leaves=23
num_cat=0
split_feature=0 17 0 87 94 35 61 4 81 0 84 16 19 0 35 43 43 33 8 0 33 35
split_gain=8.25023 3.46218 2.93343 2.74835 1.62474 1.53834 1.18939 0.66309 0.661429 0.628597 0.467236 0.16886 0.163769 0.127015 0.0810729 0.0629692 0.0579814 0.0438515 0.0417356 0.0390616 0.0381232 0.013024
threshold=-0.52033759889017395 1.2970606242265059 0.71937653189272399 -0.024720387760344045 -0.5 -0.3929851320202416 0.099622320277872864 -1.5740317087339331 0.37201934475076898 0.017732401055029951 1.0000000180025095e-35 0.61220592263873053 0.68691359162761312 0.4331704519190121 -0.20334017302012566 0.93704820476534212 -0.75565594343690401 -0.29209782865023498 0.69907057203943823 -0.24261712901551782 -0.25585697002754287 -0.39780265321351849
decision_type=2 2 2 2 2 2 2 2 2 2 2 2 2 2 2 2 2 2 2 2 2 2
left_child=1 4 3 -2 -1 -4 8 -6 9 19 -7 15 14 17 20 -12 -16 -11 -17 -5 -9 -21
right_child=2 -3 5 6 7 10 -8 12 -10 13 11 -13 -14 -15 16 18 -18 -19 -20 21 -22 -23
leaf_value=0.0078461041674017917 -0.014467534997966143 -0.02247031309209498 -0.0020436815830180421 -0.0014508469224797172 -0.015495072870980947 0.0069389616216843329 0.011787258585294088 -0.00679392687510699 -0.0060943736620247373 0.0064220744894728779 0.011273074969649315 0.018865791037678721 -0.002840723174287834 0.0093891994519667201 -0.0070731936699964795 0.016257940906853903 -0.0033534530078759418 0.0032934524424490519 0.01310563227605252 -7.7896278658458464e-05 -0.0097787600496540908 0.0016850540877203458
leaf_weight=21 25 35 20 38 20 24 33 20 25 21 20 20 36 22 22 21 20 24 21 22 23 20
leaf_count=21 25 35 20 38 20 24 33 20 25 21 20 20 36 22 22 21 20 24 21 22 23 20
internal_value=1.90412e-11 -0.00820979 0.00454306 0.00118372 -0.00512882 0.0106752 0.00309241 -0.00706125 0.00142421 0.00270288 0.013075 0.0148709 -0.00566723 0.00627565 -0.00686435 0.0135822 -0.00530189 0.00475348 0.0146818 -0.00028931 -0.00839047 0.000761604
internal_weight=553 197 356 230 162 126 205 141 172 147 106 82 121 67 85 62 42 45 42 80 43 42
internal_count=553 197 356 230 162 126 205 141 172 147 106 82 121 67 85 62 42 45 42 80 43 42
is_linear=0
shrinkage=0.05


Tree=34
num_leaves=22
num_cat=0
split_feature=0 17 0 87 94 35 61 39 86 0 84 20 11 0 35 15 11 0 37 0 77
split_gain=7.44583 3.12493 2.64742 2.48039 1.4273 1.38835 1.07342 0.74523 0.615803 0.502853 0.42168 0.157454 0.147957 0.110734 0.0981456 0.0536053 0.0521716 0.0337411 0.0320953 0.0256383 0.0160665
threshold=-0.52033759889017395 1.3975347663290163 0.71937653189272399 -0.024720387760344045 -0.5 -0.3929851320202416 0.099622320277872864 -1.460523367222333 0.020125498421135004 0.21396438434484033 1.0000000180025095e-35 -0.2271767324276727 1.053676064658486 -0.17848207060283863 -0.28594092515980901 0.33307941795105839 -0.12291912909673214 0.46317915004345883 0.022399784039140353 0.017732401055029951 0.0080024944269150022
decision_type=2 2 2 2 2 2 2 2 2 2 2 2 2 2 2 2 2 2 2 2 2
left_child=1 4 3 -2 -1 -4 8 -6 -5 13 -7 15 14 20 18 -12 -16 -11 -9 -15 -10
right_child=2 -3 5 6 7 10 -8 12 9 17 11 -13 -14 19 16 -17 -18 -19 -20 -21 -22
leaf_value=0.0066894811747426342 -0.013744158685207368 -0.022956281161770741 -0.0019414975630934351 -0.0066694219153197037 -0.0154527418484742 0.0065920134385426838 0.011197895821974134 -0.0063539161812514074 -0.0020609782946329298 0.005823077941313386 0.01033789549022913 0.016797149418429896 -0.0015287679742323236 0.0013121777548803948 -0.006223355662077666 0.013702686105308863 -0.003163268050635592 0.0087274318188428884 -0.00897642544691085 0.0033964670972200109 -0.00024501529526254484
leaf_weight=22 25 29 20 21 22 24 33 20 21 20 20 33 20 36 30 29 26 20 28 25 29
leaf_count=22 25 29 20 21 22 24 33 20 21 20 20 33 20 36 30 29 26 20 28 25 29
internal_value=8.04171e-12 -0.00779931 0.00431591 0.00112453 -0.00518292 0.0101414 0.00293779 -0.00697191 0.001353 0.0024687 0.0124212 0.0141273 -0.00546725 0.000736613 -0.00622465 0.0123293 -0.0048026 0.00727525 -0.00788371 0.00216639 -0.00100772
internal_weight=553 197 356 230 168 126 205 146 172 151 106 82 124 111 104 49 56 40 48 61 50
internal_count=553 197 356 230 168 126 205 146 172 151 106 82 124 111 104 49 56 40 48 61 50
is_linear=0
shrinkage=0.05


Tree=35
num_leaves=20
num_cat=0
split_feature=42 9 41 25 17 69 69 38 61 17 30 53 47 23 41 84 40 42 80
split_gain=6.15592 5.25017 2.85226 3.20303 1.62763 1.10421 1.7473 0.965381 0.641137 0.441687 0.193781 0.248022 0.132058 0.10859 0.144557 0.068111 0.0725617 0.0498127 0.0206747
threshold=0.13285052023300667 1.195005594623749 0.53903486951881707 1.7727369081102073 0.98474251956575054 0.75865270871880197 0.40850555349587886 -0.30779052295874015 0.022336500958990601 -0.87639430080391756 -0.011569478377435797 0.053621818343257611 -0.84812952699105659 1.3930231683919505 0.10815124823888957 0.036540185633270654 -0.52468637528564932 -0.08787942899360543 -0.36970558119702224
decision_type=2 2 2 2 2 2 2 2 2 2 2 2 2 2 2 2 2 2 2
left_child=1 2 3 5 8 6 7 12 -2 -10 11 -11 -1 14 17 16 18 -9 -14
right_child=4 -3 -4 -5 -6 -7 -8 13 9 10 -12 -13 15 -15 -16 -17 -18 -19 -20
leaf_value=-0.0063753445606146543 0.002790560437874361 -0.025435405977070332 0.011028612424165776 -0.017805961935150931 -0.0047237313538789757 0.0094396358982305091 -0.012900394813290665 0.00074723322904641728 0.0062987269833683973 0.012598475545644762 0.011204060163704288 0.019877664880319078 -0.0038155634286037333 -0.00046505057455404952 0.0061994615724931161 -0.00066382330906991334 -0.0015519067981845833 0.0038752747824764809 -0.0058804403482513
leaf_weight=35 22 25 39 34 20 21 35 35 25 25 38 22 27 23 30 27 28 20 22
leaf_count=35 22 25 39 34 20 21 35 35 25 25 38 22 27 23 30 27 28 20 22
internal_value=1.29545e-11 -0.00324791 -0.00177267 -0.00325413 0.00856849 -0.00162125 -0.00244493 -0.00096339 0.0105825 0.0121408 0.0138591 0.0160058 -0.00371873 0.00258284 0.00340756 -0.00282468 -0.00358238 0.0018847 -0.00474265
internal_weight=553 401 376 337 152 303 282 247 132 110 85 47 139 108 85 104 77 55 49
internal_count=553 401 376 337 152 303 282 247 132 110 85 47 139 108 85 104 77 55 49
is_linear=0
shrinkage=0.05


Tree=36
num_leaves=22
num_cat=0
split_feature=39 58 22 34 77 5 27 92 80 32 48 65 81 35 35 36 71 36 79 69 26
split_gain=6.03389 2.92037 2.9109 3.14329 2.20654 1.8555 1.26523 0.687484 0.683954 0.580585 0.435728 0.89831 0.331142 0.341708 0.207768 0.153254 0.0835181 0.0800996 0.0611851 0.0408943 0.0278218
threshold=-0.53877418919428299 0.26951384627007152 0.81185501981244579 -0.08589186453280688 0.50283719279903272 0.57906019320129543 -0.18073671881782874 18.500000000000004 -0.26828325203602027 -0.47437388137546138 -0.29123422737599253 0.084811427891348865 0.11176459308074856 -0.77888733650819431 -0.33768770262328157 0.17213634057952878 -0.6503721340889842 0.85723356765276171 -0.76810771727917138 0.098535073139793358 0.087776658816439965
decision_type=2 2 2 2 2 2 2 2 2 2 2 2 2 2 2 2 2 2 2 2 2
left_child=1 6 4 8 5 10 -1 16 -4 -7 11 15 -12 -14 -11 -2 18 -16 -8 -19 -18
right_child=2 -3 3 -5 -6 9 7 -9 -10 14 12 -13 13 -15 17 -17 20 19 -20 -21 -22
leaf_value=0.0069908739090897148 0.001126590095794343 -0.021596957709369882 -0.002458006807137281 -0.01917379756207363 -0.0083704195220198029 0.019464324255074775 -0.0052052718643099075 -0.015051028798334302 0.0090186541478726127 0.0058882189426748529 0.0047001552792745784 0.015060233404593809 0.0022846778251139612 -0.0065369807167761406 0.0088202140666544439 0.0065339148044586187 -0.0077148261701776872 0.01138348721433431 -0.0017071268982253971 0.01418383370407603 -0.0053867735589543976
leaf_weight=20 38 31 34 26 25 21 25 20 21 21 33 21 23 21 20 20 21 32 25 22 33
leaf_count=20 38 31 34 26 25 21 25 20 21 21 33 21 23 21 20 20 21 32 25 22 33
internal_value=1.68928e-11 -0.00767596 0.00355369 -0.00484814 0.00584509 0.00715167 -0.00467908 -0.00656133 0.00192399 0.0119407 0.00359058 0.00619941 0.000913976 -0.00192566 0.0102776 0.00299118 -0.0049287 0.0115232 -0.0034562 0.0125244 -0.00629213
internal_weight=553 175 378 81 297 272 144 124 55 116 156 79 77 44 95 58 104 74 50 54 54
internal_count=553 175 378 81 297 272 144 124 55 116 156 79 77 44 95 58 104 74 50 54 54
is_linear=0
shrinkage=0.05


Tree=37
num_leaves=21
num_cat=0
split_feature=0 58 84 34 94 39 39 4 90 45 49 10 34 31 0 19 66 83 61 49
split_gain=5.4894 2.80439 2.0418 1.89711 1.51232 1.23818 1.00285 0.974427 0.469633 0.360345 0.256722 0.155587 0.140451 0.104667 0.103733 0.0976819 0.0859779 0.0336968 0.039207 0.00569268
threshold=-0.52033759889017395 0.59409373778708918 0.022399784039143104 -0.064615229139269689 -0.5 0.53321871435314516 0.76240627871477062 -1.4785633031951992 0.0095990623325689015 0.13174751291572967 0.042745140089975209 0.20800229700423054 0.14677240565648939 -0.28594092515980901 0.24668475490476832 0.6517600623037505 -0.28633992451329887 1.91761084021118 0.028081872062313256 0.020222747219955855
decision_type=2 2 2 2 2 2 2 2 2 2 2 2 2 2 2 2 2 2 2 2
left_child=1 4 3 5 -1 10 8 -6 9 14 13 -8 17 19 -4 -14 -13 18 -9 -2
right_child=2 -3 6 -5 7 -7 11 12 -10 -11 -12 16 15 -15 -16 -17 -18 -19 -20 -21
leaf_value=0.0082577267009764903 0.00019282120571006089 -0.024443825997732347 0.0017257293604052391 -0.010061100298443284 -0.014616587090081182 0.010392550094467072 0.0083048620742970491 -0.0064828930229976255 0.0092518235658175293 -0.0024473998799984312 -0.0049190833438187836 0.011336488878088339 -0.0041885302111040806 0.0039554807634669398 0.0063444104886824088 0.00029341240297071637 0.015446052365005018 -0.0075797422975301745 -0.0038598164292385005 -0.0010001458926126362
leaf_weight=20 20 20 20 39 29 36 29 29 31 29 25 35 31 21 31 20 20 20 28 20
leaf_count=20 20 20 20 39 29 36 29 29 31 29 25 35 31 21 31 20 20 20 28 20
internal_value=2.05385e-11 -0.00669671 0.00370577 -0.00046155 -0.00469139 0.00260716 0.00714647 -0.00634096 0.00402724 0.00200271 -0.000651843 0.0112683 -0.00446601 0.00109703 0.00453316 -0.00243091 0.0128309 -0.00581394 -0.00519436 -0.000403662
internal_weight=553 197 356 161 177 122 195 157 111 80 86 84 128 61 51 51 55 77 57 40
internal_count=553 197 356 161 177 122 195 157 111 80 86 84 128 61 51 51 55 77 57 40
is_linear=0
shrinkage=0.05


Tree=38
num_leaves=24
num_cat=0
split_feature=0 58 22 34 61 78 36 32 32 18 74 57 61 10 69 0 40 35 73 35 8 18 34
split_gain=4.95418 2.53096 1.89238 2.20032 1.42376 2.08552 1.35246 1.05001 0.769536 0.787416 0.53033 0.500555 0.678377 0.278198 0.120389 0.0989114 0.0853173 0.0541062 0.0366475 0.0304835 0.0194099 0.0150964 0.0161686
threshold=-0.52033759889017395 0.59409373778708918 0.7638349212354002 -0.064615229139269689 0.17263448045595758 -0.25642511815914915 0.30849443658472503 0.14677240565648939 -0.47437388137546138 0.25252113440637869 -0.25585697002754287 0.38575244517402724 0.099622320277872864 -0.11736181714465593 0.098535073139793358 0.033973172465991706 -0.97859686113585964 -0.34668931037994061 0.0042775131986817006 -0.28594092515980901 0.59212154757764557 -0.2954675414665448 -1.0153481003007976
decision_type=2 2 2 2 2 2 2 2 2 2 2 2 2 2 2 2 2 2 2 2 2 2 2
left_child=1 4 6 10 5 16 11 -6 -8 13 -4 12 15 -10 20 21 19 -18 -19 -1 -15 22 -2
right_child=2 -3 3 -5 7 -7 8 -9 9 -11 -12 -13 -14 14 -16 -17 17 18 -20 -21 -22 -23 -24
leaf_value=-0.0077418381907045841 -0.00046702048581209971 -0.023221635324880481 -0.001649651065672515 -0.015256335498550192 -0.020432850789456142 0.012916879313997926 0.017831784505397082 -0.0044249801733531064 0.0055977839284027239 -0.0018274561688303948 0.0087103039979757307 -0.0053383182207870144 0.010938887837850913 0.0081178378872573381 0.013566922912230859 0.0035764072028021997 -0.005127309041563422 -0.0038961635052692147 -0.00093889803974889219 -0.0050987719519374275 0.010247629184437834 -0.0011441962828394026 0.0015434883591660764
leaf_weight=20 20 20 30 26 21 20 20 20 39 20 21 21 22 20 26 28 30 20 22 24 23 20 20
leaf_count=20 20 20 30 26 21 20 20 20 39 20 21 21 22 20 26 28 30 20 22 24 23 20 20
internal_value=-3.97184e-12 -0.00636188 0.00352048 -0.00341867 -0.00445682 -0.00199462 0.00543558 -0.0126241 0.00871076 0.0072856 0.00261621 0.00173539 0.00308582 0.0089732 0.010881 0.00112255 -0.00456557 -0.00350553 -0.00234712 -0.00630017 0.00925703 -2.25761e-05 0.000538234
internal_weight=553 197 356 77 177 136 279 41 148 128 51 131 110 108 69 88 116 72 42 44 43 60 40
internal_count=553 197 356 77 177 136 279 41 148 128 51 131 110 108 69 88 116 72 42 44 43 60 40
is_linear=0
shrinkage=0.05


Tree=39
num_leaves=22
num_cat=0
split_feature=82 39 44 43 2 57 51 61 29 33 16 66 39 32 27 45 94 43 35 22 77
split_gain=4.51538 4.34245 1.93492 2.03072 1.85498 0.894708 0.822671 1.65278 0.89908 0.783528 0.694293 0.6525 0.305572 0.175395 0.163135 0.153686 0.105969 0.103226 0.0591908 0.0320704 0.0114702
threshold=-2.5564458844122133 0.78853945679336401 0.48554783570155763 -0.18371531389465617 1.2767156924992291 0.10334255413316847 -0.09974956612072948 0.081525718469909414 0.12108485496155875 -1.6979806248805891 0.97704085399272211 -0.17605976224543293 -0.51159240848442433 -0.42197496049554378 -0.012758847958265597 0.36343328029498073 -0.5 0.16133485839395917 -0.28088927243776157 -0.83354812829379943 0.0080024944269170024
decision_type=2 2 2 2 2 2 2 2 2 2 2 2 2 2 2 2 2 2 2 2 2
left_child=4 2 3 9 -1 -3 7 16 17 -2 12 13 15 -7 -15 18 -5 -8 -11 -20 -14
right_child=1 5 -4 6 -6 11 8 -9 -10 10 -12 -13 20 14 -16 -17 -18 -19 19 -21 -22
leaf_value=-0.026032793175961289 -0.013168888607760894 0.00082292848435992555 -0.01592212932273036 0.00038807319615443705 -0.0056843521500316765 0.01279336865991354 0.0011868767901385008 0.018982911854982378 -0.0090057722292840488 -0.0059597886897422179 0.0053753152530154457 0.019341948498850285 -0.0014597326577958567 0.0043489911686629057 0.010523458667423415 -0.0091457373949445104 0.0046772862561435128 0.0049791530062280156 -0.0022062540237259651 -0.0048277485556900502 9.1507063972620444e-05
leaf_weight=21 20 22 21 24 24 27 38 22 20 37 23 23 22 20 23 22 36 34 28 20 26
leaf_count=21 20 22 21 24 24 27 38 22 20 37 23 23 22 20 23 22 36 34 28 20 26
internal_value=-2.06832e-12 0.00134471 -0.00115597 -0.000322397 -0.0151803 0.00989052 0.00361837 0.00726 0.000372577 -0.0037855 -0.00273119 0.0120355 -0.00393409 0.00963486 0.00765161 -0.00542101 0.0029616 0.00297767 -0.00445697 -0.00329854 -0.000619478
internal_weight=553 508 393 372 45 115 174 82 92 198 178 93 155 70 43 107 60 72 85 48 48
internal_count=553 508 393 372 45 115 174 82 92 198 178 93 155 70 43 107 60 72 85 48 48
is_linear=0
shrinkage=0.05


Tree=40
num_leaves=23
num_cat=0
split_feature=82 42 40 43 2 51 17 0 32 81 17 94 9 30 84 6 31 65 43 69 85 41
split_gain=4.07513 3.79464 2.08958 1.94449 1.67412 1.0399 1.62069 0.724787 0.594307 0.543746 0.4737 0.345735 0.222889 0.152312 0.119357 0.0831844 0.073618 0.072599 0.0698877 0.046879 0.037898 0.0163422
threshold=-2.5564458844122133 0.13285052023300667 0.30974202204384155 -0.18371531389465617 1.2767156924992291 -0.055565793430653494 -0.36572370524821235 -1.6681388008786835 -0.469252562941676 0.36553555539443677 0.47760478287283314 -0.9159756150367534 0.41597399242324623 0.060156237858619808 0.030535382353965055 -0.89913372031571959 -0.26453208378772253 0.051127338942411955 0.045100961050301501 0.098535073139793358 3.2265856653168617e-16 0.041906158706093759
decision_type=2 2 2 2 2 2 2 2 2 2 2 2 2 2 2 2 2 2 2 2 2 2
left_child=4 2 3 7 -1 6 17 -2 -3 18 12 -9 13 -10 15 21 -16 -5 -7 -14 -17 -13
right_child=1 8 -4 5 -6 9 -8 11 10 -11 -12 14 19 -15 16 20 -18 -19 -20 -21 -22 -23
leaf_value=-0.024731153320698515 -0.011741607822477818 0.016009048762775601 -0.015355421900749205 0.0007979890463712555 -0.005400134471710772 0.00058892972487956281 0.017935146329303583 0.0030992213709396311 0.0084402436280951783 -0.0072965130326338116 -0.00013315681833773853 -0.0052034460895118264 0.0094775249334898871 0.0032378177527183048 -0.00015662408922383162 -0.0043295945756004327 -0.0037091203629970554 0.0047506340513271952 0.0043275850313948469 0.012822228176519275 -0.001519716077157119 -0.0072005156613886359
leaf_weight=21 24 21 25 26 24 25 27 24 34 20 20 21 22 24 35 28 25 21 25 20 21 20
leaf_count=21 24 21 25 26 24 25 27 24 34 20 20 21 22 24 35 28 25 21 25 20 21 20
internal_value=1.82899e-11 0.00127748 -0.00140108 -0.000381023 -0.0144213 0.00403988 0.00817243 -0.00359622 0.00824931 -0.00032882 0.00689136 -0.00247272 0.00829626 0.00628752 -0.00336423 -0.00451584 -0.00163683 0.00256406 0.00245826 0.0110702 -0.00312536 -0.00617763
internal_weight=553 508 367 342 45 144 74 198 141 70 120 174 100 58 150 90 60 47 50 42 49 41
internal_count=553 508 367 342 45 144 74 198 141 70 120 174 100 58 150 90 60 47 50 42 49 41
is_linear=0
shrinkage=0.05


end of trees

feature_importances:
Column_0=77
Column_39=46
Column_94=26
Column_43=24
Column_42=23
Column_82=23
Column_22=22
Column_17=21
Column_25=21
Column_18=19
Column_35=19
Column_61=19
Column_69=19
Column_4=16
Column_38=16
Column_41=16
Column_47=16
Column_84=16
Column_24=15
Column_9=14
Column_23=13
Column_33=13
Column_34=13
Column_77=13
Column_86=13
Column_58=12
Column_31=10
Column_32=10
Column_37=10
Column_49=10
Column_1=9
Column_10=9
Column_11=9
Column_19=9
Column_40=9
Column_65=9
Column_5=8
Column_55=8
Column_57=8
Column_81=8
Column_45=7
Column_66=7
Column_67=7
Column_92=7
Column_7=6
Column_27=6
Column_54=6
Column_70=6
Column_71=6
Column_87=6
Column_2=5
Column_8=5
Column_13=5
Column_16=5
Column_26=5
Column_29=5
Column_36=5
Column_51=5
Column_68=5
Column_74=5
Column_80=5
Column_3=4
Column_20=4
Column_30=4
Column_46=4
Column_53=4
Column_73=4
Column_79=4
Column_6=3
Column_15=3
Column_28=3
Column_44=3
Column_14=2
Column_48=2
Column_50=2
Column_64=2
Column_75=2
Column_78=2
Column_85=2
Column_88=2
Column_90=2
Column_91=2
Column_93=2
Column_52=1
Column_83=1

parameters:
[boosting: gbdt]
[objective: regression]
[metric: rmse]
[tree_learner: serial]
[device_type: cpu]
[data_sample_strategy: bagging]
[data: ]
[valid: ]
[num_iterations: 1500]
[learning_rate: 0.05]
[num_leaves: 31]
[num_threads: 0]
[seed: 42]
[deterministic: 0]
[force_col_wise: 0]
[force_row_wise: 0]
[histogram_pool_size: -1]
[max_depth: -1]
[min_data_in_leaf: 20]
[min_sum_hessian_in_leaf: 0.001]
[bagging_fraction: 0.8]
[pos_bagging_fraction: 1]
[neg_bagging_fraction: 1]
[bagging_freq: 0]
[bagging_seed: 400]
[bagging_by_query: 0]
[feature_fraction: 0.8]
[feature_fraction_bynode: 1]
[feature_fraction_seed: 30056]
[extra_trees: 0]
[extra_seed: 12879]
[early_stopping_round: 0]
[early_stopping_min_delta: 0]
[first_metric_only: 0]
[max_delta_step: 0]
[lambda_l1: 0]
[lambda_l2: 0]
[linear_lambda: 0]
[min_gain_to_split: 0]
[drop_rate: 0.1]
[max_drop: 50]
[skip_drop: 0.5]
[xgboost_dart_mode: 0]
[uniform_drop: 0]
[drop_seed: 17869]
[top_rate: 0.2]
[other_rate: 0.1]
[min_data_per_group: 100]
[max_cat_threshold: 32]
[cat_l2: 10]
[cat_smooth: 10]
[max_cat_to_onehot: 4]
[top_k: 20]
[monotone_constraints: ]
[monotone_constraints_method: basic]
[monotone_penalty: 0]
[feature_contri: ]
[forcedsplits_filename: ]
[refit_decay_rate: 0.9]
[cegb_tradeoff: 1]
[cegb_penalty_split: 0]
[cegb_penalty_feature_lazy: ]
[cegb_penalty_feature_coupled: ]
[path_smooth: 0]
[interaction_constraints: ]
[verbosity: -1]
[saved_feature_importance_type: 0]
[use_quantized_grad: 0]
[num_grad_quant_bins: 4]
[quant_train_renew_leaf: 0]
[stochastic_rounding: 1]
[linear_tree: 0]
[max_bin: 255]
[max_bin_by_feature: ]
[min_data_in_bin: 3]
[bin_construct_sample_cnt: 200000]
[data_random_seed: 175]
[is_enable_sparse: 1]
[enable_bundle: 1]
[use_missing: 1]
[zero_as_missing: 0]
[feature_pre_filter: 1]
[pre_partition: 0]
[two_round: 0]
[header: 0]
[label_column: ]
[weight_column: ]
[group_column: ]
[ignore_column: ]
[categorical_feature: ]
[forcedbins_filename: ]
[precise_float_parser: 0]
[parser_config_file: ]
[objective_seed: 16083]
[num_class: 1]
[is_unbalance: 0]
[scale_pos_weight: 1]
[sigmoid: 1]
[boost_from_average: 1]
[reg_sqrt: 0]
[alpha: 0.9]
[fair_c: 1]
[poisson_max_delta_step: 0.7]
[tweedie_variance_power: 1.5]
[lambdarank_truncation_level: 30]
[lambdarank_norm: 1]
[label_gain: ]
[lambdarank_position_bias_regularization: 0]
[eval_at: ]
[multi_error_top_k: 1]
[auc_mu_weights: ]
[num_machines: 1]
[local_listen_port: 12400]
[time_out: 120]
[machine_list_filename: ]
[machines: ]
[gpu_platform_id: -1]
[gpu_device_id: -1]
[gpu_use_dp: 0]
[num_gpu: 1]

end of parameters

pandas_categorical:null
