tree
version=v4
num_class=1
num_tree_per_iteration=1
label_index=0
max_feature_idx=96
objective=regression
feature_names=Column_0 Column_1 Column_2 Column_3 Column_4 Column_5 Column_6 Column_7 Column_8 Column_9 Column_10 Column_11 Column_12 Column_13 Column_14 Column_15 Column_16 Column_17 Column_18 Column_19 Column_20 Column_21 Column_22 Column_23 Column_24 Column_25 Column_26 Column_27 Column_28 Column_29 Column_30 Column_31 Column_32 Column_33 Column_34 Column_35 Column_36 Column_37 Column_38 Column_39 Column_40 Column_41 Column_42 Column_43 Column_44 Column_45 Column_46 Column_47 Column_48 Column_49 Column_50 Column_51 Column_52 Column_53 Column_54 Column_55 Column_56 Column_57 Column_58 Column_59 Column_60 Column_61 Column_62 Column_63 Column_64 Column_65 Column_66 Column_67 Column_68 Column_69 Column_70 Column_71 Column_72 Column_73 Column_74 Column_75 Column_76 Column_77 Column_78 Column_79 Column_80 Column_81 Column_82 Column_83 Column_84 Column_85 Column_86 Column_87 Column_88 Column_89 Column_90 Column_91 Column_92 Column_93 Column_94 Column_95 Column_96
feature_infos=[-3.1436137381203491:1.8747339926573592] [-2.9456947730335923:2.3023461922382684] [-1.9214982655591348:2.3127511643628611] [-2.8206285863213494:3.1396152193407207] [-3.1436137381203491:1.8747339926573592] [-3.1436137381203491:1.8747339926573592] [-3.1436137381203491:1.8747339926573592] [-3.1436137381203491:1.8747339926573592] [-3.1436137381203491:1.8747339926573592] [-3.1436137381203491:1.8747339926573592] [-3.1436137381203491:1.8747339926573592] [-2.4167236952191371:1.8747339926573592] [-2.9456947730335923:2.3023461922382684] [-2.9456947730335923:2.3023461922382684] [-2.9456947730335923:2.3023461922382684] [-2.9456947730335923:2.3023461922382684] [-2.9456947730335923:2.3023461922382684] [-2.9456947730335923:2.3023461922382684] [-2.9456947730335923:2.3023461922382684] [-2.9456947730335923:2.1095348647637602] [-1.9214982655591348:2.3127511643628611] [-1.9214982655591348:2.3127511643628611] [-1.9214982655591348:2.3127511643628611] [-1.9214982655591348:2.3127511643628611] [-1.9214982655591348:2.3127511643628611] [-1.9214982655591348:2.3127511643628611] [-1.9214982655591348:2.3127511643628611] [-1.9214982655591348:2.3127511643628611] [-2.8206285863213494:3.1396152193407207] [-2.8206285863213494:3.1396152193407207] [-2.8206285863213494:3.1396152193407207] [-2.8206285863213494:3.1396152193407207] [-2.8206285863213494:3.1396152193407207] [-2.8206285863213494:3.1396152193407207] [-2.8206285863213494:3.1396152193407207] [-2.8206285863213494:3.1396152193407207] [-3.0944400997221435:1.8599716246029767] [0.0026764592121244:1.645293274289489] [-3.1436137381203491:1.8304468884942124] [-2.9960928229257324:1.8747339926573592] [-2.9296301880955831:1.8022133054737608] [0.027759399514255201:1.4822928362679113] [-3.1436137381203491:1.705332494534648] [-2.7010509925364974:1.8747339926573592] [-2.5877502371402685:1.7005705465951813] [0.057965947907529097:1.4654300354425009] [-3.1436137381203491:1.5226315663682937] [-1.9476856939459719:1.8747339926573592] [-2.9180705673625682:2.2473998789928071] [0.0024028631714775:1.3393603788891415] [-2.9456947730335923:2.137507252501885] [-2.8628221560205205:2.3023461922382684] [-2.8358259391117802:2.0464691477191801] [0.0065770337413709997:1.2411263048401728] [-2.9456947730335923:1.9437896307376168] [-2.6970769219943778:2.3023461922382684] [-2.6496765452135107:1.9100426336467944] [0.026125602957564501:1.1095090014648661] [-2.9456947730335923:1.612299162685332] [-2.2827138369290214:2.3023461922382684] [-1.9140965071559533:2.3091775024481351] [0.00066197234498080004:0.85738701167726239] [-1.9214982655591348:2.3020301786186832] [-1.8992929903495912:2.3127511643628611] [-1.8784728735646239:2.2863502102820434] [0.0139811846015992:0.938929978413098] [-1.9214982655591348:2.218671354343023] [-1.843731264033748:2.3127511643628611] [-1.7899148409758243:2.1363204820716875] [0.058773164469634299:1.1384432322602362] [-1.9214982655591348:2.0276220029102845] [-1.6443517680489976:2.3127511643628611] [-2.7516742620645029:3.1287580558595529] [0:1.8104419330760275] [-2.8206285863213494:3.1070437288972159] [-2.6354906964931168:3.1396152193407207] [-2.5601258145824897:3.0853294019348798] [0.0020680105006647001:2.4812887862777475] [-2.8206285863213494:3.0093292575667019] [-2.2000396680097309:3.1396152193407207] [-2.1253131764258288:2.9903292214746577] [0.0093116775430298008:2.5235108937734081] [-2.8206285863213494:2.8139003149056738] [-1.4654962184571301:3.1396152193407207] [-0.95199108778837038:2.8290121784015625] [-2.7880157955644478:2.8290121784015625] [-2.0538181296402058:2.2789837836424791] [-2.1993229536789611:2.2789837836424791] [-0.98357508756868395:1.3940667050027256] [-1.2596528450146576:1.226362536703284] [-2.8555537924868721:2.0461820012180407] [-2.8555537924868721:2.8555537924868721] [0:23] [-1:1] [-1:1] [1:6] [1:6]
tree_sizes=1954 1845 1854 1851 1941 2025 1943 1942 2104 1943 2031 2031

Tree=0
num_leaves=22
num_cat=0
split_feature=81 65 18 1 19 53 61 56 3 10 31 16 11 41 67 14 34 34 10 70 53
split_gain=254.041 58.006 33.8428 20.8881 18.6051 14.2044 13.7781 8.77295 7.35809 6.59886 6.03529 5.50886 3.46113 3.19483 2.99614 1.86883 1.6203 0.765713 0.439044 0.246365 0.0340925
threshold=0.12965929924928568 0.041787766904122704 -0.16580550530917768 0.6230237255038934 0.99033738313521591 0.10511506631902946 0.046918926430831606 1.0016403972437893 0.34231901988584462 0.11214277687753792 -0.26453208378772253 0.17629049595961158 -1.409219201466122 0.17276757193550327 0.25458883538896931 0.12803724005024267 2.5149542652997274 -0.33491551139440806 -1.4774058861555168 -0.23696487857436535 0.05362181834321781
decision_type=2 2 2 2 2 2 2 2 2 2 2 2 2 2 2 2 2 2 2 2 2
left_child=1 3 8 -1 5 13 10 9 -2 -7 12 16 -3 -4 -9 -8 19 18 -14 -12 -20
right_child=2 6 4 -5 -6 7 15 14 -10 -11 11 -13 17 -15 -16 -17 -18 -19 20 -21 -22
leaf_value=0.0083000009941782554 0.1299747774543939 0.09405791233606399 0.11951634886812459 0.073437534101950724 0.1965729558966936 0.15775294236434279 0.10748811867822078 0.13504027195897958 0.09363978670855802 0.1900052962514486 0.090889271056922877 0.11809406204094929 0.071972743197411052 0.14385658865087206 0.16100430481758973 0.1288442489567127 0.07766213525887164 0.068424006004586244 0.082340497753294911 0.098737275457653012 0.079456022476711186
leaf_weight=32 38 30 26 20 29 29 21 25 22 35 20 22 21 28 20 20 21 33 20 20 21
leaf_count=32 38 30 26 20 29 29 21 25 22 35 20 22 21 28 20 20 21 33 20 20 21
internal_value=0.112392 0.0813838 0.14943 0.0333529 0.159673 0.153108 0.0914144 0.163496 0.116652 0.175391 0.0861925 0.0966446 0.0792523 0.132137 0.14658 0.117906 0.0889088 0.0745769 0.0778518 0.0948133 0.0808631
internal_weight=553 301 252 52 192 163 249 109 60 64 208 83 125 54 45 41 61 95 62 40 41
internal_count=553 301 252 52 192 163 249 109 60 64 208 83 125 54 45 41 61 95 62 40 41
is_linear=0
shrinkage=1


Tree=1
num_leaves=20
num_cat=0
split_feature=81 69 18 0 27 19 53 56 3 16 10 27 67 35 65 0 18 2 10
split_gain=229.272 52.4446 30.5431 20.5017 18.1676 16.7911 12.8195 7.91759 6.64068 5.98915 5.95547 4.04074 2.70401 1.74354 1.56787 1.02824 0.451375 0.408571 0.200709
threshold=0.12965929924928568 0.080535399522411066 -0.16580550530917768 1.0455867674722945 0.22649027976092442 0.99033738313521591 0.10511506631902946 1.0016403972437893 0.34231901988584462 0.082804463169015755 0.11214277687753792 1.0000000180025095e-35 0.25458883538896931 0.34231901988584462 0.08777727382973817 0.033973172465991706 -0.13934158872713381 -0.17239457550056944 -1.5083082236561725
decision_type=2 2 2 2 2 2 2 2 2 2 2 2 2 2 2 2 2 2 2
left_child=1 3 8 -1 9 6 11 10 -2 14 -8 -4 -9 15 17 16 18 -3 -6
right_child=2 4 5 -5 13 -7 7 12 -10 -11 -12 -13 -14 -15 -16 -17 -18 -19 -20
leaf_value=-0.10236108601093293 0.016703613431462528 -0.02388981180265546 0.036591072976589201 -0.037006767662242056 -0.040017827313679921 0.079971886708818635 0.043092870147063818 0.021515832453966141 -0.017814627433703704 0.012132871066304771 0.073732607875551498 0.008267842360638657 0.046181664764881142 -0.022961864552714609 -0.0043678777306481748 -0.028685720670487615 -0.045984123200178147 -0.014833120764656503 -0.033528849685733969
leaf_weight=30 38 20 20 20 26 29 29 25 22 33 35 34 20 33 33 31 20 33 22
leaf_count=30 38 20 20 20 26 29 29 25 22 33 35 34 20 33 33 31 20 33 22
internal_value=4.46767e-11 -0.0294578 0.0351857 -0.0762194 -0.0201427 0.0449165 0.0386797 0.0485492 0.00404693 -0.00597516 0.059849 0.0187579 0.0324784 -0.032915 -0.0129236 -0.0362327 -0.0396732 -0.0182507 -0.0370437
internal_weight=553 301 252 50 251 192 163 109 60 119 64 54 45 132 86 99 68 53 48
internal_count=553 301 252 50 251 192 163 109 60 119 64 54 45 132 86 99 68 53 48
is_linear=0
shrinkage=0.05


Tree=2
num_leaves=20
num_cat=0
split_feature=81 69 18 1 27 19 53 56 16 75 10 27 76 35 2 39 27 18 10
split_gain=206.918 47.3313 27.5651 18.5028 16.4295 15.1689 12.0245 7.14563 5.96382 5.45266 5.37481 3.13239 2.51258 1.65664 1.07831 0.900588 0.494408 0.429407 0.202873
threshold=0.12965929924928568 0.080535399522411066 -0.16580550530917768 0.6230237255038934 0.19576024893604696 0.97704085399272211 0.10511506631902946 1.0016403972437893 -0.0071621427947315495 0.34231901988584462 0.11214277687753792 0.15108575489913373 0.15987172786838358 0.34231901988584462 -0.19213282193673745 0.043731502158620504 -0.30263149874010603 -0.13934158872713381 -1.5083082236561725
decision_type=2 2 2 2 2 2 2 2 2 2 2 2 2 2 2 2 2 2 2
left_child=1 3 9 -1 8 6 11 10 14 -2 -8 -4 -9 15 -3 17 -16 18 -6
right_child=2 4 5 -5 13 -7 7 12 -10 -11 -12 -13 -14 -15 16 -17 -18 -19 -20
leaf_value=-0.097243028481801358 0.016583557828728644 -0.023307964429259302 0.032701426967978474 -0.035156428333430086 -0.038016938131589156 0.075328956643740341 0.040938226159276642 0.020287094354629519 0.010830942653487191 -0.013989992150804029 0.070045977149690894 0.0076245435640554544 0.04406376406550408 -0.021554461472174703 -0.0065959657040926128 -0.027251435449016433 -0.016265188455581666 -0.043684917688369754 -0.031570350281570271
leaf_weight=30 35 20 20 20 26 30 29 25 38 25 35 33 20 34 39 31 20 20 23
leaf_count=30 35 20 20 20 26 30 29 25 38 25 35 33 20 34 39 31 20 20 23
internal_value=-2.80828e-11 -0.0279849 0.0334264 -0.0724084 -0.0191356 0.0426707 0.0366229 0.0461217 -0.00544555 0.00384458 0.0568565 0.0170875 0.0308545 -0.0310888 -0.0132748 -0.0343305 -0.00987367 -0.037511 -0.034991
internal_weight=553 301 252 50 251 192 162 109 117 60 64 53 45 134 79 100 59 69 49
internal_count=553 301 252 50 251 192 162 109 117 60 64 53 45 134 79 100 59 69 49
is_linear=0
shrinkage=0.05


Tree=3
num_leaves=20
num_cat=0
split_feature=81 65 18 11 27 19 53 56 3 17 10 27 67 35 61 3 18 63 10
split_gain=186.744 42.7438 24.8775 15.7153 14.476 13.7044 10.455 6.44893 5.4896 5.18102 4.85077 3.29683 2.30608 1.28842 1.2656 0.789684 0.364121 0.306031 0.160701
threshold=0.12965929924928568 0.041787766904122704 -0.16580550530917768 -0.6839302013263665 0.25304397730457434 0.99033738313521591 0.10511506631902946 1.0016403972437893 0.34231901988584462 -0.033360922137163643 0.11214277687753792 1.0000000180025095e-35 0.25458883538896931 0.16167999810006087 0.046918926430821357 -0.25275828480218981 -0.17993945261890326 -0.18751696551444433 -1.5455925708449108
decision_type=2 2 2 2 2 2 2 2 2 2 2 2 2 2 2 2 2 2 2
left_child=1 3 8 -1 9 6 11 10 -2 14 -8 -4 -9 15 17 16 18 -3 -6
right_child=2 4 5 -5 13 -7 7 12 -10 -11 -12 -13 -14 -15 -16 -17 -18 -19 -20
leaf_value=-0.094265969925456577 0.015159939962904901 -0.021396688930690289 0.033019880149513479 -0.039250898934900767 -0.036211436857347901 0.072206844338055312 0.038891315100521878 0.019187919676303865 -0.016224396749484268 0.010642485760950617 0.066543679748262682 0.0074363452519344946 0.041966601535677911 -0.021519533544778827 -0.0034462334047670345 -0.026097354538117845 -0.041527179926633837 -0.013755515168764091 -0.030083208903670312
leaf_weight=27 38 20 20 25 23 29 29 25 22 35 35 34 20 35 28 30 20 38 20
leaf_count=27 38 20 20 25 23 29 29 25 22 35 35 34 20 35 28 30 20 38 20
internal_value=1.52919e-10 -0.0265856 0.0317551 -0.0678164 -0.0179752 0.0405372 0.0349027 0.0438157 0.00365235 -0.00557563 0.0540137 0.0169117 0.0293118 -0.0296967 -0.012176 -0.0327741 -0.0359535 -0.0163904 -0.0333611
internal_weight=553 301 252 52 249 192 163 109 60 121 64 54 45 128 86 93 63 58 43
internal_count=553 301 252 52 249 192 163 109 60 121 64 54 45 128 86 93 63 58 43
is_linear=0
shrinkage=0.05


Tree=4
num_leaves=21
num_cat=0
split_feature=77 65 69 18 0 58 33 9 37 10 70 35 11 67 57 11 1 49 45 58
split_gain=165.998 41.0928 18.4959 17.5876 14.2662 9.879 6.52154 6.27303 6.09663 3.05957 2.87794 2.82292 2.68421 1.74807 1.49715 0.913172 1.03198 0.432137 0.220896 0.0593447
threshold=0.061429668869515508 0.041787766904122704 0.18115315310935498 -0.16580550530917768 1.0455867674722945 0.43561169401248245 -0.42446765173837137 0.51198462521405952 0.019069606190277356 -1.4223012430283155 1.0000000180025095e-35 -0.036820709998714292 0.39675437462370994 0.9723906805211322 0.29880146997253282 -1.409219201466122 -0.62549551858791708 0.042745140089944858 0.080763569912453162 -0.36292506909662192
decision_type=2 2 2 2 2 2 2 2 2 2 2 2 2 2 2 2 2 2 2 2
left_child=1 4 8 10 -1 6 -5 11 -3 18 -2 13 -7 -8 15 19 -17 -18 -10 -11
right_child=3 2 -4 5 -6 12 7 -9 9 14 -12 -13 -14 -15 -16 16 17 -19 -20 -21
leaf_value=-0.085130015760660177 0.02185291636735201 0.0039182753331260759 0.026061440895621974 0.025224428408546374 -0.03129852559999563 0.0040492547024041413 0.027806733495422772 0.070375495056311285 -0.038034723699092866 -0.017120027967861721 -0.001923318814286696 0.054867959203142115 0.029953955635428433 0.047160957753658299 -0.0079722581353659436 -0.016698939411082504 -0.023382002509692135 -0.031242298127876392 -0.031045295183475204 -0.013361081197148279
leaf_weight=32 20 24 24 32 20 20 28 30 20 21 35 33 20 20 24 33 34 36 26 21
leaf_count=32 20 24 24 32 20 20 28 30 20 21 35 33 20 20 24 33 34 36 26 21
internal_value=2.16831e-12 -0.0238118 -0.0157816 0.0315156 -0.0644256 0.038967 0.0451112 0.0508443 -0.0199835 -0.0226516 0.00672258 0.0436105 0.0170016 0.035871 -0.0195397 -0.0214543 -0.0239881 -0.0274244 -0.0340842 -0.0152406
internal_weight=553 315 263 238 52 183 143 111 239 215 55 81 40 48 169 145 103 70 46 42
internal_count=553 315 263 238 52 183 143 111 239 215 55 81 40 48 169 145 103 70 46 42
is_linear=0
shrinkage=0.05


Tree=5
num_leaves=22
num_cat=0
split_feature=81 65 55 19 11 27 9 44 17 22 74 38 68 17 3 16 27 34 16 51 8
split_gain=152.609 34.7407 21.0508 20.5365 13.1466 11.7445 6.23347 4.51709 4.34403 3.75375 3.52526 2.56897 2.4219 1.07256 0.977968 0.916832 0.877194 0.653065 0.557716 0.231199 0.170742
threshold=0.12965929924928568 0.041787766904122704 -0.58931384830760591 0.29113492293602355 -0.6839302013263665 0.25304397730457434 0.039237578454837461 -0.67822672416525054 -0.033360922137163643 0.59576334687138233 0.11810245569682908 -0.98207250077469865 0.46682690707933477 0.021795594133545853 -0.24922932168707121 -0.69022876460842053 -1.6255742163484415 -0.33491551139440806 -0.56069517043531303 -0.30868639982881385 -0.55278865570439029
decision_type=2 2 2 2 2 2 2 2 2 2 2 2 2 2 2 2 2 2 2 2 2
left_child=1 4 11 6 -1 8 12 -5 16 10 -8 -2 -4 -9 17 -16 -3 19 -18 -7 -20
right_child=2 5 3 7 -6 14 9 13 -10 -11 -12 -13 -14 -15 15 -17 18 -19 20 -21 -22
leaf_value=-0.085395859402638899 0.010520987826166676 -0.0019726130098570139 0.051531100137667221 0.039528287388384348 -0.035077448900789024 -0.029214889578082982 0.014355010497901175 0.073904791603917663 0.0097482880471008171 0.003638685031739228 0.038795478582382206 -0.013742612656036123 0.02749042009934783 0.058794967581828443 -0.028343319750967478 -0.013893328526097795 -0.020653930590266274 -0.035906549543142319 -0.014229266047477724 -0.022439946308732035 -0.0080311259739100933
leaf_weight=27 20 20 22 24 25 34 36 23 35 34 25 24 20 24 21 23 21 30 20 20 25
leaf_count=27 20 20 22 24 25 34 36 23 35 34 25 24 20 24 21 23 21 30 20 20 25
internal_value=1.2822e-10 -0.0240334 0.0287065 0.0353531 -0.0612043 -0.0162707 0.0240429 0.057177 -0.00510213 0.0169514 0.0243716 -0.0027137 0.0400832 0.0661891 -0.0268286 -0.0207899 -0.0111459 -0.0299917 -0.0139257 -0.0267057 -0.0107859
internal_weight=553 301 252 208 52 249 137 71 121 95 61 44 42 47 128 44 86 84 66 54 45
internal_count=553 301 252 208 52 249 137 71 121 95 61 44 42 47 128 44 86 84 66 54 45
is_linear=0
shrinkage=0.05


Tree=6
num_leaves=21
num_cat=0
split_feature=77 65 61 18 1 58 33 9 10 70 11 71 17 69 10 18 63 19 11 79
split_gain=135.559 33.4192 15.7003 14.5148 11.9274 8.2559 5.52971 5.10358 3.20379 2.34457 2.34055 2.17529 1.55526 0.954454 1.26208 0.955199 0.948484 0.602428 0.280356 0.267417
threshold=0.061429668869515508 0.041787766904122704 0.046918926430852055 -0.16580550530917768 0.6230237255038934 0.43561169401248245 -0.42446765173837137 0.51198462521405952 -1.3865498111186525 1.0000000180025095e-35 0.39675437462370994 0.95175504424482094 0.47760478287283314 0.10125062963182876 0.20800229700423054 -0.51985349387957958 1.0982900457914313 -0.40670975174171614 -1.4513258121323549 -0.38121133303470889
decision_type=2 2 2 2 2 2 2 2 2 2 2 2 2 2 2 2 2 2 2 2
left_child=1 4 8 9 -1 6 -5 11 19 -2 -7 -8 13 14 17 18 -13 -10 -15 -3
right_child=3 2 -4 5 -6 10 7 -9 12 -11 -12 16 -14 15 -16 -17 -18 -19 -20 -21
leaf_value=-0.077075458085164431 0.019613149904180321 -0.033386256109023918 0.017428208282388582 0.022553799109300599 -0.027853929488919679 0.0030743029387667775 0.030226820238998961 0.063761961956818908 -0.030205413651081828 -0.0018470650971201914 0.027263920828700067 0.054266612773591828 -0.0027525025316572286 -0.014090895588908879 -0.012547180778346956 -0.0041016465739812701 0.039893630084892114 -0.019773454904556276 -0.021398499466124037 -0.02587091363966465
leaf_weight=32 20 29 34 32 20 20 35 30 31 35 20 22 20 35 28 20 24 25 21 20
leaf_count=32 20 29 34 32 20 20 35 30 31 35 20 22 20 35 28 20 24 25 21 20
internal_value=-7.78383e-12 -0.0215181 -0.0142765 0.0284799 -0.0581441 0.0352492 0.040866 0.0461451 -0.0189837 0.00595665 0.0151691 0.0396204 -0.0158981 -0.0175413 -0.0212146 -0.0134814 0.0467677 -0.0255483 -0.0168312 -0.0303188
internal_weight=553 315 263 238 52 183 143 111 229 55 40 81 180 160 84 76 46 56 56 49
internal_count=553 315 263 238 52 183 143 111 229 55 40 81 180 160 84 76 46 56 56 49
is_linear=0
shrinkage=0.05


Tree=7
num_leaves=21
num_cat=0
split_feature=81 61 55 19 61 27 18 47 54 35 38 19 35 35 11 11 0 18 77 17
split_gain=124.978 29.0767 17.6181 17.1436 14.9783 10.266 7.92342 4.08244 3.67577 2.66217 2.1335 1.66761 1.26043 1.02404 0.867985 0.711929 0.543591 0.328715 0.17558 0.161117
threshold=0.12965929924928568 0.0223365009590363 -0.58931384830760591 0.29113492293602355 0.022336500958927304 0.19576024893604696 0.082804463169015755 0.17213634057952867 0.49430675347208286 -0.92560802833366829 -0.98207250077469865 -0.19768526723946964 -0.4336640581654358 0.16167999810006087 0.36256579806260497 -0.19577142593779354 0.033973172465991706 -0.13934158872713381 0.017964783131030053 -1.0027938065614153
decision_type=2 2 2 2 2 2 2 2 2 2 2 2 2 2 2 2 2 2 2 2
left_child=1 4 10 6 -1 9 -4 -5 11 -3 -2 -8 -9 16 -10 18 17 19 -11 -7
right_child=2 5 3 7 -6 13 8 12 14 15 -12 -13 -14 -15 -16 -17 -18 -19 -20 -21
leaf_value=-0.026477210280986936 0.0092945528292329976 0.0073917246552714219 0.0019567820457489912 0.034678068562694224 -0.078327137331167862 -0.029659946821630003 0.048337930298986892 0.068400076776742938 0.010439922598501046 -0.015451347115247148 -0.012817153174031169 0.03078128448442409 0.052195491765936221 -0.016775012761354447 0.024994291514158249 -0.0020481121000977091 -0.020999648460540282 -0.034565344974398615 -0.0095554588296051547 -0.023662973159835454
leaf_weight=26 20 38 37 23 30 24 21 24 21 23 24 38 24 36 20 26 29 20 28 21
leaf_count=26 20 38 37 23 30 24 21 24 21 23 24 38 24 36 20 26 29 20 28 21
internal_value=-5.52354e-11 -0.0217491 0.0259781 0.0320587 -0.054254 -0.0143194 0.0217249 0.0519984 0.0290391 -0.00343738 -0.00276638 0.0370303 0.0602978 -0.0239458 0.0175396 -0.00878162 -0.0266921 -0.0292318 -0.0122144 -0.0268614
internal_weight=553 301 252 208 56 245 137 71 100 115 44 59 48 130 41 77 94 65 51 45
internal_count=553 301 252 208 56 245 137 71 100 115 44 59 48 130 41 77 94 65 51 45
is_linear=0
shrinkage=0.05


Tree=8
num_leaves=23
num_cat=0
split_feature=81 61 55 19 61 61 9 47 22 78 9 34 38 68 11 82 15 31 24 1 34 10
split_gain=112.793 26.2417 15.9003 15.4721 13.5179 5.85695 5.01048 3.69792 3.01383 3.07239 2.83192 2.1421 1.92549 1.88583 1.60651 1.26923 1.15287 1.00336 0.66538 0.645872 0.543708 0.198222
threshold=0.12965929924928568 0.0223365009590363 -0.58931384830760591 0.29113492293602355 0.022336500958927304 0.046918926430831606 0.039237578454837461 0.22636018071690436 0.59576334687138233 -0.56446134017802285 -0.34513022196572246 2.4393281748053703 -0.98207250077469865 0.46682690707933477 -1.409219201466122 -0.24226509388510623 0.037764212071100207 -0.0045289540454213498 0.13122992114467116 1.0083688157474839 -0.33009799020113112 -1.4561270218769364
decision_type=2 2 2 2 2 2 2 2 2 2 2 2 2 2 2 2 2 2 2 2 2 2
left_child=1 4 12 6 -1 10 13 -5 9 -8 14 18 -2 -4 -3 -9 -7 -11 19 -12 21 -16
right_child=2 5 3 7 -6 16 8 15 -10 17 11 -13 -14 -15 20 -17 -18 -19 -20 -21 -22 -23
leaf_value=-0.025153349483242406 0.0088298251084052027 -0.012600286165252328 0.045121396807107056 0.033430069126188754 -0.074410778482755027 -0.004541393927121092 0.0054426746620308795 0.066695203241847814 0.0023520784836043333 0.021141204731538896 -0.015135827457362956 -0.023324996686500052 -0.012176295309715595 0.023907554773613809 -0.026621461886426681 0.050168221271955055 0.012232234901748599 0.036979111135005953 0.0015099390452219682 -0.0027209709619637583 -0.03160513595298485 -0.020646136168922698
leaf_weight=26 20 32 22 24 30 21 21 21 34 20 22 23 24 20 23 26 20 20 22 20 27 35
leaf_count=26 20 32 22 24 30 21 21 21 34 20 22 23 24 20 23 26 20 20 22 20 27 35
internal_value=-8.51327e-11 -0.0206616 0.0246792 0.0304557 -0.0515413 -0.0136034 0.0206386 0.0493985 0.0142808 0.0209295 -0.0170692 -0.0102375 -0.00262806 0.0350196 -0.0221492 0.0575526 0.00364086 0.0290602 -0.0055342 -0.00922399 -0.0257441 -0.0230157
internal_weight=553 301 252 208 56 245 137 71 95 61 204 87 44 42 117 47 41 40 64 42 85 58
internal_count=553 301 252 208 56 245 137 71 95 61 204 87 44 42 117 47 41 40 64 42 85 58
is_linear=0
shrinkage=0.05


Tree=9
num_leaves=21
num_cat=0
split_feature=81 61 55 19 61 27 18 47 54 35 5 19 35 11 35 11 0 18 81 10
split_gain=101.795 23.6831 14.35 13.9636 12.1999 8.43657 6.67088 3.33737 3.11989 2.34369 1.74972 1.4344 1.15303 0.766109 0.760749 0.607207 0.475563 0.258171 0.173986 0.0926297
threshold=0.12965929924928568 0.0223365009590363 -0.58931384830760591 0.29113492293602355 0.022336500958927304 0.25304397730457434 0.082804463169015755 0.22636018071690436 0.49430675347208286 -0.92560802833366829 -0.81609937297281443 -0.15053710477811119 -0.4336640581654358 0.36256579806260497 0.16167999810006087 -0.19577142593779354 0.033973172465991706 -0.13934158872713381 0.015422793166695852 -1.5455925708449108
decision_type=2 2 2 2 2 2 2 2 2 2 2 2 2 2 2 2 2 2 2 2
left_child=1 4 10 6 -1 9 -4 -5 11 -3 -2 -8 -9 -10 16 18 17 19 -11 -7
right_child=2 5 3 7 -6 14 8 12 13 15 -12 -13 -14 -15 -16 -17 -18 -19 -20 -21
leaf_value=-0.023895682537784943 0.0070307217680079777 0.0068687151550731965 0.0014682573215985622 0.031758566262821357 -0.070690240462621054 -0.026722142359484797 0.043094845488667488 0.062674859295720642 0.0090535607100242672 -0.014239166378974917 -0.012931402577530771 0.027224305719137195 0.047008442878723147 0.022727147452533247 -0.015549325942993165 -0.0018857124977960035 -0.019003553495838724 -0.031434259563684466 -0.0085913817957043639 -0.022069492414593699
leaf_weight=26 23 38 37 24 30 23 24 23 21 25 21 35 24 20 34 26 29 20 30 20
leaf_count=26 23 38 37 24 30 23 24 23 21 25 21 35 24 20 34 26 29 20 30 20
internal_value=-5.49447e-12 -0.0196286 0.0234452 0.0289329 -0.0489642 -0.0129233 0.0196067 0.0469286 0.0263179 -0.00337595 -0.00249666 0.0336801 0.054675 0.0157236 -0.0219402 -0.00818209 -0.024302 -0.026741 -0.0111586 -0.0245581
internal_weight=553 301 252 208 56 245 137 71 100 119 44 59 47 41 126 81 92 63 55 43
internal_count=553 301 252 208 56 245 137 71 100 119 44 59 47 41 126 81 92 63 55 43
is_linear=0
shrinkage=0.05


Tree=10
num_leaves=22
num_cat=0
split_feature=81 61 55 19 61 18 93 44 69 16 54 26 38 92 17 11 18 83 3 17 16
split_gain=91.8703 21.374 12.9509 12.6021 11.0104 6.02047 5.10103 2.93237 2.88148 2.84977 2.81571 1.69205 1.6196 1.39158 0.845867 0.691413 0.516461 0.388797 0.252372 0.247985 0.0951211
threshold=0.12965929924928568 0.0223365009590363 -0.58931384830760591 0.29113492293602355 0.022336500958927304 0.082804463169015755 -0.78656609248549303 -0.67822672416525054 0.10125062963182917 -0.56709234592976576 0.49430675347208286 0.78269472527118633 -0.98207250077469865 19.500000000000004 0.021795594133545853 0.36256579806260497 -0.49904934523778011 -0.37157629064815506 -0.25945915568337735 -1.0792527059657007 -0.36292506909662192
decision_type=2 2 2 2 2 2 2 2 2 2 2 2 2 2 2 2 2 2 2 2 2
left_child=1 4 12 5 -1 -4 8 -5 -3 17 13 16 -2 -7 -9 -12 20 -8 -18 -19 -11
right_child=2 6 3 7 -6 10 9 14 -10 11 15 -13 -14 -15 -16 -17 18 19 -20 -21 -22
leaf_value=-0.022700897847803742 0.0081366085933404966 -0.0095122318847903203 0.0013948443707556943 0.030362368375062943 -0.067155729134877523 0.037917302991892846 -0.026537825829452938 0.058695278478705364 0.016680637534175601 -0.013376125062887484 0.0086008827246370767 -0.02384641941636801 -0.011128849543941518 0.022037746892734009 0.045276885107159617 0.021590790655463935 -0.0081320251454599212 -0.023916311413049701 -0.00059653013339266189 -0.016626619960048369 -0.0091762177113975801
leaf_weight=26 20 21 37 24 30 37 36 23 21 26 21 20 24 22 24 20 20 20 25 28 28
leaf_count=26 20 21 37 24 30 37 36 23 21 26 21 20 24 22 24 20 20 20 25 28 28
internal_value=-5.06291e-12 -0.0186471 0.022273 0.0274863 -0.046516 0.0186264 -0.0122771 0.0445822 0.0035842 -0.0155588 0.025002 -0.0105815 -0.00237182 0.0319961 0.0518433 0.0149374 -0.00790169 -0.0226099 -0.00394564 -0.019664 -0.0111984
internal_weight=553 301 252 208 56 137 245 71 42 203 100 119 44 59 47 41 99 84 45 48 54
internal_count=553 301 252 208 56 137 245 71 42 203 100 119 44 59 47 41 99 84 45 48 54
is_linear=0
shrinkage=0.05


Tree=11
num_leaves=22
num_cat=0
split_feature=81 69 55 0 95 56 27 95 17 45 15 78 92 82 0 17 27 34 17 10 31
split_gain=82.913 19.4405 11.6882 9.8976 8.70958 7.96527 6.73924 2.92848 2.69972 2.39427 1.61106 1.42937 1.28205 1.04643 0.601712 0.617423 0.450062 0.402174 0.348742 0.177993 0.0756689
threshold=0.12965929924928568 0.080535399522411066 -0.58931384830760591 0.92876533284384089 2.5000000000000004 0.90770885693378267 0.25304397730457434 1.5000000000000002 -0.033360922137163643 0.45938655124421018 -0.77186817792656226 -0.30831242096125105 4.5000000000000009 -0.24226509388510623 0.033973172465991706 -0.81357055007973278 -1.6255742163484415 -0.33009799020113112 -0.6190103600814254 -1.4561270218769364 -0.097800457769591329
decision_type=2 2 2 2 2 2 2 2 2 2 2 2 2 2 2 2 2 2 2 2 2
left_child=1 3 10 -1 7 9 8 -4 16 12 -2 -7 -6 -11 17 -16 -3 19 -18 -8 -20
right_child=2 6 4 -5 5 11 14 -9 -10 13 -12 -13 -14 -15 15 -17 18 -19 20 -21 -22
leaf_value=-0.066717125254648707 -0.010987143519256885 -0.0017450587573694066 0.024571189816508975 -0.022082268547914601 0.042156270855949043 0.0061709249392151834 -0.02364541567862034 0.0011938891096695051 0.0081559094713468637 0.055757785797119146 0.0082274621305987242 0.023210325650870802 0.025684064129988356 0.041291059374809265 -0.021260835839943454 -0.0095444838556906463 -0.015818987563252448 -0.027079517369469008 -0.0096889791723627321 -0.017732476996523996 -0.005598200256936252
leaf_weight=27 24 20 21 23 21 20 20 37 35 25 20 32 27 25 22 23 20 30 26 35 20
leaf_count=27 24 20 21 23 21 20 20 37 35 25 20 32 27 25 22 23 20 30 26 35 20
internal_value=-2.52409e-11 -0.0177148 0.0211593 -0.0461851 0.026112 0.0324741 -0.0120434 0.00965808 -0.00355125 0.0408671 -0.00225323 0.0166567 0.0328907 0.0485244 -0.0199476 -0.0152725 -0.0083158 -0.0224227 -0.0103069 -0.0198826 -0.00791038
internal_weight=553 301 252 50 208 150 251 58 121 98 44 52 48 50 130 45 86 85 66 55 46
internal_count=553 301 252 50 208 150 251 58 121 98 44 52 48 50 130 45 86 85 66 55 46
is_linear=0
shrinkage=0.05


end of trees

feature_importances:
Column_18=16
Column_10=14
Column_11=13
Column_27=13
Column_19=12
Column_61=12
Column_81=11
Column_17=10
Column_35=10
Column_0=7
Column_16=7
Column_3=6
Column_34=6
Column_55=6
Column_65=6
Column_69=6
Column_1=5
Column_9=5
Column_53=5
Column_56=5
Column_38=4
Column_67=4
Column_31=3
Column_47=3
Column_54=3
Column_58=3
Column_70=3
Column_77=3
Column_2=2
Column_15=2
Column_22=2
Column_33=2
Column_44=2
Column_45=2
Column_63=2
Column_68=2
Column_78=2
Column_82=2
Column_92=2
Column_95=2
Column_5=1
Column_8=1
Column_14=1
Column_24=1
Column_26=1
Column_37=1
Column_39=1
Column_41=1
Column_49=1
Column_51=1
Column_57=1
Column_71=1
Column_74=1
Column_75=1
Column_76=1
Column_79=1
Column_83=1
Column_93=1

parameters:
[boosting: gbdt]
[objective: regression]
[metric: rmse]
[tree_learner: serial]
[device_type: cpu]
[data_sample_strategy: bagging]
[data: ]
[valid: ]
[num_iterations: 1500]
[learning_rate: 0.05]
[num_leaves: 31]
[num_threads: 0]
[seed: 42]
[deterministic: 0]
[force_col_wise: 0]
[force_row_wise: 0]
[histogram_pool_size: -1]
[max_depth: -1]
[min_data_in_leaf: 20]
[min_sum_hessian_in_leaf: 0.001]
[bagging_fraction: 0.8]
[pos_bagging_fraction: 1]
[neg_bagging_fraction: 1]
[bagging_freq: 0]
[bagging_seed: 400]
[bagging_by_query: 0]
[feature_fraction: 0.8]
[feature_fraction_bynode: 1]
[feature_fraction_seed: 30056]
[extra_trees: 0]
[extra_seed: 12879]
[early_stopping_round: 0]
[early_stopping_min_delta: 0]
[first_metric_only: 0]
[max_delta_step: 0]
[lambda_l1: 0]
[lambda_l2: 0]
[linear_lambda: 0]
[min_gain_to_split: 0]
[drop_rate: 0.1]
[max_drop: 50]
[skip_drop: 0.5]
[xgboost_dart_mode: 0]
[uniform_drop: 0]
[drop_seed: 17869]
[top_rate: 0.2]
[other_rate: 0.1]
[min_data_per_group: 100]
[max_cat_threshold: 32]
[cat_l2: 10]
[cat_smooth: 10]
[max_cat_to_onehot: 4]
[top_k: 20]
[monotone_constraints: ]
[monotone_constraints_method: basic]
[monotone_penalty: 0]
[feature_contri: ]
[forcedsplits_filename: ]
[refit_decay_rate: 0.9]
[cegb_tradeoff: 1]
[cegb_penalty_split: 0]
[cegb_penalty_feature_lazy: ]
[cegb_penalty_feature_coupled: ]
[path_smooth: 0]
[interaction_constraints: ]
[verbosity: -1]
[saved_feature_importance_type: 0]
[use_quantized_grad: 0]
[num_grad_quant_bins: 4]
[quant_train_renew_leaf: 0]
[stochastic_rounding: 1]
[linear_tree: 0]
[max_bin: 255]
[max_bin_by_feature: ]
[min_data_in_bin: 3]
[bin_construct_sample_cnt: 200000]
[data_random_seed: 175]
[is_enable_sparse: 1]
[enable_bundle: 1]
[use_missing: 1]
[zero_as_missing: 0]
[feature_pre_filter: 1]
[pre_partition: 0]
[two_round: 0]
[header: 0]
[label_column: ]
[weight_column: ]
[group_column: ]
[ignore_column: ]
[categorical_feature: ]
[forcedbins_filename: ]
[precise_float_parser: 0]
[parser_config_file: ]
[objective_seed: 16083]
[num_class: 1]
[is_unbalance: 0]
[scale_pos_weight: 1]
[sigmoid: 1]
[boost_from_average: 1]
[reg_sqrt: 0]
[alpha: 0.9]
[fair_c: 1]
[poisson_max_delta_step: 0.7]
[tweedie_variance_power: 1.5]
[lambdarank_truncation_level: 30]
[lambdarank_norm: 1]
[label_gain: ]
[lambdarank_position_bias_regularization: 0]
[eval_at: ]
[multi_error_top_k: 1]
[auc_mu_weights: ]
[num_machines: 1]
[local_listen_port: 12400]
[time_out: 120]
[machine_list_filename: ]
[machines: ]
[gpu_platform_id: -1]
[gpu_device_id: -1]
[gpu_use_dp: 0]
[num_gpu: 1]

end of parameters

pandas_categorical:null
