tree
version=v4
num_class=1
num_tree_per_iteration=1
label_index=0
max_feature_idx=90
objective=regression
feature_names=Column_0 Column_1 Column_2 Column_3 Column_4 Column_5 Column_6 Column_7 Column_8 Column_9 Column_10 Column_11 Column_12 Column_13 Column_14 Column_15 Column_16 Column_17 Column_18 Column_19 Column_20 Column_21 Column_22 Column_23 Column_24 Column_25 Column_26 Column_27 Column_28 Column_29 Column_30 Column_31 Column_32 Column_33 Column_34 Column_35 Column_36 Column_37 Column_38 Column_39 Column_40 Column_41 Column_42 Column_43 Column_44 Column_45 Column_46 Column_47 Column_48 Column_49 Column_50 Column_51 Column_52 Column_53 Column_54 Column_55 Column_56 Column_57 Column_58 Column_59 Column_60 Column_61 Column_62 Column_63 Column_64 Column_65 Column_66 Column_67 Column_68 Column_69 Column_70 Column_71 Column_72 Column_73 Column_74 Column_75 Column_76 Column_77 Column_78 Column_79 Column_80 Column_81 Column_82 Column_83 Column_84 Column_85 Column_86 Column_87 Column_88 Column_89 Column_90
feature_infos=[-0.95199108778837038:2.8290121784015625] [-1.4869643843584766:2.8700085612386768] [-2.7520997556075759:2.911004944075791] [0.027759399514255229:1.4822928362679113] [0.057965947907529188:1.2470292857990282] [-52.361137662579921:263.39220868210077] [-2.7880157955644482:2.8290121784015625] [-3.1436137381203491:1.8747339926573592] [-3.1436137381203491:1.8747339926573592] [-3.1436137381203491:1.8747339926573592] [-3.1436137381203491:1.8747339926573592] [-2.4167236952191371:1.8747339926573592] [-2.4167236952191371:1.8747339926573592] [-2.4167236952191371:1.8747339926573592] [-3.0944400997221435:1.8599716246029772] [-2.9296301880955831:1.8022133054737608] [-2.5877502371402685:1.7005705465951813] [-1.7415940029337449:1.5508369527875552] [-2.6661214420671211:1.8006913442211183] [-2.193335710037855:1.6904710508913983] [-1.5574859584261256:1.4825058000318372] [-2.0538181296402058:2.2789837836424791] [-2.1555973312817933:2.3586446136059971] [-2.1029499433459291:2.5179662735330326] [0.0065770337413710361:1.2411263048401728] [0.026125602957564567:0.96463276343142612] [-77.294101881636507:6.1234985016749253] [-2.1993229536789611:2.2789837836424791] [-2.9456947730335923:2.3023461922382684] [-2.9456947730335923:2.3023461922382684] [-2.9456947730335923:2.137507252501885] [-2.9456947730335923:2.1095348647637602] [-2.9456947730335923:2.1095348647637602] [-2.9456947730335923:2.1095348647637602] [-2.9456947730335923:1.9697977899105159] [-2.9180705673625682:2.2473998789928071] [-2.8358259391117802:2.0464691477191796] [-2.6496765452135107:1.9100426336467946] [-2.2260533633555153:1.5722538713482026] [-2.6546218575602145:2.0240842018966849] [-2.3860227052545482:1.8266130880421039] [-1.9937460212476907:1.5327768326530855] [-0.98357508756868406:1.3940667050027256] [-1.3183969668646229:1.5617708733021671] [-1.6176189026335859:2.0362295294287041] [0.013981184601599278:0.90126266400432153] [0.058773164469634362:1.0118079867381142] [-37.471613443640607:72.104183648625337] [-1.2596528450146576:1.226362536703284] [-1.9214982655591348:2.3127511643628611] [-1.9214982655591348:2.3127511643628611] [-1.9214982655591348:2.3127511643628611] [-1.9214982655591348:2.3127511643628611] [-1.9214982655591348:2.3127511643628611] [-1.9214982655591348:2.3127511643628611] [-1.9214982655591348:2.3127511643628611] [-1.9140965071559535:2.3091775024481351] [-1.8784728735646239:2.2863502102820434] [-1.7899148409758243:2.1363204820716875] [-1.6499221356536211:2.0047183666576882] [-1.8050777364994952:2.1969281245374779] [-1.643440816676818:2.1096559431569646] [-1.4603398435364776:1.973897430712019] [-1.8104419330760249:2.0461820012180407] [-3.6208838661520488:3.4641889188445214] [-3.7135772247924077:5.6289960989052608] [0.0020680105006647509:2.4812887862777475] [0.0093116775430298667:2.5235108937734076] [-33.339193315616264:912.73399186859262] [-2.0461820012180407:1.9465193046225109] [-2.8206285863213494:3.1396152193407207] [-2.8206285863213494:3.1396152193407207] [-2.8206285863213494:3.1396152193407207] [-2.8206285863213494:3.1396152193407207] [-2.8206285863213494:3.1396152193407207] [-2.8206285863213494:3.1396152193407207] [-2.8206285863213494:3.1396152193407207] [-2.7516742620645029:3.1287580558595529] [-2.5601258145824897:3.0853294019348794] [-2.1253131764258288:2.9903292214746577] [-1.4449070121294885:2.7962574242487754] [-2.4682064443333731:2.8877336096743438] [-2.0436444032309491:2.670878346012115] [-1.4745969478939753:2.3498872342208363] [-1:1] [-1:1] [-0.97492791218182362:0.97492791218182362] [-0.90096886790241903:0.62348980185873359] [0:1425] [-1:1] [-1:1]
tree_sizes=1751 1671 1927 1768 1841 1851 1769 1770 1851 1848 1674 1776 1854 1841 1815 1759 1626 1768 1777 1776 1871 1694 1861 1931 1954 1768 1693 1791 1867 1778 1958 1870 1867 1764 1867 1863 1784 1758 1955 1871 1887 1879 1870 1880 1970 1707 1946 1876 1888

Tree=0
num_leaves=19
num_cat=0
split_feature=67 12 34 71 34 34 16 7 13 20 76 19 28 4 60 90 76 10
split_gain=150.31 68.9206 43.9308 36.8201 20.6682 12.6966 10.5348 9.69788 7.53878 5.87103 5.19264 4.90776 4.4824 3.20951 2.90026 2.29381 0.942492 0.935129
threshold=0.24385608972243608 -0.33841480902920701 0.71982612984646022 -0.28088927243776157 -0.22257998709459834 -1.4431043041583753 -0.034104336731831879 0.80275641170856404 -0.063129338182751779 -0.45297107921867225 -0.30730019051294827 0.81255796179933759 -0.045837739453521244 0.15291621386476087 -1.222999341075671 0.35206144883412571 -0.36660973945529834 -0.7843391472420016
decision_type=2 2 2 2 2 2 2 2 2 2 2 2 2 2 2 2 2 2
left_child=1 3 7 5 8 -1 -5 10 11 13 15 12 -3 16 -12 -2 -7 -16
right_child=2 4 -4 6 -6 9 -8 -9 -10 -11 14 -13 -14 -15 17 -17 -18 -19
leaf_value=0.057856121318984606 -0.006228852338104756 0.056264683181977457 -0.033169107101778922 0.021804485815914411 0.030868843249804986 0.030280645062748676 -0.0034454634187597553 0.029088055898014054 0.078820530436997382 0.047314164805964648 0.020613283302835878 0.049707082267006597 0.073811513298990425 0.020394337433535251 0.014049394576389601 0.0074111943813522443 0.037517794423889236 0.0050355650697080402
leaf_weight=25 20 31 21 34 22 35 27 28 22 24 38 35 26 21 24 32 32 25
leaf_count=25 20 31 21 34 22 35 27 28 22 24 38 35 26 21 24 32 32 25
internal_value=0.0291331 0.0412099 0.00768248 0.0298972 0.0576452 0.0385434 0.0105442 0.0128717 0.0627802 0.034184 0.00962901 0.0588622 0.0643853 0.0305524 0.0142195 0.00204964 0.0337892 0.00934969
internal_weight=522 334 188 198 136 137 61 167 114 112 139 92 57 88 87 52 67 49
internal_count=522 334 188 198 136 137 61 167 114 112 139 92 57 88 87 52 67 49
is_linear=0
shrinkage=1


Tree=1
num_leaves=18
num_cat=0
split_feature=4 13 16 41 34 88 44 49 33 45 2 90 55 45 85 73 26
split_gain=124.896 53.0839 47.4539 27.9955 23.9685 18.0361 17.8662 12.8717 12.0107 6.45703 5.7486 3.3734 2.56858 2.41752 1.44649 1.39092 1.27058
threshold=0.2197761567612859 1.0763023523129109 0.042203989535170072 0.18715338736273354 -0.53588342449350368 682.50000000000011 0.08934600383627371 0.74416190812307625 0.18640186956968849 0.051127338942413572 -0.10377936500255934 -0.77259657388510627 1.0000000180025095e-35 0.05112733894241682 0.37940952255126048 -0.33768770262328157 -0.041242895458819422
decision_type=2 2 2 2 2 2 2 2 2 2 2 2 2 2 2 2 2
left_child=2 4 3 7 5 -2 8 11 9 -4 14 -1 -12 -11 -6 -14 -13
right_child=1 -3 6 -5 10 -7 -8 -9 -10 13 12 16 15 -15 -16 -17 -18
leaf_value=0.011024879211524747 -0.010272630592045834 -0.049362283072133695 0.027064968417721106 -0.020233560373023974 -0.031302969971699499 0.02432619106495517 0.0020027719888145025 0.025466194102697282 0.01078999299889625 0.051919180727624269 -0.0022137063007746168 0.0041741459827138996 -0.0096145831190698871 0.036961867804349208 -0.02064913239472967 -0.020052299821513818 -0.0039736503104596454
leaf_weight=37 28 38 36 38 20 26 22 32 20 23 20 32 24 24 39 26 37
leaf_count=37 28 38 36 38 20 26 22 32 20 23 20 32 24 24 39 26 37
internal_value=0 -0.0171216 0.0125721 0.00251083 -0.0103872 0.00634478 0.026701 0.00880562 0.0319402 0.0369815 -0.017414 0.00372847 -0.0114918 0.0444398 -0.0243582 -0.0151313 -0.000150975
internal_weight=522 221 301 176 183 54 125 138 103 83 129 106 70 47 59 50 69
internal_count=522 221 301 176 183 54 125 138 103 83 129 106 70 47 59 50 69
is_linear=0
shrinkage=0.03


Tree=2
num_leaves=21
num_cat=0
split_feature=3 13 55 8 31 34 75 34 2 45 13 54 57 85 90 53 90 13 26 13
split_gain=110.242 63.7049 44.7683 43.1425 18.1265 12.7867 11.5429 6.7775 4.64145 4.23286 3.4026 3.00391 1.95789 1.51921 1.37569 1.43578 1.35522 1.01612 0.522987 0.318966
threshold=0.077125842119168897 1.1403756406239496 -0.82180270775097652 0.16502209172478277 0.43558635612779245 -1.4431043041583753 1.8856128372657903 -0.64773374275592244 -0.071457380374460353 0.051127338942412164 -0.063129338182751779 0.49182035074913427 -0.13005130548434099 0.78656609248549303 -0.77259657388510627 0.17477334716560497 0.22695468355932455 -0.70958220390015592 -0.041242895458819422 -0.12291912909673214
decision_type=2 2 2 2 2 2 2 2 2 2 2 2 2 2 2 2 2 2 2 2
left_child=3 2 -2 4 5 -1 9 -4 16 17 -8 14 13 -10 -7 18 -9 -5 -16 -18
right_child=1 -3 7 6 -6 11 10 8 12 -11 -12 -13 -14 -15 15 -17 19 -19 -20 -21
leaf_value=0.027103816767137835 0.023744765691389544 -0.054887034390900293 -0.0010082340898038653 0.030781329336451058 -0.020984973373351153 0.01069502426768249 0.031496182019111661 -0.029455645239748657 -0.0036297778027798854 0.0086793875819628271 0.049856020123211303 -0.0049832596837334148 -0.019917497673023365 -0.013639558657657267 0.0033028780015768788 0.0096350950285156757 -0.022888591222743272 0.020412938228020303 -0.0034591295194826015 -0.017080746016551539
leaf_weight=25 32 31 28 20 23 37 21 21 27 21 20 28 21 30 21 21 24 22 20 29
leaf_count=25 32 31 28 20 23 37 21 21 27 21 20 28 21 30 21 21 24 22 20 29
internal_value=0 -0.0147695 -0.00886601 0.0128643 0.00374513 0.00751824 0.0281618 -0.0146901 -0.0171884 0.0199519 0.0406247 0.00362092 -0.0119741 -0.00896528 0.00608727 0.00327637 -0.0226205 0.0254829 0 -0.0198054
internal_weight=522 243 212 279 175 152 104 180 152 63 41 127 78 57 99 62 74 42 41 53
internal_count=522 243 212 279 175 152 104 180 152 63 41 127 78 57 99 62 74 42 41 53
is_linear=0
shrinkage=0.03


Tree=3
num_leaves=19
num_cat=0
split_feature=67 12 34 71 34 34 16 14 13 19 20 76 28 4 51 85 10 76
split_gain=126.709 58.563 37.9056 31.087 17.6023 10.6492 9.05729 7.68381 6.24344 6.87448 4.92922 4.61366 3.94818 2.66932 2.42878 2.20723 0.786301 0.747895
threshold=0.24385608972243608 -0.33841480902920701 0.71982612984646022 -0.28088927243776157 -0.22257998709459834 -1.4431043041583753 -0.034104336731831879 0.80967508261170706 -0.16967573032421387 0.81255796179933759 -0.45297107921867225 -0.31035568297503985 -0.045837739453521244 0.15291621386476087 -1.4315179735878398 0.37940952255126048 -0.60460520386419891 -0.36660973945529834
decision_type=2 2 2 2 2 2 2 2 2 2 2 2 2 2 2 2 2 2
left_child=1 3 7 5 8 -1 -5 11 9 12 13 15 -3 17 -13 -2 -16 -7
right_child=2 4 -4 6 -6 10 -8 -9 -10 -11 -12 14 -14 -15 16 -17 -18 -19
leaf_value=0.026293940425394062 -0.032734552582293318 0.025110917089453077 -0.057644237068027106 -0.0066742044918053399 0.0015171597761468648 0.0010957735125771443 -0.030095675636041642 -0.00042302183422435641 0.043216019647637584 0.01428128525548452 0.016641272937113812 -0.0070374860782777106 0.041595758405225031 -0.0079807357963227535 -0.014129767606609334 -0.019421364559089618 -0.022154077744591823 0.0075577616426989302
leaf_weight=25 21 31 21 34 22 35 27 28 29 28 24 34 26 21 32 30 22 32
leaf_count=25 21 31 21 34 22 35 27 28 29 28 24 34 26 21 32 30 22 32
internal_value=0 0.0110881 -0.0196949 0.000658868 0.0262382 0.0086047 -0.0171225 -0.0148732 0.0309771 0.0267204 0.00460952 -0.0177601 0.0327425 0.00127891 -0.0134977 -0.0250153 -0.0174893 0.00423347
internal_weight=522 334 188 198 136 137 61 167 114 85 112 139 57 88 88 51 54 67
internal_count=522 334 188 198 136 137 61 167 114 85 112 139 57 88 88 51 54 67
is_linear=0
shrinkage=0.03


Tree=4
num_leaves=20
num_cat=0
split_feature=67 12 34 71 34 34 16 7 13 18 17 61 28 26 10 23 4 52 26
split_gain=119.284 55.1234 35.6681 29.2628 16.5632 10.0199 8.52075 7.23079 5.86798 6.17719 4.64278 4.14823 3.91514 2.68433 2.64919 2.2386 0.675916 0.414321 0.169645
threshold=0.24385608972243608 -0.33841480902920701 0.71982612984646022 -0.28088927243776157 -0.22257998709459834 -1.4431043041583753 -0.034104336731831879 0.80275641170856404 -0.16967573032421387 0.95601139035773552 -0.45666795319750275 -1.5167868165236305 -0.045837739453521244 -0.044072600751065331 -0.60460520386419891 -0.32361169709961607 0.096126664674363607 -0.13242826678901518 -0.064843676965763472
decision_type=2 2 2 2 2 2 2 2 2 2 2 2 2 2 2 2 2 2 2
left_child=1 3 7 5 8 -1 -5 11 9 12 13 -2 -3 18 17 -16 -15 -13 -7
right_child=2 4 -4 6 -6 10 -8 -9 -10 -11 -12 14 -14 16 15 -17 -18 -19 -20
leaf_value=0.025508265766014612 -0.0050665876768293417 0.024081885307748737 -0.055923108034789275 -0.0064745658749299356 0.0014718509446913837 0.0080552281862695287 -0.029196136930331969 -0.00041037635619211872 0.041923994372800449 0.013796151611142933 0.016806029887760386 -0.010352467020258519 0.040352666816492189 0 -0.029566371598044389 -0.018064589343572916 -0.0076229561022503872 -0.016594849720443644 0.0039470326094262634
leaf_weight=25 22 32 21 34 22 27 27 28 29 27 22 21 26 21 31 36 22 29 20
leaf_count=25 22 32 21 34 22 27 27 28 29 27 22 21 26 21 31 36 22 29 20
internal_value=0 0.010758 -0.0191094 0.000639205 0.0254565 0.00834883 -0.0166121 -0.0144315 0.0300534 0.0259237 0.0044725 -0.017232 0.0314842 0.00140903 -0.0194876 -0.0234672 -0.00396005 -0.0140588 0.00638285
internal_weight=522 334 188 198 136 137 61 167 114 85 112 139 58 90 117 67 43 50 47
internal_count=522 334 188 198 136 137 61 167 114 85 112 139 58 90 117 67 43 50 47
is_linear=0
shrinkage=0.03


Tree=5
num_leaves=20
num_cat=0
split_feature=67 44 34 34 34 66 16 7 70 68 76 33 51 85 13 45 45 67 10
split_gain=112.291 43.9722 33.5627 24.9425 19.9195 9.15638 7.09186 6.80423 6.47667 6.3794 4.14337 3.77718 2.11179 2.00657 1.78904 1.65449 1.26252 0.86991 0.713333
threshold=0.24385608972243608 0.090177618886476033 0.71982612984646022 -0.23835128061686553 -1.3849073034037087 0.040865983042554892 -0.26234341432351094 0.80275641170856404 -0.30521100993291667 -0.014106762802722992 -0.30730019051294827 -0.074025291237463736 -1.4315179735878398 0.37940952255126048 -0.71615246255260767 0.05112733894241682 0.052536372018275247 0.11176459308074888 -0.60460520386419891
decision_type=2 2 2 2 2 2 2 2 2 2 2 2 2 2 2 2 2 2 2
left_child=1 3 7 9 -3 6 16 10 -5 15 13 17 -12 -2 -11 -1 -6 -7 -14
right_child=2 4 -4 8 5 11 -8 -9 -10 14 12 -13 18 -15 -16 -17 -18 -19 -20
leaf_value=0.044738407567823574 -0.030907089681986941 0.023781476308938759 -0.054253364003382577 0.016009712625033742 0.0025337404030750486 0.0042128667063339661 -0.021081861481276904 -0.00039810884730671648 -0.004492465039861001 0.030423920533103395 -0.0066014045939024237 -0.0067857427211958756 -0.01310811876508009 -0.018289044658949902 0.018592879040183613 0.032410565415226598 -0.0078988618110593448 0.012407881052463085 -0.02081245787273165
leaf_weight=24 21 27 21 27 20 27 36 28 28 21 34 22 31 31 33 25 21 23 22
leaf_count=24 21 27 21 27 20 27 36 28 28 21 34 22 31 31 33 25 21 23 22
internal_value=0 0.0104376 -0.0185411 0.0219209 0.000105115 -0.00417818 -0.0113722 -0.0140026 0.00552858 0.0306311 -0.0167193 0.00347886 -0.0126145 -0.0234919 0.023297 0.0385886 -0.00274301 0.0080597 -0.0163958
internal_weight=522 334 188 158 176 149 77 167 55 103 139 72 87 52 54 49 41 50 53
internal_count=522 334 188 158 176 149 77 167 55 103 139 72 87 52 54 49 41 50 53
is_linear=0
shrinkage=0.03


Tree=6
num_leaves=19
num_cat=0
split_feature=67 12 34 70 34 34 16 34 13 19 17 4 54 26 13 42 17 43
split_gain=105.711 49.2191 31.5811 25.7314 14.6608 8.91249 8.16254 6.43235 5.19413 5.89765 3.91425 3.51048 3.48303 1.60894 1.50888 1.31244 1.2178 0.840038
threshold=0.24385608972243608 -0.33841480902920701 0.71982612984646022 -0.27898464736755324 -0.22257998709459834 -1.5205938328307418 -0.034104336731831879 -0.48699860974531611 -0.16967573032421387 0.81255796179933759 -0.76276803176403352 0.4587499629973173 0.25304397730457434 -0.038304944167965253 -0.29606308309876367 -0.028807651671579611 -0.45666795319750275 0.037886896525343057
decision_type=2 2 2 2 2 2 2 2 2 2 2 2 2 2 2 2 2 2
left_child=1 3 7 5 8 -1 -5 -2 9 12 13 14 -3 -7 -9 -13 -12 -16
right_child=2 4 -4 6 -6 10 -8 11 -10 -11 16 15 -14 -15 17 -17 -18 -19
leaf_value=0.024889799402905744 -0.0026362734242511071 0.035822486418436106 -0.0526334773222982 -0.0057244715333367004 0.0014415825117901977 0.0038809801805516904 -0.027814298938561185 -0.018450575464030599 0.039519791137619109 0.012918037527714759 0.0064263839456970241 -0.018529392019989561 0.019833292263379029 -0.0059927374408724381 -0.013514634891453967 -0.029122291849970245 0.01594445262475036 -0.0055003971938343572
leaf_weight=23 38 36 21 35 22 30 27 28 29 28 33 29 21 29 25 21 21 26
leaf_count=23 38 36 21 35 22 30 27 28 29 28 33 29 21 29 25 21 21 26
internal_value=0 0.0101269 -0.0179901 0.000564503 0.0240158 0.00788041 -0.0154218 -0.0135869 0.0283409 0.0244497 0.00437286 -0.0167849 0.0300293 -0.00092337 -0.0127337 -0.0230875 0.0102059 -0.00950641
internal_weight=522 334 188 198 136 136 62 167 114 85 113 129 57 59 79 50 54 51
internal_count=522 334 188 198 136 136 62 167 114 85 113 129 57 59 79 50 54 51
is_linear=0
shrinkage=0.03


Tree=7
num_leaves=19
num_cat=0
split_feature=67 12 34 71 12 34 16 7 55 20 76 4 13 58 90 64 10 26
split_gain=99.5189 46.3282 29.7161 24.6919 14.0411 8.39105 7.34513 6.1843 5.87417 3.91811 3.71085 2.10175 1.93031 1.85957 1.64006 1.58503 0.746423 0.606482
threshold=0.24385608972243608 -0.33841480902920701 0.71982612984646022 -0.28088927243776157 0.8929994502483013 -1.4431043041583753 -0.034104336731831879 0.80275641170856404 -1.2380007347816042 -0.45297107921867225 -0.30730019051294827 0.15291621386476087 -0.031865038852789594 -1.4482775759043978 0.35206144883412571 -0.0085550263959155697 -0.60460520386419891 -0.051871586886599812
decision_type=2 2 2 2 2 2 2 2 2 2 2 2 2 2 2 2 2 2
left_child=1 3 7 5 8 -1 -5 10 -3 11 14 17 15 -12 -2 -10 -15 -7
right_child=2 4 -4 6 -6 9 -8 -9 12 -11 13 -13 -14 16 -16 -17 -18 -19
leaf_value=0.023335881423190291 -0.029207749633646717 0.017514573069597323 -0.051061955509592562 -0.0058784404307429036 0.00059209668346773387 0.0064663574048596561 -0.026982949277131758 -0.00021019792310177643 0.025011129925514484 0.01480875613036492 -0.0053236944335131667 -0.0071036171983768588 0.040806948776329066 -0.012050297756621619 -0.017626393204816029 0.03638093697490976 -0.019570923274998209 0.00063851393276181446
leaf_weight=25 20 38 21 34 21 35 27 28 37 24 28 21 20 37 32 20 22 32
leaf_count=25 20 38 21 34 21 35 27 28 37 24 28 21 20 37 32 20 22 32
internal_value=0 0.00982549 -0.0174555 0.000547744 0.0233004 0.00763093 -0.0152978 -0.0131835 0.027417 0.00408091 -0.0157733 0.00110759 0.0322359 -0.011885 -0.0221859 0.0291098 -0.0149337 0.00373272
internal_weight=522 334 188 198 136 137 61 167 115 112 139 88 77 87 52 57 59 67
internal_count=522 334 188 198 136 137 61 167 115 112 139 88 77 87 52 57 59 67
is_linear=0
shrinkage=0.03


Tree=8
num_leaves=20
num_cat=0
split_feature=67 12 34 82 34 46 7 16 24 54 76 13 90 85 61 16 78 5 74
split_gain=93.6904 43.6089 27.9612 22.3314 13.2617 9.18386 5.81964 5.76872 4.99485 3.61979 3.48925 3.39425 2.3224 1.80162 1.69277 1.41787 0.872252 0.826648 0.730623
threshold=0.24385608972243608 -0.33841480902920701 0.71982612984646022 -0.29828757711828652 -0.23835128061686553 0.10125062963183561 0.80275641170856404 -0.034104336731831879 0.053621818343257611 0.21110301579952265 -0.30231938919214579 -1.409219201466122 -0.77259657388510627 0.37940952255126048 -1.2866361634148407 0.84312843087155753 -0.33298021338263101 -0.034899417358382916 -0.016554424512867597
decision_type=2 2 2 2 2 2 2 2 2 2 2 2 2 2 2 2 2 2 2
left_child=1 3 6 5 8 11 10 -5 -3 15 13 -1 -7 -2 -12 -10 -13 -14 -16
right_child=2 4 -4 7 -6 12 -8 -9 9 -11 14 16 17 -15 18 -17 -18 -19 -20
leaf_value=0.02526953775491287 -0.028449363341263679 0.01719351768886938 -0.049537357820718768 -0.0062613527946094602 0.0027199391018881266 0.0081263268113983735 -0.00020391443883503033 -0.026074619121935171 0.04093897019805063 0.020561398213805114 -0.005341490307323558 0.013863916809488485 -0.0079040948756329416 -0.016648369180291799 -0.018831012109657385 0.030119246008716436 0.0052468279037457786 -0.00039914900556578103 -0.011331582857025757
leaf_weight=20 21 34 21 28 25 21 28 26 27 22 29 27 23 33 23 28 20 33 33
leaf_count=20 21 34 21 28 25 21 28 26 27 22 29 27 23 33 23 28 20 33 33
internal_value=0 0.0095332 -0.0169368 0.000531391 0.0226067 0.00671589 -0.0127922 -0.0158871 0.0270522 0.0313386 -0.0153045 0.01483 -0.000315576 -0.0213372 -0.0114161 0.0355499 0.0102797 -0.00354361 -0.0144933
internal_weight=522 334 188 198 136 144 167 54 111 77 139 67 77 54 85 55 47 56 56
internal_count=522 334 188 198 136 144 167 54 111 77 139 67 77 54 85 55 47 56 56
is_linear=0
shrinkage=0.03


Tree=9
num_leaves=20
num_cat=0
split_feature=4 13 19 38 34 44 88 33 34 45 2 45 55 66 34 85 34 78 70
split_gain=77.818 35.3436 27.7646 18.4798 15.539 12.1004 11.813 8.28813 7.51058 4.58207 3.89413 2.14399 1.81539 1.02294 0.845745 0.838199 0.793885 0.650468 0.4292
threshold=0.2197761567612859 1.0763023523129109 0.017241913386522582 0.36285935194329955 -0.53588342449350368 0.08934600383627371 682.50000000000011 0.15921912626595733 -1.5205938328307418 0.05112733894241412 -0.10377936500255934 0.05112733894241682 1.0000000180025095e-35 0.057991799773588155 -0.36572370524821235 0.37940952255126048 0.75552973365549547 -0.29249751580114991 -0.38080677010267683
decision_type=2 2 2 2 2 2 2 2 2 2 2 2 2 2 2 2 2 2 2
left_child=2 4 3 8 6 7 -2 9 -1 14 15 -11 -12 17 -4 -6 -14 18 -10
right_child=1 -3 5 -5 10 -7 -8 -9 13 11 12 -13 16 -15 -16 -17 -18 -19 -20
leaf_value=0.022753737297925077 -0.0079870262938250003 -0.039826287477035219 0.026505820155143734 -0.017234955041581745 -0.02477566314277364 0.00039157035596230449 0.020003930172700989 0.0079799722804206798 0.0043466422818217079 0.043964715715664529 -0.00098231782274904524 0.029248506186774409 -0.015027066999891668 -0.0013033923976572294 0.016840535971655773 -0.016505560304807577 -0.0068833613039842286 0.0017520412125316268 0.0096444471356011575
leaf_weight=23 28 38 20 35 20 22 26 21 29 20 20 22 30 25 20 39 20 31 33
leaf_count=23 28 38 20 35 20 22 26 21 29 20 20 22 30 25 20 39 20 31 33
internal_value=0 -0.0135165 0.00992206 0.00222122 -0.00801806 0.0207304 0.00544671 0.025041 0.00708082 0.0293586 -0.0136776 0.0364153 -0.00879336 0.00398384 0.021802 -0.0193969 -0.0118497 0.00543724 0.00722574
internal_weight=522 221 301 176 183 125 54 103 141 82 129 42 70 118 40 59 50 93 62
internal_count=522 221 301 176 183 125 54 103 141 82 129 42 70 118 40 59 50 93 62
is_linear=0
shrinkage=0.03


Tree=10
num_leaves=18
num_cat=0
split_feature=4 86 16 55 41 79 44 33 49 55 45 57 45 90 26 62 13
split_gain=73.2629 34.3761 28.0374 18.0997 17.8879 16.222 11.8266 7.96882 7.90919 4.23421 3.90816 2.04165 2.0411 1.84055 0.775704 0.469959 0.286997
threshold=0.2197761567612859 -0.8783796973249266 0.042203989535170072 -0.64152246772502919 0.18715338736273354 -0.086121085405596418 0.08934600383627371 0.18640186956968849 0.74416190812307625 -0.18073671881782874 0.05112733894241412 0.099399983219230201 0.05112733894241682 -0.77259657388510627 -0.040115350686009792 -0.4805501935502523 -0.2682749473372219
decision_type=2 2 2 2 2 2 2 2 2 2 2 2 2 2 2 2 2
left_child=2 5 4 -3 8 -2 7 10 13 -5 -4 15 -12 -1 -15 -11 -13
right_child=1 3 6 9 -6 -7 -8 -9 -10 11 12 16 -14 14 -16 -17 -18
leaf_value=0.0083265992581362351 -0.055539995556447036 0.017021311658816745 0.021633735195450157 -0.0015686199752165009 -0.016286179423772206 -0.02099857005197836 0.00037987627105880108 0.0075009957756569127 0.019988334117648755 -0.0062000976917159995 0.042652335309270595 -0.020734606528194185 0.02858044064143881 0.0031707072038796497 -0.0031819662523846471 -0.012027633383333517 -0.014837426872395757
leaf_weight=37 20 25 39 36 38 33 22 20 32 24 20 27 24 35 34 36 20
leaf_count=37 20 25 39 36 38 33 22 20 32 24 20 27 24 35 34 36 20
internal_value=0 -0.0131142 0.00962793 -0.00643755 0.00188998 -0.0341696 0.0204888 0.0247502 0.0069249 -0.0105687 0.0288566 -0.0135645 0.035127 0.00293783 0 -0.00976073 -0.0183257
internal_weight=522 221 301 168 176 53 125 103 138 143 83 107 44 106 69 60 47
internal_count=522 221 301 168 176 53 125 103 138 143 83 107 44 106 69 60 47
is_linear=0
shrinkage=0.03


Tree=11
num_leaves=19
num_cat=0
split_feature=67 12 34 71 12 34 16 34 55 88 5 13 63 83 26 17 41 40
split_gain=78.7212 36.8166 23.9972 19.656 11.6833 6.63352 5.90698 4.98083 4.71625 3.12088 2.15366 1.40124 1.62394 1.35556 1.22503 0.974807 0.856358 0.660787
threshold=0.24385608972243608 -0.33841480902920701 0.71982612984646022 -0.28088927243776157 0.8929994502483013 -1.5205938328307418 -0.034104336731831879 -0.48699860974531611 -1.2380007347816042 547.50000000000011 0.0960630468321403 -0.031865038852789594 -0.0042775131979578126 -0.1174927328561584 -0.040115350686009792 -0.45666795319750275 0.31558287755581599 0.45259489184568064
decision_type=2 2 2 2 2 2 2 2 2 2 2 2 2 2 2 2 2 2
left_child=1 3 7 5 8 -1 -5 -2 -3 14 13 12 -10 16 -7 -11 -9 -15
right_child=2 4 -4 6 -6 9 -8 10 11 15 -12 -13 -14 17 -16 -17 -18 -19
leaf_value=0.021477026320123049 -0.0020387488612391815 0.015615546994908587 -0.045728780307511291 -0.0052112583723192343 2.9478183642947831e-05 0.0036694777195730218 -0.024151273653516027 -0.0036752436327080777 0.02171604659567531 0.0054814709020705376 -0.023734712947660414 0.036222735827983313 0.032865977211775275 -0.019296791782582777 -0.0049695518734716925 0.013897079018985523 -0.012370594413448665 -0.012623530785246567
leaf_weight=23 38 38 21 34 21 27 27 20 35 33 20 20 22 28 32 22 24 37
leaf_count=23 38 38 21 34 21 27 27 20 35 33 20 20 22 28 32 22 24 37
internal_value=0 0.00873876 -0.0155247 0.000466422 0.0207511 0.00678776 -0.0136695 -0.0116835 0.0245057 0.00378162 -0.0144976 0.0288281 0.0261221 -0.0127551 -0.000965817 0.00892127 -0.00850349 -0.0155695
internal_weight=522 334 188 198 136 137 61 167 115 114 129 77 57 109 59 55 44 65
internal_count=522 334 188 198 136 137 61 167 115 114 129 77 57 109 59 55 44 65
is_linear=0
shrinkage=0.03


Tree=12
num_leaves=20
num_cat=0
split_feature=67 12 34 71 12 73 10 34 55 55 4 13 13 28 35 62 23 72 53
split_gain=74.1139 34.6561 22.5793 18.5184 10.9936 6.81049 5.80342 4.68755 4.43608 3.02136 2.52643 2.29445 1.62419 1.3783 1.45756 1.16457 1.14866 0.464702 0.217254
threshold=0.24385608972243608 -0.33841480902920701 0.71982612984646022 -0.28594092515980901 0.8929994502483013 -0.38950699312411369 -0.073150047815403282 -0.48699860974531611 -1.2380007347816042 0.34125730344828037 0.4587499629973173 -1.409219201466122 -0.23133805125454213 -0.13058897401228955 0.56197637961592706 -0.015843498305650884 -0.32361169709961607 -0.34517962270091412 -0.11805759472916989
decision_type=2 2 2 2 2 2 2 2 2 2 2 2 2 2 2 2 2 2 2
left_child=1 3 7 5 8 12 9 -2 -3 -5 15 -7 -1 -10 -15 18 -12 -13 -9
right_child=2 4 -4 6 -6 11 -8 10 13 -11 16 17 -14 14 -16 -17 -18 -19 -20
leaf_value=0.0051428661678615869 -0.0019777469730048666 0.015148310229534239 -0.044363420600892517 0.0024431981446582877 2.8598038788655345e-05 0.022641675676872478 -0.024465972987695348 -0.0043094058595458734 0.02240574163257877 -0.013911870602351516 -0.025037041862994006 0.013223016366574436 -0.0037845697670150801 0.038027631738292635 0.026260261132048501 -0.014380769850995836 -0.015183432801175361 0.0063409889333728526 -0.0092061408108739702
leaf_weight=36 38 38 21 20 21 20 24 20 30 20 21 21 37 20 27 39 29 20 20
leaf_count=36 38 38 21 20 21 20 24 20 30 20 21 21 37 20 27 39 29 20 20
internal_value=0 0.00847899 -0.0150637 0.000452584 0.0201335 0.00680691 -0.0127949 -0.0113371 0.0237756 -0.00567382 -0.0140672 0.014199 0.000577974 0.0279691 0.0314015 -0.0106188 -0.0194235 0.00996252 -0.00684944
internal_weight=522 334 188 198 136 134 64 167 115 40 129 61 73 77 47 79 50 41 40
internal_count=522 334 188 198 136 134 64 167 115 40 129 61 73 77 47 79 50 41 40
is_linear=0
shrinkage=0.03


Tree=13
num_leaves=20
num_cat=0
split_feature=67 12 76 71 34 73 16 3 49 54 26 30 52 58 13 34 26 12 23
split_gain=69.7784 32.621 22.9107 17.4314 10.4861 6.41271 5.52167 3.94717 3.54162 2.69029 2.17405 1.86215 1.84233 1.64849 1.52857 0.542392 0.467003 0.337972 0.0802434
threshold=0.24385608972243608 -0.33841480902920701 -0.43747717688650373 -0.28594092515980901 -0.23835128061686553 -0.38950699312411369 -0.034104336731831879 0.077125842119168897 -0.46177623970556014 -0.19141000489868243 0.084490851812104154 -0.45096084067685543 -0.71979359937262177 0.28063672198440764 -0.23133805125454213 -0.60764756220975746 -0.099192242402170991 0.039237578454837461 -0.26729655794673129
decision_type=2 2 2 2 2 2 2 2 2 2 2 2 2 2 2 2 2 2 2
left_child=1 3 -2 5 8 14 -5 -4 12 -10 16 -11 -3 15 -1 -9 -7 -15 -17
right_child=2 4 7 6 -6 10 -8 13 9 11 -12 -13 -14 17 -16 18 -18 -19 -20
leaf_value=0.0049890075569812451 -0.035423489851862423 0.023942070295848692 0 -0.0047596805532666231 0.0018416546800162684 0.013078037696098213 -0.022733188774093048 -0.0042687321879781807 0.010788358197625414 0.016728358606793985 0.021998654141354913 0.030381726542515534 0.036908232097942112 -0.017949273438612138 -0.0036713387396794081 -0.0083770957867156208 0.0061988436205586269 -0.012127419919220369 -0.012020900942447026
leaf_weight=36 38 25 32 37 25 20 27 21 25 20 20 20 21 33 37 20 21 20 24
leaf_count=36 38 25 32 37 25 20 27 21 25 20 20 20 21 33 37 20 21 20 24
internal_value=0 0.00822722 -0.0146165 0.000439576 0.0195344 0.00660502 -0.0124127 -0.00930536 0.023487 0.0187972 0.013778 0.0236886 0.0299937 -0.0118377 0.00055946 -0.00851234 0.0096512 -0.0158358 -0.0104554
internal_weight=522 334 188 198 136 134 64 150 111 65 61 40 46 118 73 65 41 53 44
internal_count=522 334 188 198 136 134 64 150 111 65 61 40 46 118 73 65 41 53 44
is_linear=0
shrinkage=0.03


Tree=14
num_leaves=20
num_cat=0
split_feature=67 17 76 25 50 88 34 55 3 4 52 64 58 43 71 70 46 23 23
split_gain=65.6927 24.4477 21.5531 13.6889 9.75852 13.3267 7.09821 4.67983 3.71754 3.30573 2.26398 1.96556 1.5485 1.2574 0.784639 0.529272 0.521616 0.21928 0.0845661
threshold=0.24385608972243608 -0.030298242228666037 -0.43747717688650373 0.15411979437153131 -0.48762799528635042 682.50000000000011 -1.4431043041583753 -1.259206502952501 0.077125842119168897 0.24665566823436774 -0.73801712282086684 -0.0085550263959155697 0.28063672198440764 0.044673001918136911 -0.28594092515980901 -0.90941676197906229 0.35028990964228407 -0.38234016862403236 -0.25648038932007922
decision_type=2 2 2 2 2 2 2 2 2 2 2 2 2 2 2 2 2 2 2
left_child=1 3 -2 6 10 -6 -1 -7 -4 13 -3 -9 16 -8 15 -15 -10 -14 -18
right_child=2 4 8 -5 5 7 9 11 12 -11 -12 -13 17 14 -16 -17 18 -19 -20
leaf_value=0.019006575797183577 -0.034363574009300679 0.022492550703576236 0 -0.018343385503796387 -0.0099874162596108301 0.0065427875296208866 0.010657678274746755 0.017022005127764295 -0.004097411330806983 -0.0073218568022718131 0.036261056376926927 0.029817540187102091 -0.018269468432919107 0 -0.0025522963875701638 0.0057083951919813967 -0.00840938064142196 -0.013313086408878039 -0.01207271269884016
leaf_weight=25 38 30 32 28 20 24 21 26 21 29 20 22 21 20 21 48 24 32 20
leaf_count=25 38 30 32 28 20 24 21 26 21 29 20 22 21 20 21 48 24 32 20
internal_value=0 0.00798324 -0.0141817 0.000984655 0.0174177 0.0115437 0.00431201 0.0175717 -0.00902943 0.00163578 0.0281212 0.0229988 -0.011487 0.00402909 0.00242116 0.00400263 -0.00826088 -0.0153641 -0.0101662
internal_weight=522 334 188 192 142 92 164 72 150 139 50 48 118 110 89 68 65 53 44
internal_count=522 334 188 192 142 92 164 72 150 139 50 48 118 110 89 68 65 53 44
is_linear=0
shrinkage=0.03


Tree=15
num_leaves=19
num_cat=0
split_feature=13 33 65 19 31 54 43 44 13 80 30 36 52 47 13 37 46 28
split_gain=51.3443 32.4788 19.3585 16.0852 8.5717 7.11058 7.03615 5.82638 4.2754 4.01121 2.6862 2.40063 1.49574 1.49527 1.35323 1.27851 1.24209 0.973703
threshold=1.1879280029931334 0.20438990740981564 0.056194008973311733 0.0076769505660654316 0.4189024034670677 -0.44717036054752474 0.093486396455445694 0.089346003836273544 -1.409219201466122 -0.47230622947050477 0.6517600623037505 -0.59558244125421234 -0.69022898732440996 -0.040535614344364528 -1.0481307989152486 -0.9886381045062802 0.43832522709656652 -0.33879312834773068
decision_type=2 2 2 2 2 2 2 2 2 2 2 2 2 2 2 2 2 2
left_child=1 2 3 4 8 9 17 11 -1 -3 13 -5 -13 -7 -8 -10 -15 -4
right_child=-2 5 6 7 -6 10 14 -9 15 -11 -12 12 -14 16 -16 -17 -18 -19
leaf_value=0.020848283073795375 -0.036757840139475299 0.010969099013258425 -0.0066421170058012661 0.015897823349753419 -0.012261548529113578 -0.015436076233645834 0.010671066611085042 0.010981872954532085 -0.001364810110917732 -0.0055738870989586993 -0.019408698234802634 0.022331896393422583 0.032843926805904526 -0.0016602661946231697 0.0004522376168857921 0.0080183405780161806 -0.010830464730059124 -0.015193864204990328
leaf_weight=20 32 21 36 20 22 25 25 39 20 35 35 25 34 27 23 35 28 20
leaf_count=20 32 21 36 20 22 25 25 39 20 35 35 25 34 27 23 35 28 20
internal_value=0 0.0024065 0.00806531 0.0132056 0.00411 -0.00813101 -0.00253493 0.0206473 0.0089622 0.000584751 -0.0123981 0.025361 0.0284858 -0.00927309 0.00584803 0.00455555 -0.00639436 -0.00977143
internal_weight=522 490 319 215 97 171 104 118 75 56 115 79 59 80 48 55 55 56
internal_count=522 490 319 215 97 171 104 118 75 56 115 79 59 80 48 55 55 56
is_linear=0
shrinkage=0.03


Tree=16
num_leaves=18
num_cat=0
split_feature=67 12 76 71 12 26 58 66 3 26 65 67 52 75 46 4 12
split_gain=58.4709 27.6861 19.7443 14.7171 8.85007 5.12703 4.7312 3.60491 3.27859 2.8707 2.57467 1.55377 1.36771 0.59754 0.452225 0.410785 0.388062
threshold=0.24385608972243608 -0.33841480902920701 -0.43747717688650373 -0.28088927243776157 0.8929994502483013 0.084490851812104154 0.68990182025275026 0.0609356789080008 0.077125842119168897 -0.051871586886599812 -0.017110052791831098 0.11743817891233758 0.35446196839873828 -0.43232467586828677 0.35028990964228407 0.15291621386476087 0.061611759173067611
decision_type=2 2 2 2 2 2 2 2 2 2 2 2 2 2 2 2 2
left_child=1 3 -2 5 7 9 -5 10 -4 13 -3 -9 14 -1 -10 -11 -14
right_child=2 4 8 6 -6 -7 -8 11 12 15 -12 -13 16 -15 -16 -17 -18
leaf_value=0.0041765347306530198 -0.032696739506181766 0.0077669425366760844 0 -0.0047811174127492546 0 0.017275807997510099 -0.021908342819289852 0.030678431548570331 -0.0033420100719181458 0 0.020920647531335042 0.019442466982265018 -0.016102010270895389 0.010531216492665182 -0.0092804145215110139 -0.0055067853749645821 -0.01064250653502585
leaf_weight=29 38 23 32 36 21 28 25 36 20 30 36 20 36 29 36 21 26
leaf_count=29 38 23 32 36 21 28 25 36 20 30 36 20 36 29 36 21 26
internal_value=0 0.00753126 -0.0133798 0.000355659 0.0179481 0.00582753 -0.0118739 0.0212158 -0.00844771 0.00284605 0.0158655 0.0267609 -0.0107557 0.00741817 -0.00722277 -0.00229926 -0.0138817
internal_weight=522 334 188 198 136 137 61 115 150 109 59 56 118 58 56 51 62
internal_count=522 334 188 198 136 137 61 115 150 109 59 56 118 58 56 51 62
is_linear=0
shrinkage=0.03


Tree=17
num_leaves=19
num_cat=0
split_feature=4 13 16 55 38 9 46 49 5 4 5 25 11 61 90 75 55 1
split_gain=48.6865 27.9848 17.4842 11.889 10.5974 7.23661 6.71316 5.2581 4.15536 3.68716 3.6111 2.48856 1.8282 1.58156 1.02199 0.408338 0.183792 0.116927
threshold=0.20722524615021626 1.1879280029931334 0.042203989535170072 -0.64152246772502919 0.17523295798770705 0.8929994502483013 0.10991719465779644 0.74416190812307625 0.048188914748577456 0.86372837578422423 0.025316462692629996 0.50629219922538582 -0.38409652029589614 -0.036202699553780839 -0.77259657388510627 -0.13667425949773673 1.7627041897540174 0.061070764707929867
decision_type=2 2 2 2 2 2 2 2 2 2 2 2 2 2 2 2 2 2
left_child=2 3 4 -2 7 8 10 14 -4 11 -7 13 -6 15 -1 -5 17 -16
right_child=1 -3 5 9 12 6 -8 -9 -10 -11 -12 -13 -14 -15 16 -17 -18 -19
leaf_value=0.0066607265948566462 0.0087120222452822631 -0.037407031302832287 0.033894927382944105 -0.0084161484297190867 -0.0049737171144164224 0.026343299973366863 -0.0026652646829911282 0.01674864787364674 0.017154637836964328 0.0016641095778529675 0.0079960504930410813 -0.018315488060159004 -0.017634201129870627 -0.013915397546175493 -0.0024955882560183749 -0.0032520881034049788 0.0025410337719383616 0.00065913469433339668
leaf_weight=37 38 30 25 32 23 20 24 32 32 21 20 38 20 39 20 29 22 20
leaf_count=37 38 30 25 32 23 20 24 32 32 21 20 38 20 39 20 29 22 20
internal_value=0 -0.0104431 0.00803478 -0.00630475 0.00192216 0.0167912 0.0097658 0.0061784 0.0245959 -0.00991574 0.0172873 -0.0116995 -0.0109592 -0.00913972 0.00271803 -0.00601954 0.000309889 -0.000845704
internal_weight=522 227 295 197 174 121 64 131 57 159 40 138 43 100 99 61 62 40
internal_count=522 227 295 197 174 121 64 131 57 159 40 138 43 100 99 61 62 40
is_linear=0
shrinkage=0.03


Tree=18
num_leaves=19
num_cat=0
split_feature=67 12 76 81 34 26 58 24 3 26 36 45 34 67 89 4 17 31
split_gain=52.0208 24.6644 17.9084 12.7803 8.12118 4.96215 3.61356 3.21988 2.995 2.34416 2.25482 1.19998 1.17881 0.739284 0.462342 0.344783 0.174434 0.109679
threshold=0.24385608972243608 -0.33841480902920701 -0.43747717688650373 -0.28042050178542177 -0.23835128061686553 0.084490851812104154 0.68990182025275026 0.053621818343257611 0.077125842119168897 -0.049444788368013408 -0.58456602903768784 0.05112733894241682 -0.51070735912460063 0.015422793166695394 -0.29012925520284083 0.15291621386476087 0.10100426819032864 1.088054702945523
decision_type=2 2 2 2 2 2 2 2 2 2 2 2 2 2 2 2 2 2
left_child=1 3 -2 5 7 9 -5 -3 -4 13 -9 -12 -10 -1 16 -11 -14 -16
right_child=2 4 8 6 -6 -7 -8 10 12 15 11 -13 14 -15 17 -17 -18 -19
leaf_value=0.0094343625928196943 -0.031017769422587445 0.012478761083481948 0.00012667601388470032 -0.0052443343765099333 0.0013527596580139192 0.016341399890884383 -0.021115981092700707 0.014732186331677791 -0.0041345108946251024 -0.00019724847682508004 0.032494477407071592 0.022787552832476677 -0.016219211730224958 0.0026908696665617314 -0.01117083154114119 -0.0051753237223193648 -0.011338887343655769 -0.0075173134887706935
leaf_weight=32 38 34 32 31 25 28 23 20 25 32 24 33 24 30 25 22 20 24
leaf_count=32 38 34 32 31 25 28 23 20 25 32 24 33 24 30 25 22 20 24
internal_value=0 0.00710395 -0.0126201 0.000330375 0.0169359 0.00501267 -0.0120865 0.0204143 -0.00792178 0.00224058 0.0238586 0.026977 -0.0101281 0.00622928 -0.0117009 -0.00228662 -0.0140997 -0.00946141
internal_weight=522 334 188 198 136 144 54 111 150 116 77 57 118 62 93 54 44 49
internal_count=522 334 188 198 136 144 54 111 150 116 77 57 118 62 93 54 44 49
is_linear=0
shrinkage=0.03


Tree=19
num_leaves=19
num_cat=0
split_feature=4 13 16 55 38 18 46 49 5 4 5 25 17 61 90 26 79 75
split_gain=43.4421 25.5313 15.497 10.4561 9.44455 6.63997 5.90913 4.79513 3.73805 3.30156 3.28478 2.2006 1.62697 1.58875 0.895743 0.447688 0.35575 0.322681
threshold=0.20722524615021626 1.1879280029931334 0.042203989535170072 -0.64152246772502919 0.17523295798770705 0.95601139035773552 0.10991719465779644 0.74416190812307625 0.048188914748577456 0.86372837578422423 0.025316462692629996 0.56053608687382594 -0.34989604109808181 -0.036202699553780839 -0.77259657388510627 -0.040115350686009792 -0.022357484409381959 -0.13667425949773673
decision_type=2 2 2 2 2 2 2 2 2 2 2 2 2 2 2 2 2 2
left_child=2 3 4 -2 7 8 10 14 -4 11 -7 13 -6 17 -1 -16 -15 -5
right_child=1 -3 5 9 12 6 -8 -9 -10 -11 -12 -13 -14 16 15 -17 -18 -19
leaf_value=0.0062381000478433143 0.0081691587128214487 -0.03561983753478408 0.032135933072443501 -0.0079187920257404124 -0.0046687797299743471 0.024796710654870782 -0.0025539558126044812 0.015947300649691964 0.016242855001832836 0.0016534991265755692 0.007293764415071971 -0.018118500301308949 -0.016625308492290439 -0.016327587314860312 0.0025678825836119232 -0.0025531466798753752 -0.010104717665938968 -0.0033942139838669455
leaf_weight=37 38 30 25 33 23 20 24 32 32 21 20 31 20 22 35 27 21 31
leaf_count=37 38 30 25 33 23 20 24 32 32 21 20 31 20 22 35 27 21 31
internal_value=0 -0.00986451 0.00758977 -0.00591107 0.00183381 0.0158338 0.00910247 0.00585266 0.0233101 -0.00929804 0.0161601 -0.0109863 -0.0103252 -0.00887695 0.00254668 0.000288928 -0.0133886 -0.00578272
internal_weight=522 227 295 197 174 121 64 131 57 159 40 138 43 107 99 62 43 64
internal_count=522 227 295 197 174 121 64 131 57 159 40 138 43 107 99 62 43 64
is_linear=0
shrinkage=0.03


Tree=20
num_leaves=20
num_cat=0
split_feature=67 44 34 34 34 66 20 7 70 68 33 86 62 68 13 33 73 68 76
split_gain=46.2765 19.0986 16.6436 11.0772 8.6454 4.33801 3.44826 3.23574 3.13646 2.8879 1.97371 1.7106 1.61432 0.726159 0.610516 0.793611 0.424804 0.354415 0.320608
threshold=0.24385608972243608 0.090177618886476033 0.71982612984646022 -0.23835128061686553 -1.3849073034037087 0.040865983042554892 -0.28085410076416201 0.80275641170856404 -0.30868914882904458 0.0082927673124090235 -0.074025291237463736 -0.8783796973249266 0.070865052870281678 -0.0098178482697003338 -0.063129338182751779 -0.39393255885086809 0.30230413455224764 -0.035260419867584263 -0.31957247706941483
decision_type=2 2 2 2 2 2 2 2 2 2 2 2 2 2 2 2 2 2 2
left_child=1 3 7 9 -3 6 13 11 -5 14 17 -2 16 -6 15 -1 -13 -7 -14
right_child=2 4 -4 8 5 10 -8 -9 -10 -11 -12 12 18 -15 -16 -17 -18 -19 -20
leaf_value=0.017032589084422425 -0.018602772818357458 0.015488264320961224 -0.037058818631306709 0.010897297722169724 -0.006216828949058179 0.0034025995279863422 -0.016531022034887898 0.00049939785797308033 -0.0033778260506151874 0.013404452049213905 -0.0050723295949812452 -0.0031652059152117392 -0.015168049500930352 0.00099174810622011016 0.028869170069129538 0.026111596913134312 -0.0087117846316881308 0.0088360748095298886 -0.010173079726199007
leaf_weight=22 21 27 21 26 29 30 27 28 29 39 22 35 28 21 21 21 22 20 33
leaf_count=22 21 27 21 26 29 30 27 28 29 39 22 35 28 21 21 21 22 20 33
internal_value=0 0.0066999 -0.0119033 0.0142679 -8.13044e-05 -0.00293125 -0.00788553 -0.00870177 0.0033235 0.020074 0.00232905 -0.0105758 -0.00910737 -0.00313341 0.0240642 0.0215864 -0.00537004 0.00564917 -0.012536
internal_weight=522 334 188 158 176 149 77 167 55 103 72 139 118 50 64 43 57 50 61
internal_count=522 334 188 158 176 149 77 167 55 103 72 139 118 50 64 43 57 50 61
is_linear=0
shrinkage=0.03


Tree=21
num_leaves=18
num_cat=0
split_feature=4 86 16 79 55 41 9 3 50 5 55 57 90 62 28 33 70
split_gain=38.5311 24.2433 13.7412 12.4086 11.4083 8.43395 6.09584 6.09015 4.5299 3.39491 2.71454 0.957492 0.892692 0.232879 0.232081 0.182003 0.09853
threshold=0.20722524615021626 -0.8783796973249266 0.042203989535170072 -0.086121085405596418 -0.64152246772502919 0.18715338736273354 0.8929994502483013 0.068360427744358299 0.71653271550657915 0.048188914748577456 -0.18073671881782874 0.099399983219230201 -0.77259657388510627 -0.4805501935502523 0.54665521551714358 -0.76260858464301784 -0.2658714660848715
decision_type=2 2 2 2 2 2 2 2 2 2 2 2 2 2 2 2 2
left_child=2 3 5 -2 -3 8 9 -8 12 -4 -6 13 -1 -12 -13 -14 -17
right_child=1 4 6 -5 10 -7 7 -9 -10 -11 11 14 15 -15 -16 16 -18
leaf_value=0.0058676691752961386 -0.044887941120925104 0.013313957122394564 0.030489486888110394 -0.015143984918823053 -3.8803473238799704e-05 -0.010938295266525743 0.015866741470592405 -0.002993203283758811 0.015052919070297311 0.015332220057460747 -0.0045100825615375633 -0.015323453157274555 0.0022439082874009357 -0.0086719874645534312 -0.010256476750621546 0.00011722453866168796 -0.0026003845252875065
leaf_weight=37 21 29 25 33 36 37 39 25 32 32 25 24 23 36 23 25 20
leaf_count=37 21 29 25 33 36 37 39 25 32 32 25 24 23 36 23 25 20
internal_value=0 -0.00929039 0.00714774 -0.0268281 -0.00378652 0.00172652 0.0149109 0.0084596 0.00517431 0.0220744 -0.00725803 -0.00963443 0.00212369 -0.00702556 -0.0129346 3.68412e-05 -0.00102717
internal_weight=522 227 295 54 173 174 121 64 137 57 144 108 105 61 47 68 45
internal_count=522 227 295 54 173 174 121 64 137 57 144 108 105 61 47 68 45
is_linear=0
shrinkage=0.03


Tree=22
num_leaves=20
num_cat=0
split_feature=3 13 14 76 59 41 34 71 34 7 13 11 18 25 85 37 59 85 26
split_gain=36.4098 24.3011 14.2618 12.9316 10.1048 7.16127 3.90289 3.22522 2.42391 1.78751 1.5387 1.38228 1.17087 0.758378 0.722107 0.471642 0.409997 0.390385 0.307025
threshold=0.077125842119168897 1.1403756406239496 0.28022253889838655 -0.50484413799654415 0.32213086065522589 0.35912829846635969 -1.5205938328307418 1.165803695155909 -0.64773374275592244 0.98985611744539914 -0.063129338182751779 -0.15746520878945866 -0.031915642357291774 0.15411979437153059 0.78656609248549303 0.82165245407214538 -0.52479139089306226 -0.78656609248549325 -0.044072600751065331
decision_type=2 2 2 2 2 2 2 2 2 2 2 2 2 2 2 2 2 2 2
left_child=2 3 5 4 -2 6 -1 9 -5 -4 -9 16 13 17 15 -13 -10 -8 -19
right_child=1 -3 7 8 -6 -7 12 10 11 -11 -12 14 -14 -15 -16 -17 -18 18 -20
leaf_value=0.015903790945356541 -0.0060258713576465985 -0.033271615033747676 0.018186606440801341 -0.00075169757315792982 0.022067817100490703 -0.014506633526353693 0.005048744241676984 0.016894799363556631 -0.0030713851816640335 0.0072351189173998371 0.029266905286418853 -0.018303677467094069 0.0087009354961382866 -0.0035638189712515122 -0.0085357443970513047 -0.011942833652685489 -0.0086582242139160177 0.0030194473300636602 -0.0013384843869925203
leaf_weight=23 21 31 24 29 25 20 34 21 20 34 20 26 23 23 25 27 39 30 27
leaf_count=23 21 31 24 29 25 20 34 21 20 34 20 26 23 23 25 27 39 30 27
internal_value=0 -0.00848935 0.0073916 -0.0048374 0.00919211 0.0023389 0.00447108 0.0165364 -0.00874636 0.0118419 0.0230595 -0.010415 0.00251964 0.00123971 -0.013081 -0.0151483 -0.00682354 0.00248929 0.000903896
internal_weight=522 243 279 212 46 180 160 99 166 58 41 137 137 114 78 53 59 91 57
internal_count=522 243 279 212 46 180 160 99 166 58 41 137 137 114 78 53 59 91 57
is_linear=0
shrinkage=0.03


Tree=23
num_leaves=21
num_cat=0
split_feature=3 13 55 14 41 34 71 77 55 7 13 37 18 90 52 52 55 66 5 55
split_gain=34.2814 22.8642 14.3219 13.4266 6.74087 3.67267 3.03293 2.52087 5.48246 1.68011 1.44379 1.25145 1.06253 0.775458 0.737349 0.564518 0.404836 0.160366 0.156154 0.00361895
threshold=0.077125842119168897 1.1403756406239496 -0.91180932476233079 0.28022253889838655 0.35912829846635969 -1.5831083873018452 1.165803695155909 -0.014621253080641246 -0.44717036054752474 0.98985611744539914 -0.063129338182751779 1.0356627287786087 -0.031915642357291774 -0.77259657388510627 0.10784825420092532 0.39239990400441588 1.7462053908009427 0.057991799773573445 -0.074977088002433009 0.16835544106355363
decision_type=2 2 2 2 2 2 2 2 2 2 2 2 2 2 2 2 2 2 2 2
left_child=3 2 -2 4 5 -1 9 8 -4 -5 -8 14 13 19 -9 18 17 -15 -10 -7
right_child=1 -3 7 6 -6 12 10 11 15 -11 -12 -13 -14 16 -16 -17 -18 -19 -20 -21
leaf_value=0.01602841347879708 0.017569861737164582 -0.032276675199964036 0.0094069831730065178 0.017643271954227779 -0.014073599665912227 0.0055460032709498891 0.016390357479382466 -0.017884247436563007 -0.0040543419438084042 0.0070187020251565669 0.028393267108433276 -0.0055606663472971083 0.0084410373382754148 0 -0.010656686433643665 -0.012264771038916574 0.0025738641631457651 -0.0034018658951815968 -0.0075722645503333479 0.0037202227674424642
leaf_weight=21 23 31 21 24 20 20 21 24 25 34 20 27 23 20 37 20 26 30 35 20
leaf_count=21 23 31 21 24 20 20 21 24 25 34 20 27 23 20 37 20 26 30 35 20
internal_value=0 -0.00823773 -0.0046949 0.00717206 0.00226896 0.00433803 0.0160452 -0.00742809 -0.00414031 0.0114895 0.0223733 -0.0111585 0.00254003 0.00133791 -0.013574 -0.00774123 -0.000406312 -0.00201793 -0.00616557 0.00471948
internal_weight=522 243 212 279 180 160 99 189 101 58 41 88 139 116 61 80 76 50 60 40
internal_count=522 243 212 279 180 160 99 189 101 58 41 88 139 116 61 80 76 50 60 40
is_linear=0
shrinkage=0.03


Tree=24
num_leaves=21
num_cat=0
split_feature=3 13 55 14 37 53 71 77 55 7 13 37 54 42 58 33 80 76 5 76
split_gain=32.2782 21.5136 13.4819 12.6379 6.35892 4.04851 2.85202 2.37177 5.16203 1.57908 1.3546 1.17603 0.827781 0.70364 0.568842 0.449766 0.411431 0.23351 0.139511 0.013636
threshold=0.077125842119168897 1.1403756406239496 -0.91180932476233079 0.28022253889838655 0.48409299675044543 0.69148744128350692 1.165803695155909 -0.014621253080641246 -0.44717036054752474 0.98985611744539914 -0.063129338182751779 1.0356627287786087 0.49182035074913427 -0.16240994892927693 -0.095389663965044794 -0.074025291237463736 -0.33604948171410981 -1.1090201286078261 -0.099931903083729776 -0.2716696071414535
decision_type=2 2 2 2 2 2 2 2 2 2 2 2 2 2 2 2 2 2 2 2
left_child=3 2 -2 4 5 12 9 8 -4 -5 -8 13 15 -9 18 16 17 -1 -10 -20
right_child=1 -3 7 6 -6 -7 10 11 14 -11 -12 -13 -14 -15 -16 -17 -18 -19 19 -21
leaf_value=6.9928480757038968e-05 0.017045047537653474 -0.031311488984290418 0.0091261111432907136 0.017116170248550003 -0.013239838467531293 0.015615804904136667 0.015900977342897117 -0.0098122866994866699 -0.0035394785836783803 0.0068087583448180698 0.027545706941120657 -0.0053944619252565326 -0.0025189862357473916 -0.016724860646675541 -0.012044803166567388 -0.00032925580607145614 0.0074904999241397823 0.0041969803797819666 -0.0081652899698090187 -0.0057390786729641808
leaf_weight=20 23 31 21 24 21 24 21 32 20 34 20 27 26 29 20 22 27 40 20 20
leaf_count=20 23 31 21 24 21 24 21 32 20 34 20 27 26 29 20 22 27 40 20 20
internal_value=0 -0.00799286 -0.00455577 0.00695992 0.00220242 0.00426786 0.0155687 -0.00720793 -0.00401742 0.0111476 0.0217075 -0.010827 0.00221817 -0.0131697 -0.00751213 0.00337691 0.00434784 0.00287362 -0.0059338 -0.00704433
internal_weight=522 243 212 279 180 159 99 189 101 58 41 88 135 61 80 109 87 60 60 40
internal_count=522 243 212 279 180 159 99 189 101 58 41 88 135 61 80 109 87 60 60 40
is_linear=0
shrinkage=0.03


Tree=25
num_leaves=19
num_cat=0
split_feature=67 12 76 70 34 16 26 44 3 26 68 8 34 25 13 1 28 12
split_gain=34.9346 15.664 14.9566 8.35649 7.30095 3.48894 3.28215 2.28247 2.03649 1.57996 1.54235 1.17581 0.769476 0.345052 0.291999 0.203407 0.147982 0.00278981
threshold=0.28137342545534177 -0.33841480902920701 -0.43747717688650373 -0.27898464736755324 -0.13934158872713381 -0.034104336731831879 0.084490851812104154 -0.1093148488113953 0.077125842119168897 -0.049444788368013408 -0.014730180678079128 0.94128406559935551 -0.51070735912460063 0.1033425541331512 -0.42571250160646179 -0.25529241900627603 -0.62749112803029239 0.12990333740798662
decision_type=2 2 2 2 2 2 2 2 2 2 2 2 2 2 2 2 2 2
left_child=1 3 -2 6 7 -5 9 10 -4 13 -3 -9 -10 -1 -14 -16 -11 -17
right_child=2 4 8 5 -6 -7 -8 11 12 16 -12 -13 14 -15 15 17 -18 -19
leaf_value=0.0029011703083752817 -0.028227964582988336 0.023936713126004504 0.00050582614569519443 -0.0025417231799327762 -0.0033299780667606568 -0.01691986207372588 0.013802082777793117 0.016486127839006225 -0.0032891318613136431 -0.0033473057479488253 0.013744015328864337 0.0075817832684962555 -0.012978138176362905 0.0076497835737724239 -0.011194723871364411 -0.0082496123366496144 0 -0.0062445861379587155
leaf_weight=31 35 39 30 36 20 27 27 26 25 28 24 32 20 30 21 22 20 29
leaf_count=31 35 39 30 36 20 27 27 26 25 28 24 32 20 30 21 22 20 29
internal_value=0 0.0056767 -0.0106054 0.00023988 0.0133231 -0.00876838 0.00443824 0.0161009 -0.00637277 0.00208073 0.0201293 0.0116465 -0.00816106 0.00529435 -0.00944737 -0.00840836 -0.00194338 -0.00718266
internal_weight=522 340 182 199 141 63 136 121 147 109 63 58 117 61 92 72 48 51
internal_count=522 340 182 199 141 63 136 121 147 109 63 58 117 61 92 72 48 51
is_linear=0
shrinkage=0.03


Tree=26
num_leaves=18
num_cat=0
split_feature=67 12 76 81 12 26 58 55 3 26 28 7 12 67 49 4 81
split_gain=32.9011 15.7644 12.7592 8.02545 5.46931 3.36008 2.48826 2.23588 1.94797 1.37595 0.682156 0.97168 0.598427 0.464529 0.376734 0.202719 0.19109
threshold=0.24385608972243608 -0.33841480902920701 -0.43747717688650373 -0.28042050178542177 0.91143563149782236 0.084490851812104154 0.68990182025275026 -1.2380007347816042 0.077125842119168897 -0.049444788368013408 -0.13058897401228955 0.97581648900053486 0.12990333740798662 0.015422793166695394 0.35287011090284531 0.15291621386476087 0.0043449178273262667
decision_type=2 2 2 2 2 2 2 2 2 2 2 2 2 2 2 2 2
left_child=1 3 -2 5 7 9 -5 -3 -4 13 -9 -12 14 -1 -10 -11 -14
right_child=2 4 8 6 -6 -7 -8 10 12 15 11 -13 16 -15 -16 -17 -18
leaf_value=0.007261690463975211 -0.02556755259222402 0.0098318117660448293 0.0004071692018726162 -0.0039112700493197728 -0.00083451575140899674 0.013267450741495525 -0.017101249690953786 0.0149479442250689 -0.0077379105453322557 -0.00017526324707840645 0.026775331230305909 0.017319052699834001 -0.0035686210948437779 0.0018889190415013269 -0.013236068917507946 -0.0040191503354596869 -0.0072467190615440663
leaf_weight=32 38 38 32 31 20 28 23 30 31 32 20 28 27 30 24 22 36
leaf_count=32 38 38 32 31 20 28 23 30 31 32 20 28 27 30 24 22 36
internal_value=0 0.00564874 -0.0100373 0.000230407 0.0135092 0.00394395 -0.0096059 0.0160067 -0.00606852 0.00165812 0.0189601 0.021369 -0.00784889 0.0047175 -0.0102112 -0.00180128 -0.00572609
internal_weight=522 334 188 198 136 144 54 116 150 116 78 48 118 62 55 54 63
internal_count=522 334 188 198 136 144 54 116 150 116 78 48 118 62 55 54 63
is_linear=0
shrinkage=0.03


Tree=27
num_leaves=19
num_cat=0
split_feature=67 12 76 71 34 16 39 44 42 68 8 68 26 57 59 12 80 76
split_gain=31.0277 13.9127 13.3329 7.62621 6.57385 3.23819 2.97921 2.04612 1.75202 1.36753 1.14685 1.10565 0.910205 0.72308 0.294218 0.265465 0.13862 0.0711628
threshold=0.28137342545534177 -0.33841480902920701 -0.44176486815539978 -0.28594092515980901 -0.13934158872713381 -0.034104336731831879 -0.25558787943673383 -0.1093148488113953 0.081024933350765785 -0.014730180678079128 0.94128406559935551 -0.0090207513132302113 -0.042212128761406169 0.38492921458564072 -0.66716585194339351 -0.068646328136578297 -0.40435924385485938 -0.20334017302012566
decision_type=2 2 2 2 2 2 2 2 2 2 2 2 2 2 2 2 2 2
left_child=1 3 -2 6 7 -5 12 9 13 -3 -9 -8 16 14 -4 -15 -1 -16
right_child=2 4 8 5 -6 -7 11 10 -10 -11 -12 -13 -14 15 17 -17 -18 -19
leaf_value=0.0015498239487748253 -0.026935175127811357 0.02260067183686339 -0.0024281139716283598 -0.0024337804206008983 -0.0032406321095664104 -0.016128437225449127 0.0046312183751512116 0.015740465751324574 0.0010640764916204359 0.012978047254916542 0.0069604736200977709 0.013476343935900562 -0.0031003984556563437 -0.013649090759789765 -0.0082569451461133262 -0.0080402558663887763 0.0051444861367007716 -0.0056112590949993326
leaf_weight=23 34 39 20 38 20 27 24 26 25 24 32 31 34 20 29 20 22 34
leaf_count=23 34 39 20 38 20 27 24 26 25 24 32 31 34 20 29 20 22 34
internal_value=0 0.00534921 -0.0099954 0.000224457 0.0125555 -0.00818445 0.00432884 0.0151917 -0.00606802 0.0190088 0.0109683 0.00968651 0.000553356 -0.00754169 -0.0058535 -0.0109465 0.00338124 -0.00688781
internal_weight=522 340 182 199 141 65 134 121 148 63 58 55 79 123 83 40 45 63
internal_count=522 340 182 199 141 65 134 121 148 63 58 55 79 123 83 40 45 63
is_linear=0
shrinkage=0.03


Tree=28
num_leaves=20
num_cat=0
split_feature=67 44 34 34 34 64 9 7 13 68 13 11 11 90 33 66 13 68 53
split_gain=29.211 12.3854 10.873 7.50391 5.80003 3.12886 2.78438 2.24748 2.06287 1.9469 1.01016 0.888514 1.04139 1.01714 0.701692 0.717659 0.659939 0.629976 0.265595
threshold=0.28137342545534177 0.090177618886476033 0.71982612984646022 -0.23835128061686553 -1.3849073034037087 0.061995841712922134 -0.11736181714465593 0.80275641170856404 0.017732401055029951 0.0082927673124090235 -1.1027998524893563 -0.097234193243033631 1.1670968390642942 0.16280825711809024 -0.2954675414665448 0.060935678908003617 -0.82739483187631191 -0.0095369448619229674 0.3839189147044007
decision_type=2 2 2 2 2 2 2 2 2 2 2 2 2 2 2 2 2 2 2
left_child=1 3 7 9 -3 6 17 11 -5 14 -8 18 13 -13 15 -1 -7 -6 -2
right_child=2 4 -4 8 5 16 10 -9 -10 -11 -12 12 -14 -15 -16 -17 -18 -19 -20
leaf_value=0.012075920738835831 -0.0032571269071864327 0.012504713461627818 -0.030560505214466974 0.0066367693609365105 -0.0041812581566481105 0.005293696931153123 -0.006924200251337085 0.00070985236208597228 -0.0051411789933692156 0.010577119803222852 -0.016875026866571226 -0.018556963209785633 -0.0046673460844070154 -0.0097579255531418992 0.023795305339627242 0.020841949880123136 -0.0010318594435191253 0.0025308234737612197 -0.0076399371529293951
leaf_weight=20 26 27 20 39 30 36 20 27 20 39 20 20 20 37 24 20 24 21 32
leaf_count=20 26 27 20 39 30 36 20 27 20 39 20 20 20 37 24 20 24 21 32
internal_value=0 0.00519004 -0.00969857 0.0111896 -0.00025664 -0.00256509 -0.00607925 -0.00708725 0.00259154 0.0160784 -0.0120041 -0.00866825 -0.0108279 -0.0129249 0.0193622 0.0165748 0.00271605 -0.00135921 -0.00573585
internal_weight=522 340 182 162 178 151 91 162 59 103 40 135 77 57 64 40 60 51 58
internal_count=522 340 182 162 178 151 91 162 59 103 40 135 77 57 64 40 60 51 58
is_linear=0
shrinkage=0.03


Tree=29
num_leaves=19
num_cat=0
split_feature=67 12 76 71 34 16 35 44 32 54 8 76 61 45 26 12 1 80
split_gain=27.5008 12.445 12.1163 6.87519 5.85557 2.93111 2.74289 1.82521 1.67165 1.24241 1.1056 0.985912 0.892992 0.84846 0.750165 0.301515 0.10912 0.0973149
threshold=0.28137342545534177 -0.33841480902920701 -0.44176486815539978 -0.28594092515980901 -0.13934158872713381 -0.034104336731831879 -0.22799823249899645 -0.1093148488113953 -0.59672452944895449 0.21110301579952265 0.94128406559935551 -0.42314018033886897 -1.2866361634148407 0.05112733894241682 -0.042212128761406169 -0.08787942899360543 -0.15302094219329415 -0.40435924385485938
decision_type=2 2 2 2 2 2 2 2 2 2 2 2 2 2 2 2 2 2
left_child=1 3 -2 6 7 -5 14 9 -4 13 -9 -8 -10 -3 17 -14 -17 -1
right_child=2 4 8 5 -6 -7 11 10 12 -11 -12 -13 15 -15 -16 16 -18 -19
leaf_value=0.0014744497685656916 -0.02555981768300631 0.025780741705823298 0.0013010991703110385 -0.0023199042610413446 -0.0030503175118521074 -0.015354687144835495 0.013777199856225881 0.015023935468032441 -0.0028270734808765502 0.011339682331725732 0.0064124800505064358 0.0055250095070713962 -0.011737189681169045 0.016467267034889814 -0.0029311462162920103 -0.009064167862393193 -0.0060114404692863804 0.0046197095769110004
leaf_weight=23 34 20 25 38 20 27 24 26 34 20 32 33 25 23 34 29 35 20
leaf_count=23 34 20 25 38 20 27 24 26 34 20 32 33 25 23 34 29 35 20
internal_value=0 0.0050354 -0.00941081 0.000187704 0.0118509 -0.0077957 0.00408555 0.0143392 -0.00566589 0.0179479 0.0103436 0.0090702 -0.00710622 0.0209185 0.000349726 -0.00870227 -0.00745349 0.00301429
internal_weight=522 340 182 199 141 65 134 121 148 63 58 57 123 43 77 89 64 43
internal_count=522 340 182 199 141 65 134 121 148 63 58 57 123 43 77 89 64 43
is_linear=0
shrinkage=0.03


Tree=30
num_leaves=21
num_cat=0
split_feature=67 12 34 71 12 58 34 2 55 90 20 12 58 35 45 4 12 33 34 83
split_gain=25.8996 12.5231 10.6464 6.55288 4.50763 2.7848 2.64355 1.97985 1.82673 1.5265 0.921024 0.813243 0.878334 0.646004 0.753396 0.577232 0.328824 0.228486 0.115319 0.0184312
threshold=0.24385608972243608 -0.33841480902920701 0.71982612984646022 -0.27553174324916557 0.8929994502483013 0.68990182025275026 -1.5831083873018452 0.12214152941586053 -1.2380007347816042 0.47114434510950071 -0.40664228594918855 1.2804580194776041 -0.21194047577364619 -0.13279860565250903 0.05112733894241682 0.15291621386476087 0.12990333740798662 -0.31001004467052229 0.21092581714120659 -0.043240118446164731
decision_type=2 2 2 2 2 2 2 2 2 2 2 2 2 2 2 2 2 2 2 2
left_child=1 3 7 6 8 -5 -1 11 -3 -9 15 12 -2 -10 -15 17 19 18 -8 -14
right_child=2 4 -4 5 -6 -7 10 9 13 -11 -12 -13 16 14 -16 -17 -18 -19 -20 -21
leaf_value=0.013519224445401774 -0.0028911427357548492 0.0087665391305193872 -0.029029290791583281 -0.0028256816881844118 -0.00062558001110339049 -0.016388167975010807 0.0049397905504525597 0.0050852324165153624 0.013085448152011202 -0.0056365041480850924 0.0078119460015154598 -0.013961673900838144 -0.012439199383579081 0.023764555492012746 0.015430757148169922 -0.0036364223105365061 -0.0062421176128688903 -0.00032450367551875781 0.0018058633102030911 -0.0093752772194236056
leaf_weight=21 31 38 21 35 21 23 20 20 29 29 20 21 20 22 26 21 26 25 33 20
leaf_count=21 31 38 21 35 21 23 20 20 29 29 20 21 20 22 26 21 26 25 33 20
internal_value=0 0.00501122 -0.00890602 0.000180303 0.0120171 -0.00827449 0.00370782 -0.00634174 0.0143504 -0.00119774 0.00194131 -0.00844959 -0.0072122 0.0170522 0.0193543 0.000718368 -0.00918896 0.00193238 0.00305205 -0.0110093
internal_weight=522 334 188 198 136 58 140 167 115 49 119 118 97 77 48 99 66 78 53 40
internal_count=522 334 188 198 136 58 140 167 115 49 119 118 97 77 48 99 66 78 53 40
is_linear=0
shrinkage=0.03


Tree=31
num_leaves=20
num_cat=0
split_feature=67 76 44 9 33 52 55 33 68 3 66 2 72 80 88 9 3 90 71
split_gain=24.3963 11.0433 10.5068 4.31836 4.09877 4.66595 2.29592 2.24331 2.2928 1.89659 1.61033 1.31557 0.634748 0.6132 0.605286 0.384659 0.307665 0.242692 0.185011
threshold=0.28137342545534177 -0.47453850001842512 0.090177618886476033 -0.12291912909673214 -0.074025291237463736 0.36812201154229235 0.16835544106355363 0.18640186956968849 -0.014106762802722992 0.077125842119168897 0.057991799773575652 0.14616074253308364 1.6576124041612574 -0.094799211388330806 292.50000000000006 -0.11736181714465593 0.068360427744359548 -0.065403129230143256 0.16167999810006087
decision_type=2 2 2 2 2 2 2 2 2 2 2 2 2 2 2 2 2 2 2
left_child=2 -2 3 -1 5 10 -7 8 14 -3 15 16 13 18 -5 -4 -10 -15 -11
right_child=1 9 4 7 -6 6 -8 -9 11 12 -12 -13 -14 17 -16 -17 -18 -19 -20
leaf_value=-0.0010842628716917864 -0.02737693389335951 0.00081099758778646136 -0.0030426781265021755 0.014624215931589923 -0.0088693277498997775 0.015215030773319442 0.0026822480516735031 0.0040460835551598146 0.0039218814092785567 -0.010837409074196187 0.0030173925500989792 0.015981259909902866 -0.01255898279040607 -0.0016388213206335427 0.022333977383650915 -0.0084466034178803506 0.0095850423779060591 -0.0058545036409100425 -0.0064178517249537936
leaf_weight=25 25 30 30 20 39 27 27 25 20 28 32 24 20 22 28 23 20 37 20
leaf_count=25 25 30 30 20 39 27 27 25 20 28 32 24 20 22 28 23 20 37 20
internal_value=0 -0.00886401 0.00474241 0.0102684 -0.000272978 0.00212202 0.00902063 0.0123612 0.0141853 -0.00588144 -0.00223082 0.0103376 -0.00748533 -0.00649813 0.019221 -0.00545577 0.00684512 -0.00433875 -0.00907547
internal_weight=522 182 340 162 178 139 54 137 112 157 85 64 127 107 48 53 40 59 48
internal_count=522 182 340 162 178 139 54 137 112 157 85 64 127 107 48 53 40 59 48
is_linear=0
shrinkage=0.03


Tree=32
num_leaves=20
num_cat=0
split_feature=67 12 76 4 34 32 49 32 90 11 10 67 90 60 46 90 25 68 59
split_gain=22.9709 10.4614 10.4545 6.04025 5.03344 3.25784 2.87625 1.4958 1.43245 1.38825 2.5078 1.27695 0.791117 0.721059 0.281693 0.280381 0.272352 0.267985 0.0656111
threshold=0.28137342545534177 -0.33841480902920701 -0.43747717688650373 0.24941046616566967 -0.13934158872713381 0.15921912626595733 0.71653271550657915 -0.59672452944895449 0.91037613702198772 1.0133912758394821 0.71937653189272399 0.1174381789123312 -0.58216583101416164 -1.2087136885509484 0.48419579284891606 0.52778511650980109 0.10334255413314918 -0.030436420087736057 -1.0556023437246995
decision_type=2 2 2 2 2 2 2 2 2 2 2 2 2 2 2 2 2 2 2
left_child=1 3 -2 5 8 6 12 -4 9 10 11 -3 16 18 15 -15 -1 -14 -9
right_child=2 4 7 -5 -6 -7 -8 13 -10 -11 -12 -13 17 14 -16 -17 -18 -19 -20
leaf_value=0.0023297635259111518 -0.02333726219514496 0.019166150805366485 0.0015250961655431769 -0.013908954359189107 -0.0029567446359502728 -0.0086201053014977481 0.011370508068205673 -0.0016543954827669839 0.02070485430422114 0.018862610779591459 0.0032681444140673075 0.0089655200339451863 -0.0035858539067107624 -0.012793224240416909 -0.0061103660053075728 -0.0071290728839030898 0.0068392712811925519 0.0005173818646713827 -0.0043635659035924186
leaf_weight=39 35 24 25 24 20 22 34 20 20 20 33 24 22 20 39 20 20 38 23
leaf_count=39 35 24 25 24 20 22 34 20 20 20 33 24 22 20 39 20 20 38 23
internal_value=0 0.00460181 -0.00860112 0.000155963 0.0108506 0.00210884 0.00367578 -0.00505864 0.0131582 0.0116151 0.00976756 0.0141574 0.0014444 -0.00643248 -0.0081587 -0.0100608 0.00391816 -0.000940684 -0.00317985
internal_weight=522 340 182 199 141 175 153 147 121 101 81 48 119 122 79 40 59 60 43
internal_count=522 340 182 199 141 175 153 147 121 101 81 48 119 122 79 40 59 60 43
is_linear=0
shrinkage=0.03


Tree=33
num_leaves=19
num_cat=0
split_feature=13 67 43 68 68 24 76 80 81 74 7 85 9 13 5 58 74 76
split_gain=21.9707 15.2667 8.47281 3.38362 2.61963 2.41897 2.01325 1.45689 1.41133 1.21782 1.12247 1.0654 1.00673 0.748495 0.485872 0.206633 0.138546 0.117959
threshold=1.1879280029931334 0.30452937150876236 0.044673001918136869 -0.0092716688153497966 -0.013533973793107055 0.079968834583278373 -0.31781287061442509 -0.57941264469076736 -0.3877524455416626 -0.28727482845100677 0.41597399242324623 0.37940952255126048 0.86263015632722184 -0.55278865570439029 -1.0000000180025095e-35 -1.4482775759043978 -0.016554424512867597 -0.40262017440679537
decision_type=2 2 2 2 2 2 2 2 2 2 2 2 2 2 2 2 2 2
left_child=1 2 4 7 12 9 11 -4 -6 -5 15 -3 -1 -10 17 -8 -17 -9
right_child=-2 6 3 5 8 -7 10 14 13 -11 -12 -13 -14 -15 -16 16 -18 -19
leaf_value=0.019800736172022926 -0.024046584709295042 -0.016036057207918814 0.0021702905206420404 0.0047770920265827153 0.012841063816352246 0.011231813264174724 -0.0027224514816470181 -0.0013793954842571002 0.0073935573724741785 -0.0042607094804751923 0.0026528350836527879 -0.007141991128152776 0.011199195614284965 0 -0.009140446940019949 -0.008304445833153179 -0.0048092373969972641 -0.0047248511067752175
leaf_weight=31 32 22 38 36 28 38 26 20 29 21 20 32 25 21 20 22 35 26
leaf_count=31 32 22 38 36 28 38 26 20 29 21 20 32 25 21 20 22 35 26
internal_value=0 0.00157268 0.00521313 0.00126773 0.0110447 0.00536787 -0.00612808 -0.00245033 0.00740314 0.00139321 -0.00361849 -0.0108439 0.016041 0.00427847 -0.00515533 -0.00516713 -0.00622299 -0.00334153
internal_weight=522 490 333 199 134 95 157 104 78 57 103 54 56 50 66 83 57 46
internal_count=522 490 333 199 134 95 157 104 78 57 103 54 56 50 66 83 57 46
is_linear=0
shrinkage=0.03


Tree=34
num_leaves=20
num_cat=0
split_feature=13 67 44 34 34 43 76 74 68 3 85 77 74 45 90 72 13 34 74
split_gain=20.6754 14.3734 8.65111 3.88889 3.70152 2.42284 1.894 1.89307 1.44131 1.36901 1.0007 0.789085 0.697276 0.53254 0.488181 1.42287 0.319961 0.178097 0.0884926
threshold=1.1879280029931334 0.30452937150876236 0.090177618886476033 -0.23835128061686553 -1.5205938328307418 0.093486396455445694 -0.31781287061442509 -0.28727482845100677 0.0082927673124090235 0.085908272068297695 0.37940952255126048 -0.32180233011172621 -0.38121133303470889 0.052536372018274588 0.88144907265856365 1.4717344677803526 -1.0481307989152486 -0.51070735912460063 -0.75219389262876268
decision_type=2 2 2 2 2 2 2 2 2 2 2 2 2 2 2 2 2 2 2
left_child=1 2 3 8 -4 7 10 13 14 -8 -3 -5 16 -6 15 -1 -7 -11 -19
right_child=-2 6 4 11 5 12 9 -9 -10 17 -12 -13 -14 -15 -16 -17 -18 18 -20
leaf_value=0.019355010076182511 -0.023327433776467271 -0.015557151873052389 0.011613492601877683 0.0074882700542608892 0.0020326524733684918 0.0036609838795252318 0.0023536864904708213 -0.011631091628551801 0.0088298695301994336 -0.0031175411877481271 -0.0069283988027372088 0.00024531609109568832 0.0076041177020811316 -0.0038744031441099239 0.020733850740674714 0.0081063201089403535 -0.001220835288625719 -0.0084423012608912436 -0.0053055062423125361
leaf_weight=24 32 22 23 26 21 21 26 25 39 24 32 30 20 37 20 20 27 20 33
leaf_count=24 32 22 23 26 21 21 26 25 39 24 32 30 20 37 20 20 27 20 33
internal_value=0 0.00152517 0.00505765 0.0101145 0.00041634 -0.00127589 -0.00594665 -0.00472674 0.0135828 -0.00351119 -0.0105215 0.00366895 0.00289288 -0.00168419 0.0164141 0.01434 0.000855761 -0.00553094 -0.00655937
internal_weight=522 490 333 159 174 151 157 83 103 103 54 56 68 58 64 44 48 77 53
internal_count=522 490 333 159 174 151 157 83 103 103 54 56 68 58 64 44 48 77 53
is_linear=0
shrinkage=0.03


Tree=35
num_leaves=20
num_cat=0
split_feature=13 67 12 34 34 86 76 74 18 13 39 3 85 7 90 66 90 60 75
split_gain=19.458 13.5362 7.31717 4.0369 3.05832 2.2505 1.78177 1.66712 1.45804 3.22443 1.44831 1.28988 0.939864 0.577754 0.503951 0.463177 0.282828 0.180228 0.0745732
threshold=1.1879280029931334 0.30452937150876236 -0.33841480902920701 -0.23835128061686553 -1.5205938328307418 0.6078576107927941 -0.31781287061442509 -0.29075844635308595 0.95601139035773552 -0.2682749473372219 -0.59026014811071104 0.085908272068297695 0.37940952255126048 -0.017204173933449446 0.032701564615071219 0.0050115096657978161 -0.77259657388510627 -1.222999341075671 -0.68870288170383143
decision_type=2 2 2 2 2 2 2 2 2 2 2 2 2 2 2 2 2 2 2
left_child=1 2 4 8 -1 13 12 15 10 -10 -4 -8 -3 16 -12 -7 -6 -13 -19
right_child=-2 6 3 -5 5 7 11 -9 9 -11 14 17 -14 -15 -16 -17 -18 18 -20
leaf_value=0.011266596060875173 -0.022629791655146326 -0.015092549200308806 0.0084648264301896651 0.00035121946041607012 0.0034117614083183732 0.002095178122173494 0.0022833463731596519 -0.011624271827263395 -9.8711597508093185e-05 0.016365861532883056 0.013984906642294639 -0.0032677314225968315 -0.0067211943962306618 0.0068097924778075629 0.021065914040988249 -0.0035271822587893938 -0.00043144041615269992 -0.0047730089019833929 -0.007825509908564416
leaf_weight=23 32 22 21 31 31 20 26 20 21 21 20 29 32 24 29 36 36 21 27
leaf_count=23 32 22 21 31 31 20 26 20 21 21 20 29 32 24 29 36 36 21 27
internal_value=0 0.00148 0.0049082 0.0100341 0.00103124 -0.000366363 -0.00577068 -0.00419009 0.0126847 0.00808164 0.0153883 -0.00340715 -0.0102088 0.00279524 0.0182712 -0.00146557 0.00130448 -0.005368 -0.00656511
internal_weight=522 490 333 143 190 167 157 76 112 42 70 103 54 91 49 56 67 77 48
internal_count=522 490 333 143 190 167 157 76 112 42 70 103 54 91 49 56 67 77 48
is_linear=0
shrinkage=0.03


Tree=36
num_leaves=19
num_cat=0
split_feature=67 12 34 71 34 26 10 55 33 49 5 55 26 33 2 49 90 71
split_gain=18.3827 10.734 8.97 4.51698 1.9878 1.88194 1.86812 1.71298 1.64197 1.63259 1.03678 0.997977 0.718016 0.631107 0.422385 0.263383 0.140924 0.136287
threshold=0.1773932298060216 -0.33841480902920701 0.63923699166379155 -0.28594092515980901 -0.48699860974531611 0.084490851812104154 -0.073150047815403282 -1.2380007347816042 0.50068594634446639 -0.3209507185035812 0.1305043348492422 0.34125730344828037 -0.042212128761406169 -0.4759564597144908 0.12298914851134297 -0.83126593149036321 0.72947329433276265 -0.37773319413858103
decision_type=2 2 2 2 2 2 2 2 2 2 2 2 2 2 2 2 2 2
left_child=1 3 4 5 8 12 11 9 -2 -3 14 -5 17 -9 15 -6 -17 -1
right_child=2 7 -4 6 10 -7 -8 13 -10 -11 -12 -13 -14 -15 -16 16 -18 -19
leaf_value=0.0017612030178090351 0.0074835395323696423 0.012784581300038008 -0.022305844225008614 0.0024058187374872944 -0.0031637629800859613 0.010426522433704753 -0.01305802690917505 0.011529075385666278 -0.0038105339896083354 0.00051086299454987936 -0.012564373830361152 -0.0069791168997536844 -0.0017476451340830595 0.017530068562725393 -0.0021306337431296067 -0.0091353651510063562 -0.0056755903434600229 0.0046912704701498739
leaf_weight=30 20 20 29 20 22 28 23 37 27 20 20 20 36 38 35 27 32 38
leaf_count=30 20 20 29 20 22 28 23 37 27 20 20 20 36 38 35 27 32 38
internal_value=0 0.00465316 -0.00680787 0.000348955 -0.00432468 0.00351737 -0.00623714 0.0119189 0.000937445 0.00673911 -0.00616461 -0.00221754 0.00162017 0.0146288 -0.00502549 -0.00623519 -0.00732242 0.00344713
internal_weight=522 310 212 195 183 132 63 115 47 40 136 40 104 75 116 81 59 68
internal_count=522 310 212 195 183 132 63 115 47 40 136 40 104 75 116 81 59 68
is_linear=0
shrinkage=0.03


Tree=37
num_leaves=19
num_cat=0
split_feature=13 33 23 9 55 87 25 13 55 54 90 71 54 54 61 11 80 10
split_gain=17.503 10.63 5.93681 4.29674 3.73092 2.41655 2.38586 1.73457 1.54438 1.44644 1.25981 1.10295 1.00725 0.669284 0.61588 0.393335 0.344289 0.25892
threshold=1.1879280029931334 0.18640186956968849 0.10237306329620878 0.30215491422798263 -0.44717036054752474 -0.56174490092936669 0.072914152033056304 -1.409219201466122 -0.37176962269420599 -0.33025053836736956 0.29012925520284133 -0.46021371550769924 -1.2859513394908892 0.49182035074913427 -0.70400490867633791 -0.024507972231659847 -0.074423779959616507 -0.23133805125454213
decision_type=2 2 2 2 2 2 2 2 2 2 2 2 2 2 2 2 2 2
left_child=1 2 4 7 6 8 -1 -4 -3 -7 -11 -5 -6 17 -13 -14 -10 -9
right_child=-2 5 3 11 12 9 -8 13 16 10 -12 14 15 -15 -16 -17 -18 -19
leaf_value=0 -0.021463083655651759 0.0065158277994661184 0.012107716136014282 0.0073579868578939073 0.0012921564010439685 -0.0031080681475715373 0.012837888328915097 0.0021672112897558262 -0.00019566819165904302 -0.01698368944783709 -0.0073495070841113185 0.012441638304923112 -0.0040237734964835353 -0.0013927679207444805 0.019313805475006243 -0.0092854331738569523 -0.0049956733007461597 0.0065721968014210586
leaf_weight=28 32 20 20 21 22 38 25 30 24 20 37 30 37 29 27 23 35 24
leaf_count=28 32 20 20 21 22 38 25 30 24 20 37 30 37 29 27 23 35 24
internal_value=0 0.00140352 0.00468655 0.00823639 -5.32381e-05 -0.00454079 0.00612102 0.00416546 -0.000620678 -0.00776505 -0.0108063 0.0135615 -0.00408306 0.00220329 0.0157775 -0.00610275 -0.00309753 0.00418896
internal_weight=522 490 316 181 135 174 53 103 79 95 57 78 82 83 57 60 59 54
internal_count=522 490 316 181 135 174 53 103 79 95 57 78 82 83 57 60 59 54
is_linear=0
shrinkage=0.03


Tree=38
num_leaves=21
num_cat=0
split_feature=13 67 43 55 53 16 9 76 33 33 75 3 70 85 26 26 33 61 74 54
split_gain=16.4722 11.3068 6.34551 2.97068 2.73715 1.98972 1.94343 1.55919 1.2139 1.42551 1.26965 1.11265 0.970748 0.807144 0.572404 0.469081 0.423767 0.163864 0.0735485 0.0418407
threshold=1.1879280029931334 0.30452937150876236 0.044673001918136869 0.26954669635948342 0.19576024893604696 0.042203989535170072 -0.11736181714465593 -0.31781287061442509 0.12803724005024267 -0.22257998709459834 2.5149542652997274 0.085908272068297695 -0.22685871430209961 0.37940952255126048 -0.044072600751065331 0.055606788536612502 -0.55495728324269156 -1.2866361634148407 -0.75219389262876268 0.91146022018473849
decision_type=2 2 2 2 2 2 2 2 2 2 2 2 2 2 2 2 2 2 2 2
left_child=1 2 5 4 12 -1 14 13 9 10 16 -9 -4 -3 -5 -6 -7 -13 -19 -16
right_child=-2 7 3 6 15 8 -8 11 -10 -11 -12 17 -14 -15 19 -17 -18 18 -20 -21
leaf_value=0.0021179096212411274 -0.020821197360196955 -0.013949224691989734 0.0036637578369335868 0.0025982504806783139 0.0069403203254315392 0.0039191592784959869 -0.010082396373346254 0.0022297148920338728 0.0044577551944487122 0.019505562364280995 0.016658290837895814 -0.0022626402462596318 -0.0046101488792271265 -0.0061728261320668958 -0.0014256416999436246 0.013810951102912694 0.010250783849072147 -0.007498317970268762 -0.0046786823445012305 -0.0036010142952314947
leaf_weight=27 32 22 32 36 20 20 23 26 20 23 21 20 21 32 25 22 23 20 37 20
leaf_count=27 32 22 32 36 20 20 23 26 20 23 21 20 21 32 25 22 23 20 37 20
internal_value=0 0.00136179 0.0044954 0.00107878 0.00492171 0.00954238 -0.00240414 -0.00526419 0.0113841 0.012935 0.0105001 -0.0030512 0.000326412 -0.00941637 -0.000177154 0.0106347 0.00739137 -0.00487386 -0.00573197 -0.00246483
internal_weight=522 490 333 199 95 134 104 157 107 87 64 103 53 54 81 42 43 77 57 45
internal_count=522 490 333 199 95 134 104 157 107 87 64 103 53 54 81 42 43 77 57 45
is_linear=0
shrinkage=0.03


Tree=39
num_leaves=20
num_cat=0
split_feature=13 67 43 55 59 34 9 76 3 90 71 85 7 70 26 26 37 80 89
split_gain=15.502 10.6484 5.97687 2.79752 2.72187 2.62968 1.82857 1.46676 1.04844 0.959809 0.917905 0.757894 0.669538 0.627837 0.539174 0.28798 0.135734 0.052943 0.039767
threshold=1.1879280029931334 0.30452937150876236 0.044673001918136869 0.26954669635948342 0.2114402395586851 -0.28556763729642837 -0.11736181714465593 -0.31781287061442509 0.085908272068297695 0.032701564615071219 -0.25945915568337735 0.37940952255126048 0.97581648900053486 -0.32180233011172626 -0.044072600751065331 0.058954381776803795 1.1911931654370636 -0.094799211388330806 0.63405362205439475
decision_type=2 2 2 2 2 2 2 2 2 2 2 2 2 2 2 2 2 2 2
left_child=1 2 5 4 10 9 14 11 -9 -1 -4 -3 -11 -7 -5 -6 17 -10 -16
right_child=-2 7 3 6 15 13 -8 8 16 12 -12 -13 -14 -15 18 -17 -18 -19 -20
leaf_value=0.0066437509691263255 -0.02019850727066258 -0.013532641381193878 0.0034767450219364369 0.002520518905594119 0.0077362423201105491 0.0070741880005336846 -0.0097812339199053779 0.0021630797209753385 -0.0066629298353932569 0.017340334168611426 -0.0044724998544566153 -0.0059882183059632218 0.010597627282861845 0.00022630636161007726 -0.0035026153961001936 0.013506317296579702 -0.0023928616676144121 -0.0042193293706531123 -0.0013757603271934852
leaf_weight=21 32 22 34 36 20 25 23 26 29 35 21 32 28 25 20 20 21 27 25
leaf_count=21 32 22 34 36 20 25 23 26 29 35 21 32 28 25 20 20 21 27 25
internal_value=0 0.00132131 0.00436247 0.00104607 0.00477563 0.00926074 -0.00233324 -0.0051086 -0.00296089 0.0125163 0.000384524 -0.00913666 0.0144127 0.00371741 -0.000171929 0.0107226 -0.00473054 -0.00554786 -0.00239322
internal_weight=522 490 333 199 95 134 104 157 103 84 55 54 63 50 81 40 77 56 45
internal_count=522 490 333 199 95 134 104 157 103 84 55 54 63 50 81 40 77 56 45
is_linear=0
shrinkage=0.03


Tree=40
num_leaves=20
num_cat=0
split_feature=67 12 34 71 75 38 26 10 44 65 13 5 85 26 81 81 75 34 58
split_gain=14.6499 8.51562 7.55029 3.62098 1.68802 1.85382 1.52879 1.52269 1.39409 1.10301 0.690079 0.670772 0.566877 0.562206 0.214407 0.229575 0.155697 0.107412 0.0582371
threshold=0.1773932298060216 -0.33841480902920701 0.63923699166379155 -0.28594092515980901 -0.13667425949773673 -0.069405016778273529 0.090552808542644928 -0.073150047815403282 -0.1093148488113953 -0.017110052791831098 -0.97754585959759621 0.022511651304748862 0.37940952255126048 -0.042212128761406169 0.0082201368362720822 -0.43405080081704484 -0.43702237274387151 -0.10857907222163453 -0.12324890332520837
decision_type=2 2 2 2 2 2 2 2 2 2 2 2 2 2 2 2 2 2 2
left_child=1 3 4 6 12 -6 13 10 11 -10 -5 -3 -2 16 15 -7 -1 -14 -19
right_child=2 8 -4 7 5 14 -8 -9 9 -11 -12 -13 17 -15 -16 -17 -18 18 -20
leaf_value=0.0016225923842252577 -0.011143720086276261 0.018717259960388068 -0.020296825790758595 -0.0059030874918645886 0.0070232832020343233 -0.0035904283142738362 0.0095308695802279499 -0.011736133490967287 0.0026279837311661328 0.011106631173198246 0.0018852589451777398 0.011352536384207057 -0.0034280375174837981 -0.0014364241578583565 -0.0054025332648925672 0.00043502912397927311 0.0046875742147459041 -0.0047579455531355152 -0.0078234540126216941
leaf_weight=36 22 20 29 20 20 30 27 23 27 31 20 37 24 37 27 20 32 20 20
leaf_count=36 22 20 29 20 20 30 27 23 27 31 20 37 24 37 27 20 32 20 20
internal_value=0 0.00415417 -0.00607725 0.000318703 -0.00379763 -0.00104602 0.00315702 -0.00557628 0.0106258 0.00722263 -0.00193911 0.0140174 -0.00686153 0.00148197 -0.00318724 -0.00192271 0.00311376 -0.00532764 -0.0063812
internal_weight=522 310 212 195 183 97 132 63 115 58 40 57 86 105 77 50 68 64 40
internal_count=522 310 212 195 183 97 132 63 115 58 40 57 86 105 77 50 68 64 40
is_linear=0
shrinkage=0.03


Tree=41
num_leaves=20
num_cat=0
split_feature=13 67 43 55 34 59 9 32 90 71 12 7 70 26 75 26 89 54 76
split_gain=13.9271 9.43578 5.30145 2.51387 2.35675 2.28708 1.6065 1.355 0.881565 0.799472 0.781949 0.617387 0.562027 0.448693 0.370419 0.290143 0.149549 0.0448217 0.00128561
threshold=1.1879280029931334 0.30452937150876236 0.044673001918136869 0.34125730344828037 -0.28556763729642837 0.2114402395586851 -0.11736181714465593 -0.54047045323616671 0.032701564615071219 -0.25945915568337735 1.3109301698069074 0.97581648900053486 -0.34938441860844377 -0.045236098694705455 0.14677240565648939 0.055606788536612502 -0.68322629814330804 0.71653271550657915 -0.15507689375088815
decision_type=2 2 2 2 2 2 2 2 2 2 2 2 2 2 2 2 2 2 2
left_child=1 2 4 5 8 9 13 -3 -1 -4 14 -10 -6 -5 16 -7 -9 -15 -18
right_child=-2 7 3 6 12 15 -8 10 11 -11 -12 -13 -14 17 -16 -17 18 -19 -20
leaf_value=0.0061774478301900261 -0.019145018520860747 0.0023787655292162252 0.0032001328243002774 0.0023295776164186485 0.0070660038757647857 0.0065557566729944139 -0.0092622954853169327 -0.0082766428239205297 0.016442055211872114 -0.004219216792822166 -0.011152909881018134 0.009960139485838777 0.00053493762978773518 -0.0011619614471712332 -0.0019934065881385002 0.012076469792730428 -0.0055508155429379756 -0.0033833162631116691 -0.0040293864089671009
leaf_weight=21 32 20 34 34 22 20 23 22 35 21 22 28 28 24 33 23 36 20 24
leaf_count=21 32 20 34 34 22 20 23 22 35 21 22 28 28 24 33 23 36 20 24
internal_value=0 0.00125237 0.0041154 0.000990999 0.00872879 0.00442239 -0.00230987 -0.00479984 0.0118114 0.000310328 -0.00587066 0.0136291 0.00347685 -0.000212155 -0.00482527 0.00959947 -0.00592456 -0.00224508 -0.00499988
internal_weight=522 490 333 199 134 98 101 157 84 55 137 63 50 78 115 43 82 44 60
internal_count=522 490 333 199 134 98 101 157 84 55 137 63 50 78 115 43 82 44 60
is_linear=0
shrinkage=0.03


Tree=42
num_leaves=20
num_cat=0
split_feature=13 33 34 44 81 87 3 43 55 54 33 90 85 47 18 80 11 55 90
split_gain=13.1065 8.15704 4.68217 4.9326 2.01063 1.82413 1.8036 1.29184 1.17297 1.17109 1.1193 1.03529 0.797508 0.742424 0.547715 0.263289 0.158007 0.150119 0.120588
threshold=1.1879280029931334 0.18640186956968849 -0.33879312834773068 0.089346003836273544 -0.29026494836673017 -0.56174490092936669 0.068553540710359143 0.091480956095065472 -0.37176962269420599 -0.33025053836736956 -0.19768526723946964 0.29012925520284133 1.0000000180025095e-35 0.031142378392625684 -0.031915642357291774 -0.074423779959616507 -0.63017414781671877 0.57171051615547464 -0.58216583101416164
decision_type=2 2 2 2 2 2 2 2 2 2 2 2 2 2 2 2 2 2 2
left_child=1 2 3 10 12 8 14 -6 -3 -7 13 -11 16 -1 18 -10 -5 -8 -4
right_child=-2 5 6 4 7 9 17 -9 15 11 -12 -13 -14 -15 -16 -17 -18 -19 -20
leaf_value=0.0071980924688527063 -0.01857245717615446 0.005633078834681368 0.0020993919667930362 0.010856422635629704 -0.0061843388575867596 -0.0025945958793969952 -0.0066479558619990282 0.003979834760747738 -0.00018726865235422409 -0.015135158800811907 0.019629175618513305 -0.0063868628108919145 0.001381295485171809 0.014839970894250631 0.0059594139625731204 -0.0044032869921026068 0.0066695984115986403 -0.0030305412580509559 -0.00073196623614927387
leaf_weight=27 32 20 28 22 25 38 20 20 24 20 20 37 20 24 29 35 24 33 24
leaf_count=27 32 20 28 22 25 38 20 20 24 20 20 37 20 24 29 35 24 33 24
internal_value=0 0.0012149 0.0040914 0.0072238 0.00323309 -0.0039912 -0.000142903 -0.0016016 -0.000579566 -0.0067931 0.0134073 -0.00953011 0.00657229 0.010875 0.00264823 -0.00274228 0.00875627 -0.00446205 0.000736133
internal_weight=522 490 316 182 111 174 134 45 79 95 71 57 66 51 81 59 46 53 52
internal_count=522 490 316 182 111 174 134 45 79 95 71 57 66 51 81 59 46 53 52
is_linear=0
shrinkage=0.03


Tree=43
num_leaves=20
num_cat=0
split_feature=67 34 17 24 52 59 75 38 55 4 0 88 26 7 81 81 76 52 51
split_gain=12.3534 6.63324 5.14718 3.00464 2.1679 1.83572 1.39925 1.55647 1.20594 1.08619 0.475675 0.456542 0.975997 0.21555 0.183251 0.197882 0.164407 0.107436 0.0760097
threshold=0.1773932298060216 0.63923699166379155 -0.024476384535152471 0.053621818343237933 1.3930231683919505 0.46955800321832758 -0.13667425949773673 -0.069405016778273529 -1.259206502952501 0.15291621386476087 -0.13025890239635232 262.50000000000006 0.025868643664254568 -0.017204173933449446 0.0082201368362720822 -0.43405080081704484 -0.15507689375088815 0.058574527951048304 -1.3002900613388408
decision_type=2 2 2 2 2 2 2 2 2 2 2 2 2 2 2 2 2 2 2
left_child=2 6 4 -4 5 9 10 -8 -5 13 -2 -10 -13 17 15 -9 -12 18 -1
right_child=1 -3 3 8 -6 -7 7 14 11 -11 16 12 -14 -15 -16 -17 -18 -19 -20
leaf_value=0.00015939038736807507 -0.010421805241659506 -0.018909270678906093 -0.0016234121037320502 0.0059075628821888279 -0.0083720322843129028 0.0084007328678030301 0.0064559008197775528 -0.0032745019816778028 0.0087786551740076102 -0.0044071265236893808 -0.0063555423925705564 0.010132128805911392 0.019188269755157691 0.0045882022832807196 -0.0049496679689831399 0.00045784199320182982 -0.0030475825411839983 -0.00060104666694965018 0.0025736639588543274
leaf_weight=21 20 29 21 34 21 31 20 30 20 33 36 24 24 21 27 20 30 22 38
leaf_count=21 20 29 21 34 21 31 20 30 20 33 36 24 24 21 27 20 30 22 38
internal_value=0 -0.00558056 0.00381474 0.00858056 0.000661062 0.00182622 -0.00344281 -0.000934421 0.0107103 0.000289206 -0.00623282 0.0130554 0.014753 0.00184082 -0.00289878 -0.00172375 -0.0049042 0.00108676 0.00176683
internal_weight=522 212 310 123 187 166 183 97 102 135 86 68 48 102 77 50 66 81 59
internal_count=522 212 310 123 187 166 183 97 102 135 86 68 48 102 77 50 66 81 59
is_linear=0
shrinkage=0.03


Tree=44
num_leaves=21
num_cat=0
split_feature=13 67 44 16 45 43 33 32 13 13 74 12 76 90 74 60 13 46 59 71
split_gain=11.8246 7.88671 4.82224 1.76395 1.73219 2.01183 1.49485 1.20599 0.956778 0.825036 0.822499 0.774755 0.725589 0.521913 0.512498 0.318153 0.196211 0.147008 0.0401455 0.0035064
threshold=1.1879280029931334 0.30452937150876236 0.090177618886476033 0.042203989535170072 0.052536372018273512 0.093486396455445694 0.18640186956968849 -0.54047045323616671 -0.063129338182751779 -1.409219201466122 -0.28727482845100677 0.16133485839395917 -0.43747717688650373 0.032701564615071219 -0.38121133303470889 -1.1845958400148766 -1.0481307989152486 0.49304987689141971 -1.0556023437246995 -0.28594092515980901
decision_type=2 2 2 2 2 2 2 2 2 2 2 2 2 2 2 2 2 2 2 2
left_child=1 2 3 -1 9 10 8 -3 11 -4 19 13 -9 -5 16 18 -7 -17 -14 -6
right_child=-2 7 4 6 5 14 -8 12 -10 -11 -12 -13 15 -15 -16 17 -18 -19 -20 -21
leaf_value=0.0017041442468461159 -0.017640733463443796 0.0023904385456620754 0.010069976815981652 0.0081561421191514438 -0.0016066129476269844 0.0026917449519991586 0.0025800576518137616 -0.010617041341007038 0.017032004906170402 0.0013670677969329305 -0.0094257699417699837 0.0057749708554000103 -0.0010626063604253593 0.015352221788330511 0.0062685204886678437 -0.0071610018932918426 -0.0011330882591844922 -0.0040748120799788045 -0.0031857369337008291 -0.0029273725123102981
leaf_weight=37 32 20 20 20 20 21 25 21 20 21 25 34 20 23 20 36 27 35 25 20
leaf_count=37 32 20 20 20 20 21 25 21 20 21 25 34 20 23 20 36 27 35 25 20
internal_value=0 0.00115408 0.00377198 0.00754763 0.000302229 -0.0013421 0.00929242 -0.0043783 0.0109871 0.00569955 -0.00512627 0.00935799 -0.00538934 0.0121015 0.00223328 -0.00440877 0.000480023 -0.00568971 -0.00231309 -0.00234746
internal_weight=522 490 333 159 174 133 122 157 97 41 65 77 137 43 68 116 48 71 45 40
internal_count=522 490 333 159 174 133 122 157 97 41 65 77 137 43 68 116 48 71 45 40
is_linear=0
shrinkage=0.03


Tree=45
num_leaves=18
num_cat=0
split_feature=67 12 44 71 33 51 66 26 55 76 65 45 26 60 32 75 71
split_gain=11.018 6.39241 5.30451 2.63048 1.92796 1.24817 1.22106 1.20181 1.1598 1.15164 1.14164 0.666497 0.436285 0.296782 0.222966 0.112693 0.0708703
threshold=0.1773932298060216 -0.33040038046609288 0.70330043735208436 -0.28594092515980901 0.37012684044005539 0.73742362616418422 0.060935678908001487 0.090552808542644928 -0.081640091370742185 -0.40262017440679537 -0.017110052791831098 0.05112733894241682 -0.042212128761406169 -1.222999341075671 0.98474251956575054 -0.43702237274387151 0.054616543490906659
decision_type=2 2 2 2 2 2 2 2 2 2 2 2 2 2 2 2 2
left_child=1 3 4 7 8 -5 10 12 -2 -6 -3 -8 15 -11 -15 -1 -10
right_child=2 6 -4 5 9 -7 11 -9 16 13 -12 -13 -14 14 -16 -17 -18
leaf_value=0.0014302448249567774 0.0043939792643362119 0.0015915597389654919 -0.019579126319861244 -0.0011066097587042146 -0.011861745928863129 -0.0096888659003822285 0.017129662906954071 0.0084228250575406529 -0.0043560181122708624 -0.0020413220093129735 0.0099046044064030406 0.0096019401854460992 -0.0012838389641778528 -0.0041409812869705326 -0.0083122760111390189 0.0040691938665564928 -0.0015714722582653386
leaf_weight=36 32 27 21 39 25 26 21 27 23 33 36 29 37 36 22 32 20
leaf_count=36 32 27 21 39 25 26 21 27 23 33 36 29 37 36 22 32 20
internal_value=0 0.00360294 -0.00527002 0.000323355 -0.00367165 -0.0045952 0.00928859 0.00276973 3.77646e-05 -0.00609378 0.00639758 0.0128513 0.0012809 -0.00446497 -0.00578642 0.00272031 -0.00313714
internal_weight=522 310 212 197 191 65 113 132 75 116 63 50 105 91 58 68 43
internal_count=522 310 212 197 191 65 113 132 75 116 63 50 105 91 58 68 43
is_linear=0
shrinkage=0.03


Tree=46
num_leaves=21
num_cat=0
split_feature=13 67 44 34 34 43 74 90 68 9 76 3 24 30 74 77 45 13 61 74
split_gain=10.7425 6.9602 4.26971 1.98629 1.96264 1.25763 1.27389 0.996788 1.33199 1.07702 0.996532 0.776405 0.620032 0.559549 0.48529 0.442273 0.253557 0.169963 0.106645 0.0621537
threshold=1.1879280029931334 0.30452937150876236 0.090177618886476033 -1.5831083873018452 -0.23835128061686553 0.093486396455445694 -0.28727482845100677 0.88144907265856365 -0.023076407237479387 0.8929994502483013 -0.31781287061442509 0.085908272068297695 0.43173541875235638 -0.32623474192859819 -0.38121133303470889 -0.30868914882904447 0.052536372018274588 -1.0481307989152486 -1.2866361634148407 -0.75219389262876268
decision_type=2 2 2 2 2 2 2 2 2 2 2 2 2 2 2 2 2 2 2 2
left_child=1 2 4 -4 7 6 16 8 -1 13 12 -12 -3 -10 17 -6 -5 -7 -13 -20
right_child=-2 10 3 5 15 14 -8 -9 9 -11 11 18 -14 -15 -16 -17 -18 -19 19 -21
leaf_value=0.014650551055279952 -0.016814348137824332 -0.010347698843416037 0.0089352578140124324 0.0014979060303552873 0.0052687721529020154 0.0024891348091346955 -0.0090117687473734043 0.015753835297342554 0.0048570098809156371 5.7317288636596266e-05 0.0020824419838729601 -0.0016973405681661702 -0.0036088226064730478 0.012245095923765381 0.0060602620933482895 0 -0.0024580636452833271 -0.0010695754093499475 -0.0061392614223174189 -0.0035850652899703569
leaf_weight=21 32 30 21 23 27 21 25 20 21 21 26 20 24 20 20 29 37 27 20 37
leaf_count=21 32 30 21 23 27 21 25 20 21 21 26 20 24 20 20 29 37 27 20 37
internal_value=0 0.00109989 0.00355948 0.000293467 0.00711232 -0.000878128 -0.00332301 0.00957902 0.00803785 0.00572977 -0.00409681 -0.00231979 -0.0074203 0.00855497 0.00213431 0.00251289 -0.000891723 0.000426928 -0.00384594 -0.004543
internal_weight=522 490 333 174 159 153 85 103 83 62 157 103 54 41 68 56 60 48 77 57
internal_count=522 490 333 174 159 153 85 103 83 62 157 103 54 41 68 56 60 48 77 57
is_linear=0
shrinkage=0.03


Tree=47
num_leaves=20
num_cat=0
split_feature=13 33 34 44 81 14 3 75 30 43 33 76 33 18 73 73 55 54 13
split_gain=10.11 6.26205 3.64717 3.71846 1.51461 1.41523 1.33226 1.12532 1.15245 1.01427 0.991802 0.717971 0.552549 0.423815 0.421642 0.231867 0.12026 0.0981598 0.0710941
threshold=1.1879280029931334 0.18640186956968849 -0.33879312834773068 0.089346003836273544 -0.29026494836673017 1.4231298702669548 0.068553540710359143 -0.19748377586839491 0.6517600623037505 0.091480956095065472 -0.19768526723946964 -0.2716696071414535 -1.3849073034037087 -0.031915642357291774 1.0000000180025095e-35 -0.31957247706941483 0.57171051615547464 -1.2319921103248095 -0.28208813364657015
decision_type=2 2 2 2 2 2 2 2 2 2 2 2 2 2 2 2 2 2 2
left_child=1 2 3 10 11 7 13 8 18 -6 12 -5 -1 17 15 -9 -8 -4 -3
right_child=-2 5 6 4 9 -7 16 14 -10 -11 -12 -13 -14 -15 -16 -17 -18 -19 -20
leaf_value=0.013386188861149459 -0.016311489047012594 -0.0055499808567684968 0.0018438025153623512 0.008488343245107827 -0.0053732181883665671 0.0039205148115531718 -0.0058240697532892221 -0.0019244995086549594 -0.012148376674119835 0.0036312706790753257 0.01757008114412649 0.0019848607171631793 0.00660292705562912 0.0051617210650259683 -0.0049235562494959273 0.0021654861758171173 -0.0025669030052556277 -0.00070790477716679357 -0.0027762547354851516
leaf_weight=20 32 23 27 38 25 20 20 32 27 20 20 28 31 29 28 20 33 25 24
leaf_count=20 32 23 27 38 25 20 20 32 27 20 20 28 31 29 28 20 33 25 24
internal_value=0 0.00106737 0.00358826 0.00635296 0.002883 -0.00349301 -0.000146335 -0.00447719 -0.00715699 -0.00130553 0.0117239 0.00578185 0.00934273 0.00224913 -0.00195508 -0.000292709 -0.00386117 0.000560435 -0.00420621
internal_weight=522 490 316 182 111 174 134 154 74 45 71 66 51 81 80 52 53 52 47
internal_count=522 490 316 182 111 174 134 154 74 45 71 66 51 81 80 52 53 52 47
is_linear=0
shrinkage=0.03


Tree=48
num_leaves=20
num_cat=0
split_feature=67 44 17 24 25 33 76 55 55 24 88 26 1 60 54 80 32 26 24
split_gain=9.32384 4.79006 3.83608 2.33028 2.13643 1.72581 0.993408 0.962017 0.938862 0.925887 0.402503 0.887545 0.341263 0.247024 0.228491 0.297865 0.184878 0.0778502 0.0551003
threshold=0.1773932298060216 0.70330043735208436 -0.024476384535152471 0.053621818343237933 0.15411979437153214 0.37012684044005539 -0.40262017440679537 -1.259206502952501 -0.081640091370742185 0.079968834583278373 262.50000000000006 0.025868643664254568 0.12562313905643471 -1.222999341075671 -0.22034026152413677 -0.34495024093187671 0.98474251956575054 -0.020195835536752301 0.03783329575856393
decision_type=2 2 2 2 2 2 2 2 2 2 2 2 2 2 2 2 2 2 2
left_child=2 5 4 -4 9 8 -7 -5 -2 12 -9 -12 14 -8 15 18 -15 -10 -1
right_child=1 -3 3 7 -6 6 13 10 17 -11 11 -13 -14 16 -16 -17 -18 -19 -20
leaf_value=0.0017944583718602124 0.0041009614797674612 -0.018445440078445518 -0.0015435475771319806 0.0050036780035827861 -0.0083785661380579111 -0.010982090940038521 -0.0018799964458438259 0.0073966474642059689 -0.003916063333389821 0.0064241246089123648 0.0085953900431325319 0.017205024673236355 -0.0022560371415941472 -0.003798633700551419 -0.00065990916561107734 0.0052983597800877295 -0.0076266644686055936 -0.0010781771956539865 -5.41146018945459e-05
leaf_weight=34 32 21 21 34 21 25 33 20 23 31 24 24 28 36 31 22 22 20 20
leaf_count=34 32 21 21 34 21 25 33 20 23 31 24 24 28 36 31 22 22 20 20
internal_value=0 -0.00484794 0.00331442 0.00742908 0.000589427 -0.00332836 -0.00562066 0.00930547 0.000179873 0.00174635 0.0114018 0.0129894 0.000646034 -0.00410437 0.00143486 0.00232848 -0.00531291 -0.00267129 0.00105551
internal_weight=522 212 310 123 187 191 116 102 75 166 68 48 135 91 107 76 58 43 54
internal_count=522 212 310 123 187 191 116 102 75 166 68 48 135 91 107 76 58 43 54
is_linear=0
shrinkage=0.03


end of trees

feature_importances:
Column_34=70
Column_13=56
Column_67=40
Column_55=38
Column_12=37
Column_26=37
Column_76=36
Column_90=28
Column_33=27
Column_71=25
Column_4=21
Column_3=20
Column_16=20
Column_44=19
Column_7=16
Column_45=16
Column_54=15
Column_68=15
Column_85=15
Column_74=13
Column_5=12
Column_43=12
Column_75=12
Column_9=11
Column_58=11
Column_10=10
Column_52=10
Column_70=10
Column_80=10
Column_81=10
Column_17=9
Column_49=9
Column_66=9
Column_24=8
Column_25=8
Column_28=8
Column_46=8
Column_59=8
Column_61=8
Column_11=7
Column_18=7
Column_32=7
Column_88=7
Column_2=6
Column_23=6
Column_37=6
Column_41=6
Column_60=6
Column_73=6
Column_14=5
Column_19=5
Column_20=5
Column_38=5
Column_53=5
Column_1=4
Column_8=4
Column_30=4
Column_51=4
Column_57=4
Column_62=4
Column_65=4
Column_77=4
Column_86=4
Column_31=3
Column_35=3
Column_42=3
Column_64=3
Column_72=3
Column_79=3
Column_89=3
Column_36=2
Column_39=2
Column_47=2
Column_50=2
Column_78=2
Column_83=2
Column_87=2
Column_0=1
Column_40=1
Column_63=1
Column_82=1

parameters:
[boosting: gbdt]
[objective: regression]
[metric: rmse]
[tree_learner: serial]
[device_type: cpu]
[data_sample_strategy: bagging]
[data: ]
[valid: ]
[num_iterations: 2000]
[learning_rate: 0.03]
[num_leaves: 64]
[num_threads: 0]
[seed: 42]
[deterministic: 0]
[force_col_wise: 0]
[force_row_wise: 0]
[histogram_pool_size: -1]
[max_depth: 8]
[min_data_in_leaf: 20]
[min_sum_hessian_in_leaf: 0.001]
[bagging_fraction: 0.8]
[pos_bagging_fraction: 1]
[neg_bagging_fraction: 1]
[bagging_freq: 0]
[bagging_seed: 400]
[bagging_by_query: 0]
[feature_fraction: 0.8]
[feature_fraction_bynode: 1]
[feature_fraction_seed: 30056]
[extra_trees: 0]
[extra_seed: 12879]
[early_stopping_round: 0]
[early_stopping_min_delta: 0]
[first_metric_only: 0]
[max_delta_step: 0]
[lambda_l1: 0.1]
[lambda_l2: 0.1]
[linear_lambda: 0]
[min_gain_to_split: 0]
[drop_rate: 0.1]
[max_drop: 50]
[skip_drop: 0.5]
[xgboost_dart_mode: 0]
[uniform_drop: 0]
[drop_seed: 17869]
[top_rate: 0.2]
[other_rate: 0.1]
[min_data_per_group: 100]
[max_cat_threshold: 32]
[cat_l2: 10]
[cat_smooth: 10]
[max_cat_to_onehot: 4]
[top_k: 20]
[monotone_constraints: ]
[monotone_constraints_method: basic]
[monotone_penalty: 0]
[feature_contri: ]
[forcedsplits_filename: ]
[refit_decay_rate: 0.9]
[cegb_tradeoff: 1]
[cegb_penalty_split: 0]
[cegb_penalty_feature_lazy: ]
[cegb_penalty_feature_coupled: ]
[path_smooth: 0]
[interaction_constraints: ]
[verbosity: -1]
[saved_feature_importance_type: 0]
[use_quantized_grad: 0]
[num_grad_quant_bins: 4]
[quant_train_renew_leaf: 0]
[stochastic_rounding: 1]
[linear_tree: 0]
[max_bin: 255]
[max_bin_by_feature: ]
[min_data_in_bin: 3]
[bin_construct_sample_cnt: 200000]
[data_random_seed: 175]
[is_enable_sparse: 1]
[enable_bundle: 1]
[use_missing: 1]
[zero_as_missing: 0]
[feature_pre_filter: 1]
[pre_partition: 0]
[two_round: 0]
[header: 0]
[label_column: ]
[weight_column: ]
[group_column: ]
[ignore_column: ]
[categorical_feature: ]
[forcedbins_filename: ]
[precise_float_parser: 0]
[parser_config_file: ]
[objective_seed: 16083]
[num_class: 1]
[is_unbalance: 0]
[scale_pos_weight: 1]
[sigmoid: 1]
[boost_from_average: 1]
[reg_sqrt: 0]
[alpha: 0.9]
[fair_c: 1]
[poisson_max_delta_step: 0.7]
[tweedie_variance_power: 1.5]
[lambdarank_truncation_level: 30]
[lambdarank_norm: 1]
[label_gain: ]
[lambdarank_position_bias_regularization: 0]
[eval_at: ]
[multi_error_top_k: 1]
[auc_mu_weights: ]
[num_machines: 1]
[local_listen_port: 12400]
[time_out: 120]
[machine_list_filename: ]
[machines: ]
[gpu_platform_id: -1]
[gpu_device_id: -1]
[gpu_use_dp: 0]
[num_gpu: 1]

end of parameters

pandas_categorical:null
