tree
version=v4
num_class=1
num_tree_per_iteration=1
label_index=0
max_feature_idx=96
objective=regression
feature_names=Column_0 Column_1 Column_2 Column_3 Column_4 Column_5 Column_6 Column_7 Column_8 Column_9 Column_10 Column_11 Column_12 Column_13 Column_14 Column_15 Column_16 Column_17 Column_18 Column_19 Column_20 Column_21 Column_22 Column_23 Column_24 Column_25 Column_26 Column_27 Column_28 Column_29 Column_30 Column_31 Column_32 Column_33 Column_34 Column_35 Column_36 Column_37 Column_38 Column_39 Column_40 Column_41 Column_42 Column_43 Column_44 Column_45 Column_46 Column_47 Column_48 Column_49 Column_50 Column_51 Column_52 Column_53 Column_54 Column_55 Column_56 Column_57 Column_58 Column_59 Column_60 Column_61 Column_62 Column_63 Column_64 Column_65 Column_66 Column_67 Column_68 Column_69 Column_70 Column_71 Column_72 Column_73 Column_74 Column_75 Column_76 Column_77 Column_78 Column_79 Column_80 Column_81 Column_82 Column_83 Column_84 Column_85 Column_86 Column_87 Column_88 Column_89 Column_90 Column_91 Column_92 Column_93 Column_94 Column_95 Column_96
feature_infos=[-3.1436137381203491:1.8747339926573592] [-2.9456947730335923:2.3023461922382684] [-1.9214982655591348:2.3127511643628611] [-2.8206285863213494:3.1396152193407207] [-3.1436137381203491:1.8747339926573592] [-3.1436137381203491:1.8747339926573592] [-3.1436137381203491:1.8747339926573592] [-3.1436137381203491:1.8747339926573592] [-2.4167236952191371:1.8747339926573592] [-2.4167236952191371:1.8747339926573592] [-2.4167236952191371:1.8747339926573592] [-2.4167236952191371:1.8747339926573592] [-2.9456947730335923:2.3023461922382684] [-2.9456947730335923:2.3023461922382684] [-2.9456947730335923:2.137507252501885] [-2.9456947730335923:2.1095348647637602] [-2.9456947730335923:2.1095348647637602] [-2.9456947730335923:2.1095348647637602] [-2.9456947730335923:2.1095348647637602] [-2.9456947730335923:1.9697977899105159] [-1.9214982655591348:2.3127511643628611] [-1.9214982655591348:2.3127511643628611] [-1.9214982655591348:2.3127511643628611] [-1.9214982655591348:2.3127511643628611] [-1.9214982655591348:2.3127511643628611] [-1.9214982655591348:2.3127511643628611] [-1.9214982655591348:2.3127511643628611] [-1.9214982655591348:2.3127511643628611] [-2.8206285863213494:3.1396152193407207] [-2.8206285863213494:3.1396152193407207] [-2.8206285863213494:3.1396152193407207] [-2.8206285863213494:3.1396152193407207] [-2.8206285863213494:3.1396152193407207] [-2.8206285863213494:3.1396152193407207] [-2.8206285863213494:3.1396152193407207] [-2.8206285863213494:3.1396152193407207] [-3.0944400997221435:1.8599716246029767] [0.0026764592121244:1.645293274289489] [-3.1436137381203491:1.8304468884942124] [-2.9960928229257324:1.8747339926573592] [-2.9296301880955831:1.8022133054737608] [0.027759399514255201:1.4822928362679113] [-3.1436137381203491:1.705332494534648] [-2.7010509925364974:1.8747339926573592] [-2.5877502371402685:1.7005705465951813] [0.057965947907529097:1.2470292857990282] [-3.1436137381203491:1.5226315663682937] [-1.9476856939459719:1.8747339926573592] [-2.9180705673625682:2.2473998789928071] [0.0024028631714775:1.3393603788891415] [-2.9456947730335923:2.137507252501885] [-2.8628221560205205:2.3023461922382684] [-2.8358259391117802:2.0464691477191801] [0.0065770337413709997:1.2411263048401728] [-2.9456947730335923:1.9437896307376168] [-2.6970769219943778:2.3023461922382684] [-2.6496765452135107:1.9100426336467944] [0.026125602957564501:0.96463276343142601] [-2.9456947730335923:1.612299162685332] [-2.2827138369290214:2.3023461922382684] [-1.9140965071559533:2.3091775024481351] [0.00066197234498080004:0.85738701167726239] [-1.9214982655591348:2.3020301786186832] [-1.8992929903495912:2.3127511643628611] [-1.8784728735646239:2.2863502102820434] [0.0139811846015992:0.90126266400432165] [-1.9214982655591348:2.218671354343023] [-1.843731264033748:2.3127511643628611] [-1.7899148409758243:2.1363204820716875] [0.058773164469634299:1.0118079867381142] [-1.9214982655591348:2.0276220029102845] [-1.6443517680489976:2.3127511643628611] [-2.7516742620645029:3.1287580558595529] [0:1.8104419330760275] [-2.8206285863213494:3.1070437288972159] [-2.6354906964931168:3.1396152193407207] [-2.5601258145824897:3.0853294019348798] [0.0020680105006647001:2.4812887862777475] [-2.8206285863213494:3.0093292575667019] [-2.2000396680097309:3.1396152193407207] [-2.1253131764258288:2.9903292214746577] [0.0093116775430298008:2.5235108937734081] [-2.8206285863213494:2.8139003149056738] [-1.4654962184571301:3.1396152193407207] [-0.95199108778837038:2.8290121784015625] [-2.7880157955644478:2.8290121784015625] [-2.0538181296402058:2.2789837836424791] [-2.1993229536789611:2.2789837836424791] [-0.98357508756868395:1.3940667050027256] [-1.2596528450146576:1.226362536703284] [-1.8104419330760249:2.0461820012180407] [-2.0461820012180407:1.9465193046225109] [0:23] [-1:1] [-1:1] [1:6] [1:6]
tree_sizes=1657 1600 1515 1680 1512 1428 1601 1596 1516 1689 1663 1435 1523 1603 1324 1443 1595 1587 1613 1430 1433 1602 1360 1349 1524 1522 1610 1615 1526 1691 1446 1613 1610 1527 1621 1605 1609 1619

Tree=0
num_leaves=18
num_cat=0
split_feature=81 10 11 28 20 31 71 44 38 35 94 32 11 70 68 16 9
split_gain=124.75 63.6121 36.6033 28.5233 11.8304 8.69525 8.50903 8.12937 7.3429 4.52374 4.23355 2.9173 2.58057 2.17594 1.61752 1.48053 0.495867
threshold=0.24385608972243603 -0.33841480902920701 1.1403756406239496 -0.27898464736755324 -0.46177623970556014 -0.38950699312411369 0.94495991036704763 -0.034104336731831837 0.61259797719491349 -0.30231938919214579 0.37940952255126043 -0.33009799020113112 -0.23133805125454213 -0.90351403334644875 -1.4482775759043978 0.55012923135299152 0.41597399242324623
decision_type=2 2 2 2 2 2 2 2 2 2 2 2 2 2 2 2 2
left_child=1 3 8 5 13 12 10 -5 9 15 -6 -7 -1 -3 -11 -2 -16
right_child=2 4 -4 7 6 11 -8 -9 -10 14 -12 -13 -14 -15 16 -17 -18
leaf_value=0.036031399940238726 0.009220808248568961 0.063878497775571794 -0.027588616403905478 0.021129012502071554 0.034422863968880654 0.053952407984658932 0.067032991158214691 -0.0036402255601166618 0.02898109471563581 0.022069589546509498 0.052475562161419312 0.038555849488170632 0.023514106369463092 0.07931494811197827 0.015499106100002989 -0.0025505623884138316 0.0080807438321356152
leaf_weight=30 21 20 23 27 23 26 21 22 23 23 25 21 29 20 22 24 20
leaf_count=30 21 20 23 27 23 26 21 22 23 23 25 21 29 20 22 24 20
internal_value=0.0286004 0.0411601 0.00733208 0.028827 0.0587098 0.0375566 0.0510401 0.00990293 0.0134316 0.0102107 0.0439167 0.0471714 0.029829 0.0717774 0.0154061 0.00281989 0.0118537
internal_weight=420 264 156 155 109 106 69 49 133 110 48 47 59 40 65 45 42
internal_count=420 264 156 155 109 106 69 49 133 110 48 47 59 40 65 45 42
is_linear=0
shrinkage=1


Tree=1
num_leaves=17
num_cat=0
split_feature=81 10 19 74 19 1 44 0 43 26 33 37 31 49 69 45
split_gain=114.15 49.3751 38.2021 27.4848 20.2518 9.24185 7.08131 6.55288 5.00821 5.40156 4.55416 3.11413 2.23599 1.04197 0.48019 0.240164
threshold=0.28137342545534177 -0.36336182518115118 0.66979149227340806 -0.28088927243776157 -0.22257998709459834 -0.2668454199958416 -0.034104336731831837 0.82909237233360389 1.0397046809410633 0.17477334716560497 0.34231901988584462 0.022399784039129754 -0.40743769560007231 0.16483893973632321 0.25684987637825479 0.49216910031196415
decision_type=2 2 2 2 2 2 2 2 2 2 2 2 2 2 2 2
left_child=1 3 7 5 8 12 -5 10 9 -3 13 -7 -1 15 -12 -2
right_child=2 4 -4 6 -6 11 -8 -9 -10 -11 14 -13 -14 -15 -16 -17
leaf_value=-0.0043328212412734888 -0.017284089592823466 0.04689755488738552 -0.060085113537845319 -0.0081561320255182385 0.0010934875731470222 0.0088600387159583262 -0.031407824588047945 6.8097386592582079e-05 0.023607905451268243 0.026407340604867501 -0.0064364964081280261 0.02394652887364292 0.0078425429410794185 -0.028565012084973321 -0.013506450139319719 -0.022713315103245875
leaf_weight=35 25 33 20 28 22 22 21 20 31 20 20 31 22 23 20 26
leaf_count=35 25 33 20 28 22 22 21 20 31 20 20 31 22 23 20 26
internal_value=-0.000912281 0.0110161 -0.0214516 0.000420425 0.0268659 0.00876278 -0.0182259 -0.0156226 0.0335708 0.0392862 -0.0183992 0.0177692 0.000319408 -0.0228408 -0.0100712 -0.0201497
internal_weight=419 265 154 159 106 110 49 134 84 53 114 53 57 74 40 51
internal_count=419 265 154 159 106 110 49 134 84 53 114 53 57 74 40 51
is_linear=0
shrinkage=0.03


Tree=2
num_leaves=16
num_cat=0
split_feature=41 11 46 27 16 41 71 20 83 94 0 78 11 5 32
split_gain=102.207 50.8639 33.7357 27.3807 13.7367 11.2134 6.64357 3.28153 3.70473 2.90839 2.47394 1.17878 0.949883 0.803862 0.273794
threshold=0.077125842119168869 1.1403756406239496 -0.059503916540822745 -0.64152246772502919 0.40216387578259311 0.057126469471291658 0.7779786961356624 0.20297101629483225 1.791172485063288 -0.78656609248549325 1.0455867674722945 -0.38106213653492321 0.27783068172720005 -0.60460520386419891 -0.41252751459648135
decision_type=2 2 2 2 2 2 2 2 2 2 2 2 2 2 2
left_child=2 3 4 -2 6 -4 9 8 11 -1 -7 13 14 -5 -11
right_child=1 -3 5 7 -6 10 -8 -9 -10 12 -12 -13 -14 -15 -16
leaf_value=0.011704138528520815 0.012310074952087904 -0.057469525678523835 0.044849777713789202 -0.010957473084997775 -0.017990915279335048 0.028227619316905591 0.019390843877132045 -0.024608346586642058 -0.023055486613321133 0.0007263242279430984 0.013785667755600228 -0.015766978922174935 -0.0044053953970314679 -0.0023239415661118461 0.0058190242534697937
leaf_weight=32 36 24 28 20 20 21 37 39 28 21 25 20 22 21 20
leaf_count=32 36 24 28 20 20 21 37 39 28 21 25 20 22 21 20
internal_value=-0.000394948 -0.0167404 0.0131903 -0.0107303 0.00507176 0.0297962 0.00859979 -0.0172384 -0.0139512 0.00434944 0.0204907 -0.00969225 0.000553543 -0.00662483 0.00329167
internal_weight=414 188 226 164 152 74 132 128 89 95 46 61 63 41 41
internal_count=414 188 226 164 152 74 132 128 89 95 46 61 63 41 41
is_linear=0
shrinkage=0.03


Tree=3
num_leaves=18
num_cat=0
split_feature=81 10 35 29 19 19 44 24 11 39 92 78 13 94 42 45 94
split_gain=108.135 43.6446 31.1054 23.5891 15.7065 9.68293 7.91285 6.02454 4.67651 4.37456 3.78726 2.78426 2.03679 1.5109 1.26078 1.12503 1.00852
threshold=0.28137342545534177 -0.36336182518115118 -0.4336640581654358 -0.27553174324916557 -0.23835128061686553 -1.4431043041583753 -0.034104336731831837 0.62325185143324979 -0.12291912909673214 1.0397046809410633 8.5000000000000018 -0.021973664406301299 -0.13058897401228955 0.1294095225512602 -0.31235763185648835 0.096126664674363566 0.60355339059327384
decision_type=2 2 2 2 2 2 2 2 2 2 2 2 2 2 2 2 2
left_child=1 3 -2 5 8 -1 -5 11 9 12 15 13 -3 -4 -12 -7 -9
right_child=2 4 7 6 -6 10 -8 16 -10 -11 14 -13 -14 -15 -16 -17 -18
leaf_value=0.027071097950799768 -0.0486827279579597 0.026463281040508033 0.0019986305255597432 -0.0049357038751801016 0.0051192687605989395 0.0026165195188710181 -0.030323035999496959 -0.026237868055120687 0.044490193528304162 0.017445561157992159 0.0061896933331502292 -0.015782253606809123 0.040734033426402298 -0.0090699442976446276 0.016344862188865886 -0.0065849278161028554 -0.017081561862807911
leaf_weight=21 28 21 24 24 26 27 21 23 21 25 28 24 21 20 20 21 29
leaf_count=21 28 21 24 24 26 27 21 23 21 25 28 24 21 20 20 21 29
internal_value=0.000453479 0.0115537 -0.0202204 0.0015229 0.0257678 0.00863901 -0.0168906 -0.0135192 0.0318217 0.0277459 0.0045518 -0.00755494 0.0337497 -0.00297367 0.0105086 -0.00135206 -0.0212316
internal_weight=424 276 148 162 114 117 45 120 88 67 96 68 42 44 48 48 52
internal_count=424 276 148 162 114 117 45 120 88 67 96 68 42 44 48 48 52
is_linear=0
shrinkage=0.03


Tree=4
num_leaves=16
num_cat=0
split_feature=45 11 44 15 73 27 63 76 26 27 26 54 71 8 19
split_gain=90.3089 39.3031 30.0983 17.0099 16.7142 15.8885 10.6127 4.69723 4.56233 4.00596 1.90531 1.33933 1.15129 0.853569 0.342708
threshold=0.21746220391340029 1.0921213417061126 0.042203989535170058 0.25252113440637869 0.032571490443781506 -0.64152246772502919 0.80133532048199985 -0.18392101019693652 -0.28176300568285173 -0.18073671881782874 -0.7086253488930877 0.37012684044005539 -0.19213282193673745 -0.70163704715842623 -0.10857907222163453
decision_type=2 2 2 2 2 2 2 2 2 2 2 2 2 2 2
left_child=2 5 3 6 8 -2 10 9 11 -7 13 -4 -11 -1 -9
right_child=1 -3 4 -5 -6 7 -8 14 -10 12 -12 -13 -14 -15 -16
leaf_value=0.003419613285991073 0.012540398860105361 -0.046822892841310589 0.019779094866852261 -0.016578797375418473 0.00089225258375865519 0.0022617936795113849 0.024757108547023888 -0.016955072855928188 0.042624229055001912 -0.0084581397987005622 -0.0010799251189050466 0.030550675645609877 -0.01849218995932719 0.011509584397420116 -0.02267377846019784
leaf_weight=24 25 30 20 29 20 22 29 28 25 24 39 32 21 26 29
leaf_count=24 25 30 20 29 20 22 29 28 25 24 39 32 21 26 29
internal_value=0.000644588 -0.015527 0.012522 0.00393322 0.0254896 -0.00917855 0.00900948 -0.0135881 0.0318302 -0.00810791 0.00382253 0.0265113 -0.0132378 0.00770085 -0.0199517
internal_weight=423 179 244 147 97 149 118 124 77 67 89 52 45 50 57
internal_count=423 179 244 147 97 149 118 124 77 67 89 52 45 50 57
is_linear=0
shrinkage=0.03


Tree=5
num_leaves=15
num_cat=0
split_feature=81 10 19 28 19 11 44 0 21 33 27 0 37 21
split_gain=85.6215 42.8494 25.6734 21.7757 14.6591 7.07236 5.59683 5.47517 3.97803 2.41796 2.40546 1.53785 1.16678 0.364759
threshold=0.26716586152488858 -0.33841480902920701 0.59786504094772297 -0.27898464736755324 -0.22257998709459834 -0.23133805125454213 -0.034104336731831837 0.77314701488389548 -0.48762799528635042 0.34231901988584462 0.17477334716560497 0.71937653189272399 0.15968782532320758 0.22037130674042124
decision_type=2 2 2 2 2 2 2 2 2 2 2 2 2 2
left_child=1 3 7 5 8 10 -5 9 -3 12 -1 -10 13 -2
right_child=2 4 -4 6 -6 -7 -8 -9 11 -11 -12 -13 -14 -15
leaf_value=0.020469118180041455 -0.013378057507400828 0.037826857952735361 -0.050483314884242722 -0.0075711439409451037 0.0011564909294247627 -0.0022580742547068538 -0.027964591434781579 7.1052522023354079e-05 0.029129509369400248 -0.009395825802487788 0.0085287533012222746 0.018232463258173685 -0.025912418548877419 -0.01981756012935143
leaf_weight=29 21 35 20 30 20 38 21 21 30 30 35 24 22 23
leaf_count=29 21 35 20 30 20 38 21 21 30 30 35 24 22 23
internal_value=0.000108859 0.0101648 -0.0190938 -5.85654e-05 0.0245295 0.00792339 -0.0160654 -0.0136639 0.029741 -0.0166966 0.0140095 0.0243845 -0.0199505 -0.0168495
internal_weight=399 262 137 153 109 102 51 117 89 96 64 54 66 44
internal_count=399 262 137 153 109 102 51 117 89 96 64 54 66 44
is_linear=0
shrinkage=0.03


Tree=6
num_leaves=17
num_cat=0
split_feature=81 10 35 74 19 1 53 67 34 53 26 44 31 56 66 35
split_gain=92.0886 37.3548 25.5255 20.9146 12.9831 7.75436 4.68284 4.12994 4.10534 3.17978 2.19683 2.18992 1.55313 1.552 1.5335 0.0291432
threshold=0.28137342545534177 -0.36336182518115118 -0.43747717688650373 -0.28594092515980901 -0.22257998709459834 -0.35552758927925915 0.053621818343257611 0.94495991036704763 -0.036820709998714292 0.053621818343230307 0.15108575489913373 0.84312843087155753 -0.4112946115343169 0.84593956448566032 0.21755660454216177 -0.28892556622065563
decision_type=2 2 2 2 2 2 2 2 2 2 2 2 2 2 2 2
left_child=1 3 -2 5 6 12 -3 -5 14 -7 11 -8 -1 -10 15 -4
right_child=2 4 8 7 -6 9 10 -9 13 -11 -12 -13 -14 -15 -16 -17
leaf_value=-0.0047519429287628777 -0.042769091703067308 0.017435085239937937 -0.014527020202993781 -0.0075303308886272464 0.0016886659489193955 0.0086802645592000405 0.044641159043383234 -0.025661627219469057 0.00092522110178399437 0.023000051111937415 0.023960353447430166 0.030206021711349007 0.0060080355542030794 -0.010249655068237565 -0.022215180840603137 -0.011151806323731679
leaf_weight=30 32 26 21 26 20 30 20 21 20 28 20 25 20 24 30 21
leaf_count=30 32 26 21 26 20 30 20 21 20 28 20 25 20 24 30 21
internal_value=-7.83503e-05 0.0104674 -0.0190466 0.00093039 0.0237449 0.00821744 0.0285523 -0.0157325 -0.0124455 0.0156726 0.0329195 0.0367729 -0.00038467 -0.00511156 -0.0168724 -0.0129412
internal_weight=414 266 148 155 111 108 91 47 116 58 65 45 50 44 72 42
internal_count=414 266 148 155 111 108 91 47 116 58 65 45 50 44 72 42
is_linear=0
shrinkage=0.03


Tree=7
num_leaves=17
num_cat=0
split_feature=81 11 10 65 27 53 19 19 81 8 57 35 86 83 12 18
split_gain=83.147 35.826 33.5379 17.1598 9.12411 8.20049 8.16416 4.14351 4.01807 3.20522 1.73524 1.59987 1.42445 1.84935 0.95881 0.786591
threshold=0.12089986157272037 1.1879280029931334 -0.36336182518115118 0.052536372018273804 -1.2380007347816042 0.037833295758576357 -0.57230749795718039 -1.5205938328307418 0.74855016952264997 -0.34513022196572246 0.29880146997252138 -0.3237495059465299 -0.052619138132718797 0.17222520755375448 -0.38000734444392653 -0.2954675414665448
decision_type=2 2 2 2 2 2 2 2 2 2 2 2 2 2 2 2
left_child=2 6 3 7 -4 15 -2 -1 12 -7 -6 -10 -8 -14 -9 -5
right_child=1 -3 4 5 10 9 8 14 11 -11 -12 -13 13 -15 -16 -17
leaf_value=0.025575383065351797 0.0032351523361778332 -0.05010756702343952 0.013757276065074479 0.0073534151480943669 0.028132649419391753 -0.007797736171707214 -0.015044645923492195 0.0044470146148429283 -0.025766005891252795 -0.024187808463822544 0.040164546011889124 -0.01531958838049163 0.00097063205135402382 -0.011238527246499704 0.013716569222621064 -0.00082819680280205022
leaf_weight=20 30 24 35 21 28 25 23 23 25 20 24 35 20 24 20 20
leaf_count=20 30 24 35 21 28 25 23 23 25 20 24 35 20 24 20 20
internal_value=-0.000712177 -0.0160106 0.0110101 0.00234142 0.0258022 -0.00634597 -0.0107507 0.0142392 -0.014078 -0.0151862 0.0338098 -0.0197578 -0.00892504 -0.00563127 0.00884986 0.00329709
internal_weight=417 181 236 149 87 86 157 63 127 45 52 60 67 44 43 41
internal_count=417 181 236 149 87 86 157 63 127 45 52 60 67 44 43 41
is_linear=0
shrinkage=0.03


Tree=8
num_leaves=16
num_cat=0
split_feature=81 65 11 33 0 90 0 35 1 7 35 18 86 22 26
split_gain=76.1564 32.7302 24.3237 16.1516 13.3645 10.8623 6.41421 4.31003 3.96443 3.37376 2.83013 1.03718 1.0259 0.945759 0.469173
threshold=0.24385608972243603 0.052536372018273804 1.0921213417061126 -0.22685871430209961 0.46317915004345883 0.026420853808148254 0.77314701488389548 -0.26261845574689263 -0.22257998709459834 -0.19577142593779354 -0.30730019051294827 -0.2954675414665448 -0.084695274659794526 -1.4315179735878398 -0.025084411294086045
decision_type=2 2 2 2 2 2 2 2 2 2 2 2 2 2 2
left_child=1 4 6 5 8 9 10 -6 14 -3 12 -7 -2 -12 -1
right_child=2 3 -4 -5 7 11 -8 -9 -10 -11 13 -13 -14 -15 -16
leaf_value=0.002793838179320501 -0.026390056649655522 -0.008741100590093441 -0.046487705354237442 0.016304868986336592 0.020868660536422549 0.007245797104649729 0.0023269453304250853 0.038863007831429423 0.020920142777731493 -0.025383979324325619 -0.0060155770784945453 -0.0017667148569050955 -0.016311637890689512 -0.014056136495485079 0.0094173125277704269
leaf_weight=22 21 21 22 35 21 23 22 33 27 25 23 22 22 38 20
leaf_count=22 21 21 22 35 21 23 22 33 27 25 23 22 22 38 20
internal_value=-0.000355194 0.00976604 -0.0173988 -0.000959086 0.020769 -0.00764261 -0.0122632 0.0319722 0.0119243 -0.0178867 -0.0153777 0.00277901 -0.0213531 -0.0110884 0.00603401
internal_weight=397 249 148 126 123 91 126 54 69 46 104 45 43 61 42
internal_count=397 249 148 126 123 91 126 54 69 46 104 45 43 61 42
is_linear=0
shrinkage=0.03


Tree=9
num_leaves=18
num_cat=0
split_feature=81 10 19 29 19 19 44 38 53 26 7 34 94 9 44 68 19
split_gain=72.4886 33.3347 19.2429 17.3831 12.7951 6.47318 5.70293 4.56902 3.77323 2.96464 2.64799 2.11099 1.43564 1.24449 0.801576 0.490198 0.172356
threshold=0.24385608972243603 -0.33841480902920701 0.63923699166379155 -0.28594092515980901 -0.23835128061686553 -1.4431043041583753 -0.034104336731831837 0.76201680434636787 0.053621818343257611 0.19576024893604696 -0.41975456274076345 0.14677240565648939 0.37940952255126043 -1.4513258121323549 0.84312843087155753 -0.20454912522721672 0.58091825261933583
decision_type=2 2 2 2 2 2 2 2 2 2 2 2 2 2 2 2 2
left_child=1 3 7 5 8 -1 -5 11 -3 14 13 12 -2 -7 -10 -14 -15
right_child=2 4 -4 6 -6 10 -8 -9 9 -11 -12 -13 15 16 -16 -17 -18
leaf_value=0.023162626810927889 -0.023666729950544672 0.017238470976862957 -0.042929950298573723 -0.0052547038875619245 0.0014557997720543612 -0.0051530638704104211 -0.026092419330753493 0.0011683830110106005 0.040151905991912422 0.020782306959379961 0.013294901644449098 -0.0061046585798650585 -0.0098031774963905569 0.0059814386425623249 0.030577092353733737 -0.016212964342988051 0.0018490597820836558
leaf_weight=20 21 27 21 30 22 20 20 20 22 20 21 23 20 20 24 39 22
leaf_count=20 21 27 21 30 22 20 20 20 22 20 21 23 20 20 24 39 22
internal_value=0.000756158 0.00998622 -0.0163962 0.000790213 0.0221835 0.00785263 -0.0136851 -0.0118105 0.0270478 0.0309832 0.00410393 -0.0143585 -0.0166834 0.00092616 0.0352986 -0.0141112 0.00389765
internal_weight=412 268 144 153 115 103 50 123 93 66 83 103 80 62 46 59 42
internal_count=412 268 144 153 115 103 50 123 93 66 83 103 80 62 46 59 42
is_linear=0
shrinkage=0.03


Tree=10
num_leaves=18
num_cat=0
split_feature=81 10 35 29 19 19 44 11 0 39 9 67 26 10 7 11 32
split_gain=61.3965 26.3579 16.784 16.1845 11.2372 6.80286 5.01837 4.95371 4.20914 3.77938 2.5024 2.47458 1.18527 1.01427 0.667893 0.324957 0.109287
threshold=0.24385608972243603 -0.33841480902920701 -0.4336640581654358 -0.28594092515980901 -0.230156415506207 -1.5205938328307418 -0.034104336731831837 -0.16967573032421387 0.82909237233360389 1.081734741554065 -1.3809917527380173 -1.0410357356837285 0.21110301579952265 -0.12291912909673214 -0.45714931898666916 -0.67319754286545763 -0.016554424512867597
decision_type=2 2 2 2 2 2 2 2 2 2 2 2 2 2 2 2 2
left_child=1 3 -2 5 7 -1 -5 9 11 12 -7 -4 -3 -13 15 -12 -15
right_child=2 4 8 6 -6 10 -8 -9 -10 -11 14 13 -14 16 -16 -17 -18
leaf_value=0.022434197378374328 -0.036613879524913656 0.031403163956172424 -0.0060562744547846478 -0.0047949244639026783 0 -0.0042060733022561579 -0.023556149348414317 0.036570646654475812 0.0020015312290625337 0.010875493007144708 0.0072312036296563447 -0.021709400178080769 0.020346843338659982 -0.015787482163799344 0.011576295568427042 0.0016967052060054306 -0.011717526443379441
leaf_weight=22 27 20 34 32 21 25 22 23 20 26 22 22 22 20 20 20 29
leaf_count=22 27 20 34 32 21 25 22 23 20 26 22 22 22 20 20 20 29
internal_value=0.000129684 0.00859323 -0.0151585 0.000872546 0.019792 0.00754189 -0.0125233 0.0243524 -0.0104746 0.020128 0.00372014 -0.0128792 0.0257451 -0.0160912 0.00696613 0.00467728 -0.0134686
internal_weight=427 275 152 163 112 109 54 91 125 68 87 105 42 71 62 42 49
internal_count=427 275 152 163 112 109 54 91 125 68 87 105 42 71 62 42 49
is_linear=0
shrinkage=0.03


Tree=11
num_leaves=15
num_cat=0
split_feature=81 10 35 65 19 53 63 53 34 1 69 56 68 18
split_gain=59.7135 26.45 22.1888 15.4698 12.8693 10.4656 6.20959 4.27198 3.77416 3.2018 2.27035 1.19187 1.13336 0.346191
threshold=0.28137342545534177 -0.33841480902920701 -0.43747717688650373 0.052536372018273804 -0.22257998709459834 0.042139413778965955 -0.44717036054752474 0.053621818343257611 -0.036820709998714292 -0.17993945261890326 0.16916859503614368 0.84593956448566032 0.38906407898208045 -0.2954675414665448
decision_type=2 2 2 2 2 2 2 2 2 2 2 2 2 2
left_child=1 3 -2 9 6 10 -3 -8 12 -1 -5 -10 -4 -12
right_child=2 4 8 5 -6 -7 7 -9 11 -11 13 -13 -14 -15
leaf_value=0.0062389371251826723 -0.038620279748178395 0.035600531956682169 -0.009799357371137114 -0.0075095896484693551 -0.0021159278946136359 -0.020675909045599735 0.0070232718204384413 0.0243600726081892 0.0015692985816800739 0.020239494494323072 0.0063827537049643722 -0.0078901845793687298 -0.017701391483855057 0.00084162741485955324
leaf_weight=36 30 30 34 24 20 33 20 39 24 26 24 23 38 20
leaf_count=36 30 30 34 24 20 33 20 39 24 26 24 23 38 20
internal_value=-0.00030382 0.00805056 -0.0155701 0.0003793 0.0194839 -0.00684088 0.0243684 0.0185558 -0.00970633 0.0121816 -6.22619e-05 -0.00300304 -0.0140303 0.00393971
internal_weight=421 272 149 163 109 101 89 59 119 62 68 47 72 44
internal_count=421 272 149 163 109 101 89 59 119 62 68 47 72 44
is_linear=0
shrinkage=0.03


Tree=12
num_leaves=16
num_cat=0
split_feature=81 10 29 35 27 31 45 44 32 24 84 1 73 32 30
split_gain=55.8364 32.6 16.2022 12.0244 5.74148 5.3153 3.69939 3.47837 2.6247 1.82718 1.21472 1.08743 0.691102 0.622307 0.290979
threshold=0.17739322980602154 -0.33841480902920701 -0.28088927243776157 -0.47453850001842512 -1.2380007347816042 -0.38950699312411369 0.86372837578422423 -0.034104336731831837 -0.32046294781457729 -0.92086034113457427 -0.062440972722462192 -0.42074999117988082 0.032571490443751412 -0.26453208378772253 -0.11881714933665269
decision_type=2 2 2 2 2 2 2 2 2 2 2 2 2 2 2
left_child=1 2 5 -2 -3 11 9 -4 -7 -5 13 -1 -6 -11 -12
right_child=3 4 7 6 12 8 -8 -9 -10 10 14 -13 -14 -15 -16
leaf_value=-0.00260082158898749 -0.032717019343029903 0.013910283073163757 -0.0058589356243455805 -0.0034878524074604578 0.032507992116813988 0.019751289231984177 0.0014702785198842236 -0.022606310442562012 0.00574262161637652 -0.012903448176060326 -0.0069104323213669784 0.0056558160440795925 0.024309306946975921 -0.020572884878314344 -0.012018172030265515
leaf_weight=33 24 36 24 21 35 31 22 22 21 22 20 25 21 25 35
leaf_count=33 24 36 24 21 35 31 22 22 21 22 20 25 21 25 35
internal_value=0.000253567 0.00932135 0.000944961 -0.0130329 0.0234758 0.00721443 -0.00973386 -0.0139653 0.0141734 -0.0117618 -0.0134308 0.000910048 0.0295358 -0.0170816 -0.0102312
internal_weight=417 248 156 169 92 110 145 46 52 123 102 58 56 47 55
internal_count=417 248 156 169 92 110 145 46 52 123 102 58 56 47 55
is_linear=0
shrinkage=0.03


Tree=13
num_leaves=17
num_cat=0
split_feature=81 10 35 75 19 19 44 0 39 13 8 67 79 80 4 45
split_gain=53.1184 24.6389 16.5379 15.0028 9.72205 6.29442 5.51931 3.86276 3.83242 2.62751 2.28446 1.73672 0.801304 0.572016 0.570943 0.524704
threshold=0.24385608972243603 -0.33841480902920701 -0.43747717688650373 -0.27764526507040427 -0.23835128061686553 -1.5205938328307418 -0.034104336731831837 0.82909237233360389 1.081734741554065 -0.57144906206967738 -0.7843391472420016 -0.90249526434826055 0.13162298829459526 0.45052766226349311 -0.24261712901551782 0.096126664674363566
decision_type=2 2 2 2 2 2 2 2 2 2 2 2 2 2 2 2
left_child=1 3 -2 5 8 -1 -5 11 9 -3 15 -4 -11 -13 -12 -7
right_child=2 4 7 6 -6 10 -8 -9 -10 12 14 13 -14 -15 -16 -17
leaf_value=0.022027859394230059 -0.033496827777367309 0.018506839729067106 -0.0061397215014922114 -0.0042828411685744512 0.0011218048601803197 0.0016560865427876254 -0.024624725659311661 0.0017658179097604081 0.014103615871527864 0.027273840103576429 0.0051148657990523066 -0.018407730282065399 0.037350271833476729 -0.011953405536048496 0.012266173460590304 -0.0045219587068563386
leaf_weight=20 31 20 36 29 22 29 21 24 28 20 25 25 20 37 20 21
leaf_count=20 31 20 36 29 22 29 21 24 28 20 25 25 20 37 20 21
internal_value=0.000228803 0.00811812 -0.0139278 0.000764746 0.0191102 0.00674606 -0.0129184 -0.0089074 0.0235669 0.0279024 0.00347752 -0.011551 0.0324674 -0.0146297 0.00837989 -0.000882659
internal_weight=428 275 153 165 110 115 50 122 88 60 95 98 40 62 45 50
internal_count=428 275 153 165 110 115 50 122 88 60 95 98 40 62 45 50
is_linear=0
shrinkage=0.03


Tree=14
num_leaves=14
num_cat=0
split_feature=81 10 35 65 10 53 27 0 1 73 67 55 32
split_gain=48.2967 19.1277 11.2996 11.0352 7.84018 7.75333 3.8083 2.6872 2.16827 2.04099 1.8778 1.02346 0.725921
threshold=0.24385608972243603 -0.33841480902920701 -0.43747717688650373 0.052536372018273804 0.82909237233360389 0.042139413778965955 -1.2380007347816042 0.69467147043674093 -0.22257998709459834 0.030997920856518753 -1.0410357356837285 0.57803474471162042 -0.016554424512867597
decision_type=2 2 2 2 2 2 2 2 2 2 2 2 2
left_child=1 3 -2 8 6 9 -3 10 -1 -5 -4 -8 -12
right_child=2 4 7 5 -6 -7 11 -9 -10 -11 12 -13 -14
leaf_value=0.0053792257863711397 -0.030336830028575328 0.012617596747149462 -0.0050627334712836135 -0.0060175583674850694 0.0007480863644189744 -0.017488713165424382 0.030430698941663364 0 0.016961984335276473 0.0051115133974525741 -0.017452548908455594 0.021100403540361964 -0.010693158323194868
leaf_weight=34 31 30 27 25 21 33 29 20 27 36 39 24 29
leaf_count=34 31 30 27 25 21 33 29 20 27 36 39 24 29
internal_value=-0.000439387 0.00733052 -0.0142391 0.00062998 0.0172779 -0.00579587 0.0214181 -0.00985106 0.0105745 0.000498935 -0.0119534 0.0263099 -0.0146339
internal_weight=405 259 146 155 104 94 83 115 61 61 95 53 68
internal_count=405 259 146 155 104 94 83 115 61 61 95 53 68
is_linear=0
shrinkage=0.03


Tree=15
num_leaves=15
num_cat=0
split_feature=41 11 27 44 17 20 63 27 23 79 67 94 39 3
split_gain=43.4352 31.1331 23.4383 15.0872 7.29535 5.11661 4.52036 2.57784 2.20858 1.39822 1.70193 1.05205 0.478028 0.245934
threshold=0.077125842119168869 1.1403756406239496 -0.85140598400207013 0.033215526824175508 0.076028491735612921 -0.46177623970556014 0.80133532048199985 -0.64152246772502919 -0.71979359937262177 1.7011097299990015 0.20297101629483225 -0.78656609248549325 -0.6479657778632133 -0.29459943103567449
decision_type=2 2 2 2 2 2 2 2 2 2 2 2 2 2
left_child=3 2 -2 4 6 8 11 -4 -5 10 12 -1 -9 -13
right_child=1 -3 7 5 -6 -7 -8 9 -10 -11 -12 13 -14 -15
leaf_value=0.0079145865549840478 0.02204616665098182 -0.042494770412321206 -0.00013746550420459306 0.020044189688078189 -0.0097761430634662159 0.010746090103556791 0.017805308846050295 -0.0093190313608218448 0.03357321046403984 -0.017198506754102103 -0.015368133373906677 0.0023657914400868809 -0.0040357111137377215 -0.0019149538263011333
leaf_weight=28 24 23 22 30 30 38 26 35 20 30 32 29 33 20
leaf_count=28 24 23 22 30 30 38 26 35 20 30 32 29 33 20
internal_value=0.000427902 -0.00972891 -0.00540828 0.00958746 0.00317964 0.0192234 0.00698809 -0.00977456 0.0255719 -0.011381 -0.00959038 0.00327826 -0.00680881 0.000557107
internal_weight=420 199 176 221 133 88 103 152 50 130 100 77 68 49
internal_count=420 199 176 221 133 88 103 152 50 130 100 77 68 49
is_linear=0
shrinkage=0.03


Tree=16
num_leaves=17
num_cat=0
split_feature=11 81 10 10 65 69 4 44 26 51 32 9 59 94 1 11
split_gain=46.2684 30.8537 18.5326 9.64223 9.35396 5.11135 3.16552 2.66851 2.90441 2.40812 1.7866 1.35783 1.2416 1.18989 0.233869 0.207056
threshold=1.1879280029931334 0.3045293715087623 -0.33040038046609288 0.8929994502483013 0.052536372018273804 0.16916859503614368 0.62869102271101818 0.87681182364853238 0.16835544106355363 -0.13755628397441291 -0.30387162763576769 -0.4338242992344305 1.5375858001752147 0.37940952255126043 -0.51144101711941004 -0.98922794806180958
decision_type=2 2 2 2 2 2 2 2 2 2 2 2 2 2 2 2
left_child=1 2 4 7 9 10 11 8 -4 14 -6 -3 13 -13 -1 -7
right_child=-2 6 3 -5 5 15 -8 -9 -10 -11 -12 12 -14 -15 -16 -17
leaf_value=0.0029412783732387553 -0.037225922812505544 -0.0064695908553967967 0.031254937017065845 -0.00032261086332851938 -0.0061792965853047152 0.005400947397442366 0.0010537739323257509 0.015103109609762411 0.016586856654717173 0.017405283375718124 -0.017850498912939383 -0.022774593945759446 -0.0082320326022587362 -0.012725008203811252 0.0078910321909100266 0.00097405098157965736
leaf_weight=20 28 32 35 22 32 21 20 37 21 26 20 20 24 29 20 21
leaf_count=20 28 32 35 22 32 21 20 37 21 26 20 20 24 29 20 21
internal_value=-7.95262e-06 0.00259846 0.008221 0.0174042 0.00159506 -0.00445949 -0.00974382 0.0216257 0.0258473 0.0102573 -0.0107514 -0.0118281 -0.0141239 -0.016926 0.00550447 0.00326633
internal_weight=428 400 275 115 160 94 125 93 56 66 52 105 73 49 40 42
internal_count=428 400 275 115 160 94 125 93 56 66 52 105 73 49 40 42
is_linear=0
shrinkage=0.03


Tree=17
num_leaves=17
num_cat=0
split_feature=81 19 10 65 19 44 19 53 73 19 52 84 94 1 14 30
split_gain=43.4577 17.4229 16.9321 11.5232 7.90877 6.90401 3.63403 3.10032 2.99795 2.83161 2.30022 1.76386 1.02113 0.564835 0.560632 0.476513
threshold=0.24385608972243603 0.63923699166379155 -0.33841480902920701 0.052536372018273804 -0.230156415506207 -0.034104336731831837 -0.48699860974531611 0.053621818343257611 0.030997920856513605 -1.5205938328307418 -0.5663738956008566 -0.057315927281409947 0.37940952255126043 -0.49182100546900837 0.50068594634446639 -0.025765862253315498
decision_type=2 2 2 2 2 2 2 2 2 2 2 2 2 2 2 2
left_child=2 6 3 9 7 8 -2 -4 -5 -1 -9 12 -8 -11 -12 -13
right_child=1 -3 4 5 -6 -7 11 10 -10 13 14 15 -14 -15 -16 -17
leaf_value=0.019567593443450205 5.8355555804662914e-05 -0.038448023716985323 0.010642640132505397 -0.0074389557896748833 0 -0.020936730552058649 -0.020545783367901364 0.01511842620906545 0.0042891070308149473 0.0025866033480345424 0.032321371640732031 -0.0039114556699940579 -0.011863634641646017 0.0094776168775248838 0.0237790242035242 -0.010211687031279938
leaf_weight=21 30 21 23 39 22 21 22 20 39 23 20 23 36 23 21 25
leaf_count=21 30 21 23 39 22 21 22 20 39 23 20 23 36 23 21 25
internal_value=-0.000463471 -0.0130331 0.00678291 0.000780467 0.0161451 -0.00570055 -0.00906136 0.0203344 -0.00153853 0.0103958 0.0239162 -0.0116683 -0.0152382 0.00611027 0.0280875 -0.0072696
internal_weight=429 157 272 166 106 99 136 84 78 67 61 106 58 46 41 48
internal_count=429 157 272 166 106 99 136 84 78 67 61 106 58 46 41 48
is_linear=0
shrinkage=0.03


Tree=18
num_leaves=17
num_cat=0
split_feature=81 19 10 65 19 7 43 37 0 16 52 12 71 94 11 19
split_gain=45.2017 20.5673 19.2339 10.4088 7.26192 7.17356 3.75729 2.68246 2.51008 2.48206 2.43324 2.25242 1.29807 0.924646 0.379061 0.19001
threshold=0.24385608972243603 0.63923699166379155 -0.33841480902920701 0.052536372018273804 -0.23835128061686553 -0.073150047815403282 1.0397046809410633 0.019069606190322753 0.69467147043674093 0.37012684044005539 -0.5663738956008566 -0.22257998709459834 -0.75829056205500489 0.60355339059327384 -0.08787942899360543 -0.13058897401228955
decision_type=2 2 2 2 2 2 2 2 2 2 2 2 2 2 2 2
left_child=2 8 3 11 6 7 10 -5 12 -8 -4 -1 -2 -14 -9 -15
right_child=1 -3 4 5 -6 -7 9 14 -10 -11 -12 -13 13 15 -16 -17
leaf_value=0.0051499411516273633 -0.0037922452737122626 -0.040328006040456603 0.01565565452646853 0.0041706255054849341 -0.00016161802711326683 -0.021268777858589494 0.004586838135189974 -0.0095932593395537374 0.00072557488261763728 0.019787888953934851 0.029215023904797841 0.017267458522962832 -0.016255120498916278 -0.0070517319548723378 -0.0035359230081536872 -0.011400299213596225
leaf_weight=35 21 22 20 38 20 21 20 22 20 20 37 24 35 22 20 29
leaf_count=35 21 22 20 38 20 21 20 22 20 20 37 24 35 22 20 29
internal_value=-0.000247907 -0.0135736 0.00691157 0.000130888 0.0161506 -0.00569687 0.0195416 -0.00155034 -0.00888733 0.0122926 0.0245456 0.0101507 -0.0107111 -0.0123594 -0.00679532 -0.00960063
internal_weight=426 149 277 160 117 101 97 80 127 40 57 59 107 86 42 51
internal_count=426 149 277 160 117 101 97 80 127 40 57 59 107 86 42 51
is_linear=0
shrinkage=0.03


Tree=19
num_leaves=15
num_cat=0
split_feature=45 65 19 95 74 19 16 28 16 0 67 26 0 9
split_gain=33.9787 13.1354 12.7642 9.52219 8.25134 7.1562 6.21017 3.24337 2.88784 2.86935 1.33334 0.734782 0.308364 0.245054
threshold=0.22175836190723583 0.052536372018272902 -0.53588342449350368 4.5000000000000009 0.11382059993996702 -0.48699860974531611 0.4189024034670677 -0.32661985130500321 0.017767541688396605 0.13285052023300667 0.25458883538896931 -0.7086253488930877 -0.24261712901551782 0.14214846222659877
decision_type=2 2 2 2 2 2 2 2 2 2 2 2 2 2
left_child=1 5 -2 10 -5 7 8 -1 11 -7 12 -3 -4 -12
right_child=2 6 3 4 -6 9 -8 -9 -10 -11 13 -13 -14 -15
leaf_value=0.01254310959688971 0.0046552011961846244 0.0038104224025431381 -0.0075430202385260601 -0.038681320393240293 -0.012339649418660248 0.00076285548148500486 -0.011415186488012239 0.025755750099411397 0.013809879054106881 0.0137052887404102 -0.014755173894180648 -0.0035963630952037771 -0.0020606075588669344 -0.0095914519497003591
leaf_weight=32 39 25 21 23 21 39 34 39 20 26 26 23 20 21
leaf_count=32 39 25 21 23 21 39 34 39 20 26 26 23 20 21
internal_value=-0.000151177 0.0071697 -0.0103562 -0.0148143 -0.0262337 0.0132713 -0.000941368 0.019869 0.00426056 0.00599901 -0.00904728 0.000198869 -0.00495319 -0.0125369
internal_weight=409 238 171 132 44 136 102 71 68 65 88 48 41 47
internal_count=409 238 171 132 44 136 102 71 68 65 88 48 41 47
is_linear=0
shrinkage=0.03


Tree=20
num_leaves=15
num_cat=0
split_feature=81 10 35 65 53 19 39 33 1 69 94 83 53 15
split_gain=35.3057 13.7528 10.8066 9.15439 5.464 5.32915 3.03029 2.19351 1.88596 1.54099 1.24324 1.0071 0.229312 0.183191
threshold=0.28137342545534177 -0.33841480902920701 -0.43747717688650373 0.052536372018273804 0.042139413778968855 -0.2668454199958416 1.0665983629844253 -0.19748377586839491 -0.05181804259232569 0.16916859503614368 -0.12940952255126034 0.46505244745918689 0.14767935946174643 1.088054702945523
decision_type=2 2 2 2 2 2 2 2 2 2 2 2 2 2
left_child=1 3 -2 8 9 6 10 12 -1 -5 -3 -9 -4 -13
right_child=2 5 7 4 -6 -7 -8 11 -10 -11 -12 13 -14 -15
leaf_value=0.0053271597599767887 -0.028343300407694786 0.016981820624893628 -0.0096761202533640883 -0.0063990754838958675 -0.016752825635055774 0.0013450578005975997 0.010548073521284299 0.0012735868729094962 0.016345782347700812 0.0031620763063313455 0.026928541734046539 -0.0085369095327963388 -0.014503843734826756 -0.0043719268991769134
leaf_weight=39 29 24 22 25 27 22 32 20 23 38 29 25 30 23
leaf_count=39 29 24 22 25 27 22 32 20 23 38 29 25 30 23
internal_value=-0.000259567 0.00642585 -0.0118972 0.000603131 -0.00548439 0.0146611 0.0180667 -0.00787741 0.00948276 -0.000588616 0.0225213 -0.00425358 -0.0125414 -0.0066168
internal_weight=408 259 149 152 90 107 85 120 62 63 53 68 52 48
internal_count=408 259 149 152 90 107 85 120 62 63 53 68 52 48
is_linear=0
shrinkage=0.03


Tree=21
num_leaves=17
num_cat=0
split_feature=11 81 10 65 19 53 61 0 47 1 81 32 59 65 18 25
split_gain=38.713 23.718 12.8448 6.42797 5.63548 4.23374 3.91947 3.25653 1.68143 1.59667 1.28066 1.20374 1.14869 0.502211 0.480833 0.304947
threshold=1.1879280029931334 0.3045293715087623 -0.33841480902920701 0.052536372018273804 -0.22257998709459834 0.053621818343257611 0.046918926430713007 0.51198462521405952 -0.083752982476903187 -0.22257998709459834 0.11743817891233747 -0.2990541064424907 1.5262543802217787 0.051127338942415557 -0.2954675414665448 1.1589544961717426
decision_type=2 2 2 2 2 2 2 2 2 2 2 2 2 2 2 2
left_child=1 2 3 9 5 -4 11 8 15 -1 13 -5 -10 -7 -8 -3
right_child=-2 7 4 6 -6 10 14 -9 12 -11 -12 -13 -14 -15 -16 -17
leaf_value=0.003655435163839768 -0.034109702377589701 -0.0039143353695077678 0.0074827787440975638 -0.0056651221146787186 -0.00022865951895268991 0.020301869328205401 0.0051744473255072457 0.00095421875784505944 -0.019097386555573373 0.0137995715009183 0.015135778510224275 -0.015580687941010316 -0.009879150541714463 0.027925210835097667 -0.00095111476896858908 -0.0090809664397540676
leaf_weight=29 29 20 30 28 20 22 25 24 29 29 24 20 25 23 20 30
leaf_count=29 29 20 30 28 20 22 25 24 29 29 24 20 25 23 20 30
internal_value=-0.00070199 0.00173266 0.00678079 0.000948644 0.014149 0.0170812 -0.00391622 -0.0088893 -0.0111884 0.00879416 0.0211942 -0.00988278 -0.0149113 0.024318 0.00238938 -0.00708613
internal_weight=427 398 270 151 119 99 93 128 104 58 69 48 54 45 45 50
internal_count=427 398 270 151 119 99 93 128 104 58 69 48 54 45 45 50
is_linear=0
shrinkage=0.03


Tree=22
num_leaves=14
num_cat=0
split_feature=81 10 35 29 73 47 51 34 39 37 83 22 45
split_gain=36.2453 15.262 13.5522 6.11048 3.52153 2.61442 2.61308 2.18085 1.40735 0.973096 0.966573 0.390286 0.2487
threshold=0.24385608972243603 -0.33841480902920701 -0.43747717688650373 -0.28594092515980901 0.032571490443773207 1.0271696647368695 -0.40670975174171614 -0.036820709998714292 0.11020598460918256 0.022399784039130805 1.0000000180025095e-35 0.3236249201535904 0.096126664674363566
decision_type=2 2 2 2 2 2 2 2 2 2 2 2 2
left_child=1 3 -2 6 5 -3 12 11 -5 -8 -9 -4 -1
right_child=2 4 7 8 -6 -7 9 10 -10 -11 -12 -13 -14
leaf_value=0.0011977718473451819 -0.029316010349909723 0.025401456958521404 -0.0074592985862340679 -0.0031159935339784887 0.0077980614665491494 0.013689867420705069 0.0046526146838534316 0.0032941938414057684 -0.014611320544534654 0.012412830401803845 -0.0053402470096746441 -0.012290740164945711 -0.0034026930269910323
leaf_weight=21 30 37 35 20 34 36 30 20 20 32 27 37 20
leaf_count=21 30 37 35 20 34 36 30 20 20 32 27 37 20
internal_value=0.000400502 0.00738732 -0.0112993 0.000950771 0.0159525 0.0196935 0.00483389 -0.0067113 -0.00896057 0.00871974 -0.00160313 -0.00999733 -0.000976184
internal_weight=399 250 149 143 107 73 103 119 40 62 47 72 41
internal_count=399 250 149 143 107 73 103 119 40 62 47 72 41
is_linear=0
shrinkage=0.03


Tree=23
num_leaves=14
num_cat=0
split_feature=81 9 19 65 57 53 19 2 73 49 84 16 77
split_gain=30.8816 14.437 10.9587 5.7475 4.94699 4.49736 2.73877 1.68171 1.16873 1.1306 0.945602 0.345693 0.203156
threshold=0.17739322980602154 -0.16042561115923401 0.63923699166379155 0.052536372018273804 0.081213110337281111 0.053621818343257611 -0.52355929083941144 0.87740207508399948 0.030997920856518753 0.082872617012951011 0.019069606190346856 1.0083688157474839 0.62587188602649435
decision_type=2 2 2 2 2 2 2 2 2 2 2 2 2
left_child=1 3 6 7 8 -3 -2 -1 -5 -7 11 12 -8
right_child=2 5 -4 4 -6 9 10 -9 -10 -11 -12 -13 -14
leaf_value=0.0046691409866582226 0.0011977804833196242 0.0079626794390566125 -0.028799811829994248 -0.0044663005767028715 -0.014312431472886312 0.027147420729909617 -0.0060903640013577334 0.015597863075003696 0.0045272461855345482 0.017890141332506111 -0.0046399565852826745 -0.013341851622537019 -0.010938910813693185
leaf_weight=38 32 36 23 20 27 23 20 20 36 35 37 31 21
leaf_count=38 32 36 23 20 27 23 20 20 36 35 37 31 21
internal_value=0.000374791 0.00735307 -0.00960468 0.00125588 -0.00378106 0.0164559 -0.00643411 0.00850966 0.00125955 0.0216532 -0.0087012 -0.0107373 -0.00866733
internal_weight=399 235 164 141 83 94 141 58 56 58 109 72 41
internal_count=399 235 164 141 83 94 141 58 56 58 109 72 41
is_linear=0
shrinkage=0.03


Tree=24
num_leaves=16
num_cat=0
split_feature=81 10 35 29 67 71 92 1 22 41 35 33 37 31 10
split_gain=29.6917 14.8831 10.3395 8.49324 4.77665 3.4446 4.86511 3.26199 2.55053 2.15552 1.5044 0.668244 0.545395 0.527494 0.269821
threshold=0.28137342545534177 -0.33841480902920701 -0.47453850001842512 -0.28594092515980901 -0.45833861102705903 0.94495991036704763 19.500000000000004 -0.2668454199958416 0.73742362616418422 0.077125842119168869 -0.41921149458560497 0.34231901988584462 0.15639671052485485 -0.41573335568947717 0.12990333740798662
decision_type=2 2 2 2 2 2 2 2 2 2 2 2 2 2 2
left_child=1 3 -2 7 -3 6 -6 13 -5 -4 -9 12 14 -1 -11
right_child=2 4 9 8 5 -7 -8 10 -10 11 -12 -13 -14 -15 -16
leaf_value=-0.0021778769372713877 -0.030243940144888497 0.023652568417407798 0.00057567319436662497 -0.003476516675433001 -0.0015135838374064283 0.021219540567540409 0.015335989280532663 0.016880552384525675 -0.016915015616974272 -0.011168207060004666 0.0062890392385214289 -0.0053014176738751598 -0.014810743602961975 0.0039466726171102978 -0.006208552745471438
leaf_weight=34 20 36 26 30 31 20 30 21 23 24 32 34 22 20 25
leaf_count=34 20 36 26 30 31 20 30 21 23 24 32 34 22 20 25
internal_value=0.00053186 0.00637189 -0.0101586 0.000404374 0.0144997 0.0103706 0.00673553 0.0052859 -0.00938569 -0.00704851 0.0105661 -0.00896369 -0.0106653 3.81241e-05 -0.00871667
internal_weight=428 277 151 160 117 81 61 107 53 131 53 105 71 54 49
internal_count=428 277 151 160 117 81 61 107 53 131 53 105 71 54 49
is_linear=0
shrinkage=0.03


Tree=25
num_leaves=16
num_cat=0
split_feature=81 19 10 65 19 27 88 1 86 17 83 47 29 94 0
split_gain=30.6646 20.034 12.8 4.64952 3.52499 3.22179 2.87413 1.55147 1.28186 1.21428 1.12175 0.723698 0.705904 0.184219 0.061206
threshold=0.12089986157272037 0.71982612984646022 -0.33841480902920701 0.052536372018273804 -0.57230749795718039 -1.2380007347816042 0.046918926430847961 -0.13934158872713381 -0.0041618811002829487 0.15366283517675633 0.26145331069203409 -0.42805008830836055 -0.26749544946627141 0.37940952255126043 -0.40431538754999702
decision_type=2 2 2 2 2 2 2 2 2 2 2 2 2 2 2
left_child=2 4 3 7 -2 -4 12 -1 11 -7 -10 -6 -5 -13 -8
right_child=1 -3 5 6 8 9 14 -9 10 -11 -12 13 -14 -15 -16
leaf_value=0.003429819792424669 0.0026837017661388808 -0.036670275878567263 0.008230333460488886 -0.0042221918764494661 -0.0061890634665122402 0.016169718647393107 0.0013951730867152782 0.013108448704954274 0.0004178453691594012 0.025513863316897683 -0.0079392308551931648 -0.015670624762349785 -0.012223422066860289 -0.010681017899965223 0.0040515867034547131
leaf_weight=33 36 21 31 22 22 32 20 29 23 26 36 21 21 21 21
leaf_count=33 36 21 31 22 22 32 20 29 23 26 36 21 21 21 21
internal_value=0.000131534 -0.00917609 0.00727441 0.00178159 -0.00550516 0.0162393 -0.00279064 0.00801905 -0.0079265 0.0204468 -0.00463543 -0.0109017 -0.00821867 -0.0132784 0.00283532
internal_weight=415 180 235 146 159 89 84 62 123 58 59 64 43 42 41
internal_count=415 180 235 146 159 89 84 62 123 58 59 64 43 42 41
is_linear=0
shrinkage=0.03


Tree=26
num_leaves=17
num_cat=0
split_feature=11 81 10 65 19 27 33 11 0 26 35 37 16 88 1 9
split_gain=30.5379 15.5775 11.0165 6.23658 5.95776 3.64049 3.22735 2.39006 2.19355 1.76914 1.10343 0.811747 0.524369 0.443054 0.339799 0.241857
threshold=1.2221790485813597 0.3045293715087623 -0.33841480902920701 0.052536372018274859 -0.19768526723946964 -1.2380007347816042 -0.36125221026670223 -1.409219201466122 0.51198462521405952 0.21110301579952265 -0.28892556622065563 0.019069606190317206 0.37012684044005539 -0.027328712202848843 -0.44620516685051953 -0.40603553371331835
decision_type=2 2 2 2 2 2 2 2 2 2 2 2 2 2 2 2
left_child=1 2 3 7 5 -4 11 -1 10 13 12 -5 -3 -7 -9 -12
right_child=-2 8 4 6 -6 9 -8 14 -10 -11 15 -13 -14 -15 -16 -17
leaf_value=0.016565755312122513 -0.031572061290686154 -0.0087524913077230565 0.0068024606172038217 0.0032201200938862785 -0.0014406120798675648 0.027733209764779498 -0.011383138775301119 0.0015412042712128582 0.0018652382499761708 0.012738643338047497 -0.0035113166854633974 -0.0037323149934246087 -0.015968606578769969 0.020347435944307886 0.0066396854128474474 -0.0075122159833685967
leaf_weight=20 26 23 26 34 20 20 34 25 22 21 28 27 20 24 26 37
leaf_count=20 26 23 26 34 20 20 34 25 22 21 28 27 20 24 26 37
internal_value=-0.000107829 0.00190206 0.00592794 0.00101413 0.013242 0.0164999 -0.00399059 0.00774897 -0.00665105 0.0203164 -0.00841372 9.26409e-05 -0.0122077 0.0238279 0.00420705 -0.00584288
internal_weight=433 407 277 166 111 91 95 71 130 65 108 61 43 44 51 65
internal_count=433 407 277 166 111 91 95 71 130 65 108 61 43 44 51 65
is_linear=0
shrinkage=0.03


Tree=27
num_leaves=17
num_cat=0
split_feature=81 35 10 29 33 12 67 1 34 24 35 56 61 31 76 10
split_gain=26.2607 12.5005 11.6857 7.89249 4.89402 3.31472 3.21268 2.17336 1.63326 1.23373 1.19674 0.856035 0.634628 0.572177 0.564783 0.112505
threshold=0.24385608972243603 -0.47453850001842512 -0.33841480902920701 -0.28088927243776157 -0.40262017440679537 -0.13058897401228955 0.94495991036704763 -0.2668454199958416 -0.036820709998714292 -0.54846145892780196 -0.41921149458560497 0.73767793175097773 0.030061064831828351 -0.40283069998126153 0.14377854989122471 0.16133485839395917
decision_type=2 2 2 2 2 2 2 2 2 2 2 2 2 2 2 2
left_child=2 -2 3 7 -4 14 -5 13 12 -7 -9 -10 -3 -1 -6 -14
right_child=1 8 4 6 5 9 -8 10 11 -11 -12 -13 15 -15 -16 -17
leaf_value=-0.0020246614753391557 -0.029712460747352613 -0.014407774908329122 0.00019727083813556308 -0.0027979352660861987 0.0056986213253060374 0.016656235693895963 -0.017661842170839982 0.014746763159090013 0.001660165198679481 0.027493068744887161 0.0052075623685994901 -0.0061258230347365035 -0.0097237196898282453 0.0041586723451700674 0.013171901916158142 -0.0061097023951625484
leaf_weight=34 26 20 23 30 20 24 24 20 23 20 33 27 20 22 21 28
leaf_count=34 26 20 23 30 20 24 24 20 23 20 33 27 20 22 21 28
internal_value=-0.000532524 -0.0108874 0.00496064 -9.3331e-05 0.0126092 0.0159283 -0.00948 0.00453388 -0.00669251 0.0217013 0.00888475 -0.00248822 -0.00973165 0.000354112 0.00962213 -0.007695
internal_weight=415 144 271 163 108 85 54 109 118 44 53 50 68 56 41 48
internal_count=415 144 271 163 108 85 54 109 118 44 53 50 68 56 41 48
is_linear=0
shrinkage=0.03


Tree=28
num_leaves=16
num_cat=0
split_feature=81 10 19 65 44 19 37 19 19 10 8 84 35 1 10
split_gain=23.2051 12.3908 9.64652 6.48386 4.32695 3.88607 1.71094 1.60607 1.58245 1.19556 1.76967 0.468076 0.346953 0.283854 0.169478
threshold=0.24385608972243603 -0.33841480902920701 0.46887988133733743 0.052536372018273804 -0.034104336731831837 -0.23835128061686553 0.019069606190328752 -0.48699860974531611 -1.5205938328307418 0.19787927973416788 0.97581648900053486 -0.057315927281409947 -1.435959631022266 -0.49182100546900837 0.017732401055029951
decision_type=2 2 2 2 2 2 2 2 2 2 2 2 2 2 2
left_child=1 3 7 8 6 9 12 -2 -1 -3 -11 14 -5 -10 -9
right_child=2 5 -4 4 -6 -7 -8 11 13 10 -12 -13 -14 -15 -16
leaf_value=0.014831319976208814 0.00027964151397193832 0.020798393249346608 -0.025689083124301307 4.2294738119217872e-05 -0.016636139329575812 0.0018942498688263841 -0.0059885329189723223 -0.012115042496349008 0.0015995022560706109 0.0076945594475529653 0.019886935749160707 -0.0050205837369888947 0.0057798560397393662 0.006845639313602052 -0.0078729703423288683
leaf_weight=20 29 36 27 20 21 21 36 21 20 26 20 37 20 21 29
leaf_count=20 29 36 27 20 21 21 36 21 20 26 20 37 20 21 29
internal_value=0.000162916 0.00549163 -0.009539 0.000193037 -0.00460539 0.0135824 -0.00122419 -0.0057352 0.00786747 0.0165332 0.0130923 -0.00777261 0.00299315 0.00436966 -0.00973515
internal_weight=404 261 143 158 97 103 76 116 61 82 46 87 40 41 50
internal_count=404 261 143 158 97 103 76 116 61 82 46 87 40 41 50
is_linear=0
shrinkage=0.03


Tree=29
num_leaves=18
num_cat=0
split_feature=11 81 10 19 61 49 39 26 10 19 24 94 32 94 1 1 93
split_gain=25.586 17.0102 9.10052 5.52061 4.08118 2.46628 2.02231 2.0024 1.66292 1.27251 1.10635 0.691905 0.686758 0.31528 0.231515 0.210674 0.15137
threshold=1.1879280029931334 0.3045293715087623 -0.33841480902920701 -0.19768526723946964 0.028081872062349203 0.021373605669966805 1.0665983629844253 0.25304397730457434 1.1752869386106612 -1.4431043041583753 0.54864104465823305 0.1294095225512602 -0.2990541064424907 -0.70710678118654757 -0.17993945261890326 -0.045837739453521244 -0.60355339059327362
decision_type=2 2 2 2 2 2 2 2 2 2 2 2 2 2 2 2 2
left_child=1 2 4 6 9 14 7 15 10 -1 11 -3 -7 -11 -6 -4 -12
right_child=-2 8 3 -5 5 12 -8 -9 -10 13 16 -13 -14 -15 -16 -17 -18
leaf_value=0.012944574066952092 -0.027886120350865701 0.0013646611188189678 0.018544571648782759 -0.0022138737379781789 -0.00026406791394771031 -0.0045822744754206134 0.0091133203653799427 0.0099536850069885819 -0.015010943542238812 0.0066340529482582164 -0.011272257646014788 -0.0054569891134490017 -0.012347702806565298 0.0015796154970883181 0.0040613984549207382 0.024335482165031903 -0.0071929090598533887
leaf_weight=20 28 21 20 20 20 25 37 20 22 21 22 34 20 28 22 24 26
leaf_count=20 28 21 20 20 20 25 37 20 22 21 22 34 20 28 22 24 26
internal_value=-0.000204093 0.001723 0.00587406 0.0120471 0.00106212 -0.00323484 0.0149001 0.0181794 -0.0074491 0.00652028 -0.00579186 -0.00280016 -0.00811982 0.003816 0.00193466 0.0218193 -0.00914453
internal_weight=430 402 277 121 156 87 101 64 125 69 103 55 45 49 42 44 48
internal_count=430 402 277 121 156 87 101 64 125 69 103 55 45 49 42 44 48
is_linear=0
shrinkage=0.03


Tree=30
num_leaves=15
num_cat=0
split_feature=18 11 46 53 28 43 2 50 71 92 65 14 31 22
split_gain=19.4357 8.90209 8.2272 6.68021 3.25166 2.95331 2.82861 1.84798 1.73279 1.41998 1.05946 0.947595 0.82657 0.200679
threshold=0.20438990740981564 0.99833811376676518 -0.16996041425440736 0.053621818343232812 -0.28380216856083013 1.4832524878804458 0.69148744128350692 0.55012923135299152 -0.75829056205500489 7.5000000000000009 0.051127338942414662 0.7055628102703736 -0.033134501539039844 1.0000000180025095e-35
decision_type=2 2 2 2 2 2 2 2 2 2 2 2 2 2
left_child=2 5 4 -4 6 8 9 10 -2 -1 -5 13 -6 -10
right_child=1 -3 3 7 12 -7 -8 -9 11 -11 -12 -13 -14 -15
leaf_value=-0.0035588860846643136 -0.0015420530070594258 -0.026581829901413889 -0.0034388312267942867 0.014100594461162224 -0.007370595230361608 0.0047055477253492408 0.011146115386241341 0.0084410624298663136 -0.0042173502015978538 0.0047859997849539933 0.022789400692936362 -0.013694204765244616 -3.5056221463669131e-05 -0.0089465182574827284
leaf_weight=36 32 21 21 30 38 21 34 26 20 37 28 35 23 20
leaf_count=36 32 21 21 30 38 21 34 26 20 37 28 35 23 20
internal_value=0.000217367 -0.00848658 0.00498023 0.0115658 0.000841986 -0.00547598 0.00400716 0.0153522 -0.00750476 0.000630435 0.0183788 -0.0100035 -0.00465842 -0.00667316
internal_weight=422 149 273 105 168 128 107 84 107 73 58 75 61 40
internal_count=422 149 273 105 168 128 107 84 107 73 58 75 61 40
is_linear=0
shrinkage=0.03


Tree=31
num_leaves=17
num_cat=0
split_feature=81 10 35 29 27 78 19 67 16 78 46 22 45 10 35 66
split_gain=18.911 11.2139 7.63609 6.90531 4.31095 3.46038 2.48078 1.98414 1.36506 1.25998 1.15151 0.646845 0.439092 0.39422 0.14058 0.0529878
threshold=0.28137342545534177 -0.33841480902920701 -0.44176486815539978 -0.28088927243776157 -0.10174977166014358 1.0000000180025095e-35 -1.5205938328307418 0.94495991036704763 -0.59672452944895449 -0.469252562941676 -0.44630060564013035 -1.3002900613388408 0.13174751291573059 0.061611759173067611 -0.36660973945529834 -0.90351403334644875
decision_type=2 2 2 2 2 2 2 2 2 2 2 2 2 2 2 2
left_child=1 3 -2 6 5 9 -1 -5 -4 -3 12 -10 14 -13 -8 -15
right_child=2 4 8 7 -6 -7 10 -9 11 -11 -12 13 -14 15 -16 -17
leaf_value=0.013152875004850361 -0.023934381320237862 0.0074271867833883166 0.0016411629207988281 -0.0040586131390654466 0.022200280170751565 -0.0015959232656690134 1.8380828188513517e-05 -0.016267015271559711 -0.0032271459608002838 0.016962711384001461 0.0082456887569000454 -0.011202828901946743 -0.0036419552008607487 -0.0077517908144353036 0.0032563904917864623 -0.0048054150772673812
leaf_weight=22 24 25 20 30 30 21 28 21 34 29 20 30 20 20 24 21
leaf_count=22 24 25 20 30 30 21 28 21 34 29 20 30 20 20 24 21
internal_value=0.000136281 0.00487746 -0.00843251 0 0.0125366 0.0086067 0.0041035 -0.00916631 -0.00541542 0.0126255 0.00189501 -0.00678835 8.03358e-05 -0.00844459 0.00157381 -0.00633103
internal_weight=419 270 149 165 105 75 114 51 125 54 92 105 72 71 52 41
internal_count=419 270 149 165 105 75 114 51 125 54 92 105 72 71 52 41
is_linear=0
shrinkage=0.03


Tree=32
num_leaves=17
num_cat=0
split_feature=81 10 19 29 19 19 11 39 7 88 1 1 84 84 0 35
split_gain=21.5267 11.6618 9.68443 5.35894 3.41939 2.39892 1.98308 2.74817 1.75961 1.48795 0.973118 0.821756 0.645905 0.478471 0.21111 0.175002
threshold=0.24385608972243603 -0.33841480902920701 0.66979149227340806 -0.28088927243776157 -0.23835128061686553 -1.5205938328307418 -0.16967573032421387 1.0397046809410633 -0.073150047815403282 0.011267706645623153 0.034433174470440607 -0.51144101711941004 0.036540185633270557 -0.15732555694168987 -0.24261712901551782 -0.16659787168307208
decision_type=2 2 2 2 2 2 2 2 2 2 2 2 2 2 2 2
left_child=1 3 9 5 6 -1 7 10 -5 13 -3 -7 -11 -2 -13 -15
right_child=2 4 -4 8 -6 11 -8 -9 -10 12 -12 14 -14 15 -16 -17
leaf_value=0.013294213067239789 -0.012239085562638382 0.011719903609904634 -0.027492807092612946 -0.0032973770087880785 0.0010629827693215946 -0.0015209700366643466 0.021915088053998909 0.003373827470297163 -0.014803028853971565 -0.0044334164972407112 0.020831326571377838 0.0024929269789190022 0.0023727585798828978 -0.0081654683341327895 0.0067699807926790041 -0.0046082233046133491
leaf_weight=20 20 25 21 32 20 38 27 23 20 28 23 29 22 35 20 29
leaf_count=20 20 25 21 32 20 38 27 23 20 28 23 29 22 35 20 29
internal_value=0.00037982 0.00539543 -0.00856191 7.22742e-05 0.0125366 0.00392984 0.0148441 0.0120859 -0.00780013 -0.00555447 0.0161824 0.00172987 -0.00138006 -0.00799896 0.00431 -0.0066101
internal_weight=432 277 155 159 118 107 98 71 52 134 48 87 50 84 49 64
internal_count=432 277 155 159 118 107 98 71 52 134 48 87 50 84 49 64
is_linear=0
shrinkage=0.03


Tree=33
num_leaves=16
num_cat=0
split_feature=11 81 10 64 24 37 61 69 41 1 33 94 9 0 64
split_gain=20.1905 11.7295 7.67246 4.71201 3.4989 3.0723 2.7612 1.74492 1.68467 0.752975 0.579969 0.828009 0.432494 0.0345023 0.0167487
threshold=1.1879280029931334 0.31014987039502195 -0.36336182518115118 -0.51362505844487372 0.3839189147044007 0.036540185633135158 0.028081872062349203 0.16916859503614368 0.077125842119168869 -0.2668454199958416 0.46505244745918689 0.37940952255126043 -0.50498711002575591 -0.36906947109818183 1.0000000180025095e-35
decision_type=2 2 2 2 2 2 2 2 2 2 2 2 2 2 2
left_child=1 2 6 -4 5 -5 9 12 -3 -1 11 -10 -8 -9 -13
right_child=-2 8 3 4 -6 -7 7 13 10 -11 -12 14 -14 -15 -16
leaf_value=0.0025746447385952441 -0.026506075096583277 0.0019263871773076587 0.019626965043464978 0.0078544524268320919 0.015060290153636488 -0.0066757112872451365 -0.0040213907475786645 0.00062762691927795752 -0.014294845635321603 0.0096035704344318087 -0.0037755099823853105 -0.0054053204102917753 -0.0102058966013033 0.0026579534634600262 -0.007617830131377016
leaf_weight=34 24 20 38 34 30 21 26 20 20 25 30 20 20 20 32
leaf_count=34 24 20 38 34 30 21 26 20 20 25 30 20 20 20 32
internal_value=0.000134376 0.00178785 0.00530351 0.010813 0.00681897 0.00225008 0.00060502 -0.00279973 -0.0059085 0.00561497 -0.00747452 -0.00896679 -0.00679169 0.0017217 -0.00683645
internal_weight=414 390 268 123 85 55 145 86 122 59 102 72 46 40 52
internal_count=414 390 268 123 85 55 145 86 122 59 102 72 46 40 52
is_linear=0
shrinkage=0.03


Tree=34
num_leaves=17
num_cat=0
split_feature=37 11 6 35 53 67 71 23 29 23 61 68 26 56 10 9
split_gain=15.0981 8.06325 6.84438 5.57108 3.12763 2.0188 1.60529 0.993248 0.733046 0.706043 0.700671 0.551708 0.347928 0.117883 0.0741888 0.0578908
threshold=0.056726736341476659 1.0921213417061126 0.089471289494437764 -0.47453850001842512 0.079968834583283313 -0.29155934203380224 0.75433816058933989 -0.69022898732440996 -0.50484413799654415 -0.15579814817843754 0.08779069599818061 0.32808923972387821 -0.7086253488930877 1.0356627287786087 0.12990333740798662 -0.78165376322025992
decision_type=2 2 2 2 2 2 2 2 2 2 2 2 2 2 2 2
left_child=2 3 4 -2 6 7 12 -4 -7 13 -11 -6 15 -5 -12 -1
right_child=1 -3 5 9 11 8 -8 -9 -10 10 14 -13 -14 -15 -16 -17
leaf_value=0.0015125373479694735 0.0071256263285779491 -0.023592868132424026 0.011494573049706098 -0.0056706337226070866 -0.0024115866346092513 0.010171884906603328 0.0094255421034361488 0.020155601350430451 0.0019297110697175086 -0.013960536800995821 -0.0085551005601882928 -0.00914211662625199 -0.0014296074118836228 -0.0022924702414380965 -0.0052813424129561594 0.0040731944702868039
leaf_weight=20 31 22 34 28 28 20 33 22 21 21 20 20 25 20 22 23
leaf_count=20 31 22 34 28 28 20 33 22 21 21 20 20 25 20 22 23
internal_value=0.000334521 -0.00670604 0.00504124 -0.0040539 0.000979698 0.0112418 0.00399204 0.0149805 0.00603824 -0.00720671 -0.00933823 -0.00529152 0.00130117 -0.00433313 -0.00692815 0.00295807
internal_weight=410 164 246 142 149 97 101 56 41 111 63 48 68 48 42 43
internal_count=410 164 246 142 149 97 101 56 41 111 63 48 68 48 42 43
is_linear=0
shrinkage=0.03


Tree=35
num_leaves=17
num_cat=0
split_feature=37 19 65 42 19 33 92 65 59 93 42 72 8 1 94 31
split_gain=18.2405 8.93945 11.086 6.48491 3.04931 2.4133 3.26999 2.31962 2.09137 1.92321 0.599109 0.643664 0.516504 0.292012 0.213263 0.130325
threshold=0.059983319960190656 0.44472738821939811 0.12677356532177139 0.17864666415478772 -1.5205938328307418 -0.23750634692052927 10.500000000000002 0.05112733894241716 0.87792303637981839 -0.60355339059327362 -0.11922537768310848 -0.28088927243776157 -0.073150047815403282 -0.56477915491421549 0.60355339059327384 -0.66228202789568313
decision_type=2 2 2 2 2 2 2 2 2 2 2 2 2 2 2 2
left_child=3 5 -3 4 -1 12 -7 9 10 -5 11 13 -2 -6 -14 -15
right_child=1 2 -4 7 8 6 -8 -9 -10 -11 -12 -13 14 15 -16 -17
leaf_value=0.012411599114042887 -0.0035941789509473495 -0.0034847323203386809 -0.032495317592088915 0.010330049623586104 -0.0006751179277087768 -0.005345508518550441 0.0089379116517877 0.0042697104753611917 -0.0078658230559459849 0.022276319994966019 0.0060590100682560832 -0.0036054217046150908 -0.01164414390314758 0.0017126037703734233 -0.006705964033617012 0.0049698533574898405
leaf_weight=21 24 23 25 28 22 32 26 23 24 24 24 23 22 27 20 25
leaf_count=21 24 23 25 28 22 32 26 23 24 24 24 23 22 27 20 25
internal_value=-0.000232709 -0.00770009 -0.0186929 0.00508525 0.0017537 -0.003409 0.00101013 0.012407 0.00018198 0.0159335 0.00180819 0.000720387 -0.00733351 0.00210843 -0.0093854 0.0033427
internal_weight=413 172 48 241 166 124 58 75 145 52 121 97 66 74 42 52
internal_count=413 172 48 241 166 124 58 75 145 52 121 97 66 74 42 52
is_linear=0
shrinkage=0.03


Tree=36
num_leaves=17
num_cat=0
split_feature=11 81 88 26 53 73 33 35 4 1 41 35 53 33 92 0
split_gain=20.0048 9.5326 5.81628 3.19796 2.51535 1.93621 1.51498 1.45246 1.13667 1.02616 0.907351 0.824989 0.783648 0.258688 0.224224 0.198325
threshold=1.1879280029931334 0.3045293715087623 -0.027328712202848496 1.0492757728533164 0.053621818343220211 0.032571490443773207 -0.3929851320202416 -0.31781287061442509 0.066858271028306812 0.71982612984646022 0.092106708122812062 -0.42314018033886897 0.41869249342132414 0.46505244745918689 8.5000000000000018 0.13285052023300667
decision_type=2 2 2 2 2 2 2 2 2 2 2 2 2 2 2 2
left_child=1 2 5 4 8 -1 9 12 14 -6 -9 -8 -3 -12 -4 -13
right_child=-2 7 3 -5 6 -7 11 10 -10 -11 13 15 -14 -15 -16 -17
leaf_value=0.01687651556242457 -0.024377708115528536 -0.014092885945080581 -0.00055436454891446098 -0.009074218957059418 -0.0029548315353580368 0.0051138712643687403 0.013255065001043559 0.0022952123155808558 -0.0067138897360705619 0.0065775440833461818 -0.0064965235287288451 0.003842576673226569 -0.0054185394609152374 -0.0025508485882845479 0.0030753338093367903 0.0085183471574712157
leaf_weight=39 29 21 25 20 20 20 28 21 20 20 37 20 20 31 35 20
leaf_count=39 29 21 25 20 20 20 28 21 20 20 37 20 20 31 35 20
internal_value=-0.00036259 0.00138981 0.00463904 0.00226058 0.00348654 0.0129553 0.00647307 -0.005259 -0.000510855 0.00174106 -0.00305189 0.0092059 -0.00995797 -0.0047482 0.00151464 0.00627069
internal_weight=426 397 267 208 188 59 108 130 80 40 89 68 41 68 60 40
internal_count=426 397 267 208 188 59 108 130 80 40 89 68 41 68 60 40
is_linear=0
shrinkage=0.03


Tree=37
num_leaves=17
num_cat=0
split_feature=81 10 35 29 18 1 24 1 57 88 35 35 31 25 32 71
split_gain=13.9145 6.88504 5.0937 3.44718 2.44191 1.6399 1.87115 1.5709 1.20343 1.06378 0.608662 0.427966 0.348719 0.288137 0.160016 0.110158
threshold=0.24385608972243603 -0.36336182518115118 -0.47453850001842512 -0.28088927243776157 0.15921912626595733 -0.22257998709459834 -0.62514074879629344 -0.22257998709459834 0.081213110337285413 0.076498691627619922 -0.29696186000354968 -0.41091583449620023 -0.40283069998126153 0.21110301579952265 -0.80530819031634271 0.3839189147044007
decision_type=2 2 2 2 2 2 2 2 2 2 2 2 2 2 2 2
left_child=1 3 -2 7 5 -3 -7 12 -5 10 13 -9 14 -4 -1 -12
right_child=2 4 9 8 -6 6 -8 11 -10 -11 15 -13 -14 -15 -16 -17
leaf_value=0.00050420642743554355 -0.020955130187655564 0.0073258855536846856 -0.0059351544089226924 -0.000206335825261785 0.0013356163242978672 0.010102075989367203 0.021544706900229398 0.011170605091350292 -0.0098588606239949344 0.0016060747158949942 -0.0023394796441395561 0.0048501964951420959 0.003482663259263287 -0.011502630777323424 -0.0031794580541995919 -0.005098477410820295
leaf_weight=20 20 39 21 20 24 29 26 20 30 20 29 24 21 20 20 37
leaf_count=20 20 39 21 20 24 29 26 20 30 20 29 24 21 20 20 37
internal_value=0.000553597 0.00456664 -0.00687684 0.00038834 0.0100247 0.0122075 0.0155951 0.00349315 -0.00606585 -0.00462144 -0.00581388 0.00780995 0.000322613 -0.00874537 -0.00126615 -0.00393695
internal_weight=420 273 147 155 118 94 55 105 50 127 107 44 61 41 40 66
internal_count=420 273 147 155 118 94 55 105 50 127 107 44 61 41 40 66
is_linear=0
shrinkage=0.03


end of trees

feature_importances:
Column_19=47
Column_10=38
Column_81=33
Column_35=29
Column_1=24
Column_11=24
Column_0=18
Column_65=18
Column_53=16
Column_44=15
Column_94=15
Column_26=13
Column_27=12
Column_29=12
Column_33=11
Column_32=10
Column_37=10
Column_67=10
Column_9=9
Column_31=9
Column_16=8
Column_39=8
Column_45=8
Column_71=8
Column_73=7
Column_18=6
Column_24=6
Column_41=6
Column_84=6
Column_7=5
Column_8=5
Column_22=5
Column_34=5
Column_61=5
Column_69=5
Column_83=5
Column_88=5
Column_92=5
Column_28=4
Column_56=4
Column_68=4
Column_78=4
Column_4=3
Column_12=3
Column_20=3
Column_23=3
Column_42=3
Column_43=3
Column_46=3
Column_47=3
Column_49=3
Column_57=3
Column_59=3
Column_63=3
Column_74=3
Column_86=3
Column_2=2
Column_13=2
Column_14=2
Column_15=2
Column_17=2
Column_21=2
Column_25=2
Column_30=2
Column_38=2
Column_51=2
Column_52=2
Column_64=2
Column_66=2
Column_76=2
Column_79=2
Column_93=2
Column_3=1
Column_5=1
Column_6=1
Column_50=1
Column_54=1
Column_55=1
Column_70=1
Column_72=1
Column_75=1
Column_77=1
Column_80=1
Column_90=1
Column_95=1

parameters:
[boosting: gbdt]
[objective: regression]
[metric: rmse]
[tree_learner: serial]
[device_type: cpu]
[data_sample_strategy: bagging]
[data: ]
[valid: ]
[num_iterations: 3000]
[learning_rate: 0.03]
[num_leaves: 31]
[num_threads: 0]
[seed: 0]
[deterministic: 0]
[force_col_wise: 0]
[force_row_wise: 1]
[histogram_pool_size: -1]
[max_depth: 8]
[min_data_in_leaf: 20]
[min_sum_hessian_in_leaf: 0.001]
[bagging_fraction: 0.8]
[pos_bagging_fraction: 1]
[neg_bagging_fraction: 1]
[bagging_freq: 1]
[bagging_seed: 3]
[bagging_by_query: 0]
[feature_fraction: 0.8]
[feature_fraction_bynode: 1]
[feature_fraction_seed: 2]
[extra_trees: 0]
[extra_seed: 6]
[early_stopping_round: 0]
[early_stopping_min_delta: 0]
[first_metric_only: 0]
[max_delta_step: 0]
[lambda_l1: 0.1]
[lambda_l2: 0.1]
[linear_lambda: 0]
[min_gain_to_split: 0.01]
[drop_rate: 0.1]
[max_drop: 50]
[skip_drop: 0.5]
[xgboost_dart_mode: 0]
[uniform_drop: 0]
[drop_seed: 4]
[top_rate: 0.2]
[other_rate: 0.1]
[min_data_per_group: 100]
[max_cat_threshold: 32]
[cat_l2: 10]
[cat_smooth: 10]
[max_cat_to_onehot: 4]
[top_k: 20]
[monotone_constraints: ]
[monotone_constraints_method: basic]
[monotone_penalty: 0]
[feature_contri: ]
[forcedsplits_filename: ]
[refit_decay_rate: 0.9]
[cegb_tradeoff: 1]
[cegb_penalty_split: 0]
[cegb_penalty_feature_lazy: ]
[cegb_penalty_feature_coupled: ]
[path_smooth: 0]
[interaction_constraints: ]
[verbosity: -1]
[saved_feature_importance_type: 0]
[use_quantized_grad: 0]
[num_grad_quant_bins: 4]
[quant_train_renew_leaf: 0]
[stochastic_rounding: 1]
[linear_tree: 0]
[max_bin: 255]
[max_bin_by_feature: ]
[min_data_in_bin: 3]
[bin_construct_sample_cnt: 200000]
[data_random_seed: 1]
[is_enable_sparse: 1]
[enable_bundle: 1]
[use_missing: 1]
[zero_as_missing: 0]
[feature_pre_filter: 1]
[pre_partition: 0]
[two_round: 0]
[header: 0]
[label_column: ]
[weight_column: ]
[group_column: ]
[ignore_column: ]
[categorical_feature: ]
[forcedbins_filename: ]
[precise_float_parser: 0]
[parser_config_file: ]
[objective_seed: 5]
[num_class: 1]
[is_unbalance: 0]
[scale_pos_weight: 1]
[sigmoid: 1]
[boost_from_average: 1]
[reg_sqrt: 0]
[alpha: 0.9]
[fair_c: 1]
[poisson_max_delta_step: 0.7]
[tweedie_variance_power: 1.5]
[lambdarank_truncation_level: 30]
[lambdarank_norm: 1]
[label_gain: ]
[lambdarank_position_bias_regularization: 0]
[eval_at: ]
[multi_error_top_k: 1]
[auc_mu_weights: ]
[num_machines: 1]
[local_listen_port: 12400]
[time_out: 120]
[machine_list_filename: ]
[machines: ]
[gpu_platform_id: -1]
[gpu_device_id: -1]
[gpu_use_dp: 0]
[num_gpu: 1]

end of parameters

pandas_categorical:null
