tree
version=v4
num_class=1
num_tree_per_iteration=1
label_index=0
max_feature_idx=96
objective=regression
feature_names=Column_0 Column_1 Column_2 Column_3 Column_4 Column_5 Column_6 Column_7 Column_8 Column_9 Column_10 Column_11 Column_12 Column_13 Column_14 Column_15 Column_16 Column_17 Column_18 Column_19 Column_20 Column_21 Column_22 Column_23 Column_24 Column_25 Column_26 Column_27 Column_28 Column_29 Column_30 Column_31 Column_32 Column_33 Column_34 Column_35 Column_36 Column_37 Column_38 Column_39 Column_40 Column_41 Column_42 Column_43 Column_44 Column_45 Column_46 Column_47 Column_48 Column_49 Column_50 Column_51 Column_52 Column_53 Column_54 Column_55 Column_56 Column_57 Column_58 Column_59 Column_60 Column_61 Column_62 Column_63 Column_64 Column_65 Column_66 Column_67 Column_68 Column_69 Column_70 Column_71 Column_72 Column_73 Column_74 Column_75 Column_76 Column_77 Column_78 Column_79 Column_80 Column_81 Column_82 Column_83 Column_84 Column_85 Column_86 Column_87 Column_88 Column_89 Column_90 Column_91 Column_92 Column_93 Column_94 Column_95 Column_96
feature_infos=[-3.1436137381203491:1.8747339926573592] [-2.9456947730335923:2.3023461922382684] [-1.9214982655591348:2.3127511643628611] [-2.8206285863213494:3.1396152193407207] [-3.1436137381203491:1.8747339926573592] [-3.1436137381203491:1.8747339926573592] [-3.1436137381203491:1.8747339926573592] [-3.1436137381203491:1.8747339926573592] [-2.4167236952191371:1.8747339926573592] [-2.4167236952191371:1.8747339926573592] [-2.4167236952191371:1.8747339926573592] [-2.4167236952191371:1.8747339926573592] [-2.9456947730335923:2.3023461922382684] [-2.9456947730335923:2.3023461922382684] [-2.9456947730335923:2.137507252501885] [-2.9456947730335923:2.1095348647637602] [-2.9456947730335923:2.1095348647637602] [-2.9456947730335923:2.1095348647637602] [-2.9456947730335923:2.1095348647637602] [-2.9456947730335923:1.9697977899105159] [-1.9214982655591348:2.3127511643628611] [-1.9214982655591348:2.3127511643628611] [-1.9214982655591348:2.3127511643628611] [-1.9214982655591348:2.3127511643628611] [-1.9214982655591348:2.3127511643628611] [-1.9214982655591348:2.3127511643628611] [-1.9214982655591348:2.3127511643628611] [-1.9214982655591348:2.3127511643628611] [-2.8206285863213494:3.1396152193407207] [-2.8206285863213494:3.1396152193407207] [-2.8206285863213494:3.1396152193407207] [-2.8206285863213494:3.1396152193407207] [-2.8206285863213494:3.1396152193407207] [-2.8206285863213494:3.1396152193407207] [-2.8206285863213494:3.1396152193407207] [-2.8206285863213494:3.1396152193407207] [-3.0944400997221435:1.8599716246029767] [0.0026764592121244:1.645293274289489] [-3.1436137381203491:1.8304468884942124] [-2.9960928229257324:1.8747339926573592] [-2.9296301880955831:1.8022133054737608] [0.027759399514255201:1.4822928362679113] [-3.1436137381203491:1.705332494534648] [-2.7010509925364974:1.8747339926573592] [-2.5877502371402685:1.7005705465951813] [0.057965947907529097:1.2470292857990282] [-3.1436137381203491:1.5226315663682937] [-1.9476856939459719:1.8747339926573592] [-2.9180705673625682:2.2473998789928071] [0.0024028631714775:1.3393603788891415] [-2.9456947730335923:2.137507252501885] [-2.8628221560205205:2.3023461922382684] [-2.8358259391117802:2.0464691477191801] [0.0065770337413709997:1.2411263048401728] [-2.9456947730335923:1.9437896307376168] [-2.6970769219943778:2.3023461922382684] [-2.6496765452135107:1.9100426336467944] [0.026125602957564501:0.96463276343142601] [-2.9456947730335923:1.612299162685332] [-2.2827138369290214:2.3023461922382684] [-1.9140965071559533:2.3091775024481351] [0.00066197234498080004:0.85738701167726239] [-1.9214982655591348:2.3020301786186832] [-1.8992929903495912:2.3127511643628611] [-1.8784728735646239:2.2863502102820434] [0.0139811846015992:0.90126266400432165] [-1.9214982655591348:2.218671354343023] [-1.843731264033748:2.3127511643628611] [-1.7899148409758243:2.1363204820716875] [0.058773164469634299:1.0118079867381142] [-1.9214982655591348:2.0276220029102845] [-1.6443517680489976:2.3127511643628611] [-2.7516742620645029:3.1287580558595529] [0:1.8104419330760275] [-2.8206285863213494:3.1070437288972159] [-2.6354906964931168:3.1396152193407207] [-2.5601258145824897:3.0853294019348798] [0.0020680105006647001:2.4812887862777475] [-2.8206285863213494:3.0093292575667019] [-2.2000396680097309:3.1396152193407207] [-2.1253131764258288:2.9903292214746577] [0.0093116775430298008:2.5235108937734081] [-2.8206285863213494:2.8139003149056738] [-1.4654962184571301:3.1396152193407207] [-0.95199108778837038:2.8290121784015625] [-2.7880157955644478:2.8290121784015625] [-2.0538181296402058:2.2789837836424791] [-2.1993229536789611:2.2789837836424791] [-0.98357508756868395:1.3940667050027256] [-1.2596528450146576:1.226362536703284] [-1.8104419330760249:2.0461820012180407] [-2.0461820012180407:1.9465193046225109] [0:23] [-1:1] [-1:1] [1:6] [1:6]
tree_sizes=1662 1486 1511 1513 1518 1597 1592 1684 1520 1519 1596 1597 1603 1678 1521 1606 1691 1607 1700 1525 1436 1610 1526 1440 1606 1669 1615 1528 1531 1712

Tree=0
num_leaves=18
num_cat=0
split_feature=51 47 54 81 71 34 57 81 70 1 45 49 11 76 35 35 94
split_gain=164.071 46.2114 43.8739 20.4756 12.0887 12.0427 6.49274 5.22867 4.7499 4.44672 2.98112 2.14608 1.12787 0.935303 0.838899 0.808211 0.0503666
threshold=-0.15053710477811119 0.76240627871477062 -1.9587592340241311 0.18309841478358271 1.1233155289083323 -0.08589186453280688 0.15411979437152759 0.34209820376242345 -0.82302550088396531 -0.63107784586763349 0.39224910249822226 0.032634343427186512 0.061611759173067611 -0.38745031392491175 0.14920589628861317 -1.1917995178466969 0.78656609248549303
decision_type=2 2 2 2 2 2 2 2 2 2 2 2 2 2 2 2 2
left_child=2 3 -1 6 9 7 15 -3 12 13 -5 14 -7 16 -11 -2 -4
right_child=1 5 4 10 -6 8 -8 -9 -10 11 -12 -13 -14 -15 -16 -17 -18
leaf_value=-0.037986242133012438 0.035308456286434184 0.051155834018783305 0.005779379790296732 0.0024576428543892949 -0.0077135489544343412 0.075099754587450732 0.049514160695170187 0.031198834682921398 0.050799626367203754 0.011034252911109758 0.018891621443466219 0.025534433562373469 0.063040421335452942 0.011786839336721124 0.019186223499041418 0.027559423232202972 0.0012331308774854513
leaf_weight=21 21 31 20 21 35 21 24 20 20 32 20 20 20 21 20 33 20
leaf_count=21 21 31 20 21 35 21 24 20 20 32 20 20 20 21 20 33 20
internal_value=0.0235805 0.0405306 0.00284985 0.0274779 0.00800585 0.0543565 0.0365145 0.0434183 0.0634051 0.0121856 0.0103701 0.0173141 0.0694002 0.00620159 0.0140974 0.0306443 0.00338113
internal_weight=420 231 189 119 168 112 78 51 61 133 41 72 41 61 52 54 40
internal_count=420 231 189 119 168 112 78 51 61 133 41 72 41 61 52 54 40
is_linear=0
shrinkage=1


Tree=1
num_leaves=16
num_cat=0
split_feature=51 47 50 81 65 11 33 25 1 82 37 40 69 1 88
split_gain=147.984 40.4231 33.4736 16.2589 11.3952 10.4354 6.40727 6.0464 3.70507 1.68143 1.63991 1.48795 1.28364 0.353964 0.218032
threshold=-0.17993945261890326 0.76240627871477062 -1.3824188475063293 0.20474176088220672 0.3082555029543137 0.62883542195307618 -0.08589186453280688 0.76865378924001082 -0.52850231876543685 -0.40417008227841061 0.036540185633220909 0.66290465318534031 0.16916859503615198 -0.74671023944239112 0.022336500959068254
decision_type=2 2 2 2 2 2 2 2 2 2 2 2 2 2 2
left_child=2 3 -1 7 8 6 14 12 9 13 -10 -8 -2 -4 -3
right_child=1 5 4 -5 -6 -7 11 -9 10 -11 -12 -13 -14 -15 -16
leaf_value=-0.053267584084475177 0.009192922143718165 0.027702174160017891 -0.020441026696361751 -0.011873490237785727 -0.031883784469179929 0.010393127858369058 0.048360754162517935 0.022868839069617598 0.00076059812548496901 -0.0082517463019625703 -0.0099945314416940174 0.03601759978326044 0 -0.014493960387898845 0.021359311924941501
leaf_weight=24 39 20 34 39 30 22 20 28 24 23 26 27 22 21 20
leaf_count=24 39 20 34 39 30 22 20 28 24 23 26 27 22 21 20
internal_value=6.01825e-05 0.0156882 -0.0202716 0.00422112 -0.01521 0.0291105 0.0337918 0.0113129 -0.0112569 -0.0153582 -0.00478098 0.0414252 0.00593067 -0.0182552 0.0246667
internal_weight=419 237 182 128 158 109 87 89 128 78 50 47 61 55 40
internal_count=419 237 182 128 158 109 87 89 128 78 50 47 61 55 40
is_linear=0
shrinkage=0.03


Tree=2
num_leaves=16
num_cat=0
split_feature=51 54 47 77 34 71 66 2 43 1 66 35 35 1 82
split_gain=132.133 42.8746 38.9645 20.1444 11.2594 10.2494 6.83599 5.2979 4.02197 2.84092 2.55099 1.0298 0.894219 0.576876 0.261896
threshold=-0.15053710477811119 -1.9587592340241311 0.67251162973927348 0.23926261068054372 -0.08589186453280688 1.1233155289083323 -0.63412752915021187 1.2767156924992291 0.48371498593495749 -0.49182100546900837 -0.79429141911549783 -0.28892556622065563 -0.25642511815914915 -0.87639430080391756 -0.55910457569611183
decision_type=2 2 2 2 2 2 2 2 2 2 2 2 2 2 2
left_child=1 -1 3 7 6 8 -4 11 9 13 -6 -2 -11 -3 -15
right_child=2 5 4 -5 10 -7 -8 -9 -10 12 -12 -13 -14 14 -16
leaf_value=-0.059900162504680117 0.0096577849939150397 -0.02056746740956112 0.0042894749966130323 -0.017540145196589915 0.04328341365559709 -0.03039019871461875 0.026856642524215657 0.022257217162813262 0.00040768335434212085 -0.010648052051885805 0.029373409136549216 0.0017582380242607335 -0.0015890642496540928 -0.016103645990515829 -0.010826781627847188
leaf_weight=20 33 22 20 30 34 27 32 26 26 20 23 29 21 31 20
leaf_count=20 33 22 20 30 34 27 32 26 26 20 23 29 21 31 20
internal_value=0.000208004 -0.0184525 0.0155949 0.00361382 0.0285225 -0.0134379 0.0182594 0.0108712 -0.0101277 -0.0125551 0.0377844 0.00601993 -0.00609623 -0.0161284 -0.0141182
internal_weight=414 187 227 118 109 167 52 88 140 114 57 62 41 73 51
internal_count=414 187 227 118 109 167 52 88 140 114 57 62 41 73 51
is_linear=0
shrinkage=0.03


Tree=3
num_leaves=16
num_cat=0
split_feature=48 54 47 81 34 16 19 24 74 19 45 1 0 45 92
split_gain=130.163 39.7526 36.8289 13.122 12.5365 7.97583 5.54162 5.44004 4.70378 4.46887 2.59115 1.99048 1.29526 0.803903 0.405275
threshold=-0.22329452535650027 -1.9587592340241311 0.77314701488389548 0.20474176088220672 -0.08589186453280688 -0.42074999117988082 -0.52355929083941144 -0.36211008560765234 -0.57209757309132014 -0.80326671516624104 0.3524413116891193 -0.80326671516624104 0.16502209172478277 0.068756442922202968 6.5000000000000009
decision_type=2 2 2 2 2 2 2 2 2 2 2 2 2 2 2
left_child=1 -1 3 9 7 6 -3 -4 -6 -2 -7 -8 13 -11 -13
right_child=2 5 4 -5 8 10 11 -9 -10 12 -12 14 -14 -15 -16
leaf_value=-0.056165194166192089 0.020155520439147947 0.0044666046716458317 0.028827280998229975 -0.011182481801173445 0.025067052992422182 -0.015034920617778953 -0.01899270970270453 0.0093473148638568253 0.043758610590236384 0.0071470962442568876 -0.028078984240626978 -0.011770036053333885 0.012037102669032651 -0.00088958432117314755 -0.0060501517712399124
leaf_weight=22 28 24 22 36 20 28 25 33 38 20 31 22 20 24 31
leaf_count=22 28 24 22 36 20 28 25 33 38 20 31 22 20 24 31
internal_value=0.000676817 -0.0183852 0.0151654 0.00411277 0.0276439 -0.0131725 -0.00803476 0.0172319 0.0374191 0.0101361 -0.0219753 -0.0119205 0.00568118 0.00270335 -0.00849863
internal_weight=424 183 241 128 113 161 102 55 58 92 59 78 64 44 53
internal_count=424 183 241 128 113 161 102 55 58 92 59 78 64 44 53
is_linear=0
shrinkage=0.03


Tree=4
num_leaves=16
num_cat=0
split_feature=51 54 47 86 71 71 11 19 7 45 19 34 27 19 1
split_gain=123.207 36.5359 34.2717 14.6582 10.6389 8.2042 5.66616 4.91571 4.42603 3.33267 2.64009 1.18334 1.06738 0.401821 0.251995
threshold=-0.15053710477811119 -2.1198173648593173 0.77314701488389548 -0.0056949155457438495 1.1233155289083323 -0.59572650355053669 0.51198462521405952 -0.82077766584641865 -1.039702578651722 0.15581445600011687 -0.52355929083941144 -0.11881714933665269 -1.0760226462545306 0.50068594634446639 -0.36572370524821235
decision_type=2 2 2 2 2 2 2 2 2 2 2 2 2 2 2
left_child=1 -1 3 -2 8 -4 9 -5 13 -7 -10 14 -9 -3 -12
right_child=2 4 5 7 -6 6 -8 12 10 -11 11 -13 -14 -15 -16
leaf_value=-0.05482639874327238 -0.015192743101023219 -0.013866116613573372 0.041406572749934242 0.020362959891239516 -0.028942640748869181 0.021096730974145522 0.0083876931978695418 0.0092176280253963537 0.0015543741640663637 0.036948610741945234 -0.0079546890063072317 -0.013440485279136728 0.0015738751720159479 -0.020576605115618023 -0.002844737261088926
leaf_weight=21 27 21 29 28 31 33 20 33 29 21 20 32 35 23 20
leaf_count=21 27 21 29 28 31 33 20 33 29 21 20 32 35 23 20
internal_value=-0.000124935 -0.0174689 0.0149813 0.00425526 -0.0129659 0.0277443 0.0223011 0.00976634 -0.00951186 0.0273737 -0.00599679 -0.00907778 0.00533548 -0.0174806 -0.00548799
internal_weight=423 197 226 123 176 103 74 96 145 54 101 72 68 44 40
internal_count=423 197 226 123 176 103 74 96 145 54 101 72 68 44 40
is_linear=0
shrinkage=0.03


Tree=5
num_leaves=17
num_cat=0
split_feature=51 54 39 31 51 81 41 31 84 92 37 45 68 1 28 29
split_gain=110.773 33.6575 27.5486 17.1536 8.48835 7.26177 5.31074 3.17137 2.59331 2.54769 1.92991 1.75672 1.31771 0.742753 0.689163 0.165478
threshold=-0.15053710477811119 -1.9587592340241311 0.40392166992593842 -0.25945915568337735 0.61918947041656847 0.28137342545534177 0.057126469471285309 0.64510788532188446 0.036540185633271154 14.500000000000002 0.069174017261350709 0.15581445600011687 -0.71329212270542641 -0.52850231876543685 -0.33178579972942396 -0.31494351065567311
decision_type=2 2 2 2 2 2 2 2 2 2 2 2 2 2 2 2
left_child=1 -1 3 4 14 9 -4 -5 11 10 13 -8 -7 -3 -2 -15
right_child=2 5 6 7 -6 12 8 -9 -10 -11 -12 -13 -14 15 -16 -17
leaf_value=-0.05170760559819941 0.0038266909811887641 -0.01176334661921275 0.040590135836488253 -0.00098865199358405846 0.029707211305301975 -0.017220067403435169 0.014381815712551595 -0.015662846684597113 0.031948216716628258 0.0009239863422256788 -0.018660690148374924 0.026292980219890818 -0.028644714640147645 -0.0034035612579968394 0.01172932503383551 -0.0074962428612495536
leaf_weight=22 23 29 21 37 25 22 31 21 22 22 20 20 20 24 20 20
leaf_count=22 23 29 21 37 25 22 31 21 22 22 20 20 20 24 20 20
internal_value=0.00051661 -0.0169946 0.0147792 0.0055721 0.0157975 -0.0120814 0.0270698 -0.00637117 0.0230892 -0.00812922 -0.0103018 0.0191539 -0.0227868 -0.0079482 0.00759063 -0.00534468
internal_weight=399 179 220 126 68 157 94 58 73 115 93 51 42 73 43 44
internal_count=399 179 220 126 68 157 94 58 73 115 93 51 42 73 43 44
is_linear=0
shrinkage=0.03


Tree=6
num_leaves=17
num_cat=0
split_feature=51 54 47 81 11 16 33 57 19 1 1 57 23 20 27 9
split_gain=104.716 32.2201 30.4723 13.9367 9.78684 6.81348 6.46062 4.70657 4.2371 2.32768 2.056 2.01955 1.98379 1.758 0.873447 0.556763
threshold=-0.15053710477811119 -1.9587592340241311 0.73763402072391859 0.18309841478358271 0.65040894376121916 -0.40670975174171614 -0.08589186453280688 0.15411979437152759 -0.52355929083941144 -0.87639430080391756 0.59786504094772297 0.29880146997253948 -0.26398650384955452 0.57171051615547464 -1.1047721263519772 -0.98620098153833091
decision_type=2 2 2 2 2 2 2 2 2 2 2 2 2 2 2 2
left_child=1 -1 3 7 6 8 12 14 -3 -10 -5 -8 -4 -7 -2 -11
right_child=2 5 4 10 -6 13 11 -9 9 15 -12 -13 -14 -15 -16 -17
leaf_value=-0.051887580969887319 0.0088743090756045039 0.0024380389302326682 0.026925067941159429 -0.017313262171605052 0.0066951465775254623 -0.016509193136072589 0.028949284767037002 0.020871019716235409 -0.019540685136596875 -0.01141803789072811 -0.0037802450179553297 0.042678220557990545 0.013168132696578752 -0.028173835221060074 0.00094514778811035597 -0.0053085416056823514
leaf_weight=21 27 26 21 22 22 33 20 26 23 27 20 27 20 21 25 33
leaf_count=21 27 26 21 22 22 33 20 26 23 27 20 27 20 21 25 33
internal_value=-7.98904e-05 -0.0169508 0.0134053 0.00291711 0.0248067 -0.0124023 0.0292878 0.0104347 -0.0080284 -0.0113421 -0.0109645 0.0369737 0.0203357 -0.0211446 0.00512892 -0.00812216
internal_weight=414 184 230 120 110 163 88 78 109 83 42 47 41 54 52 60
internal_count=414 184 230 120 110 163 88 78 109 83 42 47 41 54 52 60
is_linear=0
shrinkage=0.03


Tree=7
num_leaves=18
num_cat=0
split_feature=51 54 47 81 81 11 81 45 45 82 48 35 57 71 23 59 90
split_gain=103.412 34.5307 28.3643 14.0788 7.96589 5.85449 3.99841 3.25419 3.20893 3.11736 3.37636 2.46628 3.1706 1.88368 1.25773 0.98984 0.448178
threshold=-0.15053710477811119 -1.9587592340241311 0.67251162973927348 0.18309841478358271 0.24385608972243603 0.57906019320129543 0.0096584230996100522 0.4041248137818505 0.28703137184133737 -0.53745315121660575 0.78104937822867282 -0.52009890027910788 0.15411979437152287 0.72622528005778353 -0.089451622983885523 -0.60764756220975746 0.005878066156532801
decision_type=2 2 2 2 2 2 2 2 2 2 2 2 2 2 2 2 2
left_child=1 -1 3 6 11 8 -2 -5 9 -4 -11 14 15 -6 -3 -13 -8
right_child=2 4 5 7 13 -7 16 -9 -10 10 -12 12 -14 -15 -16 -17 -18
leaf_value=-0.050124325486293343 0.021021597911785171 -0.0083732348804157301 0.014058095999238615 -0.018810979750900785 -0.0161507189817943 0.0096208608567149717 0.0089505790044790701 -0.0023237180018721658 0.037479127800309812 0.019871078910420854 0.037756534334438943 -0.013554401709072624 0.0057346739557418798 -0.028642782932495173 -0.018827066720944443 -0.0046262778885201696 0.0033750935324078635
leaf_weight=25 23 24 21 22 24 21 27 22 23 21 20 20 20 24 21 29 30
leaf_count=25 23 24 21 22 24 21 27 22 23 21 20 20 20 24 21 29 30
internal_value=-0.000765376 -0.0173356 0.0126956 0.00292243 -0.0122293 0.0240865 0.0104338 -0.0106593 0.0276096 0.0238456 0.0287393 -0.00786019 -0.00422288 -0.0225057 -0.0133491 -0.00835169 0.0060797
internal_weight=417 187 230 124 162 106 80 44 85 62 41 114 69 48 45 49 57
internal_count=417 187 230 124 162 106 80 44 85 62 41 114 69 48 45 49 57
is_linear=0
shrinkage=0.03


Tree=8
num_leaves=16
num_cat=0
split_feature=51 47 54 86 11 81 33 73 57 37 68 77 35 16 26
split_gain=90.5122 22.9956 20.632 12.5316 9.1276 8.07806 4.89355 4.36971 3.39547 1.83872 1.34008 0.894815 0.730154 0.678957 0.298213
threshold=-0.15053710477811119 0.77314701488389548 -1.7440418263440571 -0.0056949155457438495 0.62883542195307618 0.24385608972243603 -0.08589186453280688 0.0026787645939376002 0.16574372315755123 0.069174017261347767 -0.71329212270542641 0.35045165331329875 0.18150147484445908 0.29113492293602355 -0.90249526434826055
decision_type=2 2 2 2 2 2 2 2 2 2 2 2 2 2 2
left_child=2 3 -1 -2 6 8 -3 -5 9 12 -7 -8 14 -9 -4
right_child=1 4 5 7 -6 10 11 13 -10 -11 -12 -13 -14 -15 -16
leaf_value=-0.043602546221837041 -0.012711386391490796 0.019611655769385689 -0.0069471801857872778 0.019768546498569611 0.0050181961849109441 -0.016445849713157202 0.038948698091316979 0.0074004594471348481 0.0036511169629755299 -0.017527869982956759 -0.027318996005799189 0.02887848770440514 -0.0030909149853449564 0.0004354197554179092 -0.01252765838286323
leaf_weight=21 30 38 22 27 20 22 25 39 20 22 25 20 25 20 21
leaf_count=21 30 38 22 27 20 22 25 39 20 22 25 20 25 20 21
internal_value=0.000190793 0.0131098 -0.0156856 0.00391236 0.0234252 -0.011907 0.0278132 0.00975421 -0.00740624 -0.00989805 -0.0223389 0.0346135 -0.00736341 0.00509492 -0.00976488
internal_weight=397 219 178 116 103 157 83 86 110 90 47 45 68 59 43
internal_count=397 219 178 116 103 157 83 86 110 90 47 45 68 59 43
is_linear=0
shrinkage=0.03


Tree=9
num_leaves=16
num_cat=0
split_feature=1 54 47 81 15 34 71 47 42 3 81 1 73 90 29
split_gain=94.1508 30.0181 19.0498 10.1739 7.4629 6.54783 6.36275 6.83684 3.58267 2.81354 1.98985 1.03808 0.761409 0.662214 0.122487
threshold=-0.22425712182208107 -1.9587592340241311 0.71321132917576735 0.009658423099610151 0.5242856109949019 -0.08589186453280688 1.2631081740671415 0.54552240920767747 0.82074335205976434 -0.016554424512867597 0.28137342545534177 -0.57144906206967738 0.030997920856568006 0.0026787645942980506 -0.38468947193083675
decision_type=2 2 2 2 2 2 2 2 2 2 2 2 2 2 2
left_child=1 -1 3 -2 12 8 7 10 -4 -7 11 14 13 -5 -3
right_child=2 6 5 4 -6 9 -8 -9 -10 -11 -12 -13 -14 -15 -16
leaf_value=-0.045882969779529791 0.022474028607467549 -0.014248366266933838 0.0042897447611765834 0.0070964943906640108 -0.011799753604882016 0.019444480707396322 -0.023347743049838915 0.0065941453979096627 0.02090391933917999 0.034073762369927041 -0.018148607224533233 -0.0049550678125504814 0.010801836818597893 -5.2662517222183003e-05 -0.009816979007489646
leaf_weight=26 23 20 21 24 31 20 31 23 28 37 29 37 21 21 20
leaf_count=26 23 20 21 24 31 20 31 23 28 37 29 37 21 21 20
internal_value=-0.000196824 -0.0160076 0.0128036 0.00457961 0.000286928 0.0220724 -0.0111084 -0.00812817 0.0138679 0.0290363 -0.0113541 -0.00873601 0.00601865 0.00370098 -0.0121375
internal_weight=412 186 226 120 97 106 160 129 49 57 106 77 66 45 40
internal_count=412 186 226 120 97 106 160 129 49 57 106 77 66 45 40
is_linear=0
shrinkage=0.03


Tree=10
num_leaves=17
num_cat=0
split_feature=48 54 47 77 11 81 92 19 37 3 58 70 1 27 2 49
split_gain=77.6175 23.9009 21.6111 10.6026 7.38999 7.37227 5.57392 4.02889 3.40331 3.32113 1.82149 1.23151 0.992143 0.636706 0.483106 0.311918
threshold=-0.11221314794326755 -1.9587592340241311 0.5303630906581549 0.13076622413017033 0.57906019320129543 0.36942798129444737 13.500000000000002 -0.82077766584641865 0.069174017261350709 -0.3432111714838128 0.034433174470440607 -1.7100361646917275 -0.51144101711941004 -1.0760226462545306 -0.30263149874010603 0.028662067527892503
decision_type=2 2 2 2 2 2 2 2 2 2 2 2 2 2 2 2
left_child=1 -1 3 7 9 6 8 -2 12 14 -11 -7 -3 -9 -4 -14
right_child=2 5 4 -5 -6 11 -8 13 -10 10 -12 -13 15 -15 -16 -17
leaf_value=-0.043218676264252139 0.019414248353448401 -0.010273378833123315 0.016042623760095284 -0.0097656069958025234 0.0065404174642055826 -0.014840449326998227 0.0052598227529579225 0.0076510795636243554 -0.018329539231134052 0.025172443656779044 0.038741609351667337 -0.025440871640028454 -0.005418105797541083 0.00030988233122251815 0.023486823106740974 -0.00056611602053364019
leaf_weight=21 26 34 20 37 22 23 30 25 28 20 22 22 33 20 23 21
leaf_count=21 26 34 20 37 22 23 30 25 28 20 22 22 33 20 23 21
internal_value=0 -0.0128728 0.0127028 0.00319777 0.0222568 -0.00949976 -0.00618991 0.00999976 -0.00917887 0.0262768 0.0324265 -0.0201343 -0.00621574 0.00446277 0.0201393 -0.00359121
internal_weight=427 212 215 108 107 191 146 71 116 85 42 45 88 45 43 54
internal_count=427 212 215 108 107 191 146 71 116 85 42 45 88 45 43 54
is_linear=0
shrinkage=0.03


Tree=11
num_leaves=17
num_cat=0
split_feature=48 54 47 19 81 11 25 15 37 72 48 92 1 55 49 1
split_gain=75.5721 23.8697 17.9728 9.72688 7.10871 5.1258 4.25194 3.83189 2.61771 2.55923 3.15013 1.42141 1.20828 0.534926 0.509918 0.178586
threshold=-0.11221314794326755 -1.9587592340241311 0.5303630906581549 -0.70342382731056363 0.3045293715087623 0.57906019320129543 0.49182035074913427 0.37687316431811085 0.069174017261350709 -0.5323718711586084 0.70002626706642379 8.5000000000000018 -0.45979626170861837 1.5375858001752147 0.028662067527892503 -0.62749112803029239
decision_type=2 2 2 2 2 2 2 2 2 2 2 2 2 2 2 2
left_child=1 -1 3 -2 6 9 8 -5 12 -4 -11 -6 15 -12 -14 -3
right_child=2 4 5 7 11 -7 -8 -9 -10 10 13 -13 14 -15 -16 -17
leaf_value=-0.043072747907367356 0.016240407216086609 -0.01108365265749009 0.014681005557971213 0.0046095766548750099 -0.014086182058055535 0.0077256371469294283 0.0066008897431159468 -0.0097213873372173285 -0.01708941358250457 0.018635611187414344 0.036785807095432728 -0.024532057201707511 -0.0049095138396407952 0.028062194710347186 0.0013073279120639633 -0.0066664041469306178
leaf_weight=21 36 25 20 31 30 21 21 36 23 25 21 23 27 20 20 21
leaf_count=21 36 25 20 31 30 21 21 36 23 25 21 23 27 20 20 21
internal_value=-7.09084e-05 -0.0127553 0.0126596 0.00367308 -0.00936772 0.0212706 -0.00571931 -0.00304895 -0.0079793 0.0245305 0.027443 -0.0187135 -0.0056781 0.032682 -0.0022032 -0.00915099
internal_weight=421 211 210 103 190 107 137 67 116 86 66 53 93 41 47 46
internal_count=421 211 210 103 190 107 137 67 116 86 66 53 93 41 47 46
is_linear=0
shrinkage=0.03


Tree=12
num_leaves=17
num_cat=0
split_feature=1 54 47 73 35 81 93 62 86 37 61 12 35 16 70 26
split_gain=74.8187 26.2014 20.191 7.78773 4.33568 4.33271 5.05594 3.44491 3.35057 2.33378 1.70344 1.65428 0.644215 0.621754 0.41411 0.235221
threshold=-0.15053710477811119 -1.9587592340241311 0.71321132917576735 0.0042775131986107001 0.72066351769972969 0.36942798129444737 -0.25881904510252113 -0.61219105945021646 -0.040776461385759445 0.069174017261354012 0.13552977714465622 0.29428287267614089 0.14920589628861317 0.25972909169197 -1.7685612586528134 -1.057014304382321
decision_type=2 2 2 2 2 2 2 2 2 2 2 2 2 2 2 2
left_child=1 -1 3 11 7 6 -3 -4 -5 12 -9 -2 15 -10 -7 -8
right_child=2 5 4 8 -6 14 9 10 13 -11 -12 -13 -14 -15 -16 -17
leaf_value=-0.043355232585560184 0.0078879746394370925 0.0052964594837106851 0.0071030513697595736 -0.011284788180436335 0.032163837174503829 -0.013852559746053702 -0.0063387408994787465 0.017312098825089283 0.0048305233132429244 -0.017687359382997408 0.028911981345352961 0.020484178020660555 -0.0030265560006769204 -0.0018195780989394255 -0.02039317514989283 -0.010922488982779276
leaf_weight=23 20 26 20 24 28 24 24 32 32 24 21 20 28 20 23 28
leaf_count=23 20 26 20 24 28 24 24 32 32 24 21 20 28 20 23 28
internal_value=-2.4107e-05 -0.0132643 0.0121655 0.00359004 0.0219717 -0.00931501 -0.00644704 0.0179827 -0.00201678 -0.009414 0.0220106 0.0142963 -0.00687555 0.00221663 -0.0171535 -0.00888072
internal_weight=417 200 217 116 101 177 130 73 76 104 53 40 80 52 47 52
internal_count=417 200 217 116 101 177 130 73 76 104 53 40 80 52 47 52
is_linear=0
shrinkage=0.03


Tree=13
num_leaves=18
num_cat=0
split_feature=51 50 47 81 11 81 43 57 66 53 45 35 1 70 27 93 30
split_gain=64.5695 19.0419 18.0366 9.43376 6.31553 4.8013 4.19714 3.93609 3.6267 2.98599 2.61272 1.92798 1.23732 0.879488 0.509611 0.413889 0.248039
threshold=-0.15053710477811119 -1.5782965923179144 0.71321132917576735 0.19217434903133726 0.62883542195307618 0.24385608972243603 1.5609188169138937 0.15411979437152826 -0.78248152884847577 0.14767935946174643 0.39224910249822226 -0.2716696071414535 -0.49182100546900837 -1.7685612586528134 -1.1047721263519772 0.78656609248549325 -0.30039348873963972
decision_type=2 2 2 2 2 2 2 2 2 2 2 2 2 2 2 2 2
left_child=1 -1 3 7 6 9 8 14 -4 12 -5 -10 15 -7 -2 -3 -14
right_child=2 5 4 10 -6 13 -8 -9 11 -11 -12 -13 16 -15 -16 -17 -18
leaf_value=-0.038309622112806731 0.0074502722289144377 -0.014472235150604326 0.036705937838662259 -0.01660669382828385 0.004390900545351877 -0.012850765029424453 0.010735103648985731 0.018921686518720941 0.026866015849164367 0.004274400637365912 -0.00129909249349228 0.014274663021214199 -0.0024251299062434482 -0.02170485772095717 0.001838826139195853 -0.0084543976564516975 -0.0070973522760974829
leaf_weight=23 29 24 22 20 21 24 21 24 28 21 21 21 27 23 33 26 20
leaf_count=23 29 24 22 20 21 24 21 24 28 21 21 21 27 23 33 26 20
internal_value=0.000402474 -0.0127521 0.0107204 0.00293057 0.0194385 -0.0091503 0.0228322 0.00859095 0.0263478 -0.00587323 -0.00886145 0.0215709 -0.00810318 -0.0172842 0.00451961 -0.011426 -0.00448785
internal_weight=428 188 240 127 113 165 92 86 71 118 41 49 97 47 62 50 47
internal_count=428 188 240 127 113 165 92 86 71 118 41 49 97 47 62 50 47
is_linear=0
shrinkage=0.03


Tree=14
num_leaves=16
num_cat=0
split_feature=51 54 47 81 9 56 65 93 81 26 53 0 26 2 13
split_gain=69.5483 20.1414 16.4639 8.20008 5.83872 6.80686 4.61762 4.09146 2.54401 1.33567 1.09763 0.750153 0.387209 0.270178 0.0358206
threshold=-0.17993945261890326 -1.5782965923179144 0.77314701488389548 0.20474176088220672 1.0133912758394821 1.0356627287786087 0.27081532724920576 -0.60355339059327362 0.0096584230996100522 0.74416190812307625 0.079968834583277013 0.066858271028306812 -1.5177095531418188 0.3607032995826619 -0.69618187665816722
decision_type=2 2 2 2 2 2 2 2 2 2 2 2 2 2 2
left_child=1 -1 3 8 7 -6 9 -4 -2 10 12 13 -3 -10 -14
right_child=2 6 4 -5 5 -7 -8 -9 11 -11 -12 -13 14 -15 -16
leaf_value=-0.037708782793364065 0.017002589838071302 -0.003389714556231872 0.016855162038016562 -0.0082493199208589982 -0.00025408669483739058 0.023212484689120429 -0.02039810967009725 0.032721951697528173 0.00032686769439758755 -0.013819169423698839 0.00044556207200115042 0.0096692857920349408 -0.010215640770855235 0.0052997791188866333 -0.0075007405877113341
leaf_weight=28 23 20 29 38 23 21 30 33 22 22 21 23 20 20 32
leaf_count=28 23 20 29 38 23 21 30 33 22 22 21 23 20 20 32
internal_value=-1.91982e-05 -0.0144185 0.0107069 0.00334314 0.0194203 0.0109051 -0.00987751 0.0253878 0.00838672 -0.0070916 -0.00545478 0.0052705 -0.00721555 0.00277314 -0.00862012
internal_weight=405 173 232 126 106 44 145 62 88 115 93 65 72 42 52
internal_count=405 173 232 126 106 44 145 62 88 115 93 65 72 42 52
is_linear=0
shrinkage=0.03


Tree=15
num_leaves=17
num_cat=0
split_feature=48 54 47 53 11 71 3 47 53 23 35 77 1 2 27 1
split_gain=60.6957 22.924 14.7795 8.56049 5.97845 4.87704 4.14429 3.97957 3.57477 2.27989 2.05032 1.05743 0.691138 0.294203 0.116548 0.0579085
threshold=-0.11221314794326755 -1.9587592340241311 0.5303630906581549 0.079968834583287254 0.61259797719491349 1.2631081740671415 -0.3432111714838128 0.64613576118853133 0.079968834583280662 -0.7477814801659769 0.14920589628861317 0.081981348488746414 -0.62749112803029239 -0.40137439637303229 -0.90351403334644875 -0.82077766584641865
decision_type=2 2 2 2 2 2 2 2 2 2 2 2 2 2 2 2
left_child=1 -1 3 8 6 7 13 10 14 -8 11 12 15 -4 -2 -3
right_child=2 5 4 -5 -6 -7 9 -9 -10 -11 -12 -13 -14 -15 -16 -17
leaf_value=-0.039756015084096499 0.0057865148897513034 -0.012854239999965468 0.012008772092079048 -0.0088095297007344843 0.0044839809897851621 -0.018796415706970823 0.036359649843244406 0.0044392847483870623 0.019600357484461654 0.021557959663382479 -0.00064919998275628124 -0.016544628586814301 -0.0050255083403523138 0.017843435002988076 0.0024390770849811519 -0.0093680204885982273
leaf_weight=24 27 21 20 38 23 34 20 26 20 22 25 21 31 25 21 22
leaf_count=24 27 21 20 38 23 34 20 26 20 22 25 21 31 25 21 22
internal_value=-0.000500977 -0.0122398 0.0105724 0.00254103 0.0182751 -0.00853431 0.0218772 -0.00611275 0.00893166 0.0287473 -0.00842579 -0.0104379 -0.00864441 0.0153491 0.0043925 -0.0111661
internal_weight=420 204 216 106 110 180 87 146 68 42 120 95 74 45 48 43
internal_count=420 204 216 106 110 180 87 146 68 42 120 95 74 45 48 43
is_linear=0
shrinkage=0.03


Tree=16
num_leaves=18
num_cat=0
split_feature=51 11 47 81 11 79 44 25 82 51 26 90 69 37 8 1 49
split_gain=66.3024 23.987 20.0511 8.00399 6.28112 4.86605 3.13788 2.64842 2.64802 2.59847 2.14039 2.21064 0.866692 0.67139 0.303546 0.29331 0.0602576
threshold=-0.17993945261890326 1.2485801741187619 0.77314701488389548 0.20474176088220672 0.62883542195307618 2.4393281748053703 0.60628845150200295 0.76865378924001082 -0.53745315121660575 0.85559900880159956 0.62325185143324979 -0.0042775131979577484 0.16916859503615372 0.069174017261341661 -0.19577142593779354 -0.52850231876543685 0.022524464119936301
decision_type=2 2 2 2 2 2 2 2 2 2 2 2 2 2 2 2 2
left_child=1 5 3 7 6 10 -4 12 -8 -10 11 -1 14 15 -2 -13 -17
right_child=2 -3 4 -5 -6 -7 8 -9 9 -11 -12 13 -14 -15 -16 16 -18
leaf_value=0.0030808120936929402 0.0035882237096050464 -0.041990094246802383 0.033021649859258248 -0.0091734378256727103 0.0050595764643667149 -0.022769591726398013 0.011419085279687657 0.014450104222228673 0.016343774626504128 0.032068178896655399 -0.0137011542228552 -0.008628423955485718 -0.0011920084328483349 -0.011948753055943622 0.0089342663670653726 -0.0052577095003842732 -0.0024795824326157788
leaf_weight=23 24 23 24 37 21 21 23 31 20 21 35 21 21 22 20 21 20
leaf_count=23 24 23 24 37 21 21 23 31 20 21 35 21 21 22 20 21 20
internal_value=0.000120107 -0.0133372 0.010477 0.00262936 0.0200138 -0.00925252 0.0235386 0.00721438 0.0198897 0.0245292 -0.00721779 -0.00505824 0.00370052 -0.00732348 0.00610102 -0.00561734 -0.00398485
internal_weight=428 186 242 133 109 163 88 96 64 41 142 107 65 84 44 62 41
internal_count=428 186 242 133 109 163 88 96 64 41 142 107 65 84 44 62 41
is_linear=0
shrinkage=0.03


Tree=17
num_leaves=17
num_cat=0
split_feature=51 47 71 19 19 55 15 86 92 52 1 25 34 73 37 15
split_gain=57.4306 16.0657 14.2579 7.49423 6.08807 4.9635 3.72623 3.46176 3.1626 1.93818 1.15052 1.08532 0.785088 0.566151 0.183468 0.10944
threshold=-0.15053710477811119 0.71321132917576735 1.1233155289083323 -0.80326671516624104 1.0000000180025095e-35 -0.80326671516624104 0.5242856109949019 0.028662067528033953 10.500000000000002 0.99159173611932439 0.54665521551714358 0.311132000749409 -0.3598024916626224 0.030997920856568006 0.022399784039139451 -0.57144906206967738
decision_type=2 2 2 2 2 2 2 2 2 2 2 2 2 2 2 2
left_child=2 3 5 -2 7 11 13 9 12 -3 -8 -1 14 -5 -7 -14
right_child=1 4 -4 6 -6 8 10 -9 -10 -11 -12 -13 15 -15 -16 -17
leaf_value=-0.011819256247438457 0.01532871202469986 0.021956881545616633 -0.028899770894828262 0.0013731479640934883 0.0043193415653516795 -0.0018164426295621901 -0.013160177411428137 0.029104612716070309 0.0054259690665692606 0.0094931142010959962 -0.0031959566418313379 -0.022066831268481354 -0.0081353000928115135 0.0080888074080880251 -0.0058958347092255455 -0.011887851024125989
leaf_weight=22 32 28 36 29 22 20 20 38 22 21 24 20 27 20 27 21
leaf_count=22 32 28 36 29 22 20 20 38 22 21 24 20 27 20 27 21
internal_value=0.000170088 0.0101952 -0.0118437 0.00282217 0.0186126 -0.00794735 -0.00146078 0.0221835 -0.00472822 0.0167066 -0.00781275 -0.0168111 -0.00711449 0.00418622 -0.00423116 -0.00986071
internal_weight=429 234 195 125 109 159 93 87 117 49 44 42 95 49 47 48
internal_count=429 234 195 125 109 159 93 87 117 49 44 42 95 49 47 48
is_linear=0
shrinkage=0.03


Tree=18
num_leaves=18
num_cat=0
split_feature=48 11 47 19 11 81 53 15 33 73 66 66 86 35 86 9 37
split_gain=56.6946 20.4884 13.8461 8.19758 5.09169 4.17971 4.71266 3.4166 3.27496 1.75046 1.21494 0.94145 0.749021 0.607698 0.344378 0.254621 0.0969651
threshold=-0.11221314794326755 1.2485801741187619 0.5303630906581549 -0.82077766584641865 0.61259797719491349 0.39112606440132341 0.15504046980411859 0.37687316431811085 -0.076244002817304937 0.032571490443781506 -0.54499236377205851 -1.4152645414968843 -0.10991167572091924 0.14920589628861317 0.082872617013071206 -1.3809917527380173 0.036540185633234856
decision_type=2 2 2 2 2 2 2 2 2 2 2 2 2 2 2 2 2
left_child=1 5 3 -2 8 6 9 -5 10 13 -4 -7 -9 15 -10 -1 -17
right_child=2 -3 4 7 -6 11 -8 12 14 -11 -12 -13 -14 -15 -16 16 -18
leaf_value=-0.010016837321318589 0.017671089329938779 -0.037598437411444523 0.0096563614704715667 0.0045690598106369034 0.0047148447350479688 -0.011240677628581879 0.007941328997578101 -0.012032603875024995 0.023512126249724648 -0.015313521598187666 0.019825053500323105 -0.020828451852300273 -0.0035262215459969499 -0.0020238201365202746 0.030560381954366507 -0.0040465096829386494 -0.0073026551083657746
leaf_weight=23 26 23 20 39 21 22 21 20 21 21 28 20 20 31 23 23 24
leaf_count=23 26 23 20 39 21 22 21 20 21 21 28 20 20 31 23 23 24
internal_value=0.000271997 -0.0109224 0.0109667 0.00308405 0.0182556 -0.00757116 -0.00508981 -0.0016951 0.0213054 -0.00736211 0.0156794 -0.0159162 -0.00787363 -0.00566566 0.0273254 -0.00723049 -0.00578489
internal_weight=426 208 218 105 113 185 143 79 92 122 48 42 40 101 44 70 47
internal_count=426 208 218 105 113 185 143 79 92 122 48 42 40 101 44 70 47
is_linear=0
shrinkage=0.03


Tree=19
num_leaves=16
num_cat=0
split_feature=51 47 58 77 19 3 55 2 71 92 33 0 19 1 1
split_gain=50.7188 13.9583 12.8747 5.41915 4.10228 2.93794 2.62472 2.40778 2.39858 1.70885 0.932976 0.771212 0.505861 0.440495 0.0401102
threshold=-0.15053710477811119 0.77314701488389548 -2.1198173648593173 0.23369981557946368 -0.033360922137163643 -0.53745315121660575 0.93425645352894393 1.3396161373826838 1.1010729890469175 10.500000000000002 -0.22685871430209961 0.066858271028306812 -0.43918883259316782 -0.56477915491421549 -0.38000734444392653
decision_type=2 2 2 2 2 2 2 2 2 2 2 2 2 2 2
left_child=2 3 -1 7 5 -3 -7 11 9 10 13 12 -2 -4 -15
right_child=1 4 8 -5 -6 6 -8 -9 -10 -11 -12 -13 -14 14 -16
leaf_value=-0.032600284403535566 0.0051552308400236594 0.011025641338149112 -0.0085889651595204581 -0.0084015166356470241 0.0067564503113321907 0.017069303143298489 0.030174003663735509 0.015866968271447651 -0.015714571733039671 0.0016085065186802129 -0.011689531587240263 0.0084916402447920338 -0.0010226877123631279 -0.0047811757744132691 -0.0024833587107008395
leaf_weight=22 21 20 31 28 23 26 35 20 31 20 38 23 26 23 22
leaf_count=22 21 20 31 28 23 26 35 20 31 20 38 23 26 23 22
internal_value=0.000453961 0.0101548 -0.0110458 0.00305744 0.0181682 0.0213592 0.0246746 0.00666111 -0.00813572 -0.00634962 -0.00777226 0.00396919 0.00167905 -0.00576142 -0.00373231
internal_weight=409 222 187 118 104 81 61 90 165 134 114 70 47 76 45
internal_count=409 222 187 118 104 81 61 90 165 134 114 70 47 76 45
is_linear=0
shrinkage=0.03


Tree=20
num_leaves=15
num_cat=0
split_feature=1 11 47 81 49 11 53 51 49 3 27 24 8 37
split_gain=47.1883 18.7262 7.44402 5.23805 4.68559 4.02595 3.69389 2.92617 1.79614 1.65826 1.26648 0.65262 0.462104 0.187727
threshold=0.14736993362845968 1.1576146927275375 0.77314701488389548 0.39112606440132341 0.050839262509190505 0.57906019320129543 0.15504046980412031 -0.17993945261890326 0.042745140089944858 -0.13667425949773673 -1.0119061332411377 0.049945778731554556 -1.2467789015021882 0.036540185633234856
decision_type=2 2 2 2 2 2 2 2 2 2 2 2 2 2
left_child=1 3 4 6 8 9 7 10 -2 -4 -1 -5 -12 -14
right_child=2 -3 5 11 -6 -7 -8 -9 -10 -11 12 -13 13 -15
leaf_value=-0.013876883426269925 0.0053251101786025174 -0.034327374378922568 0.015858710049054557 -0.0099927640212820728 -0.0050673520559730055 0.0052841528181209038 0.0084055729621826704 0.0032575564506360961 0.016909078800282772 0.025584504487168074 -0.0099293848827703667 -0.017129945155356943 -0.002867884206123794 -0.0063094542684614466
leaf_weight=23 31 24 35 23 28 20 20 28 21 35 20 33 36 31
leaf_count=23 31 24 35 23 28 20 20 28 21 35 20 33 36 31
internal_value=-0.000597053 -0.00922522 0.0114631 -0.0063813 0.00474407 0.0173903 -0.00355725 -0.00531755 0.0100843 0.020794 -0.00752853 -0.0142751 -0.00580178 -0.00451199
internal_weight=408 238 170 214 80 90 158 138 52 70 110 56 87 67
internal_count=408 238 170 214 80 90 158 138 52 70 110 56 87 67
is_linear=0
shrinkage=0.03


Tree=21
num_leaves=17
num_cat=0
split_feature=51 11 47 31 24 14 57 81 19 27 53 17 22 1 51 28
split_gain=47.8655 18.9498 12.937 6.61399 3.91228 4.55386 3.22262 3.16053 3.15581 2.30435 2.61502 1.05601 0.726359 0.383818 0.381208 0.0615728
threshold=-0.15053710477811119 1.2485801741187619 0.62869102271101818 0.64510788532188446 -0.36211008560765234 0.61918947041656847 0.29880146997253054 0.3045293715087623 -0.82077766584641865 -0.94075198783834368 0.079968834583277817 0.17629049595961158 -1.252185882944292 -0.56477915491421549 0.17629049595961158 -0.32180233011172626
decision_type=2 2 2 2 2 2 2 2 2 2 2 2 2 2 2 2
left_child=1 7 3 8 6 -6 -4 9 -2 -1 13 14 -9 -11 -10 -15
right_child=2 -3 4 -5 5 -7 -8 12 11 10 -12 -13 -14 15 -16 -17
leaf_value=-0.013416094608690546 0.014643087607820003 -0.035784369949325615 0.014890985758895546 -0.012959815966664935 0.020611165791416343 0.0018934612206577021 0.029063139348892264 -0.010726855416576583 0.0021986435235223987 -0.0081877382368732987 0.0057324724949525492 -0.0023204686615577673 -0.019050377146892637 -0.0025211397006999529 0.0081095000334195227 -0.0052154001148778991
leaf_weight=26 24 25 35 22 20 29 27 23 23 37 22 29 21 24 20 20
leaf_count=26 24 25 35 22 20 29 27 23 23 37 22 29 21 24 20 20
internal_value=-0.000581476 -0.011387 0.0087491 0.00180144 0.0160996 0.00962086 0.0211479 -0.00782542 0.00522542 -0.00541306 -0.00335273 0.00202863 -0.0148017 -0.00586133 0.00502992 -0.00382288
internal_weight=427 198 229 118 111 49 62 173 96 129 103 72 44 81 43 44
internal_count=427 198 229 118 111 49 62 173 96 129 103 72 44 81 43 44
is_linear=0
shrinkage=0.03


Tree=22
num_leaves=16
num_cat=0
split_feature=51 47 54 49 11 81 7 93 49 93 70 35 93 73 9
split_gain=37.4919 11.4031 11.2005 4.67169 4.14631 2.7874 2.50078 3.44809 2.05828 2.00002 0.766337 0.629555 0.449527 0.243267 0.0286567
threshold=-0.17993945261890326 0.62869102271101818 -1.5782965923179144 0.050839262509190505 0.61259797719491349 0.24385608972243603 1.3109301698069074 -0.60355339059327362 0.042745140089941062 -0.25881904510252113 -1.7685612586528134 0.054616543490906659 0.60355339059327384 0.030997920856563103 -1.0974099517350726
decision_type=2 2 2 2 2 2 2 2 2 2 2 2 2 2 2
left_child=2 3 -1 8 6 9 7 -3 13 -4 -7 12 -11 -2 -14
right_child=1 4 5 -5 -6 10 -8 -9 -10 11 -12 -13 14 -15 -16
leaf_value=-0.029228905590243354 0.00083125720408342753 0.013729153498211789 0.0039914517192197818 -0.0073071845290650951 0.0040255445201738248 -0.0088503016929281243 0.010076319695231449 0.028525036122197298 0.013535331157942162 -0.011817360876295804 -0.017032162915188002 -0.0023283615218670822 -0.0072214893735415564 0.0051620123791160863 -0.0046964652969766017
leaf_weight=24 33 28 20 36 24 22 25 32 22 21 25 26 21 20 20
leaf_count=24 33 28 20 36 24 22 25 32 22 21 25 26 21 20 20
internal_value=2.70867e-05 0.00832797 -0.0101573 0.00152667 0.0152188 -0.00716802 0.0183356 0.0217045 0.00581094 -0.00446495 -0.013293 -0.00642326 -0.00808565 0.00252865 -0.00607719
internal_weight=399 220 179 111 109 155 85 60 75 108 47 88 62 53 41
internal_count=399 220 179 111 109 155 85 60 75 108 47 88 62 53 41
is_linear=0
shrinkage=0.03


Tree=23
num_leaves=15
num_cat=0
split_feature=1 54 47 77 86 71 2 58 43 24 46 27 12 37
split_gain=41.6524 13.1654 9.83804 4.75319 4.54282 4.04366 2.33982 2.27828 1.8725 1.03955 0.591694 0.387582 0.220939 0.161746
threshold=-0.22425712182208107 -2.1198173648593173 0.60391818709623557 0.13076622413017033 0.028662067528033953 1.249067238035966 1.3930231683919505 0.034433174470440607 0.53361865209584936 -0.15579814817843754 -1.0828716277720296 -1.1047721263519772 -0.51144101711941004 0.022399784039142102
decision_type=2 2 2 2 2 2 2 2 2 2 2 2 2 2
left_child=1 -1 3 6 9 8 11 -6 10 -4 13 -2 -12 -3
right_child=2 5 4 -5 7 -7 -8 -9 -10 -11 12 -13 -14 -15
leaf_value=-0.034161582202164094 0.0055956608879155125 -0.0071417087850286004 0.011692349021239659 -0.0075928101937351271 0.015414376126550066 -0.018349537446941296 0.014807025929217907 0.028432592647108013 0.0024587860992595326 0.0032964027898883383 -0.0067318156648711897 0.00058389008855531585 -0.0024141081316634938 -0.011297404649101684
leaf_weight=20 26 20 39 33 32 29 20 22 20 22 30 33 21 32
leaf_count=20 26 20 39 33 32 29 20 22 20 22 30 33 21 32
internal_value=-0.000150595 -0.0112897 0.00827766 0.00191501 0.0144412 -0.00824004 0.00592914 0.0208163 -0.00581916 0.00872375 -0.00745645 0.00284896 -0.00502085 -0.00977342
internal_weight=399 172 227 112 115 152 79 54 123 61 103 59 51 52
internal_count=399 172 227 112 115 152 79 54 123 61 103 59 51 52
is_linear=0
shrinkage=0.03


Tree=24
num_leaves=17
num_cat=0
split_feature=51 54 47 81 11 7 93 45 81 81 92 35 93 0 34 1
split_gain=38.0816 16.9402 9.95685 5.19053 4.05401 2.76365 3.13561 2.55095 2.40371 1.75595 1.07911 0.740226 0.586621 0.428257 0.303886 0.0682903
threshold=-0.15053710477811119 -2.1198173648593173 0.77314701488389548 0.18309841478358271 0.62883542195307618 1.3109301698069074 -0.60355339059327362 0.4041248137818505 0.0096584230996098527 0.3045293715087623 13.500000000000002 0.18150147484445908 0.60355339059327384 0.066858271028306812 0.21514028039733354 -0.56477915491421549
decision_type=2 2 2 2 2 2 2 2 2 2 2 2 2 2 2 2
left_child=1 -1 3 8 5 6 -4 -5 -2 10 11 12 -3 -10 -11 -14
right_child=2 9 4 7 -6 -7 -8 -9 13 14 -12 -13 15 -15 -16 -17
leaf_value=-0.034995445586493791 0.015927513229535586 -0.011401987876075197 0.013125974405490631 -0.013461607777959361 0.002860533135691525 0.008951045200525528 0.026804420218634793 0.0013636820092658274 0.0018364463653653628 -0.013853256311909905 0.00089911244453424468 -0.0016654140958885638 -0.006946405005131372 0.0070809898754249471 -0.0082585617588527161 -0.004098375301765299
leaf_weight=21 20 25 28 21 21 25 37 20 39 26 25 28 22 24 20 26
leaf_count=21 20 25 28 21 21 25 37 20 39 26 25 28 22 24 20 26
internal_value=0.000274254 -0.00959024 0.00838912 0.00251386 0.0149173 0.017691 0.0209875 -0.00617104 0.00684236 -0.00645247 -0.00457497 -0.00595916 -0.00756051 0.00388997 -0.011509 -0.00547782
internal_weight=428 193 235 124 111 90 65 41 83 172 126 101 73 63 46 48
internal_count=428 193 235 124 111 90 65 41 83 172 126 101 73 63 46 48
is_linear=0
shrinkage=0.03


Tree=25
num_leaves=18
num_cat=0
split_feature=48 11 47 53 11 81 53 3 53 1 21 29 70 2 32 55 27
split_gain=34.7662 12.7634 11.593 4.47271 3.49814 2.63686 3.10023 2.2378 1.59674 1.19947 0.925085 0.57633 0.456468 0.450522 0.381405 0.140588 0.123807
threshold=-0.11221314794326755 1.2485801741187619 0.5303630906581549 0.079968834583287254 0.61259797719491349 0.48308771174419579 0.15504046980411706 -0.3432111714838128 0.079968834583279913 -0.49182100546900837 -0.96698661189660717 -0.30231938919214579 -1.8440818949873556 -0.3588283653111361 0.078947822371530765 -0.69290996625764079 -1.1047721263519772
decision_type=2 2 2 2 2 2 2 2 2 2 2 2 2 2 2 2 2
left_child=1 5 3 8 7 6 9 13 16 14 -9 -11 -7 -4 15 -1 -2
right_child=2 -3 4 -5 -6 12 -8 10 -10 11 -12 -13 -14 -15 -16 -17 -18
leaf_value=-0.0089217725908594427 0.0045746242774153184 -0.030805289595612979 0.0090170719641358092 -0.0066885024897811937 0.0039005160242763914 -0.0092511013950874552 0.0067394035876686895 0.02783842061437777 0.013056428114667323 0 0.018518788859619363 -0.0062621718975483564 -0.016335558926881245 0.015892029218544247 -0.012343938550842341 -0.0050480285909846115 0.001188014928892545
leaf_weight=22 22 21 20 38 20 20 20 20 21 32 28 22 20 22 20 24 23
leaf_count=22 22 21 20 38 20 20 20 20 21 32 28 22 20 22 20 24 23
internal_value=0.000257828 -0.00869201 0.00867813 0.00146207 0.0154658 -0.0060798 -0.00410193 0.0179954 0.00620322 -0.00593791 0.0225141 -0.00253606 -0.0129 0.0127187 -0.0086678 -0.0069811 0.00291668
internal_weight=415 201 214 104 110 180 140 90 66 120 48 54 40 42 66 46 45
internal_count=415 201 214 104 110 180 140 90 66 120 48 54 40 42 66 46 45
is_linear=0
shrinkage=0.03


Tree=26
num_leaves=17
num_cat=0
split_feature=1 11 1 69 19 7 81 34 53 33 13 55 32 13 26 59
split_gain=33.073 12.9701 8.06994 3.72573 3.43034 3.54405 2.95226 2.28923 1.5968 1.42703 0.830952 0.773737 0.722238 0.326519 0.13893 0.041666
threshold=-0.31001004467052229 1.2882295254416694 0.61220592263873053 0.38650996591967762 -0.78990906405724071 0.045100961050301501 0.64890118240339079 -0.19748377586839491 0.15504046980411282 -0.27416712617427635 1.0484480616107927 0.058298119243082355 0.054616543490906659 -0.69618187665816722 -0.23675969717717477 -0.45979626170861837
decision_type=2 2 2 2 2 2 2 2 2 2 2 2 2 2 2 2
left_child=1 6 3 7 -4 -6 8 9 12 11 -7 -2 13 -1 -13 -15
right_child=2 -3 4 -5 5 10 -8 -9 -10 -11 -12 14 -14 15 -16 -17
leaf_value=-0.0080394850531194956 0.00029168308111116644 -0.033309591719463683 0.019838722690822569 -0.009299979157649076 -0.0020475689149392182 0.016455640179479692 -0.015935721681049012 0.01282884916281813 0.0017153348524241423 -0.0049804896850280146 0.0083407968965927091 0.0044881200235048343 -0.012328517583768758 -0.0051356484906166381 0.0082266401467730073 -0.0028256140941702035
leaf_weight=35 36 20 38 23 20 27 31 21 22 21 24 27 20 22 21 25
leaf_count=35 36 20 38 23 20 27 31 21 22 21 24 27 20 22 21 25
internal_value=-0.00051594 -0.0105861 0.00630442 0.00174051 0.0125083 0.00852046 -0.0076151 0.00378541 -0.0054996 0.00193769 0.0127194 0.00370678 -0.00708531 -0.00575648 0.0061998 -0.00397921
internal_weight=433 175 258 149 109 71 155 126 124 105 51 84 102 82 48 47
internal_count=433 175 258 149 109 71 155 126 124 105 51 84 102 82 48 47
is_linear=0
shrinkage=0.03


Tree=27
num_leaves=16
num_cat=0
split_feature=51 54 47 81 34 71 90 45 25 74 38 1 27 17 45
split_gain=30.3651 14.7518 9.02752 4.3634 2.3845 2.07267 1.82336 1.73972 1.60679 1.37581 1.31801 0.700752 0.506692 0.186758 0.0851882
threshold=-0.17993945261890326 -1.5782965923179144 0.77314701488389548 0.20474176088220672 -0.08589186453280688 1.1010729890469175 -0.0099552376637140477 0.4041248137818505 0.76865378924001082 -0.016554424512867597 1.0479321603233378 -0.74671023944239112 -1.1047721263519772 -0.45096084067685543 0.13174751291573028
decision_type=2 2 2 2 2 2 2 2 2 2 2 2 2 2 2
left_child=1 -1 3 8 10 6 -3 -5 12 -6 -4 -8 -2 14 -13
right_child=2 5 4 7 9 -7 11 -9 -10 -11 -12 13 -14 -15 -16
leaf_value=-0.030831505778538753 0.0051707701226905997 0.0038363899918856898 0.0025154379232605888 -0.011972252837807883 0.011299083272912607 -0.013606754692058281 -0.009565648710972402 9.3347952603848992e-05 0.010920879354125985 0.021682943490962694 0.013166946109647078 -0.0019918152135033214 -0.00024839836019139309 -0.006861785757007883 -0.0046330874380599921
leaf_weight=25 31 20 20 22 20 27 34 20 32 35 24 31 29 20 25
leaf_count=25 31 20 20 22 20 27 34 20 32 35 24 31 29 20 25
internal_value=-0.000258612 -0.00944453 0.00690476 0.00180039 0.0137746 -0.00600241 -0.00439074 -0.0061689 0.00547386 0.0179888 0.00841006 -0.00591595 0.00250553 -0.00423335 -0.00323059
internal_weight=415 182 233 134 99 157 130 42 92 55 44 110 60 76 56
internal_count=415 182 233 134 99 157 130 42 92 55 44 110 60 76 56
is_linear=0
shrinkage=0.03


Tree=28
num_leaves=16
num_cat=0
split_feature=51 54 47 53 11 57 53 71 23 0 35 44 57 25 11
split_gain=29.6591 12.8696 9.24895 5.18961 3.38196 3.16082 2.37298 2.29646 1.94576 1.67288 0.745222 0.307843 0.26599 0.152485 0.114496
threshold=-0.09185642022350804 -2.1198173648593173 0.61860522872785217 0.079968834583287254 0.61259797719491349 0.29880146997253282 0.079968834583281967 1.1233155289083323 -0.18073671881782874 0.53361865209584936 0.14920589628861317 -1.2165991907656675 0.29880146997250956 0.64543195465469039 -0.068646328136578297
decision_type=2 2 2 2 2 2 2 2 2 2 2 2 2 2 2
left_child=1 -1 3 6 5 -4 13 9 -7 10 11 -3 14 -2 -13
right_child=2 7 4 -5 -6 8 -8 -9 -10 -11 -12 12 -14 -15 -16
leaf_value=-0.031328255696527987 0.0040790406137458839 -0.010137692502042127 0.0094580119196576561 -0.0075212839558580014 0.0025373611732650153 0.025706222085254065 0.015021386689214563 -0.013989383103861205 0.013309117898122587 0.0037250134115343657 -0.00032955231334819894 -0.0023608230243423092 -0.0087988559679308929 0.00062604717465478978 -0.005620968879383301
leaf_weight=20 37 21 37 37 20 33 20 26 20 20 21 20 20 20 32
leaf_count=20 37 21 37 37 20 33 20 26 20 20 21 20 20 20 32
internal_value=0.000392326 -0.00866491 0.00768447 0.00166351 0.0138899 0.0163738 0.00611992 -0.00579545 0.0211184 -0.00417397 -0.00558809 -0.00674165 -0.00569685 0.00292322 -0.00443159
internal_weight=404 180 224 114 110 90 77 160 53 134 114 93 72 57 52
internal_count=404 180 224 114 110 90 77 160 53 134 114 93 72 57 52
is_linear=0
shrinkage=0.03


Tree=29
num_leaves=18
num_cat=0
split_feature=51 54 39 31 48 33 67 11 11 26 24 67 57 64 92 9 1
split_gain=29.35 11.6651 9.23647 5.29428 2.55854 2.28594 1.85653 1.76383 3.89659 1.03271 0.878136 0.520134 0.361507 0.277083 0.343076 0.0480577 0.0247565
threshold=-0.15053710477811119 -2.1198173648593173 0.40392166992593842 -0.26749544946627141 0.45701579339695686 -0.28380216856083013 1.0842491097602556 0.061611759173067611 -0.49730479896479324 0.54864104465823305 0.47568170993901249 0.083540585444692367 0.29880146997253726 -0.29246861117656792 8.5000000000000018 -0.30246524551849335 -0.54047045323616671
decision_type=2 2 2 2 2 2 2 2 2 2 2 2 2 2 2 2 2
left_child=1 -1 3 4 -2 -5 9 8 -4 10 13 -7 -10 14 16 -15 -3
right_child=2 6 7 5 -6 11 -8 -9 12 -11 -12 -13 -14 15 -16 -17 -18
leaf_value=-0.029127771281279045 0.0027627188696790908 -0.0060506671355731447 0.0073113388321789131 0.0029526094139082377 0.015535392222176508 -0.012039767574908128 -0.014210090707330142 0.0082795115471140952 0.018850171405599633 -0.0093439902286780504 0.0021642639678416411 -0.0048929827317807347 0.02589733951464648 -0.0050710480404433907 -0.00029827773237709121 -0.0080154022029531539 -0.0037261393944274129
leaf_weight=22 34 20 25 25 25 20 22 35 20 36 20 21 21 20 24 20 20
leaf_count=22 34 20 25 25 25 20 22 35 20 36 20 21 21 20 24 20 20
internal_value=-0.000253102 -0.00850722 0.00718471 0.00170277 0.00824276 -0.00410183 -0.00598352 0.0139312 0.0168659 -0.00482546 -0.00348298 -0.00847302 0.0225869 -0.00459885 -0.00327149 -0.00663436 -0.00497541
internal_weight=430 204 226 125 59 66 182 101 66 160 124 41 41 104 64 40 40
internal_count=430 204 226 125 59 66 182 101 66 160 124 41 41 104 64 40 40
is_linear=0
shrinkage=0.03


end of trees

feature_importances:
Column_1=32
Column_81=30
Column_47=29
Column_11=26
Column_51=23
Column_54=20
Column_19=15
Column_35=14
Column_53=13
Column_71=12
Column_37=11
Column_45=11
Column_27=10
Column_57=10
Column_34=9
Column_48=9
Column_49=8
Column_92=8
Column_93=8
Column_2=7
Column_26=7
Column_33=7
Column_86=7
Column_3=6
Column_25=6
Column_70=6
Column_73=6
Column_77=6
Column_0=5
Column_9=5
Column_15=5
Column_24=5
Column_55=5
Column_66=5
Column_7=4
Column_16=4
Column_23=4
Column_31=4
Column_82=4
Column_90=4
Column_13=3
Column_29=3
Column_43=3
Column_58=3
Column_69=3
Column_8=2
Column_12=2
Column_17=2
Column_28=2
Column_32=2
Column_39=2
Column_44=2
Column_50=2
Column_59=2
Column_65=2
Column_67=2
Column_68=2
Column_74=2
Column_14=1
Column_20=1
Column_21=1
Column_22=1
Column_30=1
Column_38=1
Column_40=1
Column_41=1
Column_42=1
Column_46=1
Column_52=1
Column_56=1
Column_61=1
Column_62=1
Column_64=1
Column_72=1
Column_76=1
Column_79=1
Column_84=1
Column_88=1
Column_94=1

parameters:
[boosting: gbdt]
[objective: regression]
[metric: rmse]
[tree_learner: serial]
[device_type: cpu]
[data_sample_strategy: bagging]
[data: ]
[valid: ]
[num_iterations: 3000]
[learning_rate: 0.03]
[num_leaves: 31]
[num_threads: 0]
[seed: 0]
[deterministic: 0]
[force_col_wise: 0]
[force_row_wise: 1]
[histogram_pool_size: -1]
[max_depth: 8]
[min_data_in_leaf: 20]
[min_sum_hessian_in_leaf: 0.001]
[bagging_fraction: 0.8]
[pos_bagging_fraction: 1]
[neg_bagging_fraction: 1]
[bagging_freq: 1]
[bagging_seed: 3]
[bagging_by_query: 0]
[feature_fraction: 0.8]
[feature_fraction_bynode: 1]
[feature_fraction_seed: 2]
[extra_trees: 0]
[extra_seed: 6]
[early_stopping_round: 0]
[early_stopping_min_delta: 0]
[first_metric_only: 0]
[max_delta_step: 0]
[lambda_l1: 0.1]
[lambda_l2: 0.1]
[linear_lambda: 0]
[min_gain_to_split: 0.01]
[drop_rate: 0.1]
[max_drop: 50]
[skip_drop: 0.5]
[xgboost_dart_mode: 0]
[uniform_drop: 0]
[drop_seed: 4]
[top_rate: 0.2]
[other_rate: 0.1]
[min_data_per_group: 100]
[max_cat_threshold: 32]
[cat_l2: 10]
[cat_smooth: 10]
[max_cat_to_onehot: 4]
[top_k: 20]
[monotone_constraints: ]
[monotone_constraints_method: basic]
[monotone_penalty: 0]
[feature_contri: ]
[forcedsplits_filename: ]
[refit_decay_rate: 0.9]
[cegb_tradeoff: 1]
[cegb_penalty_split: 0]
[cegb_penalty_feature_lazy: ]
[cegb_penalty_feature_coupled: ]
[path_smooth: 0]
[interaction_constraints: ]
[verbosity: -1]
[saved_feature_importance_type: 0]
[use_quantized_grad: 0]
[num_grad_quant_bins: 4]
[quant_train_renew_leaf: 0]
[stochastic_rounding: 1]
[linear_tree: 0]
[max_bin: 255]
[max_bin_by_feature: ]
[min_data_in_bin: 3]
[bin_construct_sample_cnt: 200000]
[data_random_seed: 1]
[is_enable_sparse: 1]
[enable_bundle: 1]
[use_missing: 1]
[zero_as_missing: 0]
[feature_pre_filter: 1]
[pre_partition: 0]
[two_round: 0]
[header: 0]
[label_column: ]
[weight_column: ]
[group_column: ]
[ignore_column: ]
[categorical_feature: ]
[forcedbins_filename: ]
[precise_float_parser: 0]
[parser_config_file: ]
[objective_seed: 5]
[num_class: 1]
[is_unbalance: 0]
[scale_pos_weight: 1]
[sigmoid: 1]
[boost_from_average: 1]
[reg_sqrt: 0]
[alpha: 0.9]
[fair_c: 1]
[poisson_max_delta_step: 0.7]
[tweedie_variance_power: 1.5]
[lambdarank_truncation_level: 30]
[lambdarank_norm: 1]
[label_gain: ]
[lambdarank_position_bias_regularization: 0]
[eval_at: ]
[multi_error_top_k: 1]
[auc_mu_weights: ]
[num_machines: 1]
[local_listen_port: 12400]
[time_out: 120]
[machine_list_filename: ]
[machines: ]
[gpu_platform_id: -1]
[gpu_device_id: -1]
[gpu_use_dp: 0]
[num_gpu: 1]

end of parameters

pandas_categorical:null
