tree
version=v4
num_class=1
num_tree_per_iteration=1
label_index=0
max_feature_idx=96
objective=regression
feature_names=Column_0 Column_1 Column_2 Column_3 Column_4 Column_5 Column_6 Column_7 Column_8 Column_9 Column_10 Column_11 Column_12 Column_13 Column_14 Column_15 Column_16 Column_17 Column_18 Column_19 Column_20 Column_21 Column_22 Column_23 Column_24 Column_25 Column_26 Column_27 Column_28 Column_29 Column_30 Column_31 Column_32 Column_33 Column_34 Column_35 Column_36 Column_37 Column_38 Column_39 Column_40 Column_41 Column_42 Column_43 Column_44 Column_45 Column_46 Column_47 Column_48 Column_49 Column_50 Column_51 Column_52 Column_53 Column_54 Column_55 Column_56 Column_57 Column_58 Column_59 Column_60 Column_61 Column_62 Column_63 Column_64 Column_65 Column_66 Column_67 Column_68 Column_69 Column_70 Column_71 Column_72 Column_73 Column_74 Column_75 Column_76 Column_77 Column_78 Column_79 Column_80 Column_81 Column_82 Column_83 Column_84 Column_85 Column_86 Column_87 Column_88 Column_89 Column_90 Column_91 Column_92 Column_93 Column_94 Column_95 Column_96
feature_infos=[-2.1998833971435583:3.8692245819541] [-2.7311108107751423:2.9342347356773439] [-1.8657831647695711:3.0072490900536955] [-2.5529133812149469:1.6101919081681242] [-2.1998833971435583:3.8692245819541] [-2.1998833971435583:3.8692245819541] [-2.1998833971435583:3.8692245819541] [-2.1998833971435583:3.8692245819541] [-2.1998833971435583:3.8692245819541] [-2.1998833971435583:3.8692245819541] [-2.1998833971435583:3.8692245819541] [-2.1998833971435583:3.8692245819541] [-1.9320007597494584:2.9342347356773439] [-1.859047007532957:2.9342347356773439] [-1.859047007532957:2.9342347356773439] [-1.859047007532957:2.9342347356773439] [-1.859047007532957:2.9342347356773439] [-1.859047007532957:2.9342347356773439] [-1.859047007532957:2.9342347356773439] [-1.859047007532957:2.9342347356773439] [-1.8657831647695711:3.0072490900536955] [-1.8657831647695711:3.0072490900536955] [-1.8657831647695711:3.0072490900536955] [-1.8657831647695711:3.0072490900536955] [-1.8657831647695711:3.0072490900536955] [-1.8657831647695711:3.0072490900536955] [-1.8657831647695711:3.0072490900536955] [-1.8657831647695711:3.0072490900536955] [-2.5529133812149469:1.6101919081681242] [-2.5529133812149469:1.6101919081681242] [-2.5529133812149469:1.6101919081681242] [-2.5529133812149469:1.6101919081681242] [-2.5529133812149469:1.6101919081681242] [-2.5529133812149469:1.6101919081681242] [-2.5529133812149469:1.6101919081681242] [-2.5529133812149469:1.6101919081681242] [-2.1943998713224748:3.860955103998494] [0:0.64091636210500835] [-2.1998833971435583:3.8444161480872814] [-2.1834328196803083:3.8692245819541] [-2.0502608434919503:3.4667554410842456] [0.0129357168687007:1.1990447202872401] [-2.1998833971435583:2.7114340270781718] [-1.9712402670866471:3.8692245819541] [-1.932948267045105:2.5960032455690443] [0.035760317866485598:1.9186767675887024] [-2.1998833971435583:0.93753554396405259] [-1.5914568726755396:3.8692245819541] [-1.9320007597494584:2.9254944873857887] [0:0.79911005102568644] [-2.7311108107751423:2.9080139908026763] [-1.8127682122186928:2.9342347356773439] [-1.7851311521189921:2.6127850031769086] [0.0046847623953103004:1.0089541756083835] [-2.7311108107751423:2.0092166554880402] [-1.6979244302412551:2.9342347356773439] [-1.6596775770260204:1.9378983043868172] [0.011542011266000501:1.4832385927490881] [-2.7311108107751423:0.67365129660583112] [-1.387882022303996:2.9342347356773439] [-1.8451540357335789:2.9846685901421126] [0:0.49400127039002178] [-1.8657831647695711:2.9395075903189469] [-1.8038957776615949:3.0072490900536955] [-1.7884380586968991:2.6892051597494797] [0.00096666584179219998:0.92419175121524899] [-1.8657831647695711:2.3001479859722864] [-1.6801210034456429:3.0072490900536955] [-1.6595342578465446:2.257648937546501] [0.013313685757746999:1.4763124206384557] [-1.8657831647695711:1.7148842870889596] [-1.4325714550137381:3.0072490900536955] [-2.5495322579552977:1.6063346788399731] [0:1.0209555603838525] [-2.5529133812149469:1.598620220183671] [-2.5427700114360001:1.6101919081681242] [-2.5360077649167021:1.5909057615273687] [0.0031661635704869:1.0864902026921488] [-2.5529133812149469:1.5639051562303117] [-2.5123399020991601:1.6101919081681242] [-2.3875739120518031:1.5257770023605477] [0.028997445992063699:1.41763179728068] [-2.5529133812149469:1.3346398443358181] [-1.7649108450292197:1.6101919081681242] [-0.93079171113892045:0.76220274489637097] [-1.5329573266440155:1.4299605693017208] [-1.0943781514118989:0.49708783356833369] [-1.0493859139424051:1.0943781514118989] [-0.4940012703900109:0.52971369659365941] [-0.52971369659365941:0.53547822385846622] [-0.58075344179437127:1.6123283976638283] [-1.3334356291427802:1.6123283976638283] [0:23] [-1:1] [-1:1] [0:5] [0:5]
tree_sizes=1600 1596 1592 1668 1766 1583 1588 1592 1652 1596 1587 1517 1601 1685 1676 1685 1513 1596 1603 1605 1692 1601 1696 1694 1696 1690 1607 1598 1690 1779 1698 1788 1615

Tree=0
num_leaves=17
num_cat=0
split_feature=90 93 93 34 13 31 39 77 24 94 34 8 43 90 33 12
split_gain=147.958 43.9233 41.5705 37.8839 22.8708 14.4388 13.2758 10.9396 8.46037 7.81007 6.44621 2.41426 2.01872 0.942156 0.740415 0.157503
threshold=-1.0000000180025095e-35 0.60355339059327384 0.78656609248549325 1.0000000180025095e-35 0.094044085584902973 0.14541817793326742 0.61409572595428041 0.33696622391384634 -0.070216418651125836 -0.37940952255126009 1.3386169022884951 0.22320640551710028 0.46111043165243754 0.051622300482413709 0.065873025760735962 -0.89656749384012679
decision_type=2 2 2 2 2 2 2 2 2 2 2 2 2 2 2 2
left_child=1 6 3 9 -3 -4 8 10 11 13 12 -1 14 -2 -5 -15
right_child=2 4 5 7 -6 -7 -8 -9 -10 -11 -12 -13 -14 15 -16 -17
leaf_value=-0.068534167712062138 0.015480512917351412 -0.1356239168344337 -0.035156046083363104 -0.027903167115003118 -0.077034922739645545 -0.094517205377053715 -0.082872811425158954 0.00022210291871776339 -0.027313502132313108 -0.004642768884475755 -0.057602394816341058 -0.047796743477639056 -0.015724768355211399 0.031331047488032997 -0.041345503598972516 0.025131187596413994
leaf_weight=32 22 36 21 20 31 20 39 25 32 39 27 25 21 21 21 20
leaf_count=32 22 36 21 20 31 20 39 25 32 39 27 25 21 21 21 20
internal_value=-0.0428748 -0.075716 -0.0179564 -0.00919524 -0.108516 -0.0641127 -0.0585475 -0.0290022 -0.0478881 0.012942 -0.0372113 -0.0594388 -0.0283313 0.0238277 -0.0347883 0.0283067
internal_weight=452 195 257 216 67 41 128 114 89 102 89 57 62 63 41 41
internal_count=452 195 257 216 67 41 128 114 89 102 89 57 62 63 41 41
is_linear=0
shrinkage=1


Tree=1
num_leaves=17
num_cat=0
split_feature=90 27 93 3 50 39 33 94 24 88 73 45 25 9 45 56
split_gain=133.532 47.667 39.6408 31.8618 18.5042 11.9814 11.5613 9.46731 7.67326 5.32357 4.29251 2.86754 1.9275 1.83308 0.557291 0.219768
threshold=-1.0000000180025095e-35 -0.92019606399942255 0.60355339059327384 0.23163587877119177 0.032868675858056556 0.61409572595428041 -0.019962224898448597 -0.37940952255126009 -0.049427838882768492 0.056751293207416058 0.10463541138731387 0.25594476872291855 -0.39456002461910245 0.14199295508687074 0.36017991562416846 -0.2087708421053098
decision_type=2 2 2 2 2 2 2 2 2 2 2 2 2 2 2 2
left_child=2 -2 5 6 -4 8 10 14 11 12 13 -1 -8 -3 -5 -16
right_child=1 3 4 7 -6 -7 9 -9 -10 -11 -12 -13 -14 -15 15 -17
leaf_value=-0.030059441179037097 -0.046705203003842725 0.030427945379845125 -0.084623299300288557 0.057289801985025403 -0.031347326943484535 -0.037998087150164145 -0.019876614806153589 0.032074866642722404 0.015826118901992838 0.020733453253405573 0.047340018075445425 -0.0070371247736099917 0.00016240484962638999 0.0095128953445237138 0.071042740061169576 0.063719228804111488
leaf_weight=21 22 22 39 20 28 39 21 37 30 23 23 38 28 20 21 20
leaf_count=21 22 22 39 20 28 39 21 37 30 23 23 38 28 20 21 20
internal_value=1.37947e-10 0.0236725 -0.0311992 0.0302611 -0.0623587 -0.0148891 0.0146898 0.0520291 -0.00476265 0.000888998 0.0299768 -0.0152315 -0.00842575 0.0204684 0.0641324 0.0674703
internal_weight=452 257 195 235 67 128 137 98 89 72 65 59 49 42 61 41
internal_count=452 257 195 235 67 128 137 98 89 72 65 59 49 42 61 41
is_linear=0
shrinkage=0.05


Tree=2
num_leaves=17
num_cat=0
split_feature=90 27 93 75 13 39 61 27 58 25 5 17 32 92 90 92
split_gain=120.513 43.0195 35.7758 28.7553 18.895 10.8132 9.99277 8.48154 6.44388 5.76888 3.00486 2.77571 2.75375 2.16293 1.35594 0.554206
threshold=-1.0000000180025095e-35 -0.92019606399942255 0.60355339059327384 0.23163587877119177 0.094044085584902973 0.61409572595428041 0.047296818932220958 -0.52630975801417679 -0.39998038484721621 -0.016911978609438844 -0.38965436323411978 -0.29067683346238476 -0.48353553167354174 15.500000000000002 0.11171668857739987 13.500000000000002
decision_type=2 2 2 2 2 2 2 2 2 2 2 2 2 2 2 2
left_child=2 -2 5 6 -4 9 12 -5 11 10 -1 -8 -3 15 -10 -9
right_child=1 3 4 7 -6 -7 8 13 14 -11 -12 -13 -14 -15 -16 -17
leaf_value=-0.00057842008978256892 -0.044369944491931664 0.0091471166438644846 -0.083880470486150854 0.020378910005092621 -0.030626941162852514 -0.03609818312793206 0.024452393071260306 0.056706180529935028 0.027863089049933478 0.015843136347830297 -0.022342454854931151 -0.00053831212036311628 -0.014994230135171503 0.042697073034942155 0.04549078556398551 0.066487104296684266
leaf_weight=29 22 21 36 20 31 39 20 28 20 25 35 25 27 20 24 30
leaf_count=29 22 21 36 20 31 39 20 28 20 25 35 25 27 20 24 30
internal_value=9.99317e-11 0.0224889 -0.0296392 0.028748 -0.0592408 -0.0141446 0.0139553 0.0494276 0.0238723 -0.00452451 -0.0124806 0.0105687 -0.00443239 0.056876 0.0374782 0.0617653
internal_weight=452 257 195 235 67 128 137 98 89 89 64 45 48 78 44 58
internal_count=452 257 195 235 67 128 137 98 89 89 64 45 48 78 44 58
is_linear=0
shrinkage=0.05


Tree=3
num_leaves=18
num_cat=0
split_feature=90 27 93 34 13 10 94 90 26 25 79 90 65 85 94 84 43
split_gain=108.763 38.8251 32.2877 26.4355 17.0527 10.0247 8.40768 7.91777 6.11268 4.49411 4.18864 3.84803 1.92658 1.59786 1.03737 0.680546 0.310973
threshold=-1.0000000180025095e-35 -0.92019606399942255 0.60355339059327384 -0.057368883197430796 0.094044085584902973 -1.134059683441927 -0.5 0.1058093600668908 0.8309845720667729 0.05447090755865306 -0.40545251185507231 0.096501632255100958 0.17538180054778837 9.0205620750793981e-17 0.60355339059327384 0.043212275235995655 -0.1906397461829655
decision_type=2 2 2 2 2 2 2 2 2 2 2 2 2 2 2 2 2
left_child=2 -2 5 6 -4 -1 15 10 9 13 -5 -8 -12 14 -7 16 -3
right_child=1 3 4 7 -6 8 11 -9 -10 -11 12 -13 -14 -15 -16 -17 -18
leaf_value=-0.04115240344634423 -0.042151447571814063 0.065431980575834006 -0.0796864491990871 -0.010938614601212921 -0.029095593097830014 -0.020799632621929048 0.017033670490814581 0.030451326189856784 -0.030411889058138644 0.020427937754429876 0.023520444573036262 0.044864637105037339 0.0040302037188666871 0.0042843649551893275 -0.0046955471532419326 0.049932302087545399 0.056720365434885026
leaf_weight=26 22 21 36 33 31 20 27 38 21 20 21 23 32 21 20 20 20
leaf_count=26 22 21 36 33 31 20 27 38 21 20 21 23 32 21 20 20 20
internal_value=-1.60045e-10 0.0213644 -0.0281572 0.0273106 -0.0562787 -0.0134374 0.0450353 0.0114441 -0.00637277 -0.00014041 0.0030456 0.0298359 0.0117528 -0.00688413 -0.0127476 0.0574939 0.0611824
internal_weight=452 257 195 235 67 128 111 124 102 81 86 50 53 61 40 61 41
internal_count=452 257 195 235 67 128 111 124 102 81 86 50 53 61 40 61 41
is_linear=0
shrinkage=0.05


Tree=4
num_leaves=19
num_cat=0
split_feature=90 93 88 13 94 77 10 77 94 26 90 66 7 5 23 31 11 37
split_gain=98.1583 29.1396 28.7385 15.3901 13.2117 12.0462 9.04733 7.54796 6.93671 5.51669 5.46999 3.98638 3.83456 2.6405 2.06988 1.07104 1.02563 0.276877
threshold=-1.0000000180025095e-35 0.60355339059327384 -0.016515531605428149 0.094044085584902973 -0.70710678118654757 0.078162956685177101 -1.134059683441927 0.094938329470535973 -0.37940952255126009 0.8309845720667729 0.1058093600668908 -0.22528187868878594 -0.25398876466796777 -0.12353915135436423 -0.026801711745409799 -0.66843826111512683 0.29890338924042881 0.09765323913190456
decision_type=2 2 2 2 2 2 2 2 2 2 2 2 2 2 2 2 2 2
left_child=1 6 5 -3 13 -2 -1 -6 17 12 -10 -9 14 -4 -8 -13 -14 -7
right_child=2 3 4 -5 7 8 9 11 10 -11 -12 15 16 -15 -16 -17 -18 -19
leaf_value=-0.03909478302185352 0.005151162768015638 -0.075702128890487885 0.013522191788069904 -0.027640814163943664 -0.030034807037848693 0.061759129166603088 -0.022390674255439082 0.020439145977143199 0.017023707990502492 -0.028891293731118952 0.050086395848881117 0.0010975665545889311 0.0028742894984316084 0.038624386624856427 8.48679010578919e-05 -0.015069804808590562 0.018887047588359566 0.054303577090754653
leaf_weight=26 24 36 20 31 26 20 20 20 29 21 22 21 20 22 21 20 20 33
leaf_count=26 24 36 20 31 26 20 20 20 29 21 22 21 20 22 21 20 20 33
internal_value=-1.5445e-10 -0.0267494 0.0202962 -0.0534648 0.00364117 0.0370814 -0.0127655 -0.00747666 0.0444499 -0.00605413 0.031286 0.00213829 -0.000133389 0.026671 -0.0108788 -0.00678896 0.0108807 0.057117
internal_weight=452 195 257 67 129 128 128 87 104 102 51 61 81 42 41 41 40 53
internal_count=452 195 257 67 129 128 128 87 104 102 51 61 81 42 41 41 40 53
is_linear=0
shrinkage=0.05


Tree=5
num_leaves=17
num_cat=0
split_feature=90 27 93 34 55 39 73 94 24 31 34 13 11 62 84 43
split_gain=88.5879 33.0663 26.2985 22.0446 13.9496 8.13533 8.05749 6.83204 5.63737 4.13958 2.92661 2.16233 1.76851 0.736547 0.572106 0.255674
threshold=-1.0000000180025095e-35 -0.95738084168352267 0.60355339059327384 -0.057368883197430796 0.14192396103790372 0.61409572595428041 0.10463541138731387 -0.5 -0.070216418651125836 -0.2792832352557299 1.3386169022884951 -0.018991685815865897 -0.12241020897126638 -0.022400170818414146 0.043212275235995655 -0.1906397461829655
decision_type=2 2 2 2 2 2 2 2 2 2 2 2 2 2 2 2
left_child=2 -2 5 7 -4 8 10 14 12 -9 13 -8 -1 -5 15 -3
right_child=1 3 4 6 -6 -7 11 9 -10 -11 -12 -13 -14 -15 -16 -17
leaf_value=-0.025190655002370478 -0.040841848420954889 0.059313715071905228 -0.076907531146345465 0.001968229638545641 -0.030860954714252761 -0.031169365461056048 0.015312793203629556 0.043377006392587319 0.013011900454512216 0.014394053781039216 -0.012565925564504817 0.037573393341153866 -0.0067364640397057449 0.013655183754431513 0.045145541727542877 0.0514145614206791
leaf_weight=20 21 21 29 28 38 39 20 22 32 28 27 24 37 26 20 20
leaf_count=20 21 21 29 28 38 39 20 22 32 28 27 24 37 26 20 20
internal_value=8.91917e-11 0.0192814 -0.0254119 0.0246314 -0.0507916 -0.0121272 0.0102311 0.0408479 -0.00378294 0.0271466 0.000874879 0.0274549 -0.0132116 0.00759528 0.0520785 0.0554605
internal_weight=452 257 195 236 67 128 125 111 89 50 81 44 57 54 61 41
internal_count=452 257 195 236 67 128 125 111 89 50 81 44 57 54 61 41
is_linear=0
shrinkage=0.05


Tree=6
num_leaves=17
num_cat=0
split_feature=26 88 94 3 10 57 65 3 95 2 25 9 3 77 92 1
split_gain=75.4441 45.928 16.41 12.0409 10.7852 8.73255 11.6341 6.01836 4.98958 4.86892 4.03872 4.03104 1.4976 0.960897 0.764439 0.188208
threshold=0.81683875446135035 -0.016515531605428149 -0.70710678118654757 0.16874448591628119 -1.2100122804531022 0.14340821130638343 0.064934724222638171 -1.5970857528345668 3.5000000000000004 -0.78460460881974903 -0.070216418651125836 -0.15777502898303983 -0.49895184672521437 0.18498807502862488 12.500000000000002 -0.89656749384012679
decision_type=2 2 2 2 2 2 2 2 2 2 2 2 2 2 2 2
left_child=1 3 11 10 -4 -2 -7 -6 12 -5 -1 -3 -9 -14 -11 -16
right_child=5 2 4 9 7 6 -8 8 -10 14 -12 -13 13 -15 15 -17
leaf_value=-0.001144178627524525 -0.069679109610262371 0.03249146759766957 -0.038431998295709494 0.021462244861759246 -0.031382241705432537 -0.05731697816933904 -0.015073282993398607 -0.017194588549975905 0.014058870332581656 0.041861055520447818 0.024870418394739566 0.0033129864395596087 0.0042658599255525551 -0.010035848127396701 0.055998069964922396 0.049546480923891072
leaf_weight=25 21 29 32 20 20 28 39 31 35 22 37 20 23 24 26 20
leaf_count=25 21 29 32 20 20 28 39 31 35 22 37 20 23 24 26 20
internal_value=-1.49511e-11 0.0100439 -0.00482558 0.0312578 -0.0123708 -0.0415454 -0.0327274 -0.00610047 -0.00162582 0.0431485 0.0143807 0.0205819 -0.00866382 -0.00303714 0.0495268 0.053193
internal_weight=452 364 214 150 165 88 67 133 113 88 62 49 78 47 68 46
internal_count=452 364 214 150 165 88 67 133 113 88 62 49 78 47 68 46
is_linear=0
shrinkage=0.05


Tree=7
num_leaves=17
num_cat=0
split_feature=93 33 34 3 37 47 26 35 10 70 14 26 46 15 26 0
split_gain=68.6497 46.8889 14.192 12.9709 7.70582 6.93412 6.07464 5.46095 4.37132 3.68674 3.5695 3.23606 2.00504 1.7771 1.2411 0.131494
threshold=0.91597561503675362 0.1222372751718216 1.0000000180025095e-35 1.3685269234381561 0.011531172030455053 0.78448189163970017 0.70732243008761919 1.1621748917259092 -1.134059683441927 -0.054716915922418841 0.54440861889504599 -0.92019606399942255 -0.38965436323411978 -0.55689289876135439 -0.13992108057321431 -0.92467073593111637
decision_type=2 2 2 2 2 2 2 2 2 2 2 2 2 2 2 2
left_child=1 2 7 4 -3 -2 8 14 -6 -4 12 -11 13 -10 -1 -16
right_child=5 3 9 -5 6 -7 -8 -9 10 11 -12 -13 -14 -15 15 -17
leaf_value=0.035924232277003205 -0.069918601572513589 -0.042159595163539058 -0.0053580111917108306 0.027757564297115261 -0.025170461359349167 -0.03544098615114178 -0.029291586427678984 0.019877363302345789 -0.010391581622284971 0.0046630747943149451 0.0183539417758584 0.028582371699233212 -0.01377289026016737 0.0080066756657989954 0.053047313744371584 0.047921088851731401
leaf_weight=22 25 20 25 22 22 35 31 28 21 26 20 31 38 35 22 29
leaf_count=22 25 20 25 22 22 35 31 28 21 26 20 31 38 35 22 29
internal_value=3.65858e-11 0.00762347 0.0261038 -0.00855787 -0.0128303 -0.0498067 -0.00931778 0.03865 -0.00476493 0.0106505 -0.000827022 0.0176718 -0.00490808 0.00110733 0.0458505 0.0501324
internal_weight=452 392 183 209 187 60 167 101 136 82 114 57 94 56 73 51
internal_count=452 392 183 209 187 60 167 101 136 82 114 57 94 56 73 51
is_linear=0
shrinkage=0.05


Tree=8
num_leaves=18
num_cat=0
split_feature=90 61 26 26 24 88 34 83 37 10 30 73 94 73 94 49 34
split_gain=67.2148 20.003 16.7719 15.3372 8.60109 7.63758 7.28582 6.7497 4.87652 4.20763 5.42001 3.43813 2.98349 2.81492 1.74644 0.918142 0.430632
threshold=-1.0000000180025095e-35 0.07598507534744596 0.81683875446135035 0.41994423466695879 -0.070216418651125836 -0.0094767860701454477 -0.050828010735541641 1.3178076279435722 0.063479837957258159 -1.1661629654142185 -0.12730339984790173 0.10463541138731387 -0.5 0.097464913735598471 -0.5 0.071432886586148672 -1.4042713411956533
decision_type=2 2 2 2 2 2 2 2 2 2 2 2 2 2 2 2 2
left_child=2 3 4 5 9 -2 12 8 -4 -1 -11 -8 16 -14 -7 -12 -3
right_child=1 6 7 -5 -6 14 11 -9 -10 10 15 -13 13 -15 -16 -17 -18
leaf_value=-0.035949938440764391 0.035233118935771614 0.049939800111147077 -0.071362367556208658 -0.033298211482962449 0.010374185613314199 0.011207089084200561 0.0050611346212261002 -0.020022894475947729 -0.038036780643691918 -0.033854422558631213 0.0035161677147698359 0.029492607216040297 0.013828929578885436 0.039746939009902157 -0.006635583933166345 -0.010314217949053274 0.040651934842268631
leaf_weight=27 23 26 21 26 33 24 36 22 23 21 24 24 20 22 32 24 24
leaf_count=27 23 26 21 26 33 24 36 22 23 21 24 24 20 22 32 24 24
internal_value=-1.02649e-10 0.0167952 -0.0221352 1.18066e-05 -0.0116465 0.0109746 0.0283889 -0.0426357 -0.0539422 -0.0192161 -0.0126681 0.0148337 0.0372293 0.027405 0.00101128 -0.00339903 0.0454816
internal_weight=452 257 195 105 129 79 152 66 44 96 69 60 92 42 56 48 50
internal_count=452 257 195 105 129 79 152 66 44 96 69 60 92 42 56 48 50
is_linear=0
shrinkage=0.05


Tree=9
num_leaves=17
num_cat=0
split_feature=90 27 93 3 13 39 61 38 27 90 69 18 65 61 35 1
split_gain=60.6614 22.5007 17.9678 15.4695 8.56259 6.41446 5.873 5.39698 4.21375 2.96087 2.8774 2.19577 1.80692 0.889984 0.834816 0.321971
threshold=-1.0000000180025095e-35 -0.95738084168352267 0.37940952255126054 0.23163587877119177 0.094044085584902973 0.61409572595428041 0.047296818932220958 -0.30216121252109018 -0.52630975801417679 -0.085777896227956132 0.41476861354102829 0.33728173017099894 0.014939132779874752 0.13462848252162712 -0.85905607899535297 -0.9603757576190397
decision_type=2 2 2 2 2 2 2 2 2 2 2 2 2 2 2 2
left_child=2 -2 5 6 7 9 12 -4 -5 14 11 -8 -3 15 -1 -10
right_child=1 3 4 8 -6 -7 10 -9 13 -11 -12 -13 -14 -15 -16 -17
leaf_value=-0.015283006487350743 -0.033640712233526368 0.0036532736471693579 -0.036746788469498005 0.015084372693090702 -0.020404860527525027 -0.025852066803819098 0.030443791554946649 -0.072183917191895583 0.047948208983455393 0.012723925731216485 0.002439153043087572 0.011795203830115498 -0.015882202293723821 0.032288243536922064 -0.0027830508756725228 0.04036567785910198
leaf_weight=22 21 29 21 20 31 39 38 22 28 26 24 27 20 22 34 28
leaf_count=22 21 29 21 20 31 39 38 22 28 26 24 27 20 22 34 28
internal_value=2.32831e-11 0.0159554 -0.0210284 0.0203686 -0.0404362 -0.00915916 0.00958098 -0.0548774 0.0355594 -0.00121985 0.0172345 0.0226975 -0.00432039 0.0408094 -0.00769375 0.0441569
internal_weight=452 257 195 236 74 121 138 43 98 82 89 65 49 78 56 56
internal_count=452 257 195 236 74 121 138 43 98 82 89 65 49 78 56 56
is_linear=0
shrinkage=0.05


Tree=10
num_leaves=17
num_cat=0
split_feature=90 61 93 26 13 88 34 17 38 77 92 94 49 93 10 34
split_gain=54.7469 16.3744 16.2159 12.9042 7.72774 6.28934 6.22765 6.19839 4.87077 3.70825 3.09992 2.44062 2.29613 1.89261 1.82666 0.338817
threshold=-1.0000000180025095e-35 0.07598507534744596 0.37940952255126054 0.41994423466695879 0.094044085584902973 -0.0094767860701454477 -0.050828010735541641 -0.75319428994781956 -0.30216121252109018 0.2726402334277741 19.500000000000004 -0.5 0.080209339511103803 1.0000000180025095e-35 -0.10552238159268944 -1.4042713411956533
decision_type=2 2 2 2 2 2 2 2 2 2 2 2 2 2 2 2
left_child=2 3 7 5 8 -2 11 -1 -4 -8 14 15 -13 -7 -9 -3
right_child=1 6 4 -5 -6 13 9 10 -10 -11 -12 12 -14 -15 -16 -17
leaf_value=-0.026440324070198196 0.032041940789507783 0.045238769742158742 -0.034909449065370218 -0.030581296050849444 -0.019384617688915425 -0.010879544379367006 0.0022450717073618709 0.017580126520867149 -0.068574720214713711 0.02732948045461224 -0.013221532455645502 0.036625600411068826 0.013244058830397471 0.0081072231741356002 -0.0015188611232705655 0.037000324639181299
leaf_weight=35 23 26 21 26 31 21 34 21 22 26 34 21 21 35 31 24
leaf_count=35 23 26 21 26 31 21 34 21 22 26 34 21 21 35 31 24
internal_value=-1.93425e-11 0.0151576 -0.019977 -2.73017e-05 -0.0384144 0.0100284 0.0256472 -0.0087012 -0.0521335 0.013115 -0.00148179 0.0338204 0.0249348 0.000987185 0.00619419 0.0412843
internal_weight=452 257 195 105 74 79 152 121 43 60 86 92 42 56 52 50
internal_count=452 257 195 105 74 79 152 121 43 60 86 92 42 56 52 50
is_linear=0
shrinkage=0.05


Tree=11
num_leaves=16
num_cat=0
split_feature=90 93 90 3 3 80 47 17 90 25 27 49 0 5 32
split_gain=49.843 25.2961 12.6382 11.7001 7.95347 5.71233 5.49464 5.01356 3.67192 2.44282 2.03081 1.74749 1.48067 0.723815 0.489423
threshold=0.041734209844244009 0.91597561503675362 -0.010143369778946549 0.28979477404381859 -1.5366565189983705 -0.22693771918771113 0.78448189163970017 -0.75319428994781956 0.19253822775669532 -0.41374510378971185 -0.37416171776179757 0.087076944050375665 -0.38965436323411978 -0.24148823936499483 -0.17426398869876697
decision_type=2 2 2 2 2 2 2 2 2 2 2 2 2 2 2
left_child=1 2 4 8 -1 -4 -3 -6 11 12 -7 14 -9 -5 -2
right_child=3 6 5 13 7 10 -8 9 -10 -11 -12 -13 -14 -15 -16
leaf_value=-0.042546270942936344 0.0037629202019888912 -0.059506064176559452 -0.010753606980585535 0.042348074760192478 -0.025118307654878925 0.0072875950689194726 -0.028815052748790811 -0.00021017336752265694 0.027193140972835511 0.0065721896533758794 0.026064474363293913 0.013416798842404709 -0.018305919240587033 0.031698270252457375 -0.0072985282866284253
leaf_weight=21 20 25 23 39 35 24 35 20 26 39 36 36 26 27 20
leaf_count=21 20 25 23 39 35 24 35 20 26 39 36 36 26 27 20
internal_value=-1.52602e-11 -0.0127702 -0.00504716 0.0215878 -0.0141593 0.0104324 -0.041603 -0.00919152 0.0109737 -0.00263343 0.0185537 0.0054249 -0.0104382 0.0379913 -0.0017678
internal_weight=452 284 224 168 141 83 60 120 102 85 60 76 46 66 40
internal_count=452 284 224 168 141 83 60 120 102 85 60 76 46 66 40
is_linear=0
shrinkage=0.05


Tree=12
num_leaves=17
num_cat=0
split_feature=90 26 25 3 79 94 12 90 56 27 3 45 26 49 82 45
split_gain=44.9833 20.6125 11.9412 10.5594 7.63121 6.98705 4.04403 3.31391 2.85621 2.55337 2.09964 1.91998 1.69648 1.57711 0.698464 0.451569
threshold=0.041734209844244009 0.70732243008761919 -0.25766851286068543 0.28979477404381859 1.3080201187646376 0.1294095225512602 -0.34849432644671546 0.19253822775669532 0.49627037784234262 -0.37416171776179757 -0.096186787795818338 0.43555194112802914 -0.31083434505826335 0.087076944050375665 -0.18118965291794867 0.37449583565454808
decision_type=2 2 2 2 2 2 2 2 2 2 2 2 2 2 2 2
left_child=1 2 6 7 5 11 -1 13 10 -4 -8 -3 -11 15 -5 -2
right_child=3 4 9 14 -6 -7 8 -9 -10 12 -12 -13 -14 -15 -16 -17
leaf_value=0.0027749719162050998 0.0036331262288149448 -0.063701554387807849 -0.0011610039216022761 0.031250972801021168 -0.0091201270464807745 -0.020860730055719617 -0.032710352494861143 0.025833483767480805 -0.0037000119726618994 0.0085237671179735734 -0.013030778122660909 -0.042055157252720431 0.02692959289396963 0.012745959160060417 0.041557185015370771 -0.0069919538078829641
leaf_weight=31 20 20 21 35 30 30 33 26 23 21 23 21 31 36 31 20
leaf_count=31 20 20 21 35 30 30 33 26 23 21 23 21 31 36 31 20
internal_value=-7.02774e-11 -0.0121317 -0.00212454 0.0205084 -0.0302635 -0.0391973 -0.0125293 0.010425 -0.0185348 0.0135539 -0.0246277 -0.0526144 0.0194965 0.00515366 0.0360918 -0.00167941
internal_weight=452 284 183 168 101 71 110 102 79 73 56 41 52 76 66 40
internal_count=452 284 183 168 101 71 110 102 79 73 56 41 52 76 66 40
is_linear=0
shrinkage=0.05


Tree=13
num_leaves=18
num_cat=0
split_feature=90 26 10 79 3 57 90 65 34 90 25 94 53 27 38 45 27
split_gain=40.5974 18.8434 12.0883 10.3859 9.5398 3.9056 3.81809 3.80766 2.90658 2.64553 1.40053 1.22482 1.1793 1.17756 0.824742 0.736173 0.20321
threshold=0.041734209844244009 0.89411442653722439 -1.2442525815321643 -0.6539315464913632 0.15766126820728651 0.15372410918025772 -0.044104985942940343 0.081031292028835161 0.59318421360838081 0.19253822775669532 0.068394543710683112 0.37940952255126043 0.13253234299231217 -0.36060473395294007 -0.083576839603834288 0.35628990975385993 0.88433667199957766
decision_type=2 2 2 2 2 2 2 2 2 2 2 2 2 2 2 2 2
left_child=1 2 -1 -4 9 -3 12 -7 13 10 15 16 -5 -8 -14 -2 -6
right_child=4 5 3 6 11 7 8 -9 -10 -11 -12 -13 14 -15 -16 -17 -18
leaf_value=-0.033182669530312223 0.0045228723264501792 -0.051946084843948484 -0.028779142046347263 0.0053557128677594254 0.039668985336057602 -0.039541597719545719 0.0098021249035082289 -0.013225630411346043 -0.00087147030141204599 0.023932836899025877 0.012791375966792527 0.023436239796380202 -0.00026561831356957554 0.024860702020846108 -0.014148649883092099 -0.0085935461164626768 0.033204535245895388
leaf_weight=30 23 20 25 29 31 27 20 28 25 22 28 24 20 37 23 20 20
leaf_count=30 23 20 25 29 31 27 20 28 25 22 28 24 20 37 23 20 20
internal_value=8.06923e-11 -0.0115251 -0.00380992 0.00111289 0.0194829 -0.0330248 0.00596549 -0.0261444 0.0133427 0.00878318 0.00408892 0.0327507 -0.00243633 0.019577 -0.00769143 -0.00157779 0.0371339
internal_weight=452 284 209 179 168 75 154 55 82 93 71 75 72 57 43 43 51
internal_count=452 284 209 179 168 75 154 55 82 93 71 75 72 57 43 43 51
is_linear=0
shrinkage=0.05


Tree=14
num_leaves=18
num_cat=0
split_feature=90 27 93 34 13 39 45 73 94 73 31 34 13 55 77 86 43
split_gain=36.7779 14.3487 10.9269 9.81135 6.0066 4.20264 4.05312 3.72989 2.73122 2.61857 2.20833 1.5187 1.27334 0.607215 0.495608 0.33978 0.1352
threshold=-1.0000000180025095e-35 -0.95738084168352267 0.37940952255126054 -0.057368883197430796 0.094044085584902973 0.61409572595428041 0.27583954710543279 0.10463541138731387 -0.5 0.089758660066507012 -0.2792832352557299 1.0704612684646457 -0.018991685815865897 -0.30893153765998621 0.23492875726880333 0.053707525763900657 -0.1906397461829655
decision_type=2 2 2 2 2 2 2 2 2 2 2 2 2 2 2 2 2
left_child=2 -2 5 8 6 9 -4 11 15 -1 -10 13 -9 -5 -11 16 -3
right_child=1 3 4 7 -6 -7 -8 12 10 14 -12 -13 -14 -15 -16 -17 -18
leaf_value=0.010477558951242827 -0.027182041232784587 0.039275493366377701 -0.058601492270827296 0.00026706779608502983 -0.014731083184690966 -0.020629362141092622 -0.027891611653779236 0.0087418426829390227 0.029957925528287889 -0.0017424620175734162 0.0087891230941750109 -0.0071297527338640811 0.025824222758334753 0.012304653746303469 -0.011903746030293406 0.028524208292365072 0.033531352989375589
leaf_weight=32 21 21 22 20 31 39 21 20 22 20 28 39 24 22 30 20 20
leaf_count=32 21 21 22 20 31 39 21 20 22 20 28 39 24 22 30 20 20
internal_value=-3.22589e-12 0.0124235 -0.0163736 0.0159477 -0.0315084 -0.00711756 -0.0436036 0.00634081 0.0267664 -0.000691216 0.0181034 -2.48965e-05 0.0180595 0.00657247 -0.00783923 0.0338672 0.0364735
internal_weight=452 257 195 236 74 121 43 125 111 82 50 81 44 42 50 61 41
internal_count=452 257 195 236 74 121 43 125 111 82 50 81 44 42 50 61 41
is_linear=0
shrinkage=0.05


Tree=15
num_leaves=18
num_cat=0
split_feature=93 90 88 3 15 18 43 82 0 73 72 25 84 26 31 52 81
split_gain=33.4786 25.0609 9.63834 5.46625 4.13037 3.6205 3.57606 2.552 2.40528 2.25791 1.80588 1.60594 1.49037 1.1858 1.02072 0.567731 0.178754
threshold=0.91597561503675362 -0.010143369778946549 -0.016515531605428149 -1.5366565189983705 0.37400929674962563 -1.0502870513012146 1.1280770304524936 -0.098442736409035128 -0.28800094398008536 0.083609789839996326 -0.62798287786276952 -0.59777358259573243 0.098197529074365367 0.57942435773103651 -0.70969362309268369 -0.32489972166210018 0.501800837893152
decision_type=2 2 2 2 2 2 2 2 2 2 2 2 2 2 2 2 2
left_child=1 3 8 -1 -2 -5 10 11 12 -10 14 -7 16 -9 -4 -12 -3
right_child=4 2 6 5 -6 7 -8 13 9 -11 15 -13 -14 -15 -16 -17 -18
leaf_value=-0.035077299195386116 -0.046253691854722362 0.036910828406160529 1.3247117888005007e-05 -0.025260981723018317 -0.01978003868403343 -0.0047936043276896947 0.021487370334565641 -0.0047486603709070811 0.0074414700194592445 0.027421382420624682 0.00081280534728788421 0.013344068327345526 0.018631614031037316 -0.020689142303708649 -0.01576981237856671 0.010987865535847458 0.030920323901809755
leaf_weight=21 34 33 21 23 26 23 25 28 31 26 26 26 20 20 20 29 20
leaf_count=21 34 33 21 23 26 23 25 28 31 26 26 26 20 20 20 29 20
internal_value=-3.59774e-12 0.00532374 0.0147991 -0.0115438 -0.0347818 -0.00742546 0.00464337 -0.00319642 0.0242518 0.0165551 0.000256906 0.00483047 0.0302616 -0.0113905 -0.00768581 0.00617784 0.0346503
internal_weight=452 392 251 141 60 120 121 97 130 57 96 49 73 48 41 55 53
internal_count=452 392 251 141 60 120 121 97 130 57 96 49 73 48 41 55 53
is_linear=0
shrinkage=0.05


Tree=16
num_leaves=16
num_cat=0
split_feature=26 88 27 90 16 79 94 9 3 21 46 10 27 33 37
split_gain=30.173 17.6745 6.97273 5.7379 4.54986 4.41737 4.54429 3.00875 2.47503 2.29165 2.01643 1.65837 1.04351 0.85935 0.181763
threshold=0.81683875446135035 -0.016515531605428149 0.60687691386612752 -0.013708563405996748 0.093144700016829063 1.3080201187646376 0.1294095225512602 -0.12353915135436423 0.15766126820728651 -0.34482703236638951 -0.30688759000716392 -0.52492717843470083 -0.34922488193039142 0.92348893570502832 0.09765323913190456
decision_type=2 2 2 2 2 2 2 2 2 2 2 2 2 2 2
left_child=1 3 4 -1 10 6 -2 -4 -5 -6 13 -11 -10 -3 -14
right_child=5 2 7 8 9 -7 -8 -9 12 11 -12 -13 14 -15 -16
leaf_value=-0.0018444676632778005 -0.045341398694685529 -0.0061440536282004491 0.020501780182655371 0.013561100959897232 0.012920735055661721 -0.0084903701730072497 -0.018316726745771512 -0.00038222625221618836 0.019678819318347529 -0.01727078239491675 -0.029329021319746976 0.001580339965793038 0.035442354321479796 -0.019524310068005608 0.0299235192303722
leaf_weight=26 35 28 35 39 23 25 28 34 23 20 25 28 25 21 37
leaf_count=26 35 28 35 39 23 25 28 34 23 20 25 28 25 21 37
internal_value=-4.47278e-11 0.00635186 -0.00287239 0.0195118 -0.00909834 -0.0262736 -0.0333304 0.0102111 0.0239897 -5.61862e-05 -0.0177739 -0.00627429 0.0287746 -0.0118784 0.0321489
internal_weight=452 364 214 150 145 88 63 69 124 71 74 48 85 49 62
internal_count=452 364 214 150 145 88 63 69 124 71 74 48 85 49 62
is_linear=0
shrinkage=0.05


Tree=17
num_leaves=17
num_cat=0
split_feature=93 90 88 3 59 43 17 94 73 94 92 82 66 82 82 61
split_gain=27.7898 20.525 7.47835 4.80793 3.64643 3.57143 3.39056 2.22706 2.78851 1.71626 1.49456 1.28864 1.07712 0.459374 0.26884 0.144287
threshold=0.91597561503675362 -0.0043513724455231488 -0.016515531605428149 -1.5366565189983705 0.7237489553384483 1.1280770304524936 -0.75319428994781956 -0.37940952255126009 0.10162581785329171 -0.70710678118654757 19.500000000000004 -0.03453341076451779 -0.030098852497033545 -0.11081075976651834 -0.26832234907902608 0.12805890415537569
decision_type=2 2 2 2 2 2 2 2 2 2 2 2 2 2 2 2
left_child=1 3 7 -1 -2 9 -5 13 14 -4 11 -8 -11 -3 -9 -15
right_child=4 2 5 6 -6 -7 10 8 -10 12 -12 -13 -14 15 -16 -17
leaf_value=-0.031678937252780252 -0.046273687943816186 0.02237156801391393 0.010313275319740883 -0.01942616905351835 -0.02127164748098169 0.021762020753036876 0.011618296511837149 0.0037198491084078945 0.029084913021263977 0.0019167818067431014 -0.009179681398125146 -0.0039996913634240631 -0.010864081686304417 0.034508275134222853 0.011720445623532647 0.028714038092981689
leaf_weight=22 25 20 29 35 35 24 28 21 24 34 34 25 32 21 21 22
leaf_count=22 25 20 29 35 35 24 28 21 24 34 34 25 32 21 21 22
internal_value=-4.05264e-11 0.00485038 0.0135685 -0.0101642 -0.0316892 0.00452852 -0.00628447 0.0219077 0.0154892 0.000174789 -0.000997576 0.00425132 -0.00428 0.028632 0.00772015 0.0315438
internal_weight=452 392 248 144 60 119 122 129 66 95 87 53 66 63 42 43
internal_count=452 392 248 144 60 119 122 129 66 95 87 53 66 63 42 43
is_linear=0
shrinkage=0.05


Tree=18
num_leaves=17
num_cat=0
split_feature=26 88 27 90 16 79 7 17 3 65 21 46 17 27 33 37
split_gain=24.8659 14.2816 5.80885 4.76856 3.85092 3.76247 3.11115 2.45522 2.08753 2.02013 1.98493 1.71022 1.1064 0.850855 0.710244 0.142521
threshold=0.81683875446135035 -0.016515531605428149 0.60687691386612752 -0.013708563405996748 0.093144700016829063 1.3080201187646376 -0.083576839603834288 0.079694330231536756 0.15766126820728651 0.081031292028835161 -0.34482703236638951 -0.30688759000716392 0.3361409570731767 -0.34922488193039142 0.92348893570502832 0.09765323913190456
decision_type=2 2 2 2 2 2 2 2 2 2 2 2 2 2 2 2
left_child=1 3 4 -1 11 6 -2 -4 -5 -8 -6 14 -12 -10 -3 -15
right_child=5 2 7 8 10 -7 9 -9 13 -11 12 -13 -14 15 -16 -17
leaf_value=-0.0018731251197795454 -0.0460776486212299 -0.0055469396756961942 0.018187561183161029 0.012100505654532941 0.012187862655390866 -0.0074391765659675008 -0.033472957355635512 -0.00072558751845548392 0.017859043602062308 -0.011541599913367204 -0.014658389145042748 -0.026831177078187468 0.00073919362579804985 0.032035660147666935 -0.017711133155084793 0.027148752800516179
leaf_weight=26 21 28 37 39 23 25 21 32 23 21 20 25 28 25 21 37
leaf_count=26 21 28 37 39 23 25 21 32 23 21 20 25 28 25 21 37
internal_value=-3.36825e-12 0.00576625 -0.0025255 0.0175958 -0.00820812 -0.0238513 -0.0303641 0.00941625 0.021678 -0.0225073 0.00011057 -0.0161896 -0.00567647 0.0260724 -0.0107602 0.0291193
internal_weight=452 364 214 150 145 88 63 69 124 42 71 74 48 85 49 62
internal_count=452 364 214 150 145 88 63 69 124 42 71 74 48 85 49 62
is_linear=0
shrinkage=0.05


Tree=19
num_leaves=17
num_cat=0
split_feature=93 90 3 29 15 17 34 93 27 25 7 38 29 70 26 37
split_gain=22.9118 16.8228 6.2593 4.17473 3.13516 2.77267 2.38102 2.33102 2.16301 1.69747 1.45162 0.817131 0.80209 0.757489 0.755786 0.0895315
threshold=0.91597561503675362 -0.0043513724455231488 0.23163587877119177 -1.3052627837519606 0.37400929674962563 -0.75319428994781956 1.3178076279435722 0.60355339059327384 -0.54806459851286682 -0.41374510378971185 0.35185250287537057 -0.38965436323411978 0.050718240484728457 -0.71634999521763543 -0.31083434505826335 0.09765323913190456
decision_type=2 2 2 2 2 2 2 2 2 2 2 2 2 2 2 2
left_child=1 3 6 -1 -2 -5 7 10 -4 11 14 -7 -11 -10 -3 -15
right_child=4 2 8 5 -6 9 -8 -9 13 12 -12 -13 -14 15 -16 -17
leaf_value=-0.030387207339517774 -0.038768560772159087 0.0033903072382478667 0.0070292728742407194 -0.017692505145179376 -0.015703769221615333 5.1223025657236583e-05 -0.0073916315454347382 -0.00224206423975856 0.016403957479633392 0.013133025178242297 0.02282044675063204 -0.013283004375450588 -0.00068630176108507891 0.029468332375249557 0.015757877268229744 0.025778429593358722
leaf_weight=20 34 30 21 35 26 20 29 34 20 21 27 27 21 31 21 35
leaf_count=20 34 30 21 35 26 20 29 34 20 21 27 27 21 31 21 35
internal_value=1.40883e-10 0.00440416 0.012297 -0.00918901 -0.0287738 -0.00576994 0.00537723 0.00868345 0.0214155 -0.0010813 0.0134459 -0.00760887 0.00622336 0.0249284 0.00848284 0.0275116
internal_weight=452 392 248 144 60 124 141 112 107 89 78 47 42 86 51 66
internal_count=452 392 248 144 60 124 141 112 107 89 78 47 42 86 51 66
is_linear=0
shrinkage=0.05


Tree=20
num_leaves=18
num_cat=0
split_feature=93 90 34 28 9 65 1 15 33 27 75 27 62 34 73 84 19
split_gain=20.6779 15.2114 6.00089 3.48868 3.30022 2.83039 3.11893 2.4524 1.61799 1.57756 1.0396 0.787014 0.701582 0.662492 0.631445 0.292509 0.0710827
threshold=0.91597561503675362 -0.010143369778946549 -0.057368883197430796 -1.138082987200723 -0.2259567382110553 0.14605035600709795 0.47758572713924058 0.87400079405553366 -0.019962224898448597 -0.54806459851286682 0.26360070862732482 0.55018842824718084 -0.030098852497033545 0.5323563566926176 0.11171668857741276 0.096254416667026207 0.16620370434581477
decision_type=2 2 2 2 2 2 2 2 2 2 2 2 2 2 2 2 2
left_child=1 3 9 -1 -2 -5 14 8 13 -3 -11 12 -10 -4 -7 16 -12
right_child=4 2 7 5 -6 6 -8 -9 11 10 15 -13 -14 -15 -16 -17 -18
leaf_value=-0.027249047202481464 -0.042208275441890181 0.007121228411172827 0.015187698155641555 0.0059038514737826397 -0.018089656194520964 0.0012497471955915294 -0.02547979420423508 0.019323231415315112 -0.0017376921134595964 0.014218969077899539 0.029301707978759497 0.0039941045050952764 -0.014378127730673269 0.0027449742298694731 -0.0092900569550693046 0.020817740504508436 0.025398886874318124
leaf_weight=22 23 21 20 37 37 27 25 22 23 29 28 21 21 23 30 23 20
leaf_count=22 23 21 20 37 37 27 25 22 23 29 28 21 21 23 30 23 20
internal_value=2.17184e-11 0.00418395 0.0115661 -0.00895738 -0.0273351 -0.00557572 -0.0107555 0.00410745 0.00100793 0.0195796 0.0221958 -0.00396971 -0.00777063 0.00853229 -0.00429752 0.025454 0.0276755
internal_weight=452 392 251 141 60 119 82 130 108 121 100 65 44 43 57 71 48
internal_count=452 392 251 141 60 119 82 130 108 121 100 65 44 43 57 71 48
is_linear=0
shrinkage=0.05


Tree=21
num_leaves=17
num_cat=0
split_feature=90 27 3 90 3 59 65 38 80 90 95 46 25 94 45 33
split_gain=18.3183 9.51093 5.59348 4.98243 4.58163 2.26846 2.20287 2.06324 1.96181 1.44296 1.0634 0.843258 0.707222 0.554955 0.505937 0.0999139
threshold=0.041734209844244009 -1.0929274201577088 -1.5366565189983705 -0.044104985942940343 0.15766126820728651 0.7237489553384483 0.16828519472495487 -0.38965436323411978 -0.22693771918771113 0.19253822775669532 2.5000000000000004 -0.8237255250988178 0.070937465384324258 0.37940952255126043 0.35628990975385993 -1.4042713411956533
decision_type=2 2 2 2 2 2 2 2 2 2 2 2 2 2 2 2
left_child=1 5 -3 6 9 -1 -4 -8 -5 12 -9 -10 14 15 -2 -6
right_child=4 2 3 8 13 -7 7 10 11 -11 -12 -13 -14 -15 -16 -17
leaf_value=-0.039987296443432574 0.0031906562796696868 -0.024688433234890304 0.0022716162869049162 -0.0032992524208869632 0.022477101981639866 -0.018765697302296758 0.0005229743374955087 -0.012161323175795618 0.006873865655506961 0.016860714165324513 -0.026733677692356562 0.018182434371727355 0.0085756619133193195 0.016012202498192588 -0.0075770693505182868 0.027009962018459073
leaf_weight=20 24 27 37 27 20 34 21 31 32 22 21 34 27 24 20 31
leaf_count=20 24 27 37 27 20 34 21 31 32 22 21 34 27 24 20 31
internal_value=5.83203e-12 -0.00774175 -0.00330816 -0.000464479 0.0130872 -0.0266255 -0.00766705 -0.0127045 0.0080547 0.00567218 -0.0180463 0.0126995 0.00220531 0.0222819 -0.00170376 0.0252324
internal_weight=452 284 230 203 168 54 110 73 93 93 52 66 71 75 44 51
internal_count=452 284 230 203 168 54 110 73 93 93 52 66 71 75 44 51
is_linear=0
shrinkage=0.05


Tree=22
num_leaves=18
num_cat=0
split_feature=26 88 56 27 57 90 65 16 46 34 34 90 94 74 1 22 77
split_gain=17.4454 9.66252 4.25614 4.03371 3.3175 3.26184 2.93006 2.27694 1.61653 1.53762 1.52066 0.814666 1.62575 0.697288 0.493391 0.222511 0.164133
threshold=0.81683875446135035 -0.016515531605428149 0.78972016185873373 0.2513753936578319 0.14340821130638343 -0.013708563405996748 0.064934724222638171 0.29246450954649789 -0.30688759000716392 0.55387237420529523 1.0000000180025095e-35 0.1058093600668908 -0.37940952255126009 0.077507427199603018 -0.34598938386120487 -0.35030128706396324 0.1007461592057821
decision_type=2 2 2 2 2 2 2 2 2 2 2 2 2 2 2 2 2
left_child=1 5 3 7 -2 -1 -6 8 13 -5 11 12 16 -3 -11 -9 -7
right_child=4 2 -4 9 6 10 -8 15 -10 14 -12 -13 -14 -15 -16 -17 -18
leaf_value=-0.0015418689115904273 -0.037318468067262855 -0.016332707412186124 0.019970771893858912 0.013739032690812433 -0.026883124234986362 0.026761537364550999 -0.0056831974592895657 0.0024243920360459015 -0.025571453322966894 0.0039880196451795875 0.0066339898742929409 0.027227601176127793 0.0077269894142563524 -0.003447796794491643 -0.0056621476595934764 -0.0047164813993731515 0.020510195177935422
leaf_weight=26 21 21 20 28 28 21 39 20 27 27 24 32 26 21 26 24 21
leaf_count=26 21 21 20 28 28 21 39 20 27 27 24 32 26 21 26 24 21
internal_value=1.2704e-11 0.00482984 -0.00199046 -0.0042545 -0.019978 0.0145601 -0.0145429 -0.0103587 -0.0160264 0.00426116 0.0179363 0.0206489 0.0175531 -0.00989025 -0.000746025 -0.00147063 0.0236359
internal_weight=452 364 214 194 88 150 67 113 69 81 124 100 68 42 53 44 42
internal_count=452 364 214 194 88 150 67 113 69 81 124 100 68 42 53 44 42
is_linear=0
shrinkage=0.05


Tree=23
num_leaves=18
num_cat=0
split_feature=26 88 56 27 90 79 94 16 34 58 34 84 3 1 59 66 90
split_gain=15.7445 8.72042 3.84116 3.64043 2.94381 2.71665 2.67601 2.05494 1.3877 1.38236 1.37239 0.856236 0.649083 0.445285 0.426751 0.200816 0.126156
threshold=0.81683875446135035 -0.016515531605428149 0.78972016185873373 0.2513753936578319 -0.013708563405996748 1.3080201187646376 0.1294095225512602 0.29246450954649789 0.55387237420529523 -0.35589529072744458 1.0000000180025095e-35 0.10229719945437978 0.15350583621610067 -0.34598938386120487 1.0260587775184307 -0.39456002461910245 0.079870569371325958
decision_type=2 2 2 2 2 2 2 2 2 2 2 2 2 2 2 2 2
left_child=1 4 3 7 -1 6 -2 9 -5 12 11 14 -3 -10 16 -9 -6
right_child=5 2 -4 8 10 -7 -8 15 13 -11 -12 -13 -14 -15 -16 -17 -18
leaf_value=-0.0014647754916670519 -0.033730104565620422 -0.015516071926270213 0.018972233310341837 0.013052081117140396 0.022313278044263522 -0.0050331846438348296 -0.012991918916148799 0.0023031724280735944 0.0037886187020275326 -0.02378891757024186 0.0063022903826398151 0.011151055611022143 -0.0029300813731970264 -0.0053790404031483028 0.016259617256847294 -0.0044806573447810178 0.027122503101825714
leaf_weight=26 35 21 20 28 30 25 28 20 27 28 24 23 20 26 22 24 25
leaf_count=26 35 21 20 28 30 25 28 20 27 28 24 23 20 26 22 24 25
internal_value=2.83118e-11 0.00458834 -0.00189094 -0.00404178 0.0138321 -0.0189791 -0.0245131 -0.00984072 0.0040481 -0.0152251 0.0170395 0.0196165 -0.00937656 -0.000708724 0.0221451 -0.0013971 0.0244993
internal_weight=452 364 214 194 150 88 63 113 81 69 124 100 41 53 77 44 55
internal_count=452 364 214 194 150 88 63 113 81 69 124 100 41 53 77 44 55
is_linear=0
shrinkage=0.05


Tree=24
num_leaves=18
num_cat=0
split_feature=26 88 56 27 57 10 90 16 46 9 34 84 18 81 95 95 61
split_gain=14.2094 7.87018 3.46665 3.2906 2.95793 2.68264 2.65679 1.74103 1.54272 1.35236 1.23858 0.772753 0.619636 0.533147 0.411907 0.361573 0.107547
threshold=0.81683875446135035 -0.016515531605428149 0.78972016185873373 0.43078019468436163 0.14340821130638343 0.18385761560201111 -0.013708563405996748 0.093144700016829063 -0.30688759000716392 -0.2259567382110553 1.0000000180025095e-35 0.10229719945437978 -0.46048639830714394 0.35515258393066823 3.5000000000000004 1.5000000000000002 0.11908428581664247
decision_type=2 2 2 2 2 2 2 2 2 2 2 2 2 2 2 2 2
left_child=1 6 3 7 -2 -6 -1 8 13 -5 11 14 -9 -3 16 -11 -8
right_child=4 2 -4 9 5 -7 10 12 -10 15 -12 -13 -14 -15 -16 -17 -18
leaf_value=-0.0013915366699970596 -0.034403928972425911 -0.002597924356814474 0.018023621700704099 0.014761966531691345 -0.021906946440906946 -0.0017869876666615405 0.025296142360856456 -0.0088492047784495213 -0.024595035288644873 0.0050611591967754076 0.0059871758741792298 0.010593502782285213 0.0020745136809316193 -0.013456442658431256 0.015255630016326904 -0.0038087681405832643 0.020837899638960759
leaf_weight=26 21 20 20 23 37 30 31 21 23 20 24 23 34 26 22 27 24
leaf_count=26 21 20 20 23 37 30 31 21 23 20 24 23 34 26 22 27 24
internal_value=1.10443e-11 0.00435893 -0.00179639 -0.00383969 -0.0180301 -0.012898 0.0131405 -0.00873235 -0.0140219 0.00482731 0.0161876 0.0186356 -0.00209636 -0.00873535 0.0210378 -3.4331e-05 0.0233507
internal_weight=452 364 214 194 88 67 150 124 69 70 124 100 55 46 77 47 55
internal_count=452 364 214 194 88 67 150 124 69 70 124 100 55 46 77 47 55
is_linear=0
shrinkage=0.05


Tree=25
num_leaves=18
num_cat=0
split_feature=93 90 75 9 40 56 88 92 33 71 70 34 73 35 2 57 84
split_gain=12.9417 9.45202 3.83397 2.67342 2.34789 2.49953 3.09921 2.46323 1.81772 1.53129 1.35991 1.01523 0.465398 0.340419 0.278862 0.123146 0.0138452
threshold=0.91597561503675362 -0.010143369778946549 0.23163587877119177 -0.2259567382110553 -0.33301829340741784 0.23270489210084541 0.10617215291741446 19.500000000000004 0.014223664458229852 0.078172840317323813 -1.0129684855614876 0.21465349529031133 0.095538350774628411 1.2847515428674958 0.70732243008761919 0.29847300700841511 -0.008085163765078748
decision_type=2 2 2 2 2 2 2 2 2 2 2 2 2 2 2 2 2
left_child=1 4 8 -2 12 6 -6 -7 11 -10 -4 -3 -1 15 -11 -12 -17
right_child=3 2 10 -5 5 7 -8 -9 9 14 13 -13 -14 -15 -16 16 -18
leaf_value=0.0085968126170337198 -0.035011810687897001 0.01653558009924988 0.0047498568260510056 -0.013304076424321612 -0.03219548985159592 0.0086427759953949142 -0.0084309421602965281 -0.015116203955840318 0.0094573159330386923 -0.0031794122067250069 0.017413980185630777 0.0041582409273581327 -0.0021897347597405314 0.013176423045806587 -0.010539968108588999 0.021248229936911511 0.022974356370312827
leaf_weight=20 23 30 21 37 23 24 34 20 22 31 21 37 20 20 22 26 21
leaf_count=20 23 30 21 37 23 24 34 20 22 31 21 37 20 20 22 26 21
internal_value=4.35334e-11 0.00331001 0.00912919 -0.0216254 -0.00704897 -0.0111094 -0.0180201 -0.00215676 0.00371509 -0.00163174 0.0161824 0.00970033 0.00320354 0.0189107 -0.00623474 0.0205972 0.0220195
internal_weight=452 392 251 60 141 101 57 44 142 75 109 67 40 88 53 68 47
internal_count=452 392 251 60 141 101 57 44 142 75 109 67 40 88 53 68 47
is_linear=0
shrinkage=0.05


Tree=26
num_leaves=17
num_cat=0
split_feature=26 25 93 23 83 56 4 34 73 8 10 86 35 22 7 7
split_gain=11.7697 6.55099 3.26267 2.39686 3.74471 1.95149 2.03246 1.44351 1.66524 1.13947 1.08317 0.933807 0.533823 0.325567 0.251803 0.237075
threshold=0.81683875446135035 -0.25766851286068543 0.78656609248549325 0.087347088192514216 1.3178076279435722 0.7192487125159569 -0.28800094398008536 -1.5200230205501091 0.10463541138731387 0.490595422077095 -0.12833367572779092 0.037466220770310955 -0.0099006417587722481 0.030931268185841156 -0.072331007200037531 -0.64328957396436948
decision_type=2 2 2 2 2 2 2 2 2 2 2 2 2 2 2 2
left_child=1 5 7 4 -2 6 13 -3 10 11 14 -8 -10 -1 -9 -12
right_child=3 2 -4 -5 -6 -7 9 8 12 -11 15 -13 -14 -15 -16 -17
leaf_value=0.0050345350705486326 -0.031758011917810185 0.022877838379806944 -0.0053412800936418923 -0.002537274579315082 -0.0075222853576893366 0.0098172132920643154 -0.024139848457915444 0.0089296943182125693 0.01262910073356969 -0.0039486666341432405 -0.0013194887863042263 -0.0099639313976065472 0.022578568240770928 -0.0029015622955436511 0.016863851714879276 0.0050230449633946756
leaf_weight=28 37 27 31 23 28 22 21 20 28 31 26 26 26 24 20 34
leaf_count=28 37 27 31 23 28 22 21 20 28 31 26 26 26 24 20 34
internal_value=4.98274e-11 0.00396711 0.00964683 -0.0164094 -0.021318 -0.0039546 -0.00628522 0.0122139 0.0103442 -0.0113898 0.00652348 -0.0162979 0.0174196 0.00137172 0.0128968 0.00227461
internal_weight=452 364 212 88 65 152 130 181 154 78 100 47 54 52 40 60
internal_count=452 364 212 88 65 152 130 181 154 78 100 47 54 52 40 60
is_linear=0
shrinkage=0.05


Tree=27
num_leaves=17
num_cat=0
split_feature=26 34 90 10 75 25 47 94 73 34 12 19 25 9 22 34
split_gain=10.7177 5.99945 3.68747 2.82235 2.66996 1.80035 1.62718 1.25358 1.19429 1.18827 0.699618 0.856933 0.697325 0.271691 0.223143 0.191118
threshold=0.94470197361496833 -0.29940727555293783 0.096501632255100958 -1.2442525815321643 -1.5530506586928106 0.93794813184194292 1.2822125818051118 -0.5 0.097464913735598471 -0.27552791241928809 -0.29067683346238476 0.53672431892001615 -0.197712749009579 0.23579534411082378 0.010169866321540903 -1.5200230205501091
decision_type=2 2 2 2 2 2 2 2 2 2 2 2 2 2 2 2
left_child=1 7 3 -3 -5 9 10 15 -9 -2 14 13 -4 -12 -6 -1
right_child=5 2 12 4 6 -7 -8 8 -10 -11 11 -13 -14 -15 -16 -17
leaf_value=0.021733946491170816 -0.032700219614939262 -0.017070686512372712 0.0042489456378721766 -0.017164096811219401 0.0054569483334676204 -0.0074854428210528569 0.014390792327467353 -0.0005295747243191885 0.015414699275667468 -0.01607219543906727 -0.0098211450064006976 0.0050787761574611068 0.01483526169056339 -0.0031029767914636372 -0.00067070789324740572 0.015838165009128196
leaf_weight=27 22 33 28 23 39 24 20 23 24 21 34 20 35 27 24 28
leaf_count=27 22 33 28 23 39 24 20 23 24 21 34 20 35 27 24 28
internal_value=-1.51282e-11 0.00321187 -0.000535287 -0.0035895 -0.00121047 -0.0184563 0.00102693 0.0136084 0.00761218 -0.0245796 -0.000829165 -0.00390276 0.0101302 -0.00684753 0.0031226 0.0187325
internal_weight=452 385 283 220 187 67 164 102 47 43 144 81 63 61 63 55
internal_count=452 385 283 220 187 67 164 102 47 43 144 81 63 61 63 55
is_linear=0
shrinkage=0.05


Tree=28
num_leaves=18
num_cat=0
split_feature=93 33 3 6 9 34 75 50 10 84 26 62 9 33 29 69 84
split_gain=9.95268 7.18326 2.53806 2.6693 2.31567 2.21099 2.03653 1.21867 1.14645 0.84849 0.411069 0.548427 0.400576 0.304454 0.245897 0.194859 0.123853
threshold=0.91597561503675362 0.014223664458229852 1.3685269234381561 1.140733623747211 1.0000000180025095e-35 0.37251581966983915 -1.5530506586928106 0.26799759640318194 0.7284346596519079 0.073951992969788063 0.46022325479113108 0.46022325479113108 0.55614983258184358 0.55517117651504366 0.14541817793326742 0.25081062905539669 -0.14877145510145592
decision_type=2 2 2 2 2 2 2 2 2 2 2 2 2 2 2 2 2
left_child=1 5 3 6 -2 8 -3 10 9 14 11 13 -7 -8 -1 -15 -16
right_child=4 2 -4 -5 -6 12 7 -9 -10 -11 -12 -13 -14 15 16 -17 -18
leaf_value=0.024555373340845107 -0.029823804213837898 -0.02199830886675045 0.011916856760159135 0.012299459867645055 -0.010079370585806442 0.0063440673744245878 0.0065796010402846151 -0.01296251639094506 0.0045640157920348902 0.0089621803257614371 -0.0081136971205034141 -0.0071442122750270832 -0.0020714781282899475 -0.0045202153688296684 0.015416747657582164 0.00204436790663749 0.020496384116510551
leaf_weight=20 27 20 25 20 33 31 20 37 23 24 26 26 26 20 24 26 24
leaf_count=20 27 20 25 20 33 31 20 37 23 24 26 26 26 20 24 26 24
internal_value=4.14021e-12 0.00290271 -0.00308197 -0.00500489 -0.0189644 0.0105575 -0.00698254 -0.00504502 0.0145486 0.0170447 -0.00256241 -0.000993568 0.0025054 0.00142941 0.0198974 -0.000809799 0.0179566
internal_weight=452 392 220 195 60 172 175 155 115 92 118 92 57 66 68 46 48
internal_count=452 392 220 195 60 172 175 155 115 92 118 92 57 66 68 46 48
is_linear=0
shrinkage=0.05


Tree=29
num_leaves=19
num_cat=0
split_feature=26 34 44 90 75 18 9 59 27 94 73 88 53 3 74 35 51 80
split_gain=9.0298 5.01985 3.17529 2.73729 2.09774 2.39641 1.64633 1.19206 1.09969 1.03935 1.03047 0.886427 0.483436 0.669042 0.267908 0.292021 0.170825 0.124632
threshold=0.94470197361496833 -0.29940727555293783 1.0363869522370812 0.096501632255100958 -1.5530506586928106 -0.89656749384012679 -0.36238281248048193 0.87400079405553366 -1.1964977378075192 -0.5 0.097464913735598471 -1.0000000180025095e-35 0.046072640702041361 -0.52438429710017787 -0.12789757378746208 0.57603212056796893 -0.2946616382293275 0.73211842229835444
decision_type=2 2 2 2 2 2 2 2 2 2 2 2 2 2 2 2 2 2
left_child=1 9 3 4 -3 7 -2 -6 -8 16 -11 -5 -7 -14 -15 17 -1 -16
right_child=6 2 -4 11 5 12 8 -9 -10 10 -12 -13 13 14 15 -17 -18 -19
leaf_value=0.019313745332114839 -0.026480540144257249 -0.01955919067064921 0.017762718281962655 0.01503265099041164 -0.0053905765018002552 0.0073522889148443932 -0.01879178572446108 -0.022256759051233532 -0.0022110145492479204 -0.00056455984873616182 0.014245861427237591 0.0019666911413272221 -0.0076790342540961915 0.0061324941227212555 -0.00012997223079324731 0.0046656041539141109 0.013578152279591277 -0.0048748729396611455
leaf_weight=34 27 21 22 25 22 20 20 20 20 23 24 27 29 20 31 21 21 25
leaf_count=34 27 21 22 25 22 20 20 20 20 23 24 27 29 20 31 21 21 25
internal_value=2.01924e-11 0.00294813 -0.000479483 -0.00201714 -0.00457125 -0.00289706 -0.0169408 -0.0134221 -0.0105014 0.0124581 0.00699821 0.0082484 0.000130688 -0.0010156 0.000976563 -0.00036264 0.0171238 -0.00224823
internal_weight=452 385 283 261 209 188 67 42 40 102 47 52 146 126 97 77 55 56
internal_count=452 385 283 261 209 188 67 42 40 102 47 52 146 126 97 77 55 56
is_linear=0
shrinkage=0.05


Tree=30
num_leaves=18
num_cat=0
split_feature=93 33 3 6 47 34 75 50 10 84 58 37 74 26 0 7 95
split_gain=8.26288 5.93615 2.11286 2.26641 2.06128 1.91808 1.66683 1.02499 1.01702 0.714093 0.57842 0.333227 0.213513 0.196522 0.18571 0.118607 0.0899752
threshold=0.91597561503675362 0.014223664458229852 1.3685269234381561 1.140733623747211 0.78448189163970017 0.55387237420529523 -1.5530506586928106 0.26799759640318194 0.7284346596519079 0.049342494496226408 -0.4397892388611408 0.18127551363547525 -0.012731023587036797 -0.92019606399942255 -0.69647103541680144 0.21158046376781206 2.5000000000000004
decision_type=2 2 2 2 2 2 2 2 2 2 2 2 2 2 2 2 2
left_child=1 5 3 6 -2 8 -3 10 9 12 11 14 -1 -7 -8 -12 -14
right_child=4 2 -4 -5 -6 13 7 -9 -10 -11 15 -13 16 -15 -16 -17 -18
leaf_value=0.022196129448711872 -0.028245061352849005 -0.019956945044687022 0.010889312461018562 0.011394998100586237 -0.0094471408825899869 -0.0025951537364364966 -0.00031425000168383126 -0.011880624994031481 0.0038715949210409934 0.0088999648324467936 -0.008860369000583887 -0.0040801162288213767 0.018645644932985306 0.0040948777548259216 0.0062094321571445716 -0.0039899096377193936 0.014286359020605169
leaf_weight=20 25 20 25 20 35 23 20 37 26 33 25 24 20 21 24 25 29
leaf_count=20 25 20 25 20 35 23 20 37 26 33 25 24 20 21 24 25 29
internal_value=6.64495e-12 0.00264484 -0.00279558 -0.00455005 -0.0172796 0.00960351 -0.00637235 -0.00461949 0.0126992 0.0149494 -0.0023427 0.000659097 0.0178426 0.000597816 0.00324412 -0.00642514 0.0160657
internal_weight=452 392 220 195 60 172 175 155 128 102 118 68 69 44 44 50 49
internal_count=452 392 220 195 60 172 175 155 128 102 118 68 69 44 44 50 49
is_linear=0
shrinkage=0.05


Tree=31
num_leaves=19
num_cat=0
split_feature=26 25 23 83 44 12 9 33 41 84 19 9 4 95 33 84 18 19
split_gain=7.59532 4.90021 3.43392 3.82221 2.08176 2.15111 1.40449 1.21147 0.849395 0.524059 0.356939 0.348186 0.309957 0.246536 0.187856 0.117268 0.10976 0.0429552
threshold=0.70732243008761919 -0.054716915922418841 0.27293095795330452 1.3178076279435722 0.99108484032237965 -0.34849432644671546 -0.2259567382110553 0.23163587877119177 0.053372933391154002 0.1186757515321207 0.074319721762761012 0.23579534411082378 -0.17241251507882283 2.5000000000000004 1.2321241573243211 0.011522571281613251 -0.088477550260081431 -0.11815102874282038
decision_type=2 2 2 2 2 2 2 2 2 2 2 2 2 2 2 2 2 2
left_child=1 4 3 6 5 10 -2 9 -7 12 15 14 16 -14 -10 -1 -3 -13
right_child=2 7 -4 -5 -6 8 -8 -9 11 -11 -12 17 13 -15 -16 -17 -18 -19
leaf_value=-0.001728836573538897 -0.034366760944778273 0.015065958747459996 0.0063954936584369061 -0.0031975486548617483 0.013418195750564339 -0.017173867362240951 -0.017613307585747081 0.0022062631050200278 -0.0056595311465207493 0.0062722322584774634 0.0085386735821058133 -0.00093220387119799855 0.014696276487539645 0.0071058657951653011 -0.012430478721147492 0.0033772900319573558 0.019816908910870554 -0.0042092158086597924
leaf_weight=23 22 31 21 34 20 21 29 37 20 26 22 20 23 20 21 22 20 20
leaf_count=23 22 31 21 34 20 21 29 37 20 26 22 20 23 20 21 22 20 20
internal_value=-2.44421e-11 0.00358747 -0.0117101 -0.0161832 -0.00183576 -0.00364096 -0.0248403 0.0101161 -0.00821285 0.0125549 0.00331922 -0.00588962 0.0142927 0.0111659 -0.00912758 0.000767492 0.0169291 -0.00257071
internal_weight=452 346 106 85 189 169 51 157 102 120 67 81 94 43 41 45 51 40
internal_count=452 346 106 85 189 169 51 157 102 120 67 81 94 43 41 45 51 40
is_linear=0
shrinkage=0.05


Tree=32
num_leaves=17
num_cat=0
split_feature=93 24 13 3 9 0 32 50 25 95 3 84 9 93 69 85
split_gain=6.73606 4.50455 2.00651 2.63534 1.79656 1.51616 1.78618 0.92059 0.789404 0.580787 0.530076 0.40566 0.402638 0.27528 0.194357 0.117306
threshold=0.91597561503675362 -0.089888613512391136 0.94195633808887547 -1.3052627837519606 1.0000000180025095e-35 -0.34862075097562123 0.47423618265512318 -0.44747818945784062 -0.070216418651125836 2.5000000000000004 0.083009423435386323 0.018629367486092053 -0.16789747461850243 -0.37940952255126054 0.45668237429332836 3.053113317719181e-16
decision_type=2 2 2 2 2 2 2 2 2 2 2 2 2 2 2 2
left_child=1 2 3 -1 -2 10 8 13 -7 11 -3 -10 -9 -5 -14 -12
right_child=4 5 -4 7 -6 6 -8 12 9 -11 15 -13 14 -15 -16 -17
leaf_value=-0.02136672931638631 -0.025166783664651495 0.0060802959371358163 0.011502555673941969 0.0060590430331233496 -0.0077756756662645133 -0.001257328573614359 -0.0093605038887333309 -0.009539827324139577 0.017734986313042187 0.0042535174815719464 0.013327883824573032 0.0083916147400696691 -0.00020848606169844667 -0.0016213541757315398 -0.0064801879404556189 0.01786641919364532
leaf_weight=22 27 22 20 28 33 25 21 39 21 38 35 26 30 20 21 24
leaf_count=22 27 22 20 28 33 25 21 39 21 38 35 26 30 20 21 24
internal_value=1.98962e-11 0.00238801 -0.00342879 -0.00529521 -0.0156017 0.00732681 0.00400188 -0.00273308 0.00655288 0.00885 0.0127042 0.0125663 -0.00571546 0.00285888 -0.00279095 0.0151741
internal_weight=452 392 180 160 60 212 131 138 110 85 81 47 90 48 51 59
internal_count=452 392 180 160 60 212 131 138 110 85 81 47 90 48 51 59
is_linear=0
shrinkage=0.05


end of trees

feature_importances:
Column_90=41
Column_34=29
Column_26=25
Column_3=24
Column_27=24
Column_93=24
Column_94=22
Column_25=15
Column_9=14
Column_88=14
Column_10=13
Column_33=13
Column_73=13
Column_84=13
Column_13=10
Column_65=8
Column_17=7
Column_37=7
Column_45=7
Column_56=7
Column_61=7
Column_75=7
Column_77=7
Column_95=7
Column_7=6
Column_39=6
Column_43=6
Column_46=6
Column_79=6
Column_92=6
Column_0=5
Column_1=5
Column_16=5
Column_18=5
Column_24=5
Column_31=5
Column_35=5
Column_38=5
Column_57=5
Column_82=5
Column_12=4
Column_15=4
Column_19=4
Column_47=4
Column_49=4
Column_50=4
Column_59=4
Column_5=3
Column_22=3
Column_23=3
Column_29=3
Column_32=3
Column_58=3
Column_62=3
Column_66=3
Column_69=3
Column_70=3
Column_74=3
Column_80=3
Column_83=3
Column_2=2
Column_4=2
Column_6=2
Column_8=2
Column_11=2
Column_21=2
Column_44=2
Column_53=2
Column_55=2
Column_81=2
Column_85=2
Column_86=2
Column_14=1
Column_28=1
Column_30=1
Column_40=1
Column_41=1
Column_51=1
Column_52=1
Column_71=1
Column_72=1

parameters:
[boosting: gbdt]
[objective: regression]
[metric: rmse]
[tree_learner: serial]
[device_type: cpu]
[data_sample_strategy: bagging]
[data: ]
[valid: ]
[num_iterations: 1500]
[learning_rate: 0.05]
[num_leaves: 31]
[num_threads: 0]
[seed: 42]
[deterministic: 0]
[force_col_wise: 0]
[force_row_wise: 0]
[histogram_pool_size: -1]
[max_depth: -1]
[min_data_in_leaf: 20]
[min_sum_hessian_in_leaf: 0.001]
[bagging_fraction: 0.8]
[pos_bagging_fraction: 1]
[neg_bagging_fraction: 1]
[bagging_freq: 0]
[bagging_seed: 400]
[bagging_by_query: 0]
[feature_fraction: 0.8]
[feature_fraction_bynode: 1]
[feature_fraction_seed: 30056]
[extra_trees: 0]
[extra_seed: 12879]
[early_stopping_round: 0]
[early_stopping_min_delta: 0]
[first_metric_only: 0]
[max_delta_step: 0]
[lambda_l1: 0]
[lambda_l2: 0]
[linear_lambda: 0]
[min_gain_to_split: 0]
[drop_rate: 0.1]
[max_drop: 50]
[skip_drop: 0.5]
[xgboost_dart_mode: 0]
[uniform_drop: 0]
[drop_seed: 17869]
[top_rate: 0.2]
[other_rate: 0.1]
[min_data_per_group: 100]
[max_cat_threshold: 32]
[cat_l2: 10]
[cat_smooth: 10]
[max_cat_to_onehot: 4]
[top_k: 20]
[monotone_constraints: ]
[monotone_constraints_method: basic]
[monotone_penalty: 0]
[feature_contri: ]
[forcedsplits_filename: ]
[refit_decay_rate: 0.9]
[cegb_tradeoff: 1]
[cegb_penalty_split: 0]
[cegb_penalty_feature_lazy: ]
[cegb_penalty_feature_coupled: ]
[path_smooth: 0]
[interaction_constraints: ]
[verbosity: -1]
[saved_feature_importance_type: 0]
[use_quantized_grad: 0]
[num_grad_quant_bins: 4]
[quant_train_renew_leaf: 0]
[stochastic_rounding: 1]
[linear_tree: 0]
[max_bin: 255]
[max_bin_by_feature: ]
[min_data_in_bin: 3]
[bin_construct_sample_cnt: 200000]
[data_random_seed: 175]
[is_enable_sparse: 1]
[enable_bundle: 1]
[use_missing: 1]
[zero_as_missing: 0]
[feature_pre_filter: 1]
[pre_partition: 0]
[two_round: 0]
[header: 0]
[label_column: ]
[weight_column: ]
[group_column: ]
[ignore_column: ]
[categorical_feature: ]
[forcedbins_filename: ]
[precise_float_parser: 0]
[parser_config_file: ]
[objective_seed: 16083]
[num_class: 1]
[is_unbalance: 0]
[scale_pos_weight: 1]
[sigmoid: 1]
[boost_from_average: 1]
[reg_sqrt: 0]
[alpha: 0.9]
[fair_c: 1]
[poisson_max_delta_step: 0.7]
[tweedie_variance_power: 1.5]
[lambdarank_truncation_level: 30]
[lambdarank_norm: 1]
[label_gain: ]
[lambdarank_position_bias_regularization: 0]
[eval_at: ]
[multi_error_top_k: 1]
[auc_mu_weights: ]
[num_machines: 1]
[local_listen_port: 12400]
[time_out: 120]
[machine_list_filename: ]
[machines: ]
[gpu_platform_id: -1]
[gpu_device_id: -1]
[gpu_use_dp: 0]
[num_gpu: 1]

end of parameters

pandas_categorical:null
