tree
version=v4
num_class=1
num_tree_per_iteration=1
label_index=0
max_feature_idx=96
objective=regression
feature_names=Column_0 Column_1 Column_2 Column_3 Column_4 Column_5 Column_6 Column_7 Column_8 Column_9 Column_10 Column_11 Column_12 Column_13 Column_14 Column_15 Column_16 Column_17 Column_18 Column_19 Column_20 Column_21 Column_22 Column_23 Column_24 Column_25 Column_26 Column_27 Column_28 Column_29 Column_30 Column_31 Column_32 Column_33 Column_34 Column_35 Column_36 Column_37 Column_38 Column_39 Column_40 Column_41 Column_42 Column_43 Column_44 Column_45 Column_46 Column_47 Column_48 Column_49 Column_50 Column_51 Column_52 Column_53 Column_54 Column_55 Column_56 Column_57 Column_58 Column_59 Column_60 Column_61 Column_62 Column_63 Column_64 Column_65 Column_66 Column_67 Column_68 Column_69 Column_70 Column_71 Column_72 Column_73 Column_74 Column_75 Column_76 Column_77 Column_78 Column_79 Column_80 Column_81 Column_82 Column_83 Column_84 Column_85 Column_86 Column_87 Column_88 Column_89 Column_90 Column_91 Column_92 Column_93 Column_94 Column_95 Column_96
feature_infos=[-2.1998833971435583:3.8692245819541] [-2.7311108107751423:2.9342347356773439] [-1.8657831647695711:3.0072490900536955] [-2.5529133812149469:1.6101919081681242] [-2.1998833971435583:3.8692245819541] [-2.1998833971435583:3.8692245819541] [-2.1998833971435583:3.8692245819541] [-2.1998833971435583:3.8692245819541] [-2.1998833971435583:3.8692245819541] [-2.1998833971435583:3.8692245819541] [-2.1998833971435583:3.8692245819541] [-2.1998833971435583:3.8692245819541] [-1.9320007597494584:2.9342347356773439] [-1.859047007532957:2.9342347356773439] [-1.859047007532957:2.9342347356773439] [-1.859047007532957:2.9342347356773439] [-1.859047007532957:2.9342347356773439] [-1.859047007532957:2.9342347356773439] [-1.859047007532957:2.9342347356773439] [-1.859047007532957:2.9342347356773439] [-1.8657831647695711:3.0072490900536955] [-1.8657831647695711:3.0072490900536955] [-1.8657831647695711:3.0072490900536955] [-1.8657831647695711:3.0072490900536955] [-1.8657831647695711:3.0072490900536955] [-1.8657831647695711:3.0072490900536955] [-1.8657831647695711:3.0072490900536955] [-1.8657831647695711:3.0072490900536955] [-2.5529133812149469:1.6101919081681242] [-2.5529133812149469:1.6101919081681242] [-2.5529133812149469:1.6101919081681242] [-2.5529133812149469:1.6101919081681242] [-2.5529133812149469:1.6101919081681242] [-2.5529133812149469:1.6101919081681242] [-2.5529133812149469:1.6101919081681242] [-2.5529133812149469:1.6101919081681242] [-2.1943998713224748:3.860955103998494] [0:0.64091636210500835] [-2.1998833971435583:3.8444161480872814] [-2.1834328196803083:3.8692245819541] [-2.0502608434919503:3.4667554410842456] [0.0129357168687007:1.1990447202872401] [-2.1998833971435583:2.7114340270781718] [-1.9712402670866471:3.8692245819541] [-1.932948267045105:2.5960032455690443] [0.035760317866485598:1.9186767675887024] [-2.1998833971435583:0.93753554396405259] [-1.5914568726755396:3.8692245819541] [-1.9320007597494584:2.9254944873857887] [0:0.79911005102568644] [-2.7311108107751423:2.9080139908026763] [-1.8127682122186928:2.9342347356773439] [-1.7851311521189921:2.6127850031769086] [0.0046847623953103004:1.0089541756083835] [-2.7311108107751423:2.0092166554880402] [-1.6979244302412551:2.9342347356773439] [-1.6596775770260204:1.9378983043868172] [0.011542011266000501:1.4832385927490881] [-2.7311108107751423:0.67365129660583112] [-1.387882022303996:2.9342347356773439] [-1.8451540357335789:2.9846685901421126] [0:0.49400127039002178] [-1.8657831647695711:2.9395075903189469] [-1.8038957776615949:3.0072490900536955] [-1.7884380586968991:2.6892051597494797] [0.00096666584179219998:0.92419175121524899] [-1.8657831647695711:2.3001479859722864] [-1.6801210034456429:3.0072490900536955] [-1.6595342578465446:2.257648937546501] [0.013313685757746999:1.4763124206384557] [-1.8657831647695711:1.7148842870889596] [-1.4325714550137381:3.0072490900536955] [-2.5495322579552977:1.6063346788399731] [0:1.0209555603838525] [-2.5529133812149469:1.598620220183671] [-2.5427700114360001:1.6101919081681242] [-2.5360077649167021:1.5909057615273687] [0.0031661635704869:1.0864902026921488] [-2.5529133812149469:1.5639051562303117] [-2.5123399020991601:1.6101919081681242] [-2.3875739120518031:1.5257770023605477] [0.028997445992063699:1.41763179728068] [-2.5529133812149469:1.3346398443358181] [-1.7649108450292197:1.6101919081681242] [-0.93079171113892045:0.76220274489637097] [-1.5329573266440155:1.4299605693017208] [-1.0943781514118989:0.49708783356833369] [-1.0493859139424051:1.0943781514118989] [-0.4940012703900109:0.52971369659365941] [-0.52971369659365941:0.53547822385846622] [-0.58075344179437127:1.6123283976638283] [-1.3334356291427802:1.6123283976638283] [0:23] [-1:1] [-1:1] [0:5] [0:5]
tree_sizes=1510 1588 1594 1516 1762 1767 1593 1765 1692 1773 1689 1679 1777 1698 1778 1685 1600 1608 1698 1873 1774 1788 1786 1696 1613 1622 1889 1618 1799 1627 1710 1625 1723 1627 1803 1634 1637 1714 1813 1645

Tree=0
num_leaves=16
num_cat=0
split_feature=1 1 1 38 1 1 1 84 15 9 86 22 12 1 86
split_gain=217.555 65.4059 39.9387 8.79248 6.99435 5.53302 2.83569 1.91606 1.65921 1.08195 0.902096 0.826933 0.433762 0.356619 0.356231
threshold=0.15682118588128821 -0.79687535000149312 0.99685821883565051 -0.47108477252780628 0.54979549468444489 -1.2038858639979797 -0.14469083403490809 0.014819617359045351 0.42465906616455573 -0.46113680264801543 0.043517585429604454 0.077004804097421511 -0.34849432644671546 -0.28519069771283434 1.0000000180025095e-35
decision_type=2 2 2 2 2 2 2 2 2 2 2 2 2 2 2
left_child=1 5 4 7 8 -1 13 12 11 -6 -8 -2 -3 14 -5
right_child=2 3 -4 6 9 -7 10 -9 -10 -11 -12 -13 -14 -15 -16
leaf_value=-0.12915611033588267 -0.0076650238901338555 -0.081926637342697978 0.046466682902139171 -0.062654296309210558 0.010724800975760028 -0.1001887755127476 -0.046454893213751784 -0.06169096737681351 -0.030005824037073033 -0.0039796384979900457 -0.03390888307463482 -0.021566483481030171 -0.072317702904386355 -0.051249030434336422 -0.054377458187704675
leaf_weight=32 20 23 38 26 22 34 38 36 33 29 23 23 24 25 26
leaf_count=32 20 23 38 26 22 34 38 36 33 29 23 23 24 25 26
internal_value=-0.0442538 -0.0705556 0.00149544 -0.0575116 -0.0119605 -0.114234 -0.0497771 -0.0703712 -0.0215727 0.00236345 -0.0417244 -0.0151007 -0.0770199 -0.0561565 -0.0585159
internal_weight=452 287 165 221 127 66 138 83 76 51 61 43 47 77 52
internal_count=452 287 165 221 127 66 138 83 76 51 61 43 47 77 52
is_linear=0
shrinkage=1


Tree=1
num_leaves=17
num_cat=0
split_feature=0 1 0 0 0 0 0 15 86 0 0 25 86 1 5 84
split_gain=200.363 53.2733 40.9577 13.1836 8.62755 5.94844 2.06314 2.0344 1.28725 1.21012 1.09793 0.524589 0.501445 0.284494 0.217735 0.136626
threshold=0.11229577689006585 -0.79687535000149312 1.36458720385358 0.73320899709536713 -0.46113680264801543 -1.589489022724456 0.29890338924042881 0.33061227544445854 0.012024478225483902 -0.12353915135436423 -1.2100122804531022 0.041921417381970007 -0.030754086159712198 -0.31458947778190188 0.072207349541466515 -0.034446916149510794
decision_type=2 2 2 2 2 2 2 2 2 2 2 2 2 2 2 2
left_child=1 5 3 6 11 -1 -2 -5 -8 12 -7 15 -6 -14 -11 -3
right_child=2 4 -4 7 9 10 8 -9 -10 14 -12 -13 13 -15 -16 -17
leaf_value=-0.088454094387236101 0.011666364695977521 -0.035795772253047857 0.10435113961046392 0.061085392479543338 -0.01762383606284857 -0.064212062683972448 0.019458504763486633 0.04201314726780201 0.033217179205487758 0.0034605745272710919 -0.048588190260140794 -0.023900005565239833 -0.011705447165056683 -0.0055850433085013083 -0.0039173557749018076 -0.030021410845220087
leaf_weight=21 37 21 22 27 20 22 34 29 34 20 23 26 39 37 20 20
leaf_count=21 37 21 22 27 20 22 34 29 34 20 23 26 39 37 20 20
internal_value=-3.60578e-11 -0.0274574 0.0403609 0.0316169 -0.01477 -0.0664808 0.0211679 0.0512087 0.0263378 -0.00753508 -0.0562265 -0.0294558 -0.0105795 -0.00872578 -0.000228391 -0.032979
internal_weight=452 269 183 161 203 66 105 56 68 136 45 67 96 76 40 41
internal_count=452 269 183 161 203 66 105 56 68 136 45 67 96 76 40 41
is_linear=0
shrinkage=0.05


Tree=2
num_leaves=17
num_cat=0
split_feature=1 1 1 1 1 39 1 15 84 86 1 86 39 84 1 86
split_gain=177.284 53.6372 33.1386 7.86631 7.05647 4.71782 3.18244 1.73625 1.37665 1.16128 0.862747 0.83033 0.770204 0.761448 0.316761 0.178917
threshold=0.15682118588128821 -0.66120268327951048 1.0837271152199199 0.60793775644128001 -1.2038858639979797 -0.36238281248048193 -0.14469083403490809 0.33061227544445854 -0.032440552154191095 -0.084759197478117124 -0.89656749384012679 0.043517585429604454 0.490595422077095 0.01539679914969975 -0.29067683346238476 1.0000000180025095e-35
decision_type=2 2 2 2 2 2 2 2 2 2 2 2 2 2 2 2
left_child=1 4 3 8 -1 13 9 -5 -2 -7 -6 -8 -10 -3 15 -11
right_child=2 5 -4 7 10 6 11 -9 12 14 -12 -13 -14 -15 -16 -17
leaf_value=-0.076699969451874503 0.013461752925914797 -0.029366114203419003 0.090863620276962015 0.056276238871657329 -0.052053418755531315 -0.022608438152819873 -0.0020818469825347788 0.038266058592125778 0.021466861639557216 -0.015144691430032255 -0.03845656737685204 0.0096510129049420367 0.034221173971891408 -0.01659241084009409 -0.0048409701158691736 -0.008952820354274341
leaf_weight=32 33 28 28 23 28 20 38 32 29 20 20 25 20 20 28 28
leaf_count=32 33 28 28 23 28 20 38 32 29 20 20 25 20 20 28 28
internal_value=-1.03744e-10 -0.023743 0.0412985 0.0311684 -0.0585128 -0.0103054 -0.00615801 0.0457976 0.0213561 -0.0118884 -0.0463881 0.00257405 0.0266727 -0.0240437 -0.00906737 -0.0115328
internal_weight=452 287 165 137 80 207 159 55 82 96 48 63 49 48 76 48
internal_count=452 287 165 137 80 207 159 55 82 96 48 63 49 48 76 48
is_linear=0
shrinkage=0.05


Tree=3
num_leaves=16
num_cat=0
split_feature=1 1 1 1 1 38 84 58 1 58 95 84 84 39 90
split_gain=159.998 48.4075 29.9076 7.09979 6.36847 4.39534 1.90102 1.44845 1.40522 1.18172 0.873924 0.787022 0.6045 0.549138 0.351066
threshold=0.15682118588128821 -0.66120268327951048 1.0837271152199199 0.54979549468444489 -1.2038858639979797 -0.31568336168363481 0.012840590899850552 -0.07827465407219418 0.036167110593887657 0.16620370434581477 2.5000000000000004 -1.0000000180025095e-35 0.014819617359045351 -0.31494104408026335 -0.089758660066526136
decision_type=2 2 2 2 2 2 2 2 2 2 2 2 2 2 2
left_child=1 4 3 9 -1 6 10 -5 12 -2 -3 -6 14 -8 -7
right_child=2 5 -4 7 11 8 13 -9 -10 -11 -12 -13 -14 -15 -16
leaf_value=-0.072864970937371251 0.025647307951983653 -0.015782599167331404 0.086320442280599055 0.052218351156815238 -0.050743623920108963 -0.0038696596450689767 -0.014556890063815648 0.036320784923277408 0.0087932475080544307 0.013177755114156753 -0.02847898119326794 -0.037927693903446198 0.0018096714025540722 -0.0039150739183903419 -0.011611304915277287
leaf_weight=32 38 23 28 23 23 27 27 38 22 38 33 25 21 22 32
leaf_count=32 38 23 28 23 23 27 27 38 22 38 33 25 21 22 32
internal_value=1.66124e-10 -0.0225559 0.0392336 0.02961 -0.0555872 -0.00979015 -0.0169712 0.0423149 -0.00239792 0.0194125 -0.0232644 -0.0440687 -0.00547549 -0.00977893 -0.00806852
internal_weight=452 287 165 137 80 207 105 61 102 76 56 48 80 49 59
internal_count=452 287 165 137 80 207 105 61 102 76 56 48 80 49 59
is_linear=0
shrinkage=0.05


Tree=4
num_leaves=19
num_cat=0
split_feature=0 0 0 0 0 0 0 0 84 44 0 1 52 84 38 86 84 31
split_gain=147.881 38.2442 31.8348 10.3459 5.98621 4.49446 1.6685 1.31331 0.843419 0.813256 0.77622 0.659315 0.74438 0.463606 0.308572 0.261277 0.229516 0.0492439
threshold=0.076622065818853377 -0.93914290070731987 1.36458720385358 0.6549537933284697 -0.46113680264801543 -1.589489022724456 0.86140621380356397 0.29890338924042881 -0.016473108283934546 0.68757869974120045 -1.2100122804531022 -0.28519069771283434 -0.20375859750932176 -0.008085163765078748 -0.12353915135436423 1.0000000180025095e-35 0.012840590899850552 0.22266298927037834
decision_type=2 2 2 2 2 2 2 2 2 2 2 2 2 2 2 2 2 2
left_child=1 5 3 7 13 -1 -5 16 -9 -8 -7 15 -13 -3 -14 -6 -2 -15
right_child=2 4 -4 6 11 10 9 8 -10 -11 -12 12 14 17 -16 -17 -18 -19
leaf_value=-0.076553144909086684 0.0058936689152766994 -0.030275115517101121 0.0902743781154806 0.031121248178757156 -0.014891727149486542 -0.055079754509709103 0.053578227499256961 0.013085720475230898 0.02583025435314459 0.039792202115058906 -0.041797674785960803 0.0029027053451640174 -0.011282009545427102 -0.023640855476260186 -0.0031330713647462075 -0.0080697007302660499 0.013217383474111558 -0.020132156722247604
leaf_weight=21 23 28 22 26 25 22 23 21 34 20 22 26 26 20 21 32 20 20
leaf_count=21 23 28 22 26 25 22 23 21 34 20 22 26 26 20 21 32 20 20
internal_value=-2.15761e-10 -0.0242443 0.0337368 0.0262888 -0.0133199 -0.0575218 0.0411202 0.0158462 0.0209642 0.0471661 -0.0484387 -0.00703215 -0.0038857 -0.0253406 -0.00764099 -0.0110618 0.00930005 -0.0218865
internal_weight=452 263 189 167 198 65 69 98 55 43 44 130 73 68 47 57 43 40
internal_count=452 263 189 167 198 65 69 98 55 43 44 130 73 68 47 57 43 40
is_linear=0
shrinkage=0.05


Tree=5
num_leaves=19
num_cat=0
split_feature=0 0 0 0 0 0 0 84 56 1 0 25 43 84 0 84 37 1
split_gain=133.463 34.5158 28.7309 9.33714 5.97142 3.58607 1.522 1.20194 0.778585 0.706009 0.60457 0.468954 0.446024 0.437022 0.288529 0.238603 0.0868356 0.0555584
threshold=0.076622065818853377 -0.99208564430928547 1.36458720385358 0.6549537933284697 -0.46113680264801543 -1.589489022724456 0.89443588974952304 0.073951992969788063 0.58498029723593703 0.39346123954076478 -0.23529663501042544 0.041921417381970007 0.022925501741995254 -1.0000000180025095e-35 -0.71686947634855869 -1.0000000180025095e-35 0.015973980940354852 0.17577658583626338
decision_type=2 2 2 2 2 2 2 2 2 2 2 2 2 2 2 2 2 2
left_child=1 5 3 7 11 -1 -5 9 -8 17 15 14 -12 -7 -3 -6 -17 -2
right_child=2 4 -4 6 10 13 8 -9 -10 -11 12 -13 -14 -15 -16 16 -18 -19
leaf_value=-0.072725483775138863 0.0056333322565825213 -0.031849132681434807 0.085760658031160189 0.030342860160202819 -0.014671390540897847 -0.052436214089393619 0.052362985312938697 0.023809151431279527 0.038411413952708251 0.017701782479083963 0.0013199258890757659 -0.019420333330829941 -0.0069618081220903924 -0.041983682960271836 -0.023839812482828682 -0.010409458974997204 -0.0059624134441432749 0.0092703891474576229
leaf_weight=21 21 22 22 29 20 20 20 28 20 28 29 27 37 20 23 21 23 21
leaf_count=21 21 22 22 29 20 20 20 28 20 28 29 27 37 20 23 21 23 21
internal_value=-1.97417e-11 -0.0230321 0.03205 0.0249743 -0.0130783 -0.055994 0.0390642 0.0150539 0.0453872 0.0115518 -0.00668055 -0.0246298 -0.00332286 -0.0472099 -0.0277555 -0.0101432 -0.00808487 0.00745186
internal_weight=452 263 189 167 202 61 69 98 40 70 130 72 66 40 45 64 44 42
internal_count=452 263 189 167 202 61 69 98 40 70 130 72 66 40 45 64 44 42
is_linear=0
shrinkage=0.05


Tree=6
num_leaves=17
num_cat=0
split_feature=1 1 1 1 1 39 1 15 1 9 86 86 84 1 18 6
split_gain=117.793 35.812 22.2006 6.3427 4.7561 3.1504 2.15685 1.60324 1.18932 1.01694 0.795005 0.607842 0.544121 0.374891 0.258175 0.127302
threshold=0.15682118588128821 -0.66120268327951048 1.1583407008797375 0.60793775644128001 -1.3593011533954154 -0.36238281248048193 -0.14469083403490809 0.33061227544445854 -0.97946290720034301 -0.43290498612647504 -0.084759197478117124 0.043517585429604454 0.01539679914969975 0.39346123954076478 -0.21287830647997821 -0.28055400211507692
decision_type=2 2 2 2 2 2 2 2 2 2 2 2 2 2 2 2
left_child=1 4 3 9 -1 12 10 -5 -6 -2 -7 -8 -3 -11 -12 -16
right_child=2 5 -4 7 8 6 11 -9 -10 13 14 -13 -14 -15 15 -17
leaf_value=-0.066956526688907461 0.025334561657574441 -0.024099254368671351 0.080422706495631824 0.047478768016610828 -0.047370425079550062 -0.018571699047461154 -0.00177934761235711 0.031212130143786921 -0.032923358832967695 0.0092823355631143963 -0.0026516115558998929 0.0082592691648751496 -0.013301229812204838 0.017539733348946488 -0.0065334369763731959 -0.011364457570016384
leaf_weight=23 27 28 22 28 28 20 38 33 29 27 21 25 20 28 25 30
leaf_count=23 27 28 22 28 28 20 38 33 29 27 21 25 20 28 25 30
internal_value=1.05469e-11 -0.0193536 0.0336635 0.0264698 -0.0477644 -0.00837355 -0.00498441 0.0386788 -0.0400202 0.0173874 -0.00970195 0.00220423 -0.0196001 0.0134861 -0.00736781 -0.00916854
internal_weight=452 287 165 143 80 207 159 61 57 82 96 63 48 55 76 55
internal_count=452 287 165 143 80 207 159 61 57 82 96 63 48 55 76 55
is_linear=0
shrinkage=0.05


Tree=7
num_leaves=19
num_cat=0
split_feature=0 0 0 0 0 0 0 86 43 0 56 86 84 0 38 17 0 31
split_gain=108.992 28.2177 23.7057 7.54357 4.3715 3.35242 1.24747 1.02973 0.695024 0.623971 0.614836 0.50469 0.376459 0.297957 0.193348 0.170157 0.0911997 0.0406206
threshold=0.076622065818853377 -0.93914290070731987 1.36458720385358 0.6549537933284697 -0.46113680264801543 -1.589489022724456 0.89443588974952304 0.0029655351748442507 0.30188827976850358 -1.2100122804531022 0.58498029723593703 0.055424823381517059 -0.008085163765078748 -0.31568336168363481 0.26659231901286368 0.079694330231536756 -0.15885675780384717 0.22266298927037834
decision_type=2 2 2 2 2 2 2 2 2 2 2 2 2 2 2 2 2 2
left_child=1 5 3 7 12 -1 -5 14 -9 -7 -8 13 -3 -6 -2 -15 -17 -14
right_child=2 4 -4 6 11 9 10 8 -10 -11 -12 -13 17 15 -16 16 -18 -19
leaf_value=-0.065834653803280421 0.0043925454374402761 -0.026148920113752996 0.077750982547348191 0.027304716331177745 -0.01323321731317611 -0.047507718069986868 0.047123819291591651 0.011273709613652457 0.022980107925832272 -0.035599249804561792 0.034725876674056057 -0.0010226483741361235 -0.020183108299970626 -0.0093649481361111012 0.010988242011517288 -0.0066058229816996538 -0.0019892256698221902 -0.016996395038440824
leaf_weight=21 20 28 22 29 21 22 20 21 32 22 20 36 20 30 25 23 20 20
leaf_count=21 20 28 22 29 21 22 20 21 32 22 20 36 20 30 25 23 20 20
internal_value=-4.57033e-11 -0.0208138 0.0289631 0.0225359 -0.01143 -0.0493982 0.0352004 0.0136191 0.0183417 -0.0415535 0.0409248 -0.00605677 -0.0217024 -0.00798473 0.00805682 -0.00647489 -0.00445857 -0.0185898
internal_weight=452 263 189 167 198 65 69 98 53 44 40 130 68 94 45 73 43 40
internal_count=452 263 189 167 198 65 69 98 53 44 40 130 68 94 45 73 43 40
is_linear=0
shrinkage=0.05


Tree=8
num_leaves=18
num_cat=0
split_feature=0 0 0 41 0 1 0 8 84 86 84 0 0 84 7 22 41
split_gain=98.3651 25.4905 21.3978 7.40765 4.35735 3.32812 2.67232 0.781012 0.772237 0.455483 0.384843 0.364011 0.268906 0.224588 0.222129 0.123714 0.194144
threshold=0.076622065818853377 -0.99208564430928547 1.0981006446846537 0.44373322203963322 -0.46113680264801543 0.47758572713924058 -1.589489022724456 -0.30446274333953988 0.043212275235995655 0.055424823381517059 -1.0000000180025095e-35 -0.71686947634855869 -0.31568336168363481 -1.0000000180025095e-35 0.46111043165243754 -0.17868643874539239 0.10380319032413576
decision_type=2 2 2 2 2 2 2 2 2 2 2 2 2 2 2 2 2
left_child=1 6 5 -4 11 7 -1 -2 -7 12 -8 -3 -6 -13 -9 -14 -17
right_child=2 4 3 -5 9 8 10 14 -10 -11 -12 13 15 -15 -16 16 -18
leaf_value=-0.062542921304702764 0.018873969620714585 -0.025293175651070973 0.039673506054613332 0.079821345955133446 -0.012571556475900469 0.021478528156876564 -0.045421095788478853 0.011243520942034908 0.032848695718816351 -0.00097151589450529888 -0.035612390860915187 -0.021738236149152122 -0.0038212615992961221 -0.014425692769388357 0.0050549735796862642 -0.0046118611292470064 -0.011495204493403436
leaf_weight=21 24 30 27 20 21 32 20 29 28 36 20 21 32 21 29 21 20
leaf_count=21 24 30 27 20 21 32 20 29 28 36 20 21 32 21 29 21 20
internal_value=-1.86754e-10 -0.0197731 0.0275149 0.0567577 -0.0112191 0.017836 -0.0480995 0.0112882 0.0267846 -0.00575393 -0.0405167 -0.0210866 -0.00758549 -0.018082 0.00814925 -0.00615114 -0.00796959
internal_weight=452 263 189 47 202 142 61 82 60 130 40 72 94 42 58 73 41
internal_count=452 263 189 47 202 142 61 82 60 130 40 72 94 42 58 73 41
is_linear=0
shrinkage=0.05


Tree=9
num_leaves=19
num_cat=0
split_feature=0 1 0 0 0 0 86 56 1 0 0 90 25 43 80 5 66 0
split_gain=88.7898 23.7732 18.9725 5.72346 3.71934 2.79766 0.985559 0.774577 0.745585 0.577659 0.576596 0.323165 0.319231 0.316003 0.215107 0.119496 0.116199 0.0311433
threshold=0.11229577689006585 -0.79687535000149312 1.36458720385358 0.73320899709536713 -0.46113680264801543 -1.589489022724456 0.11848740199563097 0.46433969287500593 0.39346123954076478 -1.2100122804531022 -0.12353915135436423 -0.004351372445522899 0.041921417381970007 -0.03942067747477724 -0.39535512532623046 0.072207349541466515 -0.14435136543365643 0.22320640551710028
decision_type=2 2 2 2 2 2 2 2 2 2 2 2 2 2 2 2 2 2
left_child=1 5 3 6 12 -1 8 -5 17 -7 13 -10 16 14 -6 -12 -3 -2
right_child=2 4 -4 7 10 9 -8 -9 11 -11 15 -13 -14 -15 -16 -17 -18 -19
leaf_value=-0.059415775395575021 0.0053736496309284123 -0.019465968399308625 0.070419835570183664 0.041417070087932412 -0.0080271306222882768 -0.043106495656750426 0.023720220334473113 0.029270531705447606 0.020251669313596645 -0.031773709732553237 0.0027240862930193546 0.011561312805861236 -0.015111120134735338 -0.010857321259876093 -0.0020362188108265403 -0.0027416175953112543 -0.024791208690121063 0.0081305403373248524
leaf_weight=21 20 20 22 21 29 22 21 35 23 23 20 20 26 36 31 20 21 21
leaf_count=21 20 20 22 21 29 22 21 35 23 23 20 20 26 36 31 20 21 21
internal_value=-1.48301e-10 -0.0182781 0.0268679 0.0209167 -0.0098027 -0.0443465 0.0140319 0.0338255 0.0116099 -0.0373142 -0.00505238 0.0162096 -0.0194451 -0.00715389 -0.00493183 -8.76565e-06 -0.0221935 0.00678572
internal_weight=452 269 183 161 203 66 105 56 84 45 136 43 67 96 60 40 41 41
internal_count=452 269 183 161 203 66 105 56 84 45 136 43 67 96 60 40 41 41
is_linear=0
shrinkage=0.05


Tree=10
num_leaves=18
num_cat=0
split_feature=0 0 0 0 0 0 0 84 56 86 84 41 0 18 6 84 69
split_gain=80.1685 20.8163 17.6175 5.59383 2.88764 2.72682 0.949854 0.797188 0.467503 0.467305 0.463116 0.458013 0.384594 0.324482 0.321615 0.30223 0.112682
threshold=0.076622065818853377 -0.92467073593111637 1.36458720385358 0.6549537933284697 -0.34862075097562123 -1.4654697664094913 0.89443588974952304 0.073951992969788063 0.58498029723593703 -0.030746408681701445 -0.054027300767937242 0.060690715799365962 -0.60181455470747192 -0.047056660870867538 -0.28055400211507692 -1.0000000180025095e-35 0.46291430840776415
decision_type=2 2 2 2 2 2 2 2 2 2 2 2 2 2 2 2 2
left_child=1 5 3 7 9 -1 -5 11 -8 -3 -7 -2 -11 15 -15 -6 -13
right_child=2 4 -4 6 13 10 8 -9 -10 12 -12 16 -14 14 -16 -17 -18
leaf_value=-0.053465397443090174 0.015163384005427362 -0.021432167375760695 0.066898843375119296 0.023315148440928298 -0.0047349751099116273 -0.038668718338012699 0.040605461746454241 0.018750951465751446 0.029794547185301778 -0.017135568464835806 -0.028037521101179574 0.0042725505245228609 -0.0082423136022407566 -0.0033160871771328593 -0.010483619180540074 0.0031598675763234497 0.0091176879062550148
leaf_weight=28 20 31 22 29 27 20 20 28 20 31 21 30 20 34 29 22 20
leaf_count=28 20 31 22 29 27 20 20 28 20 31 21 30 20 34 29 22 20
internal_value=-1.11187e-10 -0.0178507 0.0248399 0.0192992 -0.00946157 -0.0414376 0.0302049 0.0116207 0.0352 -0.0165908 -0.0332235 0.00876854 -0.013648 -0.00424196 -0.00661543 -0.00119035 0.00621061
internal_weight=452 263 189 167 194 69 69 98 40 82 41 70 51 112 63 49 50
internal_count=452 263 189 167 194 69 69 98 40 82 41 70 51 112 63 49 50
is_linear=0
shrinkage=0.05


Tree=11
num_leaves=18
num_cat=0
split_feature=0 0 0 0 0 1 0 86 86 56 0 0 18 84 57 84 1
split_gain=72.3544 19.4124 15.4486 4.6984 3.116 2.29063 1.21415 0.500498 0.48287 0.45695 0.452871 0.363168 0.361595 0.285572 0.26758 0.244665 0.153036
threshold=0.11229577689006585 -0.93914290070731987 1.36458720385358 0.86140621380356397 -0.34862075097562123 -1.3593011533954154 0.48014160428773556 -0.030746408681701445 0.0055429188535591504 0.58498029723593703 -1.2100122804531022 -0.60181455470747192 -0.18890065728797062 0.016871013185293753 0.27708281245095928 -0.043344889299409342 -0.2499970347345517
decision_type=2 2 2 2 2 2 2 2 2 2 2 2 2 2 2 2 2
left_child=1 5 3 6 7 -1 13 -3 -8 -5 -7 -9 15 -2 16 -6 -14
right_child=2 4 -4 9 12 10 8 11 -10 -11 -12 -13 14 -15 -16 -17 -18
leaf_value=-0.05341772545467724 0.0058888362043944655 -0.020990504826785942 0.063553901084444739 0.038069088892503218 -0.0045239035179838539 -0.038594779643145477 0.013955100236291235 -0.016368855825258474 0.023778457014725127 0.027757686837798074 -0.028329503252392724 -0.0078301977261435243 -0.0068904394656419763 0.012423995030777795 -0.01008208928257227 0.0027168229704589717 -0.0010224675042554737
leaf_weight=22 32 33 22 22 20 22 22 33 29 21 21 20 20 35 25 28 25
leaf_count=22 32 33 22 22 20 22 22 33 29 21 21 20 20 35 25 28 25
internal_value=-5.82592e-11 -0.0165 0.024254 0.0188839 -0.0089181 -0.0402953 0.0137277 -0.0161565 0.0195409 0.0330333 -0.0335815 -0.0131467 -0.00364262 0.00930273 -0.00593461 -0.000300146 -0.00363046
internal_weight=452 269 183 161 204 65 118 86 51 43 43 53 118 67 70 48 45
internal_count=452 269 183 161 204 65 118 86 51 43 43 53 118 67 70 48 45
is_linear=0
shrinkage=0.05


Tree=12
num_leaves=19
num_cat=0
split_feature=0 0 0 41 0 0 17 84 0 52 84 25 3 84 0 0 86 79
split_gain=65.3339 16.9946 14.4472 5.69638 2.87001 2.20963 1.83632 0.848062 0.341673 0.4287 0.29528 0.28039 0.217058 0.181242 0.175175 0.141098 0.138834 0.0517185
threshold=0.076622065818853377 -0.99208564430928547 1.0981006446846537 0.44373322203963322 -0.46113680264801543 0.48014160428773556 0.61549779118133163 0.043212275235995655 -0.23529663501042544 -0.20375859750932176 0.072335592822913908 0.041921417381970007 -0.11081075976651834 0.016871013185293753 -0.71686947634855869 0.27107919849266165 -1.0000000180025095e-35 -0.12521354793288889
decision_type=2 2 2 2 2 2 2 2 2 2 2 2 2 2 2 2 2 2
left_child=1 6 5 -4 11 10 13 -7 16 -10 15 14 -11 -1 -3 -2 -6 -18
right_child=2 4 3 -5 8 7 -8 -9 9 12 -12 -13 -14 -15 -16 -17 17 -19
leaf_value=-0.03642904204981668 0.0041068727050201396 -0.022745161588219081 0.031471254207469802 0.066677632592618469 -0.010407147880481638 0.016024799473010578 -0.051664792895317085 0.027206691553195318 0.003339287843150289 -0.0018051520632782385 0.013583888337016107 -0.013110338787858687 -0.0089273404749110347 -0.029778347313404088 -0.016504399866149152 0.0092896601204605148 -0.0072867050234760563 -0.0037339918222278356
leaf_weight=21 29 22 27 20 23 39 20 30 23 23 20 27 20 20 23 24 21 20
leaf_count=21 29 22 27 20 23 39 20 30 23 23 20 27 20 20 23 24 21 20
internal_value=9.61714e-11 -0.0161147 0.0224242 0.0464527 -0.0091302 0.0144711 -0.0392438 0.0208865 -0.00469482 -0.00217063 0.00840725 -0.0171385 -0.0051178 -0.0331848 -0.0195554 0.0064538 -0.00729789 -0.00555367
internal_weight=452 263 189 47 202 142 61 69 130 66 73 72 43 41 45 53 64 41
internal_count=452 263 189 47 202 142 61 69 130 66 73 72 43 41 45 53 64 41
is_linear=0
shrinkage=0.05


Tree=13
num_leaves=18
num_cat=0
split_feature=1 1 41 1 1 4 1 86 1 86 90 17 84 84 70 90 86
split_gain=57.8383 17.7788 11.5792 2.6526 2.46833 1.56852 1.01847 0.57086 0.563841 0.522842 0.426241 0.384659 0.353569 0.256661 0.24663 0.140668 0.0240976
threshold=0.15682118588128821 -0.66120268327951048 0.4737663400138411 0.6733422246984887 -1.3593011533954154 -0.54498719137080698 -0.28519069771283434 0.054636628115293261 -0.97946290720034301 -0.028817607487005199 -0.004351372445522899 -0.40235205997336265 0.067519348210570262 -0.057176381690681545 -0.67223782553405431 -0.089758660066526136 0.0030058051261616504
decision_type=2 2 2 2 2 2 2 2 2 2 2 2 2 2 2 2 2
left_child=1 4 3 7 -1 12 13 10 -6 15 -2 -5 -3 -7 -11 -8 -15
right_child=2 5 -4 11 8 6 9 -9 -10 14 -12 -13 -14 16 -16 -17 -18
leaf_value=-0.047405648101931035 0.014570845098331058 -0.017588028090971489 0.056500373464887559 0.031605312476555507 -0.03306152070207255 -0.012836775449769839 -0.0015791642993159866 0.019028348361070341 -0.023114159549104757 0.007115298438736279 0.0062015517789404846 0.023173856386734595 -0.0088168196426704534 -0.0072884203358130027 0.00012758317004357066 -0.0072568722470896328 -0.0049481790428134529
leaf_weight=23 29 27 23 24 28 21 24 26 29 23 32 31 20 22 28 20 22
leaf_count=23 29 27 23 24 28 21 24 26 29 23 32 31 20 22 28 20 22
internal_value=-1.5708e-10 -0.0135616 0.0235889 0.0182582 -0.0335795 -0.00582514 -0.00346619 0.0128246 -0.0280006 -0.000166455 0.0101804 0.026853 -0.0138556 -0.00828888 0.00327891 -0.00415994 -0.0061183
internal_weight=452 287 165 142 80 207 160 87 57 95 61 55 47 65 51 44 44
internal_count=452 287 165 142 80 207 160 87 57 95 61 55 47 65 51 44 44
is_linear=0
shrinkage=0.05


Tree=14
num_leaves=19
num_cat=0
split_feature=1 1 1 1 1 39 1 15 9 1 1 86 84 86 15 38 18 57
split_gain=52.1991 16.0454 10.7997 2.81305 2.22767 1.39547 1.00589 0.808347 0.615384 0.508867 0.374963 0.350048 0.303475 0.301972 0.227491 0.178269 0.138833 0.0675759
threshold=0.15682118588128821 -0.66120268327951048 1.1583407008797375 0.5019175485585593 -1.3593011533954154 -0.36238281248048193 -0.14469083403490809 0.08944845336316147 -0.43290498612647504 -0.97946290720034301 0.86717033867659254 -0.084759197478117124 0.01539679914969975 0.057355518587432257 0.43012688977135505 0.007679167810515951 -0.018991685815865897 0.20366062329131826
decision_type=2 2 2 2 2 2 2 2 2 2 2 2 2 2 2 2 2 2
left_child=1 4 3 8 -1 12 11 -5 -2 -6 -9 -7 -3 15 -10 -8 -13 -18
right_child=2 5 -4 7 9 6 13 10 14 -11 -12 16 -14 -15 -16 -17 17 -19
leaf_value=-0.045035363992919096 0.017015214393004068 -0.016365698645157474 0.055022372254593811 0.031804285489994553 -0.031408443887318886 -0.012385515323840083 -0.00402503013555404 0.017305567555806853 0.010051910998299718 -0.021958451538250365 0.025981782469898462 -0.0021530618891119958 -0.0083015621779486543 0.0067067210341338074 0.0030128669501705606 0.0024154940450733359 -0.004857540238075532 -0.0086227448826486416
leaf_weight=23 21 28 22 23 28 20 21 33 24 29 20 28 20 20 22 22 26 22
leaf_count=23 21 28 22 23 28 20 21 33 24 29 20 28 20 20 22 22 26 22
internal_value=1.25353e-10 -0.0128835 0.0224094 0.0173921 -0.0319006 -0.00553388 -0.00327826 0.0239766 0.00992311 -0.0266006 0.0205796 -0.00649992 -0.0130056 0.00163095 0.00668541 -0.000729878 -0.00495108 -0.00658326
internal_weight=452 287 165 143 80 207 159 76 67 57 53 96 48 63 46 43 76 48
internal_count=452 287 165 143 80 207 159 76 67 57 53 96 48 63 46 43 76 48
is_linear=0
shrinkage=0.05


Tree=15
num_leaves=18
num_cat=0
split_feature=0 0 0 1 0 0 15 8 0 1 84 0 18 6 84 77 11
split_gain=48.1932 12.5873 11.0995 3.40171 1.78147 1.71568 0.721355 0.588882 0.397523 0.32404 0.317691 0.241472 0.221507 0.259727 0.202091 0.138116 0.0386842
threshold=0.076622065818853377 -0.92467073593111637 1.36458720385358 0.5019175485585593 -1.589489022724456 -0.34862075097562123 0.11546227892655957 -0.30446274333953988 -1.2100122804531022 0.84640720553022175 -0.034922424715678142 -0.6164058217950168 -0.047056660870867538 -0.28055400211507692 -1.0000000180025095e-35 0.086814710611889168 0.14697058907601065
decision_type=2 2 2 2 2 2 2 2 2 2 2 2 2 2 2 2 2
left_child=1 4 3 7 -1 10 -5 -2 -6 -8 -3 -12 14 -14 -7 -9 -17
right_child=2 5 -4 6 8 12 9 15 -10 -11 11 -13 13 -15 -16 16 -18
leaf_value=-0.044328201455729355 0.014373220476721014 -0.016909459233283998 0.052643288621170958 0.029627524733543398 -0.031814414940097117 -0.0036706801012365356 0.016058252307195816 0.0090911948657594627 -0.022682248027278827 0.024221414793282749 -0.013482553081522727 -0.0066222739932329765 -0.0022895452210350948 -0.0087306516309236665 0.0027850996186977932 0.002596620482985269 0.0055968206641929495
leaf_weight=21 28 30 22 25 22 27 31 20 26 20 29 23 34 29 22 22 21
leaf_count=21 28 30 22 25 22 27 31 20 26 20 29 23 34 29 22 22 21
internal_value=1.8866e-11 -0.0138403 0.0192593 0.0148614 -0.0321819 -0.0073168 0.02267 0.00833992 -0.0268678 0.0192595 -0.0128121 -0.0104482 -0.00329348 -0.0052545 -0.000772167 0.00565846 0.00406183
internal_weight=452 263 189 167 69 194 76 91 48 51 82 52 112 63 49 63 43
internal_count=452 263 189 167 69 194 76 91 48 51 82 52 112 63 49 63 43
is_linear=0
shrinkage=0.05


Tree=16
num_leaves=17
num_cat=0
split_feature=0 0 0 65 1 0 9 86 84 43 1 35 44 43 11 0
split_gain=43.5287 10.7815 10.5213 5.20023 1.79105 1.63769 1.34902 0.445044 0.386738 0.305051 0.275073 0.268473 0.2481 0.193708 0.156843 0.14017
threshold=0.011594870627711451 -0.99208564430928547 1.0981006446846537 0.14397556936612113 0.47758572713924058 -0.46113680264801543 0.71149224454133142 0.0029655351748442507 0.043212275235995655 0.30188827976850358 -1.1119319651850741 -0.058905029645302247 -0.39558771436200785 1.0000000180025095e-35 1.0150941037198404 -0.23529663501042544
decision_type=2 2 2 2 2 2 2 2 2 2 2 2 2 2 2 2
left_child=1 6 4 -4 7 12 10 14 -6 -9 -1 13 -3 -7 -2 -13
right_child=2 5 3 -5 8 11 -8 9 -10 -11 -12 15 -14 -15 -16 -17
leaf_value=-0.030876659069742476 0.00010177817788313735 -0.010887089853308031 0.057494691684842114 0.023856453725171312 0.014068170415703208 -0.0040201493491155982 -0.042719264551997184 0.0062255213856697092 0.022114538294928418 0.014204425883034003 -0.02268331550061703 -0.0044364057035873768 -0.016759476407959658 -0.0093153118861899267 0.006072214828401974 0.00087532485205749121
leaf_weight=21 22 35 20 27 32 39 20 25 28 23 20 23 37 31 22 27
leaf_count=21 22 35 20 27 32 39 20 25 28 23 20 23 37 31 22 27
internal_value=4.24452e-11 -0.0137612 0.0174953 0.0381706 0.0111023 -0.0079433 -0.0320731 0.00671921 0.0178231 0.0100487 -0.0268799 -0.00436637 -0.0139048 -0.00636515 0.003087 -0.00156807
internal_weight=452 253 199 47 152 192 61 92 60 48 41 120 72 70 44 50
internal_count=452 253 199 47 152 192 61 92 60 48 41 120 72 70 44 50
is_linear=0
shrinkage=0.05


Tree=17
num_leaves=17
num_cat=0
split_feature=0 0 0 1 0 0 86 43 84 86 0 14 16 37 26 1
split_gain=39.2847 9.86031 9.74638 2.82859 1.79007 0.918652 0.627617 0.507279 0.430834 0.402354 0.303863 0.260806 0.245998 0.242894 0.191438 0.0497391
threshold=0.011594870627711451 1.3276463554890896 -0.8237255250988178 0.47758572713924058 -1.4654697664094913 -0.33098079080373849 -0.014225753494304348 0.80866162481931159 -0.054027300767937242 -0.012733302019501449 0.29890338924042881 -0.35589529072744458 -0.25776604379693585 0.081796626970258315 -0.0085858427915959986 -0.28519069771283434
decision_type=2 2 2 2 2 2 2 2 2 2 2 2 2 2 2 2
left_child=2 3 4 9 -1 12 -5 -8 -6 -2 -11 -7 -4 -14 -13 -16
right_child=1 -3 5 6 8 11 7 -9 -10 10 -12 14 13 -15 15 -17
leaf_value=-0.037894555873104502 0.0025285950736500897 0.045983108632266526 -0.0058959464234067133 0.013395315604284405 -0.027340440316633748 0.00084353149868547921 0.016931580201439238 0.026874922627005082 -0.0179902672501547 0.0055045565935196708 0.013077732705726073 -0.0089366457097293326 -0.0093988055663724104 -0.016022830039262772 -0.0052084074635058639 -0.0020101876523826393
leaf_weight=28 39 25 20 30 22 27 23 29 28 27 26 21 31 25 20 31
leaf_count=28 39 25 20 30 22 27 23 29 28 27 26 21 31 25 20 31
internal_value=1.91139e-11 0.0166206 -0.0130731 0.0124018 -0.0277726 -0.00652132 0.0191544 0.0224769 -0.0221043 0.00638325 0.0092197 -0.00334725 -0.010656 -0.012356 -0.0049188 -0.00326439
internal_weight=452 199 253 174 78 175 82 52 50 92 53 99 76 56 72 51
internal_count=452 199 253 174 78 175 82 52 50 92 53 99 76 56 72 51
is_linear=0
shrinkage=0.05


Tree=18
num_leaves=18
num_cat=0
split_feature=0 0 41 0 0 0 86 84 84 43 16 37 14 26 11 0 6
split_gain=35.4782 9.66401 8.74394 1.95486 1.61554 1.08022 0.455201 0.393172 0.317285 0.290281 0.222013 0.219212 0.205895 0.192072 0.127243 0.100395 0.0354501
threshold=0.11229577689006585 -0.8237255250988178 0.4737663400138411 0.60672853616317812 -1.4654697664094913 -0.33098079080373849 -0.014225753494304348 -1.0000000180025095e-35 0.073951992969788063 0.80866162481931159 -0.25776604379693585 0.081796626970258315 -0.35589529072744458 -0.031111702383177595 0.14697058907601065 -0.13297659318653035 -0.15885675780384717
decision_type=2 2 2 2 2 2 2 2 2 2 2 2 2 2 2 2 2
left_child=1 4 3 8 -1 10 -5 -6 14 -8 -3 -12 -7 -14 -2 16 -15
right_child=2 5 -4 6 7 12 9 -9 -10 -11 11 -13 13 15 -16 -17 -18
leaf_value=-0.035999828577041627 0.0023930932343937459 -0.0056011490628588949 0.045810346864163881 0.013110314739932275 -0.025432929456233978 0.0011202477019590636 0.016455362195318398 -0.016565323323011399 0.01201977851274221 0.023916242597624662 -0.008928865257410273 -0.015221688598394395 -0.0078470797433207434 -0.0022460462339222434 0.0072606999908798727 0.00039988817244937476 -0.005154600443149155
leaf_weight=28 25 20 23 29 25 30 22 25 23 32 31 25 21 20 29 22 22
leaf_count=28 25 20 23 29 25 30 22 25 23 32 31 25 21 20 29 22 22
internal_value=-8.57662e-12 -0.011554 0.0169837 0.0128399 -0.026384 -0.00549773 0.0181631 -0.0209991 0.00710185 0.0208766 -0.0101232 -0.0117382 -0.00244092 -0.0036978 0.00500718 -0.00233632 -0.00376957
internal_weight=452 269 183 160 78 191 83 50 77 54 76 56 115 85 54 64 42
internal_count=452 269 183 160 78 191 83 50 77 54 76 56 115 85 54 64 42
is_linear=0
shrinkage=0.05


Tree=19
num_leaves=20
num_cat=0
split_feature=1 1 3 1 1 4 1 86 90 84 86 14 86 70 1 11 15 84 90
split_gain=31.4326 9.68634 7.75671 1.4165 1.35392 0.914893 0.571056 0.492061 0.373818 0.342026 0.329448 0.224482 0.179809 0.155069 0.152434 0.147418 0.144753 0.178977 0.0944031
threshold=0.15682118588128821 -0.66120268327951048 -1.138082987200723 -1.3593011533954154 0.6733422246984887 -0.54498719137080698 -0.28519069771283434 -0.012733302019501848 0.077931698074022865 -0.084529154024146694 -0.028817607487005199 -0.36798188506516255 0.054636628115293261 -0.75228642032761583 0.43573686395542649 -0.29095838185339568 -0.14469083403490809 -0.054027300767937242 -0.089758660066526136
decision_type=2 2 2 2 2 2 2 2 2 2 2 2 2 2 2 2 2 2 2
left_child=1 3 -2 -1 8 11 16 -6 12 -5 18 -3 14 -12 -4 -9 -7 -18 -8
right_child=2 5 4 9 7 6 10 15 -10 -11 13 -13 -14 -15 -16 -17 17 -19 -20
leaf_value=-0.035247109182502914 0.046579722519963979 -0.0070374486502259971 0.006056948101613671 -0.024776128106392348 0.012498608499299735 -0.0031120982691645624 -0.0010704534593969585 0.02485174590891058 0.0034219626159895031 -0.016999896014890364 0.0058857043443078343 -0.013950028059923132 0.014771248874339192 0.00031889251850802328 0.012230158075690271 0.018920526206493378 -0.0113066400680691 -0.0046175327559467407 -0.0057216957327909769
leaf_weight=23 20 24 20 26 20 25 24 22 21 31 22 23 22 29 20 20 20 20 20
leaf_count=23 20 24 20 26 20 25 24 22 21 31 22 23 22 29 20 20 20 20 20
internal_value=1.00447e-11 -0.00999751 0.0173896 -0.0247732 0.0133634 -0.00428709 -0.00248548 0.0189536 0.0091876 -0.0205469 -1.46465e-05 -0.0104202 0.0111405 0.00272026 0.00914355 0.0220274 -0.00609671 -0.00796209 -0.00318465
internal_weight=452 287 165 80 145 207 160 62 83 57 95 47 62 51 40 42 65 40 44
internal_count=452 287 165 80 145 207 160 62 83 57 95 47 62 51 40 42 65 40 44
is_linear=0
shrinkage=0.05


Tree=20
num_leaves=19
num_cat=0
split_feature=0 0 0 0 0 9 86 86 43 41 35 1 44 22 41 82 0 0
split_gain=29.0155 7.84439 7.28832 2.28508 1.0522 0.996705 0.449873 0.42631 0.246365 0.218842 0.215465 0.182836 0.174764 0.158227 0.211445 0.118833 0.104494 0.0986795
threshold=0.011594870627711451 1.36458720385358 -0.99208564430928547 0.6549537933284697 -0.46113680264801543 0.71149224454133142 -0.014225753494304348 0.11848740199563097 0.90437478555198503 0.060690715799365962 -0.058905029645302247 -1.1119319651850741 -0.39558771436200785 -0.17868643874539239 0.11079086393547041 -1.1244054193633037 -0.23529663501042544 0.23579534411082378
decision_type=2 2 2 2 2 2 2 2 2 2 2 2 2 2 2 2 2 2
left_child=2 3 5 7 12 11 -5 9 -8 -2 13 -1 -4 -6 -15 -11 -12 -17
right_child=1 -3 4 6 10 -7 8 -9 -10 15 16 -13 -14 14 -16 17 -18 -19
leaf_value=-0.02508582004479 0.0091993210571152829 0.042441764931109821 -0.0086975609005561904 0.012182127457597981 -0.0024639017214732515 -0.035442148186266419 0.016574437692761422 0.012832625526934864 0.023955810184662158 0.00023314566351473331 -0.0035543990149365171 -0.018405950888991357 -0.013626205994168651 -0.0039337099127640784 -0.01103711813222617 0.0025552066992531766 0.0010318149070910833 0.0071912277955561883
leaf_weight=21 21 22 35 23 28 20 20 20 26 21 23 20 37 22 20 24 27 22
leaf_count=21 21 22 35 23 28 20 20 20 26 21 23 20 37 22 20 24 27 22
internal_value=6.84455e-12 0.014284 -0.0112352 0.0107842 -0.00645182 -0.0262912 0.0178917 0.00624321 0.0207465 0.00474561 -0.00358471 -0.0218273 -0.0112303 -0.00537533 -0.00731629 0.00334967 -0.00107784 0.00477243
internal_weight=452 199 253 177 192 61 69 108 46 88 120 41 72 70 42 67 50 46
internal_count=452 199 253 177 192 61 69 108 46 88 120 41 72 70 42 67 50 46
is_linear=0
shrinkage=0.05


Tree=21
num_leaves=19
num_cat=0
split_feature=0 3 0 0 0 9 84 0 31 25 1 14 43 66 84 11 68 35
split_gain=26.1865 7.54653 6.57771 1.83872 0.949611 0.899526 0.646802 0.265361 0.199101 0.168572 0.165009 0.141048 0.139195 0.133398 0.104833 0.0921132 0.0545973 0.0526097
threshold=0.011594870627711451 -1.3052627837519606 -0.99208564430928547 0.48014160428773556 -0.46113680264801543 0.71149224454133142 -0.072940021457823842 0.79897780412737374 0.14776796029474074 0.041921417381970007 -1.1119319651850741 -0.16645019566432032 0.022925501741995254 -0.14435136543365643 0.012840590899850552 -0.52492717843470083 -0.031406213658676692 0.18066713015162422
decision_type=2 2 2 2 2 2 2 2 2 2 2 2 2 2 2 2 2 2
left_child=2 -2 5 14 9 10 -5 -8 12 13 -1 -10 16 -4 -3 -9 -6 -16
right_child=1 3 4 6 8 -7 7 15 11 -11 -12 -13 -14 -15 17 -17 -18 -19
leaf_value=-0.02383152892192205 0.042699003489688039 0.0027217133604847876 -0.0099963396904058765 0.0080353183116620552 -0.0053516290895640854 -0.033670039884746074 0.013772640028037131 0.022048962827433238 0.001891310168006881 -0.0075454700444997462 -0.017485653422772886 -0.00324671689681161 -0.0083209348968618247 -0.015453104213589714 0.0045318477321416141 0.017360512316226959 -0.0016571281407959761 0.0081150393844360413
leaf_weight=21 20 38 24 26 20 20 32 22 22 27 20 34 24 21 20 20 20 21
leaf_count=21 20 38 24 26 20 20 32 22 22 27 20 34 24 21 20 20 20 21
internal_value=1.33672e-11 0.0135698 -0.0106735 0.0103151 -0.00612923 -0.0249767 0.0148193 0.0172029 -0.00340548 -0.0106688 -0.020736 -0.00122821 -0.00531059 -0.0125428 0.00461364 0.0198164 -0.00350438 0.00636714
internal_weight=452 199 253 179 192 61 100 74 120 72 41 56 64 45 79 42 40 41
internal_count=452 199 253 179 192 61 100 74 120 72 41 56 64 45 79 42 40 41
is_linear=0
shrinkage=0.05


Tree=22
num_leaves=19
num_cat=0
split_feature=1 1 74 57 1 4 1 90 15 56 86 39 6 15 86 70 63 46
split_gain=23.2039 7.18833 6.28451 1.06606 1.05517 0.67476 0.424546 0.410395 0.289078 0.271153 0.269473 0.228909 0.192961 0.119789 0.143398 0.118079 0.0753192 0.0620385
threshold=0.15682118588128821 -0.66120268327951048 -1.4183779527098845 0.59848523807558995 0.6733422246984887 -0.54498719137080698 -0.28519069771283434 0.0121975731658198 0.70654441446392025 0.46433969287500593 -0.028817607487005199 0.39937026389917357 -0.69647103541680144 -0.14469083403490809 -0.051296247100785043 -0.75228642032761583 -0.23064638714138047 0.081230456218583116
decision_type=2 2 2 2 2 2 2 2 2 2 2 2 2 2 2 2 2 2
left_child=1 3 -2 7 8 12 13 -1 11 -6 16 -4 -3 -7 -15 -12 -8 -13
right_child=2 5 4 -5 9 6 10 -9 -10 -11 15 17 -14 14 -16 -17 -18 -19
leaf_value=-0.01385089848190546 0.041215425282716753 -0.0053727986867583939 0.005401091318091621 -0.031315603256225587 0.020322486579418184 -0.0025219260007143022 -0.00097139019829531521 -0.022121281176805497 0.0026018451843507744 0.013544182148244648 0.0052428365600380028 0.013630250208079814 -0.011816834242871175 -0.0099276387831196203 -0.0039401954249478881 0.00038513166043136659 -0.0051259828207548715 0.0096920238621532925
leaf_weight=30 20 21 23 20 25 25 24 30 21 36 22 20 26 20 20 29 20 20
leaf_count=30 20 21 23 20 25 25 24 30 21 36 22 20 26 20 20 29 20 20
internal_value=1.67395e-11 -0.00858979 0.014941 -0.0213185 0.011317 -0.0036705 -0.00212329 -0.0179861 0.00768225 0.0163222 7.13896e-06 0.00937572 -0.00893758 -0.005237 -0.00693392 0.00248061 -0.00285984 0.0116611
internal_weight=452 287 165 80 145 207 160 60 84 61 95 63 47 65 40 51 44 40
internal_count=452 287 165 80 145 207 160 60 84 61 95 63 47 65 40 51 44 40
is_linear=0
shrinkage=0.05


Tree=23
num_leaves=18
num_cat=0
split_feature=0 0 79 0 0 1 7 12 0 84 8 38 52 86 39 37 35
split_gain=21.3955 7.03052 5.81703 1.06942 1.02018 0.736866 0.377903 0.320105 0.294952 0.224009 0.223732 0.18467 0.182243 0.149069 0.127255 0.0901523 0.044908
threshold=0.27107919849266165 -0.8237255250988178 -0.67114541033236808 -1.3271072814411127 -0.28800094398008536 0.76003790806952032 0.7284346596519079 1.0394381777049111 -0.031423290593275789 -1.0000000180025095e-35 -0.48306086435282153 -0.47108477252780628 -0.20375859750932176 -0.052758879712548543 0.490595422077095 0.087574493760602376 0.21465349529031133
decision_type=2 2 2 2 2 2 2 2 2 2 2 2 2 2 2 2 2
left_child=1 3 -2 -1 10 6 14 -7 12 -5 -3 15 -6 -10 -4 -12 -15
right_child=2 4 5 9 8 7 -8 -9 13 -11 11 -13 -14 16 -16 -17 -18
leaf_value=-0.026726935934778807 0.040603204634971919 -0.0025584122777217999 0.0078136932428764273 -0.018609090788023815 -0.00027144521836338471 0.020287766651465342 0.0029410443784269906 0.012092951820655303 -0.0013692740233160468 -0.011215243171900511 -0.008468254250676736 -0.0053853756565201494 -0.0053927184813801435 0.0020372972969198602 0.012549764240110242 -0.013058264665305614 0.0052768660142369899
leaf_weight=37 20 20 23 21 38 26 21 22 21 20 23 28 32 20 37 20 23
leaf_count=37 20 20 23 21 38 26 21 22 21 20 23 28 32 20 37 20 23
internal_value=3.2304e-11 -0.00762841 0.0155128 -0.020564 -0.00314407 0.0116228 0.0087138 0.0165318 -0.000369573 -0.0150023 -0.0072296 -0.00854543 -0.0026126 0.00208374 0.0107343 -0.0106031 0.00377009
internal_weight=452 303 149 78 225 129 81 48 134 41 91 71 70 64 60 43 43
internal_count=452 303 149 78 225 129 81 48 134 41 91 71 70 64 60 43 43
is_linear=0
shrinkage=0.05


Tree=24
num_leaves=17
num_cat=0
split_feature=0 1 0 0 0 9 16 15 84 0 43 14 26 0 84 18
split_gain=19.3175 5.92506 5.16254 1.34336 0.855364 0.680088 0.325673 0.305229 0.252959 0.21325 0.147431 0.146457 0.160273 0.137876 0.0830644 0.0478172
threshold=0.076622065818853377 1.1583407008797375 -1.0314819711989631 0.6549537933284697 -0.33098079080373849 0.51945810765710021 0.48756999483341673 0.5019175485585593 -0.034922424715678142 0.45225320458615481 0.90437478555198503 -0.35589529072744458 -0.031111702383177595 -0.6164058217950168 0.030649518430423951 -0.21287830647997821
decision_type=2 2 2 2 2 2 2 2 2 2 2 2 2 2 2 2
left_child=2 3 5 6 8 -1 9 10 -4 14 -5 -6 -13 -10 -2 -14
right_child=1 -3 4 7 11 -7 -8 -9 13 -11 -12 12 15 -15 -16 -17
leaf_value=-0.017700054320610233 0.0033351958762311072 0.036584525758569894 -0.011791339451964531 0.013282216837008795 0.001038750664507649 -0.028858505121686241 0.00015603165763119857 0.0091192902973853043 -0.008585755351711721 0.010732933459803463 0.018824310347970045 -0.0069851142913103098 -0.00014659853652119638 -0.0037488859090864519 0.0074951327918097374 -0.0030096807530415911
leaf_weight=36 30 22 36 21 29 22 24 20 34 24 28 20 25 26 20 35
leaf_count=36 30 22 36 21 29 22 24 20 34 24 28 20 25 26 20 35
internal_value=1.08174e-12 0.0121934 -0.00876253 0.00898016 -0.00503638 -0.0219326 0.00521728 0.0143245 -0.00847786 0.00685877 0.0164491 -0.00200534 -0.00310883 -0.00648978 0.00499917 -0.00181673
internal_weight=452 189 263 167 205 58 98 69 96 74 49 109 80 60 50 60
internal_count=452 189 263 167 205 58 98 69 96 74 49 109 80 60 50 60
is_linear=0
shrinkage=0.05


Tree=25
num_leaves=17
num_cat=0
split_feature=39 51 4 16 84 39 84 86 51 50 94 93 32 35 79 51
split_gain=16.0986 6.00625 3.58496 1.69428 0.940279 0.88801 0.620283 0.485861 0.462367 0.401822 0.289854 0.251193 0.238708 0.169733 0.151219 0.120779
threshold=0.007679167810515951 1.4626679945683578 -0.93914290070731987 0.48756999483341673 0.096254416667026207 0.490595422077095 -0.034922424715678142 -0.014225753494304348 -0.2946616382293275 -1.3593011533954154 0.25881904510252057 1.0000000180025095e-35 0.18066713015162422 -0.096186787795818338 1.0000000180025095e-35 -0.27237347729949019
decision_type=2 2 2 2 2 2 2 2 2 2 2 2 2 2 2 2
left_child=2 3 4 5 9 13 8 -7 -4 -1 -9 -5 14 -2 -8 -14
right_child=1 -3 6 11 -6 7 12 10 -10 -11 -12 -13 15 -15 -16 -17
leaf_value=-0.029160979315638543 0.0010189719503701088 0.035596043448895213 -0.01542363080965436 0.0017804535866404573 -0.011631094237479073 0.0073622192499897213 -0.003445519879460335 0.01897779261836639 -0.0052846432324837557 -0.019138234034180641 0.012162296942029244 -0.005453619780018926 -0.0034622360295283477 0.0066201329451838617 -0.0084074479494509954 0.0012246767934239299
leaf_weight=20 21 20 23 30 24 32 34 26 22 20 39 20 28 38 28 27
leaf_count=20 21 20 23 30 24 32 34 26 22 20 39 20 28 38 28 27
internal_value=1.40368e-11 0.00943614 -0.00943614 0.00689635 -0.0194552 0.0094635 -0.00547801 0.0124056 -0.0104668 -0.0241496 0.0148885 -0.00111318 -0.00355925 0.0046265 -0.00568639 -0.00116139
internal_weight=452 226 226 206 64 156 162 97 45 40 65 50 117 59 62 55
internal_count=452 226 226 206 64 156 162 97 45 40 65 50 117 59 62 55
is_linear=0
shrinkage=0.05


Tree=26
num_leaves=20
num_cat=0
split_feature=0 3 0 0 0 14 19 86 0 91 18 84 69 86 6 51 0 0 11
split_gain=15.7863 5.66608 3.94118 1.03666 0.795265 0.518633 0.517894 0.287163 0.216944 0.172131 0.149852 0.132473 0.113755 0.0945711 0.0911855 0.0699657 0.0699599 0.060928 0.0131589
threshold=1.0000000180025095e-35 -1.3052627837519606 -1.1661629654142185 0.48014160428773556 -0.6164058217950168 1.0394381777049111 0.12054443842555147 -0.084759197478117124 0.8181266721147904 -2.1510571102112406e-16 -0.018991685815865897 -0.034446916149510794 0.20802604876865408 -0.080716527761492032 -0.28055400211507692 1.0394381777049111 0.29890338924042881 -0.28055400211507692 0.056653869896851505
decision_type=2 2 2 2 2 2 2 2 2 2 2 2 2 2 2 2 2 2 2
left_child=2 -2 6 13 9 8 -1 -6 -5 -4 12 -11 -9 -3 17 -10 18 -12 -15
right_child=1 3 4 5 7 -7 -8 10 15 11 14 -13 -14 16 -16 -17 -18 -19 -20
leaf_value=-0.026731041260063648 0.035617035733303055 0.00064624556424942891 -0.0059549219347536566 0.010146517115525711 -0.0085944187733167348 0.0038141706213355069 -0.016110357786105436 -0.0023830590769648554 0.017371340947491782 -0.014214471403671347 -0.0040041984981507997 -0.008956464543938638 0.0028858668485190718 0.0041501728026196363 -0.0055905893474118788 0.013239155299961567 0.0068071480929141953 -0.00014812179329705291 0.0023364154621958733
leaf_weight=24 20 22 20 39 21 20 22 21 21 23 20 25 20 20 32 20 21 21 20
leaf_count=24 20 22 20 39 21 20 22 21 21 23 20 25 20 20 32 20 21 21 20
internal_value=-5.71452e-12 0.0103489 -0.00843702 0.00758731 -0.00544259 0.0110158 -0.0216516 -0.0032215 0.0128162 -0.0098521 -0.00223176 -0.0114759 0.000187149 0.00345662 -0.00359032 0.0153556 0.00447019 -0.00202913 0.00324329
internal_weight=452 203 249 183 203 100 46 135 80 68 114 48 41 83 73 41 61 41 40
internal_count=452 203 249 183 203 100 46 135 80 68 114 48 41 83 73 41 61 41 40
is_linear=0
shrinkage=0.05


Tree=27
num_leaves=17
num_cat=0
split_feature=0 3 0 0 0 84 0 84 94 86 8 0 0 0 39 8
split_gain=14.3193 4.77322 4.69955 0.761114 0.661721 0.636447 0.328808 0.220022 0.208602 0.181505 0.180056 0.132979 0.094291 0.0802262 0.0653889 0.0605936
threshold=0.27107919849266165 -1.1244054193633037 -0.8237255250988178 -1.589489022724456 -0.28800094398008536 -0.18989169720555357 0.86140621380356397 -1.0000000180025095e-35 -0.60355339059327384 -0.014225753494304348 -0.48306086435282153 -0.51981717535390415 0.49790693977139339 -0.14533024740034425 1.3090822124637544 -0.18383461854691088
decision_type=2 2 2 2 2 2 2 2 2 2 2 2 2 2 2 2
left_child=2 -2 3 -1 10 -3 12 -5 -6 13 -4 -12 -7 -10 -8 -11
right_child=1 5 4 7 8 6 14 -9 9 15 11 -13 -14 -15 -16 -17
leaf_value=-0.024953890072980101 0.034785000660589767 0.001107543068272727 -0.001674239896819927 -0.016980207365538395 -0.0035340314187074862 0.00633916915233793 0.016236717402935027 -0.010766332236857251 -0.0035376659268513324 0.0053454710147343579 -0.0091194710820107841 -0.0047878561020993143 0.010124917294045813 0.00043205882755241221 0.012193547994829716 0.0015428613479757174
leaf_weight=21 21 21 20 28 37 29 20 29 20 20 37 34 38 35 20 22
leaf_count=21 21 21 20 28 37 29 20 29 20 20 37 34 38 35 20 22
internal_value=-6.93373e-11 0.0126908 -0.0062407 -0.0168167 -0.00257436 0.00906599 0.0106279 -0.0138188 -0.000339836 0.000878568 -0.00586475 -0.00704518 0.00848631 -0.00101148 0.0142151 0.00335363
internal_weight=452 149 303 78 225 128 107 57 134 97 91 71 67 55 40 42
internal_count=452 149 303 78 225 128 107 57 134 97 91 71 67 55 40 42
is_linear=0
shrinkage=0.05


Tree=28
num_leaves=19
num_cat=0
split_feature=39 3 4 90 39 84 84 51 50 15 66 76 84 84 94 8 4 9
split_gain=11.8946 5.19827 2.65476 1.19388 0.841566 0.737745 0.464837 0.366246 0.320816 0.259165 0.170745 0.244686 0.147064 0.115478 0.071304 0.0506348 0.0471723 0.0467425
threshold=0.007679167810515951 -1.3503334056998468 -0.93914290070731987 0.1058093600668908 0.45225320458615481 0.096254416667026207 -0.034922424715678142 -0.2946616382293275 -1.3593011533954154 0.54440861889504599 -0.31083434505826335 -0.079814360908527879 0.19750947648952408 -0.042450699919102546 0.37940952255126043 -0.2259567382110553 -0.35848891542541172 0.007679167810515951
decision_type=2 2 2 2 2 2 2 2 2 2 2 2 2 2 2 2 2 2
left_child=2 -2 5 4 13 8 7 -4 -1 12 16 15 14 -3 -6 -12 -8 -15
right_child=1 3 6 -5 9 -7 10 -9 -10 -11 11 -13 -14 17 -16 -17 -18 -19
leaf_value=-0.025368866585195066 0.032447858426021416 9.7629119686427581e-05 -0.013435183271117833 -0.0022552670868064622 0.012855349516584761 -0.0098024059921347842 -0.0021561503600837154 -0.0044114212251522324 -0.016413191072642802 0.0058615810781096423 -0.00089806550604407684 -0.008781245223287007 0.015500422120094299 0.0061639807753912784 0.0092075539639572043 -0.004054467152390215 0.0011568910066021741 0.0029402632837776436
leaf_weight=20 20 21 23 38 21 24 22 22 20 24 24 23 20 23 37 27 21 22
leaf_count=20 20 21 23 38 21 24 22 22 20 24 24 23 20 23 37 27 21 22
internal_value=9.44265e-12 0.00811103 -0.00811103 0.00574823 0.00755855 -0.0167328 -0.0047049 -0.00902357 -0.020891 0.0104052 -0.00304388 -0.0044999 0.0118032 0.00315921 0.0105283 -0.0025691 -0.000538153 0.00458794
internal_weight=452 226 226 206 168 64 162 45 40 102 117 74 78 66 58 51 43 45
internal_count=452 226 226 206 168 64 162 45 40 102 117 74 78 66 58 51 43 45
is_linear=0
shrinkage=0.05


Tree=29
num_leaves=17
num_cat=0
split_feature=0 3 0 0 0 84 0 8 0 84 12 84 4 84 39 35
split_gain=11.7643 3.97627 3.81666 0.641164 0.535277 0.528883 0.274002 0.217254 0.193756 0.145522 0.131124 0.111752 0.0777262 0.0753624 0.0556645 0.034521
threshold=0.27107919849266165 -1.1244054193633037 -0.8237255250988178 -1.3271072814411127 -0.031423290593275789 -0.18989169720555357 0.86140621380356397 -0.38139099766962842 -0.51981717535390415 -1.0000000180025095e-35 -0.28519069771283434 -0.057176381690681545 -0.24148823936499483 0.043212275235995655 1.3090822124637544 0.21465349529031133
decision_type=2 2 2 2 2 2 2 2 2 2 2 2 2 2 2 2
left_child=2 -2 3 -1 7 -3 13 10 -9 -5 -4 -6 -10 -7 -8 -13
right_child=1 5 4 9 11 6 14 8 12 -11 -12 15 -14 -15 -16 -17
leaf_value=-0.019959499624029205 0.031668594018334432 0.00093980457999610478 -0.0034884330016681023 -0.013788127934648878 -0.0015835104254074397 0.0062425996702259942 0.01475832335650921 -0.0081940657148758585 -0.0021947506129717381 -0.0078287341631948955 0.0014343038177078902 0.0014584258453743089 -0.0055489546739526342 0.0096425568951027732 0.011027891486883164 0.0042623398440849525
leaf_weight=37 21 21 31 21 20 39 20 36 39 20 24 21 31 28 20 23
leaf_count=37 21 21 31 21 20 39 20 36 39 20 24 21 31 28 20 23
internal_value=-5.23189e-11 0.011503 -0.00565661 -0.0151875 -0.00235256 0.00819463 0.00961848 -0.00389017 -0.0052132 -0.0108811 -0.00134033 0.00151548 -0.00368018 0.00766348 0.0128931 0.00292411
internal_weight=452 149 303 78 225 128 107 161 106 41 55 64 70 67 40 44
internal_count=452 149 303 78 225 128 107 161 106 41 55 64 70 67 40 44
is_linear=0
shrinkage=0.05


Tree=30
num_leaves=18
num_cat=0
split_feature=0 41 0 0 0 62 15 31 1 52 8 87 86 15 3 41 12
split_gain=10.6173 3.76294 3.44454 0.584095 0.48542 0.365628 0.276758 0.175875 0.163052 0.171942 0.142146 0.101509 0.0989473 0.0945806 0.0927642 0.0915908 0.0565071
threshold=0.27107919849266165 0.4737663400138411 -0.8237255250988178 -1.589489022724456 -0.28800094398008536 -1.2631366049519979 0.60466793606011604 0.3511098802448428 -0.018991685815865897 -0.20375859750932176 -0.48306086435282153 1.5265566588595905e-16 0.11348928376870947 0.25062913071927756 -0.071786162021515734 0.15813956677609908 0.083035426881731114
decision_type=2 2 2 2 2 2 2 2 2 2 2 2 2 2 2 2 2
left_child=2 5 3 -1 10 -2 12 -5 9 14 -4 15 13 -7 -6 -12 -10
right_child=1 -3 4 7 8 6 -8 -9 16 -11 11 -13 -14 -15 -16 -17 -18
leaf_value=-0.021556548791981878 0.013733775243163111 0.02952570915222168 -0.0013297964120283724 -0.014003867687923569 -0.0016275012676487677 0.0041053846030516313 0.0013708657500418749 -0.0082987549714744098 0.0038931737847936656 -0.0041647704933941562 -0.0054289448928708829 -0.0036147282163325983 0.010551421462812207 0.0081480771159896485 0.0029410820947668986 -0.0099504912493839151 0.00051146331553657851
leaf_weight=21 20 23 20 35 25 23 22 22 21 38 24 26 22 39 20 21 30
leaf_count=21 20 23 20 35 25 23 22 22 21 38 24 26 22 39 20 21 30
internal_value=2.0421e-11 0.0109279 -0.00537378 -0.0144281 -0.00223494 0.00753305 0.00636311 -0.0118019 -0.000321094 -0.00168828 -0.00505312 -0.00610194 0.0076706 0.00664837 0.00040298 -0.007539 0.00190393
internal_weight=452 149 303 78 225 126 106 57 134 83 91 71 84 62 45 45 51
internal_count=452 149 303 78 225 126 106 57 134 83 91 71 84 62 45 45 51
is_linear=0
shrinkage=0.05


Tree=31
num_leaves=17
num_cat=0
split_feature=1 1 41 1 57 21 25 86 83 90 56 41 31 44 13 26
split_gain=9.59621 3.72833 3.68425 0.651495 0.629515 0.349915 0.277237 0.246563 0.233662 0.206044 0.16775 0.113184 0.0948711 0.0904659 0.0541093 0.073469
threshold=0.47758572713924058 -0.66120268327951048 0.4737663400138411 -0.018991685815865897 0.59848523807558995 0.059324697234470508 0.015869298935593652 -0.028817607487005199 1.3386169022884951 0.0121975731658198 0.60441847352914735 0.22607786976328911 0.94290775622784218 0.10791634224628062 -0.35272841848525849 -0.0085858427915959986
decision_type=2 2 2 2 2 2 2 2 2 2 2 2 2 2 2 2
left_child=1 4 8 5 9 12 -7 -5 10 -1 -2 13 14 -9 -3 -16
right_child=2 3 -4 7 -6 6 -8 11 -10 -11 -12 -13 -14 -15 15 -17
leaf_value=-0.0080265606070558226 0.009363529970869422 -0.0010806263256199599 0.031857343239798434 -0.001703269485733472 -0.021199608854949478 -0.010107049959953186 -0.00234015729452949 -0.00030851420568069445 0.013231573915109039 -0.013886644827822845 0.0043010744929779321 0.0066658605732733307 0.00040148195945909499 0.0040626435845704939 -0.0060431183240143588 -0.0020448298137462524
leaf_weight=30 36 32 21 32 20 27 20 20 20 30 30 21 37 29 20 27
leaf_count=30 36 32 21 32 20 27 20 20 20 30 30 21 37 29 20 27
internal_value=2.67408e-11 -0.00405726 0.0130818 -0.00120138 -0.0135174 -0.00316252 -0.00680199 0.0019326 0.0084971 -0.0109566 0.00706241 0.00359471 -0.00168791 0.0022785 -0.00266649 -0.00374623
internal_weight=452 345 107 265 80 163 47 102 86 60 66 70 116 49 79 47
internal_count=452 345 107 265 80 163 47 102 86 60 66 70 116 49 79 47
is_linear=0
shrinkage=0.05


Tree=32
num_leaves=18
num_cat=0
split_feature=0 3 0 0 84 0 21 25 0 84 5 31 4 39 39 67 35
split_gain=8.66798 3.29231 2.85207 0.515954 0.459024 0.429812 0.183646 0.191112 0.165763 0.112308 0.0859751 0.0849211 0.0736402 0.0561375 0.0476138 0.0433264 0.0313236
threshold=0.29890338924042881 -1.1244054193633037 -0.8237255250988178 -1.3271072814411127 -0.18989169720555357 -0.031423290593275789 0.059324697234470508 0.015869298935593652 0.86140621380356397 -1.0000000180025095e-35 0.28138782865435946 0.90113417828229347 -0.46113680264801543 1.3090822124637544 0.56917330090396245 -0.022104191062112599 0.21465349529031133
decision_type=2 2 2 2 2 2 2 2 2 2 2 2 2 2 2 2 2
left_child=2 -2 3 -1 -3 6 11 -8 14 -5 16 12 -4 -10 -6 -14 -7
right_child=1 4 5 9 8 10 7 -9 13 -11 -12 -13 15 -15 -16 -17 -18
leaf_value=-0.017316422299356076 0.028342545502597377 0.00020376953207665966 -0.0058057921074214395 -0.011726373398587817 0.0051835915007229366 0.0014142273311825613 -0.009388555433939804 -0.0029988352209329608 0.012706185318529607 -0.0064910701662302022 -0.0013397958013229073 -0.00022526266726864767 -0.0034170376905240125 0.0089599371771328148 0.0079327274786515373 -0.00065879351556456345 0.0040105495163949116
leaf_weight=37 21 21 20 21 28 26 22 25 20 20 20 35 35 20 36 24 21
leaf_count=37 21 21 20 21 28 26 22 25 20 20 20 35 35 20 36 24 21
internal_value=-3.88588e-11 0.0100241 -0.00478272 -0.0130357 0.00694656 -0.00195935 -0.00335979 -0.00598977 0.00830809 -0.00917257 0.0014059 -0.0022755 -0.00318384 0.0108331 0.00672998 -0.00229504 0.00257429
internal_weight=452 146 306 78 125 228 161 47 104 41 67 114 79 40 64 59 47
internal_count=452 146 306 78 125 228 161 47 104 41 67 114 79 40 64 59 47
is_linear=0
shrinkage=0.05


Tree=33
num_leaves=17
num_cat=0
split_feature=1 41 0 0 17 55 83 8 86 56 84 65 63 49 47 74
split_gain=7.89991 3.20414 3.05327 0.683645 0.477171 0.317025 0.201091 0.159268 0.156413 0.152464 0.115987 0.115771 0.100628 0.0942258 0.0342587 0.0263318
threshold=0.47758572713924058 0.4737663400138411 -0.8237255250988178 -0.031423290593275789 0.68641683404861709 0.67825537876768738 1.3386169022884951 -0.38139099766962842 -0.10594108593872019 0.60441847352914735 0.096254416667026207 0.18459179696340958 0.12454084872142046 0.091939624049832913 0.35197727961322073 -0.12062786610257119
decision_type=2 2 2 2 2 2 2 2 2 2 2 2 2 2 2 2
left_child=2 6 4 7 10 13 9 11 -9 -2 -1 -4 15 14 -5 -10
right_child=1 -3 3 5 -6 -7 -8 8 12 -11 -12 -13 -14 -15 -16 -17
leaf_value=-0.011835340415644977 0.0084566717061938506 0.029378916194573758 -0.0028114590711672519 0.0010319805000503751 -0.019043652843683961 -0.0028172699465917853 0.011985961245372892 -0.0081887325493707544 -0.0030131208351935803 0.0036303814725639921 -0.0072272003289650796 0.0019102916473500609 -0.0059614719106600841 0.0065102091486915013 0.0034893264125629856 -0.00080697322707800646
leaf_weight=36 36 21 34 23 20 26 20 21 38 30 22 21 26 20 37 21
leaf_count=36 36 21 34 23 20 26 20 21 38 30 22 21 26 20 37 21
internal_value=-4.19816e-12 0.0118694 -0.00368124 -0.00113889 -0.0123839 0.00197921 0.00759385 -0.0031918 -0.00432459 0.0062629 -0.0100874 -0.00100861 -0.00336992 0.00353806 0.00254734 -0.00222788
internal_weight=452 107 345 267 78 106 86 161 106 66 58 55 85 80 60 59
internal_count=452 107 345 267 78 106 86 161 106 66 58 55 85 80 60 59
is_linear=0
shrinkage=0.05


Tree=34
num_leaves=19
num_cat=0
split_feature=1 79 0 0 0 6 83 60 30 84 12 27 84 49 25 21 39 59
split_gain=7.12967 2.98059 2.75558 0.61699 0.440677 0.322068 0.175635 0.153749 0.164319 0.142201 0.108143 0.123446 0.0940176 0.0837488 0.0742795 0.0630289 0.0300694 0.0093979
threshold=0.47758572713924058 -0.57628184283162498 -0.8237255250988178 -0.031423290593275789 -1.3271072814411127 0.7284346596519079 1.3386169022884951 -0.024298537898211448 -0.091774397121534637 0.1186757515321207 -0.29067683346238476 0.034565085802117555 -1.0000000180025095e-35 0.091939624049832913 0.16423872639529313 -0.26100820152341597 0.31550711492482708 0.33061227544445854
decision_type=2 2 2 2 2 2 2 2 2 2 2 2 2 2 2 2 2 2
left_child=2 -2 4 7 -1 13 9 10 -9 14 11 -4 -6 16 -3 -12 17 -5
right_child=1 6 3 5 12 -7 -8 8 -10 -11 15 -13 -14 -15 -16 -17 -18 -19
leaf_value=-0.015720860156658533 0.028680955227464441 0.0022001511463895442 -0.0011649600177241321 0.00093693071089330179 -0.010531125146718253 -0.0032141460843073824 0.011386663205921651 -0.0024459934895276095 -0.0075537224871016322 0.0094565782518613913 -0.0017780822984059344 -0.0058229086492210631 -0.0057410544482991103 0.0061846987623721365 0.0062531984267899625 0.0021914536179974678 0.0040023111427823698 0.0024513727551675403
leaf_weight=37 20 20 33 21 21 24 20 32 31 21 20 25 20 20 26 20 21 20
leaf_count=37 20 20 33 21 21 24 20 32 31 21 20 25 20 20 26 20 21 20
internal_value=-1.06113e-11 0.011276 -0.00349718 -0.00108195 -0.0117647 0.00188025 0.0072748 -0.00303221 -0.00495932 0.00604738 -0.00179336 -0.0031727 -0.00819451 0.00337129 0.004491 0.000206686 0.00246373 0.00167568
internal_weight=452 107 345 267 78 106 87 161 63 67 98 58 41 82 46 40 62 41
internal_count=452 107 345 267 78 106 87 161 63 67 98 58 41 82 46 40 62 41
is_linear=0
shrinkage=0.05


Tree=35
num_leaves=17
num_cat=0
split_feature=1 45 1 1 19 21 25 56 9 65 84 11 49 72 12 56
split_gain=6.43453 2.79212 2.4838 0.42717 0.389152 0.244563 0.211202 0.199775 0.184126 0.152116 0.138049 0.101192 0.0724414 0.0712405 0.101029 0.0922175
threshold=0.47758572713924058 0.787042126640214 -0.66120268327951048 -0.018991685815865897 0.063376541125061761 0.059324697234470508 0.015869298935593652 0.7192487125159569 -0.34862075097562123 0.15549782803417478 0.043212275235995211 -0.99208564430928547 0.068223191537513758 -0.047198065885435396 -0.32271859405882458 -0.18804115757460063
decision_type=2 2 2 2 2 2 2 2 2 2 2 2 2 2 2 2
left_child=2 7 4 5 -1 13 -7 11 -5 -10 -6 -2 -13 14 -4 -15
right_child=1 -3 3 8 10 6 -8 -9 9 -11 -12 12 -14 15 -16 -17
leaf_value=-0.015099973757477368 0.011127410363405943 0.027557880391832441 -0.0043769814582033592 0.0048374179642026623 -0.010556057468056679 -0.0085067045702426538 -0.0017276240303181112 0.0024542314326390629 0.0023490034149481771 -0.0022545355070820628 -0.0050570352379942229 0.0051916035435472935 0.0091618314199149609 0.0027143113757483665 -0.00049338312330345459 -0.0016989604872049251
leaf_weight=34 20 20 33 30 25 27 20 20 38 34 21 27 20 20 34 29
leaf_count=34 20 20 33 30 25 27 20 20 38 34 21 27 20 20 34 29
internal_value=-2.17917e-13 0.0107122 -0.00332232 -0.000991329 -0.0110437 -0.00257934 -0.00562199 0.00683957 0.00154638 0.00017511 -0.00804563 0.00814863 0.00688106 -0.00134654 -0.0024062 0.000102375
internal_weight=452 107 345 265 80 163 47 87 102 72 46 67 47 116 67 49
internal_count=452 107 345 265 80 163 47 87 102 72 46 67 47 116 67 49
is_linear=0
shrinkage=0.05


Tree=36
num_leaves=17
num_cat=0
split_feature=39 76 38 15 24 39 90 84 35 2 32 15 84 39 23 35
split_gain=5.29491 3.46731 1.24467 0.630371 0.445111 0.305334 0.293128 0.236846 0.220646 0.153673 0.121277 0.0736873 0.0731027 0.0707304 0.0525148 0.0359147
threshold=0.007679167810515951 -1.1887369106926877 -1.2100122804531022 0.70654441446392025 0.34565523138776794 0.39937026389917357 -1.0000000180025095e-35 -0.034922424715678142 -0.49895184672521437 -0.64997579665492611 0.71277321736537969 -0.49147853521017554 0.1186757515321207 -0.28055400211507692 0.8586485522102324 0.077507427199603018
decision_type=2 2 2 2 2 2 2 2 2 2 2 2 2 2 2 2
left_child=2 -2 4 5 -1 15 -5 8 -4 -7 11 -9 14 -13 -11 -3
right_child=1 3 7 6 -6 9 -8 10 -10 12 -12 13 -14 -15 -16 -17
leaf_value=-0.0085332306762856813 0.025287740568164737 0.00088992046735559898 -0.0024839190899261405 0.0025374539016806727 -0.01810061600059271 0.010582626797258854 -0.0052839551002252854 -0.0052483227071834018 -0.0092638770134986521 0.0058395368566450017 0.00045408975133942749 -0.003629531792217964 0.0081483846445652569 -0.000317655203668567 0.0026882372912950814 0.0034035480386120512
leaf_weight=31 20 30 21 23 20 20 25 29 28 39 31 38 22 28 20 27
leaf_count=31 20 30 21 23 20 20 25 29 28 39 31 38 22 28 20 27
internal_value=1.71532e-11 0.00541166 -0.00541166 0.00348194 -0.0122851 0.00500644 -0.0015362 -0.00340853 -0.00635818 0.00665766 -0.00226144 -0.00314756 0.00568853 -0.00222449 0.0047713 0.00208059
internal_weight=452 226 226 206 51 158 48 175 49 101 126 95 81 66 59 57
internal_count=452 226 226 206 51 158 48 175 49 101 126 95 81 66 59 57
is_linear=0
shrinkage=0.05


Tree=37
num_leaves=18
num_cat=0
split_feature=1 79 0 0 19 6 43 1 60 84 17 12 27 94 49 40 28
split_gain=5.34321 2.48685 2.04316 0.55873 0.360354 0.262119 0.166905 0.165123 0.150871 0.148512 0.106502 0.101532 0.14387 0.102049 0.0652313 0.0258278 0.00594321
threshold=0.47758572713924058 -0.57628184283162498 -1.0314819711989631 -0.031423290593275789 0.093144700016829063 0.7284346596519079 1.36458720385358 0.76003790806952032 -0.024298537898211448 0.011522571281613251 0.37400929674962563 -0.32271859405882458 0.069002308122701514 -0.37940952255126009 0.091939624049832913 0.33159020081448171 -0.29940727555293783
decision_type=2 2 2 2 2 2 2 2 2 2 2 2 2 2 2 2 2
left_child=2 -2 4 8 -1 14 7 -3 11 10 -10 12 -4 -13 15 16 -5
right_child=1 6 3 5 -6 -7 -8 -9 9 -11 -12 13 -14 -15 -16 -17 -18
leaf_value=-0.015809789410343878 0.025659751652274285 0.0051798595648708421 -0.0012458040865192957 0.0020197994441592268 -0.0079087144635137056 -0.0030107991122349633 0.002453629498410484 0.010299423026819049 -0.0093054702226072553 -0.0022883167091726541 -0.004264124101874503 0.0026658166944980625 -0.0065901791176293054 -0.0019767539463294991 0.0054131715651601561 0.0036081031430512667 0.00083024090119925812
leaf_weight=27 20 36 34 21 31 24 23 28 20 36 22 20 20 29 20 20 21
leaf_count=27 20 36 34 21 31 24 23 28 20 36 22 20 20 29 20 20 21
internal_value=2.83157e-11 0.00976156 -0.0030275 -0.00129775 -0.0115868 0.00158507 0.00610681 0.00741967 -0.00298602 -0.00464487 -0.00666477 -0.00172981 -0.0032252 -8.18272e-05 0.0029302 0.00212924 0.00142502
internal_weight=452 107 345 287 58 106 87 64 181 78 42 103 54 49 82 62 42
internal_count=452 107 345 287 58 106 87 64 181 78 42 103 54 49 82 62 42
is_linear=0
shrinkage=0.05


Tree=38
num_leaves=19
num_cat=0
split_feature=1 65 4 0 86 82 0 19 18 84 40 30 33 66 1 37 45 90
split_gain=4.8913 2.76937 2.45542 0.694415 0.611739 0.399195 0.314897 0.30283 0.189992 0.176997 0.134047 0.119545 0.097266 0.0838639 0.0556106 0.0465788 0.0331156 0.0100117
threshold=0.95749374519013852 0.14045118662960596 -0.46113680264801543 -1.2100122804531022 0.11348928376870947 -1.0790069337878643 0.41095741125285834 0.12054443842555147 -0.059045802751872142 -0.034446916149510794 -0.25600632347391078 -0.071786162021515734 0.095066112684753859 -0.31083434505826335 0.41700240277187955 0.051277997780281102 0.28129367246031517 -0.014251774841783598
decision_type=2 2 2 2 2 2 2 2 2 2 2 2 2 2 2 2 2 2
left_child=2 -2 3 7 5 8 11 -1 15 -5 -10 -7 -11 16 -6 -4 -13 -8
right_child=1 -3 4 9 14 6 17 -9 10 12 -12 13 -14 -15 -16 -17 -18 -19
leaf_value=-0.016447065219930983 0.029579808795824648 0.0043875824077986179 0.0010192608223475804 -0.0082670193595381896 0.0048129335666696228 0.002992156564407196 0.0057254794411934345 -0.0080345696955919279 -0.0022419505244628949 -0.0049572117602158542 -0.0078267988970591919 -0.0010554521765568229 -0.00094153359215852115 -0.0037718659933307212 0.0084969041869044307 -0.0019736400823323771 0.0015711582476450577 0.0042374882567673923
leaf_weight=23 20 24 26 26 21 25 26 20 22 38 21 28 25 20 20 26 21 20
leaf_count=23 20 24 26 26 21 25 26 20 22 38 21 28 25 20 20 26 21 20
internal_value=-8.18082e-12 0.0158386 -0.00170808 -0.00731688 0.000974386 -8.84707e-06 0.00168872 -0.0125343 -0.00251052 -0.00479612 -0.00496943 2.98751e-05 -0.00336369 -0.00104342 0.00660999 -0.00047719 7.0238e-05 0.00507853
internal_weight=452 44 408 132 276 235 140 43 95 89 43 94 63 69 41 52 49 46
internal_count=452 44 408 132 276 235 140 43 95 89 43 94 63 69 41 52 49 46
is_linear=0
shrinkage=0.05


Tree=39
num_leaves=17
num_cat=0
split_feature=1 33 0 0 0 78 33 84 91 84 0 41 2 60 10 88
split_gain=4.4144 2.66268 2.21969 0.734658 0.393539 0.381077 0.281058 0.139506 0.130485 0.103927 0.098091 0.0706132 0.0716422 0.0579686 0.0357378 0.00921675
threshold=0.95749374519013852 0.60103562992065951 -0.33098079080373849 -1.2100122804531022 0.14199295508687074 -1.1244054193633037 -0.048056111682981441 0.19373006142676716 -4.9960036108132034e-16 -0.034922424715678142 0.41095741125285834 0.29503099559931784 0.019786097186198202 -0.063837226819561096 0.23579534411082378 -1.0000000180025095e-35
decision_type=2 2 2 2 2 2 2 2 2 2 2 2 2 2 2 2
left_child=2 -2 3 6 11 -6 -1 10 -5 -10 -7 12 13 -4 -11 -12
right_child=1 -3 4 8 5 7 -8 -9 9 14 15 -13 -14 -15 -16 -17
leaf_value=-0.015856974301013082 0.0038184020350551387 0.028520580455660822 0.00031078983762150483 -0.00094562940794276076 -0.0025181088227933896 0.0013158526941908586 -0.007770083995447272 0.0081085592863105599 -0.0071668537967424428 -0.0053058956922905059 0.0040257059569869724 -0.0028328269038484584 0.002037097156530113 -0.0027045976782184363 -0.0025949347385903821 0.0053656579136396902
leaf_weight=22 24 20 37 24 24 31 21 21 36 20 21 31 28 28 31 33
leaf_count=22 24 20 37 24 24 31 21 21 36 20 21 31 28 28 31 33
internal_value=1.01992e-11 0.0150467 -0.00162268 -0.00635901 0.00124896 0.0031711 -0.0119076 0.00445922 -0.00420957 -0.00510997 0.00355762 -0.000766197 -7.73203e-05 -0.000988146 -0.00365806 0.00484457
internal_weight=452 44 408 154 254 130 43 106 111 87 85 124 93 65 51 54
internal_count=452 44 408 154 254 130 43 106 111 87 85 124 93 65 51 54
is_linear=0
shrinkage=0.05


end of trees

feature_importances:
Column_0=165
Column_1=87
Column_84=67
Column_86=43
Column_39=19
Column_15=16
Column_41=14
Column_43=11
Column_90=11
Column_56=10
Column_3=9
Column_4=9
Column_8=9
Column_9=9
Column_25=9
Column_35=9
Column_6=8
Column_18=8
Column_11=7
Column_12=7
Column_38=7
Column_14=6
Column_31=6
Column_17=5
Column_37=5
Column_51=5
Column_79=5
Column_16=4
Column_19=4
Column_21=4
Column_26=4
Column_44=4
Column_49=4
Column_52=4
Column_57=4
Column_65=4
Column_66=4
Column_94=4
Column_5=3
Column_22=3
Column_33=3
Column_60=3
Column_70=3
Column_83=3
Column_2=2
Column_7=2
Column_27=2
Column_30=2
Column_32=2
Column_40=2
Column_45=2
Column_50=2
Column_58=2
Column_63=2
Column_69=2
Column_74=2
Column_76=2
Column_82=2
Column_91=2
Column_10=1
Column_13=1
Column_23=1
Column_24=1
Column_28=1
Column_46=1
Column_47=1
Column_55=1
Column_59=1
Column_62=1
Column_67=1
Column_68=1
Column_72=1
Column_77=1
Column_78=1
Column_80=1
Column_87=1
Column_88=1
Column_93=1
Column_95=1

parameters:
[boosting: gbdt]
[objective: regression]
[metric: rmse]
[tree_learner: serial]
[device_type: cpu]
[data_sample_strategy: bagging]
[data: ]
[valid: ]
[num_iterations: 1500]
[learning_rate: 0.05]
[num_leaves: 31]
[num_threads: 0]
[seed: 42]
[deterministic: 0]
[force_col_wise: 0]
[force_row_wise: 0]
[histogram_pool_size: -1]
[max_depth: -1]
[min_data_in_leaf: 20]
[min_sum_hessian_in_leaf: 0.001]
[bagging_fraction: 0.8]
[pos_bagging_fraction: 1]
[neg_bagging_fraction: 1]
[bagging_freq: 0]
[bagging_seed: 400]
[bagging_by_query: 0]
[feature_fraction: 0.8]
[feature_fraction_bynode: 1]
[feature_fraction_seed: 30056]
[extra_trees: 0]
[extra_seed: 12879]
[early_stopping_round: 0]
[early_stopping_min_delta: 0]
[first_metric_only: 0]
[max_delta_step: 0]
[lambda_l1: 0]
[lambda_l2: 0]
[linear_lambda: 0]
[min_gain_to_split: 0]
[drop_rate: 0.1]
[max_drop: 50]
[skip_drop: 0.5]
[xgboost_dart_mode: 0]
[uniform_drop: 0]
[drop_seed: 17869]
[top_rate: 0.2]
[other_rate: 0.1]
[min_data_per_group: 100]
[max_cat_threshold: 32]
[cat_l2: 10]
[cat_smooth: 10]
[max_cat_to_onehot: 4]
[top_k: 20]
[monotone_constraints: ]
[monotone_constraints_method: basic]
[monotone_penalty: 0]
[feature_contri: ]
[forcedsplits_filename: ]
[refit_decay_rate: 0.9]
[cegb_tradeoff: 1]
[cegb_penalty_split: 0]
[cegb_penalty_feature_lazy: ]
[cegb_penalty_feature_coupled: ]
[path_smooth: 0]
[interaction_constraints: ]
[verbosity: -1]
[saved_feature_importance_type: 0]
[use_quantized_grad: 0]
[num_grad_quant_bins: 4]
[quant_train_renew_leaf: 0]
[stochastic_rounding: 1]
[linear_tree: 0]
[max_bin: 255]
[max_bin_by_feature: ]
[min_data_in_bin: 3]
[bin_construct_sample_cnt: 200000]
[data_random_seed: 175]
[is_enable_sparse: 1]
[enable_bundle: 1]
[use_missing: 1]
[zero_as_missing: 0]
[feature_pre_filter: 1]
[pre_partition: 0]
[two_round: 0]
[header: 0]
[label_column: ]
[weight_column: ]
[group_column: ]
[ignore_column: ]
[categorical_feature: ]
[forcedbins_filename: ]
[precise_float_parser: 0]
[parser_config_file: ]
[objective_seed: 16083]
[num_class: 1]
[is_unbalance: 0]
[scale_pos_weight: 1]
[sigmoid: 1]
[boost_from_average: 1]
[reg_sqrt: 0]
[alpha: 0.9]
[fair_c: 1]
[poisson_max_delta_step: 0.7]
[tweedie_variance_power: 1.5]
[lambdarank_truncation_level: 30]
[lambdarank_norm: 1]
[label_gain: ]
[lambdarank_position_bias_regularization: 0]
[eval_at: ]
[multi_error_top_k: 1]
[auc_mu_weights: ]
[num_machines: 1]
[local_listen_port: 12400]
[time_out: 120]
[machine_list_filename: ]
[machines: ]
[gpu_platform_id: -1]
[gpu_device_id: -1]
[gpu_use_dp: 0]
[num_gpu: 1]

end of parameters

pandas_categorical:null
