tree
version=v4
num_class=1
num_tree_per_iteration=1
label_index=0
max_feature_idx=90
objective=regression
feature_names=Column_0 Column_1 Column_2 Column_3 Column_4 Column_5 Column_6 Column_7 Column_8 Column_9 Column_10 Column_11 Column_12 Column_13 Column_14 Column_15 Column_16 Column_17 Column_18 Column_19 Column_20 Column_21 Column_22 Column_23 Column_24 Column_25 Column_26 Column_27 Column_28 Column_29 Column_30 Column_31 Column_32 Column_33 Column_34 Column_35 Column_36 Column_37 Column_38 Column_39 Column_40 Column_41 Column_42 Column_43 Column_44 Column_45 Column_46 Column_47 Column_48 Column_49 Column_50 Column_51 Column_52 Column_53 Column_54 Column_55 Column_56 Column_57 Column_58 Column_59 Column_60 Column_61 Column_62 Column_63 Column_64 Column_65 Column_66 Column_67 Column_68 Column_69 Column_70 Column_71 Column_72 Column_73 Column_74 Column_75 Column_76 Column_77 Column_78 Column_79 Column_80 Column_81 Column_82 Column_83 Column_84 Column_85 Column_86 Column_87 Column_88 Column_89 Column_90
feature_infos=[-0.93079171113892034:0.76220274489637097] [-1.281832724210016:1.1825989887427464] [-2.5636654484200307:2.3651979774854919] [0.01293571686870074:1.1990447202872401] [0.035760317866485605:1.9186767675887022] [-31.203208579381318:592.33070672184112] [-1.5329573266440155:1.4299605693017208] [-2.1998833971435583:3.8692245819541] [-2.1998833971435583:3.8692245819541] [-2.1998833971435583:3.8692245819541] [-2.1998833971435583:3.8692245819541] [-2.1998833971435583:3.8692245819541] [-2.1998833971435583:3.8692245819541] [-2.1998833971435583:3.8692245819541] [-2.1943998713224748:3.860955103998494] [-2.0502608434919503:3.4667554410842456] [-1.932948267045105:2.5960032455690443] [-1.4429488307083782:1.271887471424948] [-1.930941499690811:3.1939179915552884] [-1.6523423676625755:2.4421843381009802] [-1.0906039235489904:1.6125758121854392] [-1.0943781514118989:0.49708783356833375] [-1.1393703888813924:0.92501808018930487] [-1.9549191398772785:1.8500361603786093] [0.0046847623953103993:0.91432970503344935] [0.011542011266000586:1.4832385927490879] [-193.77712290858753:88.091785793586936] [-1.0493859139424053:1.0943781514118989] [-1.859047007532957:2.9342347356773439] [-1.859047007532957:2.9342347356773439] [-1.859047007532957:2.9342347356773439] [-1.859047007532957:2.9342347356773439] [-1.859047007532957:2.9342347356773439] [-1.859047007532957:2.9342347356773439] [-1.859047007532957:2.9342347356773439] [-1.8411444989449901:2.9254944873857887] [-1.7851311521189919:2.6127850031769086] [-1.6596775770260204:1.9378983043868174] [-1.2363923308227189:0.92756752962708477] [-1.6684538459803191:2.4032738825568103] [-1.4100153884727444:1.8355160751884312] [-0.94551038771076934:1.2471483834247117] [-0.49400127039001096:0.52971369659365941] [-0.9880025407800217:0.85251954131052465] [-1.9760050815600425:1.7050390826210493] [0.0012868366758747897:0.92419175121524899] [0.013313685757747098:1.4763124206384555] [-22.611259315385816:59.912483028861573] [-0.52971369659365941:0.53547822385846622] [-1.8657831647695711:3.0072490900536955] [-1.8657831647695711:3.0072490900536955] [-1.8657831647695711:3.0072490900536955] [-1.8657831647695711:3.0072490900536955] [-1.8657831647695711:3.0072490900536955] [-1.8657831647695711:3.0072490900536955] [-1.8657831647695711:3.0072490900536955] [-1.8451540357335789:2.9846685901421126] [-1.7884380586968991:2.6892051597494793] [-1.6595342578465446:2.257648937546501] [-1.2733389482879882:1.4628003759913384] [-1.6961286715380894:2.4949103568143141] [-1.4923483844990062:1.9291504386931577] [-1.1588920789451753:1.3356237601021514] [-0.58075344179437127:1.6123283976638285] [-1.1615068835887425:1.8912211661848766] [-2.3230137671774855:2.0250788067041978] [0.0042548221504438337:1.0864902026921488] [0.028997445992063706:1.41763179728068] [-21.334510975385506:400.83829654026971] [-1.3334356291427802:1.6123283976638285] [-2.5529133812149469:1.6101919081681242] [-2.5529133812149469:1.6101919081681242] [-2.5529133812149469:1.6101919081681242] [-2.5529133812149469:1.6101919081681242] [-2.5529133812149469:1.6101919081681242] [-2.5529133812149469:1.6101919081681242] [-2.5529133812149469:1.6101919081681242] [-2.5495322579552977:1.6063346788399731] [-2.5360077649167021:1.5909057615273687] [-2.3875739120518031:1.5257770023605477] [-1.3976642672705879:1.274102868188679] [-2.46499545496384:1.5712060957680936] [-2.0659601360295881:1.4186926314965422] [-1.4331814643965843:1.0982044733460352] [-1:1] [-1:1] [-0.97492791218182362:0.97492791218182362] [-0.90096886790241903:1] [0:1425] [-1:1] [-1:1]
tree_sizes=1427 1508 1737 1588 1669 1587 1481 1677 1514 1428 1653 1678 1692 1515 1591 1685 1589 1517 1595 1597 1604 1580 1598 1512 1691 1604 1517 1579 1592 1606 1610 1609 1768 1606 1584 1604 1599

Tree=0
num_leaves=15
num_cat=0
split_feature=21 21 76 41 17 90 24 7 9 77 64 73 38 39
split_gain=97.2458 55.756 27.2211 24.7287 19.8319 16.3375 10.1524 9.08176 6.17763 4.66611 4.29653 3.75045 1.9529 1.0881
threshold=-0.031677640293750718 -0.027220897243970994 -0.40545251185507231 -0.033198233880800627 0.48964989822467381 -0.81241147629689003 0.070188462618808539 -1.4014715357314367 0.91250710810672664 0.45315952138970389 0.14439844458938864 0.64953127100755459 -0.0064776347837416917 0.45444363285556677
decision_type=2 2 2 2 2 2 2 2 2 2 2 2 2 2
left_child=4 -2 5 7 8 -3 -5 -4 9 -1 11 -9 -8 -14
right_child=1 2 3 6 -6 -7 12 10 -10 -11 -12 -13 13 -15
leaf_value=-0.059505448941776728 0.017958944884845882 -0.063325967545846101 -0.029317567217036961 -0.018293115655251685 -0.07299993563423221 -0.032574697018626683 -0.031778970224159438 -0.020200324352390643 -0.033735416601304184 -0.043408038569439221 0.0041427644136715763 -0.0054048819577896083 -0.039004254419858858 -0.048250676848858275
leaf_weight=35 26 26 24 28 39 38 20 30 23 32 20 35 31 20
leaf_count=35 26 26 24 28 39 38 20 30 23 32 20 35 31 20
internal_value=-0.0333594 -0.02394 -0.0279734 -0.0227022 -0.0551094 -0.0450479 -0.0335283 -0.0128508 -0.0472881 -0.0518883 -0.00824676 -0.0121568 -0.0395915 -0.0427111
internal_weight=427 298 272 208 129 64 99 109 90 67 85 65 71 51
internal_count=427 298 272 208 129 64 99 109 90 67 85 65 71 51
is_linear=0
shrinkage=1


Tree=1
num_leaves=16
num_cat=0
split_feature=21 21 76 41 17 55 24 14 9 78 63 74 90 11 19
split_gain=91.5354 52.4693 25.6191 23.2785 18.6553 18.2678 9.55463 8.54475 5.81177 4.39366 4.00358 4.87459 3.18808 1.75585 0.959746
threshold=-0.031677640293750718 -0.027220897243970994 -0.40545251185507231 -0.033198233880800627 0.48964989822467381 -0.026801711745409799 0.070188462618808539 -1.4014715357314367 0.91250710810672664 0.39869757253253363 0.07262319914306041 0.71277321736537969 -0.88144907265856332 -0.15027072429999608 0.33257143391788996
decision_type=2 2 2 2 2 2 2 2 2 2 2 2 2 2 2
left_child=4 -2 5 7 8 -3 -5 -4 9 -1 11 -9 -7 -8 -15
right_child=1 2 3 6 -6 12 13 10 -10 -11 -12 -13 -14 14 -16
leaf_value=-0.025149340559405958 0.049784663963591914 0.011466172735131747 0.0039210514929841163 0.01461587542846958 -0.038454390078249488 -0.031438089119854247 0.00086948356110754324 0.011643531955000001 -0.00036481450469075857 -0.0094951240703092209 0.035597509987214025 0.028615800320545087 -0.014579368483089212 -0.0055198589873682591 -0.014351073120956988
leaf_weight=36 26 21 24 28 39 20 22 31 23 31 22 32 23 29 20
leaf_count=36 26 21 24 28 39 20 22 31 23 31 22 32 23 29 20
internal_value=0 0.00913904 0.0052259 0.0103398 -0.0211013 -0.0113378 -0.000163096 0.0198981 -0.0135141 -0.017976 0.0243641 0.0203436 -0.022545 -0.00604598 -0.00920742
internal_weight=427 298 272 208 129 64 99 109 90 67 85 63 43 71 49
internal_count=427 298 272 208 129 64 99 109 90 67 85 63 43 71 49
is_linear=0
shrinkage=0.03


Tree=2
num_leaves=19
num_cat=0
split_feature=22 22 19 76 17 90 41 20 24 16 63 74 81 20 25 34 88 26
split_gain=84.1378 40.5166 23.1249 22.3696 17.3375 12.5999 12.4442 7.78759 5.61039 5.52531 5.48584 8.22371 4.44129 3.29616 3.00442 2.99934 1.68454 1.23186
threshold=-0.087371836208552031 -0.054441794487942036 0.42187932542459727 -0.56819023340409536 0.48964989822467381 -0.81241147629689003 -0.033198233880800627 0.5389491205724436 0.060157470150155386 0.79834792934295706 0.07262319914306041 0.685796130099673 0.39261297995153205 0.3937333173914021 0.29707391279663814 -0.0067308530877233487 1057.5000000000002 0.11575169534271658
decision_type=2 2 2 2 2 2 2 2 2 2 2 2 2 2 2 2 2 2
left_child=4 -2 3 5 9 -3 10 -6 -8 12 11 14 15 -4 -5 -1 -13 -10
right_child=1 2 13 6 7 -7 8 -9 17 -11 -12 16 -14 -15 -16 -17 -18 -19
leaf_value=-0.015033325878152915 0.043232684545616656 -0.025212380282290565 -0.0067953838816807643 0.015251348483713853 -0.022633840423911363 0.0067850969700027977 0.0157409121103863 -0.04969131540896287 -0.0068066863323024696 -0.00074875537884132619 0.033794736837234968 0.033255810826572009 -0.0072582865659490048 -0.023714124310011069 0 -0.031798267133200338 0.020067751999221631 0.0029457167206001274
leaf_weight=21 28 23 23 25 20 21 24 20 24 26 22 20 26 20 22 20 20 22
leaf_count=21 28 23 23 25 20 21 24 20 24 26 22 20 26 20 22 20 20 22
internal_value=0 0.00895708 0.00532296 0.0092159 -0.0197901 -0.00989207 0.0139325 -0.0363276 0.00400022 -0.0126137 0.020274 0.0167856 -0.0171653 -0.0147709 0.00815765 -0.0233418 0.0268031 -0.00208115
internal_weight=427 294 266 223 133 44 179 40 70 93 109 87 67 43 47 41 40 46
internal_count=427 294 266 223 133 44 179 40 70 93 109 87 67 43 47 41 40 46
is_linear=0
shrinkage=0.03


Tree=3
num_leaves=17
num_cat=0
split_feature=22 22 19 76 17 90 41 20 49 63 80 25 66 20 23 75
split_gain=79.2131 38.1266 21.7729 21.0555 16.3132 11.8604 11.7138 7.32259 5.81678 5.15743 7.00745 4.35877 3.82596 3.09951 1.94895 1.75755
threshold=-0.087371836208552031 -0.054441794487942036 0.42187932542459727 -0.56819023340409536 0.48964989822467381 -0.81241147629689003 -0.033198233880800627 0.5389491205724436 0.31387562983698641 0.07262319914306041 0.21612825952999973 0.3548868160721434 0.23883258951585232 0.3937333173914021 0.062074971893644769 -0.12062786610257119
decision_type=2 2 2 2 2 2 2 2 2 2 2 2 2 2 2 2
left_child=4 -2 3 5 8 -3 9 -6 12 10 -5 14 -1 -4 -8 -12
right_child=1 2 13 6 7 -7 11 -9 -10 -11 15 -13 -14 -15 -16 -17
leaf_value=-0.023807907258747606 0.041940319720337502 -0.024459283955685498 -0.0065924047330370196 0.005771376100213577 -0.021958203782786182 0.0065825084942918253 0.016481918999508245 -0.048207991550217807 0.00072380353394266837 0.032785483916960151 0.030549962098029116 -0.0060745227562664329 -0.0095403583007774365 -0.023006240066641301 0.0037140361552100731 0.018565939876520741
leaf_weight=34 28 23 23 35 20 21 20 20 23 22 20 25 36 20 25 32
leaf_count=34 28 23 23 35 20 21 20 20 23 22 20 25 36 20 25 32
internal_value=0 0.00869054 0.00516485 0.00894252 -0.0192027 -0.00959452 0.0135187 -0.0352454 -0.0122399 0.0196715 0.016287 0.00388072 -0.0165372 -0.014332 0.00947913 0.0232826
internal_weight=427 294 266 223 133 44 179 40 93 109 87 70 70 43 45 52
internal_count=427 294 266 223 133 44 179 40 93 109 87 70 70 43 45 52
is_linear=0
shrinkage=0.03


Tree=4
num_leaves=18
num_cat=0
split_feature=22 22 39 55 90 7 17 17 4 13 43 20 1 59 75 38 11
split_gain=74.5623 35.8989 22.1241 15.8404 11.6124 15.5532 8.98095 7.96244 7.06582 4.27195 4.11808 3.73554 3.60795 3.49071 2.58816 1.14051 0.270391
threshold=-0.087371836208552031 -0.059972991038757535 0.49347900317394161 0.99944011664433441 -0.77259657388510627 -0.26474336105908686 -0.3228512965794057 0.46887879493457824 0.5004851105039948 0.76094866126306127 0.20485348083882451 0.3937333173914021 -0.016851671247052998 0.40932381500321863 -0.12062786610257119 0.26145162604823152 -1.1150596614105543
decision_type=2 2 2 2 2 2 2 2 2 2 2 2 2 2 2 2 2
left_child=3 -2 4 7 5 -3 9 10 12 14 13 -4 -8 -1 -6 -14 -16
right_child=1 2 11 -5 6 -7 8 -9 -10 -11 -12 -13 15 -15 16 -17 -18
leaf_value=-0.018714583450393733 0.045222729362243974 0.013169913892921112 -0.0056147684100319017 -0.041295366039523822 0.0310765841757429 -0.023671108075042267 0.021631952210593577 -0.025670183476729266 -0.0089223154510649459 0.0076749601497610601 0.0029084946981397281 -0.02231948663939291 0.010108515043739861 -0.0028748544792852127 0.021377750163394691 0.00069151148978453965 0.015238295512329506
leaf_weight=33 22 21 32 23 26 20 20 35 21 21 21 20 30 21 21 20 20
leaf_count=33 22 21 32 23 26 20 20 35 21 21 21 20 30 21 21 20 20
internal_value=0 0.00843173 0.00542943 -0.0186303 0.00959656 -0.00474219 0.0128984 -0.0138308 0.00623169 0.0197435 -0.00823892 -0.0121277 0.0108269 -0.0126268 0.0234644 0.00641049 0.0185002
internal_weight=427 294 272 133 220 41 179 110 91 88 75 52 70 54 67 50 41
internal_count=427 294 272 133 220 41 179 110 91 88 75 52 70 54 67 50 41
is_linear=0
shrinkage=0.03


Tree=5
num_leaves=17
num_cat=0
split_feature=1 39 73 84 76 55 38 38 4 78 37 45 38 72 75 88
split_gain=66.3641 31.5318 29.0802 25.1529 16.9585 15.4807 9.02895 7.86135 6.90741 4.40103 4.20238 4.10214 3.58446 2.42852 1.77929 0.435307
threshold=-0.11264393460254717 0.49347900317394161 0.60103562992065951 -1.0000000180025095e-35 -0.56819023340409536 0.99944011664433441 -0.35575159833862097 0.39647375775335619 0.47535351753799121 0.011381516994022598 -0.2505689924396145 0.22793438077545131 0.15520264581773877 0.39296679023671827 -0.12062786610257119 187.50000000000003
decision_type=2 2 2 2 2 2 2 2 2 2 2 2 2 2 2 2
left_child=5 2 4 6 -2 7 14 11 9 10 -6 13 -3 -1 -4 -12
right_child=1 12 3 -5 8 -7 -8 -9 -10 -11 15 -13 -14 -15 -16 -17
leaf_value=-0.018261566631410313 -0.013861019345890742 -0.0051948738619206035 0.031874873424643894 0.056066141946991874 0.029053473019492029 -0.039724296793898106 0.00054467921159160671 -0.025075194389528377 -0.0039086753408984834 0.0048367510041183743 0.0089176040609825896 0.0041231971840137854 -0.020476975190913536 -0.0050737846081798099 0.019132462694825401 0.015761688655657226
leaf_weight=26 34 31 20 20 22 24 20 33 25 34 20 20 26 26 25 21
leaf_count=26 34 31 20 20 22 24 20 33 25 34 20 20 26 26 25 21
internal_value=0 0.00778209 0.0125336 0.0266485 0.00481142 -0.0179669 0.0174786 -0.0129321 0.0100469 0.0136749 0.0183819 -0.00729787 -0.0122418 -0.0117477 0.0249204 0.0125259
internal_weight=427 298 241 85 156 129 65 105 122 97 63 72 57 52 45 41
internal_count=427 298 241 85 156 129 65 105 122 97 63 72 57 52 45 41
is_linear=0
shrinkage=0.03


Tree=6
num_leaves=16
num_cat=0
split_feature=21 21 76 41 55 17 24 7 9 81 64 74 90 11 19
split_gain=68.5215 41.0516 19.5829 17.0889 14.4206 14.0772 7.27926 7.056 4.5737 3.32126 3.26657 3.51157 2.62243 1.45325 0.655373
threshold=-0.031677640293750718 -0.027220897243970994 -0.40545251185507231 -0.033198233880800627 -0.026801711745409799 0.48964989822467381 0.070188462618808539 -1.4014715357314367 0.91250710810672664 0.39261297995153205 0.14439844458938864 0.71277321736537969 -0.88144907265856332 -0.15027072429999608 0.33257143391788996
decision_type=2 2 2 2 2 2 2 2 2 2 2 2 2 2 2
left_child=5 -2 4 7 -3 8 -5 -4 9 -1 11 -9 -6 -8 -15
right_child=1 2 3 6 12 -7 13 10 -10 -11 -12 -13 -14 14 -16
leaf_value=-0.021490667255551321 0.043861248337331855 0.010216995157760466 0.0025860789609895205 0.012819092861539103 -0.028064945631507611 -0.03333538408931868 0.0010674371572877218 0.01066886589370015 0 -0.0077679692331663113 0.031979405203861971 0.024894930263546024 -0.012754117491376863 -0.0050086078662233257 -0.012372427146826218
leaf_weight=38 26 21 24 28 20 39 22 33 23 29 20 32 23 29 20
leaf_count=38 26 21 24 28 20 39 22 33 23 29 20 32 23 29 20
internal_value=0 0.00790802 0.00444543 0.00891758 -0.0100335 -0.0182561 -7.69869e-05 0.017107 -0.0116587 -0.0156161 0.021164 0.017746 -0.0199936 -0.00521584 -0.00809443
internal_weight=427 298 272 208 64 129 99 109 90 67 85 65 43 71 49
internal_count=427 298 272 208 64 129 99 109 90 67 85 65 43 71 49
is_linear=0
shrinkage=0.03


Tree=7
num_leaves=18
num_cat=0
split_feature=21 21 76 5 55 55 38 64 39 74 25 45 90 72 72 24 23
split_gain=64.4981 38.6319 18.4338 14.378 13.5762 12.8013 7.31885 6.15131 5.86777 3.63723 2.99684 2.76935 2.46443 1.43976 1.34759 1.15425 0.83267
threshold=-0.031677640293750718 -0.027220897243970994 -0.40545251185507231 -0.021919958834245076 -0.026801711745409799 0.99944011664433441 0.37689497223899276 1.0000000180025095e-35 0.49347900317394161 0.88038577688144326 0.3548868160721434 0.2005129126243779 -0.88144907265856332 0.41667855517843849 -0.12521354793288889 0.084172768837614445 0.33593760010811935
decision_type=2 2 2 2 2 2 2 2 2 2 2 2 2 2 2 2 2
left_child=5 -2 4 7 -3 6 11 -4 9 10 15 13 -6 -1 -8 -5 -9
right_child=1 2 3 8 12 -7 14 16 -10 -11 -12 -13 -14 -15 -16 -17 -18
leaf_value=-0.017728420908687943 0.042550452993005167 0.0099119382918375354 0.0067832497085317479 0.011890447577500244 -0.027227185568702749 -0.038033394604534296 -0.017338016620322839 0.021038332092009969 -0.0084578605044599384 0.017207718081242662 -0.005900227011895025 0.00049099599278863812 -0.012373150388722295 -0.006003983318249681 -0.029170769177266017 0.002663355780098711 0.029707091487414457
leaf_weight=20 26 21 27 24 20 23 20 32 33 21 23 26 23 20 20 27 21
leaf_count=20 26 21 27 24 20 23 20 32 33 21 23 26 23 20 20 27 21
internal_value=0 0.00767249 0.00431312 0.00865231 -0.00973392 -0.0177119 -0.0132425 0.0186264 0.0023854 0.00618848 0.00300191 -0.00702279 -0.0193988 -0.0119706 -0.0233872 0.007079 0.0245791
internal_weight=427 298 272 208 64 129 106 80 128 95 74 66 43 40 40 51 53
internal_count=427 298 272 208 64 129 106 80 128 95 74 66 43 40 40 51 53
is_linear=0
shrinkage=0.03


Tree=8
num_leaves=16
num_cat=0
split_feature=21 21 76 41 74 17 24 7 49 55 64 74 38 41 44
split_gain=60.7178 36.3546 17.3525 15.4475 12.8447 12.7555 6.52772 6.46333 4.16895 3.91725 2.96464 3.20434 1.43396 1.36809 0.449478
threshold=-0.031677640293750718 -0.027220897243970994 -0.40545251185507231 -0.033198233880800627 0.23163587877119177 0.48964989822467381 0.070188462618808539 -1.4014715357314367 0.077004804097421511 0.15641713515566458 0.14439844458938864 0.71277321736537969 0.076623579522325833 0.32546627954016633 -0.13413647821402844
decision_type=2 2 2 2 2 2 2 2 2 2 2 2 2 2 2
left_child=5 -2 4 7 -3 8 -5 -4 9 13 11 -9 -8 -1 -14
right_child=1 2 3 6 -6 -7 12 10 -10 -11 -12 -13 14 -15 -16
leaf_value=-0.0040297510644412152 0.041278829471711277 -0.022866409329053393 0.0022799170281568005 0.012054988832289212 0.0039157845877180585 -0.031540015724004077 0.00082971759275745802 0.010037931940234139 -0.00036483852007237089 -0.026022171010332763 0.030374721084068065 0.023634516254206681 -0.0049362367323572695 -0.014778178540672874 -0.011175571959707644
leaf_weight=21 26 32 24 28 32 39 24 33 25 20 20 32 24 24 23
leaf_count=21 26 32 24 28 32 39 24 33 25 20 20 32 24 24 23
internal_value=0 0.0074441 0.00418489 0.00839512 -0.00944329 -0.0171851 -0.000155173 0.0161815 -0.0109033 -0.0149036 0.0200641 0.0168037 -0.00502282 -0.00984882 -0.00807047
internal_weight=427 298 272 208 64 129 99 109 90 65 85 65 71 45 47
internal_count=427 298 272 208 64 129 99 109 90 65 85 65 71 45 47
is_linear=0
shrinkage=0.03


Tree=9
num_leaves=15
num_cat=0
split_feature=21 21 32 24 17 90 41 4 9 7 43 78 19 15
split_gain=57.1611 34.2108 14.4149 12.3155 11.9957 10.2213 7.18954 4.22573 3.98935 3.8025 3.20603 2.98155 1.39418 0.631672
threshold=-0.031677640293750718 -0.027220897243970994 -0.78078257735928658 0.057549990072634886 0.48964989822467381 -0.81241147629689003 0.044605234591401678 0.37059661608435124 0.8181266721147904 0.31550711492482708 -0.052016075621743534 0.39869757253253363 0.52784231550256278 1.0000000180025095e-35
decision_type=2 2 2 2 2 2 2 2 2 2 2 2 2 2
left_child=4 -2 10 9 8 -5 7 -7 11 -4 -3 -1 13 -8
right_child=1 2 3 5 -6 6 12 -9 -10 -11 -12 -13 -14 -15
leaf_value=-0.020484291075641273 0.040045209072273345 0.022527296186512349 0.021811194348620225 -0.018878475430064667 -0.030596235155525717 0.014965108170687592 -0.0077447179893949131 -0.00060150952929278144 -0.000270135294334347 0.0040389237058029237 0.0090187822002318601 -0.0073601315372880307 -0.013214329370072385 -0.00052375442937187765
leaf_weight=35 26 35 25 32 39 32 20 30 25 20 31 30 21 26
leaf_count=35 26 35 25 32 39 32 20 30 25 20 31 30 21 26
internal_value=0 0.00722284 0.00406082 0.00013468 -0.0166741 -0.00372989 1.637e-05 0.00739573 -0.0105807 0.0140054 0.016251 -0.0144937 -0.00676842 -0.00373837
internal_weight=427 298 272 206 129 161 129 62 90 45 66 65 67 46
internal_count=427 298 272 206 129 161 129 62 90 45 66 65 67 46
is_linear=0
shrinkage=0.03


Tree=10
num_leaves=18
num_cat=0
split_feature=21 21 76 41 55 80 7 24 49 86 86 64 74 90 38 38 7
split_gain=53.8023 32.196 15.8436 13.85 11.713 11.4886 5.92365 5.7612 5.0902 3.69232 3.36973 2.725 2.93459 2.08246 2.00137 1.33469 0.4316
threshold=-0.031677640293750718 -0.027220897243970994 -0.40545251185507231 -0.033198233880800627 -0.026801711745409799 -0.68508497792502199 -1.4014715357314367 0.070188462618808539 0.56228341876413779 1.0000000180025095e-35 0.87837969732492682 0.14439844458938864 0.71277321736537969 -0.88144907265856332 0.3201445975686526 0.076623579522325833 0.19899426773044487
decision_type=2 2 2 2 2 2 2 2 2 2 2 2 2 2 2 2 2
left_child=5 -2 4 6 -3 -1 -4 -5 9 14 -11 12 -8 -6 -7 -9 -17
right_child=1 2 3 7 13 8 11 15 -10 10 -12 -13 -14 -15 -16 16 -18
leaf_value=-0.035427741234178661 0.038848455157773243 0.0091589245926677054 0.0020225376488942327 0.011336970733896268 -0.025270687048670956 -0.013797947132765357 0.0094436190982442048 0.0009369721527199774 0.0015483191898509635 0 -0.017066228134089735 0.028941528601432908 0.022461668800249274 -0.011579567790999041 -0.027215628522560306 -0.004939530509699315 -0.011113371485427244
leaf_weight=23 26 21 24 28 20 20 33 24 20 21 21 20 32 23 24 27 20
leaf_count=23 26 21 24 28 20 20 33 24 20 21 21 20 32 23 24 27 20
internal_value=0 0.00700688 0.00393901 0.00796243 -0.0090823 -0.0161774 0.0153352 -0.00013209 -0.0119427 -0.0151131 -0.00859867 0.019052 0.0159232 -0.018061 -0.0212298 -0.00470688 -0.00764841
internal_weight=427 298 272 208 64 129 109 99 106 86 42 85 65 43 44 71 47
internal_count=427 298 272 208 64 129 109 99 106 86 42 85 65 43 44 71 47
is_linear=0
shrinkage=0.03


Tree=11
num_leaves=18
num_cat=0
split_feature=21 21 39 55 55 38 58 38 42 61 70 45 26 47 33 72 72
split_gain=50.6477 30.2981 12.3453 11.4999 10.9547 8.69529 8.6716 5.82038 3.60451 3.48742 2.56165 2.39964 1.56598 1.52204 1.49718 1.38405 1.21081
threshold=-0.031677640293750718 -0.027220897243970994 0.49347900317394161 0.56424602760899101 0.99944011664433441 0.3375494048036996 0.55458745574179413 0.37689497223899276 -0.11232664064045618 -0.036432207518906461 -0.17714246272434492 0.2005129126243779 -0.10925126713675413 -0.10236536133596462 0.15682118588128821 -0.12521354793288889 0.41667855517843849
decision_type=2 2 2 2 2 2 2 2 2 2 2 2 2 2 2 2 2
left_child=4 -2 3 5 7 8 -5 11 12 13 -4 16 -3 -10 -11 -9 -1
right_child=1 2 10 6 -6 -7 -8 15 9 14 -12 -13 -14 -15 -16 -17 -18
leaf_value=-0.015897928041531076 0.037687467596996788 0.027806530425333861 -0.017490594159533603 -0.013739549266406619 -0.034494518877623913 -0.0025232540964643274 0.0094622142909720729 -0.014558183362346086 0.022752249846808712 0.01048956625941974 -0.0034037769885583852 0.00098213216932169331 0.015386886696762112 0.011427282933359857 -0.0007172570084706285 -0.026407701924665645 -0.005134559241471005
leaf_weight=20 26 21 22 36 23 34 24 20 21 20 26 26 20 26 22 20 20
leaf_count=20 26 21 22 36 23 34 24 20 21 20 26 26 20 26 22 20 20
internal_value=0 0.00679828 0.00382185 0.00678852 -0.015696 0.0109035 -0.00440863 -0.0115602 0.0144374 0.0109575 -0.00994554 -0.00600786 0.0218733 0.0165886 0.00456031 -0.0206088 -0.0106173
internal_weight=427 298 272 224 129 164 60 106 130 89 48 66 41 47 42 40 40
internal_count=427 298 272 224 129 164 60 106 130 89 48 66 41 47 42 40 40
is_linear=0
shrinkage=0.03


Tree=12
num_leaves=18
num_cat=0
split_feature=21 21 32 24 80 90 38 49 28 80 87 4 42 53 7 71 34
split_gain=47.6789 28.5125 12.3129 10.8189 10.4883 8.91492 6.39553 4.63447 3.72394 3.46499 4.47254 3.25379 2.89619 0.960473 0.938265 1.01948 0.804438
threshold=-0.031677640293750718 -0.027220897243970994 -0.78078257735928658 0.065298209011904057 -0.68508497792502199 -0.81241147629689003 0.076623579522325833 0.56228341876413779 0.42070783832461839 0.03726613253953593 0.81174490092936691 0.41733618570625336 -0.1066417781309313 1.0000000180025095e-35 0.34545379840568297 0.88038577688144326 0.095868700509791724
decision_type=2 2 2 2 2 2 2 2 2 2 2 2 2 2 2 2 2
left_child=4 -2 12 8 -1 -5 11 9 -4 -6 16 -7 -3 -14 15 -8 -11
right_child=1 2 3 5 7 6 14 -9 -10 10 -12 -13 13 -15 -16 -17 -18
leaf_value=-0.033623857207886576 0.036561175129194365 0.023106322231520694 0.019248314011342742 -0.01813444947829871 -0.025246414955872203 0.012315358749056787 0.00015748954364168107 0.0016857275233339904 0.0022357819512931264 -0.0087814132490667031 -0.021474159762456816 -0.00096468787937366274 0.014446618964463047 0.0049251747027095122 -0.012658429086875558 -0.009265890703050058 -0.0003949347002181544
leaf_weight=23 26 25 29 31 20 36 20 20 20 23 23 30 21 20 20 20 20
leaf_count=23 26 25 29 31 20 36 20 20 20 23 23 30 21 20 20 20 20
internal_value=0 0.00659562 0.00370785 7.82039e-05 -0.0152295 -0.00374887 -0.000174195 -0.011182 0.0123842 -0.0142078 -0.0107843 0.00624126 0.0149741 0.00989829 -0.00727976 -0.00449074 -0.0049603
internal_weight=427 298 272 206 129 157 126 106 49 86 66 66 66 41 60 40 43
internal_count=427 298 272 206 129 157 126 106 49 86 66 66 66 41 60 40 43
is_linear=0
shrinkage=0.03


Tree=13
num_leaves=16
num_cat=0
split_feature=21 21 76 41 17 55 7 49 55 22 63 74 55 41 49
split_gain=44.8855 26.8315 14.0626 11.8372 10.1783 9.97001 5.24482 3.56233 3.23894 3.05213 2.46832 2.74737 1.50504 1.17744 0.715793
threshold=-0.031677640293750718 -0.027220897243970994 -0.40545251185507231 -0.033198233880800627 0.48964989822467381 0.047477294926272007 -1.4014715357314367 0.077004804097421511 0.15641713515566458 0.097499730642895563 0.07262319914306041 0.685796130099673 -0.068630938967417579 0.32546627954016633 0.92497267250463711
decision_type=2 2 2 2 2 2 2 2 2 2 2 2 2 2 2
left_child=4 -2 5 6 7 -3 -4 8 13 12 11 -8 -5 -1 -11
right_child=1 2 3 9 -6 -7 10 -9 -10 14 -12 -13 -14 -15 -16
leaf_value=-0.0028648247005709252 0.035468543185584837 0.0050960325425648814 0.0016726385070884372 -0.00018258378769342714 -0.027600879309999056 -0.018781182894714154 0.0077605636922822045 0.00034651487382997075 -0.022969203767046996 -0.0022072729920951002 0.026536670656225794 0.020555084159547106 0.010434952771135297 -0.012823528261426293 -0.0096100172133588065
leaf_weight=21 26 27 24 22 39 37 30 25 20 32 22 33 25 24 20
leaf_count=21 26 27 24 22 39 37 30 25 20 32 22 33 25 24 20
internal_value=0 0.00639938 0.00359767 0.00738878 -0.0147767 -0.00866895 0.0142047 -0.0091618 -0.0128598 -9.21554e-05 0.0177018 0.014532 0.00541151 -0.00825931 -0.00512504
internal_weight=427 298 272 208 129 64 109 90 65 99 85 63 47 45 52
internal_count=427 298 272 208 129 64 109 90 65 99 85 63 47 45 52
is_linear=0
shrinkage=0.03


Tree=14
num_leaves=17
num_cat=0
split_feature=22 22 39 76 55 90 38 17 63 74 8 43 20 25 25 75
split_gain=41.3231 21.8939 13.59 10.5696 10.0283 8.4242 5.71609 4.63596 3.47664 4.96542 3.09571 2.81439 2.67474 2.50404 1.59778 1.07065
threshold=-0.087371836208552031 -0.059972991038757535 0.49347900317394161 -0.56819023340409536 0.99944011664433441 -0.81241147629689003 0.29397133964186606 0.46887879493457824 0.07262319914306041 0.685796130099673 -0.03942067747477724 0.20485348083882451 0.3937333173914021 0.362555100688504 0.29707391279663814 -0.031827879782025441
decision_type=2 2 2 2 2 2 2 2 2 2 2 2 2 2 2 2
left_child=4 -2 3 5 7 -3 8 11 9 14 -8 13 -4 -1 -5 -11
right_child=1 2 12 6 -6 -7 10 -9 -10 15 -12 -13 -14 -15 -16 -17
leaf_value=-0.015402457534345153 0.035011202168916407 -0.018412388603901486 -0.0043002960312171516 0.0093497385795954166 -0.031908974198551918 0.0074434391095627482 -0.0050324188905503473 -0.019084328385627167 0.023718287198022863 0.023967198365414298 0.01048021921693389 0.0034366721432144039 -0.018452447816284735 -0.0022856483532049023 -0.00068101559913131442 0.013675662674454608
leaf_weight=29 22 23 32 38 23 22 27 35 26 22 20 21 20 25 22 20
leaf_count=29 22 23 32 38 23 22 27 35 26 22 20 21 20 25 22 20
internal_value=0 0.00627691 0.00392977 0.00719775 -0.0138695 -0.00571677 0.0105371 -0.0100448 0.0138234 0.011251 0.00151325 -0.00576654 -0.00982598 -0.00940076 0.00562687 0.0191819
internal_weight=427 294 272 220 133 45 175 110 128 102 47 75 52 54 60 42
internal_count=427 294 272 220 133 45 175 110 128 102 47 75 52 54 60 42
is_linear=0
shrinkage=0.03


Tree=15
num_leaves=18
num_cat=0
split_feature=22 22 39 76 80 90 38 49 80 62 63 74 8 20 25 53 89
split_gain=38.8965 20.6046 12.795 9.94765 9.01805 7.92959 5.38042 4.55082 3.37523 3.69634 3.26873 4.67402 2.91387 2.51563 1.50469 0.937231 0.802839
threshold=-0.087371836208552031 -0.059972991038757535 0.49347900317394161 -0.56819023340409536 -0.68508497792502199 -0.81241147629689003 0.29397133964186606 0.56228341876413779 0.017654731964664203 -0.81918551509420845 0.07262319914306041 0.685796130099673 -0.03942067747477724 0.3937333173914021 0.29707391279663814 -0.42215364621979662 -0.58216583101416131
decision_type=2 2 2 2 2 2 2 2 2 2 2 2 2 2 2 2 2
left_child=4 -2 3 5 -1 -3 10 8 -6 -10 11 14 -8 -4 -5 -13 -11
right_child=1 2 13 6 7 -7 12 -9 9 16 -12 15 -14 -15 -16 -17 -18
leaf_value=-0.031031622618301953 0.033965617668102764 -0.017862408711732204 -0.004171689047791481 0.0090699826873926886 -0.02315313165611271 0.0072211463799978269 -0.0048820033947150204 0.0025256925559562948 -0.020306172591091978 -0.00028367555995970539 0.023009464835812302 0.013419159185697338 0.010167376832730734 -0.017901628955976287 -0.00066067764434407194 0.023113441567075732 -0.008254211901436213
leaf_weight=22 22 23 32 38 22 22 27 21 20 21 26 20 20 20 22 22 27
leaf_count=22 22 23 32 38 22 22 27 21 20 21 26 20 20 20 22 22 27
internal_value=0 0.00608969 0.00381234 0.00698352 -0.0134562 -0.005544 0.0102233 -0.00992098 -0.0128581 -0.00945417 0.0134117 0.0109157 0.00146628 -0.00953424 0.00545699 0.0186112 -0.00483731
internal_weight=427 294 272 220 133 45 175 111 90 68 128 102 47 52 60 42 48
internal_count=427 294 272 220 133 45 175 111 90 68 128 102 47 52 60 42 48
is_linear=0
shrinkage=0.03


Tree=16
num_leaves=17
num_cat=0
split_feature=1 28 74 75 76 38 20 4 20 49 63 37 54 74 20 20
split_gain=34.8514 18.082 18.7615 12.6051 11.202 8.7598 6.36804 5.41859 3.36012 2.94899 2.94085 2.53128 2.2667 1.67137 0.662379 0.570086
threshold=-0.11264393460254717 0.50771379875410161 0.72274714305269205 -0.27552791241928809 -0.56819023340409536 0.39647375775335619 0.49459797011633883 0.47535351753799121 0.40113871508525095 0.31387562983698641 0.07262319914306041 -0.12434628992696545 0.50673170953762392 -0.19384366976837961 0.16780558673005133 -0.21304381837128286
decision_type=2 2 2 2 2 2 2 2 2 2 2 2 2 2 2 2
left_child=5 2 4 -4 -2 9 -7 10 14 12 13 -12 -1 -6 -3 -5
right_child=1 8 3 15 7 6 -8 -9 -10 -11 11 -13 -14 -15 -16 -17
leaf_value=-0.015248380017459309 -0.011774314991851276 0.00029718465509938233 0.038802166430492675 0.015853199020250518 0.0016068787412389961 -0.013037794171591323 -0.035776711568165726 -0.0037147167920270844 -0.01754010804674842 0.0018827983040314213 0.025063692802813512 0.0099298346487645094 -0.0030598516413917788 0.011453613394385208 -0.0071127097547721502 0.0081275804907973131
leaf_weight=37 32 22 27 20 30 25 21 28 23 23 20 22 23 34 20 20
leaf_count=37 32 22 27 20 30 25 21 28 23 23 20 22 23 34 20 20
internal_value=0 0.00563839 0.00954688 0.0229441 0.00411093 -0.0130212 -0.0235388 0.00793275 -0.00831911 -0.00713484 0.0110383 0.0172501 -0.0106389 0.00689447 -0.00316859 0.0120951
internal_weight=427 298 233 67 166 129 46 134 65 83 106 42 60 64 42 40
internal_count=427 298 233 67 166 129 46 134 65 83 106 42 60 64 42 40
is_linear=0
shrinkage=0.03


Tree=17
num_leaves=16
num_cat=0
split_feature=21 21 76 41 83 74 7 24 49 55 64 74 38 41 43
split_gain=35.4455 22.4928 11.2319 9.30696 8.44031 8.33084 4.5563 4.12004 3.5726 3.83002 1.96749 1.91902 0.994252 0.848263 0.318526
threshold=-0.031677640293750718 -0.027220897243970994 -0.40545251185507231 -0.033198233880800627 -0.16769172257235057 0.23163587877119177 -1.4014715357314367 0.070188462618808539 0.077004804097421511 0.21876107954877483 0.14439844458938864 0.71277321736537969 0.076623579522325833 0.2722351689081674 -0.01400909299497277
decision_type=2 2 2 2 2 2 2 2 2 2 2 2 2 2 2
left_child=4 -2 5 6 -1 -3 -4 -5 9 13 11 -8 -9 -6 -14
right_child=1 2 3 7 8 -7 10 12 -10 -11 -12 -13 14 -15 -16
leaf_value=-0.026245529104665682 0.032302213085108784 -0.018652052935038767 0.00087222520493867477 0.0095734434264622553 -0.0023996541910429495 0.0029024672299344961 0.0078669842191355643 0.00086304709646673058 0.0016216117666139227 -0.023052111781799969 0.02423470664380201 0.018443516859105811 -0.0038686126002199415 -0.010466051554628099 -0.0091570161495889927
leaf_weight=33 26 32 24 28 20 32 33 24 23 20 20 32 24 33 23
leaf_count=33 26 32 24 28 20 32 33 24 23 20 20 32 24 33 23
internal_value=0 0.00568652 0.00312041 0.00650949 -0.0131315 -0.00784028 0.0125534 -0.000120559 -0.00856969 -0.0118195 0.0158114 0.0131403 -0.00399383 -0.00748888 -0.0065342
internal_weight=427 298 272 208 129 64 109 99 96 73 85 65 71 53 47
internal_count=427 298 272 208 129 64 109 99 96 73 85 65 71 53 47
is_linear=0
shrinkage=0.03


Tree=18
num_leaves=17
num_cat=0
split_feature=22 22 39 76 17 90 20 38 49 63 74 15 54 45 4 75
split_gain=32.5091 17.8049 10.9447 8.19233 7.87787 6.81408 5.13716 4.57183 3.21828 2.77344 3.90767 2.647 2.46858 2.30632 1.26736 0.849176
threshold=-0.087371836208552031 -0.059972991038757535 0.49347900317394161 -0.56819023340409536 0.48964989822467381 -0.81241147629689003 0.5389491205724436 0.29397133964186606 0.13105096873521813 0.07262319914306041 0.685796130099673 0.040291548459625862 0.46022325479113108 0.14618872271517222 0.37059661608435124 -0.031827879782025441
decision_type=2 2 2 2 2 2 2 2 2 2 2 2 2 2 2 2
left_child=4 -2 3 5 8 -3 -6 9 12 10 14 -9 -1 -4 -5 -12
right_child=1 2 13 7 6 -7 -8 11 -10 -11 15 -13 -14 -15 -16 -17
leaf_value=-0.016297117358801103 0.031481209598245664 -0.016404076106362526 -0.013880699014413023 0.0082794774496766522 -0.012374754577541528 0.0068454775001803138 -0.034271127154578016 -0.0048009362531571589 0.0014018943614658266 0.021110703296873756 0.021278327742583071 0.0095441086212200901 -0.004566535494047729 -0.0007329057635037478 -0.00064182334868195237 0.01205936862524154
leaf_weight=36 22 23 32 38 20 22 20 27 26 26 22 20 31 20 22 20
leaf_count=36 22 23 32 38 20 22 20 27 26 26 22 20 31 20 22 20
internal_value=0 0.00556754 0.00344975 0.00638337 -0.0123016 -0.00498113 -0.0234559 0.00932398 -0.00745173 0.0122631 0.00995992 0.00124695 -0.0109291 -0.00889255 0.00496279 0.0169987
internal_weight=427 294 272 220 133 45 40 175 93 128 102 47 67 52 60 42
internal_count=427 294 272 220 133 45 40 175 93 128 102 47 67 52 60 42
is_linear=0
shrinkage=0.03


Tree=19
num_leaves=17
num_cat=0
split_feature=21 21 76 5 17 55 20 63 28 22 11 88 65 28 17 10
split_gain=31.4649 20.2854 10.0254 8.31851 7.78277 7.51243 5.43934 4.55003 2.8616 2.59146 1.9883 1.9124 1.22548 0.711818 0.670792 0.370911
threshold=-0.031677640293750718 -0.027220897243970994 -0.40545251185507231 -0.021919958834245076 0.46887879493457824 0.047477294926272007 0.55426954948967067 0.0062482382468048029 0.50771379875410161 -0.16429781950520397 0.63619214125368784 862.50000000000011 -0.05632836238223321 -0.36798188506516255 -0.067068858469330611 -0.15479005240055663
decision_type=2 2 2 2 2 2 2 2 2 2 2 2 2 2 2 2
left_child=4 -2 5 7 9 -3 -6 -4 10 11 12 -1 -5 -9 -10 -14
right_child=1 2 3 8 6 -7 -8 13 14 -11 -12 -13 15 -15 -16 -17
leaf_value=-0.0076569418939248096 0.030634369171898934 0.004503621863703006 0.0060515227731991941 0.01322729913509005 -0.012561955724757505 -0.016214293867771352 -0.033609347022822679 0.024582275982895582 -0.0010277936111031439 -0.013352775428770532 -0.0028025249729543549 0.0040899143570283956 0.0010309083576300251 0.01583500966207305 -0.0088936642124825185 0.0068817716504013101
leaf_weight=28 26 27 38 21 25 37 21 22 20 33 24 22 20 20 21 22
leaf_count=28 26 27 38 21 25 37 21 22 20 33 24 22 20 20 21 22
internal_value=0 0.005358 0.00292048 0.00612284 -0.0123719 -0.00743373 -0.0222877 0.0137093 0.00135089 -0.00682009 0.00444734 -0.0024306 0.00725681 0.0205357 -0.00514148 0.00417597
internal_weight=427 298 272 208 129 64 46 80 128 83 87 50 63 42 41 42
internal_count=427 298 272 208 129 64 46 80 128 83 87 50 63 42 41 42
is_linear=0
shrinkage=0.03


Tree=20
num_leaves=17
num_cat=0
split_feature=21 21 76 41 55 55 7 17 24 46 64 73 90 47 11 40
split_gain=29.6209 19.0888 9.43466 7.84991 7.52259 7.12003 4.10648 3.68814 3.52705 1.73511 1.65956 1.51672 1.4098 1.35326 0.883116 0.378932
threshold=-0.031677640293750718 -0.027220897243970994 -0.40545251185507231 -0.033198233880800627 0.99944011664433441 -0.026801711745409799 -1.4014715357314367 0.46887879493457824 0.070188462618808539 0.47845034106245465 0.14439844458938864 0.64953127100755459 -0.88144907265856332 -0.086488189397192425 -0.15027072429999608 0.25003205384611693
decision_type=2 2 2 2 2 2 2 2 2 2 2 2 2 2 2 2
left_child=4 -2 5 6 7 -3 -4 9 -5 13 11 -8 -7 -1 -10 -16
right_child=1 2 3 8 -6 12 10 -9 14 -11 -12 -13 -14 -15 15 -17
leaf_value=-0.0029061601287768191 0.029718858870281566 0.0069908888899319543 0.00040093313554819687 0.008820898042431637 -0.02758370331355503 -0.02015807262997129 0.0069608040716486715 -0.016916876731896235 0.0011450659746211444 0.0026687146756631222 0.022335423542492423 0.016427530390966647 -0.0088520649960869315 -0.012689678256967627 -0.0035964933852665119 -0.0092518844240025346
leaf_weight=28 26 21 24 28 23 20 30 33 22 20 20 35 23 25 29 20
leaf_count=28 26 21 24 28 23 20 30 33 22 20 20 35 23 25 29 20
internal_value=0 0.0051989 0.002834 0.00594081 -0.0120036 -0.00720986 0.0114916 -0.00857193 -0.000145789 -0.00474053 0.0145836 0.0121218 -0.0142148 -0.00759273 -0.00373157 -0.00598006
internal_weight=427 298 272 208 129 64 109 106 99 73 85 65 43 53 71 49
internal_count=427 298 272 208 129 64 109 106 99 73 85 65 43 53 71 49
is_linear=0
shrinkage=0.03


Tree=21
num_leaves=17
num_cat=0
split_feature=21 21 39 80 76 74 32 86 86 17 5 63 70 74 4 4
split_gain=27.8841 18.0232 7.78349 7.23856 6.9889 7.31544 4.46033 3.25237 3.0685 2.37264 2.32976 2.65026 1.8709 1.28508 1.17478 0.642882
threshold=-0.031677640293750718 -0.028817607487005199 0.49347900317394161 -0.68508497792502199 -0.59834045456967322 0.015675322998178753 0.43835497639190873 1.0000000180025095e-35 0.87837969732492682 0.38845353966850482 -0.022985205136116401 0.0062482382468048029 -0.17714246272434492 0.77461856847923127 0.47721654630239024 0.22670922242066971
decision_type=2 2 2 2 2 2 2 2 2 2 2 2 2 2 2 2
left_child=3 -2 4 -1 5 -3 10 9 -9 -5 11 -6 -4 15 -8 -12
right_child=1 2 12 7 6 -7 14 8 -10 -11 13 -13 -14 -15 -16 -17
leaf_value=-0.026929342942191407 0.032494077878211854 -0.014704544697672763 -0.014349669550895285 -0.0068725690603643266 0.0078446825544967822 0.0089511538641666288 0.0045099457275511613 0.0017100471452962996 -0.012568391868712211 -0.020516050763843777 0.0069233802469425842 0.019735445336765033 -0.0023012628891931316 0.01264218440717634 -0.0056065984782255225 0
leaf_weight=23 20 28 22 23 32 20 20 37 21 25 26 39 26 22 21 22
leaf_count=23 20 28 22 23 32 20 20 37 21 25 26 39 26 22 21 22
internal_value=0 0.00504436 0.00304779 -0.0116462 0.0053489 -0.00478752 0.00803988 -0.00827954 -0.00342083 -0.0140688 0.010572 0.014437 -0.00790417 0.00659402 -0.00059974 0.00373905
internal_weight=427 298 278 129 230 48 182 106 58 48 141 71 48 70 41 48
internal_count=427 298 278 129 230 48 182 106 58 48 141 71 48 70 41 48
is_linear=0
shrinkage=0.03


Tree=22
num_leaves=17
num_cat=0
split_feature=22 22 40 80 76 74 41 49 66 7 25 34 46 22 15 3
split_gain=25.6513 14.4444 8.95787 6.5583 5.62073 5.83933 4.53457 3.60132 2.87524 2.28068 2.16885 1.72496 1.91728 1.65923 1.36934 1.19455
threshold=-0.087371836208552031 -0.059972991038757535 0.41751813828941625 -0.68508497792502199 -0.56819023340409536 0.015675322998178753 -0.033198233880800627 0.56228341876413779 0.23883258951585232 -1.4014715357314367 0.3548868160721434 0.60793775644128001 0.50029928885552633 -0.16286543751409402 -0.38054581634375734 0.05337293339115385
decision_type=2 2 2 2 2 2 2 2 2 2 2 2 2 2 2 2
left_child=3 -2 4 -1 5 -3 9 8 14 -6 15 12 -11 -10 -5 -8
right_child=1 2 -4 7 6 -7 10 -9 13 11 -12 -13 -14 -15 -16 -17
leaf_value=-0.025919301858787078 0.028287395843688175 -0.013075409468703274 -0.010226820539421096 -0.010231536328792571 0.002228235305467648 0.0079287218207149141 0.00011146588111991311 0.0031572068299021198 -0.00056089374604651506 0.019149632141327904 -0.0045903435085644928 0.0056088920037693042 0.0077724811820480133 -0.01198131137597027 -0.021582000949061833 0.0098594492410054406
leaf_weight=22 22 27 39 20 20 21 20 21 28 49 28 20 20 20 22 28
leaf_count=22 22 27 39 20 20 21 20 21 28 49 28 20 20 20 22 28
internal_value=0 0.00494572 0.00303707 -0.0109271 0.00527351 -0.00382635 0.00765155 -0.00790805 -0.0105239 0.0115765 0.00197506 0.0136387 0.0159113 -0.00539679 -0.0162854 0.00586884
internal_weight=427 294 272 133 233 48 185 111 90 109 76 89 69 48 42 48
internal_count=427 294 272 133 233 48 185 111 90 109 76 89 69 48 42 48
is_linear=0
shrinkage=0.03


Tree=23
num_leaves=16
num_cat=0
split_feature=21 21 76 5 55 74 63 45 21 28 21 32 66 28 32
split_gain=24.7937 16.3291 8.00844 6.79764 6.56981 6.074 3.83479 3.71705 3.48745 2.24869 2.0251 1.75321 0.941214 0.656859 0.54324
threshold=-0.031677640293750718 -0.027220897243970994 -0.40545251185507231 -0.021919958834245076 0.99944011664433441 0.21379485703214104 0.0062482382468048029 0.25161738360926938 -0.21256274968591246 0.50771379875410161 -0.082148909752601959 0.49352194082270584 0.15213894389765131 -0.36798188506516255 -0.059045802751872142
decision_type=2 2 2 2 2 2 2 2 2 2 2 2 2 2 2
left_child=4 -2 5 6 7 -3 -4 8 -1 11 -10 12 -5 -8 -11
right_child=1 2 3 9 -6 -7 13 -9 10 14 -12 -13 -14 -15 -16
leaf_value=-0.021699020157554254 0.027435575966862424 -0.016509480302181846 0.0052530250956458373 0.003194765435834216 -0.025543596152361334 0.0019212318209608974 0.02242573816447236 0.0027864875279173446 -0.0022512555892308618 -0.0010896017654882788 -0.013199406069739857 -0.0027517318954891653 0.010826391375441502 0.01406168535351753 -0.0081873847360708803
leaf_weight=20 26 30 38 35 23 34 22 23 35 21 28 25 27 20 20
leaf_count=20 26 30 38 35 23 34 22 23 35 21 28 25 27 20 20
internal_value=0 0.0047566 0.00256844 0.0054315 -0.0109819 -0.00668364 0.0122895 -0.0077729 -0.0107349 0.00111558 -0.00717785 0.00386295 0.00657861 0.018557 -0.00463642
internal_weight=427 298 272 208 129 64 80 106 83 128 63 87 62 42 41
internal_count=427 298 272 208 129 64 80 106 83 128 63 87 62 42 41
is_linear=0
shrinkage=0.03


Tree=24
num_leaves=18
num_cat=0
split_feature=21 21 76 17 5 55 20 63 28 49 55 32 90 65 28 32 10
split_gain=23.3405 15.3663 7.53608 6.44828 6.40893 5.7622 4.50914 3.85305 2.16422 2.14255 1.67959 1.66645 1.17257 0.89799 0.87667 0.510398 0.495711
threshold=-0.031677640293750718 -0.027220897243970994 -0.40545251185507231 0.46887879493457824 -0.022985205136116401 -0.026801711745409799 0.55426954948967067 0.0062482382468048029 0.50771379875410161 0.047477294926272007 0.14256025825400168 0.49352194082270584 -0.88144907265856332 -0.05632836238223321 -0.36798188506516255 -0.059045802751872142 -0.16789747461850243
decision_type=2 2 2 2 2 2 2 2 2 2 2 2 2 2 2 2 2
left_child=3 -2 5 9 7 -3 -5 -4 11 10 -1 13 -7 -6 -9 -10 -15
right_child=1 2 4 6 8 12 -8 14 15 -11 -12 -13 -14 16 -16 -17 -18
leaf_value=-0.0049308946739751698 0.026615662540512518 0.0062831450698641236 0.0050958479399697519 -0.010815602746547248 0.011528566417359344 -0.018213654928910195 -0.02998976252712662 0.023284592726337375 -0.0010570686172817554 0.0014350912283206806 -0.015913076728804786 -0.0026695088059659972 -0.0078788900573725819 0.00016639049859967691 0.013641933520783238 -0.0079429852395360157 0.0067791306227445603
leaf_weight=37 26 21 38 25 21 20 21 20 21 26 20 25 23 20 20 20 23
leaf_count=37 26 21 38 25 21 20 21 20 21 26 20 25 23 20 20 20 23
internal_value=0 0.00461507 0.00249204 -0.0106552 0.00526962 -0.00648241 -0.0196802 0.0120663 0.00116243 -0.00559968 -0.00885795 0.00380685 -0.0127865 0.0063837 0.0185841 -0.0045002 0.00378057
internal_weight=427 298 272 129 208 64 46 78 130 83 57 89 43 64 40 41 43
internal_count=427 298 272 129 208 64 46 78 130 83 57 89 43 64 40 41 43
is_linear=0
shrinkage=0.03


Tree=25
num_leaves=17
num_cat=0
split_feature=21 21 39 17 76 74 20 11 60 33 22 70 13 88 78 70
split_gain=21.9728 14.5458 6.32521 6.06862 5.41424 5.81074 4.24021 3.47841 2.09149 2.70042 2.0248 1.64605 1.61848 1.3421 1.2775 1.06464
threshold=-0.031677640293750718 -0.028817607487005199 0.49347900317394161 0.46887879493457824 -0.59834045456967322 0.015675322998178753 0.55426954948967067 0.48014160428773556 1.0000000180025095e-35 0.14192396103790372 -0.16690810723071928 -0.17714246272434492 -0.16789747461850243 847.50000000000011 -0.21660747799820232 0.083009423435386323
decision_type=2 2 2 2 2 2 2 2 2 2 2 2 2 2 2 2
left_child=3 -2 4 10 5 -3 -5 8 12 14 13 -4 -6 -1 -10 -9
right_child=1 2 11 6 7 -7 -8 15 9 -11 -12 -13 -14 -15 -16 -17
leaf_value=-0.0056569167869629476 0.029138909671733625 -0.013002174713804628 -0.013232170746944069 -0.010492427210690847 0.017973050733979055 0.0080761985291740775 -0.029094331966121611 0.0041832137986350416 0.0057906206850467093 -0.00044959688414974286 -0.010787207436363452 -0.0019270592878690392 0.0079243190380416523 0.0045417535849916393 0.015998879161355721 -0.0055613227405432435
leaf_weight=27 20 28 22 25 34 20 21 20 25 33 36 26 28 20 22 20
leaf_count=27 20 28 22 25 34 20 21 20 25 33 36 26 28 20 22 20
internal_value=0 0.00447779 0.00268298 -0.0103384 0.00475821 -0.00415862 -0.0190944 0.00712736 0.00932859 0.00604292 -0.00543239 -0.00718768 0.0135033 -0.00125293 0.0106565 -0.00061596
internal_weight=427 298 278 129 230 48 46 182 142 80 83 48 62 47 47 40
internal_count=427 298 278 129 230 48 46 182 142 80 83 48 62 47 47 40
is_linear=0
shrinkage=0.03


Tree=26
num_leaves=16
num_cat=0
split_feature=21 21 76 5 55 55 63 45 21 28 21 32 67 28 32
split_gain=20.6841 13.7125 6.73864 5.8051 5.73312 5.17854 3.48579 3.31977 3.09333 1.90161 1.845 1.48266 1.02764 0.781382 0.438548
threshold=-0.031677640293750718 -0.027220897243970994 -0.40545251185507231 -0.022985205136116401 0.99944011664433441 0.047477294926272007 0.0062482382468048029 0.25161738360926938 -0.21256274968591246 0.50771379875410161 -0.082148909752601959 0.49352194082270584 0.30126779727143788 -0.36798188506516255 -0.059045802751872142
decision_type=2 2 2 2 2 2 2 2 2 2 2 2 2 2 2
left_child=4 -2 5 6 7 -3 -4 8 -1 11 -10 12 -5 -8 -11
right_child=1 2 3 9 -6 -7 13 -9 10 14 -12 -13 -14 -15 -16
leaf_value=-0.020158336864256148 0.025127871083630911 0.0037492959292062533 0.0047988555548844607 0.0028061218167517612 -0.02363522651907685 -0.013440418930428046 0.022085698140201282 0.0029444962118256399 -0.00177638604110664 -0.0010452893420488914 -0.012223706078679163 -0.0025694395192115901 0.010747386105803855 0.012945655490925061 -0.0074459128799055935
leaf_weight=20 26 27 38 39 23 37 20 23 35 21 28 25 25 20 20
leaf_count=20 26 27 38 39 23 37 20 23 35 21 28 25 25 20 20
internal_value=0 0.00434431 0.00233811 0.00496508 -0.0100308 -0.00614717 0.0114336 -0.00703112 -0.00983177 0.00105509 -0.0064792 0.00353519 0.00596691 0.0176342 -0.00425106
internal_weight=427 298 272 208 129 64 78 106 83 130 63 89 64 40 41
internal_count=427 298 272 208 129 64 78 106 83 130 63 89 64 40 41
is_linear=0
shrinkage=0.03


Tree=27
num_leaves=17
num_cat=0
split_feature=17 73 25 41 71 56 12 38 44 25 85 54 81 67 75 30
split_gain=20.0301 14.2111 12.93 10.1098 5.13018 5.08188 4.65963 4.59624 2.93359 2.33246 2.15089 1.70762 1.69412 1.08164 0.977805 0.791651
threshold=0.40305575436559721 0.64953127100755459 0.1339243851170199 0.532418650568806 -0.51671032554619256 -0.041494223323293049 0.27107919849266165 -0.35575159833862097 0.047001051362312189 0.081597671799767055 -0.5 0.006459374473753751 0.93457368716589739 0.30126779727143788 -0.048056111682981441 0.49764357821490618
decision_type=2 2 2 2 2 2 2 2 2 2 2 2 2 2 2 2
left_child=1 5 -3 4 15 6 -1 14 9 -7 -10 -11 -6 -12 -4 -2
right_child=3 2 7 -5 12 8 -8 -9 10 11 13 -13 -14 -15 -16 -17
leaf_value=-0.0016266603754972651 0.005747847665073488 0.034195728091019867 0.018198346774299424 -0.030118794485704217 -0.016725218231814346 0.015094195341885979 -0.01976803807180319 -0.0010272853621325201 -0.0089799282832563609 0.0072746082995791949 -0.0026398944720109974 -0.0025737200484707437 -0.0054210589303454347 0.0063972102261644287 0.0089848630609256873 -0.0026190238151310094
leaf_weight=36 20 21 23 20 34 20 20 32 26 39 24 26 20 23 23 20
leaf_count=36 20 21 23 20 34 20 20 32 26 39 24 26 20 23 23 20
internal_value=0 0.00392162 0.0133147 -0.0107607 -0.0065824 -0.000413945 -0.00818289 0.00761788 0.00232406 0.00611817 -0.00205502 0.00329129 -0.0126117 0.00172302 0.0136862 0.0014935
internal_weight=427 313 99 114 94 214 56 78 158 85 73 65 54 47 46 40
internal_count=427 313 99 114 94 214 56 78 158 85 73 65 54 47 46 40
is_linear=0
shrinkage=0.03


Tree=28
num_leaves=17
num_cat=0
split_feature=17 73 89 41 71 56 19 33 54 5 81 67 42 53 29 36
split_gain=18.8545 13.3786 12.1705 9.51271 4.82889 4.78393 4.30631 3.77944 2.77141 2.84193 1.59174 1.26037 1.10878 1.05737 0.823536 0.576
threshold=0.40305575436559721 0.64953127100755459 0.0327015646150716 0.532418650568806 -0.51671032554619256 -0.041494223323293049 0.35151863202920902 0.38027876126492238 -0.0085858427915959986 -0.022985205136116401 0.93457368716589739 0.28279932897749188 -0.1066417781309313 0.085283272179767874 0.28047501670415292 -0.31669937955432331
decision_type=2 2 2 2 2 2 2 2 2 2 2 2 2 2 2 2
left_child=1 5 6 4 14 7 12 -1 9 15 -6 -11 -3 -10 -2 -7
right_child=3 2 -4 -5 10 8 -8 -9 13 11 -12 -13 -14 -15 -16 -17
leaf_value=-0.0020218848285118215 0.0057863917187075198 0.01672871446275612 0.033809354336404085 -0.029219725363290129 -0.016224933458475772 0.01472084185066401 -0.0043502217875932567 -0.018380713832022538 -0.0065870067362334122 -0.0022247845802720136 -0.0052592363842387689 0.0070370446690427718 0.0080308275007539322 0.0014714128076601986 -0.0027509655658878493 0.0071837413577891104
leaf_weight=36 20 24 20 20 34 22 20 20 32 38 20 20 35 26 20 20
leaf_count=36 20 24 20 20 34 22 20 20 32 38 20 20 35 26 20 20
internal_value=0 0.0038042 0.012918 -0.0104407 -0.00638649 -0.000402043 0.00755505 -0.00794015 0.00225405 0.00528875 -0.0122362 0.00092393 0.011642 -0.00292666 0.00144668 0.0112286
internal_weight=427 313 99 114 94 214 79 56 158 100 54 58 59 58 40 42
internal_count=427 313 99 114 94 214 79 56 158 100 54 58 59 58 40 42
is_linear=0
shrinkage=0.03


Tree=29
num_leaves=17
num_cat=0
split_feature=17 25 58 41 32 67 71 42 81 20 86 28 42 47 8 54
split_gain=17.7496 11.5142 13.3792 8.95076 7.37535 4.84367 4.54874 2.54349 1.57232 1.3824 1.51021 1.40548 1.10879 0.790209 0.771659 0.606354
threshold=0.40305575436559721 0.11386242016774877 0.0072757805471115539 0.532418650568806 -0.78078257735928658 0.10176030235694587 -0.44695084726052697 -0.1217520712653507 0.93457368716589739 -0.20079395344525283 1.0000000180025095e-35 0.4901913243571468 -0.1066417781309313 0.033514900285371858 0.31550711492482708 0.068394543710683112
decision_type=2 2 2 2 2 2 2 2 2 2 2 2 2 2 2 2
left_child=1 2 -1 6 12 -6 14 -7 -8 13 -11 -12 -3 -9 -2 -14
right_child=3 4 -4 -5 5 7 8 9 -10 10 11 -13 15 -15 -16 -17
leaf_value=0.035807691794722818 0.0052962094851244246 0.014885512969764579 0.0042367513195111436 -0.028347494410934728 -0.015724611869776872 0.0080954577968691162 -0.016058296628318879 -0.0022339884830538288 -0.0051022441774161891 -0.0062282971610348537 0.0058741162742408128 -0.0021705394711058869 0.010400625765323638 -0.01040665386853766 -0.0028731534974788548 0.0028334503676918869
leaf_weight=20 21 25 31 20 20 28 33 24 20 25 43 35 20 21 20 21
leaf_count=20 21 25 31 20 20 28 33 24 20 25 43 35 20 21 20 21
internal_value=0 0.00369089 0.0167221 -0.0101303 0.00113743 -0.00177126 -0.00619644 -0.000160585 -0.0119978 -0.00174721 0.000142175 0.00222777 0.00981036 -0.00612904 0.00124087 0.00661407
internal_weight=427 313 51 114 262 196 94 176 53 148 103 78 66 45 41 41
internal_count=427 313 51 114 262 196 94 176 53 148 103 78 66 45 41 41
is_linear=0
shrinkage=0.03


Tree=30
num_leaves=17
num_cat=0
split_feature=21 21 76 83 41 55 7 87 46 65 28 65 34 90 67 74
split_gain=16.3839 11.3172 5.56533 4.8806 4.51947 4.27506 2.90972 2.3054 1.86484 1.58143 1.13728 1.31362 1.0426 0.946266 0.785112 0.333647
threshold=-0.031677640293750718 -0.027220897243970994 -0.40545251185507231 -0.16769172257235057 -0.033198233880800627 -0.026801711745409799 -1.4014715357314367 0.81174490092936691 0.19117161048700593 0.31269622794474333 -0.066426306716561384 0.025325211227077486 -0.098995406595930535 -0.88144907265856332 0.20026111644363684 0.068613390622054668
decision_type=2 2 2 2 2 2 2 2 2 2 2 2 2 2 2 2
left_child=3 -2 5 -1 6 -3 -4 8 -5 14 11 -8 -10 -7 -6 -16
right_child=1 2 4 7 9 13 10 -9 12 -11 -12 -13 -14 -15 15 -17
leaf_value=-0.018902595407551775 0.022747346940396842 0.0053140930481855335 -0.00046203195329956495 -0.01021355627342988 0.001199656892196828 -0.01597983514862274 0.0088857776241511397 -0.013516841685376226 -0.0043198660761117925 0.0051392951639217194 0.0059277517742707606 0.018274307721054428 0.0042731895405812405 -0.0066769055944758578 -0.0081543320819947394 -0.0024438650800443404
leaf_weight=33 26 21 24 21 25 20 29 24 23 33 27 29 28 23 21 20
leaf_count=33 26 21 24 21 25 20 29 24 23 33 27 29 28 23 21 20
internal_value=0 0.00386552 0.00204192 -0.00892835 0.00443013 -0.00566777 0.00864221 -0.00545239 -0.0027076 -0.000181191 0.0112456 0.0136551 0.000338312 -0.0111005 -0.00289057 -0.00545445
internal_weight=427 298 272 129 208 64 109 96 72 99 85 58 51 43 66 41
internal_count=427 298 272 129 208 64 109 96 72 99 85 58 51 43 66 41
is_linear=0
shrinkage=0.03


Tree=31
num_leaves=17
num_cat=0
split_feature=21 74 75 42 83 25 33 54 20 49 55 76 61 86 53 38
split_gain=15.4232 10.7426 12.642 6.41177 4.59044 3.28605 4.96582 2.72829 2.31758 2.18066 2.56116 1.78419 1.55206 0.607257 0.566137 0.326959
threshold=-0.031677640293750718 0.72274714305269205 -0.27552791241928809 0.041082238083924368 -0.16769172257235057 0.081597671799767055 0.5019175485585593 -0.022402257961099594 -0.020356711447464249 0.077004804097421511 0.21876107954877483 -0.26737940736928983 0.73805721185756135 1.0000000180025095e-35 0.12454084872142046 0.17388773419169962
decision_type=2 2 2 2 2 2 2 2 2 2 2 2 2 2 2 2
left_child=4 3 -3 5 -1 -2 7 12 -4 10 13 -5 14 -6 -7 -9
right_child=1 2 8 11 9 6 -8 15 -10 -11 -12 -13 -14 -15 -16 -17
leaf_value=-0.018337231096431747 0.01347027665619397 0.02969956545812177 0.0093151431034427037 -0.017022977004300301 -0.0077035381732530805 0.0076828160921950167 -0.0084582602599700997 0.00065125301702698667 -0.0030583300679851476 0.0026591258892765287 -0.017009730316809753 -0.0040911951249659947 0.00036908262457920982 -0.0011241184038133275 0.014504224253234577 -0.0045889800629838945
leaf_weight=33 22 27 37 20 25 33 37 20 21 23 20 20 20 28 20 21
leaf_count=33 22 27 37 20 25 33 37 20 21 23 20 20 20 28 20 21
internal_value=0 0.0037502 0.0127605 0.000136153 -0.00866289 0.00265401 0.0010504 0.00416755 0.0047859 -0.00529049 -0.00783642 -0.0106582 0.00765054 -0.00429278 0.0103359 -0.00196441
internal_weight=427 298 85 213 129 173 151 114 58 96 73 40 73 53 53 41
internal_count=427 298 85 213 129 173 151 114 58 96 73 40 73 53 53 41
is_linear=0
shrinkage=0.03


Tree=32
num_leaves=19
num_cat=0
split_feature=17 25 61 41 32 67 71 54 79 86 12 28 42 2 28 8 54 76
split_gain=15.2959 10.0338 12.0717 7.88279 6.21745 4.20644 4.14875 2.14256 1.49189 1.37986 1.27549 1.02301 0.909195 0.874992 0.653509 0.63092 0.553029 0.404284
threshold=0.40305575436559721 0.11386242016774877 0.011063501422507624 0.532418650568806 -0.78078257735928658 0.10176030235694587 -0.44695084726052697 1.0000000180025095e-35 0.52148742061040732 1.0000000180025095e-35 0.43457879709429237 -0.018991685815865897 -0.1066417781309313 0.27185164681645141 -0.50411920644349761 0.31550711492482708 0.068394543710683112 -0.18608573532740921
decision_type=2 2 2 2 2 2 2 2 2 2 2 2 2 2 2 2 2 2
left_child=1 2 -1 6 12 -6 15 8 10 -8 17 14 -3 -13 -9 -2 -14 -7
right_child=3 4 -4 -5 5 7 9 11 -10 -11 -12 13 16 -15 -16 -17 -18 -19
leaf_value=0.033718842726145212 0.0050558554634487166 0.013611839602133666 0.0037274247379164983 -0.026502334506654023 -0.014631460538731692 0.0066592193384785456 -0.016652065229861072 -0.0037280769899743493 0.010335722032712021 -0.0066388951149797927 -0.0053253968643830777 -0.01019705373151549 0.0097101312430936896 -0.0016432679594588226 0.0038303493266341393 -0.0023164505494841885 0.0024827494084287728 0.0010231541018809339
leaf_weight=20 21 25 31 20 20 22 24 21 20 29 20 26 20 20 20 20 21 27
leaf_count=20 21 25 31 20 20 22 24 21 20 29 20 26 20 20 20 20 21 27
internal_value=0 0.0034256 0.0155904 -0.00940478 0.00104114 -0.00162842 -0.00571083 -0.0001263 0.00312687 -0.0112525 0.000981993 -0.00348846 0.00900479 -0.00655472 0 0.00138973 0.00609634 0.00362314
internal_weight=427 313 51 114 262 196 94 176 89 53 69 87 66 46 41 41 41 49
internal_count=427 313 51 114 262 196 94 176 89 53 69 87 66 46 41 41 41 49
is_linear=0
shrinkage=0.03


Tree=33
num_leaves=17
num_cat=0
split_feature=17 73 89 41 56 81 12 38 54 5 86 43 31 53 28 36
split_gain=14.4015 10.8583 10.1104 7.41681 3.928 3.80552 3.76227 3.28537 2.1203 2.10752 1.35723 1.0757 0.911319 0.705656 0.687426 0.398689
threshold=0.40305575436559721 0.64953127100755459 0.0327015646150716 0.532418650568806 -0.041494223323293049 -0.43176589944955646 0.27107919849266165 -0.35575159833862097 -0.0085858427915959986 -0.022985205136116401 1.0000000180025095e-35 0.082797213316955068 -0.12821059727107423 -0.36060473395294007 0.17577658583626338 -0.36683785894968352
decision_type=2 2 2 2 2 2 2 2 2 2 2 2 2 2 2 2
left_child=1 4 7 5 6 14 -1 13 9 15 -7 -11 -10 -3 -2 -6
right_child=3 2 -4 -5 8 10 -8 -9 12 11 -12 -13 -14 -15 -16 -17
leaf_value=-0.0013951089097862478 0.0048111357615746517 0.0079202736731472795 0.030578395176067277 -0.025711219826740999 0.012951556687145978 -0.016483897814502962 -0.017705818734951872 -0.00087992609008380072 -0.0056507948030614184 0.0049482100898611174 -0.006440412680973711 -0.0031875257501282638 0.0019517053536732083 0.015663039103082942 -0.0028134712290519203 0.0065887369640272664
leaf_weight=36 22 26 20 20 20 23 20 31 35 29 29 29 23 22 20 22
leaf_count=36 22 26 20 20 20 23 20 31 35 29 29 29 23 22 20 22
internal_value=0 0.00332417 0.0115351 -0.00912545 -0.000463968 -0.00554111 -0.00729502 0.00664357 0.00194127 0.00459714 -0.0109634 0.000830222 -0.0025862 0.0115566 0.00111105 0.00971348
internal_weight=427 313 99 114 214 94 56 79 158 100 52 58 58 48 42 42
internal_count=427 313 99 114 214 94 56 79 158 100 52 58 58 48 42 42
is_linear=0
shrinkage=0.03


Tree=34
num_leaves=17
num_cat=0
split_feature=17 73 89 41 78 56 12 19 44 87 85 70 44 67 43 36
split_gain=13.5584 10.221 9.51364 6.97829 3.7053 3.69886 3.53964 3.14863 2.03992 2.44838 1.69168 1.40395 0.980121 0.806283 0.754609 0.566131
threshold=0.40305575436559721 0.64953127100755459 0.0327015646150716 0.532418650568806 -0.41431496757633668 -0.041494223323293049 0.27107919849266165 0.35151863202920902 0.047001051362312189 1.0000000180025095e-35 -0.5 0.90113417828229347 -0.26170458795638929 0.30126779727143788 -0.21528156127517464 0.34903415815865646
decision_type=2 2 2 2 2 2 2 2 2 2 2 2 2 2 2 2
left_child=1 5 7 4 15 6 -1 14 9 12 -10 -6 -7 -12 -3 -2
right_child=3 2 -4 -5 11 8 -8 -9 10 -11 13 -13 -14 -15 -16 -17
leaf_value=-0.0013533715197527549 0.0040605171405057186 0.014165391162717984 0.029665607377441956 -0.024943720818455535 -0.016257249191712543 0.004963149059181794 -0.017177287079949876 -0.0037192257949665406 -0.007907079795653792 0.012935988164517983 -0.0021716709336830125 -0.0059120882191192143 -0.0027562891384698002 0.0056210052954976429 0.0069282062712690638 -0.0027205071740074829
leaf_weight=36 24 24 20 20 24 35 20 20 26 25 24 26 25 23 35 20
leaf_count=36 24 24 20 20 24 35 20 20 26 25 24 26 25 23 35 20
internal_value=0 0.00322523 0.0111916 -0.00885449 -0.0053765 -0.00044965 -0.00707879 0.00644513 0.00188394 0.00504955 -0.00176288 -0.0109602 0.00169757 0.00158191 0.00994189 0.000911027
internal_weight=427 313 99 114 94 214 56 79 158 85 73 50 60 47 59 44
internal_count=427 313 99 114 94 214 56 79 158 85 73 50 60 47 59 44
is_linear=0
shrinkage=0.03


Tree=35
num_leaves=17
num_cat=0
split_feature=17 73 90 41 56 71 12 41 54 5 81 67 53 29 75 7
split_gain=12.7634 9.62241 9.03176 6.5656 3.48213 3.4794 3.33015 2.84149 1.90965 1.88208 1.23062 0.926898 0.827902 0.561022 0.488252 0.331179
threshold=0.40305575436559721 0.64953127100755459 -0.032701564615071545 0.532418650568806 -0.041494223323293049 -0.44695084726052697 0.27107919849266165 0.093962411866287343 -0.0085858427915959986 -0.022985205136116401 0.93457368716589739 0.28279932897749188 0.05447090755865306 0.28047501670415292 0.41667855517843849 -0.28800094398008536
decision_type=2 2 2 2 2 2 2 2 2 2 2 2 2 2 2 2
left_child=1 4 -3 5 6 13 -1 14 9 15 -7 -11 -10 -2 -4 -6
right_child=3 2 7 -5 8 10 -8 -9 12 11 -12 -13 -14 -15 -16 -17
leaf_value=-0.0013128828802442696 0.0049093081957813506 0.022334308862964818 0.011638774346949448 -0.024199132189821837 0.012016401068612015 -0.013886042852236064 -0.016664532107203752 -0.0055280328597595435 -0.0061827908382499162 -0.001906471370653374 -0.0041739898074918715 0.006032897195042069 0.00090839876098700631 -0.002040542340947765 0.0047053848184927657 0.006164909048597394
leaf_weight=36 20 38 20 20 21 33 20 20 28 38 20 20 30 21 21 21
leaf_count=36 20 38 20 20 21 33 20 20 28 38 20 20 30 21 21 21
internal_value=0 0.00312856 0.0108582 -0.00859164 -0.000436691 -0.00521683 -0.00686902 0.00363518 0.00182705 0.00434816 -0.0102924 0.000785278 -0.00246805 0.00128033 0.00818061 0.00918351
internal_weight=427 313 99 114 214 94 56 61 158 100 53 58 58 41 41 42
internal_count=427 313 99 114 214 94 56 61 158 100 53 58 58 41 41 42
is_linear=0
shrinkage=0.03


Tree=36
num_leaves=17
num_cat=0
split_feature=17 73 89 41 56 71 12 38 44 87 55 81 44 89 53 29
split_gain=12.0158 9.05682 8.92586 6.17736 3.27911 3.27521 3.13301 2.7976 1.85108 2.19688 1.55297 1.15605 0.901576 0.71777 0.638822 0.528273
threshold=0.40305575436559721 0.64953127100755459 0.0327015646150716 0.532418650568806 -0.041494223323293049 -0.44695084726052697 0.27107919849266165 -0.38532222643790021 0.047001051362312189 1.0000000180025095e-35 0.68593243898005729 0.93457368716589739 -0.26170458795638929 -0.35206144883412549 -0.36060473395294007 0.28047501670415292
decision_type=2 2 2 2 2 2 2 2 2 2 2 2 2 2 2 2
left_child=1 4 7 5 6 15 -1 14 9 12 13 -7 -6 -10 -3 -2
right_child=3 2 -4 -5 8 11 -8 -9 10 -11 -12 -13 -14 -15 -16 -17
leaf_value=-0.0012736054425775342 0.0047627615590871706 0.0071706301581928094 0.028427427408855347 -0.023476770066503266 0.0047444596883450818 -0.013470720053169301 -0.016167083351469751 -0.00081934540401970102 0.0055766813979664836 0.012260652653635497 -0.0083587643520999268 -0.0040493931143141494 -0.002657758372861788 -0.0016589607653534487 0.014630852645324868 -0.0019796161967223745
leaf_weight=36 20 26 20 20 35 33 20 32 20 25 22 20 25 31 21 21
leaf_count=36 20 26 20 20 35 33 20 32 20 25 22 20 25 31 21 21
internal_value=0 0.0030353 0.0105344 -0.0083365 -0.000423183 -0.00506176 -0.00666552 0.00593633 0.00177313 0.00478923 -0.00169947 -0.00998632 0.001611 0.0011252 0.0105916 0.00123994
internal_weight=427 313 99 114 214 94 56 79 158 85 73 53 60 51 47 41
internal_count=427 313 99 114 214 94 56 79 158 85 73 53 60 51 47 41
is_linear=0
shrinkage=0.03


end of trees

feature_importances:
Column_21=43
Column_17=26
Column_55=26
Column_76=26
Column_41=25
Column_74=22
Column_38=21
Column_22=18
Column_20=17
Column_90=17
Column_28=15
Column_7=14
Column_49=13
Column_63=13
Column_25=12
Column_24=11
Column_32=11
Column_39=10
Column_54=10
Column_5=9
Column_73=9
Column_75=9
Column_4=8
Column_67=8
Column_80=8
Column_81=8
Column_86=8
Column_19=7
Column_42=7
Column_53=7
Column_64=7
Column_71=7
Column_11=6
Column_12=6
Column_43=6
Column_44=6
Column_45=6
Column_56=6
Column_89=6
Column_70=5
Column_72=5
Column_78=5
Column_8=4
Column_9=4
Column_33=4
Column_34=4
Column_65=4
Column_87=4
Column_88=4
Column_1=3
Column_15=3
Column_29=3
Column_36=3
Column_46=3
Column_47=3
Column_61=3
Column_66=3
Column_83=3
Column_10=2
Column_13=2
Column_23=2
Column_26=2
Column_37=2
Column_40=2
Column_58=2
Column_85=2
Column_2=1
Column_3=1
Column_14=1
Column_16=1
Column_30=1
Column_31=1
Column_59=1
Column_60=1
Column_62=1
Column_77=1
Column_79=1
Column_84=1

parameters:
[boosting: gbdt]
[objective: regression]
[metric: rmse]
[tree_learner: serial]
[device_type: cpu]
[data_sample_strategy: bagging]
[data: ]
[valid: ]
[num_iterations: 2000]
[learning_rate: 0.03]
[num_leaves: 64]
[num_threads: 0]
[seed: 42]
[deterministic: 0]
[force_col_wise: 0]
[force_row_wise: 0]
[histogram_pool_size: -1]
[max_depth: 8]
[min_data_in_leaf: 20]
[min_sum_hessian_in_leaf: 0.001]
[bagging_fraction: 0.8]
[pos_bagging_fraction: 1]
[neg_bagging_fraction: 1]
[bagging_freq: 0]
[bagging_seed: 400]
[bagging_by_query: 0]
[feature_fraction: 0.8]
[feature_fraction_bynode: 1]
[feature_fraction_seed: 30056]
[extra_trees: 0]
[extra_seed: 12879]
[early_stopping_round: 0]
[early_stopping_min_delta: 0]
[first_metric_only: 0]
[max_delta_step: 0]
[lambda_l1: 0.1]
[lambda_l2: 0.1]
[linear_lambda: 0]
[min_gain_to_split: 0]
[drop_rate: 0.1]
[max_drop: 50]
[skip_drop: 0.5]
[xgboost_dart_mode: 0]
[uniform_drop: 0]
[drop_seed: 17869]
[top_rate: 0.2]
[other_rate: 0.1]
[min_data_per_group: 100]
[max_cat_threshold: 32]
[cat_l2: 10]
[cat_smooth: 10]
[max_cat_to_onehot: 4]
[top_k: 20]
[monotone_constraints: ]
[monotone_constraints_method: basic]
[monotone_penalty: 0]
[feature_contri: ]
[forcedsplits_filename: ]
[refit_decay_rate: 0.9]
[cegb_tradeoff: 1]
[cegb_penalty_split: 0]
[cegb_penalty_feature_lazy: ]
[cegb_penalty_feature_coupled: ]
[path_smooth: 0]
[interaction_constraints: ]
[verbosity: -1]
[saved_feature_importance_type: 0]
[use_quantized_grad: 0]
[num_grad_quant_bins: 4]
[quant_train_renew_leaf: 0]
[stochastic_rounding: 1]
[linear_tree: 0]
[max_bin: 255]
[max_bin_by_feature: ]
[min_data_in_bin: 3]
[bin_construct_sample_cnt: 200000]
[data_random_seed: 175]
[is_enable_sparse: 1]
[enable_bundle: 1]
[use_missing: 1]
[zero_as_missing: 0]
[feature_pre_filter: 1]
[pre_partition: 0]
[two_round: 0]
[header: 0]
[label_column: ]
[weight_column: ]
[group_column: ]
[ignore_column: ]
[categorical_feature: ]
[forcedbins_filename: ]
[precise_float_parser: 0]
[parser_config_file: ]
[objective_seed: 16083]
[num_class: 1]
[is_unbalance: 0]
[scale_pos_weight: 1]
[sigmoid: 1]
[boost_from_average: 1]
[reg_sqrt: 0]
[alpha: 0.9]
[fair_c: 1]
[poisson_max_delta_step: 0.7]
[tweedie_variance_power: 1.5]
[lambdarank_truncation_level: 30]
[lambdarank_norm: 1]
[label_gain: ]
[lambdarank_position_bias_regularization: 0]
[eval_at: ]
[multi_error_top_k: 1]
[auc_mu_weights: ]
[num_machines: 1]
[local_listen_port: 12400]
[time_out: 120]
[machine_list_filename: ]
[machines: ]
[gpu_platform_id: -1]
[gpu_device_id: -1]
[gpu_use_dp: 0]
[num_gpu: 1]

end of parameters

pandas_categorical:null
