tree
version=v4
num_class=1
num_tree_per_iteration=1
label_index=0
max_feature_idx=96
objective=regression
feature_names=Column_0 Column_1 Column_2 Column_3 Column_4 Column_5 Column_6 Column_7 Column_8 Column_9 Column_10 Column_11 Column_12 Column_13 Column_14 Column_15 Column_16 Column_17 Column_18 Column_19 Column_20 Column_21 Column_22 Column_23 Column_24 Column_25 Column_26 Column_27 Column_28 Column_29 Column_30 Column_31 Column_32 Column_33 Column_34 Column_35 Column_36 Column_37 Column_38 Column_39 Column_40 Column_41 Column_42 Column_43 Column_44 Column_45 Column_46 Column_47 Column_48 Column_49 Column_50 Column_51 Column_52 Column_53 Column_54 Column_55 Column_56 Column_57 Column_58 Column_59 Column_60 Column_61 Column_62 Column_63 Column_64 Column_65 Column_66 Column_67 Column_68 Column_69 Column_70 Column_71 Column_72 Column_73 Column_74 Column_75 Column_76 Column_77 Column_78 Column_79 Column_80 Column_81 Column_82 Column_83 Column_84 Column_85 Column_86 Column_87 Column_88 Column_89 Column_90 Column_91 Column_92 Column_93 Column_94 Column_95 Column_96
feature_infos=[-2.1998833971435583:3.8692245819541] [-2.7311108107751423:2.9342347356773439] [-1.8657831647695711:3.0072490900536955] [-2.5529133812149469:1.6101919081681242] [-2.1998833971435583:3.8692245819541] [-2.1998833971435583:3.8692245819541] [-2.1998833971435583:3.8692245819541] [-2.1998833971435583:3.8692245819541] [-2.1998833971435583:3.8692245819541] [-2.1998833971435583:3.8692245819541] [-2.1998833971435583:3.8692245819541] [-2.1998833971435583:3.8692245819541] [-1.9320007597494584:2.9342347356773439] [-1.859047007532957:2.9342347356773439] [-1.859047007532957:2.9342347356773439] [-1.859047007532957:2.9342347356773439] [-1.859047007532957:2.9342347356773439] [-1.859047007532957:2.9342347356773439] [-1.859047007532957:2.9342347356773439] [-1.859047007532957:2.9342347356773439] [-1.8657831647695711:3.0072490900536955] [-1.8657831647695711:3.0072490900536955] [-1.8657831647695711:3.0072490900536955] [-1.8657831647695711:3.0072490900536955] [-1.8657831647695711:3.0072490900536955] [-1.8657831647695711:3.0072490900536955] [-1.8657831647695711:3.0072490900536955] [-1.8657831647695711:3.0072490900536955] [-2.5529133812149469:1.6101919081681242] [-2.5529133812149469:1.6101919081681242] [-2.5529133812149469:1.6101919081681242] [-2.5529133812149469:1.6101919081681242] [-2.5529133812149469:1.6101919081681242] [-2.5529133812149469:1.6101919081681242] [-2.5529133812149469:1.6101919081681242] [-2.5529133812149469:1.6101919081681242] [-2.1943998713224748:3.860955103998494] [0:0.64091636210500835] [-2.1998833971435583:3.8444161480872814] [-2.1834328196803083:3.8692245819541] [-2.0502608434919503:3.4667554410842456] [0.0129357168687007:1.1990447202872401] [-2.1998833971435583:2.7114340270781718] [-1.9712402670866471:3.8692245819541] [-1.932948267045105:2.5960032455690443] [0.035760317866485598:1.9186767675887024] [-2.1998833971435583:0.93753554396405259] [-1.5914568726755396:3.8692245819541] [-1.9320007597494584:2.9254944873857887] [0:0.79911005102568644] [-2.7311108107751423:2.9080139908026763] [-1.8127682122186928:2.9342347356773439] [-1.7851311521189921:2.6127850031769086] [0.0046847623953103004:1.0089541756083835] [-2.7311108107751423:2.0092166554880402] [-1.6979244302412551:2.9342347356773439] [-1.6596775770260204:1.9378983043868172] [0.011542011266000501:1.4832385927490881] [-2.7311108107751423:0.67365129660583112] [-1.387882022303996:2.9342347356773439] [-1.8451540357335789:2.9846685901421126] [0:0.49400127039002178] [-1.8657831647695711:2.9395075903189469] [-1.8038957776615949:3.0072490900536955] [-1.7884380586968991:2.6892051597494797] [0.00096666584179219998:0.92419175121524899] [-1.8657831647695711:2.3001479859722864] [-1.6801210034456429:3.0072490900536955] [-1.6595342578465446:2.257648937546501] [0.013313685757746999:1.4763124206384557] [-1.8657831647695711:1.7148842870889596] [-1.4325714550137381:3.0072490900536955] [-2.5495322579552977:1.6063346788399731] [0:1.0209555603838525] [-2.5529133812149469:1.598620220183671] [-2.5427700114360001:1.6101919081681242] [-2.5360077649167021:1.5909057615273687] [0.0031661635704869:1.0864902026921488] [-2.5529133812149469:1.5639051562303117] [-2.5123399020991601:1.6101919081681242] [-2.3875739120518031:1.5257770023605477] [0.028997445992063699:1.41763179728068] [-2.5529133812149469:1.3346398443358181] [-1.7649108450292197:1.6101919081681242] [-0.93079171113892045:0.76220274489637097] [-1.5329573266440155:1.4299605693017208] [-1.0943781514118989:0.49708783356833369] [-1.0493859139424051:1.0943781514118989] [-0.4940012703900109:0.52971369659365941] [-0.52971369659365941:0.53547822385846622] [-0.58075344179437127:1.6123283976638283] [-1.3334356291427802:1.6123283976638283] [0:23] [-1:1] [-1:1] [0:5] [0:5]
tree_sizes=1680 1588 1679 1596 1583 1680 1763 1682 1772 1778 1777 1601 1775 1682 1693 1597 1689 1694 1783 1524 1783 1613 1788 1616 1710 1721 1798 1704 1624 1621 1792 1801 1803 1716 1629 1630 1633 1803 1715 1626 1720 1811 1728

Tree=0
num_leaves=18
num_cat=0
split_feature=1 1 84 84 84 84 38 39 15 1 9 14 90 72 86 84 3
split_gain=176.552 61.5805 43.2934 12.7711 12.7579 8.29174 5.79837 3.91299 3.11645 2.90995 2.80283 2.13294 2.10322 1.91701 1.22174 1.19943 0.752721
threshold=0.15682118588128821 -0.79687535000149312 0.19373006142676716 0.012840590899850552 -0.032440552154191095 0.043212275235995655 -0.47108477252780628 0.98060213262798224 0.64965730883927653 -0.27118349108079393 0.35759373289591145 -0.36025264996896672 -0.095781318100241528 -0.65428462783378893 0.053707525763900657 -0.008085163765078748 -0.086888332112700181
decision_type=2 2 2 2 2 2 2 2 2 2 2 2 2 2 2 2 2
left_child=1 5 4 6 8 10 15 14 -2 16 -1 -11 -8 -14 -6 -3 -5
right_child=2 3 -4 9 7 -7 12 -9 -10 11 -12 -13 13 -15 -16 -17 -18
leaf_value=-0.12115156591805681 -0.030885017849579241 -0.096644214964331135 0.036358194434224632 -0.06594595222812985 -0.026452923858172845 -0.093413291639507762 -0.057402082104179929 0.0059320806016600405 -0.05419020440857765 -0.030457631595038136 -0.14604846916240546 -0.052234228129843942 -0.063417756355226979 -0.082466729699227304 -0.010827420460512271 -0.08063664100550616 -0.052682934641697446
leaf_weight=26 26 25 35 23 29 20 33 21 32 22 20 23 25 28 22 22 20
leaf_count=26 26 25 35 23 29 20 33 21 32 22 20 23 25 28 22 22 20
internal_value=-0.0542152 -0.0779092 -0.013002 -0.0652523 -0.0262912 -0.120291 -0.0750293 -0.0122328 -0.0437431 -0.0504758 -0.131976 -0.0415879 -0.0673114 -0.0734814 -0.0197125 -0.0891513 -0.0597771
internal_weight=452 287 165 221 130 66 133 72 58 88 46 45 86 53 51 47 43
internal_count=452 287 165 221 130 66 133 72 58 88 46 45 86 53 51 47 43
is_linear=0
shrinkage=1


Tree=1
num_leaves=17
num_cat=0
split_feature=0 1 86 84 84 84 0 3 15 9 53 83 1 84 3 25
split_gain=162.83 50.5669 42.1044 15.3154 9.34387 7.4833 6.88102 4.8428 3.07139 2.52955 2.51406 2.25078 1.62517 1.12587 0.792568 0.57043
threshold=0.11229577689006585 -0.79687535000149312 0.18868722849277977 -0.032440552154191095 0.012840590899850552 0.043212275235995655 0.49790693977139339 -0.41312217323011063 0.64965730883927653 0.35759373289591145 0.2745096620043031 1.2956641318229594 -0.29067683346238476 -0.072940021457823842 -0.086888332112700181 -0.13499874848523252
decision_type=2 2 2 2 2 2 2 2 2 2 2 2 2 2 2 2
left_child=1 5 3 8 7 9 -5 -3 -2 -1 15 13 14 -9 -6 -8
right_child=2 4 -4 6 12 -7 10 11 -10 -11 -12 -13 -14 -15 -16 -17
leaf_value=-0.06358956167331109 0.022163659133590186 -0.0059740154170676288 0.10485258489847182 0.023605224509772503 -0.012452070133405782 -0.037238201498985289 0.037384962141513822 -0.039032901150564993 -0.00013859170047860397 -0.087241621017456056 0.064719911700203303 -0.013954111334422363 0.0087856874121604745 -0.025763031778236231 0.0014556381956208498 0.049326803535223007
leaf_weight=26 26 38 20 38 21 20 20 31 38 20 21 23 37 33 20 20
leaf_count=26 26 38 20 38 21 20 20 31 38 20 21 23 37 33 20 20
internal_value=-2.60904e-10 -0.0247524 0.0363847 0.0279837 -0.0123915 -0.0627716 0.0403066 -0.0208653 0.0089217 -0.0738731 0.0507107 -0.0273695 0.00118833 -0.0321906 -0.00566782 0.0433559
internal_weight=452 269 183 163 203 66 99 125 64 46 61 87 78 64 41 40
internal_count=452 269 183 163 203 66 99 125 64 46 61 87 78 64 41 40
is_linear=0
shrinkage=0.05


Tree=2
num_leaves=18
num_cat=0
split_feature=1 1 84 84 84 86 42 1 15 1 9 86 90 7 61 92 73
split_gain=144.014 50.1166 35.5699 11.9947 10.4196 6.77627 5.02788 3.59775 2.53421 2.37314 2.29116 1.94612 1.6801 1.5671 1.15685 0.554371 0.368324
threshold=0.15682118588128821 -0.79687535000149312 0.20022062788549663 -0.032440552154191095 0.012840590899850552 0.053707525763900657 -0.47108477252780628 0.60793775644128001 0.64965730883927653 -0.27118349108079393 0.35759373289591145 0.071432886586135266 -0.14573233476240233 -0.15885675780384717 0.037753663995447655 10.500000000000002 0.068144187155676911
decision_type=2 2 2 2 2 2 2 2 2 2 2 2 2 2 2 2 2
left_child=1 5 3 8 6 10 13 16 -2 15 -1 -11 -8 -3 -14 -6 -5
right_child=2 4 -4 7 9 -7 12 -9 -10 11 -12 -13 14 -15 -16 -17 -18
leaf_value=-0.060410083027986387 0.021055475765695941 -0.020496636000461879 0.088573403124298372 0.024069829136133196 -0.010580741690302438 -0.035335756652057175 -0.00073414681156953941 0.050209853970087495 3.9779359940439467e-05 0.000276080026690449 -0.082920074462890625 0.021118397545069459 -0.0080126723945140848 -0.038565364827712383 -0.022367619723081589 0.00077677572345627216 0.033665707856416704
leaf_weight=26 26 20 28 20 22 20 26 39 32 21 20 24 25 30 32 21 20
leaf_count=26 26 20 28 20 22 20 26 39 32 21 20 24 25 30 32 21 20
internal_value=-1.49846e-10 -0.0213995 0.0372222 0.0267271 -0.00998139 -0.059633 -0.0188125 0.0394037 0.00946061 0.00336563 -0.070197 0.011392 -0.0112671 -0.0313379 -0.0160716 -0.00503405 0.0288678
internal_weight=452 287 165 137 221 66 133 79 58 88 46 45 83 50 57 43 40
internal_count=452 287 165 137 221 66 133 79 58 88 46 45 83 50 57 43 40
is_linear=0
shrinkage=0.05


Tree=3
num_leaves=17
num_cat=0
split_feature=1 1 84 84 84 84 38 53 38 4 49 57 58 47 66 61
split_gain=129.973 45.2302 32.4449 12.4559 9.4037 6.15721 4.60303 4.24311 2.29383 2.23873 2.18224 2.09055 1.71161 1.05743 1.05193 0.927887
threshold=0.15682118588128821 -0.79687535000149312 0.23737774204493228 -0.032440552154191095 0.012840590899850552 0.043212275235995655 -0.23182941985223024 0.20255068047886651 0.74633950828612849 -0.30688759000716392 0.031276263203729157 0.45966122625970002 -0.4522834438538646 0.490595422077095 -0.19539720172333133 0.11796824115387601
decision_type=2 2 2 2 2 2 2 2 2 2 2 2 2 2 2 2
left_child=1 5 3 8 6 11 12 13 -2 15 -8 -1 14 -5 -3 -6
right_child=2 4 -4 7 9 -7 10 -9 -10 -11 -12 -13 -14 -15 -16 -17
leaf_value=-0.057372607634617739 0.00092698671455894205 -0.024863420201684982 0.093420533906845821 0.022454983255137569 -0.0098761573067999309 -0.033490542322397232 0.0067994696460664285 0.053763841621337398 0.021253696756194471 0.012136481795459987 -0.014384634472474817 -0.078874561935663223 -0.017434422446316794 0.036510248016566042 -0.040389728471636771 0.0040274310546616716
leaf_weight=26 35 24 21 23 28 20 20 31 23 39 31 20 38 32 20 21
leaf_count=26 35 24 21 23 28 20 20 31 23 39 31 20 38 32 20 21
internal_value=-3.30396e-11 -0.0203296 0.0353611 0.0268941 -0.00948232 -0.0566514 -0.0178719 0.0389706 0.00898758 0.00319735 -0.00607714 -0.0667213 -0.0252076 0.0306326 -0.0319208 -0.00391748
internal_weight=452 287 165 144 221 66 133 86 58 88 51 46 82 55 44 49
internal_count=452 287 165 144 221 66 133 86 58 88 51 46 82 55 44 49
is_linear=0
shrinkage=0.05


Tree=4
num_leaves=17
num_cat=0
split_feature=0 1 86 84 84 86 0 74 0 90 9 41 50 86 23 9
split_gain=120.26 37.0572 31.5212 11.1427 6.82849 5.57459 5.00182 3.76405 2.24003 2.0309 1.93905 1.8918 1.27831 1.54715 1.06563 1.09612
threshold=0.11229577689006585 -0.79687535000149312 0.18868722849277977 -0.032440552154191095 0.012840590899850552 0.053707525763900657 0.49790693977139339 -0.85905607899535297 0.7166297421826745 -0.10630257041569414 0.35759373289591145 0.23791627740717999 -0.63510521856647772 0.071432886586135266 0.97367525439979452 0.51945810765710021
decision_type=2 2 2 2 2 2 2 2 2 2 2 2 2 2 2 2
left_child=1 5 3 8 7 10 -5 -3 -2 -9 -1 -8 -6 -14 15 -11
right_child=2 4 -4 6 12 -7 11 9 -10 14 -12 -13 13 -15 -16 -17
leaf_value=-0.054396898815265077 0.00025151213869834557 -0.0034474280747500336 0.090510257333517086 0.02027169279263992 -0.0089798244952006539 -0.03178098097443581 0.034131924088658963 -0.011604462024169388 0.019424285076558592 -0.040297519551082094 -0.075105066448450095 0.051763780741021038 -0.0015329187503084541 0.015728206324967599 -0.018968470308887351 -0.024327227473258974
leaf_weight=26 39 33 20 38 23 20 29 27 25 22 20 32 34 21 22 21
leaf_count=26 39 33 20 38 23 20 29 27 25 22 20 32 34 21 22 21
internal_value=3.25004e-11 -0.0212722 0.0312689 0.024 -0.0106905 -0.0538188 0.034511 -0.0179345 0.00774088 -0.0231309 -0.0634004 0.0433814 0.000918425 0.00505769 -0.0279188 -0.0324981
internal_weight=452 269 183 163 203 66 99 125 64 92 46 61 78 55 65 43
internal_count=452 269 183 163 203 66 99 125 64 92 46 61 78 55 65 43
is_linear=0
shrinkage=0.05


Tree=5
num_leaves=18
num_cat=0
split_feature=0 1 84 15 84 84 0 90 25 75 84 81 62 65 70 33 90
split_gain=108.535 33.4651 28.3135 7.50057 7.22547 5.76306 4.54696 2.96754 2.25737 1.69658 1.65068 1.22303 1.1997 0.946769 0.940735 0.716749 0.542324
threshold=0.11229577689006585 -0.69500287924374304 0.19373006142676716 0.64965730883927653 0.096254416667026207 0.012840590899850552 1.140733623747211 -0.14573233476240233 0.13105096873521813 -0.21687644183024327 0.030649518430423951 0.50547759389894498 -0.14244651596085603 0.22278629883723941 -0.61896414603632666 0.3419337979257403 -0.010143369778946549
decision_type=2 2 2 2 2 2 2 2 2 2 2 2 2 2 2 2 2
left_child=1 4 3 6 8 7 10 -3 -1 -9 16 15 -11 -14 -5 -7 -2
right_child=2 5 -4 14 -6 11 -8 9 -10 12 -12 -13 13 -15 -16 -17 -18
leaf_value=-0.048976183143155327 0.021022511584063375 0.00030613315251210461 0.06877306933338577 0.0094294967700261634 -0.025295700645074248 0.0014687626037012899 0.046001434512436393 -0.0095866242487882766 -0.06970642109711965 -0.01591925991492139 0.030287717414959787 -0.0085156373772770164 -0.037252220958471298 -0.021867415793240072 -0.0057225401513278486 0.013464293412398548 0.010599525489557822
leaf_weight=29 24 23 37 20 24 33 24 29 24 27 31 20 20 20 21 20 26
leaf_count=29 24 23 37 20 24 33 24 29 24 27 31 20 20 20 21 20 26
internal_value=5.90318e-11 -0.0202086 0.0297055 0.0198048 -0.0480566 -0.00904032 0.0268865 -0.0158251 -0.0583635 -0.0196898 0.0212228 0.00201976 -0.0240629 -0.0295598 0.0016687 0.00599538 0.0156026
internal_weight=452 269 183 146 77 192 105 119 53 96 81 73 67 40 41 53 50
internal_count=452 269 183 146 77 192 105 119 53 96 81 73 67 40 41 53 50
is_linear=0
shrinkage=0.05


Tree=6
num_leaves=19
num_cat=0
split_feature=1 1 86 84 84 84 41 3 25 62 15 69 4 34 6 1 65 88
split_gain=96.1473 33.4455 24.7413 9.43005 6.50578 6.43748 3.1745 2.81978 2.33846 2.05715 1.8335 1.73509 1.51517 0.749364 0.706269 0.674155 0.576078 0.558112
threshold=0.15682118588128821 -0.66120268327951048 0.18868722849277977 -0.032440552154191095 0.01539679914969975 0.096254416667026207 0.17883743567805807 -0.31625237203872464 0.13105096873521813 -0.14244651596085603 0.64965730883927653 0.12393305440295667 -0.30688759000716392 0.3419337979257403 -0.78602560773732311 0.46113166976907721 0.22226641678420697 0.10617215291741446
decision_type=2 2 2 2 2 2 2 2 2 2 2 2 2 2 2 2 2 2
left_child=1 5 3 10 7 8 15 11 -1 17 -2 -3 14 -8 -6 -5 -11 -9
right_child=2 4 -4 6 12 -7 13 9 -10 16 -12 -13 -14 -15 -16 -17 -18 -19
leaf_value=-0.045432274692481567 0.017468727684508151 -0.011529024783158093 0.08254609107971192 0.017865244001150134 0.0052364756481256339 -0.023903747931122779 0.037143451496958739 -0.0051714070208254276 -0.066221099471052494 -0.033062772974371914 -0.00040697948134038597 0.0072443848662078385 0.013066075135473955 0.050830711573362358 -0.0080513885564869273 0.029976851686283397 -0.021337876943024723 -0.016983607425354423
leaf_weight=31 26 32 20 20 20 25 20 20 24 20 32 20 33 20 20 27 22 20
leaf_count=31 26 32 20 20 20 25 20 20 24 20 32 20 33 20 20 27 22 20
internal_value=4.05007e-11 -0.0174852 0.0304136 0.0232229 -0.00687414 -0.0449413 0.0336341 -0.0134166 -0.0545038 -0.0191925 0.00760627 -0.00430848 0.00513537 0.0439871 -0.00140746 0.024823 -0.0269212 -0.0110775
internal_weight=452 287 165 145 207 80 87 134 55 82 58 52 73 40 40 47 42 40
internal_count=452 287 165 145 207 80 87 134 55 82 58 52 73 40 40 47 42 40
is_linear=0
shrinkage=0.05


Tree=7
num_leaves=18
num_cat=0
split_feature=0 1 86 84 84 84 53 0 84 46 14 57 0 31 60 37 92
split_gain=88.5926 27.5777 23.8962 8.21623 5.2532 4.09705 3.89753 3.19652 2.02763 1.92052 1.8464 1.56314 1.43615 1.11129 0.682806 0.611787 0.349513
threshold=0.11229577689006585 -0.79687535000149312 0.18868722849277977 -0.032440552154191095 -0.072940021457823925 0.043212275235995655 0.19786271937848907 -0.23529663501042544 0.012840590899850552 0.14697058907601065 -0.091119898615207584 0.45966122625970002 0.49790693977139339 0.23163587877119177 -0.025383797004650498 0.16745062394991975 10.500000000000002
decision_type=2 2 2 2 2 2 2 2 2 2 2 2 2 2 2 2 2
left_child=1 5 3 9 13 11 12 8 14 -2 -9 -1 -5 -3 -6 -11 -10
right_child=2 4 -4 6 7 -7 -8 10 16 15 -12 -13 -14 -15 -16 -17 -18
leaf_value=-0.046465170956574958 0.018941370883424367 -0.03040017207256622 0.078418787121772776 0.014401174225349679 -0.0098079335736110801 -0.027441863762214781 0.042104407595960722 0.013658900643048554 -0.0065466983842530427 0.00605582542978126 -0.0046907868307943532 -0.06505801394581795 0.029763624149149865 -0.014849976105615498 -0.021657652239645681 -0.0059012639429420234 0.0018749352168842136
leaf_weight=26 21 27 20 32 20 20 38 29 28 23 26 20 29 20 31 20 22
leaf_count=26 21 27 20 32 20 20 38 29 28 23 26 20 29 20 31 20 22
internal_value=5.36554e-11 -0.0182578 0.026838 0.0205091 -0.00912937 -0.0463347 0.0295349 -0.00471447 -0.00999609 0.0065473 0.0049845 -0.054549 0.0217046 -0.0237831 -0.0170107 0.000494389 -0.00284118
internal_weight=452 269 183 163 203 66 99 156 101 64 55 46 61 47 51 43 50
internal_count=452 269 183 163 203 66 99 156 101 64 55 46 61 47 51 43 50
is_linear=0
shrinkage=0.05


Tree=8
num_leaves=19
num_cat=0
split_feature=0 1 86 84 84 86 1 0 52 84 46 41 9 73 60 37 37 92
split_gain=79.9548 24.8889 21.5664 7.41515 4.74101 3.70615 3.63585 2.88486 1.99493 1.82994 1.73327 1.56191 1.41824 1.06189 0.616233 0.552138 0.538747 0.315435
threshold=0.11229577689006585 -0.79687535000149312 0.18868722849277977 -0.032440552154191095 -0.072940021457823925 0.053707525763900657 0.47758572713924058 -0.23529663501042544 -0.19141891103490569 0.012840590899850552 0.14697058907601065 0.17883743567805807 0.14199295508687074 0.089758660066507012 -0.025383797004650498 0.16745062394991975 0.051277997780281102 10.500000000000002
decision_type=2 2 2 2 2 2 2 2 2 2 2 2 2 2 2 2 2 2
left_child=1 5 3 10 13 12 16 9 -9 14 -2 -8 -1 -3 -6 -12 -5 -11
right_child=2 4 -4 6 7 -7 11 8 -10 17 15 -13 -14 -15 -16 -17 -18 -19
leaf_value=-0.043051171108432443 0.017994301837115062 -0.031326185879297551 0.074497849568724628 0.011496093835343016 -0.0093175369451637385 -0.026049006320536139 0.027245597312083616 0.015557788394896003 -0.0036434400631415267 -0.0062193632724561864 0.005753034309727019 0.043863178068591704 -0.060610016273415612 -0.016125564684194547 -0.020574769511398291 -0.0056062008673325187 0.022834726711735129 0.001781188377009874
leaf_weight=23 21 20 20 22 20 20 26 24 31 28 23 31 23 27 31 20 20 22
leaf_count=23 21 20 20 22 20 20 26 24 31 28 23 31 23 27 31 20 20 22
internal_value=1.93811e-11 -0.0173449 0.0254961 0.0194836 -0.0086729 -0.044018 0.0280581 -0.00447875 0.00473528 -0.00949628 0.00621994 0.0362832 -0.0518306 -0.0225939 -0.0161602 0.000469669 0.0168954 -0.00269912
internal_weight=452 269 183 163 203 66 99 156 55 101 64 57 46 47 51 43 42 50
internal_count=452 269 183 163 203 66 99 156 55 101 64 57 46 47 51 43 42 50
is_linear=0
shrinkage=0.05


Tree=9
num_leaves=19
num_cat=0
split_feature=0 1 86 84 84 84 1 72 25 85 41 62 81 61 90 23 37 27
split_gain=72.1592 22.5151 19.4636 6.69217 4.76018 3.71537 3.28135 2.11323 1.84824 1.72093 1.43453 1.11512 0.977656 0.709057 0.639673 0.600242 0.486219 0.485173
threshold=0.11229577689006585 -0.66120268327951048 0.18868722849277977 -0.032440552154191095 0.096254416667026207 0.012840590899850552 0.47758572713924058 -0.74559830279426775 0.19821173381530668 -3.8857805861880474e-16 0.28478911874302543 -0.14244651596085603 0.49161219112180948 0.11880639717035861 0.065436130130115053 0.97367525439979452 0.051277997780281102 -0.054716915922418841
decision_type=2 2 2 2 2 2 2 2 2 2 2 2 2 2 2 2 2 2
left_child=1 4 3 9 8 7 16 -3 -1 -2 -8 17 13 -7 -11 -13 -5 -9
right_child=2 5 -4 6 -6 12 10 11 -10 14 -12 15 -14 -15 -16 -17 -18 -19
leaf_value=-0.039731147666187849 0.018070033295080067 -0.0011226044781506063 0.070772954970598226 0.010921289196068591 -0.020621248194947841 0.00056084850803017616 0.028637291591715172 -0.0052078558974677606 -0.058597208772386826 0.0058845860592555256 0.04525785245001316 -0.026865377305791929 -0.0058797692880034448 0.013023485798787857 -0.0062229210417717694 -0.015343839381821454 0.021692990462761373 -0.016089279360603542
leaf_weight=34 20 30 20 22 25 25 37 21 21 24 20 26 26 21 20 20 20 20
leaf_count=34 20 30 20 22 25 25 37 21 21 24 20 26 26 21 20 20 20 20
internal_value=-1.55718e-10 -0.0164777 0.0242213 0.0185094 -0.0387116 -0.00706648 0.0266552 -0.0125659 -0.0469346 0.00590894 0.0344691 -0.0165118 0.00187001 0.00625031 0.000381174 -0.021856 0.0160507 -0.0105159
internal_weight=452 269 183 163 80 189 99 117 55 64 57 87 72 46 44 46 42 41
internal_count=452 269 183 163 80 189 99 117 55 64 57 87 72 46 44 46 42 41
is_linear=0
shrinkage=0.05


Tree=10
num_leaves=19
num_cat=0
split_feature=0 86 0 84 84 51 17 64 0 37 32 53 86 62 6 0 11 68
split_gain=65.1866 18.6094 18.0837 6.51272 5.16487 3.6623 2.73371 2.33408 1.58807 1.56679 1.4466 1.32504 1.26984 1.22321 0.730939 0.588933 0.559874 0.356929
threshold=0.011594870627711451 0.18868722849277977 -0.99208564430928547 -0.032440552154191095 -0.042450699919102441 0.47758572713924058 0.61549779118133163 -0.14164699125048402 0.76241568034572527 0.014571386665112601 -0.091774397121534637 0.21948943422999448 0.031339073004816205 -0.006685581361534099 0.007679167810515951 0.23579534411082378 1.0150941037198404 -0.015606356954023298
decision_type=2 2 2 2 2 2 2 2 2 2 2 2 2 2 2 2 2 2
left_child=2 3 6 8 10 15 12 -6 16 -9 -4 -7 -1 17 -12 -5 -2 -11
right_child=1 -3 4 5 7 11 -8 9 -10 13 14 -13 -14 -15 -16 -17 -18 -19
leaf_value=-0.041750644644101463 -0.0044820657527695103 0.065925175306342898 -0.031949822994924729 0.0076650060136758159 0.007343928337629352 0.026244377751242033 -0.055711122602224356 -0.017950611671915761 0.015727005461635798 -0.013472677255049349 -0.022503031566739082 0.041684814666708314 -0.024146596817299724 0.0056712356598480895 -0.0089850888075307025 0.018922854329531009 0.0061625488989409949 -0.004588075583048452
leaf_weight=21 30 21 21 21 35 33 20 27 23 20 20 24 20 23 20 26 21 26
leaf_count=21 30 21 21 21 35 33 20 27 23 20 20 24 20 23 20 26 21 26
internal_value=-2.59101e-11 0.0214099 -0.0168402 0.016158 -0.00930543 0.0242256 -0.040556 -0.00370942 0.0048199 -0.00773929 -0.0213231 0.0327456 -0.0331633 -0.00374355 -0.0157441 0.0138928 -9.89891e-05 -0.00845095
internal_weight=452 199 253 178 192 104 61 131 74 96 61 57 41 69 40 47 51 46
internal_count=452 199 253 178 192 104 61 131 74 96 61 57 41 69 40 47 51 46
is_linear=0
shrinkage=0.05


Tree=11
num_leaves=17
num_cat=0
split_feature=0 1 86 15 84 1 0 65 48 84 10 62 29 41 7 37
split_gain=58.8667 18.5694 15.8897 5.84501 5.09552 3.4158 2.41132 1.67326 1.63441 1.36638 1.18894 1.18855 1.20096 1.0518 0.93636 0.584031
threshold=0.11229577689006585 -0.97946290720034301 0.18868722849277977 0.5019175485585593 -0.072940021457823925 0.47758572713924058 -0.23529663501042544 0.17995489495855319 -0.30060065736259844 -0.084529154024146694 -0.43290498612647504 -0.31083434505826335 -0.048056111682981441 0.23791627740717999 -0.30688759000716392 0.054027300767950558
decision_type=2 2 2 2 2 2 2 2 2 2 2 2 2 2 2 2
left_child=1 9 3 5 8 15 11 -8 -3 -1 -5 -6 14 -7 -13 -2
right_child=2 4 -4 10 6 13 7 -9 -10 -11 -12 12 -14 -15 -16 -17
leaf_value=-0.05072374691565832 0.0089242799785630468 -0.03157594149621825 0.063938050717115405 0.0091422566911205649 0.00087961277279716274 0.024726281723668499 -0.0032807986327116527 0.014304369635647164 -0.014070187027876577 -0.034327158525034235 -0.0061687166536492965 0.0012958250135521997 -0.018591550474657732 0.037859143068393074 -0.012600381286055954 0.020030645583756269
leaf_weight=24 29 24 20 32 26 31 31 24 30 27 21 22 34 30 27 20
leaf_count=24 29 24 20 32 26 31 31 24 30 27 21 22 34 30 27 20
internal_value=1.66896e-11 -0.0148828 0.0218769 0.016716 -0.00852878 0.0232882 -0.00414235 0.00439273 -0.0218505 -0.0420432 0.00307564 -0.00844904 -0.0113713 0.0311851 -0.00636127 0.0134575
internal_weight=452 269 183 163 218 110 164 55 54 51 53 109 83 61 49 49
internal_count=452 269 183 163 218 110 164 55 54 51 53 109 83 61 49 49
is_linear=0
shrinkage=0.05


Tree=12
num_leaves=19
num_cat=0
split_feature=0 86 0 84 84 0 17 21 12 70 85 84 53 0 11 0 10 25
split_gain=53.1664 15.1874 14.8036 5.36343 4.2325 3.05386 2.37983 1.97362 1.37209 1.34193 1.33712 1.03455 0.933674 0.872287 0.625101 0.427945 0.316416 0.281931
threshold=0.011594870627711451 0.18868722849277977 -0.99208564430928547 -0.032440552154191095 -0.042450699919102441 0.49790693977139339 0.61549779118133163 -0.22085065696296655 -0.30505423388454206 -0.049427838882768492 -3.8857805861880474e-16 0.012840590899850552 0.2745096620043031 -0.31568336168363481 1.0150941037198404 0.23579534411082378 0.6319401411896457 -0.13499874848523252
decision_type=2 2 2 2 2 2 2 2 2 2 2 2 2 2 2 2 2 2
left_child=2 3 6 10 8 15 11 -6 -4 16 -2 -1 17 -11 -12 -5 -9 -7
right_child=1 -3 4 5 7 12 -8 9 -10 13 14 -13 -14 -15 -16 -17 -18 -19
leaf_value=-0.037906901240348817 0.014979212358593941 0.059550188268933983 -0.028581156193589169 0.0066018126810723473 0.0066441125158841416 0.02042593663558364 -0.050806170403957365 -0.0090747157887866095 -0.013230739974391623 -0.007518775472417475 -0.0041562609318079374 -0.022017296243991173 0.037643097199144819 0.0072484763071406638 0.0070461351703852418 0.016580583053556357 -0.016815987568009984 0.028821344301104546
leaf_weight=20 21 21 24 21 36 20 20 33 37 20 33 21 21 20 20 22 22 20
leaf_count=20 21 21 24 21 36 20 20 33 37 20 33 21 21 20 20 22 22 20
internal_value=-6.05257e-12 0.0193354 -0.0152085 0.014591 -0.00839125 0.0219121 -0.036666 -0.00332546 -0.0192702 -0.0071034 0.00430175 -0.0297683 0.0291057 -0.00013515 7.10584e-05 0.0117072 -0.0121712 0.0246236
internal_weight=452 199 253 178 192 104 61 131 61 95 74 41 61 40 53 43 55 40
internal_count=452 199 253 178 192 104 61 131 61 95 74 41 61 40 53 43 55 40
is_linear=0
shrinkage=0.05


Tree=13
num_leaves=18
num_cat=0
split_feature=1 1 86 15 57 84 95 3 86 10 69 62 37 1 65 4 11
split_gain=47.8771 16.8396 11.9968 4.86168 3.46663 3.19232 2.08497 1.75218 1.63914 1.31619 1.27418 1.21955 1.06558 0.82771 0.407896 0.404144 0.316378
threshold=0.15682118588128821 -0.66120268327951048 0.18868722849277977 0.5019175485585593 0.59848523807558995 0.01539679914969975 2.5000000000000004 -0.31625237203872464 0.080209339511100167 -0.43290498612647504 0.12393305440295667 -0.14244651596085603 0.16834632651061923 0.48963956436676309 0.22226641678420697 -0.32776825897916567 0.23579534411082378
decision_type=2 2 2 2 2 2 2 2 2 2 2 2 2 2 2 2 2
left_child=1 4 3 6 8 7 13 10 -1 -5 -3 16 15 -2 -13 -7 -9
right_child=2 5 -4 9 -6 12 -8 11 -10 -11 -12 14 -14 -15 -16 -17 -18
leaf_value=-0.031875754706561565 0.012138005871983137 -0.0084000672082765963 0.057763636410236366 0.010753893268366274 -0.049848362579941755 -0.0050852504473975083 0.032800817511537496 -0.012143805427476765 -0.014549210277341663 -0.0060760179357159704 0.0076877413131296634 -0.025063936002552512 0.012800923773002897 0.023532605742414794 -0.015197892351584001 0.0038320986907584248 -0.003250293212477118
leaf_weight=39 34 32 20 26 20 24 34 20 21 21 20 20 22 30 22 27 20
leaf_count=39 34 32 20 26 20 24 34 20 21 21 20 20 22 30 22 27 20
internal_value=-6.46079e-11 -0.0123386 0.0214617 0.0164545 -0.0318207 -0.00480928 0.0227949 -0.00939225 -0.0258115 0.00323415 -0.00221245 -0.0139453 0.0036033 0.0174792 -0.019896 -0.000364301 -0.00769705
internal_weight=452 287 165 145 80 207 98 134 60 47 52 82 73 64 42 51 40
internal_count=452 287 165 145 80 207 98 134 60 47 52 82 73 64 42 51 40
is_linear=0
shrinkage=0.05


Tree=14
num_leaves=18
num_cat=0
split_feature=1 1 86 15 57 84 95 28 86 61 10 37 62 1 58 78 15
split_gain=43.2091 15.1978 10.8271 4.38766 3.12864 2.88107 1.88169 1.59551 1.47933 1.21276 1.18786 0.961687 0.768305 0.747009 0.554146 0.474102 0.310212
threshold=0.15682118588128821 -0.66120268327951048 0.18868722849277977 0.5019175485585593 0.59848523807558995 0.01539679914969975 2.5000000000000004 -0.70969362309268369 0.080209339511100167 0.0026445385205336506 -0.43290498612647504 0.16834632651061923 -0.14244651596085603 0.48963956436676309 -0.4522834438538646 -0.11081075976651834 -0.31048008548394063
decision_type=2 2 2 2 2 2 2 2 2 2 2 2 2 2 2 2 2
left_child=1 4 3 6 8 7 13 9 -1 -3 -5 16 15 -2 -14 -9 -7
right_child=2 5 -4 10 -6 11 -8 12 -10 -11 -12 -13 14 -15 -16 -17 -18
leaf_value=-0.030281966685866697 0.011531105538939729 -0.0092650453094393018 0.054875455033034086 0.010216198646678375 -0.047355945184826859 0.0031881787219650245 0.031160776886869881 -0.013402540130274638 -0.013821749770570369 0.0081472750246757639 -0.0057722168531091442 0.012160877568583767 -0.022507889115292095 0.022355975384513539 -0.011753921784460546 -0.0032118126768618826 -0.0046486686145805799
leaf_weight=39 34 20 20 26 20 28 34 21 21 20 21 22 23 30 25 25 23
leaf_count=39 34 20 20 26 20 28 34 21 21 20 21 22 23 30 25 25 23
internal_value=-2.39527e-12 -0.0117217 0.0203886 0.0156318 -0.0302297 -0.00456881 0.0216551 -0.00892264 -0.0245209 -0.000558885 0.00307244 0.00342314 -0.0124817 0.0166053 -0.0169069 -0.0078641 -0.000346086
internal_weight=452 287 165 145 80 207 98 134 60 40 47 73 94 64 48 46 51
internal_count=452 287 165 145 80 207 98 134 60 40 47 73 94 64 48 46 51
is_linear=0
shrinkage=0.05


Tree=15
num_leaves=17
num_cat=0
split_feature=0 1 0 84 57 84 72 1 37 0 81 33 27 31 64 90
split_gain=39.3618 14.2834 10.3685 4.30428 2.8236 2.69205 1.31097 1.28865 1.18174 1.06705 0.81869 0.891026 0.811117 0.646038 0.610615 0.429989
threshold=0.23579534411082378 -0.66120268327951048 1.36458720385358 -0.032440552154191095 0.59848523807558995 0.01539679914969975 -0.74559830279426775 -1.1119319651850741 0.11961695509086477 -0.23529663501042544 0.49161219112180948 0.48657614425372714 0.65497278570102713 0.14776796029474074 -0.33154886909360887 -0.014251774841783598
decision_type=2 2 2 2 2 2 2 2 2 2 2 2 2 2 2 2
left_child=1 4 3 14 7 6 9 -1 15 -3 11 -7 13 -8 -2 -5
right_child=2 5 -4 8 -6 10 12 -9 -10 -11 -12 -13 -14 -15 -16 -17
leaf_value=-0.031674274171774201 0.0093389476438806886 -0.0083396276035769424 0.052220794744789606 0.021533324634251391 -0.044988147094845776 0.0017669397675490472 -0.013339757744688541 -0.016887048637384879 0.02840184916889197 0.0076177185832057154 -0.0046440582616593352 0.01486621889330092 -0.017986519166058111 -0.0035103508138230872 -0.0021242664876179053 0.012060373738408089
leaf_weight=26 21 22 22 23 20 34 32 34 38 20 22 21 31 35 26 25
leaf_count=26 21 22 22 23 20 34 32 34 38 20 22 21 31 35 26 25
internal_value=4.7973e-11 -0.0106592 0.0204245 0.0151649 -0.0287182 -0.00400155 -0.00813167 -0.0232948 0.0218145 -0.000740891 0.00350776 0.00676848 -0.0112991 -0.00820499 0.0029976 0.0165995
internal_weight=452 297 155 133 80 217 140 60 86 42 77 55 98 67 47 48
internal_count=452 297 155 133 80 217 140 60 86 42 77 55 98 67 47 48
is_linear=0
shrinkage=0.05


Tree=16
num_leaves=18
num_cat=0
split_feature=0 1 0 84 84 84 0 9 11 37 71 13 66 21 26 7 90
split_gain=35.524 12.917 9.35759 3.88461 2.70334 2.44295 1.86706 1.42445 1.0908 1.06652 0.979052 0.81809 0.593263 0.572466 0.555894 0.441837 0.388065
threshold=0.23579534411082378 -0.69500287924374304 1.36458720385358 -0.032440552154191095 0.096254416667026207 -0.084529154024146694 -0.23529663501042544 -0.63126913876898805 -0.17332045711042557 0.11961695509086477 0.40026287160942048 -0.34849432644671546 -0.18077517309045713 -0.28640781325691428 0.18653395008603826 -0.2970529346600172 -0.014251774841783598
decision_type=2 2 2 2 2 2 2 2 2 2 2 2 2 2 2 2 2
left_child=1 4 3 13 8 12 11 -8 -1 16 -9 15 -3 -2 -13 -7 -5
right_child=2 5 -4 9 -6 6 7 10 -10 -11 -12 14 -14 -15 -16 -17 -18
leaf_value=-0.042910670169762209 0.0087301140185445554 -0.0090174064684945803 0.049609754461033106 0.020456658400919127 -0.013829463755246253 0.0021269484279522054 0.015612833516206593 -0.0065458506958007258 -0.028245190565939993 0.026981756853331863 0.0064775423312018951 -0.017242143731564283 -0.020316566979246484 -0.0023287952356040478 -0.0055946246632153085 -0.0070842176817519503 0.011457355052232743
leaf_weight=21 22 26 22 23 24 30 21 27 32 38 31 20 21 25 21 23 25
leaf_count=21 22 26 22 23 24 30 21 27 32 38 31 20 21 25 21 23 25
internal_value=6.63464e-11 -0.0101263 0.0194032 0.0144067 -0.0277517 -0.00395738 -0.00121112 0.00445488 -0.034056 0.0207238 0.000414928 -0.00597296 -0.014066 0.00284772 -0.0112763 -0.00187035 0.0157695
internal_weight=452 297 155 133 77 220 173 79 53 86 58 94 47 47 41 53 48
internal_count=452 297 155 133 77 220 173 79 53 86 58 94 47 47 41 53 48
is_linear=0
shrinkage=0.05


Tree=17
num_leaves=18
num_cat=0
split_feature=0 86 1 15 84 0 32 9 10 46 41 17 37 84 50 7 26
split_gain=32.1112 10.8655 9.11953 4.27298 2.55254 2.21959 1.66723 1.21031 0.993853 0.99314 0.63426 0.544565 0.515669 0.484524 0.408617 0.36764 0.314496
threshold=-0.056883333811423749 0.23103125954822556 -0.97946290720034301 0.54440861889504599 -0.017839287767843246 0.49790693977139339 0.60608640821520732 -0.03942067747477724 -0.32776825897916567 -0.47108477252780628 0.34942502982452056 -0.018991685815865897 0.014571386665112601 0.073951992969788063 -0.63510521856647772 0.12902429518929373 0.034565085802117555
decision_type=2 2 2 2 2 2 2 2 2 2 2 2 2 2 2 2 2
left_child=2 3 7 5 9 13 12 -1 11 -4 16 -5 -6 15 -14 -2 -7
right_child=1 -3 4 8 6 10 -8 -9 -10 -11 -12 -13 14 -15 -16 -17 -18
leaf_value=-0.021834396608173851 0.00057360277278348801 0.049089853740297257 -0.02149633705390222 0.0096137275564528654 -0.012617988501173946 0.014753584631790335 0.0066321828421905598 -0.037610785927503339 -0.009621795527637006 -0.0094059909639015275 0.029098903536796575 -0.001773034886407134 -0.0096106191081079574 0.014623217550318011 -0.0010481117317747129 0.010045758067142398 0.022690837706128758
leaf_weight=20 20 20 33 21 26 26 32 31 20 35 20 21 22 22 38 21 24
leaf_count=20 20 20 33 21 26 26 32 31 20 35 20 21 22 22 38 21 24
internal_value=6.35149e-11 0.0139921 -0.0126933 0.0103924 -0.00755747 0.0154458 -0.00311101 -0.031424 -0.000448087 -0.0152734 0.0215736 0.00392035 -0.00673639 0.0086372 -0.0041877 0.00542519 0.0185635
internal_weight=452 215 237 195 186 133 118 51 62 68 70 42 86 63 60 41 50
internal_count=452 215 237 195 186 133 118 51 62 68 70 42 86 63 60 41 50
is_linear=0
shrinkage=0.05


Tree=18
num_leaves=19
num_cat=0
split_feature=0 1 84 84 84 84 0 52 26 46 19 62 64 29 32 43 45 8
split_gain=29.135 10.5817 8.0547 2.87265 2.30597 2.11157 1.59358 1.44574 0.913234 0.90513 0.884271 0.705657 0.704171 0.672895 0.592543 0.561457 0.484204 0.178241
threshold=0.23579534411082378 -0.78078257735928658 0.23737774204493228 -0.032440552154191095 -0.084529154024146694 0.096254416667026207 -0.23529663501042544 -0.19141891103490569 -0.082246391981370945 0.25288706581220638 0.017697494800583805 -0.31083434505826335 0.040926027820666705 -0.048056111682981441 -0.091774397121534637 -0.25384111177037699 0.5000392192767622 0.084326191966350258
decision_type=2 2 2 2 2 2 2 2 2 2 2 2 2 2 2 2 2 2
left_child=1 5 3 9 14 10 11 -8 17 -2 -1 -6 -9 15 -3 -13 -10 -5
right_child=2 4 -4 8 6 -7 7 12 16 -11 -12 13 -14 -15 -16 -17 -18 -19
leaf_value=-0.03918722096992576 0.011869008947079155 -0.019862595617416361 0.047184869381599132 0.01030405916273594 0.0023576460672881118 -0.013102537004410157 0.013369289570039623 -0.0062783667053736281 0.018829481906834103 -0.0013918383918221922 -0.02560254067927599 0.00060604927561211375 0.0053931153689821569 -0.01380953087375082 -0.0088343558279026686 -0.010294722645942654 0.029566646970453716 0.016979397442191842
leaf_weight=23 22 21 20 20 22 21 27 28 21 31 25 27 24 29 29 21 21 20
leaf_count=23 22 21 20 20 22 21 27 28 21 31 25 27 24 29 29 21 21 20
internal_value=4.86716e-11 -0.00917056 0.017572 0.0131849 -0.00397866 -0.0263264 -0.00131361 0.00398242 0.0190486 0.00411266 -0.0321119 -0.00553974 -0.000891529 -0.00779613 -0.0134662 -0.00416304 0.0241981 0.0136417
internal_weight=452 297 155 135 228 69 178 79 82 53 48 99 52 77 50 48 42 40
internal_count=452 297 155 135 228 69 178 79 82 53 48 99 52 77 50 48 42 40
is_linear=0
shrinkage=0.05


Tree=19
num_leaves=16
num_cat=0
split_feature=1 1 75 84 15 66 12 19 59 18 39 76 6 84 34
split_gain=26.1468 9.23727 8.4757 2.68366 2.60803 1.47395 1.21318 1.03633 0.912306 0.892814 0.82966 0.677723 0.850516 0.404292 0.258398
threshold=0.15682118588128821 -0.97946290720034301 -0.99011713301496629 -0.072940021457823925 0.60466793606011604 -0.53684403494116129 -0.30505423388454206 0.042858327671519654 0.46113166976907721 -0.092610381047906795 -0.022517157472804295 -0.058062164610115041 -0.2970529346600172 0.1186757515321207 0.55387237420529523
decision_type=2 2 2 2 2 2 2 2 2 2 2 2 2 2 2
left_child=1 7 -2 6 8 9 -3 -1 -4 -5 11 12 -7 14 -10
right_child=2 3 4 5 -6 10 -8 -9 13 -11 -12 -13 -14 -15 -16
leaf_value=-0.035974238192041715 0.046373201403766877 -0.023265829907082345 0.0088227073710999988 0.01206353883817792 -0.0012076632390099189 0.0016426000677581345 -0.0083973198221749899 -0.02169462353060091 0.011452000832915392 -0.001437679002992809 0.0030765496849737787 -0.011965760084776542 -0.00993632228627544 0.022826875212291878 0.018953994475305082
leaf_weight=24 20 23 38 25 31 35 34 27 22 24 27 39 29 30 24
leaf_count=24 20 23 38 25 31 35 34 27 22 24 27 39 29 30 24
internal_value=1.16287e-11 -0.00911824 0.0158602 -0.0049483 0.0116515 -0.00193953 -0.0143969 -0.0284144 0.0151483 0.0054507 -0.00472508 -0.00677016 -0.0036041 0.0183111 0.0153661
internal_weight=452 287 165 236 145 179 57 51 114 49 130 103 64 76 46
internal_count=452 287 165 236 145 179 57 51 114 49 130 103 64 76 46
is_linear=0
shrinkage=0.05


Tree=20
num_leaves=19
num_cat=0
split_feature=0 1 0 15 57 9 83 63 0 1 86 8 37 56 64 5 84 31
split_gain=23.8217 8.67134 7.29262 2.8001 2.01344 1.61796 1.74525 0.918723 0.953833 0.905864 0.875866 0.556074 0.424663 0.404857 0.460041 0.353348 0.221855 0.19837
threshold=0.23579534411082378 -0.66120268327951048 1.36458720385358 0.5019175485585593 0.59848523807558995 -0.63126913876898805 0.24325985264751862 1.0095306915870743 -0.056883333811423749 0.54979549468444489 0.080209339511100167 -0.22015852582976078 0.17227417742571177 -0.32469722002876994 -0.026271736273554998 0.13831347935260999 -0.022966461093513298 -0.26832234907902608
decision_type=2 2 2 2 2 2 2 2 2 2 2 2 2 2 2 2 2 2
left_child=1 4 3 9 10 6 -3 8 13 17 -1 -11 -5 -7 16 -10 -15 -2
right_child=2 5 -4 12 -6 7 -8 -9 15 11 -12 -13 -14 14 -16 -17 -18 -19
leaf_value=-0.022216382352575566 0.0079313097805108722 -0.0040100121553140605 0.042555257625115868 0.0055765693541616201 -0.036102132163941862 -2.6632244338370149e-05 0.016397834410890939 -0.013520840302641904 0.0074853790737688542 0.026453181557978198 -0.0095508739440923647 0.015689876427253089 -0.0046037090849131348 -0.0085335157765075564 -0.01381015284391849 -0.0016017549478894344 -0.002452741756375569 0.014652730861590023
leaf_weight=39 23 22 22 21 20 21 20 28 20 24 21 24 20 30 23 23 30 21
leaf_count=39 23 22 22 21 20 21 20 28 20 24 21 24 20 30 23 23 30 21
internal_value=-2.03534e-11 -0.00829229 0.0158891 0.0114782 -0.0223631 -0.00310489 0.00570801 -0.00521998 -0.00363887 0.0163213 -0.0177835 0.0210715 0.00061058 -0.00622866 -0.00779785 0.00262482 -0.00549313 0.0111393
internal_weight=452 297 155 133 80 217 42 175 147 92 60 48 41 104 83 43 60 44
internal_count=452 297 155 133 80 217 42 175 147 92 60 48 41 104 83 43 60 44
is_linear=0
shrinkage=0.05


Tree=21
num_leaves=17
num_cat=0
split_feature=0 1 79 84 84 0 52 12 9 94 62 29 82 21 1 9
split_gain=21.4991 7.86885 7.07673 2.41098 1.9875 1.2947 1.25639 1.01131 0.910762 0.760951 0.546548 0.595224 0.533772 0.485902 0.43741 0.254389
threshold=0.23579534411082378 -0.97946290720034301 -0.67114541033236808 -0.072940021457823925 -0.032440552154191095 -0.23529663501042544 -0.19141891103490569 -0.30505423388454206 -0.03942067747477724 0.37940952255126043 -0.31083434505826335 -0.048056111682981441 -1.6224537140882258 -0.28640781325691428 0.54979549468444489 -0.67752254581071758
decision_type=2 2 2 2 2 2 2 2 2 2 2 2 2 2 2 2
left_child=1 8 -2 7 13 10 -7 -3 -1 -8 -5 12 -12 -4 -6 -16
right_child=2 3 4 5 14 6 9 -9 -10 -11 11 -13 -14 -15 15 -17
leaf_value=-0.017433348768390717 0.042082172057901823 -0.021174222344289659 0.0078102428423748775 0.0014148776100997705 0.011031192758431037 0.012247928476857919 -0.0062006332539021975 -0.0077520546251131847 -0.031118881218736211 0.006209118242952086 -0.0086917520966380835 -0.011975760451134514 0.0017475244868546725 -0.0024771730454328164 0.022624543355777862 0.015436161702746178
leaf_weight=20 21 23 22 26 36 27 30 36 31 21 24 34 25 24 20 32
leaf_count=20 21 23 22 26 36 27 30 36 31 21 24 34 25 24 20 32
internal_value=-2.49346e-11 -0.00787768 0.0150946 -0.00417202 0.0108653 -0.00139164 0.00352649 -0.0129844 -0.025752 -0.00109074 -0.00491104 -0.00689265 -0.00336559 0.0024429 0.0152679 0.0182009
internal_weight=452 297 155 246 134 187 78 59 51 51 109 83 49 46 88 52
internal_count=452 297 155 246 134 187 78 59 51 51 109 83 49 46 88 52
is_linear=0
shrinkage=0.05


Tree=22
num_leaves=19
num_cat=0
split_feature=1 72 1 9 90 1 86 33 12 83 82 86 30 62 76 78 25 30
split_gain=19.2821 11.941 3.92131 3.45914 1.70217 1.59744 1.30191 1.2414 0.654929 0.584089 0.483699 0.421219 0.411193 0.409011 0.460668 0.429372 0.402249 0.359014
threshold=-0.28519069771283434 -1.4183779527098845 -1.1119319651850741 -0.63126913876898805 0.1058093600668908 0.33061227544445854 -0.065194331319870333 -0.071786162021515734 -0.49147853521017554 0.43753951271902963 -1.0790069337878643 0.053707525763900657 -0.089441675231587386 -0.25766851286068543 -0.058062164610115041 -1.5970857528345668 -0.46239231216945037 1.2659300492043515
decision_type=2 2 2 2 2 2 2 2 2 2 2 2 2 2 2 2 2 2
left_child=2 -2 7 9 5 12 8 -1 -4 -3 -6 -7 -5 -8 15 -15 -11 -14
right_child=1 3 6 4 10 11 13 -9 -10 16 -12 -13 17 14 -16 -17 -18 -19
leaf_value=-0.035390110090374953 0.045455069942399867 0.0082753662979316526 -0.022729529738426207 0.005342847422103991 -0.012717423009287035 0.0070334553899657403 5.6177954926776387e-05 -0.017984341373223633 -0.010086987766304187 0.012131389886850403 -0.0018525444017723205 0.015695784289551817 -0.0057353101088665429 -0.009328990965150297 -0.012784346107106943 0.00054949514160398396 0.02121782631709658 0.0024909410398409127
leaf_weight=20 20 27 20 22 21 36 24 21 21 21 20 23 36 22 26 22 29 21
leaf_count=20 20 27 20 22 21 36 24 21 21 21 20 23 36 22 26 22 29 21
internal_value=-4.66176e-12 0.00824668 -0.0129323 0.00533978 0.00152778 0.00418543 -0.00881934 -0.026475 -0.0162541 0.0142014 -0.00741748 0.0104103 -0.000463529 -0.00557653 -0.00750774 -0.00438975 0.0174015 -0.00270459
internal_weight=452 276 176 256 179 138 135 41 41 77 41 59 79 94 70 44 50 57
internal_count=452 276 176 256 179 138 135 41 41 77 41 59 79 94 70 44 50 57
is_linear=0
shrinkage=0.05


Tree=23
num_leaves=17
num_cat=0
split_feature=0 1 84 84 84 19 0 52 94 94 33 58 62 76 82 86
split_gain=17.7205 6.39203 6.10933 1.9946 1.68973 1.0992 1.01328 1.07819 0.778489 0.651415 0.579657 0.528551 0.468097 0.525284 0.463574 0.419042
threshold=0.23579534411082378 -0.89656749384012679 0.23737774204493228 -0.032440552154191095 -0.084529154024146694 0.093144700016829063 -0.23529663501042544 -0.19141891103490569 0.37940952255126043 0.37940952255126043 -0.36529210971239146 0.34588047706632541 -0.25766851286068543 -0.058062164610115041 -1.6224537140882258 0.053707525763900657
decision_type=2 2 2 2 2 2 2 2 2 2 2 2 2 2 2 2
left_child=1 5 3 11 10 -1 12 -8 -5 -9 -3 -2 -6 14 -14 -10
right_child=2 4 -4 8 6 -7 7 9 15 -11 -12 -13 13 -15 -16 -17
leaf_value=-0.028965209397886483 0.0062109256897008788 -0.017987604700028897 0.039494225848466159 0.020859222370199861 0.001552425504429266 -0.015399906219681726 0.011207314368544354 -0.0057140832419756938 0.0068146491074003281 0.0056913024058476806 -0.0072601155117701967 -0.0040900792402680962 -0.0079347760707605634 -0.01137093268935719 0.0018926325186233346 0.016035979969257659
leaf_weight=28 33 20 20 32 25 32 27 31 28 21 34 20 24 31 24 22
leaf_count=28 33 20 20 32 25 32 27 31 28 21 34 20 24 31 24 22
internal_value=-3.65231e-11 -0.00715199 0.0137041 0.00988338 -0.00346126 -0.0217304 -0.00116788 0.00310099 0.0147695 -0.00110806 -0.0112333 0.00232375 -0.00441057 -0.0062976 -0.00302107 0.010872
internal_weight=452 297 155 135 237 60 183 79 82 52 54 53 104 79 48 50
internal_count=452 297 155 135 237 60 183 79 82 52 54 53 104 79 48 50
is_linear=0
shrinkage=0.05


Tree=24
num_leaves=18
num_cat=0
split_feature=0 75 1 15 84 32 0 90 19 33 51 35 37 38 85 65 77
split_gain=16.0337 7.41873 4.50835 2.27875 1.39453 1.05951 1.00286 0.915445 0.726085 0.678312 0.433582 0.389079 0.292157 0.287736 0.201357 0.235125 0.134091
threshold=-0.056883333811423749 -1.0667998331972368 -0.97946290720034301 0.5019175485585593 -0.017839287767843246 0.60608640821520732 0.49790693977139339 0.067557669305693263 0.042858327671519654 -0.21910624678464447 -0.28679938137634103 0.15366388080631524 0.014571386665112601 -0.79096295645889236 -0.0065395634661717991 0.27381839051373386 0.15004676173277839
decision_type=2 2 2 2 2 2 2 2 2 2 2 2 2 2 2 2 2
left_child=2 -2 8 6 9 12 11 -5 -1 -4 -11 -3 -6 -14 -8 -16 -15
right_child=1 3 4 7 5 -7 14 -9 -10 10 -12 -13 13 16 15 -17 -18
leaf_value=-0.028466906708975632 0.038888506025541579 0.0013864282768086666 -0.018797812387347221 0.0031654292644400679 -0.0093889169265122096 0.0056952564660605279 0.010602463801236202 -0.010244255251018332 -0.016514339636045476 -0.013226353669805187 -0.0036470339185109843 0.0091117263914873969 -0.0079401590209454299 0.0022998784855008127 0.019191977248660157 0.012193095484482391 -0.0034900037304032593
leaf_weight=24 20 28 20 35 26 32 24 20 27 21 27 39 20 20 28 21 20
leaf_count=24 20 28 20 35 26 32 24 20 27 21 27 39 20 20 28 21 20
internal_value=4.38875e-11 0.00988717 -0.00896937 0.00691268 -0.00535833 -0.00207177 0.0103005 -0.00171082 -0.0221391 -0.0110615 -0.00783799 0.00588324 -0.00496183 -0.00304343 0.0143547 0.0161925 -0.000595063
internal_weight=452 215 237 195 186 118 140 55 51 68 48 67 86 60 73 49 40
internal_count=452 215 237 195 186 118 140 55 51 68 48 67 86 60 73 49 40
is_linear=0
shrinkage=0.05


Tree=25
num_leaves=18
num_cat=0
split_feature=74 50 84 50 57 37 37 10 39 87 9 81 37 86 11 73 84
split_gain=13.8743 9.5409 3.69741 2.39262 2.32355 1.26227 0.901956 0.720907 0.55537 0.407799 0.307942 0.239508 0.228037 0.351982 0.241692 0.167682 0.146461
threshold=-1.9256238627411297 -0.51202437032071757 0.1186757515321207 0.20193722782030901 0.62333114002054779 0.17227417742571177 0.17227417742571177 0.33693051196359186 -0.95906648270106232 -2.1163626406917044e-16 -0.52218458465841899 0.27484477706486865 0.012232242749374851 -1.0000000180025095e-35 -0.0016468330020776498 0.093187953099263407 0.016871013185293753
decision_type=2 2 2 2 2 2 2 2 2 2 2 2 2 2 2 2 2
left_child=-1 4 3 9 6 10 7 8 -2 -3 -5 -4 -11 14 -14 -15 -12
right_child=1 2 11 5 -6 -7 -8 -9 -10 12 16 -13 13 15 -16 -17 -18
leaf_value=0.039685824901486443 -0.015908663719892503 -0.010224759824235333 0.011722710758850383 0.013188977056631336 -0.029696347545832398 -0.0044435239199589454 -0.0037741155984501043 -0.020711696348511256 -0.0041255143424496063 -0.0077898241684306417 0.0043200764091064535 0.018513992624357344 -0.0068422966636717325 0.004971392969600856 -0.00099329381729617271 -0.0014256757595354603 0.0095604361578201253
leaf_weight=21 20 22 37 27 20 23 30 26 20 20 30 20 38 20 33 21 24
leaf_count=21 20 22 37 27 20 23 30 26 20 20 30 20 38 20 33 21 24
internal_value=-4.75706e-11 -0.00193365 0.00258075 3.45566e-05 -0.0141926 0.00589379 -0.0109626 -0.0142301 -0.0100171 -0.00392233 0.00882908 0.0141056 -0.00287192 -0.00199373 -0.00412375 0.00169485 0.00664913
internal_weight=452 431 315 258 116 104 96 66 40 154 81 57 132 112 71 41 54
internal_count=452 431 315 258 116 104 96 66 40 154 81 57 132 112 71 41 54
is_linear=0
shrinkage=0.05


Tree=26
num_leaves=19
num_cat=0
split_feature=0 79 0 84 15 33 0 9 4 23 31 13 26 54 66 51 51 0
split_gain=13.3482 6.05418 4.6816 1.91934 1.5161 0.959969 0.823797 0.900893 0.801243 0.543731 0.511858 0.370162 0.311063 0.297317 0.280042 0.258541 0.280272 0.180817
threshold=0.31550711492482708 -0.6539315464913632 -1.2100122804531022 -0.072940021457823925 0.5019175485585593 -0.056202006769837345 -0.23529663501042544 -0.63126913876898805 -0.43290498612647504 0.13105096873521813 -0.026092294767797248 -0.34849432644671546 0.18653395008603826 -0.51202437032071757 -0.26100820152341597 0.54440861889504599 1.0394381777049111 -0.026872244272023896
decision_type=2 2 2 2 2 2 2 2 2 2 2 2 2 2 2 2 2 2
left_child=2 -2 5 8 15 -1 11 -8 -4 17 -10 13 -13 14 -5 -3 -17 -9
right_child=1 4 3 6 -6 -7 7 9 10 -11 -12 12 -14 -15 -16 16 -18 -19
leaf_value=-0.028798926231406986 0.038143910658545797 0.008160247182417096 -0.019072481002658608 0.00067047828564509044 -0.001080949230480098 -0.013853377785364336 0.011211403864233391 -0.0070506354141980409 -0.011813057321481982 0.0060907220510257919 -0.0013177018413054091 -0.012006194600835443 -0.0032933247879901456 0.0034166385707933276 -0.0069677224914942472 0.016745577854189005 0.0098042498485973253 -0.00055016841557200831
leaf_weight=21 20 33 20 21 31 22 23 20 26 22 21 20 21 21 28 33 26 23
leaf_count=21 20 33 20 21 31 22 23 20 26 22 21 20 21 21 28 33 26 23
internal_value=4.19816e-12 0.0126306 -0.00584522 -0.00337075 0.00848206 -0.0211524 -0.000906326 0.00270672 -0.0106905 -0.000302626 -0.00712364 -0.00377073 -0.00754351 -0.00156095 -0.00369421 0.0117044 0.0136867 -0.00357364
internal_weight=452 143 309 266 123 43 199 88 67 65 47 111 41 70 49 92 59 43
internal_count=452 143 309 266 123 43 199 88 67 65 47 111 41 70 49 92 59 43
is_linear=0
shrinkage=0.05


Tree=27
num_leaves=18
num_cat=0
split_feature=1 1 41 9 33 84 78 64 58 15 48 47 4 44 33 9 9
split_gain=12.5521 5.54045 4.63098 1.61772 1.40921 1.2767 0.992463 0.751301 0.599778 0.463677 0.447786 0.378157 0.371612 0.259638 0.226458 0.206857 0.199965
threshold=0.54979549468444489 -0.66120268327951048 0.4737663400138411 -0.36238281248048193 0.55517117651504366 -0.016473108283934546 -1.3503334056998468 1.0007234913818694 -0.0054638840230231992 0.48963956436676309 -1.1851979715074779 0.022925501741995254 -0.14533024740034425 0.40895234650084428 -0.21910624678464447 -0.78602560773732311 0.61080209327984758
decision_type=2 2 2 2 2 2 2 2 2 2 2 2 2 2 2 2 2
left_child=1 5 9 4 12 -1 -5 8 11 15 -7 -8 -3 -10 -13 -2 -16
right_child=2 3 -4 6 -6 10 7 -9 13 -11 -12 14 -14 -15 16 -17 -18
leaf_value=-0.022553196755816809 0.017103147469460966 -0.0048505606250658353 0.037351150988113313 -0.01068603571683697 0.012102466865785812 -0.014642708080456311 0.0033780592726543549 -0.0099807422446167998 0.0088895504060201355 0.0043124212218182429 -0.004413057346828282 -0.0086331448331475255 0.0042149427812546497 0.0010181361767040058 0.00088241413678042605 0.010394154647710147 -0.0051723604098272823
leaf_weight=37 20 26 21 37 38 23 22 23 20 21 20 20 20 22 25 27 30
leaf_count=37 20 26 21 37 38 23 22 23 20 21 20 20 20 22 25 27 30
internal_value=1.79774e-11 -0.00412573 0.0168274 -0.000841443 0.00497712 -0.0157439 -0.00329752 -0.00161002 -0.000224936 0.0104892 -0.00988473 -0.00238614 -0.000909037 0.00476643 -0.00407698 0.013249 -0.00242019
internal_weight=452 363 89 283 84 80 199 162 139 68 43 97 46 42 75 47 55
internal_count=452 363 89 283 84 80 199 162 139 68 43 97 46 42 75 47 55
is_linear=0
shrinkage=0.05


Tree=28
num_leaves=17
num_cat=0
split_feature=38 28 84 86 12 39 47 37 84 95 52 43 92 73 26 81
split_gain=9.71053 7.56504 2.65673 1.72507 1.2852 1.08703 0.761752 0.713596 0.699132 0.312101 0.300485 0.250519 0.227639 0.214704 0.202995 0.0901577
threshold=-0.23182941985223024 -1.5041795293154443 -0.057176381690681545 -0.014225753494304348 -0.49147853521017554 -1.1661629654142185 0.490595422077095 0.19812988031675058 0.16838028592532192 1.5000000000000002 0.6690338238904201 -0.23744963072604272 9.5000000000000018 0.07359263738648962 0.034565085802117555 0.31922027077794074
decision_type=2 2 2 2 2 2 2 2 2 2 2 2 2 2 2 2
left_child=2 -2 4 7 -1 -4 12 10 9 -7 15 13 -5 -11 -8 -3
right_child=1 3 5 6 -6 8 14 -9 -10 11 -12 -13 -14 -15 -16 -17
leaf_value=-0.021941482414197373 0.035807236119927394 0.0022615759856125807 -0.013587871279334649 0.0072794974991120392 -0.0073444760385900747 -1.22946803458035e-06 0.0091969565267507464 -0.0072541037586453406 0.0049588709000360082 5.1473413727113183e-05 0.007103093571606137 -0.0099211674425750979 0.00012276990525424481 -0.0066365785198286183 0.014570181106682867 -0.0023285734970831195
leaf_weight=38 21 20 25 20 25 33 39 29 27 21 21 25 25 28 32 23
leaf_count=38 21 20 25 20 25 33 39 29 27 21 21 25 25 28 32 23
internal_value=5.66559e-11 0.00720004 -0.0074595 0.00432563 -0.016149 -0.00401648 0.00839299 -0.000747631 -0.00223077 -0.00404498 0.00220061 -0.00584828 0.00330354 -0.00377027 0.0116187 -0.00019362
internal_weight=452 230 222 209 63 159 116 93 134 107 64 74 45 49 71 43
internal_count=452 230 222 209 63 159 116 93 134 107 64 74 45 49 71 43
is_linear=0
shrinkage=0.05


Tree=29
num_leaves=17
num_cat=0
split_feature=74 1 1 9 90 84 1 62 69 82 75 62 85 2 9 18
split_gain=10.5963 6.97576 2.03778 1.99327 0.942551 0.752148 0.701726 0.348503 0.34352 0.325059 0.32184 0.321327 0.269623 0.221343 0.199001 0.150126
threshold=-1.9256238627411297 -0.2499970347345517 -1.1325285850239051 -0.63126913876898805 0.1058093600668908 -0.057176381690681545 0.33061227544445854 -0.25766851286068543 0.12792994880525635 -1.0790069337878643 0.39296679023671827 -0.14244651596085603 -1.52655665885959e-16 0.40026287160942048 -0.89536814658983632 -0.076432673309696136
decision_type=2 2 2 2 2 2 2 2 2 2 2 2 2 2 2 2
left_child=-1 2 -2 10 6 11 13 -7 -9 -6 14 -4 -8 15 -3 -5
right_child=1 3 5 4 9 7 12 8 -10 -11 -12 -13 -14 -15 -16 -17
leaf_value=0.034682181583983555 -0.019542074247606494 0.0047768023731186993 -0.0079145963314328008 0.00071640118467621505 -0.010522324633784594 0.00087472261198294856 0.0027970390990376473 -0.002519822997871686 -0.0094298158639243672 -0.0015076293842867018 0.014447584015627702 -0.01667133062146604 0.0095956485558833394 0.0037889201620022179 0.011379129854252651 -0.004529840477431814
leaf_weight=21 38 25 22 25 20 26 25 37 35 20 30 20 35 22 21 30
leaf_count=21 38 25 22 25 20 26 25 37 35 20 30 20 35 22 21 30
internal_value=8.96295e-12 -0.00168985 -0.00927349 0.00364567 0.000737546 -0.0064863 0.00270909 -0.00408708 -0.00587885 -0.00601498 0.0104185 -0.0120845 0.00676289 -0.000449727 0.00779091 -0.00214519
internal_weight=452 431 178 253 177 140 137 98 72 40 76 42 60 77 46 55
internal_count=452 431 178 253 177 140 137 98 72 40 76 42 60 77 46 55
is_linear=0
shrinkage=0.05


Tree=30
num_leaves=19
num_cat=0
split_feature=1 11 1 84 57 18 41 48 49 43 11 56 82 33 14 33 26 34
split_gain=9.74809 4.42388 4.03127 1.09514 1.01659 0.832564 0.656758 0.483037 0.5443 0.443175 0.396661 0.377548 0.304195 0.279464 0.266967 0.319446 0.217767 0.133861
threshold=0.54979549468444489 0.61917539957789891 -0.66120268327951048 0.01539679914969975 0.59848523807558995 -0.059045802751872142 0.087907072775216324 -0.3700509818814855 0.10265221576333132 0.40195589723811304 0.37574306578481742 0.60441847352914735 -0.69614890779424132 0.1222372751718216 -0.14469083403490809 0.14679852464608922 -0.031111702383177595 0.45643358767525338
decision_type=2 2 2 2 2 2 2 2 2 2 2 2 2 2 2 2 2 2
left_child=2 11 4 5 10 6 -4 -5 16 14 13 17 -8 -1 15 -7 -9 -2
right_child=1 -3 3 7 -6 9 12 8 -10 -11 -12 -13 -14 -15 -16 -17 -18 -19
leaf_value=-0.017345930971205233 0.0086308241214441226 0.034888797694639789 0.0081959082628600306 -0.0026279327386334816 -0.023308522824663669 -0.010887518074984353 -0.0052455442869460168 0.0054153709605868376 0.011223681609146297 -0.013185184868052603 -0.0045425992296077317 0.0034231022040805089 0.0015716569896418757 -0.0089873376983450725 -2.9015194879667395e-05 -0.0028116150246933103 -0.00087803951981994853 0.01408623339269649
leaf_weight=20 23 21 20 27 20 24 36 28 25 20 20 23 30 20 21 25 27 22
leaf_count=20 23 21 20 27 20 24 36 28 25 20 20 23 30 20 21 25 27 22
internal_value=1.79871e-11 0.0148292 -0.00363582 -0.000834326 -0.0135461 -0.00325952 0.000258468 0.00315478 0.00510644 -0.00662115 -0.010292 0.00863437 -0.00214682 -0.0131666 -0.00474572 -0.00676716 0.00232588 0.0112979
internal_weight=452 89 363 283 80 176 86 107 80 90 60 68 66 40 70 49 55 45
internal_count=452 89 363 283 80 176 86 107 80 90 60 68 66 40 70 49 55 45
is_linear=0
shrinkage=0.05


Tree=31
num_leaves=19
num_cat=0
split_feature=74 1 1 9 90 84 1 62 25 17 25 83 25 62 93 5 22 84
split_gain=9.13583 5.64801 1.67067 1.61979 0.816464 0.654737 0.584158 0.306048 0.298977 0.4323 0.292363 0.279933 0.276386 0.265397 0.221639 0.212459 0.193821 0.133673
threshold=-1.9256238627411297 -0.2499970347345517 -1.1325285850239051 -0.63126913876898805 0.1058093600668908 -0.057176381690681545 0.33061227544445854 -0.25766851286068543 -0.14435136543365643 0.66154349218204966 0.2471422281325997 0.43753951271902963 -0.46239231216945037 -0.14244651596085603 1.0000000180025095e-35 0.83976126080756119 -0.44507930193287987 0.043212275235995655
decision_type=2 2 2 2 2 2 2 2 2 2 2 2 2 2 2 2 2 2
left_child=-1 2 -2 11 6 13 14 -7 9 -9 -6 -3 -13 -4 16 17 -5 -8
right_child=1 3 5 4 10 7 15 8 -10 -11 -12 12 -14 -15 -16 -17 -18 -19
leaf_value=0.032203548068978953 -0.017690671335807758 0.0051292184355238891 -0.0073027169818735936 -0.0014458165608812125 -0.0099489945359528074 0.0010189769853381082 0.0053573631122708319 -0.012995430410263084 -0.00089211463369429111 -0.0033501438438319243 -0.0013996747008059175 0.0071570733251671006 0.014688967797776748 -0.015260944524779916 -0.0032995883782859893 0.0019362129643559454 0.0054317907302729078 0.011138219255954027
leaf_weight=21 38 26 22 20 20 26 20 21 25 26 20 21 29 20 36 20 21 20
leaf_count=21 38 26 22 20 20 26 20 21 25 26 20 21 29 20 36 20 21 20
internal_value=-1.87694e-11 -0.00156908 -0.00839293 0.00323188 0.000610331 -0.00586926 0.00244527 -0.00363079 -0.00530987 -0.00765974 -0.00567433 0.00933735 0.0115256 -0.0110923 -0.000436804 0.00614393 0.00207686 0.00824779
internal_weight=452 431 178 253 177 140 137 98 72 47 40 76 50 42 77 60 41 40
internal_count=452 431 178 253 177 140 137 98 72 47 40 76 50 42 77 60 41 40
is_linear=0
shrinkage=0.05


Tree=32
num_leaves=19
num_cat=0
split_feature=74 1 1 9 84 1 84 39 20 93 88 62 81 22 86 78 5 43
split_gain=8.24508 5.09733 1.50778 1.46186 0.746535 0.6815 0.5909 0.286272 0.303543 0.27809 0.255014 0.239521 0.205578 0.174923 0.169461 0.0991421 0.0817921 0.0595844
threshold=-1.9256238627411297 -0.2499970347345517 -1.1325285850239051 -0.63126913876898805 -0.18989169720555357 0.33061227544445854 -0.057176381690681545 -0.25778207952443494 0.059324697234470508 1.0000000180025095e-35 0.13383871253919125 -0.14244651596085603 0.26524484898117856 -0.44507930193287987 0.053707525763900657 -0.67114541033236808 -0.79665296837701904 0.022925501741995254
decision_type=2 2 2 2 2 2 2 2 2 2 2 2 2 2 2 2 2 2
left_child=-1 2 -2 10 -5 9 11 8 16 13 12 -4 -3 -6 15 -7 -8 -11
right_child=1 3 6 4 5 14 7 -9 -10 17 -12 -13 -14 -15 -16 -17 -18 -19
leaf_value=0.030593371719476726 -0.016806137749900748 0.0080722216743831249 -0.0069375811441039492 -0.0070739013970726079 -0.0013735256979634869 0.0014929685680683527 -0.001883224763441831 -0.0087860211776569479 -0.0058205478300806142 -0.0019922318043308737 0.0040240269456990069 -0.014497897410765291 0.014230109451581603 0.0051602010853544237 0.0092613853838132785 0.00635149244751249 0.0023698486322805716 -0.0056759715989409465
leaf_weight=21 38 33 22 27 20 21 20 20 32 23 20 20 23 21 23 21 26 21
leaf_count=21 38 33 22 27 20 21 20 20 32 23 20 20 23 21 23 21 26 21
internal_value=1.33334e-11 -0.00149063 -0.00797328 0.00307029 0.000579815 0.00195748 -0.00557579 -0.00344925 -0.00208085 -0.000989683 0.00887048 -0.0105377 0.0106014 0.00197302 0.00581147 0.00392223 0.000520686 -0.00375038
internal_weight=452 431 178 253 177 150 140 98 78 85 76 42 56 41 65 42 46 44
internal_count=452 431 178 253 177 150 140 98 78 85 76 42 56 41 65 42 46 44
is_linear=0
shrinkage=0.05


Tree=33
num_leaves=18
num_cat=0
split_feature=1 33 1 33 9 81 33 52 20 93 83 58 13 9 44 44 15
split_gain=7.65828 3.6934 2.95328 1.07208 0.954154 0.955879 0.895778 0.468689 0.39405 0.392636 0.429987 0.371291 0.499926 0.225206 0.213859 0.169925 0.0964586
threshold=0.54979549468444489 1.1209721432507818 -0.49147853521017554 -0.21910624678464447 -0.36238281248048193 0.76101432779327804 0.55517117651504366 0.74672403877995397 1.0322758644805881 1.0000000180025095e-35 1.2659300492043515 -0.0054638840230231992 -0.35272841848525849 -1.0587158829761327 -0.20759851314217506 0.40895234650084428 0.12239996594016526
decision_type=2 2 2 2 2 2 2 2 2 2 2 2 2 2 2 2 2
left_child=2 7 3 -1 6 8 13 -2 11 10 -5 12 -6 -4 -14 -13 -16
right_child=1 -3 4 9 5 -7 -8 -9 -10 -11 -12 15 14 -15 16 -17 -18
leaf_value=-0.017723818254572424 0.011192566769257669 0.029440925959497689 0.0031779203074984255 -0.014338089606684187 0.0047301029230848975 -0.012669264753349126 0.0099091222226569391 0.0026307746344669302 -0.0076190158352255821 -0.0012809972109442409 -0.0051115324571063478 0.0071133001283305939 -0.0082759433857472683 -0.0040767026235066029 -0.00011984137912535247 0.00081165469018742444 -0.0044299710672348743
leaf_weight=33 31 25 20 23 22 20 37 33 20 22 28 20 20 23 27 23 25
leaf_count=33 31 25 20 23 22 20 37 33 20 22 28 20 20 23 27 23 25
internal_value=-2.13049e-11 0.0131439 -0.00322261 -0.010245 -0.000326231 -0.00237442 0.0042054 0.00677789 -0.00106298 -0.00686412 -0.00927253 -0.000105894 -0.0018664 -0.000702459 -0.003882 0.00374265 -0.00219202
internal_weight=452 89 363 106 257 177 80 64 157 73 51 137 94 43 72 43 52
internal_count=452 89 363 106 257 177 80 64 157 73 51 137 94 43 72 43 52
is_linear=0
shrinkage=0.05


Tree=34
num_leaves=17
num_cat=0
split_feature=74 1 1 84 32 1 55 25 33 67 81 15 75 44 61 6
split_gain=7.21026 4.13524 1.2889 1.18611 0.629996 0.564516 0.480828 0.356041 0.394685 0.385961 0.274518 0.225123 0.112334 0.111895 0.076017 0.0712118
threshold=-1.9256238627411297 -0.2499970347345517 -1.1325285850239051 0.1186757515321207 -0.93879900893886636 0.37400929674962563 0.093814927550513225 -0.88839755949022614 0.14679852464608922 1.0000000180025095e-35 0.19028394659071193 0.5019175485585593 -0.66010612294903392 0.464069716509733 0.10049750614337712 -0.35848891542541172
decision_type=2 2 2 2 2 2 2 2 2 2 2 2 2 2 2 2
left_child=-1 2 -2 4 -3 12 7 -4 9 -9 -5 13 -6 -7 -14 -10
right_child=1 3 6 10 5 11 -8 8 15 -11 -12 -13 14 -15 -16 -17
leaf_value=0.02860916438734248 -0.015399487314157582 -0.0071408496598120447 -0.009409270029176367 0.0044989709319038828 0.0023404939828287753 0.0045296575010363611 -0.011458258217317052 -0.010874814402195626 0.0030121402241223092 -0.0016359472136872892 0.011551892163382996 0.0010160489542478765 -0.00014916715126673808 0.0089774548371609024 -0.0034984627303654434 -0.00087003372350914613
leaf_weight=21 38 22 22 22 20 31 24 20 21 26 37 27 32 26 36 27
leaf_count=21 38 22 22 22 20 31 24 20 21 26 37 27 32 26 36 27
internal_value=-9.89418e-12 -0.00139395 -0.00723286 0.00271406 0.000826081 0.00184511 -0.00501621 -0.00368337 -0.00234326 -0.00565285 0.00892199 0.00477698 -0.000953501 0.00655848 -0.00192232 0.000828417
internal_weight=452 431 178 253 194 172 140 116 94 46 59 84 88 57 68 48
internal_count=452 431 178 253 194 172 140 116 94 46 59 84 88 57 68 48
is_linear=0
shrinkage=0.05


Tree=35
num_leaves=17
num_cat=0
split_feature=74 1 1 90 9 76 53 1 13 69 25 85 30 2 88 30
split_gain=6.50726 3.73205 1.16324 1.10635 0.734701 0.458143 0.610476 0.372968 0.341435 0.261724 0.249706 0.205432 0.169575 0.144914 0.161864 0.122401
threshold=-1.9256238627411297 -0.2499970347345517 -1.1325285850239051 0.1058093600668908 -0.63126913876898805 0.69222922903976969 0.12490683867796021 0.33061227544445854 -0.34598938386120487 0.25081062905539669 0.030272688223552151 -1.8041124150158791e-16 -0.089441675231587386 -0.91586563756677952 -1.0000000180025095e-35 1.2659300492043515
decision_type=2 2 2 2 2 2 2 2 2 2 2 2 2 2 2 2
left_child=-1 2 -2 4 13 6 8 12 -4 -8 -5 -9 -6 -3 -15 -14
right_child=1 3 5 10 7 -7 9 11 -10 -11 -12 -13 15 14 -16 -17
leaf_value=0.027178706423867317 -0.014629512714026006 0.011901328377425672 0.0021499788935255746 -0.0086358716664835817 0.0033001748338827627 6.8630293213032388e-06 -0.0066254546555380035 0.0012523662987286631 -0.0065627619370140821 -0.013346950240832354 -0.0012046226551039863 0.0072698488655323912 -0.0036522421146989526 0.010208557581617719 0.0044445987373333551 0.0012772794706688729
leaf_weight=21 38 20 23 20 23 37 30 23 22 28 26 37 34 21 29 20
leaf_count=21 38 20 23 20 23 37 30 23 22 28 26 37 34 21 29 20
internal_value=4.14858e-11 -0.00132425 -0.00687122 0.00257836 0.00413701 -0.0047654 -0.0064797 0.00200775 -0.00210958 -0.00987031 -0.0044356 0.00496315 -0.000295151 0.00830428 0.00686546 -0.00182649
internal_weight=452 431 178 253 207 140 103 137 45 58 46 60 77 70 50 54
internal_count=452 431 178 253 207 140 103 137 45 58 46 60 77 70 50 54
is_linear=0
shrinkage=0.05


Tree=36
num_leaves=17
num_cat=0
split_feature=74 50 84 84 82 50 50 33 63 70 29 27 59 81 18 21
split_gain=5.8728 3.19585 1.44794 0.993026 0.69518 0.716885 0.438855 0.387867 0.282707 0.245146 0.232806 0.36287 0.290499 0.138007 0.0932752 0.0860487
threshold=-1.9256238627411297 -0.51202437032071757 0.1186757515321207 -0.016473108283934546 -1.5041795293154443 0.37400929674962563 -1.0828842169611497 0.075641136368440012 -0.024793924634732695 0.008007797715004452 -0.071786162021515734 0.65497278570102713 0.87400079405553366 0.27484477706486865 0.17577658583626338 -0.49070648735136435
decision_type=2 2 2 2 2 2 2 2 2 2 2 2 2 2 2 2
left_child=-1 3 4 6 8 10 -2 -5 -3 15 12 14 -6 -4 -12 -7
right_child=1 2 13 7 5 9 -8 -9 -10 -11 11 -13 -14 -15 -16 -17
leaf_value=0.025819770725710053 -0.019571981318295004 -0.0025002123787999154 0.0067579860692038324 -0.00782280741378856 0.005830634202257815 0.009521355964243413 -0.0098000048263067463 -0.00026069825670371456 -0.010033844765275718 0.00099521500971884685 0.0010207989820628428 -0.0084044680198920637 -0.0023909488848100108 0.011913152011111379 -0.0027677927530021409 0.0052873492054641251
leaf_weight=21 20 33 37 39 22 20 27 30 20 26 33 21 21 20 32 30
leaf_count=21 20 33 37 39 22 20 27 30 20 26 33 21 21 20 32 30
internal_value=-1.29068e-11 -0.00125804 0.00135471 -0.00835302 -0.000238657 0.00108103 -0.0139583 -0.00453493 -0.00534309 0.0049332 -0.00118847 -0.00269043 0.00181544 0.00856682 -0.000844354 0.00698095
internal_weight=452 431 315 116 258 205 47 69 53 76 129 86 43 57 65 50
internal_count=452 431 315 116 258 205 47 69 53 76 129 86 43 57 65 50
is_linear=0
shrinkage=0.05


Tree=37
num_leaves=19
num_cat=0
split_feature=0 1 86 53 9 82 0 58 24 92 79 9 55 81 38 11 72 75
split_gain=5.78741 3.27544 1.2626 0.922059 0.69105 0.955061 0.676233 0.311104 0.272307 0.250736 0.227158 0.388425 0.185068 0.180308 0.321748 0.132108 0.0849101 0.0757531
threshold=1.3276463554890896 -0.29067683346238476 0.11348928376870947 0.39766849125763853 -0.63126913876898805 -1.5041795293154443 -1.2100122804531022 -0.054990207059304345 -0.030098852497033545 9.5000000000000018 -0.026092294767797248 0.51945810765710021 0.92582469513790588 0.42209498268707263 -0.93914290070731987 0.18583494918566323 -0.052043752396653445 1.1305262184315039
decision_type=2 2 2 2 2 2 2 2 2 2 2 2 2 2 2 2 2 2
left_child=1 3 4 6 8 -6 -1 16 -3 -4 11 -8 15 14 -12 -9 -7 -18
right_child=-2 2 9 -5 5 7 10 12 -10 -11 13 -13 -14 -15 -16 -17 17 -19
leaf_value=-0.011155176661417795 0.023382281361613425 0.010517805293202401 0.013360182568430901 -0.01623840487816117 -0.010894210898273048 0.00025283438498499214 -0.010675022647837581 0.0076175251416862018 0.0022669354340177964 0.0062271685522448808 -0.0038059138604218052 -0.001147527692373842 -0.00087515488145678924 -0.0045843356680901103 0.0050553413931629619 0.0024052979189887521 -0.0055604711594060066 -0.0012607775650741091
leaf_weight=37 25 20 22 22 21 27 23 20 20 28 21 20 24 30 20 31 20 21
leaf_count=37 25 20 22 22 21 27 23 20 20 28 21 20 24 30 20 31 20 21
internal_value=3.11643e-12 -0.00136899 0.00224509 -0.0066752 0.000499844 -0.000937358 -0.00528189 0.000524838 0.00639237 0.00936569 -0.00337564 -0.00624363 0.00274548 -0.0016387 0.00051665 0.00444931 -0.0019244 -0.00335819
internal_weight=452 427 254 173 204 164 151 143 40 50 114 43 75 71 41 51 68 41
internal_count=452 427 254 173 204 164 151 143 40 50 114 43 75 71 41 51 68 41
is_linear=0
shrinkage=0.05


Tree=38
num_leaves=18
num_cat=0
split_feature=0 1 86 53 9 82 0 1 24 81 79 9 29 30 23 25 25
split_gain=5.22314 2.95609 1.1395 0.832158 0.623672 0.861943 0.610301 0.28283 0.245757 0.212615 0.20501 0.350553 0.171757 0.261616 0.147201 0.105638 0.0427047
threshold=1.3276463554890896 -0.29067683346238476 0.11348928376870947 0.39766849125763853 -0.63126913876898805 -1.5041795293154443 -1.2100122804531022 0.37400929674962563 -0.030098852497033545 0.27484477706486865 -0.026092294767797248 0.51945810765710021 -0.019962224898448597 0.6319369351407792 0.56228341876413779 -0.006685581361534099 0.98546149135145089
decision_type=2 2 2 2 2 2 2 2 2 2 2 2 2 2 2 2 2
left_child=1 3 4 6 8 -6 -1 15 -3 -4 11 -8 -12 -14 -9 -7 -17
right_child=-2 2 9 -5 5 7 10 14 -10 -11 12 -13 13 -15 -16 16 -18
leaf_value=-0.010597417922690512 0.022213167019188407 0.0099919149302877489 0.0061228566931496413 -0.015426484867930412 -0.010349500605038234 0.0008510517825085957 -0.01014127146583 0.0063549548154696826 0.0021535887260688467 0.012728935741775095 0.0023703025793656708 -0.001090151343960315 -0.0075552307418547578 -0.00022037084281985319 0.00092472620554662384 -0.0039700387987842856 -0.0011578726735293728
leaf_weight=37 25 20 29 22 21 39 23 24 20 21 20 20 20 31 26 27 27
leaf_count=37 25 20 29 22 21 39 23 24 20 21 20 20 20 31 26 27 27
internal_value=-5.07611e-11 -0.00130054 0.00213284 -0.00634144 0.000474852 -0.00089049 -0.00501779 0.000498596 0.00607275 0.00889741 -0.00320686 -0.00593145 -0.00155676 -0.00309679 0.00353124 -0.00113186 -0.00256396
internal_weight=452 427 254 173 204 164 151 143 40 50 114 43 71 51 50 93 54
internal_count=452 427 254 173 204 164 151 143 40 50 114 43 71 51 50 93 54
is_linear=0
shrinkage=0.05


Tree=39
num_leaves=17
num_cat=0
split_feature=74 1 1 90 33 84 27 43 80 9 43 18 65 19 1 69
split_gain=4.98156 2.39523 0.971547 0.795266 0.684073 0.443096 0.326866 0.27679 0.381286 0.387798 0.251117 0.22825 0.145641 0.140743 0.0893061 0.0669088
threshold=-1.9256238627411297 -0.088477550260081431 -1.1119319651850741 0.1058093600668908 -0.071786162021515734 0.1186757515321207 0.9304762924328781 -0.25816138197704769 0.28390552507688144 0.490595422077095 -0.60520881021731177 0.43012688977135505 0.22144879089837202 -0.42520847513364274 0.30499807684583519 0.44399299169775525
decision_type=2 2 2 2 2 2 2 2 2 2 2 2 2 2 2 2
left_child=-1 2 4 5 -2 11 7 10 9 -9 -4 13 -7 -3 -15 -16
right_child=1 3 6 -5 -6 12 -8 8 -10 -11 -12 -13 -14 14 15 -17
leaf_value=0.023780033843857903 -0.018409791830927134 0.0070991682220483202 -0.0026307581353091428 -0.0040718428811340199 -0.0054890209232412637 0.010988233356990597 -0.0078163662445149395 -0.011418905068674814 0.00063760189564320555 -0.003012568091371042 0.0039649212267249823 -0.0025024675275926713 0.0055932973631946693 0.00040059844314148933 0.0023308986995482085 0.0059959299769252539
leaf_weight=21 20 20 31 37 21 22 32 23 29 34 27 20 29 33 33 20
leaf_count=21 20 20 31 37 21 22 32 23 29 34 27 20 29 33 33 20
internal_value=-2.15643e-12 -0.00115866 -0.00486019 0.00259477 -0.0117918 0.00398835 -0.00324543 -0.00222967 -0.0040299 -0.0064046 0.000439644 0.00239676 0.00792052 0.00332114 0.00244253 0.00371393
internal_weight=452 431 217 214 41 177 176 144 86 57 58 126 51 106 86 53
internal_count=452 431 217 214 41 177 176 144 86 57 58 126 51 106 86 53
is_linear=0
shrinkage=0.05


Tree=40
num_leaves=18
num_cat=0
split_feature=86 1 15 57 29 1 78 93 80 77 25 53 22 84 84 21 61
split_gain=4.72167 2.38491 0.892062 0.730027 0.535814 0.50955 0.488444 0.374041 0.472682 0.345324 0.272315 0.218526 0.179149 0.162062 0.141956 0.0880823 0.0309856
threshold=0.23103125954822556 -0.29067683346238476 0.54440861889504599 0.48246196108727629 -0.7415511092929068 0.095868700509791724 -1.3503334056998468 1.0000000180025095e-35 0.29852335144587122 0.1185688224036774 -0.20919726759352436 0.14073799487426297 0.34565523138776794 0.072335592822913908 0.1186757515321207 -0.37338955397231305 0.07672651416162786
decision_type=2 2 2 2 2 2 2 2 2 2 2 2 2 2 2 2 2
left_child=1 3 4 7 -3 13 -4 8 -1 -5 -9 -10 -8 -6 15 -7 -17
right_child=-2 2 6 9 5 14 12 10 11 -11 -12 -13 -14 -15 -16 16 -18
leaf_value=-0.01140578088637155 0.021580658598880597 0.011482960275607183 -0.0089730494761500849 -0.015807943134790375 -0.0028372680890913077 0.0063315922034565698 0.002441274484153837 -0.0034349040208577087 -0.0062056317222483745 -0.0072589945263677727 0.0041489457851275804 0.00048502509522697202 -0.0033544483677057238 0.0026358512984145255 0.0077759767702269946 0.003729487031698227 0.0011865446313648769
leaf_weight=26 24 20 22 21 38 22 30 29 26 27 20 23 24 21 31 25 23
leaf_count=26 24 20 22 21 38 22 30 29 26 27 20 23 24 21 31 25 23
internal_value=-2.63737e-11 -0.00121013 0.00184921 -0.00576357 0.00376708 0.00280259 -0.0026931 -0.00373689 -0.00595655 -0.0109992 -0.000339455 -0.00306512 -0.000134602 -0.000889209 0.00495919 0.00371175 0.00251099
internal_weight=452 428 256 172 180 160 76 124 75 48 49 49 54 59 101 70 48
internal_count=452 428 256 172 180 160 76 124 75 48 49 49 54 59 101 70 48
is_linear=0
shrinkage=0.05


Tree=41
num_leaves=19
num_cat=0
split_feature=72 1 9 82 0 33 58 56 70 15 83 25 42 88 92 33 19 80
split_gain=4.40853 1.89625 0.670643 0.612233 0.574056 0.537893 0.292746 0.280802 0.377759 0.254847 0.17267 0.255928 0.166686 0.147346 0.12619 0.12194 0.0968546 0.0644408
threshold=-1.7285256338314559 -0.32271859405882458 -0.63126913876898805 -1.5041795293154443 -1.2100122804531022 -0.056202006769837345 -0.054990207059304345 -0.33891233935000881 -0.19780515951339597 0.51586159209443927 0.43753951271902963 -0.46239231216945037 -1.0462623308674268 -0.0094625876771143487 12.500000000000002 1.0746312869529646 -0.30893153765998621 -0.070072799506851843
decision_type=2 2 2 2 2 2 2 2 2 2 2 2 2 2 2 2 2 2
left_child=-1 4 10 -4 5 -2 14 12 15 13 -3 -12 -6 -8 17 -9 -16 -5
right_child=1 2 3 6 7 -7 9 8 -10 -11 11 -13 -14 -15 16 -17 -18 -19
leaf_value=0.022949563774745912 -0.016093352836157596 0.0022857039678661575 -0.0082283673857870918 -0.00097109325632283635 -0.0031277747584446784 -0.0049058994955637238 0.0028484312663786117 -0.00019229074358008804 -0.011108075012452902 -0.00017475001125906905 0.0027839842482492152 0.0099808496609330184 0.0027269860543310646 0.0085296120738521924 0.0032323219591663 -0.0056474969811027963 -0.0015149424847384746 -0.0046814700681716203
leaf_weight=20 21 31 21 22 31 22 25 20 22 36 21 30 20 21 21 21 22 25
leaf_count=20 21 31 21 22 31 22 25 20 22 36 21 30 20 21 21 21 22 25
internal_value=8.28043e-12 -0.00106248 0.00144051 -0.000168937 -0.0054467 -0.0103695 0.000815063 -0.00358984 -0.00582255 0.00297612 0.00522861 0.00701743 -0.00083179 0.00544201 -0.0011539 -0.00298642 0.000803489 -0.0029447
internal_weight=452 432 275 193 157 43 172 114 63 82 82 51 51 46 90 41 43 47
internal_count=452 432 275 193 157 43 172 114 63 82 82 51 51 46 90 41 43 47
is_linear=0
shrinkage=0.05


Tree=42
num_leaves=18
num_cat=0
split_feature=86 1 15 53 72 78 1 0 66 79 17 37 69 6 84 21 46
split_gain=4.10234 1.97002 0.752313 0.667194 0.459445 0.427861 0.425123 0.404422 0.198012 0.175562 0.304827 0.154947 0.149126 0.142082 0.130967 0.0800239 0.0315076
threshold=0.23103125954822556 -0.29067683346238476 0.54440861889504599 0.39766849125763853 -0.74559830279426775 -1.3503334056998468 0.095868700509791724 -1.2100122804531022 0.069002308122701514 -0.026092294767797248 0.48756999483341673 0.072940021457824814 0.22309776129003553 -0.69647103541680144 0.1186757515321207 -0.37338955397231305 -0.022772826507144999
decision_type=2 2 2 2 2 2 2 2 2 2 2 2 2 2 2 2 2
left_child=1 3 4 7 -3 -4 11 -1 -7 10 -9 -6 -11 -14 15 -8 -17
right_child=-2 2 5 -5 6 8 14 9 -10 12 -12 -13 13 -15 -16 16 -18
leaf_value=-0.0086109549889492026 0.020115600254697108 0.010364673100411892 -0.0083964142112315388 -0.013397858359596946 -0.0035910121651665707 0.0024837269905894515 0.0057176532838969837 -0.0094102888600900783 -0.003639323816067823 0.0025867808563634753 -0.00089102436350436791 0.0015807240514550359 8.0425758362532809e-05 -0.0051987790465354922 0.0070988423336530108 0.00068383240590760993 0.003278282054270676
leaf_weight=37 24 21 22 22 28 31 22 21 23 20 21 30 26 25 32 22 25
leaf_count=37 24 21 22 22 28 31 22 21 23 20 21 30 26 25 32 22 25
internal_value=9.12593e-12 -0.00112798 0.00165256 -0.00526645 0.0034138 -0.00251882 0.00249576 -0.00407384 -0.000124239 -0.00258823 -0.00515066 -0.000915976 -0.00107243 -0.00250742 0.00445498 0.00322884 0.00206386
internal_weight=452 428 256 172 180 76 159 150 54 113 42 58 71 51 101 69 47
internal_count=452 428 256 172 180 76 159 150 54 113 42 58 71 51 101 69 47
is_linear=0
shrinkage=0.05


end of trees

feature_importances:
Column_84=83
Column_1=77
Column_0=53
Column_86=32
Column_9=30
Column_15=20
Column_33=18
Column_37=18
Column_62=16
Column_25=15
Column_90=14
Column_81=11
Column_53=10
Column_57=9
Column_74=9
Column_82=9
Column_11=8
Column_41=8
Column_50=7
Column_58=7
Column_72=7
Column_10=6
Column_19=6
Column_21=6
Column_26=6
Column_29=6
Column_38=6
Column_43=6
Column_52=6
Column_61=6
Column_65=6
Column_69=6
Column_75=6
Column_78=6
Column_83=6
Column_92=6
Column_3=5
Column_4=5
Column_6=5
Column_12=5
Column_17=5
Column_18=5
Column_30=5
Column_32=5
Column_39=5
Column_46=5
Column_64=5
Column_66=5
Column_79=5
Column_85=5
Column_7=4
Column_13=4
Column_23=4
Column_27=4
Column_31=4
Column_44=4
Column_51=4
Column_70=4
Column_73=4
Column_76=4
Column_88=4
Column_93=4
Column_5=3
Column_14=3
Column_22=3
Column_34=3
Column_47=3
Column_48=3
Column_56=3
Column_80=3
Column_94=3
Column_95=3
Column_2=2
Column_8=2
Column_20=2
Column_24=2
Column_28=2
Column_42=2
Column_49=2
Column_55=2
Column_59=2
Column_60=2
Column_63=2
Column_77=2
Column_35=1
Column_45=1
Column_54=1
Column_67=1
Column_68=1
Column_71=1
Column_87=1

parameters:
[boosting: gbdt]
[objective: regression]
[metric: rmse]
[tree_learner: serial]
[device_type: cpu]
[data_sample_strategy: bagging]
[data: ]
[valid: ]
[num_iterations: 1500]
[learning_rate: 0.05]
[num_leaves: 31]
[num_threads: 0]
[seed: 42]
[deterministic: 0]
[force_col_wise: 0]
[force_row_wise: 0]
[histogram_pool_size: -1]
[max_depth: -1]
[min_data_in_leaf: 20]
[min_sum_hessian_in_leaf: 0.001]
[bagging_fraction: 0.8]
[pos_bagging_fraction: 1]
[neg_bagging_fraction: 1]
[bagging_freq: 0]
[bagging_seed: 400]
[bagging_by_query: 0]
[feature_fraction: 0.8]
[feature_fraction_bynode: 1]
[feature_fraction_seed: 30056]
[extra_trees: 0]
[extra_seed: 12879]
[early_stopping_round: 0]
[early_stopping_min_delta: 0]
[first_metric_only: 0]
[max_delta_step: 0]
[lambda_l1: 0]
[lambda_l2: 0]
[linear_lambda: 0]
[min_gain_to_split: 0]
[drop_rate: 0.1]
[max_drop: 50]
[skip_drop: 0.5]
[xgboost_dart_mode: 0]
[uniform_drop: 0]
[drop_seed: 17869]
[top_rate: 0.2]
[other_rate: 0.1]
[min_data_per_group: 100]
[max_cat_threshold: 32]
[cat_l2: 10]
[cat_smooth: 10]
[max_cat_to_onehot: 4]
[top_k: 20]
[monotone_constraints: ]
[monotone_constraints_method: basic]
[monotone_penalty: 0]
[feature_contri: ]
[forcedsplits_filename: ]
[refit_decay_rate: 0.9]
[cegb_tradeoff: 1]
[cegb_penalty_split: 0]
[cegb_penalty_feature_lazy: ]
[cegb_penalty_feature_coupled: ]
[path_smooth: 0]
[interaction_constraints: ]
[verbosity: -1]
[saved_feature_importance_type: 0]
[use_quantized_grad: 0]
[num_grad_quant_bins: 4]
[quant_train_renew_leaf: 0]
[stochastic_rounding: 1]
[linear_tree: 0]
[max_bin: 255]
[max_bin_by_feature: ]
[min_data_in_bin: 3]
[bin_construct_sample_cnt: 200000]
[data_random_seed: 175]
[is_enable_sparse: 1]
[enable_bundle: 1]
[use_missing: 1]
[zero_as_missing: 0]
[feature_pre_filter: 1]
[pre_partition: 0]
[two_round: 0]
[header: 0]
[label_column: ]
[weight_column: ]
[group_column: ]
[ignore_column: ]
[categorical_feature: ]
[forcedbins_filename: ]
[precise_float_parser: 0]
[parser_config_file: ]
[objective_seed: 16083]
[num_class: 1]
[is_unbalance: 0]
[scale_pos_weight: 1]
[sigmoid: 1]
[boost_from_average: 1]
[reg_sqrt: 0]
[alpha: 0.9]
[fair_c: 1]
[poisson_max_delta_step: 0.7]
[tweedie_variance_power: 1.5]
[lambdarank_truncation_level: 30]
[lambdarank_norm: 1]
[label_gain: ]
[lambdarank_position_bias_regularization: 0]
[eval_at: ]
[multi_error_top_k: 1]
[auc_mu_weights: ]
[num_machines: 1]
[local_listen_port: 12400]
[time_out: 120]
[machine_list_filename: ]
[machines: ]
[gpu_platform_id: -1]
[gpu_device_id: -1]
[gpu_use_dp: 0]
[num_gpu: 1]

end of parameters

pandas_categorical:null
