tree
version=v4
num_class=1
num_tree_per_iteration=1
label_index=0
max_feature_idx=96
objective=regression
feature_names=Column_0 Column_1 Column_2 Column_3 Column_4 Column_5 Column_6 Column_7 Column_8 Column_9 Column_10 Column_11 Column_12 Column_13 Column_14 Column_15 Column_16 Column_17 Column_18 Column_19 Column_20 Column_21 Column_22 Column_23 Column_24 Column_25 Column_26 Column_27 Column_28 Column_29 Column_30 Column_31 Column_32 Column_33 Column_34 Column_35 Column_36 Column_37 Column_38 Column_39 Column_40 Column_41 Column_42 Column_43 Column_44 Column_45 Column_46 Column_47 Column_48 Column_49 Column_50 Column_51 Column_52 Column_53 Column_54 Column_55 Column_56 Column_57 Column_58 Column_59 Column_60 Column_61 Column_62 Column_63 Column_64 Column_65 Column_66 Column_67 Column_68 Column_69 Column_70 Column_71 Column_72 Column_73 Column_74 Column_75 Column_76 Column_77 Column_78 Column_79 Column_80 Column_81 Column_82 Column_83 Column_84 Column_85 Column_86 Column_87 Column_88 Column_89 Column_90 Column_91 Column_92 Column_93 Column_94 Column_95 Column_96
feature_infos=[-2.1998833971435583:3.8692245819541] [-2.7311108107751423:2.9342347356773439] [-1.8657831647695711:3.0072490900536955] [-2.5529133812149469:1.6101919081681242] [-2.1998833971435583:3.8692245819541] [-2.1998833971435583:3.8692245819541] [-2.1998833971435583:3.8692245819541] [-2.1998833971435583:3.8692245819541] [-2.1998833971435583:3.8692245819541] [-2.1998833971435583:3.8692245819541] [-2.1998833971435583:3.8692245819541] [-2.1998833971435583:3.8692245819541] [-1.9320007597494584:2.9342347356773439] [-1.859047007532957:2.9342347356773439] [-1.859047007532957:2.9342347356773439] [-1.859047007532957:2.9342347356773439] [-1.859047007532957:2.9342347356773439] [-1.859047007532957:2.9342347356773439] [-1.859047007532957:2.9342347356773439] [-1.859047007532957:2.9342347356773439] [-1.8657831647695711:3.0072490900536955] [-1.8657831647695711:3.0072490900536955] [-1.8657831647695711:3.0072490900536955] [-1.8657831647695711:3.0072490900536955] [-1.8657831647695711:3.0072490900536955] [-1.8657831647695711:3.0072490900536955] [-1.8657831647695711:3.0072490900536955] [-1.8657831647695711:3.0072490900536955] [-2.5529133812149469:1.6101919081681242] [-2.5529133812149469:1.6101919081681242] [-2.5529133812149469:1.6101919081681242] [-2.5529133812149469:1.6101919081681242] [-2.5529133812149469:1.6101919081681242] [-2.5529133812149469:1.6101919081681242] [-2.5529133812149469:1.6101919081681242] [-2.5529133812149469:1.6101919081681242] [-2.1943998713224748:3.860955103998494] [0:0.64091636210500835] [-2.1998833971435583:3.8444161480872814] [-2.1834328196803083:3.8692245819541] [-2.0502608434919503:3.4667554410842456] [0.0129357168687007:1.1990447202872401] [-2.1998833971435583:2.7114340270781718] [-1.9712402670866471:3.8692245819541] [-1.932948267045105:2.5960032455690443] [0.035760317866485598:1.9186767675887024] [-2.1998833971435583:0.93753554396405259] [-1.5914568726755396:3.8692245819541] [-1.9320007597494584:2.9254944873857887] [0:0.79911005102568644] [-2.7311108107751423:2.9080139908026763] [-1.8127682122186928:2.9342347356773439] [-1.7851311521189921:2.6127850031769086] [0.0046847623953103004:1.0089541756083835] [-2.7311108107751423:2.0092166554880402] [-1.6979244302412551:2.9342347356773439] [-1.6596775770260204:1.9378983043868172] [0.011542011266000501:1.4832385927490881] [-2.7311108107751423:0.67365129660583112] [-1.387882022303996:2.9342347356773439] [-1.8451540357335789:2.9846685901421126] [0:0.49400127039002178] [-1.8657831647695711:2.9395075903189469] [-1.8038957776615949:3.0072490900536955] [-1.7884380586968991:2.6892051597494797] [0.00096666584179219998:0.92419175121524899] [-1.8657831647695711:2.3001479859722864] [-1.6801210034456429:3.0072490900536955] [-1.6595342578465446:2.257648937546501] [0.013313685757746999:1.4763124206384557] [-1.8657831647695711:1.7148842870889596] [-1.4325714550137381:3.0072490900536955] [-2.5495322579552977:1.6063346788399731] [0:1.0209555603838525] [-2.5529133812149469:1.598620220183671] [-2.5427700114360001:1.6101919081681242] [-2.5360077649167021:1.5909057615273687] [0.0031661635704869:1.0864902026921488] [-2.5529133812149469:1.5639051562303117] [-2.5123399020991601:1.6101919081681242] [-2.3875739120518031:1.5257770023605477] [0.028997445992063699:1.41763179728068] [-2.5529133812149469:1.3346398443358181] [-1.7649108450292197:1.6101919081681242] [-0.93079171113892045:0.76220274489637097] [-1.5329573266440155:1.4299605693017208] [-1.0943781514118989:0.49708783356833369] [-1.0493859139424051:1.0943781514118989] [-0.4940012703900109:0.52971369659365941] [-0.52971369659365941:0.53547822385846622] [-0.58075344179437127:1.6123283976638283] [-1.3334356291427802:1.6123283976638283] [0:23] [-1:1] [-1:1] [0:5] [0:5]
tree_sizes=1678 1764 1517 1773 1599 1689 1594 1772 1776 1690 1690 1596 1609 1519 1607 1685 1696 1613 1695 1609 1611 1695 1706 1783 1702 1722 1790 1709 1715 1801 1709 1537 1710 1711 1809 1717 1635 1639 1720 1637 1626 1723 1555 1729 1724 1729 1730 1644 1653 1815 1720 1649 1645 1555

Tree=0
num_leaves=18
num_cat=0
split_feature=1 86 1 1 53 86 84 84 84 56 77 15 1 94 36 38 16
split_gain=137.008 38.2948 30.3142 15.608 12.7743 7.34739 6.57325 5.69721 3.7812 3.1127 1.96827 1.89936 1.43768 1.06972 0.695913 0.573348 0.549768
threshold=-0.28519069771283434 0.11348928376870947 -0.97946290720034301 0.3593353588345331 0.33411457245814041 -0.065194331319870694 -0.032440552154191095 -0.057176381690681545 -0.057176381690681344 -0.30674334861773433 0.098392629430413062 0.60466793606011604 0.60045617641879956 0.37940952255126043 -0.017240044925172195 0.017363098566261403 -0.25776604379693585
decision_type=2 2 2 2 2 2 2 2 2 2 2 2 2 2 2 2 2
left_child=2 3 5 8 9 -1 11 -4 15 -3 -9 -5 -8 -10 -15 -2 -12
right_child=1 4 7 6 -6 -7 12 10 13 -11 16 -13 -14 14 -16 -17 -18
leaf_value=-0.16031896342651919 -0.087458948446835952 -0.042673595416247823 -0.10806729217188432 -0.045995777669716603 0.020214829397033923 -0.12144795231259095 -0.040535609394220372 -0.098126665856810263 -0.06958939121342865 -0.014777821201253656 -0.07537094302814272 -0.067064076004539314 -0.024036753398539897 -0.064095268278293122 -0.051223064712425229 -0.075908668683222047 -0.084291578015427637
leaf_weight=20 21 20 35 20 20 31 23 20 34 20 31 23 31 21 21 22 39
leaf_count=20 21 20 35 20 20 31 23 20 34 20 31 23 31 21 21 22 39
internal_value=-0.0697322 -0.0477498 -0.104205 -0.0575657 -0.0124122 -0.136691 -0.0426788 -0.0909501 -0.0697004 -0.0287257 -0.0842934 -0.0572649 -0.031064 -0.0629964 -0.0576592 -0.0815495 -0.080341
internal_weight=452 276 176 216 60 51 97 125 119 40 90 43 54 76 42 43 70
internal_count=452 276 176 216 60 51 97 125 119 40 90 43 54 76 42 43 70
is_linear=0
shrinkage=1


Tree=1
num_leaves=19
num_cat=0
split_feature=1 86 1 1 53 84 84 84 56 12 77 15 1 94 4 16 38 20
split_gain=123.65 34.561 27.6777 14.0862 11.5288 6.89741 5.93236 3.41253 2.80921 2.76914 2.24257 1.71418 1.29751 0.965426 0.625968 0.563293 0.517447 0.294112
threshold=-0.28519069771283434 0.11348928376870947 -1.1325285850239051 0.3593353588345331 0.33411457245814041 -0.057176381690681545 -0.032440552154191095 -0.057176381690681344 -0.30674334861773433 -0.49147853521017554 0.098392629430413062 0.60466793606011604 0.60045617641879956 0.37940952255126043 -0.031423290593275789 -0.25776604379693585 0.017363098566261403 -0.026801711745409799
decision_type=2 2 2 2 2 2 2 2 2 2 2 2 2 2 2 2 2 2
left_child=2 3 -1 7 8 9 11 16 -3 -4 -7 -5 -8 -9 -15 -12 -2 -17
right_child=1 4 5 6 -6 10 12 13 -10 -11 15 -13 -14 14 -16 17 -18 -19
leaf_value=-0.070534452835195938 -0.01684040461799928 0.025705680381506682 -0.052082641209874839 0.022549607157707215 0.085449686497449884 -0.027828966090455654 0.027736768061700074 0.00013567442622254878 0.052206665873527527 -0.026405445983012518 -0.005356799964342387 0.0025347237414477964 0.043410681284243066 0.0050673590932274236 0.017289414070546627 -0.010048952044453472 -0.0058676390562058343 -0.018623794466257098
leaf_weight=38 21 20 21 20 20 25 23 34 20 21 31 23 31 20 22 20 22 20
leaf_count=38 21 20 21 20 20 25 23 34 20 21 31 23 31 20 22 20 22 20
internal_value=-5.52586e-11 0.0208833 -0.0327489 0.0115581 0.054454 -0.0223441 0.0257007 3.01737e-05 0.0389562 -0.039244 -0.0149504 0.011844 0.0367348 0.00639904 0.0114694 -0.0104157 -0.0112264 -0.0143364
internal_weight=452 276 176 216 60 138 97 119 40 42 96 43 54 76 42 71 43 40
internal_count=452 276 176 216 60 138 97 119 40 42 96 43 54 76 42 71 43 40
is_linear=0
shrinkage=0.05


Tree=2
num_leaves=16
num_cat=0
split_feature=1 1 84 84 15 84 73 1 84 84 48 43 10 15 35
split_gain=111.702 39.6461 26.9202 9.42156 8.56558 5.53173 4.91747 4.08988 2.45775 1.76007 1.37848 1.15427 1.02148 0.944218 0.935243
threshold=0.036167110593887657 -0.79687535000149312 0.19373006142676716 -0.11864472003505189 0.59605016239856712 0.01539679914969975 0.053804140930278958 0.44027028361204873 0.043212275235995655 -0.072940021457823925 -0.3700509818814855 0.23928806023577107 -0.47192094981605903 0.21483511139169051 -0.019962224898448597
decision_type=2 2 2 2 2 2 2 2 2 2 2 2 2 2 2
left_child=1 3 4 -1 7 6 -3 11 -5 -8 -7 -2 -6 -9 -11
right_child=2 5 -4 8 12 10 9 13 -10 14 -12 -13 -14 -15 -16
leaf_value=-0.082712972589901512 0.0075028904911596337 -0.035590519096988897 0.066296774933212677 -0.052605427861213687 0.0086456542269193713 -0.0054302625301660915 -0.020633937709146379 0.043693525314331058 -0.0290896038338542 -0.012346605556633543 0.0091342062041803729 0.023116630829613787 -0.0057515833145854152 0.030811233310536909 -0.00053053365201886861
leaf_weight=21 20 26 38 25 28 33 33 25 20 34 32 29 22 33 33
leaf_count=21 20 26 38 25 28 33 33 25 20 34 32 29 22 33 33
internal_value=-7.53094e-11 -0.0216512 0.0285352 -0.0550591 0.0193955 -0.0101072 -0.0162188 0.027379 -0.042154 -0.0111821 0.00173994 0.0167437 0.00231087 0.0363639 -0.00652675
internal_weight=452 257 195 66 157 191 126 107 45 100 65 49 50 58 67
internal_count=452 257 195 66 157 191 126 107 45 100 65 49 50 58 67
is_linear=0
shrinkage=0.05


Tree=3
num_leaves=19
num_cat=0
split_feature=1 1 1 84 84 84 1 84 12 77 49 84 46 84 77 35 82 71
split_gain=101.133 28.3619 22.9695 13.2098 8.71599 5.51659 5.00515 3.97411 2.21567 1.85664 1.48486 1.11774 1.08744 0.905289 0.682348 0.47856 0.387814 0.310184
threshold=-0.28519069771283434 0.54979549468444489 -1.1325285850239051 0.20022062788549663 -0.016473108283934546 -0.057176381690681545 0.15682118588128821 -0.042450699919102441 -0.49147853521017554 0.098392629430413062 0.043829149008027805 0.030649518430423951 -0.022772826507144999 0.12798579181942529 0.29950236816009862 0.21149153126750608 -0.44695084726052697 0.097583690394631314
decision_type=2 2 2 2 2 2 2 2 2 2 2 2 2 2 2 2 2 2
left_child=2 4 -1 7 10 8 13 -3 -4 -7 -2 -8 -9 16 -12 17 -6 -11
right_child=1 3 5 -5 6 9 11 12 -10 15 14 -13 -14 -15 -16 -17 -18 -19
leaf_value=-0.064039438413946256 0.0064052943817593843 0.014778825049491032 -0.046736859139941994 0.077899003028869637 0.0084656418766826391 -0.025244570314884186 0.022827809862792495 0.04727960675954819 -0.023768589503708342 -0.0088255512796772215 -0.0039619717361347286 0.038832485303282739 0.031845833503064656 0.016913841608911753 -0.014866963502180836 -0.003832143418490887 -0.0010543622024124489 -0.017107963971793653
leaf_weight=38 22 23 21 20 23 25 24 25 21 26 32 20 21 20 26 25 20 20
leaf_count=38 22 23 21 20 23 25 24 25 21 26 32 20 21 20 26 25 20 20
internal_value=-9.22051e-12 0.0188864 -0.0296174 0.0421196 0.00782892 -0.0201388 0.0171628 0.0317488 -0.0352527 -0.0135265 -0.0046551 0.0301027 0.0402338 0.00812539 -0.00885042 -0.00940038 0.00403773 -0.0124266
internal_weight=452 276 176 89 187 138 107 69 42 96 80 44 46 63 58 71 43 46
internal_count=452 276 176 89 187 138 107 69 42 96 80 44 46 63 58 71 43 46
is_linear=0
shrinkage=0.05


Tree=4
num_leaves=17
num_cat=0
split_feature=1 1 86 86 84 1 84 77 1 84 35 50 41 69 1 16
split_gain=91.3823 32.3187 22.2392 8.8763 8.27558 4.86639 4.6596 3.47169 2.18163 2.01269 1.86503 1.11535 1.05889 0.820099 0.725312 0.704394
threshold=0.036167110593887657 -0.79687535000149312 0.18868722849277977 -0.027220897243970945 -0.11864472003505189 0.47758572713924058 0.01539679914969975 0.14916566144513302 0.54979549468444489 0.043212275235995655 -0.019962224898448597 -0.63510521856647772 0.22327616946884007 0.22126166362468311 0.17577658583626338 -0.26786587853169791
decision_type=2 2 2 2 2 2 2 2 2 2 2 2 2 2 2 2
left_child=1 4 3 8 -1 14 7 -3 -2 -6 13 -8 -7 -9 -5 -13
right_child=2 6 -4 5 9 12 11 10 -10 -11 -12 15 -14 -15 -16 -17
leaf_value=-0.075663728231475477 -0.0026491447200847639 -0.030661955175714364 0.074414153184209561 0.010446694740094246 -0.047109283685684206 0.032067595698215344 -0.0071378831164506471 -0.010314217660455935 0.015849399847710239 -0.025828881934285165 -0.0019230422593700964 0.012733547759919681 0.045945233958108088 -0.022011878649736274 0.022446514753734367 -0.00023155731847509741
leaf_weight=21 37 27 21 20 25 27 23 31 28 20 39 22 28 29 34 20
leaf_count=21 37 27 21 20 25 27 23 31 28 20 39 22 28 29 34 20
internal_value=-1.79774e-11 -0.0195831 0.0258096 0.0199435 -0.0497462 0.0286643 -0.00916032 -0.0147695 0.00531946 -0.0376513 -0.0104352 0.00171286 0.0391326 -0.0159681 0.0180021 0.00655969
internal_weight=452 257 195 174 66 109 191 126 65 45 99 65 55 60 54 42
internal_count=452 257 195 174 66 109 191 126 65 45 99 65 55 60 54 42
is_linear=0
shrinkage=0.05


Tree=5
num_leaves=18
num_cat=0
split_feature=1 1 1 15 84 84 1 84 12 77 49 33 84 77 16 23 20
split_gain=82.7893 23.2283 19.0586 11.1104 7.12689 4.45179 3.99035 2.45659 1.73569 1.54224 1.21348 1.14639 0.916161 0.613658 0.42296 0.385479 0.217593
threshold=-0.28519069771283434 0.54979549468444489 -1.1325285850239051 -0.088477550260081431 -0.016473108283934546 -0.057176381690681545 0.15682118588128821 -0.042450699919102441 -0.49147853521017554 0.098392629430413062 0.043829149008027805 0.28979477404381859 0.030649518430423951 0.29950236816009862 -0.25776604379693585 0.46022325479113108 -0.026801711745409799
decision_type=2 2 2 2 2 2 2 2 2 2 2 2 2 2 2 2 2
left_child=2 4 -1 -3 10 8 11 -5 -4 -7 -2 15 -8 -12 -11 -6 -16
right_child=1 3 5 7 6 9 12 -9 -10 14 13 -13 -14 -15 16 -17 -18
leaf_value=-0.058152002723593471 0.0057910426350479783 0.064188649718250543 -0.041904553487187343 0.013247413613388074 -0.0017732269998470493 -0.022902958292514087 0.020488873993357026 0.033951010751096827 -0.021575783512422019 -0.0040787711168729498 -0.0033644354538409972 0.01734163025394082 0.034978646039962771 -0.013705983482157956 -0.0081720604933798319 0.0076975089143074688 -0.015547575410455467
leaf_weight=38 22 28 21 23 22 25 24 38 21 31 32 20 20 26 20 21 20
leaf_count=38 22 28 21 23 22 25 24 38 21 31 32 20 20 26 20 21 20
internal_value=-4.18271e-11 0.0170879 -0.026797 0.0381136 0.00708107 -0.018163 0.0155213 0.0261447 -0.0317402 -0.012223 -0.00420768 0.00745189 0.0270751 -0.0080003 -0.00846246 0.00285202 -0.0118598
internal_weight=452 276 176 89 187 138 107 61 42 96 80 63 44 58 71 43 40
internal_count=452 276 176 89 187 138 107 61 42 96 80 63 44 58 71 43 40
is_linear=0
shrinkage=0.05


Tree=6
num_leaves=17
num_cat=0
split_feature=1 1 86 15 53 84 1 73 84 10 41 49 48 1 84 69
split_gain=74.7852 25.6271 19.1773 7.91313 7.56706 4.25144 3.4893 3.36792 1.34778 1.29683 1.23488 1.09978 0.921854 0.89811 0.573799 0.517354
threshold=0.0099337554118139517 -0.79687535000149312 0.18868722849277977 0.59605016239856712 0.30250153814789987 0.01539679914969975 0.47758572713924058 0.061057693473528053 -0.017839287767843246 -0.38567671467044251 0.28478911874302543 0.074925291318947013 -0.3700509818814855 0.15682118588128821 0.030649518430423951 0.25360510851475598
decision_type=2 2 2 2 2 2 2 2 2 2 2 2 2 2 2 2
left_child=1 4 3 6 11 7 13 -3 15 -5 14 -1 -7 -2 -8 -9
right_child=2 5 -4 9 -6 12 10 8 -10 -11 -12 -13 -14 -15 -16 -17
leaf_value=-0.042220221317949752 0.0077078000784082251 -0.02902755138448215 0.067943291578974038 0.0073126304231471186 -0.070624147467315199 -0.0040513444123930781 0.0222711800634861 -0.0095479620877524912 -0.0017633267598492761 -0.0088226920791203162 0.04177559153600173 -0.026699097812175748 0.0079561761858302268 0.020289681690770226 0.033633609712123869 -0.019076432819877351
leaf_weight=21 23 29 21 33 20 33 25 29 35 20 22 25 31 37 20 28
leaf_count=21 23 29 21 33 20 33 25 29 35 20 22 25 31 37 20 28
internal_value=5.9959e-11 -0.0181999 0.0227273 0.0174521 -0.0449483 -0.00865729 0.0242245 -0.0141698 -0.00948639 0.00122383 0.0320674 -0.0337848 0.0017648 0.0154666 0.0273211 -0.0142286
internal_weight=452 251 201 180 66 185 127 121 92 53 67 46 64 60 45 57
internal_count=452 251 201 180 66 185 127 121 92 53 67 46 64 60 45 57
is_linear=0
shrinkage=0.05


Tree=7
num_leaves=19
num_cat=0
split_feature=1 86 1 1 53 84 84 86 44 12 39 1 15 1 18 81 80 86
split_gain=67.7126 19.5526 15.8078 7.77424 6.83026 3.63707 3.24907 1.90001 1.53751 1.42161 1.29035 0.9716 0.944849 0.798187 0.609299 0.586575 0.49724 0.321719
threshold=-0.28519069771283434 0.11348928376870947 -1.1325285850239051 0.3593353588345331 0.33411457245814041 -0.057176381690681545 -0.032440552154191095 -0.030746408681701445 -0.30743416990141353 -0.49147853521017554 -0.26182695838977599 -0.69500287924374304 0.62977837933206648 0.60045617641879956 0.49352194082270584 0.42209498268707263 -0.61693961768461181 -0.16152535778973584
decision_type=2 2 2 2 2 2 2 2 2 2 2 2 2 2 2 2 2 2
left_child=2 3 -1 7 8 9 12 17 -3 -4 11 -7 -5 -8 16 -13 -9 -2
right_child=1 4 5 6 -6 10 13 14 -10 -11 -12 15 -14 -15 -16 -17 -18 -19
leaf_value=-0.052790492831876402 -0.012651643417775632 0.018972675632685426 -0.037842186504886272 0.015603064527006253 0.064561956375837323 -0.017060606092924164 0.020054881987364395 0.0018244785419665279 0.038578227907419209 -0.019444374988476436 -0.021957130087096068 0.0024086305394303057 0.00074348541791550819 0.032348351709304321 -0.0023260192954330703 -0.0083826822401640716 0.011936603374629012 -0.0043486424621992882
leaf_weight=38 20 20 21 23 20 21 23 20 20 21 21 20 20 31 20 34 31 28
leaf_count=38 20 20 21 23 20 21 23 20 20 21 21 20 20 31 20 34 31 28
internal_value=1.0534e-10 0.0154539 -0.0242345 0.00843986 0.0407043 -0.0163712 0.0189464 -0.000124294 0.0287755 -0.0286433 -0.0110022 -0.00793482 0.00869163 0.0271122 0.00507048 -0.0043859 0.00797106 -0.00780823
internal_weight=452 276 176 216 60 138 97 119 40 42 96 75 43 54 71 54 51 48
internal_count=452 276 176 216 60 138 97 119 40 42 96 75 43 54 71 54 51 48
is_linear=0
shrinkage=0.05


Tree=8
num_leaves=19
num_cat=0
split_feature=1 1 86 15 84 84 73 41 84 49 50 86 58 65 9 37 69 58
split_gain=61.3964 23.0522 14.653 6.60482 6.59781 3.52937 2.96355 1.70139 1.41538 1.14699 0.855208 0.850755 0.710639 0.69054 0.637381 0.545996 0.355907 0.0845501
threshold=0.095868700509791724 -0.79687535000149312 0.18868722849277977 0.60466793606011604 -0.11864472003505189 0.01539679914969975 0.061057693473528053 0.35536511954518818 0.043212275235995655 0.065434971428317515 -0.63510521856647772 0.053707525763900657 -0.28519069771283434 0.15549782803417478 -0.43290498612647504 0.09765323913190456 0.26970928307357983 0.10176147501518806
decision_type=2 2 2 2 2 2 2 2 2 2 2 2 2 2 2 2 2 2
left_child=1 4 3 7 -1 6 -3 11 -6 12 -7 14 -8 -5 -2 -12 -11 -16
right_child=2 5 -4 13 8 10 9 -9 -10 16 15 -13 -14 -15 17 -17 -18 -19
leaf_value=-0.063740472992261252 0.025020004596029013 -0.025041650782429405 0.063184716701507576 0.0081658823182806373 -0.037730687558650972 -0.005805521921011741 -0.0076437038633771041 0.036964684511934014 -0.019885238111019138 -0.0091635549953207381 0.001212875744178226 0.028137802829345068 0.0031427143249087609 -0.0044138124852906918 0.011998573364689947 0.011738778798925606 -0.018483326211571696 0.016490424322811042
leaf_weight=21 21 31 20 20 25 23 37 21 20 20 28 30 26 24 20 22 21 22
leaf_count=21 21 31 20 20 25 23 37 21 20 20 28 30 26 24 20 22 21 22
internal_value=2.29998e-11 -0.0148528 0.0228632 0.0177592 -0.0405988 -0.00668333 -0.0114727 0.0241103 -0.0297994 -0.00742815 0.00217379 0.0212077 -0.00319217 0.00130423 0.0179076 0.00584427 -0.0139371 0.0143514
internal_weight=452 274 178 158 66 208 135 114 45 104 73 93 63 44 63 50 41 42
internal_count=452 274 178 158 66 208 135 114 45 104 73 93 63 44 63 50 41 42
is_linear=0
shrinkage=0.05


Tree=9
num_leaves=18
num_cat=0
split_feature=1 1 86 86 27 84 1 61 12 9 1 81 0 41 11 43 23
split_gain=55.5293 19.0078 14.2949 5.88371 4.87341 4.09838 2.96519 2.24193 1.40824 1.40644 1.35645 0.849651 0.685681 0.642173 0.464111 0.457733 0.136812
threshold=0.0099337554118139517 -1.0307528405532231 0.18868722849277977 -0.027220897243970945 0.31315286584427016 -0.072940021457823925 0.47758572713924058 0.066235814688109462 -0.30505423388454206 -0.63126913876898805 0.54979549468444489 0.35515258393066823 -0.63126913876898805 0.22327616946884007 0.22320640551710028 0.23928806023577107 -0.068630938967417579
decision_type=2 2 2 2 2 2 2 2 2 2 2 2 2 2 2 2 2
left_child=1 4 3 10 -1 8 15 11 -3 -9 14 -7 -11 -8 -2 -5 -13
right_child=2 5 -4 6 -6 7 13 9 -10 12 -12 16 -14 -15 -16 -17 -18
leaf_value=-0.030514008631663665 -0.0069968815959079878 -0.029569341868162159 0.058622106767836073 0.0079974986054003241 -0.062829670235514654 -0.020601582517847421 0.024948093957371183 0.010075594289586522 -0.013242708956490138 -0.0097695559953097956 0.012221996831275258 -0.010849891483251538 0.00077111586967172727 0.035755379551223349 0.003527081285137683 0.017479688823223115 -0.0050715913530439138
leaf_weight=28 22 25 21 20 20 20 27 26 28 27 28 21 36 28 20 35 20
leaf_count=28 22 25 21 20 20 20 27 26 28 27 28 21 36 28 20 35 20
internal_value=-5.06098e-12 -0.0156828 0.019584 0.0150295 -0.0439789 -0.00899208 0.0222408 -0.00476909 -0.020944 0.000291546 0.00369752 -0.0121526 -0.00374631 0.03045 -0.00198547 0.0140316 -0.00803121
internal_weight=452 251 201 180 48 203 110 150 53 89 70 61 63 55 42 55 41
internal_count=452 251 201 180 48 203 110 150 53 89 70 61 63 55 42 55 41
is_linear=0
shrinkage=0.05


Tree=10
num_leaves=18
num_cat=0
split_feature=0 48 86 84 84 86 30 51 48 53 54 19 18 69 66 53 37
split_gain=49.5885 13.0154 12.306 5.23087 5.05514 4.76916 2.51577 2.25508 1.8771 1.75409 1.17634 0.909017 1.06603 0.888807 0.564475 0.515993 0.356886
threshold=0.11229577689006585 -0.82000819895763366 0.18868722849277977 -0.072940021457823925 0.096254416667026207 -0.027220897243970945 -1.4183779527098845 0.5019175485585593 -0.30060065736259844 0.22835622658103433 0.57200981416650964 -0.9603757576190397 0.078437181322157712 0.18537626552111133 -0.23461220298820115 0.20255068047886651 0.068790408726521465
decision_type=2 2 2 2 2 2 2 2 2 2 2 2 2 2 2 2 2
left_child=1 4 5 8 9 10 -5 16 -3 -1 -2 -8 13 -13 -14 -9 -7
right_child=2 3 -4 6 -6 7 11 15 -10 -11 -12 12 14 -15 -16 -17 -18
leaf_value=-0.033816861361265181 -0.002527597946520414 -0.031367457498951506 0.057094376236200332 -0.018894600976186449 -0.014869348105529083 0.011651710087828565 0.0087723700714338101 0.024551170259714129 -0.012606945289686944 -0.054757797196507453 0.011610896647990948 -0.0058394524734467273 -0.0012469112026420508 0.0073067843435435653 -0.011791316919649641 0.034709840476512911 0.019989773072302344
leaf_weight=20 31 24 20 21 23 33 23 25 30 20 28 20 22 36 30 25 21
leaf_count=20 31 24 20 21 23 33 23 25 30 20 28 20 22 36 30 25 21
internal_value=8.42788e-11 -0.0136597 0.020079 -0.0075775 -0.0335474 0.0155372 -0.00282854 0.021979 -0.020945 -0.0442873 0.0041822 -0.000253068 -0.00217515 0.0026117 -0.00733022 0.0296305 0.0148943
internal_weight=452 269 183 206 63 163 152 104 54 40 59 131 108 56 52 50 54
internal_count=452 269 183 206 63 163 152 104 54 40 59 131 108 56 52 50 54
is_linear=0
shrinkage=0.05


Tree=11
num_leaves=17
num_cat=0
split_feature=1 1 1 86 86 84 81 1 86 27 32 36 11 46 84 5
split_gain=45.4734 13.4388 11.0009 6.95499 4.60611 2.43795 3.06404 1.90462 1.87221 1.19402 0.722913 0.638512 0.568419 0.548176 0.519758 0.426268
threshold=-0.29067683346238476 0.54979549468444489 -1.1325285850239051 0.17598476613352218 -0.015205797829021149 0.011522571281613251 0.32490555390487874 0.15682118588128821 -0.027220897243970945 0.81289434552109918 0.22266298927037834 -0.9087709496497266 1.0567369775008311 -0.15479005240055663 0.030649518430423951 0.10582513542065591
decision_type=2 2 2 2 2 2 2 2 2 2 2 2 2 2 2 2
left_child=2 4 -1 8 12 6 -4 10 -3 -8 -6 -7 15 -10 -9 -2
right_child=1 3 5 -5 7 11 9 14 13 -11 -12 -13 -14 -15 -16 -17
leaf_value=-0.043904894580574415 -0.0015331368156087898 0.011030351927703512 -0.036169993782241359 0.054483493790030479 0.00041600967961130664 -0.013088088198564947 -0.0079291739294098489 0.014639018091463275 0.033727192580699922 -0.023166344724595549 0.011525196391502741 -0.0020997185663033566 0.0029134022604141918 0.022160817345693001 0.024977569952607154 -0.010184762831112104
leaf_weight=38 24 28 20 20 32 20 36 31 20 20 27 39 21 21 20 35
leaf_count=38 24 28 20 20 32 20 36 31 20 20 27 39 21 21 20 35
internal_value=-6.87031e-11 0.0124882 -0.02014 0.0285218 0.00497775 -0.0134506 -0.0193708 0.0116169 0.0209967 -0.013371 0.00549987 -0.00582459 -0.00415101 0.027803 0.0186934 -0.00666546
internal_weight=452 279 173 89 190 135 76 110 69 56 59 59 80 41 51 59
internal_count=452 279 173 89 190 135 76 110 69 56 59 59 80 41 51 59
is_linear=0
shrinkage=0.05


Tree=12
num_leaves=17
num_cat=0
split_feature=0 86 86 0 15 30 35 51 10 90 30 84 69 41 29 19
split_gain=40.4381 10.9603 10.232 6.08353 4.22493 1.70259 1.69564 1.68772 0.955145 0.95266 0.944487 0.667009 0.555892 0.493417 0.468372 0.218235
threshold=0.11229577689006585 -0.16865323222735853 0.18868722849277977 -0.93914290070731987 0.5019175485585593 -1.4183779527098845 -0.019962224898448597 0.47758572713924058 -0.43290498612647504 0.041734209844244009 -0.019962224898448597 -0.072940021457823925 0.153056812329842 0.28478911874302543 1.2854604855798428 0.0099337554118139517
decision_type=2 2 2 2 2 2 2 2 2 2 2 2 2 2 2 2
left_child=1 -1 4 9 7 -5 11 15 -6 -3 -8 -7 -13 -9 -12 -2
right_child=2 3 -4 5 8 6 10 13 -10 -11 14 12 -14 -15 -16 -17
leaf_value=-0.038431481530091599 0.016073740118493638 -0.01616339282254162 0.051884305998682982 -0.017571057184111505 0.0078312285710126165 -0.014242347168664522 0.010232514832858686 0.021751640335871625 -0.0058920553475174872 -0.029896888775484905 -0.0048307036279070688 -0.010786017615880286 -0.00031669581549067518 0.031116439808498732 0.0045321639686087363 0.0093986953496932989
leaf_weight=35 24 23 20 21 32 26 27 39 21 28 34 21 32 22 22 25
leaf_count=35 24 23 20 21 32 26 27 39 21 28 34 21 32 22 22 25
internal_value=3.18629e-11 -0.0123352 0.018132 -0.00843189 0.0139907 -0.00417591 -0.00243951 0.0195783 0.0023937 -0.0237034 0.0025511 -0.00768281 -0.00446492 0.0251291 -0.00115243 0.0126681
internal_weight=452 269 183 234 163 183 162 110 53 51 83 79 53 61 56 49
internal_count=452 269 183 234 163 183 162 110 53 51 83 79 53 61 56 49
is_linear=0
shrinkage=0.05


Tree=13
num_leaves=16
num_cat=0
split_feature=1 86 1 1 15 84 81 84 27 10 95 33 23 36 1
split_gain=37.5194 11.1207 9.42426 5.62013 3.63159 1.96866 2.58516 1.22739 1.04628 1.01015 0.84154 0.780259 0.564351 0.533878 0.388605
threshold=-0.29067683346238476 0.23103125954822556 -1.1325285850239051 0.15682118588128821 0.5019175485585593 0.011522571281613251 0.32490555390487874 -0.043344889299409342 0.78724478775705842 -0.43290498612647504 2.5000000000000004 0.60103562992065951 0.46022325479113108 -0.9087709496497266 0.48963956436676309
decision_type=2 2 2 2 2 2 2 2 2 2 2 2 2 2 2
left_child=2 3 -1 7 10 6 -4 -2 -8 -6 14 12 -9 -7 -5
right_child=1 -3 5 4 9 13 8 11 -10 -11 -12 -13 -14 -15 -16
leaf_value=-0.040290053522116259 -0.0083038094128961831 0.044647024693372457 -0.032853141091763974 0.013018725286511816 0.0098552268320837855 -0.011891380073502661 -0.0066175572840230807 -0.0043921939414670519 -0.020734607179959619 -0.0048887467410947596 0.026234291204147872 0.011181525322767399 0.0059448637149256212 -0.0018436136653643843 0.020826266532142958
leaf_weight=38 33 23 20 34 26 20 35 31 21 21 36 22 23 39 30
leaf_count=38 33 23 20 34 26 20 35 31 21 21 36 22 23 39 30
internal_value=-5.09027e-11 0.0113436 -0.018294 0.00835146 0.0147308 -0.0121025 -0.0174224 -0.000251911 -0.0119115 0.00326749 0.0201186 0.00324431 1.06269e-05 -0.00524964 0.0166785
internal_weight=452 279 173 256 147 135 76 109 56 47 100 76 54 59 64
internal_count=452 279 173 256 147 135 76 109 56 47 100 76 54 59 64
is_linear=0
shrinkage=0.05


Tree=14
num_leaves=17
num_cat=0
split_feature=1 1 84 86 1 84 9 30 1 12 55 12 77 83 77 37
split_gain=33.8816 11.0007 10.8345 4.37089 2.21216 2.11544 1.27912 1.16853 1.06068 1.0544 0.584113 0.526538 0.464306 0.374217 0.350038 0.0965998
threshold=-0.088477550260081431 -1.1325285850239051 0.27627307648862592 -0.027220897243970945 0.47758572713924058 -0.072940021457823925 -0.63126913876898805 -0.93879900893886636 0.54979549468444489 -0.49147853521017554 0.095868700509791724 -0.63510521856647772 0.25596830205668458 0.71014643632979912 0.18716237369760388 0.051277997780281102
decision_type=2 2 2 2 2 2 2 2 2 2 2 2 2 2 2 2
left_child=1 -1 3 8 10 9 -7 -8 12 -3 -5 -9 -2 -6 -13 -12
right_child=2 5 -4 4 13 6 7 11 -10 -11 15 14 -14 -15 -16 -17
leaf_value=-0.038275550639158801 0.0012147607340011746 -0.025985491204829445 0.04877127647399903 0.0031845907392423784 0.028088367700576784 0.0029226852817159587 -0.019112797901034359 -0.011829769545389961 0.009274740904636149 -0.01147492070411963 0.011177705350117043 0.0021288414236291181 -0.0080987778755471761 0.019866417468555511 -0.0059939224764497742 0.015737135921205795
leaf_weight=38 32 21 20 21 25 34 20 24 28 31 26 21 23 31 36 21
leaf_count=38 32 21 20 21 25 34 20 24 28 31 26 21 23 31 36 21
internal_value=2.64768e-11 -0.0137501 0.0136289 0.0102335 0.0161778 -0.00876627 -0.00546574 -0.00828956 0.00135293 -0.017335 0.0101173 -0.00561716 -0.00267999 0.0235369 -0.00300133 0.0132149
internal_weight=452 225 227 207 124 187 135 101 83 52 68 81 55 56 57 47
internal_count=452 225 227 207 124 187 135 101 83 52 68 81 55 56 57 47
is_linear=0
shrinkage=0.05


Tree=15
num_leaves=18
num_cat=0
split_feature=1 1 1 41 84 84 81 1 56 27 33 18 57 36 84 70 34
split_gain=30.7378 9.25755 7.63902 4.7812 2.53174 1.6142 2.28448 1.3402 1.06216 0.902587 0.686689 0.602632 0.634719 0.451963 0.269966 0.266607 0.162126
threshold=-0.29067683346238476 0.54979549468444489 -1.1325285850239051 0.4570938154904442 -0.016473108283934546 0.011522571281613251 0.32490555390487874 0.15682118588128821 0.67583596617649266 0.78724478775705842 0.41667855517843849 -0.047056660870867538 0.28372433970409094 -0.9087709496497266 0.030649518430423951 -0.19539720172333133 0.45643358767525338
decision_type=2 2 2 2 2 2 2 2 2 2 2 2 2 2 2 2 2
left_child=2 4 -1 8 11 6 -4 10 16 -8 15 12 -2 -7 -9 -6 -3
right_child=1 3 5 -5 7 13 9 14 -10 -11 -12 -13 -14 -15 -16 -17 -18
leaf_value=-0.03636177357678351 0.0061476186187937858 0.018131512954183245 -0.030306885428726671 0.043206299695631736 -0.0032812245690729473 -0.01088972821715288 -0.0057037529445785502 0.012172632105648519 0.0074484496576977637 -0.018815632235436214 0.012156482385471463 -0.0091162602826952936 -0.0045602690454782744 -0.0016448691811931965 0.020038200430572035 0.0044638741258531808 0.024135328287428079
leaf_weight=38 25 23 20 23 20 20 35 24 21 21 20 25 31 39 20 25 22
leaf_count=38 25 23 20 23 20 20 35 24 21 21 20 25 31 39 20 25 22
internal_value=-7.56893e-11 0.0102673 -0.0165583 0.0235749 0.00403381 -0.010984 -0.0158013 0.00900926 0.0167336 -0.0106207 0.00444772 -0.00266154 0.000220038 -0.00477872 0.0157479 0.00102161 0.0210667
internal_weight=452 279 173 89 190 135 76 109 66 56 65 81 56 59 44 45 45
internal_count=452 279 173 89 190 135 76 109 66 56 65 81 56 59 44 45 45
is_linear=0
shrinkage=0.05


Tree=16
num_leaves=18
num_cat=0
split_feature=1 86 86 58 1 33 77 84 84 24 1 85 27 33 3 23 79
split_gain=27.7409 8.50989 7.17003 3.71045 3.14728 1.79052 2.15957 1.48422 0.783336 0.761365 0.606218 0.555557 0.507361 0.439559 0.409736 0.355469 0.284964
threshold=-0.29067683346238476 0.11348928376870947 -0.16865323222735853 -0.38461064162584008 0.3593353588345331 0.14679852464608922 0.1007461592057821 -0.032440552154191095 -0.084529154024146694 -0.53684403494116129 -0.69500287924374304 -3.05311331771918e-16 -0.92019606399942255 0.3511098802448428 -0.63607914384277031 0.46022325479113108 -0.026092294767797248
decision_type=2 2 2 2 2 2 2 2 2 2 2 2 2 2 2 2 2
left_child=2 4 -1 -3 8 6 -4 11 -2 -7 -8 -6 -10 -9 -14 -16 -11
right_child=1 3 5 -5 7 9 10 13 12 16 -12 -13 14 -15 15 -17 -18
leaf_value=-0.039400601668145373 -0.0068804945702140687 0.017313070117663115 -0.028516109516987433 0.043381614983081823 0.011069098971784116 -0.01309005045169033 -0.016619674666296869 0.012913472867674297 -0.0047957017854787414 -0.0060299814523135029 -0.0049871103629508676 -0.00032525525185401029 0.010077601171187348 0.021935659605595802 -0.0022754672370725671 0.0062578594959948374 0.0015254164352275744
leaf_weight=27 32 39 26 21 20 25 21 27 20 26 24 23 21 27 26 23 24
leaf_count=27 32 39 26 21 20 25 21 27 20 26 24 23 21 27 26 23 24
internal_value=5.2535e-11 0.00975398 -0.0157304 0.0264371 0.00518327 -0.011353 -0.017044 0.0119054 -0.000161407 -0.00596561 -0.0104156 0.00497444 0.0022276 0.0174246 0.00423426 0.00172997 -0.00240339
internal_weight=452 279 173 60 219 146 71 97 122 75 45 43 90 54 70 49 50
internal_count=452 279 173 60 219 146 71 97 122 75 45 43 90 54 70 49 50
is_linear=0
shrinkage=0.05


Tree=17
num_leaves=17
num_cat=0
split_feature=1 1 86 15 1 84 81 9 10 27 95 11 36 86 88 80
split_gain=25.1491 10.4516 6.14731 2.57362 2.49807 1.32696 1.82452 1.22266 0.797377 0.797209 0.707612 0.634243 0.339059 0.256063 0.228712 0.0556871
threshold=0.15682118588128821 -1.1325285850239051 0.18868722849277977 0.5019175485585593 -0.30893153765998621 0.011522571281613251 0.32490555390487874 -0.63126913876898805 -0.43290498612647504 0.78724478775705842 2.5000000000000004 -0.28157026159190329 -0.9087709496497266 0.053707525763900657 0.061887387107976206 -0.18880130252339772
decision_type=2 2 2 2 2 2 2 2 2 2 2 2 2 2 2 2
left_child=1 -1 3 10 5 6 -3 -6 -5 -8 13 -9 -7 15 -13 -2
right_child=2 4 -4 8 7 12 9 11 -10 -11 -12 14 -14 -15 -16 -17
leaf_value=-0.033367184015285031 0.0093771787271613172 -0.027391529269516469 0.041540692374110226 0.0082045426896701634 0.0098157377094030395 -0.0095910470111994078 -0.0047269209346268333 0.002860515709856854 -0.0048949486232318339 -0.017452213093638421 0.022412666667471916 -0.0033622801947879055 -0.0015107128736122537 0.017856630479747598 -0.0097380967487962072 0.01301844623826799
leaf_weight=38 21 20 20 26 25 20 32 34 21 20 34 39 37 22 22 21
leaf_count=38 21 20 20 26 25 20 32 34 21 20 34 39 37 22 22 21
internal_value=-1.69279e-11 -0.00894259 0.0155547 0.0119704 -0.00521514 -0.0100454 -0.0145574 -2.2634e-05 0.00235158 -0.00962126 0.0165835 -0.00261168 -0.00434592 0.0134868 -0.00566176 0.0111978
internal_weight=452 287 165 145 249 129 72 120 47 52 98 95 57 64 61 42
internal_count=452 287 165 145 249 129 72 120 47 52 98 95 57 64 61 42
is_linear=0
shrinkage=0.05


Tree=18
num_leaves=18
num_cat=0
split_feature=1 1 86 15 1 31 84 6 33 53 65 58 65 1 82 8 84
split_gain=22.6971 9.43253 5.54795 2.32269 2.25451 1.32693 1.05872 1.00205 0.797291 0.656385 0.541889 0.457424 0.402174 0.307628 0.286801 0.255414 0.101706
threshold=0.15682118588128821 -1.1325285850239051 0.18868722849277977 0.5019175485585593 -0.30893153765998621 -1.0790069337878643 -0.054027300767937242 -0.14533024740034425 0.54949638169392345 0.28596785824540644 0.14762494159023098 -0.53324752741122305 0.13174937487086003 0.48963956436676309 -0.25810395568442279 -1.1150596614105543 0.030649518430423951
decision_type=2 2 2 2 2 2 2 2 2 2 2 2 2 2 2 2 2
left_child=1 -1 3 9 5 -3 -7 8 14 13 -5 15 -9 -2 -6 -8 -15
right_child=2 4 -4 10 7 6 11 12 -10 -11 -12 -13 -14 16 -16 -17 -18
leaf_value=-0.031698824497135847 0.010290638605753582 -0.021043198795190881 0.039463658817112446 0.0077182584496609781 0.0042100074933841825 -0.014770119216744648 -0.0018704422691371292 -0.0010855072686293472 0.011923243811840869 0.023835405185818673 -0.0030217484318806483 0.0024521842907415706 -0.0096722303654532896 0.014243425141003999 -0.0039590871693300353 -0.0089535620609032252 0.019169948846101764
leaf_weight=38 36 21 20 23 22 33 20 30 22 20 24 20 25 22 21 35 20
leaf_count=38 36 21 20 23 22 33 20 30 22 20 24 20 25 22 21 35 20
internal_value=6.94435e-11 -0.00849546 0.0147769 0.0113719 -0.00495438 -0.00954311 -0.00730698 -2.15023e-05 0.0041814 0.0157543 0.002234 -0.0040232 -0.00498856 0.0136823 0.00022045 -0.00637788 0.0165894
internal_weight=452 287 165 145 249 129 108 120 65 98 47 75 55 78 43 55 42
internal_count=452 287 165 145 249 129 108 120 65 98 47 75 55 78 43 55 42
is_linear=0
shrinkage=0.05


Tree=19
num_leaves=17
num_cat=0
split_feature=1 84 1 86 31 1 86 17 1 73 27 55 1 12 83 81
split_gain=20.5573 7.24026 6.88563 2.72504 1.43529 1.37126 1.1687 1.81347 0.60059 0.41418 0.385772 0.360118 0.349964 0.347344 0.276805 0.0676468
threshold=-0.088477550260081431 0.27627307648862592 -1.1325285850239051 -0.027220897243970945 0.24325985264751862 0.47758572713924058 0.0030058051261616504 0.51397354231495174 0.54979549468444489 0.17083557004903063 0.52870469844798074 0.095868700509791724 -0.49147853521017554 -0.36798188506516255 0.71014643632979912 0.28448744922442076
decision_type=2 2 2 2 2 2 2 2 2 2 2 2 2 2 2 2
left_child=2 3 -1 8 6 11 7 -4 9 -2 12 -5 -6 -8 -7 -13
right_child=1 -3 4 5 10 14 13 -9 -10 -11 -12 15 -14 -15 -16 -17
leaf_value=-0.030113883806686656 0.0010735861389964288 0.039343973360955714 -0.022692598207333291 0.0023189007559613812 -0.0045844783806907275 0.022242408692836765 -0.0082492653482958023 -0.0061088426795322453 0.0067894185826714555 -0.0079462177475215865 -0.0073823417847355202 0.011827180575993327 0.0035374342811539668 0.0007603344437666238 0.015171089621200676 0.0079905884759500622
leaf_weight=38 35 20 34 21 21 25 23 32 28 20 21 27 36 20 31 20
leaf_count=38 35 20 34 21 21 25 23 32 28 20 21 27 36 20 31 20
internal_value=2.44163e-11 0.010616 -0.0107104 0.00784039 -0.00676745 0.0125339 -0.010473 -0.014652 0.000828372 -0.00220634 -0.00158917 0.00776239 0.000545151 -0.00405875 0.0183279 0.0101946
internal_weight=452 227 225 207 187 124 109 66 83 55 78 68 57 43 56 47
internal_count=452 227 225 207 187 124 109 66 83 55 78 68 57 43 56 47
is_linear=0
shrinkage=0.05


Tree=20
num_leaves=17
num_cat=0
split_feature=1 84 1 86 31 1 86 17 9 1 92 55 25 83 53 37
split_gain=18.553 6.53434 6.21428 2.45935 1.29535 1.24355 1.05475 1.63666 0.754548 0.542033 0.390139 0.359197 0.272812 0.221383 0.211938 0.101076
threshold=-0.088477550260081431 0.27627307648862592 -1.1325285850239051 -0.027220897243970945 0.24325985264751862 0.5019175485585593 0.0030058051261616504 0.51397354231495174 -0.26474336105908686 0.54979549468444489 17.500000000000004 0.095868700509791724 -0.14435136543365643 0.71014643632979912 0.15799041257338683 0.05402730076795046
decision_type=2 2 2 2 2 2 2 2 2 2 2 2 2 2 2 2
left_child=2 3 -1 9 6 11 7 -4 -6 10 -2 -5 -8 -7 -10 -13
right_child=1 -3 4 5 8 13 12 -9 14 -11 -12 15 -14 -15 -16 -17
leaf_value=-0.028608189626768428 -0.0056661840288143141 0.037376773618161684 -0.021557968205717558 0.0022029557309689979 0.0052490797057678854 0.021391876616204779 -0.0079321461962535977 -0.005803400470176712 -0.0077846382348798222 0.0064499478205107159 0.0028711517528711779 0.0080631542454163239 3.5226177847520874e-05 0.01479194100290813 -0.0012354194425002096 0.012525094419040464
leaf_weight=38 32 20 34 21 27 24 21 32 30 28 23 30 22 27 21 22
leaf_count=38 32 20 34 21 27 24 21 32 30 28 23 30 22 27 21 22
internal_value=-8.44784e-12 0.0100852 -0.0101749 0.00744837 -0.00642908 0.0119072 -0.00994936 -0.0139194 -0.00150972 0.000786953 -0.00209603 0.00772204 -0.00385582 0.0178978 -0.0050879 0.0099509
internal_weight=452 227 225 207 187 124 109 66 78 83 55 73 43 51 51 52
internal_count=452 227 225 207 187 124 109 66 78 83 55 73 43 51 51 52
is_linear=0
shrinkage=0.05


Tree=21
num_leaves=18
num_cat=0
split_feature=1 0 86 86 43 33 77 53 24 27 49 52 18 8 77 1 29
split_gain=16.8296 6.1509 5.4634 2.9858 1.57665 1.1847 1.74623 0.771406 0.515301 0.498158 0.475762 0.421645 0.402546 0.38825 0.287297 0.256369 0.173799
threshold=-0.29067683346238476 1.36458720385358 -0.16865323222735853 -0.015205797829021149 0.20755314861902732 0.14679852464608922 0.1007461592057821 0.30250153814789987 -0.37416171776179757 0.84113918067440319 0.16234896079044506 0.6690338238904201 -0.24828383436899373 1.0000000180025095e-35 0.26846729781819184 0.51586159209443927 -0.43806447099281026
decision_type=2 2 2 2 2 2 2 2 2 2 2 2 2 2 2 2 2
left_child=2 3 -1 7 9 6 -4 11 -7 13 15 14 -8 -5 -2 -6 -10
right_child=1 -3 5 4 10 8 12 -9 16 -11 -12 -13 -14 -15 -16 -17 -18
leaf_value=-0.032914297779401143 0.0017079964973727955 0.032971493087031623 -0.023376314148593411 0.011599209161940963 0.0087982875169128998 -0.0084795902977098849 -0.012387197979842314 -0.0095100929008119506 -0.0034679813147522514 -0.0029914112982805819 0.019568883079605609 0.0060086231778508853 -0.00287021784670651 0.0017471739137545229 -0.0057749846993196434 0.014909842987253797 0.0031236686487682167
leaf_weight=27 29 22 26 20 37 35 20 22 20 20 26 28 25 20 23 32 20
leaf_count=27 29 22 26 20 37 35 20 22 20 20 26 28 25 20 23 32 20
internal_value=-3.24319e-11 0.00759728 -0.0122523 0.00542517 0.00979705 -0.0084312 -0.0130603 -0.00121837 -0.00404896 0.00345166 0.0138047 0.00106186 -0.00709999 0.00667319 -0.00160178 0.0116326 -0.000172156
internal_weight=452 279 173 257 155 146 71 102 75 60 95 80 45 40 52 69 40
internal_count=452 279 173 257 155 146 71 102 75 60 95 80 45 40 52 69 40
is_linear=0
shrinkage=0.05


Tree=22
num_leaves=18
num_cat=0
split_feature=1 1 86 86 43 33 77 53 34 24 86 26 18 26 30 29 27
split_gain=15.1887 5.29657 4.93072 2.48081 1.20679 1.06919 1.57597 0.619453 0.487956 0.465059 0.457785 0.384619 0.363298 0.195948 0.163472 0.156854 0.137596
threshold=-0.29067683346238476 0.99685821883565051 -0.16865323222735853 -0.015205797829021149 0.20755314861902732 0.14679852464608922 0.1007461592057821 0.30250153814789987 -0.10010752325202134 -0.37416171776179757 0.053707525763900657 0.087347088192514216 -0.24828383436899373 0.78724478775705842 0.50745555486021299 -0.43806447099281026 0.84113918067440319
decision_type=2 2 2 2 2 2 2 2 2 2 2 2 2 2 2 2 2
left_child=2 3 -1 7 8 6 -4 11 -5 -7 -6 -2 -8 -13 -12 -11 -10
right_child=1 -3 5 4 10 9 12 -9 16 15 14 13 -14 -15 -16 -17 -18
leaf_value=-0.03126858286559582 0.0051498447064659558 0.024566724327834032 -0.022207498099081791 0.0096558317088056358 0.0085458106925024799 -0.0080556107112871762 -0.011767838217783719 -0.009034588192166253 0.0030232321674702693 -0.0032945822901092473 0.01869443753361702 -0.0060039059969130906 -0.0027267068289220336 0.00047598205440278567 0.012629680610261857 0.0029674851754680279 -0.0028418406611308458
leaf_weight=27 28 38 26 20 38 35 20 22 20 20 25 20 25 28 20 20 20
leaf_count=27 28 38 26 20 38 35 20 22 20 20 25 20 25 28 20 20 20
internal_value=-1.20665e-11 0.00721742 -0.0116396 0.00448184 0.0086814 -0.00800964 -0.0124073 -0.00164608 0.00327907 -0.00384651 0.0125867 0.000492698 -0.00674499 -0.00222397 0.015999 -0.000163549 9.06958e-05
internal_weight=452 279 173 241 143 146 71 98 60 75 83 76 45 48 45 40 40
internal_count=452 279 173 241 143 146 71 98 60 75 83 76 45 48 45 40 40
is_linear=0
shrinkage=0.05


Tree=23
num_leaves=19
num_cat=0
split_feature=1 30 86 1 84 90 9 84 45 79 94 31 49 64 1 73 53 7
split_gain=13.7122 6.43079 3.70041 3.42889 1.39786 1.20945 1.03859 0.843105 0.64051 0.518579 0.420314 0.384499 0.356324 0.346729 0.260203 0.16189 0.120223 0.0619346
threshold=0.15682118588128821 -1.5530506586928106 0.18868722849277977 -0.66120268327951048 -0.032440552154191095 0.018812901535248703 0.22320640551710028 -0.043344889299409342 0.12992844093678399 1.3912925921246673 0.1294095225512602 -0.026092294767797248 0.11848740199563997 0.53030005420471316 -0.14469083403490809 0.041734209844214457 0.14726968027497628 0.3273149082310392
decision_type=2 2 2 2 2 2 2 2 2 2 2 2 2 2 2 2 2 2
left_child=1 -1 4 5 13 -3 -7 11 -9 10 -10 -5 15 -2 -12 -6 -13 -17
right_child=2 3 -4 7 12 6 -8 8 9 -11 14 16 -14 -15 -16 17 -18 -19
leaf_value=-0.033949718363583091 0.0054967195494100458 -0.0060244174719628063 0.031647072968771686 -0.010827900953692101 0.0071112092495674191 -0.010973046690394934 -0.026168794217317 0.0096112981089390825 -0.0056943384942431483 0.0069071116413743725 -0.002812478574924171 -0.0054558286373503507 0.01775228463113308 -0.0026366781047545374 0.0046705686872323543 0.010613243157664936 2.6487791910767558e-05 0.014501043707132339
leaf_weight=20 38 32 20 23 21 22 23 20 39 21 21 20 25 20 26 21 20 20
leaf_count=20 38 32 20 23 21 22 23 20 39 21 21 20 25 20 26 21 20 20
internal_value=2.74168e-11 -0.00660322 0.0114856 -0.0045548 0.00870471 -0.0134555 -0.0187398 -0.000947683 0.00139818 -0.000136982 -0.00185705 -0.00567664 0.0127131 0.0026921 0.00132708 0.0106812 -0.00271467 0.0125097
internal_weight=452 287 165 267 145 77 45 190 127 107 86 63 87 58 47 62 40 41
internal_count=452 287 165 267 145 77 45 190 127 107 86 63 87 58 47 62 40 41
is_linear=0
shrinkage=0.05


Tree=24
num_leaves=18
num_cat=0
split_feature=1 31 72 1 1 84 8 44 86 75 90 86 65 17 79 83 75
split_gain=12.4551 5.20704 5.07249 1.95064 1.5461 1.43452 0.914795 0.613571 0.602267 0.399877 0.384802 0.328297 0.20606 0.169443 0.163238 0.117215 0.0650608
threshold=-0.30893153765998621 -1.3052627837519606 -1.4989548844291403 0.15682118588128821 -0.69500287924374304 -0.17701673320617553 0.1324010905665873 -0.32090390095357518 0.057355518587432257 -0.28282695908513128 0.041734209844244009 0.053707525763900657 0.20200596599468432 -0.47259644115680471 1.2321241573243211 0.26360070862732482 0.1554447075134037
decision_type=2 2 2 2 2 2 2 2 2 2 2 2 2 2 2 2 2
left_child=1 -1 -2 8 6 -5 10 -6 9 -4 -3 13 -9 -7 -11 -13 -15
right_child=2 4 3 5 7 11 -8 12 -10 14 -12 15 -14 16 -16 -17 -18
leaf_value=-0.034122260039051375 0.030634435624815527 -0.0043429984605278483 0.002419135878638675 -0.0021956348287252088 0.002395782088313033 0.011896356364542789 -0.021941107809543611 -0.0098200749362940386 0.004826570464364203 -0.0075202963568947526 -0.013251272889061106 0.016155999283427779 -0.0028806762644671838 0.0050415304755525928 -0.0017956812505144628 0.011444996026975494 0.0087753766449168331
leaf_weight=21 20 22 24 27 34 22 20 23 37 33 27 23 20 28 20 31 20
leaf_count=21 20 22 24 27 34 22 20 23 37 33 27 23 20 28 20 31 20
internal_value=2.92519e-11 -0.0108427 0.00635347 0.00452094 -0.00749432 0.00824828 -0.0129297 -0.00262362 -0.000416149 -0.00293538 -0.00925164 0.0105224 -0.00659245 0.00826272 -0.00536006 0.0134515 0.0065973
internal_weight=452 167 285 265 146 151 69 77 114 77 49 124 43 70 53 54 48
internal_count=452 167 285 265 146 151 69 77 114 77 49 124 43 70 53 54 48
is_linear=0
shrinkage=0.05


Tree=25
num_leaves=18
num_cat=0
split_feature=12 86 84 86 33 2 51 87 90 24 11 8 42 79 78 50 49
split_gain=10.6641 7.32424 4.71976 1.87912 1.0443 1.34013 0.857588 0.781232 0.555332 0.48635 0.376044 0.304951 0.422765 0.246489 0.237003 0.177566 0.177241
threshold=-0.29067683346238476 -0.16865323222735853 0.27627307648862592 -0.015205797829021149 0.14679852464608922 -0.022104191062112599 0.47758572713924058 -0.0012162125706543998 0.13569273925549408 -0.54806459851286682 -0.08451130327357749 -0.37008573330555022 -0.028673017287356595 -0.03453341076451779 1.0000000180025095e-35 0.17086722114425387 0.11848740199563997
decision_type=2 2 2 2 2 2 2 2 2 2 2 2 2 2 2 2 2
left_child=1 -1 3 7 5 -3 11 -2 10 -6 -9 -5 -13 -11 -7 -12 -8
right_child=2 4 -4 6 9 14 16 8 -10 13 15 12 -14 -15 -16 -17 -18
leaf_value=-0.038243125795197563 0.007999104554967388 -0.017826173882084816 0.029425091315060853 0.0094944398953185349 -0.0080112766515715826 -0.00036556983133777975 0.010826923802275868 -0.0050019390274038808 -0.0096731298440136029 -0.0030159303112528646 -0.00015995157976454545 -0.00084594288164225879 0.0078319024890661244 0.0036885422253017798 -0.0080630177482817096 0.005882853722432628 0.016669237010535739
leaf_weight=20 23 33 20 26 24 20 34 28 20 26 31 32 25 29 20 20 21
leaf_count=20 23 33 20 26 24 20 34 28 20 26 31 32 25 29 20 20 21
internal_value=4.84141e-11 -0.00979893 0.00601934 0.0042189 -0.00605627 -0.0103676 0.0082156 -0.000301958 -0.00223049 -0.00207237 -0.000346275 0.00500702 0.00296013 0.000519155 -0.00421429 0.00220978 0.0130576
internal_weight=452 172 280 260 152 73 138 122 99 79 79 83 57 55 40 51 55
internal_count=452 172 280 260 152 73 138 122 99 79 79 83 57 55 40 51 55
is_linear=0
shrinkage=0.05


Tree=26
num_leaves=19
num_cat=0
split_feature=0 18 0 0 15 84 8 45 70 33 86 93 68 24 52 33 7 15
split_gain=9.87568 5.22718 3.45502 2.2304 1.38314 0.771243 0.643268 0.616618 0.473775 0.455418 0.428551 0.299622 0.255166 0.197163 0.194762 0.206267 0.158254 0.125573
threshold=0.11229577689006585 1.0878015091529945 1.36458720385358 -0.99208564430928547 0.60466793606011604 -0.017839287767843246 0.076622065818853377 0.12992844093678399 -0.61896414603632666 -0.42769288357754259 0.11348928376870947 -0.70710678118654735 -0.019794129097882945 -0.35313661414663283 0.3570286487690289 0.3511098802448428 -0.46113680264801543 -0.44747818945784062
decision_type=2 2 2 2 2 2 2 2 2 2 2 2 2 2 2 2 2 2
left_child=1 3 4 6 10 9 -1 -7 -6 -5 14 -9 -13 -11 -2 -16 -12 -14
right_child=2 -3 -4 5 8 7 -8 11 -10 13 16 12 17 -15 15 -17 -18 -19
leaf_value=-0.0087087388625150201 0.0027750612259842457 -0.028365052986191588 0.02754591870206324 -0.011809139309916646 0.004189790601376444 0.0088906367963534749 -0.02013956556096673 0.0042528177048855777 -0.0064431782362093645 -0.0056389784709608651 0.010245966855436564 -0.006404084107392312 -0.0024919231254607443 0.0002872094756457955 0.006367409148086341 0.012612855378538372 0.016535922307521107 0.0026875461843288082
leaf_weight=32 20 24 22 20 20 21 20 24 22 32 20 24 25 25 39 20 20 22
leaf_count=32 20 24 22 20 20 21 20 24 22 32 20 24 25 25 39 20 20 22
internal_value=9.99317e-12 -0.00609584 0.00896055 -0.00391437 0.00642094 -0.00143808 -0.0131052 0.00113708 -0.00137986 -0.00531753 0.00917416 -0.000576868 -0.00220944 -0.00303977 0.00703908 0.00848451 0.0133909 -6.74907e-05
internal_weight=452 269 183 245 161 193 52 116 42 77 119 95 71 57 79 59 40 47
internal_count=452 269 183 245 161 193 52 116 42 77 119 95 71 57 79 59 40 47
is_linear=0
shrinkage=0.05


Tree=27
num_leaves=18
num_cat=0
split_feature=1 31 72 86 1 12 86 9 41 44 1 19 66 86 19 30 29
split_gain=9.25145 4.5044 4.32239 1.38751 1.14486 0.881612 0.729809 0.698555 0.517806 0.476767 0.3521 0.3381 0.266226 0.212787 0.176675 0.107251 0.0579927
threshold=-0.30893153765998621 -1.3052627837519606 -1.4989548844291403 -0.015205797829021149 -0.69500287924374304 0.15682118588128821 0.080209339511100167 0.22320640551710028 0.37182773439534683 -0.32090390095357518 0.0099337554118139517 -0.014733054421388999 -0.19813418252791429 0.053707525763900657 -0.18172812673092001 -0.34087202487400464 0.21379485703214104
decision_type=2 2 2 2 2 2 2 2 2 2 2 2 2 2 2 2 2
left_child=1 -1 -2 8 6 11 7 -3 10 -6 -4 -5 -11 15 -12 -7 -15
right_child=2 4 3 5 9 13 -8 -9 -10 12 14 -13 -14 16 -16 -17 -18
leaf_value=-0.030996754368589747 0.027889634119928813 -0.008277152477724788 -0.0034594078604453086 0.0059307010392799526 0.0023854150198851986 0.0048462335570630712 -0.0031334399689166323 -0.020340828504413367 -0.0080029847007244831 -0.0013186720770318062 -0.00031470943329622972 -0.0011236371073339666 -0.0092063736752606932 0.014020833652466536 0.0056408550533832928 0.0095896709567079175 0.010500984212383629
leaf_weight=21 20 24 29 33 34 22 21 24 20 20 20 35 23 22 33 26 25
leaf_count=21 20 24 29 33 34 22 21 24 20 20 20 35 23 22 33 26 25
internal_value=6.2071e-12 -0.0093448 0.00547572 0.00378411 -0.00623048 0.00664612 -0.0109077 -0.014309 -0.000789495 -0.00203917 0.000969893 0.00229979 -0.00553768 0.00975717 0.00339347 0.0074156 0.0121486
internal_weight=452 167 285 265 146 163 69 48 102 77 82 68 43 95 53 48 47
internal_count=452 167 285 265 146 163 69 48 102 77 82 68 43 95 53 48 47
is_linear=0
shrinkage=0.05


Tree=28
num_leaves=18
num_cat=0
split_feature=51 84 3 86 33 77 33 12 24 35 77 82 86 11 81 30 83
split_gain=8.06127 5.04177 4.13801 1.54665 0.794774 1.25588 0.755798 0.719259 0.417901 0.348931 0.321967 0.236095 0.19204 0.166614 0.131921 0.096794 0.0645283
threshold=-0.26424968250386277 -0.14877145510145592 -1.5366565189983705 -0.015205797829021149 0.14679852464608922 0.1007461592057821 -0.64667186367806762 0.15682118588128821 -0.53684403494116129 0.21465349529031133 0.15651498594734711 -0.11081075976651834 0.053707525763900657 0.011594870627711451 0.55813277525406768 -0.34087202487400464 0.24325985264751862
decision_type=2 2 2 2 2 2 2 2 2 2 2 2 2 2 2 2 2
left_child=1 -1 -2 6 5 -3 -4 9 -6 -5 -8 -7 15 -12 -10 -9 -14
right_child=2 4 3 7 8 11 10 12 14 -11 13 -13 16 -15 -16 -17 -18
leaf_value=-0.031921583675735055 0.026851005279459064 -0.018952397852326219 -0.0091833419956104927 -0.0015278409297267597 -0.0077139383581067839 -0.00054079712892416863 0.005202743041639527 0.004603921956467358 0.0029581152684321362 0.005978010427497793 -0.0039675155409245886 -0.0078292383188381786 0.013693742752075196 0.0011751115891254613 -0.0023587200813926755 0.0091101873952608835 0.0099466274992597321
leaf_weight=21 20 23 23 30 21 20 30 22 28 32 28 25 20 36 20 26 27
leaf_count=21 20 23 23 30 21 20 30 22 28 32 28 25 20 36 20 26 27
internal_value=-3.61609e-11 -0.00910851 0.00489505 0.00329243 -0.00561162 -0.00944782 -0.00105915 0.00653533 -0.00183101 0.00234615 0.00092868 -0.00458993 0.00926932 -0.00107479 0.000742767 0.00704482 0.0115411
internal_weight=452 158 294 274 137 68 117 157 69 62 94 45 95 64 48 48 47
internal_count=452 158 294 274 137 68 117 157 69 62 94 45 95 64 48 48 47
is_linear=0
shrinkage=0.05


Tree=29
num_leaves=19
num_cat=0
split_feature=1 76 75 0 15 53 90 35 33 80 27 88 15 1 55 3 40 4
split_gain=7.72774 4.80942 2.74621 1.71841 0.91302 0.629209 0.584364 0.469721 0.543134 0.27723 0.229254 0.161318 0.158153 0.137742 0.121522 0.0630662 0.0625407 0.0571901
threshold=0.15682118588128821 -1.4706270960692274 -0.99011713301496629 -0.99208564430928547 0.60466793606011604 0.36452489799507143 0.018812901535248703 -0.18608573532740921 0.48657614425372714 -0.049682089552095646 0.9304762924328781 -0.016515531605428149 -0.22174317092295084 0.5019175485585593 1.0394381777049111 0.66943509273825252 0.36613184193441023 -0.26182695838977599
decision_type=2 2 2 2 2 2 2 2 2 2 2 2 2 2 2 2 2 2
left_child=1 -1 -2 6 11 7 -3 10 9 -9 12 16 -5 -13 -15 -11 -4 -14
right_child=2 3 4 5 -6 -7 -8 8 -10 15 -12 13 17 14 -16 -17 -18 -19
leaf_value=-0.028606282984837889 0.025990938034374269 -0.0039116806040207543 0.0078566181892529129 0.0026922743581235409 -0.0013817855265862761 -0.0086381182171559583 -0.014257038057519076 0.0047883431569061942 0.0095394205257651361 -0.00393766085151583 -0.0065620284509630162 0.0063241076655685905 -0.00069543672259897004 0.01309594692241761 0.0080969100887887183 -0.00026149743602478075 0.00399339500899342 -0.0043156653898070848
leaf_weight=20 20 21 20 20 31 24 39 24 21 20 26 21 20 31 20 28 22 24
leaf_count=20 20 21 20 20 31 24 39 24 21 20 26 21 20 31 20 28 22 24
internal_value=-6.18239e-11 -0.00495711 0.00862236 -0.00318563 0.00622669 -0.00102606 -0.0106362 -2.77543e-05 0.00246422 0.000400626 -0.0026028 0.00829567 -0.000994363 0.00973221 0.0111355 -0.00179323 0.00583303 -0.00267011
internal_weight=452 287 165 267 145 207 60 183 93 72 90 114 64 72 51 48 42 44
internal_count=452 287 165 267 145 207 60 183 93 72 90 114 64 72 51 48 42 44
is_linear=0
shrinkage=0.05


Tree=30
num_leaves=18
num_cat=0
split_feature=1 30 84 0 86 77 33 1 84 33 34 66 84 6 3 0 66
split_gain=6.98889 4.35164 3.50591 1.23432 1.0282 0.531204 0.498676 0.458725 0.411088 0.301036 0.223183 0.195789 0.184875 0.21066 0.159438 0.131336 0.121719
threshold=-0.088477550260081431 -1.5530506586928106 0.27627307648862592 -0.99208564430928547 -0.027220897243970945 0.37160205235460481 -0.056202006769837345 0.5019175485585593 -0.022966461093513298 0.78166571698857423 -0.250270065011308 -0.18077517309045713 0.12760886297522167 0.033452932673818256 1.0000000180025095e-35 0.36390243289460456 -0.37151385279948473
decision_type=2 2 2 2 2 2 2 2 2 2 2 2 2 2 2 2 2
left_child=1 -1 4 6 5 10 -3 12 11 14 -2 -5 13 -6 -10 -12 -9
right_child=2 3 -4 8 7 -7 -8 16 9 -11 15 -13 -14 -15 -16 -17 -18
leaf_value=-0.02850706622557482 -0.0021586624736664819 -0.01422750052685539 0.026180566619150344 -0.0022950698636122978 -0.00083737802203922055 -0.0071480918987072073 -0.0050649542870814914 0.0085660230501421863 -0.0032681341931173531 0.0057889257685192642 0.0012712805194314569 -0.0082005757431033999 0.0086956653348170231 0.0056074988038744781 0.0016368920402601362 0.0068113851188884482 0.013475013998053646
leaf_weight=20 20 33 20 32 21 20 27 28 37 21 20 25 20 32 30 23 23
leaf_count=20 20 33 20 32 21 20 27 28 37 21 20 25 20 32 30 23 23
internal_value=2.37048e-11 -0.00624492 0.00618989 -0.004073 0.00425843 -4.87665e-05 -0.0101044 0.00714147 -0.00157726 0.000565378 0.00220499 -0.0048852 0.00459957 0.00305387 -0.00107185 0.00423459 0.0107799
internal_weight=452 225 227 205 207 83 60 124 145 88 63 57 73 53 67 43 51
internal_count=452 225 227 205 207 83 60 124 145 88 63 57 73 53 67 43 51
is_linear=0
shrinkage=0.05


Tree=31
num_leaves=16
num_cat=0
split_feature=1 74 53 78 1 86 90 15 11 81 33 70 9 88 86
split_gain=6.4375 4.0783 3.71476 1.87165 1.33931 0.461075 0.303947 0.275883 0.234893 0.296081 0.249941 0.195125 0.193624 0.130202 0.0996092
threshold=-0.66120268327951048 -1.9256238627411297 0.31501842903026483 -1.6224537140882258 0.3593353588345331 -0.030414317730039348 0.009645121601605201 0.5019175485585593 -0.12241020897126638 0.405710211220628 1.0000000180025095e-35 -0.19780515951339597 0.11229577689006585 -0.016515531605428149 0.053707525763900657
decision_type=2 2 2 2 2 2 2 2 2 2 2 2 2 2 2
left_child=2 -2 6 -3 5 11 -1 13 9 -7 -10 12 -5 -6 -15
right_child=1 3 -4 4 7 8 -8 -9 10 -11 -12 -13 -14 14 -16
leaf_value=-0.0025771400537520934 0.024170523948435274 -0.011698024111799897 -0.031528930198401216 0.0023781672003678981 0.0055239744225914107 0.0074476209600106815 -0.0097586973207345346 0.0022472920762892398 -0.0040077764849859076 0.00059132110665462189 0.0023211034799878222 -0.0064156005383227722 -0.0038423229253786648 0.0074561532376514333 0.011570357833365311
leaf_weight=26 21 25 20 22 34 32 34 27 26 31 39 27 29 31 28
leaf_count=26 21 25 20 22 34 32 34 27 26 31 39 27 29 31 28
internal_value=6.97977e-12 0.00276715 -0.0128672 0.00148661 0.0024977 5.16834e-05 -0.00664669 0.00669669 0.00189825 0.00407389 -0.000210449 -0.00297858 -0.00115897 0.00798845 0.00940866
internal_weight=452 372 80 351 326 206 60 120 128 63 65 78 51 93 59
internal_count=452 372 80 351 326 206 60 120 128 63 65 78 51 93 59
is_linear=0
shrinkage=0.05


Tree=32
num_leaves=18
num_cat=0
split_feature=1 31 72 86 57 1 82 93 31 1 64 35 0 14 61 4 76
split_gain=5.90467 4.1186 3.55248 1.01844 0.710686 0.504951 0.488092 0.410998 0.449557 0.305883 0.226115 0.198542 0.110386 0.0919187 0.0881097 0.0753858 0.0655864
threshold=-0.32271859405882458 -1.3052627837519606 -1.5760454885534327 -0.028817607487005199 0.53329444206785748 0.43012688977135505 -1.2413100576217804 1.0000000180025095e-35 0.92633697226053979 0.39346123954076478 0.18539162770652309 -0.47280751791769055 -0.056883333811423749 0.33728173017099894 0.066235814688109462 0.12902429518929373 0.20489479604464503
decision_type=2 2 2 2 2 2 2 2 2 2 2 2 2 2 2 2 2
left_child=1 -1 -2 6 7 11 -4 8 10 14 -3 -5 -13 -7 -8 -14 -15
right_child=2 4 3 5 -6 13 9 -9 -10 -11 -12 12 15 16 -16 -17 -18
leaf_value=-0.02891675252467394 0.024059706204570833 -0.010438179689639759 -0.0083267150900792324 -0.00046494849128507531 -0.011965216647971559 0.010641356572508812 9.5434572237233328e-05 0.0012196783677865871 0.00053450636914931238 0.0043891932233236734 -0.0036191359662916516 0.0013931469843638216 0.007998007787391544 0.005340426208152037 -0.0041889769088205263 0.0038415787848255912 0.0090893219690769914
leaf_weight=20 21 31 20 33 27 25 24 39 24 30 20 22 20 28 24 24 20
leaf_count=20 21 31 20 33 27 25 24 39 24 30 20 22 20 28 24 24 20
internal_value=-8.46072e-12 -0.00768302 0.00425074 0.00271005 -0.00467115 0.005028 -0.0013582 -0.0029436 -0.00510851 0.0004286 -0.00776404 0.00270166 0.00428496 0.00818291 -0.00204677 0.00573086 0.00690247
internal_weight=452 161 291 270 141 172 98 114 75 78 51 99 66 73 48 44 48
internal_count=452 161 291 270 141 172 98 114 75 78 51 99 66 73 48 44 48
is_linear=0
shrinkage=0.05


Tree=33
num_leaves=18
num_cat=0
split_feature=1 0 53 1 15 9 78 33 27 27 10 42 1 25 4 20 27
split_gain=5.49751 3.6524 2.69266 1.38664 0.809647 0.659736 0.904004 0.436067 0.362223 0.248167 0.244701 0.22554 0.173939 0.179106 0.154805 0.103076 0.0311931
threshold=-0.89656749384012679 1.36458720385358 0.28775508486541629 0.15682118588128821 0.5019175485585593 -0.63126913876898805 -1.6224537140882258 0.50745555486021299 0.9304762924328781 0.077004804097421511 -0.43290498612647504 -0.24902383987615553 0.5019175485585593 0.39098153505275657 -0.30688759000716392 -0.031111702383177595 0.010169866321540903
decision_type=2 2 2 2 2 2 2 2 2 2 2 2 2 2 2 2 2
left_child=2 3 9 5 12 7 -7 -2 11 -1 -6 14 16 -14 15 -8 -5
right_child=1 -3 -4 4 10 6 8 -9 -10 -11 -12 -13 13 -15 -16 -17 -18
leaf_value=-0.0026664247247390454 -0.00049568932906064831 0.021950054477069485 -0.029074150007218125 0.0065800841245800259 0.0025974401583274205 -0.012803189177066089 0.001770170801319182 0.0095009136758744724 -0.0064034681526883956 -0.010543075613677504 -0.0048910390445962553 -0.0037092231206180578 0.012259656276840432 0.0064453898704852214 0.0035958490923375767 -0.0023860002182690162 0.0039535882260399655
leaf_weight=20 24 22 20 20 24 20 26 20 31 20 20 37 26 27 34 35 26
leaf_count=20 24 22 20 20 24 20 26 20 31 20 20 37 26 27 34 35 26
internal_value=4.59673e-11 0.00215733 -0.0140946 0.000980464 0.00483699 -0.00144898 -0.00277071 0.00404822 -0.00153973 -0.00660475 -0.000806414 -0.000397484 0.00734517 0.00929767 0.000892351 -0.000614517 0.00509554
internal_weight=452 392 60 370 143 227 183 44 163 40 44 132 99 53 95 61 46
internal_count=452 392 60 370 143 227 183 44 163 40 44 132 99 53 95 61 46
is_linear=0
shrinkage=0.05


Tree=34
num_leaves=19
num_cat=0
split_feature=1 74 27 1 86 84 35 27 1 12 33 67 36 70 86 83 34 72
split_gain=5.04008 3.57299 2.43632 1.68483 0.713351 0.537223 0.517412 0.44575 0.253142 0.202353 0.221705 0.197279 0.124748 0.103164 0.122025 0.0994188 0.0907985 0.0231383
threshold=-1.1119319651850741 -1.9256238627411297 0.14256025825400168 -0.018991685815865897 -0.16234896079043001 0.011522571281613251 0.57603212056796893 0.9304762924328781 0.25062913071927756 -0.36025264996896672 -0.0099006417587722481 -0.027159675542459748 0.030338904580090555 -1.6274065524309937 0.053707525763900657 0.26360070862732482 0.014223664458229852 -0.62143187271350409
decision_type=2 2 2 2 2 2 2 2 2 2 2 2 2 2 2 2 2 2
left_child=2 -2 -1 5 -5 6 7 11 12 10 -7 16 -6 -10 17 -16 -3 -15
right_child=1 3 -4 4 8 9 -8 -9 13 -11 -12 -13 -14 14 15 -17 -18 -19
leaf_value=-0.0048219858823964996 0.021757942287340053 -0.0057946256129071116 -0.029205976980738343 -0.0033832090863644888 0.0049520579471639152 -0.00474082082487607 -0.012240963010117413 -0.0090851067155599593 0.0093864609527847045 0.0037367289353980974 0.0017887718877038702 0.0022547675892710685 -7.9266154040981613e-05 0.0026432523457333447 0.010058244681429296 0.0052998862902471876 -0.0011881949901378351 0.0048388126771897084
leaf_weight=21 21 20 20 29 22 26 20 25 23 29 26 25 28 20 21 23 23 30
leaf_count=21 21 20 20 29 22 26 20 25 23 29 26 25 28 20 21 23 23 30
internal_value=-2.78579e-11 0.00166759 -0.0167166 0.000585806 0.00385536 -0.00271746 -0.00494512 -0.00337612 0.00511236 0.00039027 -0.00147602 -0.00127723 0.00213452 0.00638494 0.00565053 0.00757092 -0.00333072 0.00396059
internal_weight=452 411 41 390 196 194 113 93 167 81 52 68 50 117 94 44 43 50
internal_count=452 411 41 390 196 194 113 93 167 81 52 68 50 117 94 44 43 50
is_linear=0
shrinkage=0.05


Tree=35
num_leaves=18
num_cat=0
split_feature=1 74 27 1 86 78 27 1 14 1 7 95 4 22 86 83 89
split_gain=4.55171 3.17868 2.34238 1.41795 0.6438 0.552621 0.428538 0.228461 0.209222 0.182714 0.281396 0.128733 0.122782 0.094868 0.125188 0.0742417 0.0286641
threshold=-1.0307528405532231 -1.9256238627411297 0.31315286584427016 -0.018991685815865897 -0.16234896079043001 -1.6224537140882258 0.9304762924328781 0.25062913071927756 -0.27118349108079393 -0.49147853521017554 -0.32776825897916567 3.5000000000000004 0.017363098566261403 -1.1435897635898944 0.053707525763900657 0.24325985264751862 -2.0816681711721685e-17
decision_type=2 2 2 2 2 2 2 2 2 2 2 2 2 2 2 2 2
left_child=2 -2 -1 5 -5 -3 8 12 9 -7 -11 -10 -6 -9 16 -16 -15
right_child=1 3 -4 4 7 6 -8 13 11 10 -12 -13 -14 14 15 -17 -18
leaf_value=-0.0052215586233484955 0.020670045229295889 -0.0098674465394155558 -0.027625525626353922 -0.0032140485216775139 0.0049394575721678508 -0.0015491967401166837 -0.006728944175260803 0.0092012055282248185 -0.00059830413312848775 0.0073666735349789923 -0.00029662813013419509 -0.0055360499658325523 -8.0657805765754192e-05 0.0025283660293401529 0.0096600987855345027 0.0054947697091847665 0.0048466682403037952
leaf_weight=28 21 22 20 29 21 31 31 20 33 23 25 22 29 24 20 23 30
leaf_count=28 21 22 20 29 21 31 31 20 33 23 25 22 29 24 20 23 30
internal_value=6.68036e-12 0.00172949 -0.0145565 0.000690974 0.0036626 -0.00242367 -0.00143116 0.00485674 -0.000205556 0.00144295 0.00337537 -0.0025734 0.00202779 0.0060657 0.0054192 0.00743213 0.00381631
internal_weight=452 404 48 383 196 187 165 167 134 79 48 55 50 117 97 43 54
internal_count=452 404 48 383 196 187 165 167 134 79 48 55 50 117 97 43 54
is_linear=0
shrinkage=0.05


Tree=36
num_leaves=17
num_cat=0
split_feature=18 75 12 82 54 50 30 79 84 33 84 84 82 51 34 26
split_gain=4.63806 3.77541 1.47976 0.702087 0.516467 0.45897 0.425491 0.433588 0.409334 0.295223 0.277585 0.15942 0.158456 0.104006 0.0725283 0.0877218
threshold=1.0878015091529945 -1.5530506586928106 -0.49147853521017554 -1.3503334056998468 -0.19975051208678293 0.15984318498926572 -0.096186787795818338 1.3912925921246673 -1.0000000180025095e-35 0.075641136368440012 -0.17701673320617553 -0.072940021457823925 -0.13730066492865686 0.5019175485585593 0.96879392763240235 0.70732243008761919
decision_type=2 2 2 2 2 2 2 2 2 2 2 2 2 2 2 2
left_child=1 -1 8 4 -4 6 -5 11 -3 -10 -7 -8 -13 -12 15 -15
right_child=-2 2 3 5 -6 10 7 -9 9 -11 13 12 -14 14 -16 -17
leaf_value=0.022483163778088056 -0.02009471107998656 -0.0093210362192047268 0.00040166040450068455 0.0053523589277831027 -0.0096705191861838104 8.1261723111806944e-05 -0.0063965053483843806 0.0057095267623662946 -0.0056128980628272988 0.0019112148409476505 0.0040759117076439519 0.0012799597904086114 -0.004053037157819535 0.010879319550638851 0.005254989206635704 0.0063039944972842939
leaf_weight=20 27 38 35 39 20 22 20 20 32 22 35 30 26 22 24 20
leaf_count=20 27 38 35 39 20 22 20 20 32 22 35 30 26 22 24 20
internal_value=3.90197e-12 0.00127661 0.000229368 0.00186792 -0.00326095 0.00296129 0.000948313 -0.000840831 -0.00534528 -0.00254752 0.00517064 -0.00256461 -0.00119607 0.00627922 0.00744765 0.00870059
internal_weight=452 425 405 313 55 258 135 96 92 54 123 76 56 101 66 42
internal_count=452 425 405 313 55 258 135 96 92 54 123 76 56 101 66 42
is_linear=0
shrinkage=0.05


Tree=37
num_leaves=17
num_cat=0
split_feature=10 74 1 84 45 84 69 61 54 9 69 31 74 40 45 19
split_gain=4.14995 3.07322 1.38109 0.634902 0.452143 0.295117 0.260625 0.304584 0.234956 0.150264 0.129209 0.115393 0.0704041 0.0675045 0.059912 0.0337624
threshold=1.3090822124637544 -1.9256238627411297 -0.088477550260081431 -0.21471511681605393 0.79535120032301831 0.1186757515321207 0.11986022475387846 0.11471646576772311 0.0084880016508486009 -0.2398353720394554 0.18463016530135279 0.13668649073551717 -0.089441675231587386 0.66803530362756403 0.46697291675208097 0.017697494800583805
decision_type=2 2 2 2 2 2 2 2 2 2 2 2 2 2 2 2
left_child=1 -1 4 -4 6 8 -3 11 -5 -9 -10 -8 -11 15 -7 -12
right_child=-2 2 3 5 -6 14 7 9 10 12 13 -13 -14 -15 -16 -17
leaf_value=0.02036314935423434 -0.018643436898543902 0.0019236652363490846 -0.0045759329766345523 -0.00054150589810986378 -0.0096986839991240279 0.0093030670721253213 -0.0072015767947672619 0.0026195736156533595 0.0010091261728666723 -0.0045614409749396142 0.0051567799192315973 -0.0028276805129135029 -0.00075640877128593754 0.0070489988148469355 0.0058163101003239201 0.0024242552695795897
leaf_weight=20 28 35 24 37 21 22 38 23 25 20 26 25 31 29 28 20
leaf_count=20 28 35 24 37 21 22 38 23 25 20 26 25 31 29 28 20
internal_value=-9.04022e-12 0.00123117 0.000284043 0.00307998 -0.00277266 0.00406256 -0.00192704 -0.0029108 0.00286259 -0.000735504 0.00412211 -0.0054659 -0.00224858 0.00515976 0.00735048 0.00396873
internal_weight=452 424 404 211 193 187 172 137 137 74 100 63 51 75 50 46
internal_count=452 424 404 211 193 187 172 137 137 74 100 63 51 75 50 46
is_linear=0
shrinkage=0.05


Tree=38
num_leaves=18
num_cat=0
split_feature=18 75 12 86 78 84 34 1 33 35 55 46 8 10 11 86 69
split_gain=3.8455 3.20396 1.22078 0.645694 0.477562 0.346366 0.343965 0.327444 0.25631 0.211226 0.175716 0.169937 0.175056 0.159308 0.0754097 0.108618 0.069951
threshold=1.0878015091529945 -1.5530506586928106 -0.49147853521017554 -0.030746408681701445 -1.3503334056998468 -1.0000000180025095e-35 -0.70969362309268369 0.43012688977135505 0.075641136368440012 0.068613390622054668 0.33728173017099894 -0.38567671467044251 -0.64328957396436948 0.23579534411082378 -0.79096295645889236 0.053707525763900657 0.41865218567033818
decision_type=2 2 2 2 2 2 2 2 2 2 2 2 2 2 2 2 2
left_child=1 -1 5 4 -4 -3 -6 9 -7 13 -8 12 -11 -5 -9 -16 -12
right_child=-2 2 3 7 6 8 10 14 -10 11 16 -13 -14 -15 15 -17 -18
leaf_value=0.020698231195565315 -0.018297413493403133 -0.0085228732676784474 -0.0081528445240110162 0.0015393974784857188 -0.0055797821120359007 -0.0051483128387189939 -0.0016372623251906288 0.0084659558234979285 0.0018624191923828966 0.0056064761767629541 0.001960936908316971 0.0072608067084650469 -0.00051823381176551006 -0.0039492812805110595 0.0021696946141310037 0.0069941478215956275 0.0058623241167515515
leaf_weight=20 27 38 21 39 20 32 24 23 22 20 27 23 28 20 20 28 20
leaf_count=20 27 38 21 39 20 32 24 23 22 20 27 23 28 20 20 28 20
internal_value=3.31861e-11 0.00116242 0.000197693 0.00168597 -0.00135632 -0.00486567 0.000212108 0.00338117 -0.00229209 0.00188976 0.00184363 0.00372701 0.00203373 -0.000321172 0.00611193 0.00498396 0.0036211
internal_weight=452 425 405 313 112 92 91 201 54 130 71 71 48 59 71 48 47
internal_count=452 425 405 313 112 92 91 201 54 130 71 71 48 59 71 48 47
is_linear=0
shrinkage=0.05


Tree=39
num_leaves=17
num_cat=0
split_feature=84 1 1 33 77 84 9 10 68 35 84 65 35 57 24 44
split_gain=3.50894 2.92628 1.13568 0.590219 0.512116 0.494025 0.334801 0.30314 0.228949 0.256225 0.148105 0.136561 0.105175 0.0769979 0.0422262 0.0407391
threshold=-0.28231558340608581 0.97090846256214791 -0.088477550260081431 0.14679852464608922 0.1007461592057821 0.1186757515321207 -0.63126913876898805 0.44576336776020725 -0.16981568623813698 -0.85905607899535297 -0.016495639104619344 0.22144879089837202 -0.47280751791769055 0.21619126773669647 0.14687745998274668 -0.50976168643486364
decision_type=2 2 2 2 2 2 2 2 2 2 2 2 2 2 2 2
left_child=-1 2 3 4 -2 7 -5 12 9 -8 -6 -7 -4 14 -14 -12
right_child=1 -3 5 6 10 11 8 -9 -10 -11 15 -13 13 -15 -16 -17
leaf_value=-0.017478384614352967 -0.0098081379687079261 0.014748590884523261 -9.5511807857321635e-05 0.0051079165332484997 -0.0055291253245539143 0.010358576476573945 6.4370294567197561e-05 -0.0037930998892989013 0.0014877187613712844 -0.0077551310458643871 -0.0023398534954702926 0.0046564350902502027 0.0063536805205512796 0.001489446929532706 0.0033673000224898088 0.0007745928258546407
leaf_weight=27 39 36 31 25 27 21 20 24 34 22 21 21 20 34 29 21
leaf_count=27 39 36 31 25 27 21 20 24 34 22 21 21 20 34 29 21
internal_value=1.97674e-11 0.00111039 -0.000151755 -0.00265894 -0.00522847 0.00275937 8.86621e-05 0.00131428 -0.00156241 -0.00403156 -0.00263995 0.00750751 0.00238952 0.00331767 0.00458623 -0.00078263
internal_weight=452 425 389 209 108 180 101 138 76 42 69 42 114 83 49 42
internal_count=452 425 389 209 108 180 101 138 76 42 69 42 114 83 49 42
is_linear=0
shrinkage=0.05


Tree=40
num_leaves=17
num_cat=0
split_feature=10 0 12 86 53 84 94 52 52 1 31 32 79 15 69 67
split_gain=3.37933 2.57179 0.929626 0.664509 0.485582 0.303676 0.259074 0.569833 0.231989 0.200987 0.154599 0.122639 0.100428 0.10026 0.0558655 0.04833
threshold=1.3090822124637544 1.36458720385358 -0.49147853521017554 0.11348928376870947 0.36452489799507143 -1.0000000180025095e-35 -0.12940952255126034 -0.16030248285385992 -0.32117004623487017 0.21483511139169051 0.58404964498451184 0.23163587877119177 0.78166571698857423 -0.42680626568670899 0.36149017987577997 0.8586485522102324
decision_type=2 2 2 2 2 2 2 2 2 2 2 2 2 2 2 2
left_child=1 2 5 4 6 -1 7 8 -4 10 15 -7 14 -5 -11 -8
right_child=-2 -3 3 13 -6 11 9 -9 -10 12 -12 -13 -14 -15 -16 -17
leaf_value=-0.0076561086725345567 -0.016823636851040647 0.017756859376095235 -0.0013455297590957748 0.0043394035088237031 -0.0066084583797915422 -0.0036716568508629943 0.00068503532396710441 -0.0072614596449196911 0.0054106505044425532 0.0015988105467736856 -0.0022197706381120951 0.0012902721262071284 0.0067855947175184672 0.0088865493338003195 0.0046258747545329651 0.0039264123122531762
leaf_weight=38 28 22 27 22 22 33 23 26 24 35 32 20 23 27 27 23
leaf_count=38 28 22 27 22 22 33 23 26 24 35 32 20 23 27 27 23
internal_value=-1.04986e-11 0.00111099 0.000200027 0.00150065 0.00050114 -0.00424496 0.00115285 -0.00123729 0.00183385 0.00228194 0.000449111 -0.00179923 0.00396383 0.00684497 0.00291705 0.00230572
internal_weight=452 424 402 311 262 91 240 77 51 163 78 53 85 49 62 46
internal_count=452 424 402 311 262 91 240 77 51 163 78 53 85 49 62 46
is_linear=0
shrinkage=0.05


Tree=41
num_leaves=18
num_cat=0
split_feature=18 79 12 82 40 1 30 57 79 27 94 95 86 59 47 88 90
split_gain=3.15011 2.62024 0.881003 0.506487 0.528666 0.320978 0.302766 0.259443 0.25713 0.185091 0.163016 0.146076 0.0988143 0.095854 0.0830078 0.0700568 0.0523409
threshold=1.0878015091529945 -1.1032279770516109 -0.49147853521017554 -1.3503334056998468 1.0000000180025095e-35 0.42465906616455573 -0.086888332112700181 0.59848523807558995 1.3912925921246673 0.26148114126546101 1.0000000180025095e-35 2.5000000000000004 -0.030414317730039348 1.0394381777049111 -0.2612614278230127 0.072386867983899358 0.028828632599261553
decision_type=2 2 2 2 2 2 2 2 2 2 2 2 2 2 2 2 2
left_child=1 -1 7 4 -4 6 9 11 10 -5 -8 14 -12 15 -3 16 -7
right_child=-2 2 3 5 -6 13 8 -9 -10 -11 12 -13 -14 -15 -16 -17 -18
leaf_value=0.018271842581175625 -0.016560617575628888 -0.0016713191359303892 0.0019687310990842955 0.0011923212585880439 -0.0079257702532534793 0.0025928887138707071 -0.0054146571240077414 -0.0087417677692745045 0.0041376711938276214 0.0070020815626216622 -0.002477339063261752 0.00086827135777899208 0.0016920732670567104 0.0024537548419487267 -0.0058888288892506233 0.007775616448372602 0.0062102380301803355
leaf_weight=21 27 20 27 29 27 20 24 23 22 26 30 21 27 35 28 25 20
leaf_count=21 27 20 27 29 27 20 24 23 22 26 30 21 27 35 28 25 20
internal_value=3.31615e-11 0.00105209 0.000157 0.0014249 -0.00297852 0.00234654 0.000943508 -0.00414283 -0.000655895 0.00393875 -0.00195785 -0.00260985 -0.000502354 0.00456334 -0.00413153 0.00569928 0.00440156
internal_weight=452 425 404 312 54 258 158 92 103 55 81 69 57 100 48 65 40
internal_count=452 425 404 312 54 258 158 92 103 55 81 69 57 100 48 65 40
is_linear=0
shrinkage=0.05


Tree=42
num_leaves=16
num_cat=0
split_feature=84 1 94 34 86 17 58 17 53 86 34 3 17 91 32
split_gain=3.03062 2.35763 0.841541 0.54235 0.414417 0.336131 0.240326 0.203788 0.239074 0.164628 0.175141 0.12179 0.0981148 0.080113 0.0636391
threshold=-0.28231558340608581 0.97090846256214791 -0.60355339059327384 0.23704124221161807 0.11848740199563097 0.063376541125061761 -0.53324752741122305 -0.28519069771283434 0.055955306397698211 0.037466220770310955 -0.61905657690654003 0.045236587612632752 0.29246450954649789 -1.8041124150158791e-16 0.39296679023671827
decision_type=2 2 2 2 2 2 2 2 2 2 2 2 2 2 2
left_child=-1 2 3 5 6 -2 11 -8 -9 10 -10 -4 -12 -6 -14
right_child=1 -3 4 -5 13 -7 7 8 9 -11 12 -13 14 -15 -16
leaf_value=-0.01624348799749795 -0.0042330838818733976 0.01327351229912084 -0.0048936793399560786 0.0003652207909100172 0.0027179530278469127 -0.012314176585112531 0.0046506325394979542 0.0046563474875357417 -0.0056353606161705797 0.0025868749711662532 0.002160139668073195 -0.00047713472709261088 2.8324729773094475e-06 0.006668449912192018 -0.0038041828679741319
leaf_weight=27 31 36 27 36 21 22 35 27 21 31 24 37 23 33 21
leaf_count=27 31 36 27 36 21 22 35 27 21 31 24 37 23 33 21
internal_value=-1.19442e-11 0.00103194 -0.000100957 -0.00437067 0.00116572 -0.0075875 0.000295046 0.00122178 0.000405392 -0.000551073 -0.00164407 -0.00234036 -0.000411461 0.00513215 -0.00181415
internal_weight=452 425 389 89 300 53 246 182 147 120 89 64 68 54 44
internal_count=452 425 389 89 300 53 246 182 147 120 89 64 68 54 44
is_linear=0
shrinkage=0.05


Tree=43
num_leaves=18
num_cat=0
split_feature=18 75 12 86 34 77 27 57 86 66 42 89 81 17 71 77 92
split_gain=2.81405 2.49251 0.729748 0.403455 0.344488 0.254538 0.271204 0.232061 0.186057 0.166924 0.145103 0.0960174 0.0932086 0.0931577 0.068998 0.0440989 0.0369745
threshold=1.0878015091529945 -1.5530506586928106 -0.63510521856647772 -0.030746408681701445 -0.66010612294903392 0.14644577179633414 0.52870469844798074 0.53329444206785748 0.11348928376870947 0.010169866321540903 -0.028673017287356595 -1.0000000180025095e-35 0.20007995987289653 0.3361409570731767 -0.095149702615007478 0.12278455682161957 19.500000000000004
decision_type=2 2 2 2 2 2 2 2 2 2 2 2 2 2 2 2 2
left_child=1 -1 7 4 -4 -6 14 9 10 -3 11 -5 -10 -13 -7 -12 -17
right_child=-2 2 3 8 5 6 -8 -9 12 -11 15 13 -14 -15 -16 16 -18
leaf_value=0.01822524127550423 -0.015652344960512387 -0.0048354816312591239 -0.0061499726113483861 -0.0017652287304268353 0.0049646193500269553 -0.00079417215272163362 -0.006125329432543368 -0.0089719088468700661 0.0023222366208210591 0.00095341395935975024 0.0017238672124221923 0.0032135933093206193 0.0066480121751682775 -0.00096204243812032732 0.0029426568132337361 0.0058275542698711866 0.0028604912671393585
leaf_weight=20 27 33 27 35 22 30 20 20 20 20 26 34 33 22 21 21 21
leaf_count=20 27 33 27 35 22 30 20 20 20 20 26 34 33 22 21 21 21
internal_value=-8.08726e-12 0.000994384 0.000143478 0.0011387 -0.00117803 0.000265437 -0.00119065 -0.00438275 0.00245006 -0.00265099 0.00159487 0.000289167 0.00501564 0.00157316 0.000744522 0.0033422 0.00434402
internal_weight=452 425 405 332 120 93 71 73 212 53 159 91 53 56 51 68 42
internal_count=452 425 405 332 120 93 71 73 212 53 159 91 53 56 51 68 42
is_linear=0
shrinkage=0.05


Tree=44
num_leaves=18
num_cat=0
split_feature=84 39 1 33 82 84 9 78 78 68 59 67 65 32 49 47 15
split_gain=2.64472 2.12544 0.808019 0.46707 0.418857 0.305121 0.282462 0.222161 0.20188 0.201276 0.175657 0.120921 0.0968626 0.0828176 0.0758888 0.0938232 0.00590645
threshold=-0.28231558340608581 1.4257963518089554 -0.088477550260081431 0.14679852464608922 -1.3052627837519606 0.1186757515321207 -0.24711944188930093 -1.2413100576217804 -0.11081075976651834 -0.16981568623813698 0.15682118588128821 0.82259483554892976 0.22144879089837202 -0.0099006417587722481 0.080716527761494461 0.75932591545939088 0.21483511139169051
decision_type=2 2 2 2 2 2 2 2 2 2 2 2 2 2 2 2 2
left_child=-1 2 3 4 -2 7 -5 -4 -6 -8 -9 13 -7 -10 15 16 -12
right_child=1 -3 5 6 8 12 9 10 11 -11 14 -13 -14 -15 -16 -17 -18
leaf_value=-0.015174119610822313 -0.010819410176482053 0.016472901972675962 -0.0034315159056513087 0.0041539782394572873 0.0011073412616193915 0.0081557430812002462 -0.0040618642637439608 -0.002044687018774095 -0.0082285076961852617 0.0014246216844185256 0.0018311032839119436 -0.0014641391501451532 0.0037087085768580438 -0.0036782996971305697 0.00098756207964580621 0.0062097875349637543 0.002994530315239293
leaf_weight=27 20 21 21 34 24 24 35 21 20 32 20 24 25 20 33 27 24
leaf_count=27 20 21 21 34 24 24 35 21 20 32 20 24 25 20 33 27 24
internal_value=1.83605e-11 0.000964003 0.000157847 -0.00200206 -0.00428785 0.00247282 0.000442157 0.00132702 -0.0028034 -0.00144145 0.00212645 -0.00426993 0.00588685 -0.0059534 0.0029687 0.00388951 0.0024657
internal_weight=452 425 404 209 108 195 101 146 88 67 125 64 49 40 104 71 44
internal_count=452 425 404 209 108 195 101 146 88 67 125 64 49 40 104 71 44
is_linear=0
shrinkage=0.05


Tree=45
num_leaves=18
num_cat=0
split_feature=18 75 12 82 54 19 84 34 46 77 37 33 86 26 16 20 83
split_gain=2.51698 2.15993 0.598643 0.330377 0.331071 0.224481 0.209885 0.178432 0.176709 0.158513 0.14386 0.130382 0.115054 0.0854741 0.079008 0.0773685 0.076046
threshold=1.0878015091529945 -1.5530506586928106 -0.63510521856647772 -1.3503334056998468 -0.19975051208678293 0.43134474755243191 -0.042450699919102441 -0.64667186367806762 -0.38567671467044251 0.12278455682161957 0.023071479187966253 -0.071786162021515734 -0.068223191537505737 0.060871680337406808 -0.24680227651651174 -0.031111702383177595 0.43753951271902963
decision_type=2 2 2 2 2 2 2 2 2 2 2 2 2 2 2 2 2
left_child=1 -1 5 4 15 11 7 -5 10 -10 -8 -3 13 -9 16 -4 -12
right_child=-2 2 3 6 -6 -7 8 12 9 -11 14 -13 -14 -15 -16 -17 -18
leaf_value=0.016980560272932054 -0.014803111617004983 -0.0084537149562189991 0.0024175880848252701 -0.0042733581305947161 -0.0075487939338199795 0.00027035161831670188 -0.0016914213728159667 0.0045716951802605771 0.0023674932258048406 0.0074264725204557184 0.0012452395029620015 -0.0033887562078975691 -0.0013918367905231814 0.00029847971692850646 0.00030411133462061678 -0.0019277090816467537 0.0049216965338788358
leaf_weight=20 27 24 21 20 20 22 25 25 30 32 22 27 30 22 26 20 39
leaf_count=20 27 24 21 20 20 22 25 25 30 32 22 27 30 22 26 20 39
internal_value=4.1943e-11 0.000940433 0.000148328 0.00104973 -0.00227477 -0.0039512 0.00179805 -6.56014e-05 0.00283698 0.00497858 0.00165145 -0.00577227 0.00102732 0.00257147 0.00261205 0.000297931 0.00359576
internal_weight=452 425 405 332 61 73 271 97 174 62 112 51 77 47 87 41 61
internal_count=452 425 405 332 61 73 271 97 174 62 112 51 77 47 87 41 61
is_linear=0
shrinkage=0.05


Tree=46
num_leaves=18
num_cat=0
split_feature=84 1 94 34 9 78 59 69 82 87 18 26 47 26 78 29 9
split_gain=2.31592 1.86192 0.684 0.433312 0.38365 0.407991 0.266695 0.241738 0.187333 0.173403 0.127252 0.115453 0.0996413 0.0685116 0.0578998 0.0568391 0.0352154
threshold=-0.28231558340608581 1.0837271152199199 -0.60355339059327384 0.23704124221161807 -0.2667055861033108 -1.3503334056998468 -0.041059842182875492 0.19225303904715133 -0.65948545082180099 2.3592239273284581e-16 0.032868675858056556 -0.13992108057321431 0.94938203286265865 -0.070216418651125836 -0.69614890779424132 0.6319369351407792 0.45132280374098538
decision_type=2 2 2 2 2 2 2 2 2 2 2 2 2 2 2 2 2
left_child=-1 2 3 6 7 -6 -2 -4 12 10 13 -10 14 -9 -7 -13 -17
right_child=1 -3 4 -5 5 8 -8 9 11 -11 -12 15 -14 -15 -16 16 -18
leaf_value=-0.014199577327127811 -0.010402894696220757 0.014429750233345355 -0.0014786340612252908 0.00045917754703421248 -0.0064456772428694298 0.0060193742671981456 -0.0032978603732772174 0.0026351260528899734 -0.0036470780505893615 0.0085865257366094742 0.00014343795535916632 -0.0018450843403115869 0.00048635757767543611 0.0061052027906319415 0.0023409313006002622 0.0027837680181532747 -0.00014782461570575836
leaf_weight=27 25 24 21 36 23 20 28 25 27 20 22 21 36 33 23 21 20
leaf_count=27 25 24 21 36 23 20 28 25 27 20 22 21 36 33 23 21 20
internal_value=-2.54337e-11 0.000902091 9.24553e-05 -0.00377396 0.00119537 -0.000200147 -0.00664929 0.00339822 0.000654896 0.00442236 0.00338132 -0.000918149 0.00242706 0.00460948 0.00405184 0.000270256 0.00135372
internal_weight=452 425 401 89 312 191 53 121 168 100 80 89 79 58 43 62 41
internal_count=452 425 401 89 312 191 53 121 168 100 80 89 79 58 43 62 41
is_linear=0
shrinkage=0.05


Tree=47
num_leaves=17
num_cat=0
split_feature=10 74 12 82 40 57 86 81 11 34 17 22 52 27 10 58
split_gain=2.24529 1.99602 0.427145 0.330321 0.199914 0.195365 0.175138 0.189731 0.164359 0.159624 0.150278 0.112706 0.0683865 0.0413775 0.0469603 0.0307264
threshold=1.3090822124637544 -1.9256238627411297 -0.63510521856647772 -1.3503334056998468 1.0000000180025095e-35 0.53329444206785748 -0.015205797829021149 0.16488910649883282 -1.0314819711989631 -0.70969362309268369 -0.018991685815865897 0.087347088192514216 0.079186274357402914 -0.13992108057321431 -0.71686947634855869 -0.42680626568670899
decision_type=2 2 2 2 2 2 2 2 2 2 2 2 2 2 2 2
left_child=1 -1 5 4 -4 11 9 -8 -9 -5 -11 -3 -12 14 -10 -15
right_child=-2 2 3 6 -6 -7 7 8 13 10 12 -13 -14 15 -16 -17
leaf_value=0.016324193426407875 -0.013713271965804911 -0.0040410404680117683 -9.8119950136886188e-05 -0.0030026300965497895 -0.00582581059448421 -0.0075669206050224605 -0.00034080995828844607 0.0069521426231247095 0.0055607130692442303 0.0042188186439619003 -0.0026222832518396902 0.0006608365068677814 0.0011782039398455929 0.0006972974078023747 0.0022479466081637401 0.0032110086770262575
leaf_weight=20 28 26 39 30 25 20 39 29 20 28 20 25 29 31 23 20
leaf_count=20 28 26 39 30 25 20 39 29 20 28 20 25 29 31 23 20
internal_value=3.48827e-12 0.000905593 0.000142296 0.00089301 -0.0023355 -0.00337866 0.00166113 0.00269799 0.00366151 9.13109e-05 0.00129674 -0.0017362 -0.000373015 0.00264631 0.00378877 0.00168307
internal_weight=452 424 404 333 64 71 269 162 123 107 77 51 49 94 43 51
internal_count=452 424 404 333 64 71 269 162 123 107 77 51 49 94 43 51
is_linear=0
shrinkage=0.05


Tree=48
num_leaves=17
num_cat=0
split_feature=1 74 78 1 10 68 0 8 94 85 61 41 68 88 9 59
split_gain=2.07054 1.66444 0.810156 0.259917 0.183544 0.170257 0.173877 0.144893 0.165612 0.085062 0.0742953 0.0704723 0.066861 0.0435793 0.0393635 0.0218232
threshold=-1.1325285850239051 -1.9256238627411297 -1.6224537140882258 0.42465906616455573 1.2011182207898667 0.85143141339060124 -0.99208564430928547 -0.89536814658983632 -0.9159756150367534 -1.8041124150158791e-16 0.099005846117272561 0.31871238779485273 -0.16981568623813698 -0.016515531605428149 0.44025199384526909 0.36655255251569047
decision_type=2 2 2 2 2 2 2 2 2 2 2 2 2 2 2 2
left_child=-1 -2 -3 4 5 6 -4 -8 -9 10 -5 12 14 -11 -10 -14
right_child=1 2 3 9 -6 -7 7 8 11 13 -12 -13 15 -15 -16 -17
leaf_value=-0.011169947435050027 0.014740109543449113 -0.0084174676910042778 -0.0052764774393290288 0.0031338532195569809 0.0046296618646010758 0.0033086170023515094 0.0026373402684729437 -0.004739331977209077 0.00044640455336775631 0.0024597844473369743 -0.00086470441234442184 -0.0028935525143011054 0.00041834625371848236 0.0052173077710904181 -0.0024802344320859347 0.0022613894299740485
leaf_weight=38 21 25 20 26 20 28 33 25 20 23 21 22 36 38 27 29
leaf_count=38 21 25 20 26 20 28 33 25 20 23 21 22 36 38 27 29
internal_value=-1.56304e-11 0.00102526 0.000292406 0.00088411 2.76856e-05 -0.000355812 -0.000839794 -0.000377639 -0.00100339 0.00294587 0.00134726 -0.000306385 0.000201808 0.00417759 -0.00123486 0.00124063
internal_weight=452 414 393 368 260 240 212 192 159 108 47 134 112 61 47 65
internal_count=452 414 393 368 260 240 212 192 159 108 47 134 112 61 47 65
is_linear=0
shrinkage=0.05


Tree=49
num_leaves=19
num_cat=0
split_feature=84 39 74 0 84 27 10 35 80 25 62 22 86 23 53 83 66 86
split_gain=2.02777 1.53759 0.552845 0.34688 0.21438 0.160459 0.132138 0.102896 0.102871 0.1321 0.0823226 0.118226 0.0762575 0.069737 0.0632085 0.0553866 0.0379314 0.0197869
threshold=-0.28231558340608581 1.4257963518089554 -1.6224537140882258 0.23579534411082378 -0.072940021457823925 0.94175092170515373 1.1532043817502162 0.41667855517843849 -1.0047022507202312 -0.23064638714138047 -1.2631366049519979 -0.33947143503856547 0.098375568017061474 0.46022325479113108 0.20255068047886651 0.79328239805424594 -0.23461220298820115 0.043517585429604454
decision_type=2 2 2 2 2 2 2 2 2 2 2 2 2 2 2 2 2 2
left_child=-1 2 -2 4 5 15 7 8 -6 16 -5 -12 13 -9 17 -4 -10 -13
right_child=1 -3 3 10 6 -7 -8 12 9 -11 11 14 -14 -15 -16 -17 -18 -19
leaf_value=-0.013286882307794359 -0.0073695596064562389 0.014035060784469047 -0.0028481198792261156 0.005755181859713048 0.0019941675902373393 -0.0063880631234496839 0.0037237618602095888 -0.001719984801425396 0.0013841100782155992 -0.0044263233510719148 -0.00032654725383186054 0.0013876884807604466 0.0038141952917530118 0.0021328549338553177 0.0054625530863025538 0.00078743627949734224 -0.0014668836956843734 0.0034795629489235581
leaf_weight=27 23 21 22 20 21 22 26 23 20 32 31 26 22 24 24 20 28 20
leaf_count=27 23 21 22 20 21 22 26 23 20 32 31 26 22 24 24 20 28 20
internal_value=-1.85165e-11 0.000844108 0.000158439 0.000612886 -0.000416322 -0.00292886 0.0004041 -0.000103613 -0.00112035 -0.00193791 0.00282441 0.00224405 0.00138465 0.000247423 0.00338246 -0.0011169 -0.00027897 0.0022972
internal_weight=452 425 404 381 260 64 196 170 101 80 121 101 69 47 70 42 48 46
internal_count=452 425 404 381 260 64 196 170 101 80 121 101 69 47 70 42 48 46
is_linear=0
shrinkage=0.05


Tree=50
num_leaves=18
num_cat=0
split_feature=18 79 12 15 18 19 49 35 80 69 73 83 25 34 13 83 9
split_gain=2.02347 1.75106 0.342776 0.250171 0.334042 0.161485 0.155559 0.196371 0.13165 0.116013 0.110284 0.0873379 0.0814598 0.0704303 0.0621541 0.0568098 0.0515037
threshold=1.0878015091529945 -1.1032279770516109 -0.63510521856647772 0.54979549468444489 -0.088477550260081431 0.43134474755243191 0.16234896079044506 -0.24515994631941163 0.39358923224464287 0.48880224318131754 0.089758660066506304 0.57603212056796893 -0.17868643874539239 0.71277321736537969 0.14192396103790372 1.1983268567737622 -0.34862075097562123
decision_type=2 2 2 2 2 2 2 2 2 2 2 2 2 2 2 2 2
left_child=1 -1 5 6 15 12 7 10 11 -8 -4 13 -3 -9 -10 -5 -12
right_child=-2 2 3 4 -6 -7 9 8 14 -11 16 -13 -14 -15 -16 -17 -18
leaf_value=0.014920131613810859 -0.013272782887711568 -0.0023294957152203374 -0.0043194345617666849 -0.00062989586029942035 -0.0062521519228959307 0.00059078284115953881 0.0061551680270550326 0.00067804471240378921 -0.0013835538943410563 0.0012051536003127696 0.002036713232228067 0.0059883404984999375 -0.0063454048824496574 0.004233510054361362 0.002239618196617812 0.0025477311314633967 -0.00131094636766378
leaf_weight=21 27 23 20 39 26 22 29 30 29 20 20 23 28 26 20 22 27
leaf_count=21 27 23 20 39 26 22 29 30 29 20 20 23 28 26 20 22 27
internal_value=1.79967e-11 0.000843212 0.000111491 0.000795453 -0.00150657 -0.00298976 0.00161626 0.000983404 0.00213136 0.00413475 -0.0012097 0.00339423 -0.00453431 0.0023288 9.52919e-05 0.000516134 0.00011359
internal_weight=452 425 404 331 87 73 244 195 128 49 67 79 51 56 49 61 47
internal_count=452 425 404 331 87 73 244 195 128 49 67 79 51 56 49 61 47
is_linear=0
shrinkage=0.05


Tree=51
num_leaves=17
num_cat=0
split_feature=18 79 12 15 18 35 87 19 70 37 4 24 90 68 83 84
split_gain=1.82618 1.58034 0.309355 0.226546 0.327852 0.154971 0.166989 0.145741 0.134671 0.101863 0.0980213 0.081374 0.0744506 0.0689499 0.0548638 0.0385348
threshold=1.0878015091529945 -1.1032279770516109 -0.63510521856647772 0.60466793606011604 -0.088477550260081431 -0.24515994631941163 2.1163626406917049e-16 0.43134474755243191 -0.19780515951339597 0.087754239869540562 -0.30688759000716392 1.0000000180025095e-35 0.019520903903502054 -0.20179199246839255 1.1983268567737622 0.073951992969788063
decision_type=2 2 2 2 2 2 2 2 2 2 2 2 2 2 2 2
left_child=1 -1 7 5 14 8 10 12 9 -4 -7 -12 -3 -13 -5 -15
right_child=-2 2 3 4 -6 6 -8 -9 -10 -11 11 13 -14 15 -16 -17
leaf_value=0.014174124853508102 -0.012609143803948192 -0.0020242557528295686 -0.00077952189797845985 -0.00061874928085032751 -0.00644466349810197 -0.00059408348204348892 0.0063400463069505676 0.00056124365973201664 -0.0036106211683628237 0.0033275809819595173 0.0043866654364014606 -0.00090969344268419924 -0.0059059292916208506 0.0011467495257070719 0.0026316336904710627 0.003896067986264825
leaf_weight=21 27 21 36 37 24 34 23 22 22 26 37 21 30 26 20 25
leaf_count=21 27 21 36 37 24 34 23 22 22 26 37 21 30 26 20 25
internal_value=2.17313e-12 0.000801051 0.000105916 0.00075568 -0.00154238 0.00150025 0.0023858 -0.00284027 -0.000249754 0.000942812 0.0017498 0.00248092 -0.00430759 0.00150158 0.000521736 0.00249445
internal_weight=452 425 404 331 81 250 166 73 84 62 143 109 51 72 57 51
internal_count=452 425 404 331 81 250 166 73 84 62 143 109 51 72 57 51
is_linear=0
shrinkage=0.05


Tree=52
num_leaves=17
num_cat=0
split_feature=83 86 53 37 58 82 27 11 65 18 33 10 56 1 56 54
split_gain=1.78593 1.00445 0.374425 0.227587 0.236584 0.186854 0.150655 0.150211 0.137814 0.104245 0.102058 0.0978627 0.0595576 0.0558896 0.0248087 0.0112284
threshold=-0.63013766005696903 0.23103125954822556 0.39766849125763853 0.18995064636401324 -0.49147853521017554 -1.0790069337878643 0.94175092170515373 -0.010739870277298698 0.14605035600709795 0.3593353588345331 -0.0099006417587722481 0.75932591545939088 -0.39388231583311112 0.33061227544445854 0.55316341321898632 0.39346123954076478
decision_type=2 2 2 2 2 2 2 2 2 2 2 2 2 2 2 2
left_child=-1 2 3 4 6 7 8 -6 -2 -5 -10 13 -12 -7 15 -15
right_child=1 -3 -4 9 5 11 -8 -9 10 -11 12 -13 -14 14 -16 -17
leaf_value=-0.01423843044391279 -0.0036758773346176193 0.010860028790067072 -0.0051615128398782781 0.0016561368151973837 -0.0033173881442053244 0.00011891509365759212 -0.0054184086239812057 0.0015367398504167796 -0.0021718184355887823 0.0057921763407066465 0.003667811430724604 0.0054940300040061639 0.00011749059496516431 0.0026615682883526794 0.0039687875126089367 0.0010451914821585108
leaf_weight=21 31 23 31 39 34 37 22 30 27 25 21 20 27 22 21 21
leaf_count=21 31 23 31 39 34 37 22 30 27 25 21 20 27 22 21 21
internal_value=-2.48672e-11 0.000693752 0.000120653 0.000554995 -5.12717e-07 0.00114292 -0.00165312 -0.00104202 -0.000871651 0.00327178 0.000287429 0.00229858 0.00167076 0.00166582 0.00256013 0.00187217
internal_weight=452 431 408 377 313 185 128 64 106 64 75 121 48 101 64 43
internal_count=452 431 408 377 313 185 128 64 106 64 75 121 48 101 64 43
is_linear=0
shrinkage=0.05


Tree=53
num_leaves=16
num_cat=0
split_feature=84 1 61 84 54 57 17 77 79 82 17 30 80 54 28
split_gain=1.69446 1.30903 0.52774 0.249025 0.249487 0.149105 0.146375 0.116245 0.111478 0.117275 0.0972779 0.0909986 0.0820411 0.0443626 0.0424838
threshold=-0.28231558340608581 1.0837271152199199 0.0026445385205336506 0.19373006142676716 -0.63510521856647772 0.48246196108727629 -0.33238387353765247 0.11549307939181257 0.095066112684753859 -1.0790069337878643 0.17577658583626338 0.60608640821520732 0.11060285154341551 0.32092513104987924 0.48657614425372714
decision_type=2 2 2 2 2 2 2 2 2 2 2 2 2 2 2
left_child=-1 2 -2 4 5 11 12 -5 10 -10 -8 -4 -6 14 -11
right_child=1 -3 3 7 6 -7 8 -9 9 13 -12 -13 -14 -15 -16
leaf_value=-0.012145866639912128 -0.0074358805215028537 0.012114351917989553 -0.0028368491386728629 0.0016319910189709986 0.0010897464816707724 -0.0059267712180458365 0.0036652249262922191 0.0065703270584477162 -0.0041220630921254102 -0.0021370560473236576 -0.00011868246964045933 0.00088316370552826316 0.0046428707364777272 0.0018458135162844607 0.00041890139939307515
leaf_weight=27 22 24 35 26 32 21 33 22 22 29 35 31 33 23 37
leaf_count=27 22 24 35 26 32 21 33 22 22 29 35 31 33 23 37
internal_value=7.96331e-12 0.00077162 9.2753e-05 0.000529771 4.1705e-05 -0.00225717 0.000861386 0.0038954 0.000123417 -0.000853216 0.00171763 -0.00108957 0.00289364 -4.51861e-05 -0.000704171
internal_weight=452 425 401 379 331 87 244 48 179 111 68 66 65 89 66
internal_count=452 425 401 379 331 87 244 48 179 111 68 66 65 89 66
is_linear=0
shrinkage=0.05


end of trees

feature_importances:
Column_1=119
Column_84=82
Column_86=68
Column_33=25
Column_15=22
Column_27=22
Column_12=21
Column_77=21
Column_53=18
Column_18=17
Column_0=16
Column_9=16
Column_10=15
Column_35=14
Column_34=13
Column_82=13
Column_83=13
Column_30=12
Column_69=11
Column_79=11
Column_81=11
Column_17=10
Column_31=10
Column_78=10
Column_11=9
Column_49=9
Column_19=8
Column_24=8
Column_41=8
Column_74=8
Column_90=8
Column_94=8
Column_8=7
Column_37=7
Column_54=7
Column_57=7
Column_58=7
Column_65=7
Column_75=7
Column_4=6
Column_26=6
Column_36=6
Column_66=6
Column_68=6
Column_73=6
Column_80=6
Column_3=5
Column_16=5
Column_23=5
Column_29=5
Column_51=5
Column_52=5
Column_55=5
Column_56=5
Column_61=5
Column_70=5
Column_88=5
Column_20=4
Column_25=4
Column_32=4
Column_40=4
Column_43=4
Column_44=4
Column_45=4
Column_46=4
Column_48=4
Column_50=4
Column_59=4
Column_72=4
Column_95=4
Column_7=3
Column_22=3
Column_39=3
Column_42=3
Column_47=3
Column_67=3
Column_87=3
Column_6=2
Column_14=2
Column_38=2
Column_64=2
Column_71=2
Column_76=2
Column_85=2
Column_89=2
Column_92=2
Column_93=2
Column_2=1
Column_5=1
Column_13=1
Column_28=1
Column_62=1
Column_91=1

parameters:
[boosting: gbdt]
[objective: regression]
[metric: rmse]
[tree_learner: serial]
[device_type: cpu]
[data_sample_strategy: bagging]
[data: ]
[valid: ]
[num_iterations: 1500]
[learning_rate: 0.05]
[num_leaves: 31]
[num_threads: 0]
[seed: 42]
[deterministic: 0]
[force_col_wise: 0]
[force_row_wise: 0]
[histogram_pool_size: -1]
[max_depth: -1]
[min_data_in_leaf: 20]
[min_sum_hessian_in_leaf: 0.001]
[bagging_fraction: 0.8]
[pos_bagging_fraction: 1]
[neg_bagging_fraction: 1]
[bagging_freq: 0]
[bagging_seed: 400]
[bagging_by_query: 0]
[feature_fraction: 0.8]
[feature_fraction_bynode: 1]
[feature_fraction_seed: 30056]
[extra_trees: 0]
[extra_seed: 12879]
[early_stopping_round: 0]
[early_stopping_min_delta: 0]
[first_metric_only: 0]
[max_delta_step: 0]
[lambda_l1: 0]
[lambda_l2: 0]
[linear_lambda: 0]
[min_gain_to_split: 0]
[drop_rate: 0.1]
[max_drop: 50]
[skip_drop: 0.5]
[xgboost_dart_mode: 0]
[uniform_drop: 0]
[drop_seed: 17869]
[top_rate: 0.2]
[other_rate: 0.1]
[min_data_per_group: 100]
[max_cat_threshold: 32]
[cat_l2: 10]
[cat_smooth: 10]
[max_cat_to_onehot: 4]
[top_k: 20]
[monotone_constraints: ]
[monotone_constraints_method: basic]
[monotone_penalty: 0]
[feature_contri: ]
[forcedsplits_filename: ]
[refit_decay_rate: 0.9]
[cegb_tradeoff: 1]
[cegb_penalty_split: 0]
[cegb_penalty_feature_lazy: ]
[cegb_penalty_feature_coupled: ]
[path_smooth: 0]
[interaction_constraints: ]
[verbosity: -1]
[saved_feature_importance_type: 0]
[use_quantized_grad: 0]
[num_grad_quant_bins: 4]
[quant_train_renew_leaf: 0]
[stochastic_rounding: 1]
[linear_tree: 0]
[max_bin: 255]
[max_bin_by_feature: ]
[min_data_in_bin: 3]
[bin_construct_sample_cnt: 200000]
[data_random_seed: 175]
[is_enable_sparse: 1]
[enable_bundle: 1]
[use_missing: 1]
[zero_as_missing: 0]
[feature_pre_filter: 1]
[pre_partition: 0]
[two_round: 0]
[header: 0]
[label_column: ]
[weight_column: ]
[group_column: ]
[ignore_column: ]
[categorical_feature: ]
[forcedbins_filename: ]
[precise_float_parser: 0]
[parser_config_file: ]
[objective_seed: 16083]
[num_class: 1]
[is_unbalance: 0]
[scale_pos_weight: 1]
[sigmoid: 1]
[boost_from_average: 1]
[reg_sqrt: 0]
[alpha: 0.9]
[fair_c: 1]
[poisson_max_delta_step: 0.7]
[tweedie_variance_power: 1.5]
[lambdarank_truncation_level: 30]
[lambdarank_norm: 1]
[label_gain: ]
[lambdarank_position_bias_regularization: 0]
[eval_at: ]
[multi_error_top_k: 1]
[auc_mu_weights: ]
[num_machines: 1]
[local_listen_port: 12400]
[time_out: 120]
[machine_list_filename: ]
[machines: ]
[gpu_platform_id: -1]
[gpu_device_id: -1]
[gpu_use_dp: 0]
[num_gpu: 1]

end of parameters

pandas_categorical:null
