tree
version=v4
num_class=1
num_tree_per_iteration=1
label_index=0
max_feature_idx=90
objective=regression
feature_names=Column_0 Column_1 Column_2 Column_3 Column_4 Column_5 Column_6 Column_7 Column_8 Column_9 Column_10 Column_11 Column_12 Column_13 Column_14 Column_15 Column_16 Column_17 Column_18 Column_19 Column_20 Column_21 Column_22 Column_23 Column_24 Column_25 Column_26 Column_27 Column_28 Column_29 Column_30 Column_31 Column_32 Column_33 Column_34 Column_35 Column_36 Column_37 Column_38 Column_39 Column_40 Column_41 Column_42 Column_43 Column_44 Column_45 Column_46 Column_47 Column_48 Column_49 Column_50 Column_51 Column_52 Column_53 Column_54 Column_55 Column_56 Column_57 Column_58 Column_59 Column_60 Column_61 Column_62 Column_63 Column_64 Column_65 Column_66 Column_67 Column_68 Column_69 Column_70 Column_71 Column_72 Column_73 Column_74 Column_75 Column_76 Column_77 Column_78 Column_79 Column_80 Column_81 Column_82 Column_83 Column_84 Column_85 Column_86 Column_87 Column_88 Column_89 Column_90
feature_infos=[-0.93079171113892034:0.76220274489637097] [-1.281832724210016:1.1825989887427464] [-2.5636654484200307:2.3651979774854919] [0.01293571686870074:1.1990447202872401] [0.035760317866485605:1.9186767675887022] [-31.203208579381318:592.33070672184112] [-1.5329573266440155:1.4299605693017208] [-2.1998833971435583:3.8692245819541] [-2.1998833971435583:3.8692245819541] [-2.1998833971435583:3.8692245819541] [-2.1998833971435583:3.8692245819541] [-2.1998833971435583:3.8692245819541] [-2.1998833971435583:3.8692245819541] [-2.1998833971435583:3.8692245819541] [-2.1943998713224748:3.860955103998494] [-2.0502608434919503:3.4667554410842456] [-1.932948267045105:2.5960032455690443] [-1.4429488307083782:1.271887471424948] [-1.930941499690811:3.1939179915552884] [-1.6523423676625755:2.4421843381009802] [-1.0906039235489904:1.6125758121854392] [-1.0943781514118989:0.49708783356833375] [-1.1393703888813924:0.92501808018930487] [-1.9549191398772785:1.8500361603786093] [0.0046847623953103993:0.91432970503344935] [0.011542011266000586:1.4832385927490879] [-193.77712290858753:88.091785793586936] [-1.0493859139424053:1.0943781514118989] [-1.859047007532957:2.9342347356773439] [-1.859047007532957:2.9342347356773439] [-1.859047007532957:2.9342347356773439] [-1.859047007532957:2.9342347356773439] [-1.859047007532957:2.9342347356773439] [-1.859047007532957:2.9342347356773439] [-1.859047007532957:2.9342347356773439] [-1.8411444989449901:2.9254944873857887] [-1.7851311521189919:2.6127850031769086] [-1.6596775770260204:1.9378983043868174] [-1.2363923308227189:0.92756752962708477] [-1.6684538459803191:2.4032738825568103] [-1.4100153884727444:1.8355160751884312] [-0.94551038771076934:1.2471483834247117] [-0.49400127039001096:0.52971369659365941] [-0.9880025407800217:0.85251954131052465] [-1.9760050815600425:1.7050390826210493] [0.0012868366758747897:0.92419175121524899] [0.013313685757747098:1.4763124206384555] [-22.611259315385816:59.912483028861573] [-0.52971369659365941:0.53547822385846622] [-1.8657831647695711:3.0072490900536955] [-1.8657831647695711:3.0072490900536955] [-1.8657831647695711:3.0072490900536955] [-1.8657831647695711:3.0072490900536955] [-1.8657831647695711:3.0072490900536955] [-1.8657831647695711:3.0072490900536955] [-1.8657831647695711:3.0072490900536955] [-1.8451540357335789:2.9846685901421126] [-1.7884380586968991:2.6892051597494793] [-1.6595342578465446:2.257648937546501] [-1.2733389482879882:1.4628003759913384] [-1.6961286715380894:2.4949103568143141] [-1.4923483844990062:1.9291504386931577] [-1.1588920789451753:1.3356237601021514] [-0.58075344179437127:1.6123283976638285] [-1.1615068835887425:1.8912211661848766] [-2.3230137671774855:2.0250788067041978] [0.0042548221504438337:1.0864902026921488] [0.028997445992063706:1.41763179728068] [-21.334510975385506:400.83829654026971] [-1.3334356291427802:1.6123283976638285] [-2.5529133812149469:1.6101919081681242] [-2.5529133812149469:1.6101919081681242] [-2.5529133812149469:1.6101919081681242] [-2.5529133812149469:1.6101919081681242] [-2.5529133812149469:1.6101919081681242] [-2.5529133812149469:1.6101919081681242] [-2.5529133812149469:1.6101919081681242] [-2.5495322579552977:1.6063346788399731] [-2.5360077649167021:1.5909057615273687] [-2.3875739120518031:1.5257770023605477] [-1.3976642672705879:1.274102868188679] [-2.46499545496384:1.5712060957680936] [-2.0659601360295881:1.4186926314965422] [-1.4331814643965843:1.0982044733460352] [-1:1] [-1:1] [-0.97492791218182362:0.97492791218182362] [-0.90096886790241903:1] [0:1425] [-1:1] [-1:1]
tree_sizes=1533 1506 1510 1596 1330 1422 1511 1685 1419 1311 1416 1564 1670 1430 1600 1412 1695 1499 1603 1608 1414 1614 1527 1613 1605 1433 1610 1528 1701 1443 1524 1530 1445 1613 1613 1530 1616 1415

Tree=0
num_leaves=17
num_cat=0
split_feature=84 88 17 61 90 89 17 78 76 49 68 7 89 38 90 76
split_gain=130.459 72.2353 46.3046 33.2602 15.7102 8.95177 8.0144 7.29874 3.18509 3.16594 2.273 1.85349 0.591425 0.503037 0.255864 0.00355721
threshold=0.78656609248549325 907.50000000000011 -0.085330962995820395 0.47417831220329898 -0.81241147629689003 0.93540483100319627 0.54281198797567687 0.80263335500823729 0.35019827947917809 0.79882455023447652 0.0038383296908003355 -0.24711944188930093 0.98611507088852057 -0.21458652534372716 -0.93540483100319616 -1.4459889623230089
decision_type=2 2 2 2 2 2 2 2 2 2 2 2 2 2 2 2
left_child=1 2 3 -1 14 -2 8 9 -6 13 11 -9 -7 -3 -4 -15
right_child=5 7 4 -5 6 12 -8 10 -10 -11 -12 -13 -14 15 -16 -17
leaf_value=0.1517218593987493 0.10889546430704448 0.13190062236983058 0.15772830006491895 0.19360503820787078 0.13241859519861382 0.093252073135606517 0.1478280963628851 0.10828353420675364 0.11689867788157057 0.1417331264921676 0.12758001245123368 0.12006002479852595 0.083817604145199801 0.12757020585736351 0.15152390455685116 0.12568027203078946
leaf_weight=35 39 23 24 34 25 24 20 20 22 21 21 36 20 20 20 23
leaf_count=35 39 23 24 34 25 24 20 20 22 21 21 36 20 20 20 23
internal_value=0.131901 0.140048 0.153168 0.172463 0.141122 0.0981654 0.131924 0.125661 0.125201 0.131653 0.118939 0.115766 0.0887963 0.12839 0.155027 0.126478
internal_weight=427 344 180 69 111 83 67 164 47 87 77 56 44 66 44 43
internal_count=427 344 180 69 111 83 67 164 47 87 77 56 44 66 44 43
is_linear=0
shrinkage=1


Tree=1
num_leaves=16
num_cat=0
split_feature=55 88 17 62 89 90 87 86 80 84 34 89 13 55 49
split_gain=124.6 56.9907 36.1949 35.6273 25.4882 10.7147 7.84248 4.51369 3.19363 2.8274 2.34637 1.63214 0.488795 0.386739 0.0407794
threshold=-0.26100820152341597 892.50000000000011 -0.10072309772213227 0.12420711522485056 0.91037613702198772 -0.81241147629689003 -0.56174490092936669 -1.0000000180025095e-35 0.21317453528481081 0.78656609248549325 0.49546891568304474 0.97335555334614954 -0.26474336105908686 0.80923317473492851 -0.59777358259573243
decision_type=2 2 2 2 2 2 2 2 2 2 2 2 2 2 2
left_child=4 2 3 -2 9 13 -7 -3 -9 10 -1 -6 -10 -4 -14
right_child=1 7 5 -5 11 6 -8 8 12 -11 -12 -13 14 -15 -16
leaf_value=-0.0041309811329998929 0.014964407563099561 -0.012724488919131314 0.018394330179513387 0.061049310692355162 -0.033301077188248651 0.014745421448937686 -0.0083041869544049594 0.009451602788327575 9.1618370618755442e-05 -0.021504123399312465 -0.016266181355920332 -0.045157664127621358 -0.0065431889335610975 0.025237625453663964 -0.0040528042623023874
leaf_weight=34 27 36 20 35 25 25 28 23 22 26 26 28 20 26 26
leaf_count=34 27 36 20 35 25 25 28 23 22 26 26 28 20 26 26
internal_value=0 0.0112574 0.0231071 0.0410848 -0.0233175 0.011788 0.00251907 -0.00374739 -0.000153013 -0.0131553 -0.0094578 -0.0396947 -0.00345479 0.0223737 -0.0052125
internal_weight=427 288 161 62 139 99 53 127 91 86 60 53 68 46 46
internal_count=427 288 161 62 139 99 53 127 91 86 60 53 68 46 46
is_linear=0
shrinkage=0.03


Tree=2
num_leaves=16
num_cat=0
split_feature=55 88 38 61 89 90 17 86 89 58 13 75 76 55 27
split_gain=117.285 53.6426 35.2951 27.4405 23.9866 8.92573 7.67687 4.24761 2.86386 2.69369 2.02702 1.59929 0.486809 0.420045 0.0788327
threshold=-0.26100820152341597 892.50000000000011 -0.041947320107103399 0.36422103560758007 0.88144907265856365 -0.77259657388510627 0.4365567305298062 -1.0000000180025095e-35 0.95642797789208711 0.13436751930793098 0.63619214125368784 -0.21910624678464447 -0.23352798717460643 0.80923317473492851 1.0000000180025095e-35
decision_type=2 2 2 2 2 2 2 2 2 2 2 2 2 2 2
left_child=4 2 3 -2 10 13 -7 -3 -6 12 11 -1 14 -4 -9
right_child=1 7 5 -5 8 6 -8 9 -10 -11 -12 -13 -14 -15 -16
leaf_value=-0.013071916247654823 0.017469553873661624 -0.012343811692871213 0.016500512646205386 0.055738592682860973 -0.02834352976974399 -0.0083735889007250982 0.015377683128402413 -0.006092057267482253 -0.042249492185597932 0.0086704864210219359 -0.017355268526690563 -0.0017122450214327614 0.00061689112140838774 0.023670891944099871 -0.0031728293549383216
leaf_weight=22 31 36 20 38 26 29 21 26 36 23 31 24 20 22 22
leaf_count=22 31 36 20 38 26 29 21 26 36 23 31 24 20 22 22
internal_value=0 0.0109215 0.0224179 0.0386388 -0.0226231 0.0101909 0.00155285 -0.0036353 -0.0365213 -0.00014747 -0.0113606 -0.00722678 -0.00318242 0.020375 -0.00482583
internal_weight=427 288 161 69 139 92 50 127 62 91 77 46 68 42 48
internal_count=427 288 161 69 139 92 50 127 62 91 77 46 68 42 48
is_linear=0
shrinkage=0.03


Tree=3
num_leaves=17
num_cat=0
split_feature=89 85 51 11 81 12 89 72 3 66 54 34 26 12 89 26
split_gain=108.046 45.6294 31.1368 64.4358 10.4187 7.55251 6.78198 4.11286 2.88899 1.99963 1.53234 1.0921 0.621018 0.605153 0.504952 0.324842
threshold=0.81241147629689026 -0.78656609248549325 0.62363208532978354 -0.51182033129983318 -0.69119800970845968 -0.36238281248048193 0.93540483100319627 1.1645541745496277 0.054350002843998199 0.16442472546045464 0.34565523138776794 0.23627368489969877 -1.0000000180025095e-35 -0.46642331288201527 0.98611507088852057 0.07841703287821912
decision_type=2 2 2 2 2 2 2 2 2 2 2 2 2 2 2 2
left_child=1 5 7 -4 -5 -1 -2 9 -6 -3 -9 -7 13 -11 -8 -14
right_child=6 2 3 4 8 11 14 10 -10 12 -12 -13 15 -15 -16 -17
leaf_value=0.043228799985415893 -0.021465241466532781 0.0036905979594894652 0.061608961357324597 0.019557435846150811 -0.014138692401990092 0.017429561183274347 -0.035257199325007517 -0.017380881794949166 0.0006389854038672232 -0.0038394436804286393 -0.0074185012860774396 0.026224205421807499 0.00011128987865390087 -0.011357758419446964 -0.044038535267559444 -0.0048114634819506888
leaf_weight=20 36 32 21 20 22 32 24 29 25 21 30 28 21 21 20 25
leaf_count=20 36 32 21 20 22 32 24 29 25 21 30 28 21 21 20 25
internal_value=0 0.00724639 0.00127643 0.0158868 0.0014408 0.0271072 -0.0314078 -0.00589443 -0.00622986 -0.00266954 -0.0123871 0.0216205 -0.00501794 -0.00768791 -0.0394076 -0.00250368
internal_weight=427 347 267 88 67 80 80 179 47 120 59 60 88 42 44 46
internal_count=427 347 267 88 67 80 80 179 47 120 59 60 88 42 44 46
is_linear=0
shrinkage=0.03


Tree=4
num_leaves=14
num_cat=0
split_feature=55 88 38 61 89 74 78 88 49 66 34 89 38
split_gain=103.906 47.749 30.7025 26.0944 21.3737 7.94049 4.14983 3.55254 2.58963 2.51617 2.04564 1.3571 0.335287
threshold=-0.26100820152341597 907.50000000000011 -0.041947320107103399 0.47417831220329898 0.91037613702198772 -0.92969150267490763 0.80263335500823729 547.50000000000011 0.79882455023447652 0.35987864269899689 0.49546891568304474 0.97335555334614954 -0.21458652534372716
decision_type=2 2 2 2 2 2 2 2 2 2 2 2 2
left_child=4 2 3 -2 9 -4 8 -7 12 10 -1 -6 -3
right_child=1 6 5 -5 11 7 -8 -9 -10 -11 -12 -13 -14
leaf_value=-0.0042014074329483871 0.01808681541777685 -3.4672137670117794e-05 0.020575785132491357 0.054705592643830077 -0.030420999156526355 -0.002951682230778982 -0.012234905080171929 0.012430123051195912 0.0089027526535044674 -0.021107941281880246 -0.015109873429418032 -0.041303328627793387 -0.0047275188013375354
leaf_weight=37 37 22 36 34 25 37 37 21 21 21 28 28 43
leaf_count=37 37 22 36 34 25 37 37 21 21 21 28 28 43
internal_value=0 0.0102792 0.020824 0.035717 -0.0212942 0.00951705 -0.00384719 0.00257777 -0.000193661 -0.0119842 -0.00896251 -0.0362936 -0.00318775
internal_weight=427 288 165 71 139 94 123 58 86 86 65 53 65
internal_count=427 288 165 71 139 94 123 58 86 86 65 53 65
is_linear=0
shrinkage=0.03


Tree=5
num_leaves=15
num_cat=0
split_feature=55 88 38 51 89 90 87 72 80 89 13 75 33 33
split_gain=97.8035 44.969 29.4966 23.4997 20.21 7.45784 6.17828 3.72273 2.6724 2.34332 1.74127 1.43255 0.366869 0.0460438
threshold=-0.26100820152341597 892.50000000000011 -0.041947320107103399 0.65497278570102713 0.88144907265856365 -0.81241147629689003 -0.56174490092936669 0.94290775622784218 0.21317453528481081 0.95642797789208711 0.63619214125368784 -0.21910624678464447 -1.0307528405532231 0.023421469078631754
decision_type=2 2 2 2 2 2 2 2 2 2 2 2 2 2
left_child=4 2 3 -2 10 -4 -7 8 -3 -6 11 -1 -10 -14
right_child=1 7 5 -5 9 6 -8 -9 12 -11 -12 -13 13 -15
leaf_value=-0.012009323408903039 0.01977345939563668 0.0092389964541835234 0.019489862477685523 0.055316785278906447 -0.025980570836998944 0.012629208483187288 -0.0076198411942376776 -0.011506944536915115 0.0001409358276703239 -0.038621462319366154 -0.015876691169389955 -0.0012599388890246631 -0.0053966196827123078 -0.0029747500655051512
leaf_weight=22 39 21 38 30 26 26 28 36 22 36 31 24 27 21
leaf_count=22 39 21 38 30 26 26 28 36 22 36 31 24 27 21
internal_value=0 0.00997184 0.0204981 0.0353282 -0.0206604 0.00931671 0.00207957 -0.00335451 -8.73558e-05 -0.0334191 -0.0103182 -0.00648092 -0.00293725 -0.00440781
internal_weight=427 288 161 69 139 92 54 127 91 62 77 46 70 48
internal_count=427 288 161 69 139 92 54 127 91 62 77 46 70 48
is_linear=0
shrinkage=0.03


Tree=6
num_leaves=16
num_cat=0
split_feature=55 88 17 61 89 90 87 86 50 89 13 75 55 76 27
split_gain=92.0596 42.3271 26.4219 27.1155 19.0134 8.27196 7.13917 3.7716 2.21126 2.1984 1.63586 1.34702 0.61803 0.413572 0.0572037
threshold=-0.26100820152341597 907.50000000000011 -0.085330962995820395 0.47417831220329898 0.88144907265856365 -0.77259657388510627 -0.56174490092936669 -1.0000000180025095e-35 0.78724478775705842 0.95642797789208711 0.63619214125368784 -0.21910624678464447 0.77604567869609586 -0.23352798717460643 1.0000000180025095e-35
decision_type=2 2 2 2 2 2 2 2 2 2 2 2 2 2 2
left_child=4 2 3 -2 10 12 -7 -3 13 -6 11 -1 -4 14 -9
right_child=1 7 5 -5 9 6 -8 8 -10 -11 -12 -13 -14 -15 -16
leaf_value=-0.011650673951869367 0.015132914159304933 -0.0119418786580746 0.014080109138624362 0.053499883687027988 -0.025204140163701153 0.012832670692466509 -0.0098013430101604303 -0.005513663591667153 0.0084324910869794101 -0.037466028988196245 -0.01540192234985698 -0.0012222976562145833 0.021767048690591789 0.00060600533742638334 -0.0029347269765493283
leaf_weight=22 34 35 21 33 26 24 26 26 20 36 31 24 27 20 22
leaf_count=22 34 35 21 33 26 24 26 26 20 36 31 24 27 20 22
internal_value=0 0.00967393 0.0196021 0.0341264 -0.0200452 0.00961702 0.00100703 -0.0036251 -0.000273443 -0.0324211 -0.0100122 -0.00628931 0.0185026 -0.00288669 -0.00440258
internal_weight=427 288 165 67 139 98 50 123 88 62 77 46 48 68 48
internal_count=427 288 165 67 139 98 50 123 88 62 77 46 48 68 48
is_linear=0
shrinkage=0.03


Tree=7
num_leaves=18
num_cat=0
split_feature=84 83 20 61 90 90 49 84 74 81 74 13 16 86 7 55 20
split_gain=86.9923 44.529 31.8305 35.1794 8.38374 6.83859 5.83122 5.56666 3.06385 2.06178 2.00918 1.32736 0.595362 0.547457 0.206611 0.172266 0.155192
threshold=0.78656609248549325 0.36648199767546163 -0.15071674350783024 0.47417831220329898 -0.81241147629689003 -0.88144907265856332 0.92497267250463711 0.91597561503675362 0.54949638169392345 -0.69119800970845968 -0.38177618038023264 0.62781571564775174 -0.22802188205781396 -1.0000000180025095e-35 0.43719961234386079 0.79677381795093305 -0.056001221578754264
decision_type=2 2 2 2 2 2 2 2 2 2 2 2 2 2 2 2 2
left_child=1 2 3 5 15 -1 10 -2 -3 -8 -6 13 -9 -10 -12 -4 -15
right_child=7 8 4 -5 6 -7 9 12 11 -11 14 -13 -14 16 -16 -17 -18
leaf_value=0.027585594858696206 -0.018182143067192826 -0.019242599562728575 0.014753898057475019 0.054319105696448169 -0.010290787970008005 0.0050872482479959033 0.016599655570588769 -0.039123411178588863 -0.0084517111106594978 0.0030687175435361574 -0.0018498433553683221 -0.012700263761080705 -0.030566477631334726 -0.00081584096798388236 0.0024339430431710245 0.020131981230493801 -0.0044458760804872008
leaf_weight=20 35 21 20 31 27 32 22 20 20 20 20 23 28 28 20 20 20
leaf_count=20 35 21 20 31 27 32 22 20 20 20 20 23 28 28 20 20 20
internal_value=0 0.00664962 0.0141521 0.0290385 0.00582562 0.0138344 0.00147932 -0.027551 -0.00886317 0.0102502 -0.00398122 -0.0064165 -0.0342682 -0.00423152 0.000217965 0.0175613 -0.00239682
internal_weight=427 344 232 83 149 52 109 83 112 42 67 91 48 68 40 40 48
internal_count=427 344 232 83 149 52 109 83 112 42 67 91 48 68 40 40 48
is_linear=0
shrinkage=0.03


Tree=8
num_leaves=15
num_cat=0
split_feature=84 88 17 50 90 89 17 78 76 64 80 55 89 5
split_gain=81.8811 45.308 29.7056 23.4433 9.90527 5.33781 5.25086 4.87019 2.18289 1.62983 1.93708 0.594669 0.416672 0.233025
threshold=0.78656609248549325 907.50000000000011 -0.085330962995820395 0.62363208532978354 -0.77259657388510627 0.93540483100319627 0.4365567305298062 0.80263335500823729 -0.17578057763196292 0.014959778094006797 0.93226079447902255 0.77604567869609586 0.98611507088852057 -0.15690824623849423
decision_type=2 2 2 2 2 2 2 2 2 2 2 2 2 2
left_child=1 2 3 -1 11 -2 -6 8 13 10 -9 -4 -7 -3
right_child=5 7 4 -5 6 12 -8 9 -10 -11 -12 -13 -14 -15
leaf_value=0.016322224981437518 -0.018399591636474782 -0.00026951672994836241 0.013079655796154591 0.051671597250404842 -0.0089523343951230308 -0.030224759084060478 0.0085084696392499909 -0.018560631060108693 0.0076052857384363882 -0.0030950210125834381 -0.007112826588683902 0.020487816839640429 -0.038179599740611969 -0.0043015073964509437
leaf_weight=38 39 21 22 31 33 24 29 29 24 21 27 27 20 42
leaf_count=38 39 21 22 31 33 24 29 29 24 21 27 27 20 42
internal_value=0 0.00645088 0.016843 0.032299 0.00718771 -0.0267299 -0.000736325 -0.0049401 -4.01019e-05 -0.0104303 -0.0131171 0.0172562 -0.033987 -0.00300761
internal_weight=427 344 180 69 111 83 62 164 87 77 56 49 44 63
internal_count=427 344 180 69 111 83 62 164 87 77 56 49 44 63
is_linear=0
shrinkage=0.03


Tree=9
num_leaves=14
num_cat=0
split_feature=55 88 38 62 89 74 78 88 66 49 34 89 38
split_gain=76.8832 35.7114 22.6638 19.9242 15.9787 6.12549 3.24158 2.74694 2.03998 1.98217 1.6019 1.03001 0.25793
threshold=-0.26100820152341597 907.50000000000011 -0.041947320107103399 0.12420711522485056 0.91037613702198772 -0.92969150267490763 0.80263335500823729 547.50000000000011 0.35987864269899689 0.79882455023447652 0.49546891568304474 0.97335555334614954 -0.21458652534372716
decision_type=2 2 2 2 2 2 2 2 2 2 2 2 2
left_child=4 2 3 -2 8 -4 9 -7 10 12 -1 -6 -3
right_child=1 6 5 -5 11 7 -8 -9 -10 -11 -12 -13 -14
leaf_value=-0.0033171094043919006 0.013021019805814618 0 0.017951634822624869 0.0451619836329804 -0.026127053059904697 -0.0027183435994860617 -0.010787936442825351 0.010804845257110505 -0.018480558319467502 0.0078122550285293297 -0.012978215909619348 -0.035688272133416549 -0.0041156550175283461
leaf_weight=37 32 22 36 39 25 37 37 21 21 21 28 28 43
leaf_count=37 32 22 36 39 25 37 37 21 21 21 28 28 43
internal_value=0 0.00883915 0.0179588 0.0307568 -0.0183201 0.00823789 -0.00337477 0.00213652 -0.0102636 -0.000141712 -0.00753844 -0.0312925 -0.00276559
internal_weight=427 288 165 71 139 94 123 58 86 86 65 53 65
internal_count=427 288 165 71 139 94 123 58 86 86 65 53 65
is_linear=0
shrinkage=0.03


Tree=10
num_leaves=15
num_cat=0
split_feature=84 88 41 60 17 89 71 76 85 76 68 80 89 5
split_gain=72.8093 40.209 26.6367 23.7821 6.5365 4.68135 4.28627 4.26623 3.31699 2.13146 1.73654 1.78886 0.363919 0.197993
threshold=0.78656609248549325 907.50000000000011 -0.11986926569748137 0.63533098750117045 0.5813288752062189 0.93540483100319627 0.72274714305269205 0.068613390622054668 -0.9159756150367534 -0.17578057763196292 0.0038383296908003355 0.93226079447902255 0.98611507088852057 -0.15690824623849423
decision_type=2 2 2 2 2 2 2 2 2 2 2 2 2 2
left_child=1 2 3 8 7 -2 9 -4 -1 13 11 -8 -7 -3
right_child=5 6 4 -5 -6 12 10 -9 -10 -11 -12 -13 -14 -15
leaf_value=0.02614130135575031 -0.017393550268371999 -0.00023508390614771727 0.0084809324634635749 0.051558567307532048 0.017193642590463774 -0.028446004207698137 -0.017529944114114751 -0.0064911013231502739 0.010806999649526128 0.0080863162741587578 -0.0024775630723104457 -0.0066126135996211234 -0.035974587468958603 -0.003978256251472626
leaf_weight=22 39 21 31 27 29 24 30 38 33 22 23 27 20 41
leaf_count=22 39 21 31 27 29 24 30 38 33 22 23 27 20 41
internal_value=0 0.0060814 0.0158715 0.0284856 0.0052679 -0.0252073 -0.00464865 0.000194588 0.0170315 5.04279e-05 -0.00961404 -0.0124318 -0.0320099 -0.00276114
internal_weight=427 344 180 82 98 83 164 69 55 84 80 57 44 62
internal_count=427 344 180 82 98 83 164 69 55 84 80 57 44 62
is_linear=0
shrinkage=0.03


Tree=11
num_leaves=17
num_cat=0
split_feature=55 88 41 61 89 86 40 86 49 58 89 33 65 7 61 63
split_gain=68.1135 31.7931 20.7875 22.4951 14.2897 5.57457 4.63565 2.90504 2.02266 1.69385 1.59501 1.32561 0.844331 0.693477 0.238032 0.0379093
threshold=-0.26100820152341597 892.50000000000011 -0.14397480822890196 0.48314254874374846 0.88144907265856365 0.87837969732492682 -0.41012779003898481 -1.0000000180025095e-35 1.0838944107373794 0.13436751930793098 0.97335555334614954 -0.38461064162584008 0.030501132875803652 0.7166297421826745 -0.37815031382607817 -0.12763974564258859
decision_type=2 2 2 2 2 2 2 2 2 2 2 2 2 2 2 2
left_child=4 2 3 6 11 8 -2 -3 13 14 -6 -1 -13 -4 15 -9
right_child=1 7 5 -5 10 -7 -8 9 -10 -11 -12 12 -14 -15 -16 -17
leaf_value=-0.0021330982081305518 0.0056556251813653369 -0.010084892017070276 0.019174444173381534 0.050131048695896858 -0.023164078583640436 -0.004934737737371713 0.025146338800331212 -0.0049216446725290205 0.0037891702220511077 0.0069926392693411216 -0.033610339546542994 -0.015232625929007966 -0.0074077542572037816 0.010951579702156248 0 -0.0026021394845061967
leaf_weight=22 22 36 24 28 34 24 23 20 20 23 28 25 30 20 25 23
leaf_count=22 22 36 24 28 34 24 23 20 20 23 28 25 30 20 25 23
internal_value=0 0.00831824 0.0171696 0.0290089 -0.0172451 0.00729246 0.0157177 -0.00288382 0.011925 0 -0.0279766 -0.00854026 -0.0110402 0.0155381 -0.0024082 -0.0037595
internal_weight=427 288 161 73 139 88 45 127 64 91 62 77 55 44 68 43
internal_count=427 288 161 73 139 88 45 127 64 91 62 77 55 44 68 43
is_linear=0
shrinkage=0.03


Tree=12
num_leaves=18
num_cat=0
split_feature=84 88 17 60 90 66 84 78 26 58 49 45 34 19 55 38 45
split_gain=64.7495 35.7243 23.9198 20.6094 7.79361 4.34703 4.18495 3.91165 3.36539 3.01677 1.6374 1.44308 1.48015 0.589095 0.545334 0.272539 0.00273661
threshold=0.78656609248549325 907.50000000000011 -0.10072309772213227 0.67887236045083432 -0.77259657388510627 0.20900278652076931 0.91597561503675362 0.80263335500823729 -0.010507750207404408 0.92767226701623295 0.79882455023447652 0.24346610087603995 0.44027028361204873 -0.24527453427515908 0.77604567869609586 -0.21458652534372716 0.26985805880432251
decision_type=2 2 2 2 2 2 2 2 2 2 2 2 2 2 2 2 2
left_child=1 2 3 8 14 9 -2 10 -1 -6 15 12 -9 -8 -4 -3 -17
right_child=6 7 4 -5 5 -7 13 11 -10 -11 -12 -13 -14 -15 -16 16 -18
leaf_value=0.024920127342885994 -0.015626063749958306 0.00017196932175595844 0.011421982568579833 0.05081513871234726 -0.0023935444986858921 -0.011982246415494982 -0.034282320328612823 -0.0014791403664856006 0.0074254553309549085 0.013420613470918207 0.007257141031995768 -0.015127925233936858 -0.011886767357974858 -0.026047004821885943 0.01833367059663521 -0.002914850360195561 -0.0044705627675022553
leaf_weight=20 35 23 23 25 23 20 20 28 21 20 21 26 23 28 28 22 21
leaf_count=20 35 23 23 25 23 20 20 28 21 20 21 26 23 28 28 22 21
internal_value=0 0.00573391 0.0149621 0.0293348 0.00659636 -0.000418062 -0.0237722 -0.00437926 0.0160723 0.00490634 0 -0.00929944 -0.00624556 -0.0296049 0.0153038 -0.00234152 -0.00375283
internal_weight=427 344 180 66 114 63 83 164 41 43 87 77 51 48 51 66 43
internal_count=427 344 180 66 114 63 83 164 41 43 87 77 51 48 51 66 43
is_linear=0
shrinkage=0.03


Tree=13
num_leaves=15
num_cat=0
split_feature=55 88 38 62 55 74 76 86 67 80 34 54 7 27
split_gain=60.3182 28.2181 18.0446 16.6553 11.1548 5.01346 2.818 2.71995 2.62427 1.67253 1.34304 1.09792 0.298931 0.0829068
threshold=-0.26100820152341597 907.50000000000011 -0.041947320107103399 0.12420711522485056 -0.93548092047303755 -0.92969150267490763 0.068613390622054668 -1.0000000180025095e-35 0.63770746339774764 0.21317453528481081 0.49546891568304474 0.9304762924328781 0.60377431641782586 1.0000000180025095e-35
decision_type=2 2 2 2 2 2 2 2 2 2 2 2 2 2
left_child=4 2 3 -2 11 -4 -7 -3 10 -9 -6 -1 13 -11
right_child=1 7 5 -5 8 6 -8 9 -10 12 -12 -13 -14 -15
leaf_value=-0.021420774477631296 0.01113370858341734 -0.010090474782463832 0.016043399372589553 0.040525400809314847 -0.0026982805145166389 0.0079296401287638641 -0.0052775752049530568 0.0073908091002880634 -0.018322416982648283 -0.0052253261565892396 -0.011548000575702809 -0.031519609812486207 0.00049578137883443891 -0.0023600850271425023
leaf_weight=20 32 35 36 39 37 31 27 20 24 22 28 30 20 26
leaf_count=20 32 35 36 39 37 31 27 20 24 22 28 30 20 26
internal_value=0 0.007827 0.0159339 0.0273549 -0.0162291 0.00725565 0.00173132 -0.00302789 -0.00978872 -0.000176589 -0.00656843 -0.0275908 -0.00245393 -0.00374382
internal_weight=427 288 165 71 139 94 58 123 89 88 65 50 68 48
internal_count=427 288 165 71 139 94 58 123 89 88 65 50 68 48
is_linear=0
shrinkage=0.03


Tree=14
num_leaves=17
num_cat=0
split_feature=84 88 17 50 90 79 84 71 11 76 63 74 19 55 5 7
split_gain=57.5962 31.7235 21.3444 19.0791 6.96304 4.11613 3.71667 3.53242 2.05108 1.78461 1.46196 1.29988 0.515965 0.514065 0.171454 0.00177949
threshold=0.78656609248549325 907.50000000000011 -0.10072309772213227 0.62363208532978354 -0.77259657388510627 -0.70177432102000636 0.91597561503675362 0.72274714305269205 0.20755314861902732 -0.17578057763196292 0.0062482382468048029 1.2572691114009145 -0.24527453427515908 0.77604567869609586 -0.15690824623849423 0.044626900999855411
decision_type=2 2 2 2 2 2 2 2 2 2 2 2 2 2 2 2
left_child=1 2 3 -1 13 -6 -2 9 -7 14 11 -9 -8 -4 -3 -16
right_child=6 7 4 -5 5 8 12 10 -10 -11 -12 -13 -14 -15 15 -17
leaf_value=0.013229662231859972 -0.014734270264131898 -7.4104659647738187e-05 0.010663606547690057 0.045906280758454626 0.010334848400152407 0.00030157664040634532 -0.032337780443590078 -0.014375762167408709 -0.012825684098026422 0.007494986411394778 -0.0014230516990785722 -0.0049315796197050695 -0.024558324601726595 0.017366886429515171 -0.0027332350350386717 -0.0042584793692204484
leaf_weight=37 35 21 23 29 21 22 20 38 20 22 20 22 28 28 21 20
leaf_count=37 35 21 23 29 21 22 20 38 20 22 20 22 28 28 21 20
internal_value=0 0.00540676 0.0141031 0.0276807 0.00619871 -0.00042894 -0.0224218 -0.00412248 -0.00589386 0.000140415 -0.00863056 -0.0109768 -0.0279226 0.0144293 -0.00242883 -0.0035588
internal_weight=427 344 180 66 114 63 83 164 42 84 80 60 48 51 62 41
internal_count=427 344 180 66 114 63 83 164 42 84 80 60 48 51 62 41
is_linear=0
shrinkage=0.03


Tree=15
num_leaves=15
num_cat=0
split_feature=84 88 41 60 17 20 79 76 78 76 68 80 89 26
split_gain=54.2125 29.8698 20.4683 18.5057 5.16278 3.72534 3.56046 3.41906 3.33414 1.53848 1.30965 1.54448 0.537329 0.108934
threshold=0.78656609248549325 907.50000000000011 -0.11986926569748137 0.56655301318246176 0.5813288752062189 -0.45462193758822661 0.11734247929938306 0.068613390622054668 0.80263335500823729 -0.17578057763196292 0.0038383296908003355 0.93226079447902255 0.98611507088852057 -0.13479472208426954
decision_type=2 2 2 2 2 2 2 2 2 2 2 2 2 2
left_child=1 2 3 5 7 -1 -2 -4 9 13 11 -10 -8 -3
right_child=6 8 4 -5 -6 -7 12 -9 10 -11 -12 -13 -14 -15
leaf_value=0.0032024973789368987 -0.01364755762497259 -0.00049750083889723955 0.0072953357408571855 0.043035225230254152 0.01498234668112907 0.020016494186361498 -0.0236298472398347 -0.0061093967390342015 -0.015807172465570191 0.0064719006870544802 -0.0019667592058752736 -0.0055809927014187251 -0.031282273815638979 -0.0033341596457850619
leaf_weight=20 32 21 31 31 29 31 31 38 29 24 21 27 20 42
leaf_count=20 32 21 31 31 29 31 31 38 29 24 21 27 20 42
internal_value=0 0.00524486 0.0136834 0.0247415 0.00438433 0.0135006 -0.0217539 -4.17232e-05 -0.00400137 0 -0.00854387 -0.0109489 -0.0267449 -0.00243844
internal_weight=427 344 180 82 98 51 83 69 164 87 77 56 51 63
internal_count=427 344 180 82 98 51 83 69 164 87 77 56 51 63
is_linear=0
shrinkage=0.03


Tree=16
num_leaves=18
num_cat=0
split_feature=84 88 41 61 3 20 79 71 54 76 12 63 14 89 53 5 14
split_gain=51.0277 28.1216 19.264 17.5386 4.33252 3.96338 3.34784 3.14142 2.77788 1.5897 1.37635 1.2925 1.21414 0.501731 0.295705 0.154089 0.0019848
threshold=0.78656609248549325 907.50000000000011 -0.11986926569748137 0.48314254874374846 0.063292074915995825 -0.45462193758822661 0.11734247929938306 0.72274714305269205 -0.054716915922418841 -0.17578057763196292 0.23579534411082378 0.0062482382468048029 -0.39441573949468617 0.97335555334614954 -0.26100820152341597 -0.15690824623849423 0.044626900999855453
decision_type=2 2 2 2 2 2 2 2 2 2 2 2 2 2 2 2 2
left_child=1 2 3 5 -4 -1 -2 9 10 15 -6 12 -9 -8 -14 -3 -17
right_child=6 7 4 -5 8 -7 13 11 -10 -11 -12 -13 14 -15 -16 16 -18
leaf_value=0.0032924046276702201 -0.01323940640734291 -4.8971391896500958e-05 -0.0073779411937586314 0.042776219986148716 0.015622678867681997 0.020263593631370043 -0.021836664413476915 -0.016488339465055891 -0.00065972982420821769 0.0070778759376765379 0.005371341356804585 -0.0013470533162828033 -0.0042728118978635357 -0.029127754397239546 -0.0098613041572606381 -0.0025520758627432779 -0.0040403010262482194
leaf_weight=21 32 21 22 29 31 32 23 20 24 22 21 20 20 28 20 21 20
leaf_count=21 32 21 22 29 31 32 23 20 24 22 21 20 20 28 20 21 20
internal_value=-4.50218e-07 0.00508779 0.0132758 0.0240039 0.0042533 0.0136145 -0.0211059 -0.00388335 0.00766493 0.000134708 0.0115586 -0.00813467 -0.0103413 -0.0259475 -0.00715949 -0.00228812 -0.0033591
internal_weight=427 344 180 82 98 53 83 164 76 84 52 80 60 51 40 62 41
internal_count=427 344 180 82 98 53 83 164 76 84 52 80 60 51 40 62 41
is_linear=0
shrinkage=0.03


Tree=17
num_leaves=16
num_cat=0
split_feature=84 88 41 61 79 24 20 84 78 76 68 80 55 19 5
split_gain=48.0266 26.4785 18.1508 17.0936 3.9909 5.33751 3.81981 3.18946 2.96261 1.53022 1.15793 1.48342 0.806111 0.480255 0.147144
threshold=0.78656609248549325 907.50000000000011 -0.14397480822890196 0.48314254874374846 -0.70177432102000636 0.12215947201159856 -0.45462193758822661 0.91597561503675362 0.63634335729480895 -0.17578057763196292 0.0038383296908003355 0.93226079447902255 0.39098153505275657 -0.24527453427515908 -0.15690824623849423
decision_type=2 2 2 2 2 2 2 2 2 2 2 2 2 2 2
left_child=1 2 3 6 12 -6 -1 -2 9 14 11 -10 -4 -9 -3
right_child=7 8 4 -5 5 -7 -8 13 10 -11 -12 -13 -14 -15 -16
leaf_value=0.0031941007863800809 -0.013346271187098871 0 0.0071138174978407076 0.042553722234277114 -0.011024395315889344 0.0070881788370907939 0.02019088424358171 -0.029804159135960816 -0.014664715896314164 0.0073280077219291884 -0.0019065019158350351 -0.0050850106904977909 0.015865515594798808 -0.022353723341884135 -0.0031903754784835606
leaf_weight=21 35 20 21 28 25 35 29 20 30 21 24 31 21 28 38
leaf_count=21 35 20 21 28 25 35 29 20 30 21 24 31 21 28 38
internal_value=-1.6059e-06 0.00493453 0.0128798 0.0237735 0.00450486 -0.000414596 0.0131327 -0.0204772 -0.00377017 0.000376908 -0.00765568 -0.00986173 0.0115882 -0.025576 -0.00209652
internal_weight=427 344 180 78 102 60 50 83 164 79 85 61 42 48 58
internal_count=427 344 180 78 102 60 50 83 164 79 85 61 42 48 58
is_linear=0
shrinkage=0.03


Tree=18
num_leaves=17
num_cat=0
split_feature=84 88 17 50 90 79 79 78 11 76 45 34 89 54 5 47
split_gain=45.2078 24.9296 17.2918 15.6966 5.68238 3.39589 3.02781 2.79151 1.77316 1.27894 1.14826 1.13267 0.46141 0.348788 0.144375 0.00723611
threshold=0.78656609248549325 907.50000000000011 -0.10072309772213227 0.62363208532978354 -0.77259657388510627 -0.70177432102000636 0.11734247929938306 0.80263335500823729 0.20755314861902732 -0.17578057763196292 0.24346610087603995 0.44027028361204873 0.98611507088852057 -0.23299620145377689 -0.15690824623849423 -0.13466572416970476
decision_type=2 2 2 2 2 2 2 2 2 2 2 2 2 2 2 2
left_child=1 2 3 -1 13 -6 -2 9 -7 14 11 -9 -8 -4 -3 -16
right_child=6 7 4 -5 5 8 12 10 -10 -11 -12 -13 -14 -15 15 -17
leaf_value=0.01160284062006563 -0.012379885572487504 -4.0279281506606178e-05 0.015288157643372477 0.041251672238457139 0.0091666139702211141 0.00018010062296196344 -0.021566221112223678 -0.0009063227971505334 -0.012014619132587268 0.0059036266625978641 -0.013014643641038872 -0.010016708919754275 -0.028700513839721675 0.0096230998944926566 -0.0023234051688393546 -0.0039165576004604402
leaf_weight=37 32 21 28 29 21 22 31 28 20 24 26 23 20 23 20 22
leaf_count=37 32 21 28 29 21 22 31 28 20 24 26 23 20 23 20 22
internal_value=-1.56173e-06 0.00478732 0.0124968 0.0247184 0.00537943 -0.000603773 -0.0198674 -0.00365853 -0.00557039 0 -0.00781499 -0.0050852 -0.0244734 0.0128159 -0.00222038 -0.00323649
internal_weight=427 344 180 66 114 63 83 164 42 87 77 51 51 51 63 42
internal_count=427 344 180 66 114 63 83 164 42 87 77 51 51 51 63 42
is_linear=0
shrinkage=0.03


Tree=19
num_leaves=17
num_cat=0
split_feature=84 88 17 60 59 23 54 72 64 49 46 34 55 55 38 45
split_gain=42.5525 23.4748 16.2702 14.7754 5.53158 2.89174 2.89054 2.63611 1.8802 1.2143 1.16839 0.998444 0.722078 0.567916 0.206511 0.0410075
threshold=0.78656609248549325 907.50000000000011 -0.10072309772213227 0.67887236045083432 0.6136579098942756 0.067584416277093842 0.79496890810645959 0.90113417828229347 -1.0000000180025095e-35 0.79882455023447652 0.43942053231257261 0.44027028361204873 0.77604567869609586 -1.1907805458334317 -0.21458652534372716 0.27159964220106897
decision_type=2 2 2 2 2 2 2 2 2 2 2 2 2 2 2 2
left_child=1 2 3 5 8 -1 -2 9 -4 14 11 -9 -10 -8 -3 -16
right_child=6 7 4 -5 -6 -7 13 10 12 -11 -12 -13 -14 -15 15 -17
leaf_value=0.0047426062220292629 -0.012138370416785541 0.00028624625328709094 0.0011844781777863181 0.042171800450024846 -0.0052868898641144002 0.020922376017517116 -0.027702153154428564 -0.0010981153430330351 0.0087518790449477354 0.0063255192265267617 -0.012506860978768812 -0.0098761037570327063 0.015661487539043631 -0.020169371119860943 -0.0019198663907028487 -0.0042111432511882001
leaf_weight=21 33 22 20 25 32 20 24 30 34 21 28 20 28 26 21 22
leaf_count=21 33 22 20 25 32 20 24 30 34 21 28 20 28 26 21 22
internal_value=-2.01961e-06 0.00464388 0.0121252 0.0239806 0.00522021 0.0127399 -0.0192758 -0.00355141 0.00935852 3.73874e-05 -0.00754169 -0.0046819 0.0119409 -0.0238931 -0.00195468 -0.0031688
internal_weight=427 344 180 66 114 41 83 164 82 86 78 50 62 50 65 43
internal_count=427 344 180 66 114 41 83 164 82 86 78 50 62 50 65 43
is_linear=0
shrinkage=0.03


Tree=20
num_leaves=15
num_cat=0
split_feature=89 88 41 60 41 17 78 84 76 76 86 34 16 5
split_gain=40.233 21.4379 13.9107 16.1203 4.10432 3.9921 2.65962 2.35195 2.08652 1.29812 0.970125 1.06176 0.409268 0.127282
threshold=0.81241147629689026 922.50000000000011 -0.11986926569748137 0.56655301318246176 -0.4686070600406182 0.5813288752062189 0.63634335729480895 0.91597561503675362 0.068613390622054668 -0.17578057763196292 -1.0000000180025095e-35 0.49546891568304474 -0.22802188205781396 -0.15690824623849423
decision_type=2 2 2 2 2 2 2 2 2 2 2 2 2 2
left_child=1 2 3 4 -1 8 9 -2 -4 13 -8 -12 -9 -3
right_child=7 6 5 -5 -6 -7 10 12 -10 -11 11 -13 -14 -15
leaf_value=0.00013967584810173347 -0.012602606664333387 0 0.0048895619750133337 0.037486509873600631 0.016997811543977507 0.01309668501469393 -0.013059038716010853 -0.02738897643872161 -0.0053134032275177472 0.0069014696704585154 -0.0018611671502351695 -0.0099960963376637159 -0.020454321896054142 -0.0029537013442966879
leaf_weight=22 32 20 37 31 33 29 21 20 35 20 35 26 28 38
leaf_count=22 32 20 37 31 33 29 21 20 35 20 35 26 28 38
internal_value=-1.923e-06 0.00441373 0.0113125 0.0201805 0.0103215 0.00371925 -0.00363244 -0.0191739 -2.90944e-05 0.000297277 -0.00740281 -0.0053883 -0.0234571 -0.00193635
internal_weight=427 347 187 86 55 101 160 80 72 78 82 61 48 58
internal_count=427 347 187 86 55 101 160 80 72 78 82 61 48 58
is_linear=0
shrinkage=0.03


Tree=21
num_leaves=17
num_cat=0
split_feature=84 88 17 50 90 66 54 77 60 68 15 55 12 55 10 79
split_gain=37.8708 20.8508 14.298 13.7501 4.89227 3.25147 2.58086 2.52435 1.87221 1.22841 1.14813 0.497316 0.318941 0.302887 0.184926 0.156595
threshold=0.78656609248549325 922.50000000000011 -0.10072309772213227 0.62363208532978354 -0.77259657388510627 0.20900278652076931 0.79496890810645959 -0.79162113333377471 0.93320571117407514 0.0051937950889812132 -0.57520575228005755 -1.1907805458334317 -0.33525634163893953 0.77604567869609586 -0.067715305008661783 0.39358923224464293
decision_type=2 2 2 2 2 2 2 2 2 2 2 2 2 2 2 2
left_child=1 2 3 -1 13 8 -2 -3 -6 10 -9 -8 -12 -4 -14 -11
right_child=6 7 4 -5 5 -7 11 9 -10 15 12 -13 14 -15 -16 -17
leaf_value=0.010411204006522894 -0.011431208529855684 0.0063570271087671397 0.0087807755210956972 0.037846071097961398 -0.0020782259393196836 -0.01031466551851128 -0.026142601234784259 -0.013117656761030265 0.010187523462619986 0.00062400483184944983 -0.0023492028000438067 -0.019033854062529814 -0.0089979792175008278 0.014085526710303227 -0.0044106303500150565 -0.0026405094245199072
leaf_weight=39 33 20 23 29 22 21 24 22 22 22 27 26 20 28 20 29
leaf_count=39 33 20 23 29 22 21 24 22 22 22 27 26 20 28 20 29
internal_value=-2.17285e-06 0.00438031 0.011269 0.0221938 0.00482528 -0.00059023 -0.0181852 -0.00352498 0.00399582 -0.00496163 -0.00709401 -0.0225513 -0.00505479 0.0117738 -0.00679584 -0.00117511
internal_weight=427 344 184 68 116 65 83 160 44 140 89 50 67 51 40 51
internal_count=427 344 184 68 116 65 83 160 44 140 89 50 67 51 40 51
is_linear=0
shrinkage=0.03


Tree=22
num_leaves=16
num_cat=0
split_feature=89 88 41 61 20 17 72 89 76 49 54 46 89 38 61
split_gain=35.7491 19.0305 12.3776 14.4553 4.35228 3.54873 2.3976 2.13566 1.91735 1.18562 1.13186 0.344439 0.193981 0.155996 0.0248988
threshold=0.81241147629689026 922.50000000000011 -0.11986926569748137 0.48314254874374846 -0.45462193758822661 0.5813288752062189 0.90113417828229347 0.93540483100319627 0.068613390622054668 0.79882455023447652 -0.013267380328776947 0.45205381695371233 0.98611507088852057 -0.21458652534372716 -0.65782029025938116
decision_type=2 2 2 2 2 2 2 2 2 2 2 2 2 2 2
left_child=1 2 3 4 -1 8 9 -2 -4 13 -8 -12 -9 -3 -15
right_child=7 6 5 -5 -6 -7 10 12 -10 -11 11 -13 -14 14 -16
leaf_value=0.00063462441972646103 -0.012409579550016703 6.3674290845461918e-05 0.0046763001383355041 0.036275963687923608 0.017460730722017377 0.012336262247918808 -0.013482180887054818 -0.019876077998723232 -0.0051041026079119778 0.0064298796086613812 -0.0030854333890952684 -0.0082336493081121287 -0.025612770746003329 -0.0019731226505397201 -0.0039206230840576218
leaf_weight=25 36 21 37 29 32 29 20 24 35 20 36 20 20 23 20
leaf_count=25 36 21 37 29 32 29 20 24 35 20 36 20 20 23 20
internal_value=-2.61493e-06 0.00415932 0.0106594 0.019025 0.0101474 0.00349478 -0.00342081 -0.0180751 -3.69385e-05 3.80553e-05 -0.00727822 -0.00498896 -0.0226039 -0.0019195 -0.00295554
internal_weight=427 347 187 86 57 101 160 80 72 84 76 56 44 64 43
internal_count=427 347 187 86 57 101 160 80 72 84 76 56 44 64 43
is_linear=0
shrinkage=0.03


Tree=23
num_leaves=17
num_cat=0
split_feature=84 88 17 60 59 2 84 77 3 68 15 55 19 12 13 10
split_gain=33.7102 18.5286 12.8795 12.4803 4.52527 3.05842 2.31443 2.28745 1.88923 1.11533 1.04724 0.699461 0.366892 0.297209 0.167106 0.16696
threshold=0.78656609248549325 922.50000000000011 -0.10072309772213227 0.67887236045083432 0.6136579098942756 0.12500242640042616 0.91597561503675362 -0.79162113333377471 0.056444490933331967 0.0051937950889812132 -0.57520575228005755 0.77604567869609586 -0.24527453427515908 -0.33525634163893953 -0.26474336105908686 -0.067715305008661783
decision_type=2 2 2 2 2 2 2 2 2 2 2 2 2 2 2 2
left_child=1 2 3 5 8 -1 -2 -3 -4 10 -9 -10 -8 -12 -11 -15
right_child=6 7 4 -5 -6 -7 12 9 11 14 13 -13 -14 15 -16 -17
leaf_value=0.0034066804450053668 -0.011061527558709853 0.0060843828420585663 6.8118636732670781e-05 0.037863195350920531 -0.0048214121766140816 0.019635476207555229 -0.025229733061434612 -0.012475544024107143 0.0074485762137049263 0.00071525827633797537 -0.0021553553159029057 0.014132732070527275 -0.018665142918396674 -0.0085488106021240559 -0.0026536018076581459 -0.00416895175825304
leaf_weight=23 35 20 20 25 33 20 20 22 32 23 27 31 28 20 28 20
leaf_count=23 35 20 20 25 33 20 20 22 32 23 27 31 28 20 28 20
internal_value=-2.85833e-06 0.00413149 0.0106254 0.0209946 0.00450825 0.0110526 -0.0171585 -0.00331976 0.00825507 -0.00468801 -0.00671994 0.0108023 -0.0215095 -0.00476956 -0.00107718 -0.00644955
internal_weight=427 344 184 68 116 43 83 160 83 140 89 63 48 67 51 40
internal_count=427 344 184 68 116 43 83 160 83 140 89 63 48 67 51 40
is_linear=0
shrinkage=0.03


Tree=24
num_leaves=17
num_cat=0
split_feature=89 88 41 60 41 17 72 90 89 3 49 54 46 89 38 45
split_gain=31.8065 16.9088 11.0548 12.984 3.58254 3.22456 2.169 1.95622 1.88703 1.22546 1.08483 1.03112 0.309537 0.175926 0.147694 0.0354348
threshold=0.81241147629689026 922.50000000000011 -0.11986926569748137 0.56655301318246176 -0.4686070600406182 0.55565513502862096 0.90113417828229347 -0.72947329433276242 0.93540483100319627 0.17754757834260121 0.79882455023447652 -0.013267380328776947 0.45205381695371233 0.98611507088852057 -0.21458652534372716 0.27159964220106897
decision_type=2 2 2 2 2 2 2 2 2 2 2 2 2 2 2 2
left_child=1 2 3 4 -1 7 10 -4 -2 -9 14 -8 -13 -10 -3 -16
right_child=8 6 5 -5 -6 -7 11 9 13 -11 -12 12 -14 -15 15 -17
leaf_value=-0.00014692888338101932 -0.011712512647077813 0.00012440808214494398 0.006520210450345819 0.033490549625882764 0.015338679377406024 0.010791051878520121 -0.012815094581568862 -0.00881769517583471 -0.018697125862248209 0.0011050803292848503 0.0061815174902552991 -0.0028916368240792393 -0.0077821217833170244 -0.024193062123967636 -0.0016444875769564323 -0.0037819816418228104
leaf_weight=22 36 21 23 31 33 34 20 24 24 20 20 36 20 20 21 22
leaf_count=22 36 21 23 31 33 34 20 24 24 20 20 36 20 20 21 22
internal_value=-2.77559e-06 0.00392255 0.0100498 0.0179561 0.00910096 0.00327693 -0.00322173 -0.0005019 -0.01705 -0.00424704 6.65045e-05 -0.00689083 -0.00470247 -0.0213125 -0.0018043 -0.00281393
internal_weight=427 347 187 86 55 101 160 67 80 44 84 76 56 44 64 43
internal_count=427 347 187 86 55 101 160 67 80 44 84 76 56 44 64 43
is_linear=0
shrinkage=0.03


Tree=25
num_leaves=15
num_cat=0
split_feature=54 88 17 60 88 62 72 54 24 13 74 34 20 42
split_gain=30.0786 16.4147 10.8996 8.69284 7.81696 3.44369 2.52893 1.30696 1.1453 1.08626 0.399647 0.307673 0.292003 0.106505
threshold=0.15641713515566458 877.50000000000011 -0.10072309772213227 0.67887236045083432 487.50000000000006 0.52370898237194019 0.94290775622784218 0.82259483554892976 0.10443759446501594 0.24518895585942915 -0.70969362309268369 -0.26616864983023253 -0.2256469853406407 0.11471646576770084
decision_type=2 2 2 2 2 2 2 2 2 2 2 2 2 2
left_child=1 2 3 -1 7 10 8 -2 -3 11 -4 -6 -9 -10
right_child=4 6 5 -5 9 -7 -8 12 13 -11 -12 -13 -14 -15
leaf_value=0.012685736654542206 -0.012523575410967146 0.0059110512399729101 0.012572521169980366 0.035808526180179941 -0.0039205943266745133 -0.001209938119685232 -0.0090405820833263043 -0.024150748875603742 -4.639194583270086e-05 -0.0098448945982242686 0.0069984293525869193 0.00036659908909474396 -0.01788137661965556 -0.0029645829389958783
leaf_weight=37 33 24 35 25 28 37 37 20 20 20 23 30 24 34
leaf_count=37 33 24 35 25 28 37 37 20 20 20 23 30 24 34
internal_value=-3.24677e-06 0.00599975 0.0123075 0.0221004 -0.010554 0.00586825 -0.00258883 -0.0173398 0.000440865 -0.00380303 0.0104296 -0.00165463 -0.0208474 -0.00194131
internal_weight=427 272 157 62 155 95 115 77 78 78 58 58 44 54
internal_count=427 272 157 62 155 95 115 77 78 78 58 58 44 54
is_linear=0
shrinkage=0.03


Tree=26
num_leaves=17
num_cat=0
split_feature=84 83 20 57 2 79 54 74 63 80 7 75 13 20 45 8
split_gain=28.3255 15.7287 10.9591 12.5768 3.70498 3.24228 1.99214 1.72578 1.72296 0.82996 0.841092 0.759564 0.503482 0.407229 0.17836 0.146625
threshold=0.78656609248549325 0.36648199767546163 -0.15071674350783024 0.6518659299404771 0.13332357876491169 -0.70177432102000636 0.79496890810645959 0.54949638169392345 0.13752783799166754 -0.58454584823552758 0.61917539957789891 0.88324347003539094 0.63619214125368784 -0.2256469853406407 0.24346610087603995 -0.078272176611443034
decision_type=2 2 2 2 2 2 2 2 2 2 2 2 2 2 2 2
left_child=1 2 3 4 -1 11 -2 -3 9 -7 -11 -4 14 -8 15 -9
right_child=6 7 5 -5 -6 8 13 12 -10 10 -12 -13 -14 -15 -16 -17
leaf_value=0.0021814398606283224 -0.0097776303613091343 -0.013214640035448481 0.0054332467807190754 0.032923667940896809 0.018556928781431111 0.0073835260348650514 -0.023258685675842498 0.00084515816281869336 -0.0073637501909552018 -0.0026046058633624196 0.0047057546879246022 0.013259752004396641 -0.007587207667023887 -0.016727456843730098 -0.0040736679041508544 -0.0027051881916209386
leaf_weight=34 33 21 23 29 20 21 21 20 21 34 24 26 22 29 29 20
leaf_count=34 33 21 23 29 20 21 21 20 21 34 24 26 22 29 29 20
internal_value=-3.6217e-06 0.00378559 0.00824669 0.0169851 0.00832498 0.00335075 -0.01573 -0.00542762 0.000219869 0.00228046 0.000371629 0.00966573 -0.00358516 -0.0195714 -0.00225659 -0.000857521
internal_weight=427 344 232 83 54 149 83 112 100 79 58 49 91 50 69 40
internal_count=427 344 232 83 54 149 83 112 100 79 58 49 91 50 69 40
is_linear=0
shrinkage=0.03


Tree=27
num_leaves=16
num_cat=0
split_feature=54 88 17 60 88 90 17 72 73 24 86 59 55 75 63
split_gain=26.8377 14.5765 9.74138 7.67484 6.94822 2.43683 2.41261 2.25422 1.17513 1.02785 1.02228 0.429958 0.261904 0.146026 0.10723
threshold=0.15641713515566458 877.50000000000011 -0.10072309772213227 0.67887236045083432 487.50000000000006 -0.81241147629689003 0.47387383021461638 0.94290775622784218 0.10830199525253277 0.10443759446501594 -1.0000000180025095e-35 0.12091442248983159 -0.068630938967417579 0.55517117651504366 0.0096451216016052461
decision_type=2 2 2 2 2 2 2 2 2 2 2 2 2 2 2
left_child=1 2 3 -1 8 13 -7 9 -2 -3 -6 -10 -12 -4 -11
right_child=4 7 5 -5 10 6 -8 -9 11 14 12 -13 -14 -15 -16
leaf_value=0.012014927617864145 -0.010499351730114197 0.0056161936066457347 0.0079901211319574669 0.033754776120185841 -0.0089220667059545389 -0.0056481132442613999 0.0076262439638994529 -0.0085173416061382085 -0.014779296552956993 -0.0031207937186457928 -0.0029006475357773597 -0.021326491267299363 0.0013217721319993706 0.012238145381554788 -0.00030113669583338432
leaf_weight=37 24 24 20 25 23 25 24 37 20 28 35 33 20 26 26
leaf_count=37 24 24 20 25 23 25 24 37 20 28 35 33 20 26 26
internal_value=-3.5272e-06 0.00566646 0.0116107 0.0208695 -0.00997002 0.00552094 0.000794803 -0.00242569 -0.0163684 0.000432731 -0.00360237 -0.0189448 -0.00131116 0.0104776 -0.0018217
internal_weight=427 272 157 62 155 95 49 115 77 78 78 53 55 46 54
internal_count=427 272 157 62 155 95 49 115 77 78 78 53 55 46 54
is_linear=0
shrinkage=0.03


Tree=28
num_leaves=18
num_cat=0
split_feature=89 83 41 60 90 42 82 74 72 1 85 75 16 34 89 45 15
split_gain=25.2938 13.7074 8.49816 13.4679 3.45001 2.75675 2.37998 1.60588 1.51469 1.42994 1.06675 1.03398 0.47774 0.459007 0.150246 0.149484 0.15837
threshold=0.81241147629689026 0.36648199767546163 -0.093567995929234163 0.56655301318246176 -0.91037613702198739 -0.016817084860169442 -0.68941220679405324 0.54949638169392345 0.41667855517843849 0.086974645604716419 0.37940952255126048 1.0924135402800561 0.47859310435464958 0.54440861889504599 0.98611507088852057 0.24346610087603995 -0.057547347303696712
decision_type=2 2 2 2 2 2 2 2 2 2 2 2 2 2 2 2 2
left_child=1 2 3 4 -1 -6 11 -3 -2 10 -8 -4 -12 15 -10 16 -9
right_child=8 7 6 -5 5 -7 9 13 14 -11 12 -13 -14 -15 -16 -17 -18
leaf_value=0.015455433932908502 -0.010406354968732743 -0.012633359646314303 0.0035170773356729204 0.030730280969112247 0.0092479001808522341 -0.0062535840279965603 0.0039333462452432553 0.00082872388588697127 -0.016602855319798732 0.0069830529737370129 -0.0066357360493107097 0.012986767617501803 -0.00072728104163686939 -0.0074104775432775266 -0.02170327389418189 -0.0038342032560925044 -0.0027747235741130828
leaf_weight=25 36 21 21 31 20 21 20 21 24 21 30 23 23 20 20 29 21
leaf_count=25 36 21 21 31 20 21 20 21 24 21 30 23 23 20 20 29 21
internal_value=-3.60017e-06 0.0034961 0.00761653 0.0144241 0.00668477 0.00123923 0.00280283 -0.00512177 -0.0152064 7.29738e-05 -0.00188065 0.00855339 -0.00413439 -0.00334343 -0.0190332 -0.00214678 -0.000904052
internal_weight=427 347 235 97 66 41 138 112 80 94 73 44 53 91 44 71 42
internal_count=427 347 235 97 66 41 138 112 80 94 73 44 53 91 44 71 42
is_linear=0
shrinkage=0.03


Tree=29
num_leaves=15
num_cat=0
split_feature=54 88 17 62 88 62 72 54 86 24 74 20 4 63
split_gain=23.9992 12.9434 8.69297 7.06505 6.1254 2.89285 2.01849 1.03443 0.939472 0.933823 0.322334 0.235272 0.23085 0.0957865
threshold=0.15641713515566458 877.50000000000011 -0.10072309772213227 0.20271097397935253 487.50000000000006 0.52370898237194019 0.94290775622784218 0.82259483554892976 -1.0000000180025095e-35 0.10443759446501594 -0.70969362309268369 -0.2256469853406407 0.29391869391539877 0.0096451216016052461
decision_type=2 2 2 2 2 2 2 2 2 2 2 2 2 2
left_child=1 2 3 -1 7 10 9 -2 -6 -3 -4 -9 -10 -11
right_child=4 6 5 -5 8 -7 -8 11 12 13 -12 -13 -14 -15
leaf_value=0.0083521960577612672 -0.011127351960701885 0.0053781632335153234 0.011321854637219356 0.028917236415521838 -0.0085472381076255391 -0.00127818654549893 -0.0080312984367466034 -0.021571803395427872 -0.0035452504202046174 -0.0029382050643240848 0.0062741762264208363 -0.015863529705902352 0.00031605781212657965 -0.00026666737525541892
leaf_weight=28 33 24 35 34 23 37 37 20 23 28 23 24 32 26
leaf_count=28 33 24 35 34 23 37 37 20 23 28 23 24 32 26
internal_value=-3.74009e-06 0.00535764 0.0109592 0.0197065 -0.00942882 0.0052041 -0.00226647 -0.0154373 -0.00344675 0.000436494 0.00938607 -0.0185693 -0.00124773 -0.00171023
internal_weight=427 272 157 62 155 95 115 77 78 78 58 44 55 54
internal_count=427 272 157 62 155 95 115 77 78 78 58 44 55 54
is_linear=0
shrinkage=0.03


Tree=30
num_leaves=16
num_cat=0
split_feature=54 83 20 61 89 90 79 90 7 9 79 59 65 71 79
split_gain=22.5916 12.3362 8.10163 9.59533 5.73305 2.66312 2.18808 1.49596 1.49101 1.43281 0.924443 0.758297 0.36156 0.104956 0.088966
threshold=0.15641713515566458 0.36648199767546163 -0.15071674350783024 0.48314254874374846 0.81241147629689026 -0.88144907265856332 -0.74981360094513361 -0.77259657388510627 0.61917539957789891 -0.64598437862310487 0.33805142287871726 0.020722732940735265 0.36332818715309456 0.40314337220940949 0.42259758619947735
decision_type=2 2 2 2 2 2 2 2 2 2 2 2 2 2 2
left_child=1 2 3 5 11 -1 12 -8 -9 -3 -6 14 -4 -11 -2
right_child=4 9 6 -5 10 -7 7 8 -10 13 -12 -13 -14 -15 -16
leaf_value=0.016416682255134651 0.00025133619362960997 -0.012395235986944721 0.012811026807818839 0.029667916313754358 -0.01146187109345535 0.0020583829521825629 0.0077229773682924718 -0.0047184812559572329 0.0046292843470772897 -0.001110418827703862 -0.018553328650204211 -0.0072887449899063355 0.0067031901653400909 -0.0044515115940081534 -0.0022103915100242706
leaf_weight=20 20 23 20 30 37 29 24 39 25 20 38 30 22 20 30
leaf_count=20 20 23 20 30 37 29 24 39 25 20 38 30 22 20 30
internal_value=-4.13788e-06 0.00519744 0.00871041 0.0162943 -0.00914887 0.00800151 0.0040697 0.00133741 -0.00101868 -0.00640451 -0.0151147 -0.00350652 0.00970646 -0.00286271 -0.00116728
internal_weight=427 272 209 79 155 49 130 88 64 63 75 80 42 40 50
internal_count=427 272 209 79 155 49 130 88 64 63 75 80 42 40 50
is_linear=0
shrinkage=0.03


Tree=31
num_leaves=16
num_cat=0
split_feature=55 83 20 61 90 79 89 46 1 67 75 72 82 89 49
split_gain=21.2996 10.7172 7.07688 10.8274 3.72222 2.55738 2.54971 1.49683 0.952832 0.697462 0.650172 0.58842 0.250125 0.130848 0.0727384
threshold=-0.47080085459953519 0.36648199767546163 -0.091684813130906054 0.48314254874374846 -0.91037613702198739 -0.70177432102000636 0.93540483100319627 0.56235959200556207 0.086974645604716419 0.24025024829419242 0.88324347003539094 -0.44695084726052697 0.96962816380809824 0.98611507088852057 -0.59777358259573243
decision_type=2 2 2 2 2 2 2 2 2 2 2 2 2 2 2
left_child=6 2 3 4 -2 10 9 12 11 -1 -4 -7 14 -8 -3
right_child=1 7 5 -5 -6 8 13 -9 -10 -11 -12 -13 -14 -15 -16
leaf_value=-0.0029480430250292391 0.016120722612104801 -0.0022681181882908438 0.0044985365649902968 0.028134897985163224 0.00062254616423793453 -0.0045566964549068195 -0.01517241414651831 -0.012027031573286251 0.0054566760564231749 -0.010135431583002797 0.011739139924275464 0.00096172371569717009 -0.0046857740269450531 -0.01997257452402542 9.8301475978831727e-05
leaf_weight=20 22 22 23 31 39 35 24 20 21 38 26 33 33 20 20
leaf_count=20 22 22 23 31 39 35 24 20 21 38 26 33 33 20 20
internal_value=-3.67612e-06 0.00374331 0.00724877 0.0136982 0.00627839 0.00292061 -0.011964 -0.00471075 -7.82393e-05 -0.007718 0.00841767 -0.00183711 -0.00270637 -0.0174627 -0.00107244
internal_weight=427 325 230 92 61 138 102 95 89 58 49 68 75 44 42
internal_count=427 325 230 92 61 138 102 95 89 58 49 68 75 44 42
is_linear=0
shrinkage=0.03


Tree=32
num_leaves=15
num_cat=0
split_feature=84 88 41 61 20 17 76 70 54 68 8 20 12 79
split_gain=20.1432 10.867 7.86316 8.02361 2.64311 2.37358 1.8313 1.4399 1.39881 0.804828 1.02551 0.335384 0.236088 0.0965593
threshold=0.78656609248549325 922.50000000000011 -0.11986926569748137 0.48314254874374846 -0.45462193758822661 0.55565513502862096 0.068613390622054668 -0.78770311614125321 0.79496890810645959 0.0038383296908003355 -0.60181455470747192 -0.2256469853406407 -0.32776825897916567 0.37663496836664156
decision_type=2 2 2 2 2 2 2 2 2 2 2 2 2 2
left_child=1 2 3 4 -1 6 -4 -3 -2 10 -9 -10 -12 -11
right_child=8 7 5 -5 -6 -7 -8 9 11 13 12 -13 -14 -15
leaf_value=0.00046249009328759062 -0.0082477826942489937 0.0045406436904995139 0.0046037758475880033 0.027687183853584464 0.013759622195056664 0.0087968941845677114 -0.0054927720464611239 -0.011485861427525975 -0.019830499927014536 0.00075362853474155844 -0.0012060311714979421 -0.013917839751415645 -0.0051011139509363436 -0.0017748348569086667
leaf_weight=24 33 22 29 29 32 34 36 20 21 21 26 29 38 33
leaf_count=24 33 22 29 29 32 34 36 20 21 21 26 29 38 33
internal_value=-3.38416e-06 0.0031909 0.00816503 0.0148593 0.00812531 0.00237795 -0.000941923 -0.00251214 -0.0132664 -0.00366069 -0.00550173 -0.0164957 -0.00356989 -0.000736515
internal_weight=427 344 184 85 56 99 65 160 83 138 84 50 64 54
internal_count=427 344 184 85 56 99 65 160 83 138 84 50 64 54
is_linear=0
shrinkage=0.03


Tree=33
num_leaves=17
num_cat=0
split_feature=54 83 20 60 88 83 79 9 90 7 13 73 64 52 35 70
split_gain=19.0323 10.5352 6.85133 8.02664 4.85297 2.78869 1.86351 1.30016 1.26026 1.30392 0.92527 0.873582 0.393906 0.321875 0.15292 0.0954733
threshold=0.15641713515566458 0.36648199767546163 -0.15071674350783024 0.63533098750117045 487.50000000000006 0.039918125925664731 -0.74981360094513361 -0.64598437862310487 -0.77259657388510627 0.61917539957789891 0.24518895585942915 0.10830199525253277 0.21425328634703469 -0.29982314784710568 -0.4007649906107783 0.24325985264751862
decision_type=2 2 2 2 2 2 2 2 2 2 2 2 2 2 2 2
left_child=1 2 3 5 11 -1 12 -3 -8 -10 14 -2 -4 -13 -6 -9
right_child=4 7 6 -5 10 -7 8 15 9 -11 -12 13 -14 -15 -16 -17
leaf_value=0.013424787580775293 -0.0086577009443672866 -0.011655447670294866 0.011851392074812591 0.027914324057059774 0.00093302817389702614 -0.00079583417179424358 0.0070848986849621608 -0.00090051344644500686 -0.0043990147079262512 0.0043415422313123099 -0.0086367134416281272 -0.012322439800447492 0.0055659125928780914 -0.018052789041282904 -0.0022234433569659397 -0.0040825396267620759
leaf_weight=31 24 23 22 28 20 20 24 20 39 25 20 20 20 33 38 20
leaf_count=31 24 23 22 28 20 20 24 20 39 25 20 20 20 33 38 20
internal_value=-3.328e-06 0.00477036 0.00801729 0.0149925 -0.0083974 0.00779872 0.00374718 -0.00594929 0.00122267 -0.000936486 -0.00306731 -0.0137468 0.0089499 -0.0159742 -0.00108364 -0.00257255
internal_weight=427 272 209 79 155 51 130 63 88 64 78 77 42 53 58 40
internal_count=427 272 209 79 155 51 130 63 88 64 78 77 42 53 58 40
is_linear=0
shrinkage=0.03


Tree=34
num_leaves=17
num_cat=0
split_feature=54 83 20 57 88 80 79 9 90 7 13 73 64 59 34 70
split_gain=17.9165 9.92205 6.44436 7.10662 4.56762 2.42207 1.75413 1.22183 1.18586 1.22729 0.870671 0.819871 0.36899 0.302747 0.222164 0.0893616
threshold=0.15641713515566458 0.36648199767546163 -0.15071674350783024 0.6518659299404771 487.50000000000006 -0.063592435180466741 -0.74981360094513361 -0.64598437862310487 -0.77259657388510627 0.61917539957789891 0.24518895585942915 0.10830199525253277 0.21425328634703469 0.12091442248983159 -0.26616864983023253 0.24325985264751862
decision_type=2 2 2 2 2 2 2 2 2 2 2 2 2 2 2 2
left_child=1 2 3 5 11 -1 12 -3 -8 -10 14 -2 -4 -13 -6 -9
right_child=4 7 6 -5 10 -7 8 15 9 -11 -12 13 -14 -15 -16 -17
leaf_value=0.013185866501220722 -0.0083990476387108496 -0.011307297919864777 0.011497459303065121 0.026378639477890788 -0.0029871149105599867 -4.1496294122454098e-05 0.0068732336444849787 -0.00087363246056848933 -0.0042673817587554298 0.0042118148881185096 -0.00837890111243547 -0.011942369982377807 0.0053997659619285984 -0.017520271771984154 0.00066290734177981291 -0.003960672771321859
leaf_weight=29 24 23 22 29 28 21 24 20 39 25 20 20 20 33 30 20
leaf_count=29 24 23 22 29 28 21 24 20 39 25 20 20 20 33 30 20
internal_value=-3.65388e-06 0.00462778 0.00777899 0.0145443 -0.00814816 0.0075815 0.00363671 -0.00577446 0.00118623 -0.00090699 -0.00297568 -0.0133383 0.00868478 -0.0154984 -0.00104965 -0.00249799
internal_weight=427 272 209 79 155 50 130 63 88 64 78 77 42 53 58 40
internal_count=427 272 209 79 155 50 130 63 88 64 78 77 42 53 58 40
is_linear=0
shrinkage=0.03


Tree=35
num_leaves=16
num_cat=0
split_feature=54 83 20 60 88 26 79 20 23 86 73 26 64 52 87
split_gain=16.8664 9.34569 6.09989 6.95152 4.29902 2.09481 1.84758 1.46603 1.25065 0.852519 0.769391 0.695628 0.357368 0.28287 0.141909
threshold=0.15641713515566458 0.26992472878001977 -0.045177901729031737 0.67887236045083432 487.50000000000006 -0.091622885705722287 -0.74981360094513361 -0.34610655015322944 0.12109373057286973 -1.0000000180025095e-35 0.10830199525253277 0.021723732190659376 0.21425328634703469 -0.29982314784710568 -0.22252093395631442
decision_type=2 2 2 2 2 2 2 2 2 2 2 2 2 2 2
left_child=1 2 3 5 10 -1 12 -7 -3 -6 -2 -8 -4 -12 -11
right_child=4 8 6 -5 9 7 11 -9 -10 14 13 -13 -14 -15 -16
leaf_value=0.016535050891228576 -0.008148121780008696 -0.00079198169089672729 0.011377498665407522 0.02764516921582558 -0.007738937212081699 -0.0011626908939276167 -0.0023423991056011457 0.0099241525983244042 -0.0086941569793619142 0.00072950252941970158 -0.01158146668281128 0.0035578067505343891 0.0052385789079508228 -0.016998932210340236 -0.0022587971167504477
leaf_weight=20 24 39 20 24 23 20 39 22 35 26 20 33 20 33 29
leaf_count=20 24 39 20 24 23 20 39 22 35 26 20 33 20 33 29
internal_value=-3.976e-06 0.00448947 0.00789357 0.0139089 -0.0079064 0.00850738 0.0032396 0.00458322 -0.00457667 -0.00288682 -0.0129419 0.000321437 0.00840357 -0.0150368 -0.00079294
internal_weight=427 272 198 86 155 62 112 42 74 78 77 72 40 53 55
internal_count=427 272 198 86 155 62 112 42 74 78 77 72 40 53 55
is_linear=0
shrinkage=0.03


Tree=36
num_leaves=17
num_cat=0
split_feature=55 83 19 60 90 79 44 89 46 28 67 89 4 82 89 58
split_gain=15.8955 8.05373 5.12683 7.75138 2.1649 1.97392 1.97049 1.92634 1.34634 0.957177 0.542097 0.478833 0.351799 0.203228 0.106888 0.0733619
threshold=-0.47080085459953519 0.36648199767546163 -0.07884845804080419 0.56655301318246176 -0.91037613702198739 -0.74981360094513361 -0.051673412823621402 0.93540483100319627 0.56235959200556207 0.49764357821490618 0.24025024829419242 0.22695468355932452 0.218831559869687 0.96962816380809824 0.98611507088852057 -1.0885753224293093
decision_type=2 2 2 2 2 2 2 2 2 2 2 2 2 2 2 2
left_child=7 2 3 4 -2 11 -6 10 13 12 -1 -4 -7 15 -9 -3
right_child=1 8 5 -5 6 9 -8 14 -10 -11 -12 -13 -14 -15 -16 -17
leaf_value=-0.0024100144336924455 0.01229537550916617 -0.0019383753514195456 0.01067563728486757 0.022665619870536346 0.007366945497475224 -0.0062426718385106298 -0.0050069229486840875 -0.013033429361972571 -0.011028288220847719 0.0030208390311356062 -0.0087677635044211485 0.0038418779495074896 -0.00082377593519478392 -0.0039726180302435002 -0.017404000296521543 0.00048016243169445597
leaf_weight=20 26 22 21 35 24 22 22 24 20 36 38 20 24 33 20 20
leaf_count=20 26 22 21 35 24 22 22 24 20 36 38 20 24 33 20 20
internal_value=-3.96004e-06 0.00323201 0.00627152 0.0110772 0.00537864 0.00206104 0.00138591 -0.0103371 -0.0040941 -0.000593956 -0.00663499 0.00743255 -0.00348842 -0.00219282 -0.015123 -0.000717027
internal_weight=427 325 230 107 72 123 46 102 95 82 58 41 46 75 44 42
internal_count=427 325 230 107 72 123 46 102 95 82 58 41 46 75 44 42
is_linear=0
shrinkage=0.03


Tree=37
num_leaves=15
num_cat=0
split_feature=84 83 20 61 90 59 80 46 54 66 13 20 75 86
split_gain=15.0353 8.3333 5.75545 7.65576 2.42594 1.84965 1.46493 1.22349 1.07863 0.71699 0.305811 0.26914 0.249103 0.166045
threshold=0.78656609248549325 0.36648199767546163 -0.15071674350783024 0.48314254874374846 -0.88144907265856332 0.6136579098942756 0.12439103748010528 0.56235959200556207 0.79496890810645959 0.074473281603689614 0.44576336776020725 -0.2256469853406407 1.1153813062409499 1.0000000180025095e-35
decision_type=2 2 2 2 2 2 2 2 2 2 2 2 2 2
left_child=1 2 3 4 -1 6 9 10 -2 -4 13 -10 -11 -3
right_child=8 7 5 -5 -6 -7 -8 -9 11 12 -12 -13 -14 -15
leaf_value=0.013611669751690394 -0.0070383249217147717 -0.0030751548683622125 0.0019477894100673951 0.024452111224250932 0.00029302457267322836 -0.0033151196970571725 -0.00033338811681202544 -0.01069908557463187 -0.01730936832620069 0.0067663832363959783 -0.0053031705367375176 -0.011974372716294122 0.01148750764745954 0
leaf_weight=20 33 28 21 30 33 37 38 20 21 32 25 29 21 39
leaf_count=20 33 28 21 30 33 37 38 20 21 32 25 29 21 39
internal_value=-4.3349e-06 0.00275443 0.00600299 0.0123382 0.00539159 0.00244797 0.00437987 -0.00394733 -0.0114639 0.00683786 -0.00243696 -0.014305 0.00871163 -0.00131646
internal_weight=427 344 232 83 53 149 112 112 83 74 92 50 53 67
internal_count=427 344 232 83 53 149 112 112 83 74 92 50 53 67
is_linear=0
shrinkage=0.03


end of trees

feature_importances:
Column_89=41
Column_88=35
Column_55=25
Column_17=23
Column_84=23
Column_90=23
Column_20=20
Column_54=20
Column_76=18
Column_79=17
Column_61=15
Column_60=14
Column_34=12
Column_38=12
Column_41=12
Column_86=12
Column_13=11
Column_49=11
Column_83=11
Column_72=10
Column_74=10
Column_80=10
Column_7=9
Column_78=9
Column_75=8
Column_5=7
Column_45=7
Column_68=7
Column_12=6
Column_26=6
Column_46=6
Column_59=6
Column_62=6
Column_63=6
Column_66=6
Column_19=5
Column_50=5
Column_64=5
Column_3=4
Column_24=4
Column_58=4
Column_71=4
Column_73=4
Column_87=4
Column_9=3
Column_11=3
Column_15=3
Column_16=3
Column_27=3
Column_33=3
Column_67=3
Column_70=3
Column_82=3
Column_85=3
Column_1=2
Column_2=2
Column_4=2
Column_8=2
Column_10=2
Column_14=2
Column_23=2
Column_42=2
Column_51=2
Column_52=2
Column_57=2
Column_65=2
Column_77=2
Column_81=2
Column_28=1
Column_35=1
Column_40=1
Column_44=1
Column_47=1
Column_53=1

parameters:
[boosting: gbdt]
[objective: regression]
[metric: rmse]
[tree_learner: serial]
[device_type: cpu]
[data_sample_strategy: bagging]
[data: ]
[valid: ]
[num_iterations: 2000]
[learning_rate: 0.03]
[num_leaves: 64]
[num_threads: 0]
[seed: 42]
[deterministic: 0]
[force_col_wise: 0]
[force_row_wise: 0]
[histogram_pool_size: -1]
[max_depth: 8]
[min_data_in_leaf: 20]
[min_sum_hessian_in_leaf: 0.001]
[bagging_fraction: 0.8]
[pos_bagging_fraction: 1]
[neg_bagging_fraction: 1]
[bagging_freq: 0]
[bagging_seed: 400]
[bagging_by_query: 0]
[feature_fraction: 0.8]
[feature_fraction_bynode: 1]
[feature_fraction_seed: 30056]
[extra_trees: 0]
[extra_seed: 12879]
[early_stopping_round: 0]
[early_stopping_min_delta: 0]
[first_metric_only: 0]
[max_delta_step: 0]
[lambda_l1: 0.1]
[lambda_l2: 0.1]
[linear_lambda: 0]
[min_gain_to_split: 0]
[drop_rate: 0.1]
[max_drop: 50]
[skip_drop: 0.5]
[xgboost_dart_mode: 0]
[uniform_drop: 0]
[drop_seed: 17869]
[top_rate: 0.2]
[other_rate: 0.1]
[min_data_per_group: 100]
[max_cat_threshold: 32]
[cat_l2: 10]
[cat_smooth: 10]
[max_cat_to_onehot: 4]
[top_k: 20]
[monotone_constraints: ]
[monotone_constraints_method: basic]
[monotone_penalty: 0]
[feature_contri: ]
[forcedsplits_filename: ]
[refit_decay_rate: 0.9]
[cegb_tradeoff: 1]
[cegb_penalty_split: 0]
[cegb_penalty_feature_lazy: ]
[cegb_penalty_feature_coupled: ]
[path_smooth: 0]
[interaction_constraints: ]
[verbosity: -1]
[saved_feature_importance_type: 0]
[use_quantized_grad: 0]
[num_grad_quant_bins: 4]
[quant_train_renew_leaf: 0]
[stochastic_rounding: 1]
[linear_tree: 0]
[max_bin: 255]
[max_bin_by_feature: ]
[min_data_in_bin: 3]
[bin_construct_sample_cnt: 200000]
[data_random_seed: 175]
[is_enable_sparse: 1]
[enable_bundle: 1]
[use_missing: 1]
[zero_as_missing: 0]
[feature_pre_filter: 1]
[pre_partition: 0]
[two_round: 0]
[header: 0]
[label_column: ]
[weight_column: ]
[group_column: ]
[ignore_column: ]
[categorical_feature: ]
[forcedbins_filename: ]
[precise_float_parser: 0]
[parser_config_file: ]
[objective_seed: 16083]
[num_class: 1]
[is_unbalance: 0]
[scale_pos_weight: 1]
[sigmoid: 1]
[boost_from_average: 1]
[reg_sqrt: 0]
[alpha: 0.9]
[fair_c: 1]
[poisson_max_delta_step: 0.7]
[tweedie_variance_power: 1.5]
[lambdarank_truncation_level: 30]
[lambdarank_norm: 1]
[label_gain: ]
[lambdarank_position_bias_regularization: 0]
[eval_at: ]
[multi_error_top_k: 1]
[auc_mu_weights: ]
[num_machines: 1]
[local_listen_port: 12400]
[time_out: 120]
[machine_list_filename: ]
[machines: ]
[gpu_platform_id: -1]
[gpu_device_id: -1]
[gpu_use_dp: 0]
[num_gpu: 1]

end of parameters

pandas_categorical:null
