tree
version=v4
num_class=1
num_tree_per_iteration=1
label_index=0
max_feature_idx=96
objective=regression
feature_names=Column_0 Column_1 Column_2 Column_3 Column_4 Column_5 Column_6 Column_7 Column_8 Column_9 Column_10 Column_11 Column_12 Column_13 Column_14 Column_15 Column_16 Column_17 Column_18 Column_19 Column_20 Column_21 Column_22 Column_23 Column_24 Column_25 Column_26 Column_27 Column_28 Column_29 Column_30 Column_31 Column_32 Column_33 Column_34 Column_35 Column_36 Column_37 Column_38 Column_39 Column_40 Column_41 Column_42 Column_43 Column_44 Column_45 Column_46 Column_47 Column_48 Column_49 Column_50 Column_51 Column_52 Column_53 Column_54 Column_55 Column_56 Column_57 Column_58 Column_59 Column_60 Column_61 Column_62 Column_63 Column_64 Column_65 Column_66 Column_67 Column_68 Column_69 Column_70 Column_71 Column_72 Column_73 Column_74 Column_75 Column_76 Column_77 Column_78 Column_79 Column_80 Column_81 Column_82 Column_83 Column_84 Column_85 Column_86 Column_87 Column_88 Column_89 Column_90 Column_91 Column_92 Column_93 Column_94 Column_95 Column_96
feature_infos=[-2.1998833971435583:3.8692245819541] [-1.859047007532957:2.9342347356773439] [-1.8657831647695711:3.0072490900536955] [-2.5529133812149469:1.6101919081681242] [-2.1998833971435583:3.8692245819541] [-2.1998833971435583:3.8692245819541] [-2.1998833971435583:3.8692245819541] [-2.1998833971435583:3.8692245819541] [-2.1998833971435583:3.8692245819541] [-2.1998833971435583:3.8692245819541] [-2.1998833971435583:3.8692245819541] [-2.1998833971435583:3.8692245819541] [-1.859047007532957:2.9342347356773439] [-1.859047007532957:2.9342347356773439] [-1.859047007532957:2.9342347356773439] [-1.859047007532957:2.9342347356773439] [-1.859047007532957:2.9342347356773439] [-1.859047007532957:2.9342347356773439] [-1.859047007532957:2.9342347356773439] [-1.859047007532957:2.9342347356773439] [-1.8657831647695711:3.0072490900536955] [-1.8657831647695711:3.0072490900536955] [-1.8657831647695711:3.0072490900536955] [-1.8657831647695711:3.0072490900536955] [-1.8657831647695711:3.0072490900536955] [-1.8657831647695711:3.0072490900536955] [-1.8657831647695711:3.0072490900536955] [-1.8657831647695711:3.0072490900536955] [-2.5529133812149469:1.6101919081681242] [-2.5529133812149469:1.6101919081681242] [-2.5529133812149469:1.6101919081681242] [-2.5529133812149469:1.6101919081681242] [-2.5529133812149469:1.6101919081681242] [-2.5529133812149469:1.6101919081681242] [-2.5529133812149469:1.6101919081681242] [-2.5529133812149469:1.6101919081681242] [-2.1943998713224748:3.860955103998494] [0:0.64091636210500835] [-2.1998833971435583:3.8444161480872814] [-2.1834328196803083:3.8692245819541] [-2.0502608434919503:3.4667554410842456] [0.0129357168687007:1.1990447202872401] [-2.1998833971435583:2.7114340270781718] [-1.9712402670866471:3.8692245819541] [-1.932948267045105:2.5960032455690443] [0.035760317866485598:1.9186767675887024] [-2.1998833971435583:0.93753554396405259] [-1.5914568726755396:3.8692245819541] [-1.8411444989449901:2.9254944873857887] [0:0.64521995252006659] [-1.859047007532957:2.9080139908026763] [-1.8127682122186928:2.9342347356773439] [-1.7851311521189921:2.6127850031769086] [0.0046847623953103004:0.91432970503344924] [-1.859047007532957:2.0092166554880402] [-1.6979244302412551:2.9342347356773439] [-1.6596775770260204:1.9378983043868172] [0.011542011266000501:1.4832385927490881] [-1.859047007532957:0.67365129660583112] [-1.387882022303996:2.9342347356773439] [-1.8451540357335789:2.9846685901421126] [0:0.49400127039002178] [-1.8657831647695711:2.9395075903189469] [-1.8038957776615949:3.0072490900536955] [-1.7884380586968991:2.6892051597494797] [0.0012868366758746999:0.92419175121524899] [-1.8657831647695711:2.3001479859722864] [-1.6801210034456429:3.0072490900536955] [-1.6595342578465446:2.257648937546501] [0.013313685757746999:1.4763124206384557] [-1.8657831647695711:1.7148842870889596] [-1.4325714550137381:3.0072490900536955] [-2.5495322579552977:1.6063346788399731] [0:1.0209555603838525] [-2.5529133812149469:1.598620220183671] [-2.5427700114360001:1.6101919081681242] [-2.5360077649167021:1.5909057615273687] [0.0042548221504437999:1.0864902026921488] [-2.5529133812149469:1.5639051562303117] [-2.5123399020991601:1.6101919081681242] [-2.3875739120518031:1.5257770023605477] [0.028997445992063699:1.41763179728068] [-2.5529133812149469:1.3346398443358181] [-1.7649108450292197:1.6101919081681242] [-0.93079171113892045:0.76220274489637097] [-1.5329573266440155:1.4299605693017208] [-1.0943781514118989:0.49708783356833369] [-1.0493859139424051:1.0943781514118989] [-0.4940012703900109:0.52971369659365941] [-0.52971369659365941:0.53547822385846622] [-0.58075344179437127:1.6123283976638283] [-1.3334356291427802:1.6123283976638283] [0:23] [-1:1] [-1:1] [0:5] [0:5]
tree_sizes=1216 1254 1249 1257 1234 1345 1349 1247 1344 1255 1164 1354 1350 1168 1180 1264 1441 1259 1258 1259 1442 1344 1350 1263 1365 1266 1355 1361 1359 1361 1272 1182 1185 1268 1180 1362 1361 1357 1187 1248 1278 1266 1275 1461 1271 1340 1280 1273 1283 1281 1271 1283 1285 1372 1330 1282 1267 1285 1155 1153 1375 1372 1181 1378 1200 1363 1279 1283 1203 1444 1188 1264 1351 1299 1250 1186 1300 1271 1253 1288 1267 1378 1373 1363 1187 1270 1277 1301 1374 1383 1283 1209 1232 1464 1207 1297 1100 1347 1387 1130 1379 1257 1303 1033 1261 1268 1372 1397 1398 1249 1186 1223 1300 1113 1185 1053 1114 1221 1262 1358 1125 1219 1263 1397 1308 1121 1215 1032 1114 1296 1203 1130 1041 1206 1104 949 1098 1045 1222 1036 1022 1297 1055 1104 1204 1049 956 1110 1041 1023 1100 1102 1042 1189 1268 1219 1262 906 779 931 845 1053 1113 1198 1208 934 856 1105 919 954 1133 858 1024 1107 1097 1103 952 1135 1010 777 686 1120 936 1045 956 757 871 763 941 1084 1191 957 942 867 777 1090 782 936 600 860 1012 962 1144 1126 945 669 749 691 656 876 991 781 692 777 870 736 780 854 837 826 936 756 515 771 1025 779 957 757 933 962 685 696 923 871 660 680 955 929 663 592 821 569 865 606 746 605 845 759 1004 768 1044 585 851 954 779 758 698 771 600 581 830 514 677 779 689 581 680 697 775 600 603 587 687 839 779 602 823 873 512 750 503 750 696 778 502 780 672 597 682 603 1177 516 588 493 742 592 930 511 513 593 753 602 696 517 784 723 675 422 755 390 685 423 523 598 506 593 688 605 840 426 514 514 588 607 511 576 651 680 636 603 755 585 513 599 514 606 850 513 600 606 514 424 508 601 550 578 600 517 672 750 783 690 514 583 669 782 506 493 421 517 606 499 707 510 312 761 416 581 514 422 597 324 483 698 604 516 666 424 695 423 580 414 592 421 600 391 687

Tree=0
num_leaves=13
num_cat=0
split_feature=2 79 2 34 90 78 76 59 79 69 2 34
split_gain=138.549 38.9653 27.6892 13.0829 12.4851 6.04321 1.59743 1.23505 0.959511 0.68233 0.595876 0.388864
threshold=0.010169866321540903 1.3386169022884951 0.8736649319699018 0.39296679023671827 0.028235958898760554 -0.091774397121534637 1.3282869570102003 1.0324254285281815 1.2321241573243211 0.2293641820071898 0.40026287160942048 0.26365388784181021
decision_type=2 2 2 2 2 2 2 2 2 2 2 2
left_child=1 5 3 9 -4 7 -3 11 -7 -2 -5 -1
right_child=2 6 4 10 -6 8 -8 -9 -10 -11 -12 -13
leaf_value=0.074114953645567846 0.080986763408730525 0.045205332462511245 0.12861403409396485 0.094349210338501077 0.10038091271050324 0.064727204268625993 0.03367944909526259 0.068473191003422126 0.056131446942705124 0.07413768330031395 0.10200948691966105 0.079471505154171521
leaf_weight=21 26 24 28 20 30 34 32 21 22 26 30 28
leaf_count=21 26 24 28 20 30 34 32 21 22 26 30 28
internal_value=0.0772222 0.0593151 0.0975716 0.0881026 0.114126 0.0686146 0.0384985 0.0745532 0.061264 0.0776191 0.0990442 0.0772339
internal_weight=342 182 160 102 58 126 56 70 56 52 50 49
internal_count=342 182 160 102 58 126 56 70 56 52 50 49
is_linear=0
shrinkage=1


Tree=1
num_leaves=13
num_cat=0
split_feature=2 79 2 2 88 33 69 88 77 41 92 20
split_gain=128.279 46.266 20.3161 8.17489 7.0542 4.93099 2.21905 2.15206 2.10492 1.10696 0.883461 0.163201
threshold=0.40026287160942048 1.3386169022884951 1.2427788971578051 -0.30710986432959919 -0.065426146989097225 1.1209721432507818 0.25403588089446705 0.099005846117247165 0.09612063535640232 0.080009268298724609 10.500000000000002 -0.027973650633460547
decision_type=2 2 2 2 2 2 2 2 2 2 2 2
left_child=1 3 4 7 -2 6 9 -1 -3 -5 -6 -11
right_child=2 8 -4 5 10 -7 -8 -9 -10 11 -12 -13
leaf_value=-0.019893853225666055 0.0053625662765833014 -0.044067232252537517 0.0497992979892459 0.0045506753136902618 0.019786756694104745 0.010242259626159038 -0.010471343199412026 -0.0078481631974894467 -0.031029665452527819 -0.005874423796116416 0.027742092541710488 -0.0018422110683845175
leaf_weight=34 25 26 25 21 28 26 35 24 27 20 36 22
leaf_count=34 25 26 25 21 28 26 35 24 27 20 36 22
internal_value=-0.000227758 -0.0129033 0.0258638 -0.00569199 0.0190583 -0.00131338 -0.00441706 -0.0149832 -0.0375529 -0.000994763 0.0243447 -0.00384296
internal_weight=349 235 114 182 89 124 98 58 53 63 64 42
internal_count=349 235 114 182 89 124 98 58 53 63 64 42
is_linear=0
shrinkage=0.03


Tree=2
num_leaves=13
num_cat=0
split_feature=2 79 2 34 2 34 65 78 69 92 23 82
split_gain=128.898 38.8534 20.2041 7.78669 7.35399 3.50303 2.00508 1.66589 1.52899 1.05664 0.761655 0.181126
threshold=0.34565523138776794 1.3386169022884951 1.3844596907232389 0.068613390622054668 -0.28640781325691428 0.26365388784181021 0.21541736621057797 1.1562281958840044 0.2764799653880482 14.500000000000002 0.16423872639529313 -0.8400481715042547
decision_type=2 2 2 2 2 2 2 2 2 2 2 2
left_child=1 4 3 -2 6 10 9 -3 -5 -1 -6 -10
right_child=2 7 -4 8 5 -7 -8 -9 11 -11 -12 -13
leaf_value=-0.013501553893419208 0.0040038408722372961 -0.030328008060331466 0.050937922560521376 0.018679216575418781 -0.0024412984641518174 0.0064987017671237178 -0.0060923388632320207 -0.042638869559627833 0.030559086993808653 -0.023212910000957657 -0.008987088622061221 0.024432404408522686
leaf_weight=27 24 23 22 35 38 33 20 26 22 20 30 21
leaf_count=27 24 23 22 35 38 33 20 26 22 20 30 21
internal_value=0.000427862 -0.0135044 0.0248247 0.0191186 -0.00661716 -0.00146803 -0.0143208 -0.0369949 0.0237198 -0.0177383 -0.00538216 0.0277002
internal_weight=341 217 124 102 168 101 67 49 78 47 68 43
internal_count=341 217 124 102 168 101 67 49 78 47 68 43
is_linear=0
shrinkage=0.03


Tree=3
num_leaves=13
num_cat=0
split_feature=2 79 2 88 78 79 77 35 2 92 64 74
split_gain=120.507 40.3682 24.0616 8.29418 7.06774 1.46194 1.44391 1.32926 1.57458 1.29528 0.594183 0.577967
threshold=0.34565523138776794 1.3386169022884951 1.2427788971578051 -0.065426146989097225 -0.091774397121534637 1.1621748917259092 0.09612063535640232 0.72274714305269205 1.0000000180025095e-35 10.500000000000002 -0.032431591214019694 -0.66010612294903392
decision_type=2 2 2 2 2 2 2 2 2 2 2 2
left_child=1 4 3 -2 7 10 -3 8 11 -5 -6 -1
right_child=2 6 -4 9 5 -7 -8 -9 -10 -11 -12 -13
leaf_value=-0.0044386968456765511 0.0041028792111529513 -0.041876793757252305 0.052537974707141714 0.018042668534160977 -0.012918511236635233 -0.01871044154693223 -0.030741168832427015 -0.0074906099609919445 0.0083734702938861819 0.027316657713079076 -0.0055099271232290047 0.0018392907172688803
leaf_weight=28 29 26 22 27 24 28 27 20 20 38 20 24
leaf_count=28 29 26 22 27 24 28 27 20 20 38 20 24
internal_value=-0.000379376 -0.0135816 0.0242825 0.0175889 -0.00619442 -0.0132295 -0.036329 -0.00064772 0.00121923 0.0235441 -0.00963913 -0.00148561
internal_weight=333 217 116 94 164 72 53 92 72 65 44 52
internal_count=333 217 116 94 164 72 53 92 72 65 44 52
is_linear=0
shrinkage=0.03


Tree=4
num_leaves=13
num_cat=0
split_feature=2 79 2 34 2 24 88 78 61 61 92 78
split_gain=108.538 34.2247 21.0579 8.60172 6.33228 3.40149 1.89131 1.88153 1.71602 1.43013 1.20496 0.401497
threshold=0.21876107954877483 1.3386169022884951 1.2427788971578051 0.39296679023671827 -0.28640781325691428 -0.45980990756283541 0.099005846117247165 1.1562281958840044 0.089366432746862276 0.027715297907285653 10.500000000000002 -0.091774397121534637
decision_type=2 2 2 2 2 2 2 2 2 2 2 2
left_child=1 4 3 8 6 -6 -1 -3 -2 -7 -5 -11
right_child=2 7 -4 10 5 9 -8 -9 -10 11 -12 -13
leaf_value=-0.018257487042293654 0.010812394804140524 -0.027279702363076145 0.04562783917133835 0.017044496584770287 0.0094404063140278421 0 -0.0074655757370882588 -0.039891016720876991 -0.0013356810024281814 -0.0051096442373714359 0.025666744023027929 -0.011205044479957267
leaf_weight=36 20 23 26 30 20 38 27 28 21 25 39 20
leaf_count=36 20 23 26 30 20 38 27 28 21 25 39 20
internal_value=0.000315086 -0.0128438 0.0213273 0.01552 -0.00620883 -0.00158947 -0.0136991 -0.0343268 0.00452911 -0.00429153 0.0219914 -0.00790407
internal_weight=353 217 136 110 166 103 63 51 41 83 69 45
internal_count=353 217 136 110 166 103 63 51 41 83 69 45
is_linear=0
shrinkage=0.03


Tree=5
num_leaves=14
num_cat=0
split_feature=60 79 25 67 80 21 88 54 29 23 92 62 28
split_gain=91.0505 26.5221 22.4451 12.8543 6.61925 3.83645 4.0137 2.98252 1.6686 1.53858 0.691412 0.487353 0.167251
threshold=1.0000000180025095e-35 1.3685269234381561 -0.006685581361534099 1.1631600570876441 -0.65175772453919156 -1.0129684855614876 -0.0031987420058484498 -0.61226395245160836 1.3740759551568329 -0.63959339178920571 11.500000000000002 0.31315286584427016 -0.22482336501719083
decision_type=2 2 2 2 2 2 2 2 2 2 2 2 2
left_child=1 5 3 7 -4 -1 -7 -2 -3 -8 -9 -6 -11
right_child=2 8 4 -5 11 6 9 10 -10 12 -12 -13 -14
leaf_value=-0.020060436396456476 0.0093699395821079026 -0.026580032556542846 0.016908106721972963 0.045349211918799232 -0.0051550310505469668 -0.014609080105301268 0.0046793417694869551 0.017600182749648793 -0.03868711900077388 -0.0026172871732866609 0.025473566064037532 0.00056798596222006601 -0.006493497558561454
leaf_weight=20 23 21 21 21 33 31 23 21 30 23 34 21 25
leaf_count=20 23 21 21 21 33 31 23 21 30 23 34 21 25
internal_value=-0.000241403 -0.015657 0.0150686 0.0244433 0.002638 -0.00801728 -0.00560916 0.0187255 -0.0338223 -0.00162241 0.0225592 -0.00287702 -0.00470782
internal_weight=347 173 174 99 75 122 102 78 51 71 55 54 48
internal_count=347 173 174 99 75 122 102 78 51 71 55 54 48
is_linear=0
shrinkage=0.03


Tree=6
num_leaves=14
num_cat=0
split_feature=60 60 23 79 88 26 60 88 62 23 73 15 20
split_gain=76.9735 29.4514 10.9342 10.9341 9.61847 3.41662 2.52101 2.44449 1.4924 1.31225 0.753003 0.446869 0.339381
threshold=-0.30398481936693433 0.75345260812998549 0.069002308122701514 1.3386169022884951 0.056751293207415961 -0.95738084168352267 0.069151997205382718 0.099005846117247165 0.34211133801062515 0.11501163115895281 0.049836653353034707 -0.10807271168033708 -0.027973650633460547
decision_type=2 2 2 2 2 2 2 2 2 2 2 2 2
left_child=3 4 -3 7 8 -4 -6 -1 9 12 -5 -11 -2
right_child=1 2 5 10 6 -7 -8 -9 -10 11 -12 -13 -14
leaf_value=-0.018798071282376219 -0.0034726892943893156 0.044383705854415888 0.024992201756005267 -0.037254174052432358 0.0059347800225443186 0.0094892050486629926 0.020449218746290163 -0.005396728690528152 0.0044702496791063848 -0.011796584360635102 -0.027901560878866652 -0.0050303442300811624 0.0017416737712390047
leaf_weight=27 23 20 30 24 21 24 24 24 20 20 21 20 21
leaf_count=27 23 20 30 24 21 24 24 24 20 20 21 20 21
internal_value=0.000220123 0.00989816 0.0253585 -0.0222168 0.00218787 0.0181877 0.0137705 -0.0125732 -0.00280345 -0.00457421 -0.0330277 -0.00850926 -0.000917683
internal_weight=319 223 74 96 149 54 45 51 104 84 45 40 44
internal_count=319 223 74 96 149 54 45 51 104 84 45 40 44
is_linear=0
shrinkage=0.03


Tree=7
num_leaves=13
num_cat=0
split_feature=2 79 88 2 2 24 25 73 22 88 2 60
split_gain=90.5815 30.1022 18.2829 6.10814 4.57209 3.69893 1.55077 1.5134 1.50735 1.37525 0.724775 0.697479
threshold=0.34565523138776794 1.3386169022884951 0.16663607251776416 -0.28640781325691428 0.74587461838405023 -0.63959339178920571 -0.022402257961099594 0.049836653353034707 0.11501163115895281 0.099005846117247165 0.99384358179630106 -0.021399132011854196
decision_type=2 2 2 2 2 2 2 2 2 2 2 2
left_child=1 3 4 9 -2 -5 10 -3 11 -1 -6 -7
right_child=2 7 -4 5 6 8 -8 -9 -10 -11 -12 -13
leaf_value=-0.016259838532542915 0.0060203919279360274 -0.037245116273397223 0.047131917182868119 0.011066114426548802 0.019678325447542912 -0.0025998365199002174 0.013575551351169486 -0.025663917169152971 -0.0079054735388885411 -0.0064140845067052138 0.028208816268997731 0.0044456050266970439
leaf_weight=36 29 24 21 20 26 34 23 25 36 22 21 20
leaf_count=36 29 24 21 20 26 34 23 25 36 22 21 20
internal_value=0.000769276 -0.0107865 0.0216826 -0.00472331 0.0162119 -0.000538206 0.0203767 -0.0314617 -0.00315966 -0.0125943 0.0236053 0
internal_weight=337 217 120 168 99 110 70 49 90 58 47 54
internal_count=337 217 120 168 99 110 70 49 90 58 47 54
is_linear=0
shrinkage=0.03


Tree=8
num_leaves=14
num_cat=0
split_feature=2 2 79 88 90 88 76 65 20 78 33 2 27
split_gain=73.6105 22.4921 9.86429 6.45944 5.60068 2.05881 1.7605 1.55947 1.03403 0.769003 0.604056 0.236611 0.0712907
threshold=-0.23763488696448778 0.70732243008761919 1.3782384747880978 0.056751293207415961 -0.025096992849362697 -0.050961365350683997 0.78746769627829283 0.21541736621057797 0.019786097186198202 1.2210900917207563 -0.68937888336863418 -0.033139035489625893 0.56424602760899101
decision_type=2 2 2 2 2 2 2 2 2 2 2 2 2
left_child=2 3 6 7 -3 -6 -1 10 -5 -4 -2 -12 -7
right_child=1 4 9 8 5 12 -8 -9 -10 -11 11 -13 -14
leaf_value=-0.0089055710674151595 0.004367560755822863 0.035436465037402817 -0.026690924430822393 0.006327805536896435 0.0089537601038742962 0.018475132269017834 -0.019266088351436044 -0.0087156342471619522 0.01603808345152186 -0.035895688301557066 -0.004110445761842425 -5.4290941319404494e-05 0.0231691243399435
leaf_weight=39 20 20 23 20 21 22 26 25 23 23 22 35 20
leaf_count=39 20 20 23 20 21 22 26 25 23 23 22 35 20
internal_value=-0.000721494 0.00902299 -0.0207543 0.00186732 0.0214705 0.0169402 -0.0131191 -0.00222058 0.0116164 -0.0314263 -6.43125e-05 -0.00167682 0.0208313
internal_weight=339 228 111 145 83 63 65 102 43 46 77 57 42
internal_count=339 228 111 145 83 63 65 102 43 46 77 57 42
is_linear=0
shrinkage=0.03


Tree=9
num_leaves=13
num_cat=0
split_feature=2 79 88 83 25 2 70 88 57 83 65 64
split_gain=88.428 26.9764 14.986 6.16105 4.36698 2.64301 2.71356 2.1787 1.4383 1.26536 0.79647 0.46606
threshold=0.34565523138776794 1.1621748917259092 0.16296310490636659 1.3857629683587052 -0.070216418651125836 -0.30710986432959919 -0.63959339178920571 -0.075985075347410544 0.16546216450194454 1.4701700450705262 0.14225423010446722 -0.017625967000502948
decision_type=2 2 2 2 2 2 2 2 2 2 2 2
left_child=1 5 4 -3 8 -1 -7 -6 -2 -5 11 -8
right_child=2 3 -4 9 7 6 10 -9 -10 -11 -12 -13
leaf_value=-0.0096547978843950551 0.028590445100371512 -0.013173631792139392 0.044507947199380213 -0.025255778010105367 0.0031902587540105151 0.0088265759747077534 -0.0034641661848957175 0.016360697745570637 0.017600843045872505 -0.035195874072528846 -0.0063487900629474511 0.002615866441001462
leaf_weight=39 20 31 20 30 26 22 22 21 31 27 36 23
leaf_count=39 20 31 20 30 26 22 22 21 31 27 36 23
internal_value=-0.000288207 -0.0111276 0.0208056 -0.0241737 0.0158974 -0.00301026 -0.000458347 0.00916086 0.0220167 -0.0300702 -0.00302494 -0.000291165
internal_weight=348 230 118 88 98 142 103 47 51 57 81 45
internal_count=348 230 118 88 98 142 103 47 51 57 81 45
is_linear=0
shrinkage=0.03


Tree=10
num_leaves=12
num_cat=0
split_feature=2 79 2 88 2 34 88 77 26 82 61
split_gain=68.5765 24.0041 9.91461 4.64559 4.34923 2.79625 1.55103 1.00638 0.373162 0.37224 0.132348
threshold=0.34565523138776794 1.3685269234381561 1.2427788971578051 -0.065426146989097225 -0.23763488696448778 0.41667855517843849 0.099005846117247165 0.09612063535640232 0.21876107954877483 -0.8400481715042547 0.072386867983937911
decision_type=2 2 2 2 2 2 2 2 2 2 2
left_child=1 4 3 -2 6 8 -1 -3 -6 10 -5
right_child=2 7 -4 9 5 -7 -8 -9 -10 -11 -12
leaf_value=-0.014872328080613456 0.003535582953151891 -0.033501739406965644 0.035772162271397449 0.017425214790586212 -0.0070604555552952857 0.007446443139956886 -0.0049524461994489349 -0.023883867589126067 -0.0021349871945102955 0.014636620875017575 0.02270731893937979
leaf_weight=37 29 25 23 20 24 27 25 25 39 25 20
leaf_count=37 29 25 23 20 24 27 25 25 39 25 20
internal_value=-0.000194357 -0.0107881 0.0180638 0.0136656 -0.00482516 -0.00057532 -0.0109351 -0.02881 -0.00406712 0.0181266 0.0201911
internal_weight=319 202 117 94 152 90 62 50 63 65 40
internal_count=319 202 117 94 152 90 62 50 63 65 40
is_linear=0
shrinkage=0.03


Tree=11
num_leaves=14
num_cat=0
split_feature=2 2 2 88 88 88 25 28 60 79 17 18 78
split_gain=69.0378 22.8648 12.8494 4.73423 4.24167 3.01201 1.62256 1.27469 0.998759 0.814587 0.555471 0.351984 0.223902
threshold=0.34565523138776794 -0.59777358259573243 1.2427788971578051 -0.0031987420058484498 -0.065426146989097225 0.10203696505810207 -0.52630975801417679 1.1153813062409499 -0.021399132011854196 1.4297881964867654 0.0099337554118139517 -0.076432673309696136 -0.61677658819710557
decision_type=2 2 2 2 2 2 2 2 2 2 2 2 2
left_child=1 5 4 7 -2 9 -5 10 12 -1 -3 -6 -8
right_child=2 3 -4 6 11 -7 8 -9 -10 -11 -12 -13 -14
leaf_value=-0.023527659578109851 0.0030102502581045637 -0.010188901450029864 0.038919296872306171 0.0078994626996966143 0.020418585375957546 -0.014954990922595579 -0.0017663412008966715 -0.015995635995224338 0.0040790304178094016 -0.032863249614320952 -0.0033182503289593324 0.015095027888649538 -0.0063592114799947879
leaf_weight=20 25 22 23 23 31 22 23 20 20 26 24 33 20
leaf_count=20 25 22 23 23 31 22 23 20 20 26 24 33 20
internal_value=-0.000258052 -0.0100271 0.0188961 -0.00352934 0.0136501 -0.0244808 0.00107832 -0.00957121 -0.00137297 -0.0289292 -0.00668426 0.0177483 -0.00398196
internal_weight=332 220 112 152 89 68 86 66 63 46 46 64 43
internal_count=332 220 112 152 89 68 86 66 63 46 46 64 43
is_linear=0
shrinkage=0.03


Tree=12
num_leaves=14
num_cat=0
split_feature=2 2 88 94 2 88 24 69 62 45 60 33 3
split_gain=77.7508 26.9006 18.7986 4.45489 3.5163 3.41605 1.77072 1.60941 1.2542 0.933607 0.907594 0.390939 0.136345
threshold=0.34565523138776794 -0.5180110438812745 0.17819127637406193 1.0000000180025095e-35 0.89411442653722439 -0.0031987420058484498 0.16117529804266947 0.36974819895349748 -0.033588307184595941 0.13990867994145573 -0.069075571780603043 0.64953127100755459 -0.51671032554619256
decision_type=2 2 2 2 2 2 2 2 2 2 2 2 2
left_child=1 3 4 11 6 10 -2 8 12 -6 -3 -1 -7
right_child=2 5 -4 -5 9 7 -8 -9 -10 -11 -12 -13 -14
leaf_value=-0.025537149488213524 0.014828056741034847 -0.012219844654008938 0.046149813586206567 -0.015018746674530147 0.025489483964976974 -0.0012109667272654488 0.0039438787006318221 0.0092670649798837178 0.0050368725362259789 0.016547407163672843 -0.0043291753994571603 -0.032658693186648477 -0.0047632961069372882
leaf_weight=25 26 23 20 38 20 20 30 20 25 33 35 23 26
leaf_count=25 26 23 20 38 20 20 30 20 25 33 35 23 26
internal_value=0.000693705 -0.0095696 0.0194066 -0.0229223 0.0144343 -0.00183234 0.00906815 0.00176763 -0.000312756 0.0200199 -0.00752552 -0.0290727 -0.00328986
internal_weight=364 235 129 86 109 149 56 91 71 53 58 48 46
internal_count=364 235 129 86 109 149 56 91 71 53 58 48 46
is_linear=0
shrinkage=0.03


Tree=13
num_leaves=12
num_cat=0
split_feature=2 2 2 88 75 93 88 2 24 31 33
split_gain=56.47 16.8603 11.076 5.11707 4.36049 2.48575 2.35949 1.73333 0.729027 0.69235 0.285389
threshold=0.010169866321540903 -0.79944510689149395 1.1631600570876441 -0.0094625876771143487 1.0298497522491989 0.37940952255126054 0.061887387107976206 0.60687691386612752 0.10553401540005831 -0.096186787795818338 0.52689837823845909
decision_type=2 2 2 2 2 2 2 2 2 2 2
left_child=1 6 3 7 8 9 -1 -2 10 -5 -3
right_child=2 4 -4 5 -6 -7 -8 -9 -10 -11 -12
leaf_value=-0.03178636094120061 -0.0025757908122051288 -0.0033275393957329777 0.02992325642186313 0.019842651685078937 -0.015231450361828517 0.004955219867980587 -0.018383180197008055 0.0074222114029311639 -0.0075492497086878064 0.012157660024379615 0.00056812453148776562
leaf_weight=32 33 29 26 35 35 22 22 29 21 20 38
leaf_count=32 33 29 26 35 35 22 22 29 21 20 38
internal_value=-0.000674155 -0.012449 0.0119387 0.00853403 -0.00627213 0.0137011 -0.0264253 0.00205681 -0.00266146 0.0171297 -0.0010758
internal_weight=342 177 165 139 123 77 54 62 88 55 67
internal_count=342 177 165 139 123 77 54 62 88 55 67
is_linear=0
shrinkage=0.03


Tree=14
num_leaves=12
num_cat=0
split_feature=2 2 2 88 88 88 3 78 26 88 17
split_gain=56.6932 18.6658 10.2582 5.05053 4.57193 2.48552 1.59091 1.22885 1.33895 0.561919 0.394875
threshold=0.34565523138776794 -0.7401133889090451 1.2427788971578051 -0.065426146989097225 -0.0031987420058484498 0.07491328425508996 1.1645541745496277 -0.22482336501719083 1.0000000180025095e-35 0.061887387107976206 0.0099337554118139517
decision_type=2 2 2 2 2 2 2 2 2 2 2
left_child=1 5 3 -2 6 -1 10 8 -6 -5 -3
right_child=2 4 -4 9 7 -7 -8 -9 -10 -11 -12
leaf_value=-0.029282546702368163 0.0023873588037353535 -0.0089702552272571071 0.034847185514968439 0.013948039822179993 0.0085768658972469759 -0.01597677532341573 -0.015974795303898726 -0.003673470789610416 -0.00095823900835980335 0.020072205334997636 -0.0031059387389478815
leaf_weight=34 33 24 22 37 25 23 24 35 27 31 22
leaf_count=34 33 24 22 37 25 23 24 35 27 31 22
internal_value=1.42959e-05 -0.00930426 0.0162458 0.0121339 -0.00393663 -0.0240035 -0.00964076 0.000624251 0.00357603 0.0168094 -0.00624348
internal_weight=337 214 123 101 157 57 70 87 52 68 46
internal_count=337 214 123 101 157 57 70 87 52 68 46
is_linear=0
shrinkage=0.03


Tree=15
num_leaves=13
num_cat=0
split_feature=2 2 2 82 3 26 24 69 74 84 9 73
split_gain=61.7665 15.9834 15.6376 4.80887 4.26833 3.61134 1.81382 0.946211 0.914216 0.431626 0.275578 0.217252
threshold=0.010169866321540903 -0.81470097650245454 1.1631600570876441 -0.36529210971239146 1.0298497522491989 0.12454084872142046 0.18338473719714701 0.31833534000216618 -0.12730339984790173 1.0000000180025095e-35 -0.52657896553542394 0.17981816169258999
decision_type=2 2 2 2 2 2 2 2 2 2 2 2
left_child=1 7 3 5 8 6 9 -1 11 -2 -10 -3
right_child=2 4 -4 -5 -6 -7 -8 -9 10 -11 -12 -13
leaf_value=-0.019979634858420674 0.014642227301967438 0.0025062114995584553 0.033993217173372683 -0.0037844302820893025 -0.015414431200873465 8.6291655544986083e-05 0.0079183784528512654 -0.02899636791302607 -0.0083605435052338771 0.020641496980338667 -0.003378123861439989 -0.0017062656218340595
leaf_weight=21 36 20 27 22 34 21 31 35 22 24 24 24
leaf_count=21 36 20 27 22 34 21 31 35 22 24 24 24
internal_value=-0.000323057 -0.0124037 0.0131639 0.00892238 -0.00635422 0.0114463 0.0140319 -0.0257102 -0.00288487 0.0171222 -0.00583906 0.000141811
internal_weight=341 180 161 134 124 112 91 56 90 60 46 44
internal_count=341 180 161 134 124 112 91 56 90 60 46 44
is_linear=0
shrinkage=0.03


Tree=16
num_leaves=15
num_cat=0
split_feature=2 79 88 2 24 25 88 88 62 22 76 27 64 7
split_gain=55.0926 18.0748 11.0202 3.63051 2.62077 2.52756 1.81171 1.13345 1.11565 0.694084 0.665415 0.466722 0.436133 0.129618
threshold=0.34565523138776794 1.3386169022884951 0.16663607251776416 -0.28640781325691428 -0.63959339178920571 -0.033139035489625893 -0.096067015288687788 0.099005846117247165 0.96310070678489546 0.077004804097421511 1.3800673493181741 -0.52198748778569248 -0.032431591214019694 -0.35848891542541172
decision_type=2 2 2 2 2 2 2 2 2 2 2 2 2 2
left_child=1 3 5 7 -5 8 -7 11 -2 12 -3 -1 -6 -11
right_child=2 10 -4 4 9 6 -8 -9 -10 13 -12 -13 -14 -15
leaf_value=-0.0088785732783613156 0.013564060424393582 -0.020516688001566915 0.036880555175491977 0.0093564859961173408 -0.0028831796986097313 0.00055569491237957968 0.01282593358441653 -0.0042724121215478167 0.023158684675373246 -0.007428419436536618 -0.028713641263780548 -0.01582868842825071 0.002348097959787643 -0.0035286485100748822
leaf_weight=22 32 26 21 20 30 20 25 28 20 20 22 20 27 20
leaf_count=22 32 26 21 20 30 20 25 28 20 20 22 20 27 20
internal_value=0.000414526 -0.00797451 0.0171395 -0.00373463 -0.000472433 0.0128012 0.00745234 -0.00913592 0.0173492 -0.00253746 -0.0243879 -0.0122891 -0.000352894 -0.00556701
internal_weight=353 235 118 187 117 97 45 70 52 97 48 42 57 40
internal_count=353 235 118 187 117 97 45 70 52 97 48 42 57 40
is_linear=0
shrinkage=0.03


Tree=17
num_leaves=13
num_cat=0
split_feature=2 79 2 2 24 2 24 31 7 66 76 31
split_gain=52.6019 17.8431 9.82778 2.62576 2.52606 1.58345 1.76427 1.27567 0.492725 0.330887 0.315614 0.202769
threshold=0.34565523138776794 1.2321241573243211 1.2427788971578051 -0.92019606399942255 0.12454084872142046 -0.30710986432959919 -0.50192021557784139 -0.66010612294903392 -0.37008573330555022 -0.033588307184595941 1.3873623739506586 -0.34087202487400464
decision_type=2 2 2 2 2 2 2 2 2 2 2 2
left_child=1 5 4 10 11 -1 -7 -6 -8 -10 -3 -2
right_child=2 3 -4 -5 7 6 8 -9 9 -11 -12 -13
leaf_value=-0.0080885381948130608 0.01861296488509059 -0.022515329159266573 0.03427611023866111 -0.01432628089815288 0.011212830849765956 0.0067304982794490868 -0.0060508741161312074 0.00068919127890423155 -0.0030358558503049207 0.0016825955191719852 -0.029538595889931289 0.01355235599793529
leaf_weight=36 28 21 22 33 23 22 28 20 32 22 20 21
leaf_count=36 28 21 22 33 23 22 28 20 32 22 20 21
internal_value=-0.000216996 -0.00899368 0.0162257 -0.0209042 0.0118442 -0.00266629 -0.000754574 0.00640068 -0.00280506 -0.00105851 -0.0260778 0.0165373
internal_weight=328 214 114 74 92 140 104 43 82 54 41 49
internal_count=328 214 114 74 92 140 104 43 82 54 41 49
is_linear=0
shrinkage=0.03


Tree=18
num_leaves=13
num_cat=0
split_feature=2 79 88 2 25 23 34 88 76 88 69 62
split_gain=50.7433 17.1661 8.80129 3.14976 2.897 2.31919 1.40279 0.883623 0.848938 0.84618 0.80041 0.378301
threshold=0.34565523138776794 1.3386169022884951 0.15929013729496908 -0.4091715526223122 -0.033139035489625893 0.030931268185841156 0.41667855517843849 0.099005846117247165 1.3282869570102003 -0.089366432746845179 0.47845034106245465 -0.030492864151128247
decision_type=2 2 2 2 2 2 2 2 2 2 2 2
left_child=1 3 4 7 10 6 -5 -1 -3 -6 -2 -7
right_child=2 8 -4 5 9 11 -8 -9 -10 -11 -12 -13
leaf_value=-0.014743959179946354 0.013498466942471322 -0.018411845638457523 0.033547678779086793 -0.0016899725008667921 0.0016584651486427294 -0.008821244780048431 0.0066434490811380165 -0.0059709824422770497 -0.02676546467103039 0.010188116550614888 0.021840206224526929 -0.0034180008331348094
leaf_weight=23 31 25 21 38 21 25 34 22 30 23 20 27
leaf_count=23 31 25 21 38 21 25 34 22 30 23 20 27
internal_value=-0.000162375 -0.00851053 0.0159258 -0.0037459 0.0119677 -0.00124809 0.0022074 -0.0105442 -0.0230631 0.00619817 0.0168648 -0.00608524
internal_weight=340 224 116 169 95 124 72 45 55 44 51 52
internal_count=340 224 116 169 95 124 72 45 55 44 51 52
is_linear=0
shrinkage=0.03


Tree=19
num_leaves=13
num_cat=0
split_feature=2 2 88 3 25 74 82 88 2 16 92 8
split_gain=49.6568 17.814 11.1479 4.79469 2.11203 1.51801 1.49118 1.18193 0.664279 0.614746 0.690552 0.425586
threshold=0.38964566258645833 -0.81470097650245454 0.16663607251776416 1.0298497522491989 -0.033139035489625893 -0.14858235278498472 -0.92969150267490763 0.061887387107976206 0.89411442653722439 0.094044085584902973 9.5000000000000018 -0.029878186612283798
decision_type=2 2 2 2 2 2 2 2 2 2 2 2
left_child=1 7 4 5 8 9 -6 -1 -2 10 -3 -7
right_child=2 3 -4 -5 6 11 -8 -9 -10 -11 -12 -13
leaf_value=-0.026588426512530721 0.011059070825576783 6.9343492017881898e-05 0.035799753332590036 -0.013506871605513827 0.01182260415000373 -0.0066721236211297764 0.00023081232390519395 -0.016832185672922721 0.018877933059298694 -0.0012622103081121451 0.0078074380811921796 -0.0016992379513751598
leaf_weight=35 20 22 21 36 21 39 20 21 28 38 21 29
leaf_count=35 20 22 21 36 21 39 20 21 28 38 21 29
internal_value=-0.000569443 -0.00820058 0.0161147 -0.00368853 0.0114013 -0.00128872 0.00625538 -0.0230198 0.0157122 0.0014572 0.00392737 -0.004601
internal_weight=351 241 110 185 89 149 41 56 48 81 43 68
internal_count=351 241 110 185 89 149 41 56 48 81 43 68
is_linear=0
shrinkage=0.03


Tree=20
num_leaves=15
num_cat=0
split_feature=2 88 2 25 3 31 2 88 81 54 69 69 88 3
split_gain=44.23 12.1104 11.8176 4.7043 3.50127 2.96758 1.98078 1.51066 0.723058 0.689346 0.548594 0.223508 0.138616 0.0156523
threshold=0.010169866321540903 0.17819127637406193 -0.79944510689149395 -0.013267380328776947 1.0298497522491989 -0.67114541033236808 1.0188849898324324 0.061887387107976206 0.36174983968537794 -0.61226395245160836 0.24836214377304014 0.25160677543306437 -1.0000000180025095e-35 -1.138082987200723
decision_type=2 2 2 2 2 2 2 2 2 2 2 2 2 2
left_child=2 3 7 6 8 -5 9 -1 12 -2 -7 13 -4 -10
right_child=1 -3 4 5 -6 10 -8 -9 11 -11 -12 -13 -14 -15
leaf_value=-0.025735209593239862 0.0055631948914378875 0.032945438702524546 -0.007161164013529891 0.011507623677920383 -0.013061320677688577 0.00079864581518653607 0.021609139255623317 -0.014820262915432734 -0.00060733950488380526 0.012854288226430305 -0.0061030175489609805 0.0023166156962526564 -0.0032358068384901037 -0.0021091162402238415
leaf_weight=33 20 21 20 20 36 20 20 21 20 37 20 22 21 20
leaf_count=33 20 21 20 20 36 20 20 21 20 37 20 22 21 20
internal_value=-2.50157e-05 0.0117324 -0.00966688 0.00843722 -0.00500454 0.00207463 0.0133471 -0.0215812 -0.00214955 0.0103628 -0.00258399 -5.48076e-05 -0.00523637 -0.00143643
internal_weight=351 158 193 137 139 60 77 54 103 57 40 62 41 40
internal_count=351 158 193 137 139 60 77 54 103 57 40 62 41 40
is_linear=0
shrinkage=0.03


Tree=21
num_leaves=14
num_cat=0
split_feature=2 2 88 88 2 88 25 62 82 70 71 2 3
split_gain=40.4076 13.173 9.62548 3.14795 2.11098 1.61366 1.23261 0.967591 0.651613 0.497651 0.248006 0.225225 0.185495
threshold=0.40026287160942048 -0.66323286368095413 0.16663607251776416 -0.0031987420058484498 0.74587461838405023 0.07491328425508996 -0.63959339178920571 -0.033588307184595941 -0.41312217323011063 0.43767092817552 0.008007797715004452 1.0050625032033171 1.0924135402800561
decision_type=2 2 2 2 2 2 2 2 2 2 2 2 2
left_child=1 5 4 8 -2 -1 -5 10 -3 11 -8 -6 -10
right_child=2 3 -4 6 9 -7 7 -9 12 -11 -12 -13 -14
leaf_value=-0.022722026970026628 0.0039736570285429573 -0.0027470790803321254 0.03323395307877617 0.0068949893500686804 0.013191006898405066 -0.012260610660020245 -0.001227149271648178 0.0039009194534672682 -0.0073964697018681297 0.0097673736252972682 -0.0056112995898568779 0.018552690557579493 -0.011962819802227305
leaf_weight=37 30 20 21 24 25 24 28 25 25 24 23 20 20
leaf_count=37 30 20 21 24 25 24 28 25 25 24 23 20 20
internal_value=0.000686018 -0.00677492 0.0147564 -0.00234611 0.010777 -0.018682 0.000968815 -0.000869788 -0.00748572 0.0136816 -0.00327014 0.0156763 -0.0095145
internal_weight=346 226 120 165 99 61 100 76 65 69 51 45 45
internal_count=346 226 120 165 99 61 100 76 65 69 51 45 45
is_linear=0
shrinkage=0.03


Tree=22
num_leaves=14
num_cat=0
split_feature=2 2 88 88 70 94 69 88 2 62 62 69 71
split_gain=40.511 14.0041 9.11547 2.9341 2.19571 2.17941 1.35506 1.26825 1.21956 0.539179 0.350073 0.313434 0.110579
threshold=0.41994423466695879 -0.81470097650245454 0.16663607251776416 -0.0031987420058484498 0.19355794729250472 0.96592582628906831 0.41440629843732407 0.061887387107976206 -0.377623099280748 -0.033588307184595941 0.79882455023447652 0.25403588089446705 -0.025662940661900144
decision_type=2 2 2 2 2 2 2 2 2 2 2 2 2
left_child=1 7 4 8 10 -6 9 -1 -3 12 -2 -10 -5
right_child=2 3 -4 6 5 -7 -8 -9 11 -11 -12 -13 -14
leaf_value=-0.024132092416843519 0.012768312174810002 -0.012845135525301778 0.033134118692198788 -0.0016091960655363995 0.00097001167743937251 0.012928458384592155 0.0075633950095012111 -0.014287058517530366 -0.001598215621508388 0.0026889784934071748 0.019123652258190498 -0.0065054544260563672 -0.0045810523868274325
leaf_weight=32 22 24 20 38 29 27 20 23 22 23 21 31 20
leaf_count=32 22 24 20 38 29 27 20 23 22 23 21 31 20
internal_value=0.000386663 -0.00687743 0.0146287 -0.00276506 0.0108302 0.00680194 0.000571218 -0.0201029 -0.0071752 -0.00112545 0.0159789 -0.00453183 -0.00269173
internal_weight=352 233 119 178 99 56 101 55 77 81 43 53 58
internal_count=352 233 119 178 99 56 101 55 77 81 43 53 58
is_linear=0
shrinkage=0.03


Tree=23
num_leaves=13
num_cat=0
split_feature=2 2 88 34 3 73 27 88 37 81 34 2
split_gain=36.615 10.4387 9.84717 4.57716 2.58908 1.19339 1.15746 1.02555 0.650561 0.482366 0.268772 0.0502015
threshold=0.010169866321540903 -0.79944510689149395 0.17819127637406193 -0.019962224898448597 1.0298497522491989 0.065631106287650509 0.5168884082239783 0.061887387107976206 0.050798193081868705 0.22720241838905073 0.3419337979257403 -0.19154334542420037
decision_type=2 2 2 2 2 2 2 2 2 2 2 2
left_child=1 7 3 6 9 -5 -2 -1 -7 -3 11 -11
right_child=2 4 -4 5 -6 8 -8 -9 -10 10 -12 -13
leaf_value=-0.023808891318760309 -0.0027790057779369754 -0.0056655271367663405 0.028683352549960704 0.0068294770296805059 -0.012590162539821502 0.018831429899628483 0.0060540931478310469 -0.014808935903316169 0.011396570583844832 -0.003309384672416012 0.001835350544228182 -0.00098167938651976634
leaf_weight=34 36 25 22 34 28 20 21 22 33 20 23 23
leaf_count=34 36 25 22 34 28 20 21 22 33 20 23 23
internal_value=-9.38231e-05 -0.00967417 0.00998763 0.00709259 -0.00460778 0.0114193 0.000427658 -0.0203594 0.0142889 -0.00210761 -0.000708 -0.00213911
internal_weight=341 175 166 144 119 87 57 56 53 91 66 43
internal_count=341 175 166 144 119 87 57 56 53 91 66 43
is_linear=0
shrinkage=0.03


Tree=24
num_leaves=14
num_cat=0
split_feature=2 2 2 28 88 25 69 41 17 61 32 21 88
split_gain=33.5598 11.6585 9.16763 3.28368 2.02616 1.11396 0.727976 0.659298 0.343395 0.338651 0.23531 0.156377 0.106732
threshold=0.34565523138776794 -0.81470097650245454 1.1631600570876441 1.0298497522491989 -0.0059021038196292496 -0.63959339178920571 0.32758593809679953 0.063292074915995825 -0.018991685815865897 0.076726514161629802 -0.49335485226800385 -0.031111702383177595 -0.0094767860701454477
decision_type=2 2 2 2 2 2 2 2 2 2 2 2 2
left_child=1 6 4 5 9 -3 -1 -7 12 -2 -6 -10 -9
right_child=2 3 -4 -5 10 7 -8 8 11 -11 -12 -13 -14
leaf_value=-0.014872839704378325 0.0069774962135993714 0.0048434956264160412 0.030891716821093897 -0.011174449796409157 0.016085858102297887 0.0023436679516611321 -0.023202250090782327 -0.0072053035548818641 -0.0037536910687809557 0.0013055745840196218 0.010897244425235446 -0.00026053519836827135 -0.0035858998896637507
leaf_weight=20 20 24 22 36 22 22 28 20 20 21 24 32 20
leaf_count=20 20 24 22 36 22 22 28 20 20 21 24 32 20
internal_value=-4.49831e-05 -0.00674704 0.0135712 -0.0031108 0.00912648 -0.000978945 -0.0198322 -0.00223418 -0.00336282 0.0041556 0.0134733 -0.00166626 -0.00548387
internal_weight=331 222 109 174 87 138 48 114 92 41 46 52 40
internal_count=331 222 109 174 87 138 48 114 92 41 46 52 40
is_linear=0
shrinkage=0.03


Tree=25
num_leaves=13
num_cat=0
split_feature=2 76 88 2 25 25 83 45 61 61 62 76
split_gain=32.0044 11.2773 6.80061 2.03807 2.01948 1.42079 1.32881 0.885017 0.64184 0.366332 0.141722 0.075734
threshold=0.57942435773103651 1.0117839837521141 0.11471646576770077 -0.44829339155567949 -0.63959339178920571 -0.26100820152341597 1.4701700450705262 0.133650879301947 0.12833999371166724 0.07131849123806816 -0.033588307184595941 -0.052974206438339944
decision_type=2 2 2 2 2 2 2 2 2 2 2 2
left_child=1 3 5 -1 -5 -2 -3 -6 10 -7 11 -9
right_child=2 6 -4 4 7 9 -8 8 -10 -11 -12 -13
leaf_value=-0.0083717712364500922 0.015345924895180284 -0.01289823831774475 0.0305668074826696 0.0077105920548508266 0.0038927048032602932 0.0096759008450248221 -0.0224175162631941 -0.0014220802527433038 -0.0077968189320457518 0.0036406567759478268 -0.00032146458284181478 -0.0042829231496114648
leaf_weight=34 34 37 20 24 20 21 24 21 20 20 39 21
leaf_count=34 34 37 20 24 20 21 24 21 20 20 39 21
internal_value=0.000236261 -0.00558874 0.014974 -0.00177035 -0.000197052 0.0107408 -0.0167232 -0.00179536 -0.00295411 0.00682089 -0.00171325 -0.00293054
internal_weight=335 240 95 179 145 75 61 121 101 41 81 42
internal_count=335 240 95 179 145 75 61 121 101 41 81 42
is_linear=0
shrinkage=0.03


Tree=26
num_leaves=14
num_cat=0
split_feature=2 2 88 34 3 88 49 24 54 32 9 11 35
split_gain=25.5584 8.34793 5.71014 3.36261 1.81764 1.25491 0.921963 0.624955 0.376308 0.285177 0.23955 0.124249 0.0247489
threshold=0.059324697234470508 -0.7401133889090451 0.17819127637406193 0.24325985264751862 1.0298497522491989 0.077439700526280922 0.17495750366430987 -0.39678785771911268 -0.40235205997336265 1.0034065609190652 -0.52657896553542394 0.16343081339780058 0.11323744325396491
decision_type=2 2 2 2 2 2 2 2 2 2 2 2 2
left_child=1 5 3 6 7 9 -2 -3 -5 -1 -9 -10 -12
right_child=2 4 -4 8 -6 -7 -8 10 11 -11 12 -13 -14
leaf_value=-0.016932339399911778 0.0037464587542030705 0.0027263887465944115 0.023423168187710775 0.0067026183198192228 -0.010478876936919573 -0.010799860925965719 -0.0038932145279473979 -0.0050244565408712792 0.013555315514469453 -0.023302126366700697 -0.0022545147005033181 0.0095247674922444934 -0.00062734782842617802
leaf_weight=21 39 22 20 20 27 22 22 31 31 20 23 20 24
leaf_count=21 39 22 20 20 27 22 22 31 31 20 23 20 24
internal_value=-0.000688432 -0.00803001 0.00846807 0.00616342 -0.00356557 -0.0169623 0.000940205 -0.0016604 0.0106011 -0.0201617 -0.00293801 0.0120551 -0.00149041
internal_weight=342 190 152 132 127 63 61 100 71 41 78 51 47
internal_count=342 190 152 132 127 63 61 100 71 41 78 51 47
is_linear=0
shrinkage=0.03


Tree=27
num_leaves=14
num_cat=0
split_feature=2 79 2 83 88 88 17 20 73 84 58 79 21
split_gain=26.7316 10.5888 5.32611 1.95619 1.40197 1.06969 0.959962 0.429064 0.410468 0.325801 0.309393 0.274008 0.31074
threshold=0.57942435773103651 1.1621748917259092 1.3107154763082389 1.3857629683587052 0.10851985186977416 -0.0094625876771143487 -0.22174317092295084 -0.22528187868878594 0.049836653353034707 1.0000000180025095e-35 -0.66120268327951048 0.54949638169392345 -0.011141644912964248
decision_type=2 2 2 2 2 2 2 2 2 2 2 2 2
left_child=1 4 5 -3 6 -2 10 -6 -5 -7 -1 12 -8
right_child=2 3 -4 8 7 9 11 -9 -10 -11 -12 -13 -14
leaf_value=-0.0035457433102057305 0.0053367037806671186 -0.0071821395243959595 0.027124060681506766 -0.020583412616455243 0.00059542192481634737 0.0096633096957376204 -0.0018121121711691846 0.0069051189189637775 -0.014530263293892462 0.015711096001886079 -0.0088669767147768735 -0.0031348770048205557 0.0029414705027623364
leaf_weight=24 33 25 20 27 21 21 22 20 28 21 21 24 27
leaf_count=24 33 25 20 27 21 21 22 20 28 21 21 24 27
internal_value=-0.000129356 -0.00548915 0.0133148 -0.0143868 -0.000987264 0.00956118 -0.0026624 0.00375563 -0.0175882 0.0127886 -0.00610966 -0.000490894 0.000746765
internal_weight=334 239 95 80 159 75 118 41 55 42 45 73 49
internal_count=334 239 95 80 159 75 118 41 55 42 45 73 49
is_linear=0
shrinkage=0.03


Tree=28
num_leaves=14
num_cat=0
split_feature=2 2 88 88 88 57 35 3 30 74 90 16 21
split_gain=27.0726 9.33775 7.57682 2.55309 1.66272 0.854078 0.733149 0.715147 0.608409 0.302934 0.170844 0.121479 0.0555381
threshold=0.34565523138776794 -0.79944510689149395 0.17819127637406193 -0.0031987420058484498 -0.0094625876771143487 0.23740725669848714 -1.125308429569406 1.1508348021909629 1.3857629683587052 -0.11081075976651834 0.068636279453960419 0.12239996594016526 0.94470197361496833
decision_type=2 2 2 2 2 2 2 2 2 2 2 2 2
left_child=1 8 4 7 5 -2 -5 10 -1 11 -3 -8 -6
right_child=2 3 -4 6 12 -7 9 -9 -10 -11 -12 -13 -14
leaf_value=-0.013680971700594244 0.0080283047546636996 -0.002192710125973333 0.028586898323760098 0.0055902816583865899 0.010366074546825053 -0.00029406247028398292 0.0023593683638123428 -0.010746790913076162 -0.020985658134537177 -0.0036027636374165481 -0.0063399651188456333 -0.00077322967870572168 0.013615511963270368
leaf_weight=25 21 21 20 21 30 22 20 28 26 23 21 23 22
leaf_count=25 21 21 20 21 30 22 20 28 26 23 21 23 22
internal_value=0.000100796 -0.00634719 0.0117847 -0.00269721 0.00818949 0.00370994 0.000703706 -0.00696183 -0.0174974 -0.000811833 -0.00434773 0.000616281 0.0118219
internal_weight=323 208 115 157 95 43 87 70 51 66 42 43 52
internal_count=323 208 115 157 95 43 87 70 51 66 42 43 52
is_linear=0
shrinkage=0.03


Tree=29
num_leaves=14
num_cat=0
split_feature=20 88 76 62 88 25 20 71 69 69 30 88 19
split_gain=21.1506 7.31098 5.06282 4.49535 1.38468 1.26246 1.08977 1.15901 1.01043 0.34811 0.27933 0.24704 0.0698501
threshold=-0.085191106814500886 0.13383871253919125 1.2228816380568066 0.57942435773103651 0.0029381953762368505 -0.033139035489625893 -0.86816823014679601 -0.034433605328760143 0.45205381695371222 0.25739706975875959 1.4073921910159324 -0.016515531605428149 0.34085654099491486
decision_type=2 2 2 2 2 2 2 2 2 2 2 2 2
left_child=2 3 6 4 9 8 -1 -8 -5 12 -4 -9 -2
right_child=1 -3 10 5 -6 -7 7 11 -10 -11 -12 -13 -14
leaf_value=-0.011314588987560414 0.00033051154237579214 0.021169617234290328 -0.014452232291913145 0.0085867032078430824 0.0054293312310668713 0.0044751677401004492 0.00081725405109202168 -0.0091535059729618805 0.017753313139303405 -0.0051309306572476657 -0.020511863686462149 -0.0041802825086883133 -0.0020042073803105899
leaf_weight=20 23 26 21 29 28 31 33 20 20 27 21 23 20
leaf_count=20 23 26 21 29 28 31 33 20 20 27 21 23 20
internal_value=0.000168433 0.00631203 -0.00888968 0.00411431 -0.000164462 0.00938692 -0.00503561 -0.00333113 0.0124178 -0.00244933 -0.0175948 -0.00657889 -0.000687929
internal_weight=342 204 138 178 98 80 96 76 49 70 42 43 43
internal_count=342 204 138 178 98 80 96 76 49 70 42 43 43
is_linear=0
shrinkage=0.03


Tree=30
num_leaves=13
num_cat=0
split_feature=2 2 88 88 83 20 70 82 17 20 65 30
split_gain=25.6942 9.3834 6.95048 1.74886 1.53922 0.931166 0.856049 0.615304 0.492031 0.425127 0.167371 0.100025
threshold=0.57942435773103651 -0.49070648735136435 0.11471646576770077 0.0029381953762368505 1.3857629683587052 1.0000000180025095e-35 0.16117529804266947 -0.36529210971239146 0.14192396103790372 -1.4017728357615671 0.19656438630446096 -0.10010752325202134
decision_type=2 2 2 2 2 2 2 2 2 2 2 2
left_child=1 4 6 7 -1 -5 -2 11 -8 -6 -9 -3
right_child=2 3 -4 5 9 -7 8 10 -10 -11 -12 -13
leaf_value=-0.0067260590934290964 0.012262001223159286 0.00035989295899036867 0.028674636177385027 1.6525180441154174e-05 -0.019456367988931644 0.0075850620913315587 0.0024601845537645241 -0.0039160242176818089 0.0090577881495843386 -0.013497579572412667 -0.0079348607742673414 -0.0023628630745114302
leaf_weight=26 37 25 20 37 22 25 22 26 22 39 21 21
leaf_count=26 37 25 20 37 22 25 22 26 22 39 21 21
internal_value=9.64082e-05 -0.0051993 0.0128074 -0.000750862 -0.0130803 0.00312396 0.00882204 -0.00336688 0.00584007 -0.0157241 -0.0057884 -0.000820458
internal_weight=343 242 101 155 87 62 81 93 44 61 47 46
internal_count=343 242 101 155 87 62 81 93 44 61 47 46
is_linear=0
shrinkage=0.03


Tree=31
num_leaves=12
num_cat=0
split_feature=2 2 78 34 88 83 73 65 60 45 14
split_gain=25.0036 10.1274 6.0083 2.25008 2.22825 1.2111 0.932655 0.529064 0.224558 0.0965852 0.0603055
threshold=0.74587461838405023 -0.44829339155567949 -0.17109795863557978 0.39296679023671827 0.099005846117247165 1.4073921910159324 0.075506888646530726 0.20360632062427594 -0.046783300362943293 0.31443927637170949 -0.3258156897067333
decision_type=2 2 2 2 2 2 2 2 2 2 2
left_child=1 4 9 7 5 -1 -5 8 -3 -2 -10
right_child=2 3 -4 6 -6 -7 -8 -9 10 -11 -12
leaf_value=-0.010464847242812382 0.010277428140765743 -0.0029916787480514938 0.026896117650180219 4.2851309884678221e-05 -0.0052574669196003886 -0.019029462844381041 0.0079488285392140725 -0.0060813914897861953 -0.00093533548787313493 0.0069255480431549927 0.001154067137564321
leaf_weight=30 36 36 25 23 31 36 35 27 24 21 25
leaf_count=30 36 36 25 23 31 36 35 27 24 21 25
internal_value=0.000107098 -0.00433489 0.0145948 6.23982e-05 -0.0120645 -0.0152036 0.0048708 -0.00240303 -0.00119359 0.00910936 6.97658e-05
internal_weight=349 267 82 170 97 66 58 112 85 57 49
internal_count=349 267 82 170 97 66 58 112 85 57 49
is_linear=0
shrinkage=0.03


Tree=32
num_leaves=12
num_cat=0
split_feature=2 2 88 34 69 2 69 25 62 32 43
split_gain=21.9998 10.4185 4.58619 2.82431 1.63207 1.06153 0.471506 0.468827 0.35469 0.276343 0.101976
threshold=0.74587461838405023 -0.81470097650245454 0.072386867983899358 0.3419337979257403 0.40650783362665149 0.010169866321540903 0.39677656643672027 -0.031111702383177595 -0.031899725691366988 0.015675322998178753 -0.25384111177037699
decision_type=2 2 2 2 2 2 2 2 2 2 2
left_child=1 6 7 4 8 -5 -1 -2 9 -3 -10
right_child=2 3 -4 5 -6 -7 -8 -9 10 -11 -12
leaf_value=-0.012657287597546278 0.011728539901441641 -0.00581303075896864 0.025661105566839284 0.0001173702645020222 -0.011372113218948021 0.0072865301006891595 -0.01911966428338769 0.0059499131062713401 -0.0015780054254591772 -0.0016541150414393093 0.00092924838748845856
leaf_weight=27 37 29 22 38 20 38 25 24 29 34 28
leaf_count=27 37 29 22 38 20 38 25 24 29 34 28
internal_value=0.000364149 -0.00380746 0.0138584 -0.000887846 -0.00342578 0.00374624 -0.0158525 0.00951754 -0.00206805 -0.00362226 -0.000294362
internal_weight=351 268 83 216 140 76 52 61 120 63 57
internal_count=351 268 83 216 140 76 52 61 120 63 57
is_linear=0
shrinkage=0.03


Tree=33
num_leaves=13
num_cat=0
split_feature=2 76 2 88 2 83 23 92 86 83 37 26
split_gain=18.8967 7.25131 5.45141 1.29286 1.18312 1.14966 1.00378 0.568307 0.373754 0.258941 0.158359 0.157476
threshold=0.40026287160942048 1.0117839837521141 1.3107154763082389 -0.066583823361922936 -0.4091715526223122 1.4073921910159324 0.019786097186198202 11.500000000000002 0.0030058051261616504 0.21440937330884363 0.043212275236038052 0.070937465384324258
decision_type=2 2 2 2 2 2 2 2 2 2 2 2
left_child=1 4 3 -2 -1 -3 7 8 -6 10 -5 -8
right_child=2 5 -4 9 6 -7 11 -9 -10 -11 -12 -13
leaf_value=-0.0064164662597615604 0.00030932965178497772 -0.0085216521002984564 0.02415758159178406 0.0075436124431578462 -0.0018809502482346713 -0.016983554959297178 -0.0056261073750742954 0.0058585087851119729 0.0030233132582606118 0.0055957956291664539 0.011711979213449143 -0.0019768919732116716
leaf_weight=37 22 27 20 21 33 38 22 22 24 21 29 28
leaf_count=37 22 27 20 21 33 38 22 22 24 21 29 28
internal_value=-0.00011453 -0.00504056 0.00992452 0.00680877 -0.00169093 -0.0135332 -0.000308383 0.00177087 0.000133142 0.00877722 0.0100397 -0.00365045
internal_weight=344 231 113 93 166 65 129 79 57 71 50 50
internal_count=344 231 113 93 166 65 129 79 57 71 50 50
is_linear=0
shrinkage=0.03


Tree=34
num_leaves=12
num_cat=0
split_feature=2 2 2 74 82 25 25 74 73 57 8
split_gain=17.629 6.88881 5.7055 1.1455 0.931326 0.841736 0.665957 0.467747 0.30522 0.189867 0.182681
threshold=0.34565523138776794 -0.66323286368095413 1.3107154763082389 -0.14858235278498472 -0.70969362309268369 -0.36060473395294007 0.82259483554892976 1.0298497522491989 0.17981816169258999 0.25358602208955666 -0.029878186612283798
decision_type=2 2 2 2 2 2 2 2 2 2 2
left_child=1 5 4 8 9 -1 -7 10 -3 -2 -5
right_child=2 3 -4 7 -6 6 -8 -9 -10 -11 -12
leaf_value=-0.007887075774149219 0.0092349183507820908 0.0032265095057570853 0.022991400864733825 -0.0044281791378119866 0.00034432279599232103 -0.018942165489126389 -0.011056693211865068 -0.0077911881230678798 -0.00075787207096654442 0.0055557506901298672 -0.00095741235767865475
leaf_weight=20 36 31 22 29 22 27 20 24 37 30 31
leaf_count=20 36 31 22 29 22 27 20 24 37 30 31
internal_value=-0.00047083 -0.00540063 0.0093127 -0.00184205 0.00583676 -0.0134143 -0.0156809 -0.00419029 0.00101655 0.00761889 -0.00268944
internal_weight=329 219 110 152 88 67 47 84 68 66 60
internal_count=329 219 110 152 88 67 47 84 68 66 60
is_linear=0
shrinkage=0.03


Tree=35
num_leaves=14
num_cat=0
split_feature=2 2 2 34 3 25 82 19 61 33 2 2 17
split_gain=15.9326 6.33738 4.81406 2.94096 1.42863 0.754482 0.603338 0.556628 0.551732 0.363796 0.328751 0.139743 0.0749211
threshold=1.0000000180025095e-35 1.3107154763082389 -0.92019606399942255 0.43753951271902963 1.0298497522491989 -0.13992108057321431 -0.68469255438017618 -0.071816090956291143 0.10049750614337712 0.54949638169392345 0.52473512267829481 -0.32269758967235829 -0.10807271168033708
decision_type=2 2 2 2 2 2 2 2 2 2 2 2 2
left_child=2 3 5 8 9 -1 7 -5 10 12 -2 -11 -4
right_child=1 -3 4 6 -6 -7 -8 -9 -10 11 -12 -13 -14
leaf_value=-0.0092991006151953732 -0.00036823672908954143 0.022445046158868873 -0.004013137818427286 0.013705672075144977 -0.0088993399248665749 -0.017365681787463911 0.0038385136930439703 0.0072625231638411497 -0.003328472668954645 -0.0011536519357295179 0.0048786936120700022 0.0021829940443587989 -0.0013677042152788212
leaf_weight=20 21 20 32 24 30 30 21 32 28 20 20 24 20
leaf_count=20 21 20 32 24 30 30 21 32 28 20 20 24 20
internal_value=-4.39821e-05 0.00661248 -0.00633947 0.00440923 -0.00317812 -0.0142239 0.00843614 0.0100969 -4.68616e-05 -0.00135162 0.00212389 0.000599133 -0.00305782
internal_weight=342 166 176 146 126 50 77 56 69 96 41 44 52
internal_count=342 166 176 146 126 50 77 56 69 96 41 44 52
is_linear=0
shrinkage=0.03


Tree=36
num_leaves=14
num_cat=0
split_feature=2 25 79 74 80 92 22 26 23 78 26 2 65
split_gain=15.2102 5.1142 4.7422 4.60771 1.45698 1.03537 0.531078 0.315085 0.305933 0.293881 0.258879 0.207216 0.0887081
threshold=0.010169866321540903 -0.022402257961099594 1.1621748917259092 -0.080909355752539283 -0.42277785634654835 15.500000000000002 0.14687745998274668 -0.24394851198839768 0.94175092170515373 -1.5200230205501091 0.71479849958920749 -1.3726864211031182 0.19767517866024761
decision_type=2 2 2 2 2 2 2 2 2 2 2 2 2
left_child=2 3 7 6 -3 -4 -2 -1 -6 -9 12 -7 -11
right_child=1 4 5 -5 8 11 -8 9 -10 10 -12 -13 -14
leaf_value=0.0012876002367889314 0.0030253098786434032 0.0057496033264564633 -0.0060830715627639325 0.020291924819210976 -0.0006088409486359784 -0.016937874804681806 0.0086359713748654816 0.00010349961408934034 -0.0058460209805017973 -0.0067400221582224118 -0.00076787927090676855 -0.012122790107103994 -0.0034276685650102895
leaf_weight=22 28 27 23 32 23 20 40 23 20 20 20 33 21
leaf_count=22 28 27 23 32 23 20 40 23 20 20 20 33 21
internal_value=6.62001e-05 0.00652516 -0.00595069 0.010876 0.000260271 -0.0116719 0.00637759 -0.00181325 -0.00312226 -0.00266161 -0.00375176 -0.0140248 -0.00512891
internal_weight=352 170 182 100 70 76 68 106 43 84 61 53 41
internal_count=352 170 182 100 70 76 68 106 43 84 61 53 41
is_linear=0
shrinkage=0.03


Tree=37
num_leaves=14
num_cat=0
split_feature=2 88 79 25 57 80 79 54 57 78 10 2 68
split_gain=18.6348 8.41039 4.02556 2.00985 1.39523 1.36009 0.615883 0.371568 0.230654 0.214249 0.18015 0.163741 0.156951
threshold=0.010169866321540903 0.18577345297878678 1.3857629683587052 -0.013267380328776947 0.14744720153424959 -0.39535512532623046 1.0512326319003114 -0.61226395245160836 0.20103558094712193 1.1562281958840044 -0.59540175882841084 -0.32269758967235829 -0.068137034254458537
decision_type=2 2 2 2 2 2 2 2 2 2 2 2 2
left_child=2 3 6 4 -2 -5 11 -6 -8 -4 -9 -1 -13
right_child=1 -3 9 5 7 -7 8 10 -10 -11 -12 12 -14
leaf_value=-0.0038016940373627891 0.014964920773879804 0.025225615515881237 -0.010890868074858366 0.0058375978082471211 0.0023364836530448082 -0.0029454360836136495 -0.0043188089083887595 0.0051766607711487755 -0.0090568175561614884 -0.015910161309394971 0.0096611262835673423 0.0010425932699842239 -0.0022903465587418175
leaf_weight=31 20 21 20 28 22 36 25 22 20 28 20 20 31
leaf_count=31 20 21 20 28 22 36 25 22 20 28 20 20 31
internal_value=0.000357624 0.0074689 -0.00649305 0.00491378 0.00796699 0.000853452 -0.00365815 0.0057134 -0.00650652 -0.0139081 0.00740126 -0.00205245 -0.00092512
internal_weight=344 169 175 148 84 64 127 64 45 48 42 82 51
internal_count=344 169 175 148 84 64 127 64 45 48 42 82 51
is_linear=0
shrinkage=0.03


Tree=38
num_leaves=12
num_cat=0
split_feature=2 2 2 34 3 32 25 23 73 83 74
split_gain=14.1565 5.34586 4.36496 1.57402 1.15495 0.645315 0.567149 0.296905 0.296813 0.153421 0.114231
threshold=0.010169866321540903 1.0838944107373794 -0.92019606399942255 0.41667855517843849 1.0298497522491989 -0.74759129561769522 -0.13992108057321431 -0.377623099280748 0.063750562296679761 0.19189804855174261 -0.091774397121534637
decision_type=2 2 2 2 2 2 2 2 2 2 2
left_child=2 3 6 5 7 -2 -1 -4 -5 -10 -9
right_child=1 -3 4 8 -6 -7 -8 10 9 -11 -12
leaf_value=-0.0087880480508386247 0.0042686072104083607 0.018120728396263316 0.0010795217551279731 0.0037759663532087703 -0.0079436144289681283 -0.0020767638112205687 -0.015682896868647812 -0.00095736916122372091 0.010085416484153132 0.0059997375170872391 -0.0035998211146122026
leaf_weight=21 23 29 33 22 30 38 32 33 26 21 34
leaf_count=21 23 29 33 22 30 38 32 33 26 21 34
internal_value=-6.89747e-05 0.00646805 -0.0057655 0.00383361 -0.00277335 0.000269724 -0.0130292 -0.00118592 0.00693593 0.00834021 -0.00234639
internal_weight=342 159 183 130 130 61 53 100 69 47 67
internal_count=342 159 183 130 130 61 53 100 69 47 67
is_linear=0
shrinkage=0.03


Tree=39
num_leaves=13
num_cat=0
split_feature=2 76 65 92 83 32 17 3 26 69 7 74
split_gain=15.5502 6.32146 4.10044 1.10969 0.967401 0.912741 0.632136 0.368072 0.401249 0.278453 0.148978 0.121495
threshold=0.74587461838405023 1.0117839837521141 0.35778018653538118 20.500000000000004 1.4325565555830888 -0.27552791241928809 0.15682118588128821 -0.092534223008508137 0.18653395008603826 0.45551604082024039 0.63619214125368784 -0.52438429710017787
decision_type=2 2 2 2 2 2 2 2 2 2 2 2
left_child=1 3 9 5 -3 6 -1 10 -9 11 -7 -2
right_child=2 4 -4 -5 -6 7 -8 8 -10 -11 -12 -13
leaf_value=0.0054376372744047172 0.0076893242612419282 -0.0070828184681485072 0.023030225514518138 0.0051679291308525648 -0.01469428403803516 0 -0.0011752558696149018 -0.0065069511340243233 -0.0014629037939440242 0.010768328464742915 -0.0031411427654926241 0.0039981957269248679
leaf_weight=24 24 30 21 26 36 39 27 37 26 20 21 20
leaf_count=24 24 30 21 26 36 39 27 37 26 20 21 20
internal_value=0.000310892 -0.0032503 0.0114813 -0.000575947 -0.0112959 -0.00145393 0.00188254 -0.00286213 -0.00447844 0.00761497 -0.00111045 0.00609244
internal_weight=351 266 85 200 66 174 51 123 63 64 60 44
internal_count=351 266 85 200 66 174 51 123 63 64 60 44
is_linear=0
shrinkage=0.03


Tree=40
num_leaves=13
num_cat=0
split_feature=2 2 34 2 46 88 32 65 79 22 25 90
split_gain=12.5617 5.64572 2.2971 1.54418 0.899076 0.833821 0.751031 0.467971 0.306053 0.264069 0.139766 0.0541496
threshold=-0.34264730559230583 1.0838944107373794 0.39296679023671827 -1.059041967503741 -0.73208176079938625 -0.016515531605428149 -0.74759129561769522 0.20588739452802399 -0.079190709009927848 0.28552404461042696 -0.037576278784807397 0.028828632599261553
decision_type=2 2 2 2 2 2 2 2 2 2 2 2
left_child=3 2 6 10 -4 -5 -2 11 9 -6 -1 -8
right_child=1 -3 4 5 8 -7 7 -9 -10 -11 -12 -13
leaf_value=-0.010756791870518506 0.0039049479938042695 0.015686848160881933 0.00046390668429381268 -0.0093666652319588251 0.0026221216358800429 -0.0020072495004168378 -0.00016045805520195064 -0.0060761296939243906 0.010277831523276087 0.0074533962763289113 -0.01513974098249095 -0.0020343058475907698
leaf_weight=22 20 30 28 28 20 30 34 24 20 28 24 29
leaf_count=22 20 30 28 28 20 30 34 24 20 28 24 29
internal_value=-0.000311154 0.00354922 0.00173388 -0.00898381 0.00510682 -0.00562171 -0.00126625 -0.00249259 0.00697106 0.00551237 -0.0131365 -0.00107242
internal_weight=337 233 203 104 96 58 107 87 68 48 46 63
internal_count=337 233 203 104 96 58 107 87 68 48 46 63
is_linear=0
shrinkage=0.03


Tree=41
num_leaves=13
num_cat=0
split_feature=2 2 88 35 88 9 88 21 68 3 9 56
split_gain=13.7008 5.61311 5.29048 1.73344 1.23723 0.701451 0.665952 0.615074 0.458555 0.331328 0.286857 0.033709
threshold=0.74587461838405023 -0.5180110438812745 0.080434825496171355 -0.79632712648356829 0.10203696505810207 -0.30446274333953988 0.0029381953762368505 -0.006685581361534099 -0.39061747793493334 1.0298497522491989 -0.59540175882841084 0.20703856304687807
decision_type=2 2 2 2 2 2 2 2 2 2 2 2
left_child=1 4 5 -3 8 -2 9 -8 -1 10 -5 -12
right_child=2 3 -4 6 -6 -7 7 -9 -10 -11 11 -13
leaf_value=-0.014716406927423077 0.0017824308107148351 0.0069986437096147078 0.024198221978841798 -0.0042966639851594619 -0.0041992381421577353 0.008911397934264844 -0.00096647477804421471 0.0056337410731435705 -0.0084920259916573346 -0.0059497745508724203 -0.0010811464210606846 0.00034914842482146135
leaf_weight=31 20 27 21 26 28 39 33 20 22 22 31 24
leaf_count=31 20 27 21 26 28 39 33 20 22 22 31 24
internal_value=0.00037071 -0.00291664 0.0112465 0 -0.00948647 0.00655267 -0.00122098 0.00147359 -0.0122101 -0.00263668 -0.00169361 -0.00040307
internal_weight=344 264 80 183 81 59 156 53 53 103 81 55
internal_count=344 264 80 183 81 59 156 53 53 103 81 55
is_linear=0
shrinkage=0.03


Tree=42
num_leaves=13
num_cat=0
split_feature=2 2 78 25 69 62 25 1 6 2 83 24
split_gain=12.1273 4.67597 3.55564 1.51182 1.37602 0.54253 0.347986 0.287218 0.211499 0.194457 0.123495 0.109919
threshold=0.74587461838405023 -0.92019606399942255 -0.17109795863557978 -0.54806459851286682 0.39264851831564834 -0.033588307184595941 -0.12537451716095646 -0.33238387353765247 -0.37008573330555022 0.059324697234470508 0.010622038079391301 0.10553401540005831
decision_type=2 2 2 2 2 2 2 2 2 2 2 2
left_child=1 6 10 9 5 7 -1 -5 -7 -3 -2 -9
right_child=2 3 -4 4 -6 8 -8 11 -10 -11 -12 -13
leaf_value=-0.0082308988762435625 0.0070467339319865794 0.0016902263911003105 0.019569294022848877 -0.0055647718790790132 -0.0085349405140639194 -0.0010447399368228155 -0.014093024464001075 -0.00018020099174774837 0.0022922874395567869 0.0061553930163161076 0.0036949167790782953 -0.0031034853268269592
leaf_weight=20 36 20 25 26 28 31 27 28 36 20 21 23
leaf_count=20 36 20 25 26 28 31 27 28 36 20 21 23
internal_value=4.78091e-05 -0.0031271 0.010104 -0.00121108 -0.00244373 -0.00123341 -0.011685 -0.00295713 0.000704324 0.00400741 0.00587303 -0.00156075
internal_weight=341 259 82 212 172 144 47 77 67 40 57 51
internal_count=341 259 82 212 172 144 47 77 67 40 57 51
is_linear=0
shrinkage=0.03


Tree=43
num_leaves=15
num_cat=0
split_feature=60 25 79 67 80 25 23 32 74 26 94 57 88 77
split_gain=7.14825 3.34656 3.23095 3.09205 1.38714 0.625343 0.58826 0.358362 0.257281 0.17454 0.143331 0.0902515 0.0704966 0.0480128
threshold=0.008007797715004452 -0.022402257961099594 1.3857629683587052 1.0722278363117719 -0.31474167493903987 -0.71634999521763543 0.97087052404804075 -0.41892892458717196 -0.11081075976651834 -0.67652796738302579 1.0000000180025095e-35 0.22885456810633548 -0.0094625876771143487 0.086319262382716519
decision_type=2 2 2 2 2 2 2 2 2 2 2 2 2 2
left_child=2 3 5 7 -3 -1 -6 -2 11 -9 -10 -7 -12 -4
right_child=1 4 13 -5 6 8 -8 9 10 -11 12 -13 -14 -15
leaf_value=0.0024012899616572088 0.0085175450635490129 0.0043839579152106511 -0.013723614513874053 0.018671755795158555 -0.00049406167968506535 7.7601460837272549e-05 -0.0075311644344743496 0.0053333670077482598 -0.006482474952936172 0.0013544868348309626 -0.0046773263094807734 -0.0025402768848875124 -0.0019400491790319105 -0.01013459158699904
leaf_weight=21 20 33 20 20 25 20 20 23 22 22 20 23 25 20
leaf_count=21 20 33 20 20 25 20 20 23 22 22 20 23 25 20
internal_value=-0.000272385 0.00421197 -0.00456444 0.00832714 -0.000239031 -0.00225344 -0.00369795 0.00507431 -0.00317069 0.00346197 -0.0043513 -0.0012557 -0.00323081 -0.0120337
internal_weight=334 163 171 85 78 131 45 65 110 45 67 43 45 40
internal_count=334 163 171 85 78 131 45 65 110 45 67 43 45 40
is_linear=0
shrinkage=0.03


Tree=44
num_leaves=13
num_cat=0
split_feature=62 76 69 93 31 63 24 9 47 3 30 81
split_gain=9.46601 4.03519 3.43056 1.10276 0.731309 0.442354 0.455967 0.344343 0.236382 0.421683 0.15582 0.102783
threshold=0.73715838348659102 0.75314955726419153 0.59942038800781272 -0.60355339059327362 -1.4042713411956533 -0.30398481936693439 -0.39678785771911268 -0.59540175882841084 0.89443588974952304 1.3857629683587052 -0.66010612294903392 0.49161219112180948
decision_type=2 2 2 2 2 2 2 2 2 2 2 2
left_child=1 4 10 8 -1 -6 -7 -8 9 -3 -2 -9
right_child=2 3 -4 -5 5 6 7 11 -10 -11 -12 -13
leaf_value=0.0047067341653711766 0.0070931349888250428 -0.0052599602863545661 0.019622559297947862 -0.0026417004145300391 -0.0038311275797063087 0.0029840301211016612 -0.0043419288816056905 0.00097756060585855965 -0.013115901246444503 -0.011780303574320094 0.0032921555065420043 -0.0013315442138893522
leaf_weight=25 23 21 22 27 34 34 22 39 20 20 25 31
leaf_count=25 23 21 22 27 34 34 22 39 20 20 25 31
internal_value=-3.71259e-05 -0.00257005 0.00978806 -0.00785459 -3.72341e-05 -0.000799694 0 -0.00107649 -0.0101047 -0.00853453 0.00518679 -2.68767e-06
internal_weight=343 273 70 88 185 160 126 92 61 41 48 70
internal_count=343 273 70 88 185 160 126 92 61 41 48 70
is_linear=0
shrinkage=0.03


Tree=45
num_leaves=14
num_cat=0
split_feature=2 88 2 3 24 94 24 0 63 2 43 7 65
split_gain=11.604 5.10213 4.20545 1.48506 0.915239 0.959674 0.362443 0.347897 0.43066 0.204439 0.177349 0.125102 0.0781828
threshold=0.34565523138776794 0.17819127637406193 -1.059041967503741 1.1645541745496277 0.015869298935593652 0.96592582628906831 0.10553401540005831 -0.30446274333953988 -0.032745023835531191 0.98467314055164912 0.35185250287537057 -0.20724307246394721 0.14605035600709795
decision_type=2 2 2 2 2 2 2 2 2 2 2 2 2
left_child=2 4 10 6 9 -6 7 12 -9 -2 -1 -8 -4
right_child=1 -3 3 -5 5 -7 11 8 -10 -11 -12 -13 -14
leaf_value=-0.0099785421877743238 0.0056239864248698113 0.021002947665238973 -0.003012641768610633 -0.0077525194060649267 -0.0019074083040588675 0.0058191496675580349 -0.0040985315167980877 0 0.0054925693582687793 0.010320655388395649 -0.014682694148661484 -0.00091743552296024377 -0.00018322216986275429
leaf_weight=25 22 21 20 32 27 30 27 38 20 21 20 24 20
leaf_count=25 22 21 20 32 27 30 27 38 20 21 20 24 20
internal_value=5.06284e-05 0.00755313 -0.00395449 -0.00189137 0.00468054 0.00210973 -0.000608123 0.000433325 0.00194055 0.00800594 -0.0121637 -0.00266498 -0.00167673
internal_weight=347 121 226 181 100 57 149 98 58 43 45 51 40
internal_count=347 121 226 181 100 57 149 98 58 43 45 51 40
is_linear=0
shrinkage=0.03


Tree=46
num_leaves=13
num_cat=0
split_feature=2 2 2 88 88 69 92 32 82 62 66 11
split_gain=7.88887 3.0112 2.56702 1.47243 0.607943 0.449734 0.354205 0.243472 0.187326 0.17879 0.0899411 0.0570947
threshold=0.34565523138776794 -1.059041967503741 1.0838944107373794 -0.016515531605428149 -0.0059021038196292496 0.39812544440936914 14.500000000000002 -0.68937888336863418 -0.74759129561769522 -0.033588307184595941 -0.38254257227192395 0.026039529835723
decision_type=2 2 2 2 2 2 2 2 2 2 2 2
left_child=1 -1 4 6 8 9 11 -6 -2 10 -5 -3
right_child=2 3 -4 5 7 -7 -8 -9 -10 -11 -12 -13
leaf_value=-0.01156022842075686 0.0027102779321398988 -0.0049362065915419051 0.013947836274141943 -0.00038628723464396775 0.0084114867493287841 0.0040271535417797715 -0.0084705259051189377 0.0037309184818929619 -0.0012847317099126416 0.0014674667292379885 -0.0026413252919788503 -0.0024606979232961578
leaf_weight=36 21 25 28 35 20 21 24 28 20 22 36 24
leaf_count=36 21 25 28 35 20 21 24 28 20 22 36 24
internal_value=-0.000290986 -0.00360902 0.00600519 -0.00205691 0.00345986 4.81457e-05 -0.00538087 0.00575696 0.000690116 -0.000821477 -0.00157399 -0.00379229
internal_weight=340 223 117 187 89 114 73 48 41 93 71 49
internal_count=340 223 117 187 89 114 73 48 41 93 71 49
is_linear=0
shrinkage=0.03


Tree=47
num_leaves=13
num_cat=0
split_feature=2 2 34 88 32 28 15 33 49 33 26 39
split_gain=9.87058 5.42727 1.84979 1.30315 0.69567 0.481412 0.300719 0.252885 0.214487 0.164997 0.133158 0.0410897
threshold=1.0188849898324324 -0.49070648735136435 0.3419337979257403 0.10203696505810207 1.0034065609190652 0.83409566024150406 -0.38818803340441993 -0.66010612294903392 0.026628450540676554 1.1209721432507818 0.15641713515566458 -0.15479005240055663
decision_type=2 2 2 2 2 2 2 2 2 2 2 2
left_child=1 3 5 4 -1 7 -4 -3 -8 -10 -9 -12
right_child=-2 2 6 -5 -6 -7 8 10 9 -11 11 -13
leaf_value=-0.0074969078940803789 0.01451766573871684 0.0020133910689793233 0.00083922426618202831 -0.0027591599692007368 -0.014249682933434673 -0.0053872123044503631 0.002104930336812237 -0.0033533952183338743 0.0075696655382046993 0.003651249441737529 0.00018336624233608701 -0.0014479761578855047
leaf_weight=37 37 23 24 32 26 25 21 25 29 21 25 25
leaf_count=37 37 23 24 32 26 25 21 25 29 21 25 25
internal_value=-0.000104768 -0.00184696 0.000748906 -0.00782987 -0.0103495 -0.00166224 0.00390071 -0.000676887 0.00489075 0.00599438 -0.00154343 -0.000573687
internal_weight=350 313 218 95 63 123 95 98 71 50 75 50
internal_count=350 313 218 95 63 123 95 98 71 50 75 50
is_linear=0
shrinkage=0.03


Tree=48
num_leaves=13
num_cat=0
split_feature=88 79 2 83 25 88 33 2 88 69 0 9
split_gain=7.98496 5.51869 1.3096 1.18397 0.432214 0.370262 0.536564 0.30939 0.330571 0.295812 0.0814333 0.0560136
threshold=0.18577345297878678 0.92633697226053979 0.67767719164880524 1.4701700450705262 -0.022402257961099594 -0.0094625876771143487 -0.17578057763196292 -0.23763488696448778 0.056751293207415961 0.45969106564665213 -0.1906397461829655 0.43457879709429237
decision_type=2 2 2 2 2 2 2 2 2 2 2 2
left_child=1 2 7 5 9 6 -3 -1 10 -4 11 -9
right_child=-2 3 4 -5 -6 -7 -8 8 -10 -11 -12 -13
leaf_value=-0.0028140617327614996 0.016896883584075161 -0.0031319413520817167 0.0038817167348254504 -0.011889084589715449 0.00091335663324631589 -0.0018320074793079801 -0.010203928313593366 0.0012469310294925034 0.003004045593357642 0.0087089041027986341 -0.0019429412779971638 -0.0008400473156684185
leaf_weight=36 23 22 32 33 24 26 20 21 31 22 28 25
leaf_count=36 23 22 32 33 24 26 20 21 31 22 28 25
internal_value=-0.000127638 -0.00136554 0.00129871 -0.00716774 0.00441846 -0.00481836 -0.00658705 -0.000407749 0.000390621 0.00591626 -0.000666283 4.82659e-05
internal_weight=343 320 219 101 78 68 42 141 105 54 74 46
internal_count=343 320 219 101 78 68 42 141 105 54 74 46
is_linear=0
shrinkage=0.03


Tree=49
num_leaves=13
num_cat=0
split_feature=2 24 72 2 28 94 32 41 75 83 47 8
split_gain=7.25793 2.63115 3.62257 2.03985 0.944748 0.745873 0.515643 0.342949 0.21301 0.148873 0.13082 0.0929491
threshold=0.010169866321540903 0.015869298935593652 1.0000000180025095e-35 -1.1662240933925474 0.88038577688144326 0.96592582628906831 -0.084781548557608041 0.21902332940278968 1.3685269234381561 1.3178076279435722 -0.12479944667293098 0.43457879709429237
decision_type=2 2 2 2 2 2 2 2 2 2 2 2
left_child=3 2 7 -1 9 6 -3 -2 -6 10 -5 -12
right_child=1 5 -4 4 8 -7 -8 -9 -10 -11 11 -13
leaf_value=-0.010995857927286735 0.0057936066705907615 0.0010268144891398328 0.017504142975620238 0.00033215273449670017 -0.0041036594751151807 0.0049560910430341623 -0.0049558001394564306 0.00060249790354673538 -0.0086247181514305851 0.00096954352115334445 -0.0034010364960462662 -0.00063846793537738762
leaf_weight=32 32 35 27 20 26 27 20 20 20 26 33 21
leaf_count=32 32 35 27 20 26 27 20 20 20 26 33 21
internal_value=4.62781e-05 0.00466907 0.00857708 -0.00411844 -0.00258403 0.000861628 -0.00109928 0.0038596 -0.00614886 -0.000909737 -0.00161093 -0.00238532
internal_weight=339 161 79 178 146 82 55 52 46 100 74 54
internal_count=339 161 79 178 146 82 55 52 46 100 74 54
is_linear=0
shrinkage=0.03


Tree=50
num_leaves=13
num_cat=0
split_feature=2 88 2 72 25 31 69 25 78 30 29 49
split_gain=8.24461 5.58939 2.47936 0.846732 0.817937 0.732931 0.423208 0.363541 0.241416 0.164286 0.0971541 0.0700554
threshold=0.34565523138776794 0.17819127637406193 -1.059041967503741 1.0051408970962867 -0.022402257961099594 -0.64667186367806762 0.51592024083981747 -0.67652796738302579 -1.5200230205501091 -0.026092294767797248 -0.66010612294903392 0.15180373237967329
decision_type=2 2 2 2 2 2 2 2 2 2 2 2
left_child=2 4 -1 7 6 -6 10 -4 -9 -10 -2 -11
right_child=1 -3 3 -5 5 -7 -8 8 9 11 -12 -13
leaf_value=-0.010224558648550907 0.0054247334550059792 0.020341976677636962 0.0027233163675723163 -0.0058946030753642079 0.0041569570977407601 -0.003847225585652259 0.0091911969144842509 0.0010449655494256609 -0.0037401618426690765 -0.001846484641489294 0.0023622509478883492 0.00023780525397898542
leaf_weight=39 21 21 22 37 20 21 20 26 37 37 27 20
leaf_count=39 21 21 22 37 20 21 20 26 37 37 27 20
internal_value=0.000193393 0.00617845 -0.00336312 -0.00184654 0.00340605 0 0.00542176 -0.000767247 -0.0014339 -0.0021518 0.00377295 -0.00106348
internal_weight=348 130 218 179 109 41 68 142 120 94 48 57
internal_count=348 130 218 179 109 41 68 142 120 94 48 57
is_linear=0
shrinkage=0.03


Tree=51
num_leaves=13
num_cat=0
split_feature=2 15 2 34 34 2 69 42 28 62 90 70
split_gain=7.10077 3.11808 2.68431 0.926006 0.891466 0.523557 0.342331 0.321761 0.275473 0.108321 0.139039 0.0322637
threshold=0.57942435773103651 -0.32860153208261039 -0.7401133889090451 0.39296679023671827 0.35396463602469846 0.010169866321540903 0.37713438534228277 0.089275228387547409 0.92633697226053979 -0.061868921020686092 -1.0000000180025095e-35 -0.027973650633460547
decision_type=2 2 2 2 2 2 2 2 2 2 2 2
left_child=2 -2 8 6 -3 -5 9 -6 -1 10 -4 -11
right_child=1 4 3 5 7 -7 -8 -9 -10 11 -12 -13
leaf_value=-0.0051480552037038016 0.017779667522035428 -0.000616462576978448 -0.00048200382016846353 1.8595425310766942e-05 0.0095852303771830315 0.0061627042015475969 -0.0057698169859099731 0.0042550108441254415 -0.010005464238886026 0.000431625414500708 -0.0039226258822417778 -0.0010620688928108775
leaf_weight=20 20 22 21 33 20 21 21 28 36 20 27 29
leaf_count=20 20 22 21 33 20 21 21 28 36 20 27 29
internal_value=0.000174488 0.00731383 -0.00263249 -0.000754204 0.0042597 0.0024704 -0.00225611 0.00655362 -0.00833642 -0.00145936 -0.00248386 -0.000391661
internal_weight=318 90 228 172 70 54 118 48 56 97 48 49
internal_count=318 90 228 172 70 54 118 48 56 97 48 49
is_linear=0
shrinkage=0.03


Tree=52
num_leaves=13
num_cat=0
split_feature=20 88 26 20 46 40 80 88 32 9 26 31
split_gain=5.26269 1.99955 1.15078 1.06979 1.00308 0.670434 0.527313 0.347341 0.338313 0.374734 0.297724 0.150806
threshold=-0.13499874848523252 0.13383871253919125 -0.37416171776179757 -0.86816823014679601 -0.85663608902427868 -0.33177305540682228 -0.63484251431168104 0.077439700526280922 -0.12062786610257119 0.092370964135314565 0.29908669851564723 0.79328239805424594
decision_type=2 2 2 2 2 2 2 2 2 2 2 2
left_child=3 2 4 7 -2 -5 -6 -1 9 -4 -10 -7
right_child=1 -3 8 5 6 11 -8 -9 10 -11 -12 -13
leaf_value=-0.010623977788023112 -0.00038592240151707281 0.0099210209116661462 0.0042794571731260399 -0.0065061498382973926 0.0041392264000999221 -0.0022139365022483559 0.010469222315656605 -0.005045647943642601 -0.0052280451179440336 -0.00081159998750330036 -0.00027559562334515892 0.00090784543869178364
leaf_weight=29 28 30 20 28 36 29 20 20 20 35 27 25
leaf_count=29 28 30 20 28 36 29 20 20 20 35 27 25
internal_value=-0.000139508 0.00272843 0.0015475 -0.00488968 0.00414998 -0.002734 0.00646805 -0.00842312 -0.00056829 0.000989654 -0.00245334 -0.000714208
internal_weight=347 216 186 131 84 82 56 49 102 55 47 54
internal_count=347 216 186 131 84 82 56 49 102 55 47 54
is_linear=0
shrinkage=0.03


Tree=53
num_leaves=14
num_cat=0
split_feature=63 25 78 76 80 25 92 37 83 78 33 86 30
split_gain=5.88316 2.65813 3.48286 2.13498 1.11781 0.469167 0.380155 0.24912 0.126505 0.126327 0.0910798 0.086623 0.0325105
threshold=0.40026287160942048 -0.026801711745409799 -0.17109795863557978 1.2462090040089067 -0.13890799283714331 -0.59777358259573243 12.500000000000002 0.094951967289602965 0.16874448591628119 -1.5041795293154443 0.54949638169392345 -0.030746408681701445 -0.050828010735541641
decision_type=2 2 2 2 2 2 2 2 2 2 2 2 2
left_child=3 2 8 5 -3 -1 9 -8 -2 -7 -5 -11 -13
right_child=1 4 -4 10 -6 6 7 -9 -10 11 -12 12 -14
leaf_value=0.0015721932331874756 0.0052701039942897789 0.0033710076927129071 0.017784288920298871 -0.0073673576194403772 -0.0055149708767708435 0.00035331976522381107 -0.0073217032026888715 -0.0023406454994480048 0.0018923175293229406 -0.00022078546382027777 -0.011187000964114914 -0.003790666960291008 -0.0018394889126831905
leaf_weight=32 31 32 25 20 21 26 20 21 20 21 20 20 30
leaf_count=32 31 32 25 20 21 26 20 21 20 21 20 20 30
internal_value=-2.61341e-05 0.00500515 0.00859818 -0.00313197 -9.711e-05 -0.00164071 -0.00240805 -0.00485532 0.00401049 -0.0013388 -0.00937513 -0.00200028 -0.00268585
internal_weight=339 129 76 210 53 170 138 41 51 97 40 71 50
internal_count=339 129 76 210 53 170 138 41 51 97 40 71 50
is_linear=0
shrinkage=0.03


Tree=54
num_leaves=14
num_cat=0
split_feature=2 88 79 34 79 41 16 93 23 30 77 2 57
split_gain=5.44083 2.50323 2.36194 0.608292 0.368169 0.289036 0.420331 0.170725 0.160559 0.253754 0.124494 0.0889799 0.0421059
threshold=0.40026287160942048 0.16663607251776416 1.3857629683587052 -0.17714246272434492 0.92633697226053979 0.20769047826629713 0.094044085584902973 -0.5 -0.19539720172333133 1.0000000180025095e-35 0.14162032302813107 -1.1662240933925474 0.27061735123322311
decision_type=2 2 2 2 2 2 2 2 2 2 2 2 2
left_child=2 3 4 -2 5 6 -1 -6 -7 -10 -5 -4 -12
right_child=1 -3 11 10 7 8 -8 -9 9 -11 12 -13 -14
leaf_value=0.0038959404068047046 -0.0015134819713421162 0.014560688613115045 -0.010494098467945558 0.002519642432904166 -0.005329890456746228 8.5089337826437992e-05 -0.001385063752532005 -0.0018141750323577969 -0.0045121004216015018 0 0.0066599912627189643 -0.007037027071573311 0.003992908737941908
leaf_weight=27 20 21 24 27 24 28 26 34 28 20 21 23 20
leaf_count=27 20 21 24 27 24 28 26 34 28 20 21 23 20
internal_value=-0.000281724 0.00524175 -0.00286858 0.00296986 -0.00133657 -0.000416405 0.00125103 -0.00332726 -0.00161876 -0.00267316 0.00433283 -0.00888457 0.00544485
internal_weight=343 109 234 88 187 129 53 58 76 48 68 47 41
internal_count=343 109 234 88 187 129 53 58 76 48 68 47 41
is_linear=0
shrinkage=0.03


Tree=55
num_leaves=13
num_cat=0
split_feature=2 2 34 88 83 32 65 61 20 92 95 29
split_gain=7.41289 3.54456 1.37541 0.594884 0.458106 0.405627 0.298726 0.26067 0.185836 0.149528 0.0591135 0.073444
threshold=1.3844596907232389 -0.44829339155567949 0.39296679023671827 0.10203696505810207 1.4325565555830888 -0.68937888336863418 0.19767517866024761 0.16663607251777976 0.62363208532978354 20.500000000000004 2.5000000000000004 -0.092534223008508137
decision_type=2 2 2 2 2 2 2 2 2 2 2 2
left_child=1 3 6 4 -1 -4 8 9 10 -7 11 -3
right_child=-2 2 5 -5 -6 7 -8 -9 -10 -11 -12 -13
leaf_value=-0.0047509263042099358 0.017473392146418829 -5.3147407010268253e-05 0.0059769327962023071 -0.0020635185875500939 -0.010378950661587939 0.0012977692963462707 -0.0034141354943390862 -0.00065612129072583681 0.002346941199876479 0.0047793344829258995 4.2995610404933715e-05 -0.0025732361264114447
leaf_weight=27 21 21 38 24 32 24 36 21 20 27 32 27
leaf_count=27 21 21 38 24 32 24 36 21 20 27 32 27
internal_value=0.000228974 -0.000867593 0.000931006 -0.00622918 -0.00786657 0.00343027 -0.00106945 0.00203817 -0.000192831 0.00320541 -0.000867365 -0.00153547
internal_weight=350 329 246 83 59 110 136 72 100 51 80 48
internal_count=350 329 246 83 59 110 136 72 100 51 80 48
is_linear=0
shrinkage=0.03


Tree=56
num_leaves=13
num_cat=0
split_feature=2 2 31 88 88 71 60 32 24 21 22 39
split_gain=5.80691 3.26427 0.96341 0.735473 0.631451 0.386608 0.358357 0.356165 0.221471 0.090095 0.115209 0.0249362
threshold=1.1631600570876441 -0.49070648735136435 -0.29940727555293783 0.10203696505810207 0.0072891965613237509 0.95999275503761017 0.79623627457345325 1.0034065609190652 -0.45980990756283541 -0.054716915922418841 -0.28781002861636068 -0.25398876466796777
decision_type=2 2 2 2 2 2 2 2 2 2 2 2
left_child=1 3 4 7 6 8 11 -1 -4 10 -10 -3
right_child=-2 2 5 -5 -6 -7 -8 -9 9 -11 -12 -13
leaf_value=-0.0058092408348745274 0.012858287382909317 -0.0012944915374991164 0.0017711966951079439 -0.0020343473973622695 0.0064099934084015757 -0.004715505790128703 0.0038351475333403859 -0.010974291811782524 -0.00038894441287735064 0 -0.0037535346232688248 8.2619118412136463e-05
leaf_weight=32 29 20 33 28 32 21 28 25 21 34 20 20
leaf_count=32 29 20 33 28 32 21 28 25 21 34 20 20
internal_value=2.92179e-05 -0.0011498 0.00070251 -0.00617035 0.00291878 -0.000993221 0.0012248 -0.00814241 -0.000237998 -0.00116317 -0.00210834 -0.000532634
internal_weight=343 314 229 85 100 129 68 57 108 75 41 40
internal_count=343 314 229 85 100 129 68 57 108 75 41 40
is_linear=0
shrinkage=0.03


Tree=57
num_leaves=13
num_cat=0
split_feature=2 58 79 26 92 84 29 69 27 82 84 29
split_gain=4.74541 2.4969 2.14306 0.613337 0.407069 0.381494 0.301412 0.224069 0.254987 0.165256 0.0946004 0.0615421
threshold=0.74587461838405023 -0.36196711343972782 1.3857629683587052 -0.24394851198839768 11.500000000000002 -0.042450699919102546 -0.13730066492865686 0.4088357832919291 -0.033615706815625541 0.89414652552083485 0.014819617359045351 0.55387237420529523
decision_type=2 2 2 2 2 2 2 2 2 2 2 2
left_child=2 -2 3 4 -1 -3 10 8 11 -4 -5 -8
right_child=1 5 9 6 -6 -7 7 -9 -10 -11 -12 -13
leaf_value=-0.00056130187067481659 0.013965993998091104 -0.00054321309301390579 -0.0058863052125875054 -0.00079769825736913718 0.0042993295296331882 0.0047154311259690017 0.00037609057668980554 -0.005396388546515132 -0.0039052220771308658 -0.010229684603748037 0.0017707244680876626 -0.0015949836449022309
leaf_weight=29 27 20 23 32 31 29 29 21 33 20 21 25
leaf_count=29 27 20 23 32 31 29 29 21 33 20 21 25
internal_value=2.38269e-05 0.0066331 -0.00186927 -0.000660719 0.00190308 0.00251121 -0.00163538 -0.00254594 -0.00181806 -0.00799513 0.0001649 -0.000482252
internal_weight=340 76 264 221 60 49 161 108 87 43 53 54
internal_count=340 76 264 221 60 49 161 108 87 43 53 54
is_linear=0
shrinkage=0.03


Tree=58
num_leaves=12
num_cat=0
split_feature=2 2 34 88 83 40 52 95 74 6 83
split_gain=6.68731 3.34635 1.12976 0.680955 0.487352 0.417704 0.315477 0.206275 0.20934 0.180357 0.151169
threshold=1.2427788971578051 -0.4091715526223122 0.39296679023671827 0.099005846117247165 1.4073921910159324 -0.33177305540682228 0.048323972769383258 2.5000000000000004 -0.10010752325202134 -0.31568336168363481 0.083009423435386323
decision_type=2 2 2 2 2 2 2 2 2 2 2
left_child=1 3 7 4 -1 -4 -7 8 -3 -9 -8
right_child=-2 2 5 -5 -6 6 10 9 -10 -11 -12
leaf_value=-0.0044321200460239237 0.01431769587511946 -0.00040083333870526611 0 -0.0016566852785493294 -0.0096036723995452638 0.0075949454860449912 0.0044969277147508604 -0.0012413365995485209 -0.0042730239717585347 0.0018740729716025559 0.00085942791093752448
leaf_weight=34 27 27 26 29 39 22 28 39 27 29 20
leaf_count=34 27 27 26 29 39 22 28 39 27 29 20
internal_value=0 -0.0012029 0.000883998 -0.00568901 -0.0072454 0.00332427 0.00452905 -0.0010128 -0.0023967 4.4042e-05 0.00304861
internal_weight=347 320 218 102 73 96 70 122 54 68 48
internal_count=347 320 218 102 73 96 70 122 54 68 48
is_linear=0
shrinkage=0.03


Tree=59
num_leaves=12
num_cat=0
split_feature=2 2 82 25 81 61 55 2 31 2 40
split_gain=4.42658 2.68592 0.770292 0.529694 0.523702 0.393881 0.305894 0.287939 0.283627 0.144506 0.110463
threshold=1.0322758644805881 -0.67652796738302579 -0.70969362309268369 -0.24394851198839768 0.4059129069275017 0.13013810496741898 -0.15019350166119477 -1.2791309654371388 -0.68937888336863418 -0.031111702383177595 -0.34454368444154299
decision_type=2 2 2 2 2 2 2 2 2 2 2
left_child=1 7 4 -4 -3 9 -6 -1 -8 10 -5
right_child=-2 2 3 5 6 -7 8 -9 -10 -11 -12
leaf_value=-0.0091992820253998953 0.01022403997214359 0.0048458813453178522 0.0017099374336883042 -0.0043480099326194217 -0.0024769299877154304 -0.0063383601165077743 0.0045119590544378122 -0.0047608562938382237 0 0 -0.0012771326928156938
leaf_weight=29 33 37 35 20 22 20 20 33 33 32 31
leaf_count=29 33 37 35 20 22 20 20 33 33 32 31
internal_value=-0.000197394 -0.0013122 6.2963e-05 -0.00142435 0.00192194 -0.00251912 0.000434985 -0.00689667 0.00170259 -0.0015562 -0.00254626
internal_weight=345 312 250 138 112 103 75 62 53 83 51
internal_count=345 312 250 138 112 103 75 62 53 83 51
is_linear=0
shrinkage=0.03


Tree=60
num_leaves=14
num_cat=0
split_feature=2 58 2 32 3 25 45 59 28 33 90 17 59
split_gain=4.32576 2.46584 2.34894 0.781471 0.664389 0.204126 0.234506 0.171465 0.148033 0.116541 0.112631 0.0402752 0.0107407
threshold=0.8586485522102324 -0.36196711343972782 -1.059041967503741 -0.74759129561769522 1.0298497522491989 -0.63959339178920571 0.33831352141427501 0.63966272908429833 -0.66010612294903392 -0.18608573532740921 0.068636279453960419 -0.0098742569354557472 0.71856178700484941
decision_type=2 2 2 2 2 2 2 2 2 2 2 2 2
left_child=2 -2 7 -4 5 6 -5 -1 -3 -6 11 -7 -13
right_child=1 8 3 4 9 10 -8 -9 -10 -11 -12 12 -14
leaf_value=-0.005894672006023078 0.01545293156398566 0.0044956919967905793 0.0036105194513916844 -0.00068639934100062246 -0.0027901169240598283 -0.0011672174368597193 0.0033824933881396076 -0.010299175128835072 0.0006380946800779941 -0.0064058262682450346 -0.0024247956863350942 -0.00013469173870053628 0.0007465332490739537
leaf_weight=22 21 20 35 25 21 31 24 21 20 20 37 22 20
leaf_count=22 21 20 35 25 21 31 24 21 20 20 37 22 20
internal_value=-9.48997e-05 0.0071235 -0.00169157 -0.000496987 -0.00123224 -0.000332761 0.00124826 -0.00813422 0.00264811 -0.00463816 -0.00106478 -0.000332036 0.000214457
internal_weight=339 61 278 235 200 159 49 43 40 41 110 73 42
internal_count=339 61 278 235 200 159 49 43 40 41 110 73 42
is_linear=0
shrinkage=0.03


Tree=61
num_leaves=14
num_cat=0
split_feature=88 79 27 47 59 75 65 60 60 69 27 81 3
split_gain=5.88487 2.73057 0.864954 0.992245 0.555512 0.394984 0.367438 0.307606 0.253397 0.108898 0.0781024 0.0501295 0.0146467
threshold=0.21514132166578107 1.0512326319003114 0.48769245517417847 0.026039529835723 0.83444945209909061 1.3386169022884951 0.31152913057350923 0.5876542612636666 0.81065458285402925 0.2752631437865401 -0.030098852497033545 0.38300235636551755 -0.10010752325202134
decision_type=2 2 2 2 2 2 2 2 2 2 2 2 2
left_child=1 2 6 -4 5 11 8 -5 9 10 12 -3 -1
right_child=-2 4 3 7 -6 -7 -8 -9 -10 -11 -12 -13 -14
leaf_value=-0.0009200322995465463 0.015765790043037329 -0.00058768759157120905 0.0091509201655636981 -0.00085004455729775471 -0.0091946655763815548 -0.0063233299550293533 -0.0040841825764912822 0.003384937414394639 0.0030270960558273262 0.00097433847694456115 -0.0026782190084996805 -0.0028888604334041247 4.140760072252959e-06
leaf_weight=26 20 22 20 28 24 32 22 32 22 29 22 20 23
leaf_count=26 20 22 20 28 24 32 22 32 22 29 22 20 23
internal_value=8.35311e-06 -0.000965647 0.000850466 0.0033546 -0.00514398 -0.00377912 -0.000521264 0.00136057 9.94778e-05 -0.000517009 -0.00116886 -0.001759 -0.000426012
internal_weight=342 322 224 80 98 74 144 60 122 100 71 42 49
internal_count=342 322 224 80 98 74 144 60 122 100 71 42 49
is_linear=0
shrinkage=0.03


Tree=62
num_leaves=12
num_cat=0
split_feature=88 72 2 92 32 33 47 2 24 30 75
split_gain=5.03918 2.26724 0.873277 0.632568 0.381336 0.359639 0.244779 0.167522 0.270272 0.124013 0.0956571
threshold=0.21514132166578107 0.70697344163138409 0.8586485522102324 14.500000000000002 -0.74759129561769522 -0.38177618038023264 0.20755314861902732 -0.49070648735136435 -0.50192021557784139 1.0000000180025095e-35 -0.21910624678464447
decision_type=2 2 2 2 2 2 2 2 2 2 2
left_child=1 2 4 -3 -1 -4 -5 -6 -9 10 -10
right_child=-2 3 5 6 7 -7 -8 8 9 -11 -12
leaf_value=0.0029759568072113061 0.014389574077880777 -0.001312658450337269 0.0072232486482850886 -0.0051425576955080035 -0.0030745593218904619 0.002013260229459747 -0.009704581650335397 0.0017013616072739856 -0.00042887199131586544 0 -0.0032075073997127144
leaf_weight=28 21 30 21 35 25 33 20 39 21 38 33
leaf_count=28 21 30 21 35 25 33 20 39 21 38 33
internal_value=0.000178222 -0.000740618 0.000750874 -0.00494802 -0.00021872 0.00410443 -0.00687052 -0.000812881 -0.000356364 -0.00126213 -0.00218517
internal_weight=344 323 238 85 184 54 55 156 131 92 54
internal_count=344 323 238 85 184 54 55 156 131 92 54
is_linear=0
shrinkage=0.03


Tree=63
num_leaves=14
num_cat=0
split_feature=2 82 31 94 93 27 88 95 58 65 32 83 76
split_gain=4.81566 2.28395 0.577236 0.549788 0.453083 0.273115 0.25443 0.188776 0.174155 0.146177 0.142743 0.110321 0.102808
threshold=1.3844596907232389 -0.15972221897564517 -0.29940727555293783 1.0000000180025095e-35 0.37940952255126054 0.15641713515566458 0.0072891965613237509 3.5000000000000004 -0.34174937233039931 0.22458424418026168 1.1668058204263518 0.43753951271902963 -0.55420818892435075
decision_type=2 2 2 2 2 2 2 2 2 2 2 2 2
left_child=1 2 4 5 6 9 -1 10 -5 -3 11 -4 -6
right_child=-2 3 7 8 12 -7 -8 -9 -10 -11 -12 -13 -14
leaf_value=0.0023133162246682703 0.014152754200483435 -0.0051832803218969416 0.0010786584239286271 0.00031839320956954454 0.0015346048908872838 -0.0031025913817830288 0.0064429718718446534 -0.0027671756771529003 -0.0034731437168570591 -0.0089720900562302829 0.0022794479220660758 -0.0016011263127855553 -0.0013862138635520843
leaf_weight=35 20 24 20 21 22 25 26 28 20 26 20 39 21
leaf_count=35 20 24 20 21 22 25 26 28 20 26 20 39 21
internal_value=-9.05344e-05 -0.000974915 0.000872387 -0.00435879 0.00246902 -0.00589832 0.00413026 -0.000652322 -0.00146209 -0.00722732 6.18698e-05 -0.000641675 3.86463e-05
internal_weight=347 327 211 116 104 75 61 107 41 50 79 59 43
internal_count=347 327 211 116 104 75 61 107 41 50 79 59 43
is_linear=0
shrinkage=0.03


Tree=64
num_leaves=12
num_cat=0
split_feature=2 2 88 80 93 83 68 88 36 40 7
split_gain=3.92659 2.1586 0.57747 0.454043 0.553936 0.369975 0.315439 0.265782 0.243442 0.118874 0.0175935
threshold=1.0838944107373794 -0.4091715526223122 0.099005846117247165 -0.18061333316910802 0.37940952255126054 1.4073921910159324 -0.36577197755362761 0.0072891965613237509 -0.22655144772454397 -0.27357806120015171 -0.35848891542541172
decision_type=2 2 2 2 2 2 2 2 2 2 2
left_child=1 2 5 4 7 -1 -5 -3 10 -6 -8
right_child=-2 3 -4 6 9 -7 8 -9 -10 -11 -12
leaf_value=-0.0036912439854708684 0.010218680579712392 0.0020021943209823424 -0.0011891276776590848 0.0021298846849532472 -0.0018816889188627694 -0.0083736484962650837 -0.00073143182284580153 0.0064372058671888829 -0.003721197868714362 0.001092000279213577 0.00038964822971776351
leaf_weight=33 31 27 33 27 20 35 27 27 30 30 20
leaf_count=33 31 27 33 27 20 35 27 27 30 30 20
internal_value=4.94636e-05 -0.000964019 -0.00456435 0.000771153 0.00217824 -0.00615412 -0.000607858 0.00428295 -0.00160827 -3.89768e-05 -0.000190868
internal_weight=340 309 101 208 104 68 104 54 77 50 47
internal_count=340 309 101 208 104 68 104 54 77 50 47
is_linear=0
shrinkage=0.03


Tree=65
num_leaves=14
num_cat=0
split_feature=88 75 2 69 32 75 69 51 11 11 29 65 74
split_gain=4.67041 2.05486 0.776781 0.607412 0.367849 0.311298 0.249104 0.159201 0.0942283 0.0675473 0.0585286 0.0459193 0.0453964
threshold=0.18577345297878678 0.71014643632979912 0.8586485522102324 0.45205381695371222 -0.74759129561769522 1.4073921910159324 0.41727781221281646 0.63966272908429833 -0.016028780443621295 0.18583494918566323 -0.31625237203872464 0.19978341940274744 -0.40545251185507231
decision_type=2 2 2 2 2 2 2 2 2 2 2 2 2
left_child=1 2 4 5 -1 9 -4 8 10 -3 -6 -12 -10
right_child=-2 3 6 -5 7 -7 -8 -9 12 -11 11 -13 -14
leaf_value=0.0034267085272963941 0.013238767144548427 -0.0025520924657113477 0.0023046455925730897 -0.0084619262811430271 -0.00059752158987433162 -0.0060673966877144801 0.0068043990694542427 -0.0025935858966275251 0 -0.00031019552357695776 7.3850222432346474e-05 0.0022089129720221862 -0.0018643049015327517
leaf_weight=23 23 34 32 24 20 21 20 30 24 24 20 23 29
leaf_count=23 23 34 32 24 20 21 20 30 24 24 20 23 29
internal_value=0.000199131 -0.000721065 0.000898958 -0.00422363 -7.08931e-05 -0.00288905 0.00410264 -0.000644387 -0.000112645 -0.00167818 0.00064184 0.00128794 -0.0010655
internal_weight=347 324 221 103 169 79 52 146 116 58 63 43 53
internal_count=347 324 221 103 169 79 52 146 116 58 63 43 53
is_linear=0
shrinkage=0.03


Tree=66
num_leaves=13
num_cat=0
split_feature=2 2 31 93 2 88 94 92 90 8 37 10
split_gain=4.45118 2.21666 0.677408 0.577117 0.46742 0.456677 0.317064 0.245598 0.151585 0.133399 0.10591 0.0146913
threshold=1.2427788971578051 -0.44829339155567949 -0.29940727555293783 0.37940952255126054 -1.1662240933925474 0.0072891965613237509 -0.12940952255126034 19.500000000000004 0.068636279453960419 0.25288706581220638 0.18658284246244658 0.22320640551710028
decision_type=2 2 2 2 2 2 2 2 2 2 2 2
left_child=1 4 3 5 -1 -3 -6 8 10 -5 11 -4
right_child=-2 2 7 9 6 -7 -8 -9 -10 -11 -12 -13
leaf_value=-0.007500250082901957 0.012999235404407387 0.0024310001344061811 -0.000769916943669478 0.0019193395966691756 -0.0055383965607995311 0.0080597187012627532 -0.00090396554201098466 0.0017580776377446299 -0.003433105403787226 -0.001414356007688231 0.00072949257026429584 -0.0022531991805047236
leaf_weight=33 23 35 21 20 24 23 34 31 23 23 30 20
leaf_count=33 23 35 21 20 24 23 34 31 23 23 30 20
internal_value=0.000279132 -0.000638125 0.000942987 0.00277364 -0.0045945 0.00472474 -0.00287953 -0.000513232 -0.00129523 6.74502e-05 -0.000556636 -0.00157018
internal_weight=340 317 226 101 91 58 58 125 94 43 71 41
internal_count=340 317 226 101 91 58 58 125 94 43 71 41
is_linear=0
shrinkage=0.03


Tree=67
num_leaves=13
num_cat=0
split_feature=2 2 35 62 2 80 88 86 83 90 75 3
split_gain=3.47299 1.51659 0.4451 0.50173 0.413701 0.354137 0.222961 0.18103 0.166107 0.0670233 0.0200696 0.0129146
threshold=1.0838944107373794 -0.34264730559230583 -0.79632712648356829 1.0000000180025095e-35 -1.1662240933925474 -0.18061333316910802 -0.016515531605428149 0.0030970956479087508 0.24325985264751862 0.028828632599261553 0.23163587877119177 0.18066713015162422
decision_type=2 2 2 2 2 2 2 2 2 2 2 2
left_child=1 4 -3 8 -1 7 -6 -5 -4 -10 -7 -8
right_child=-2 2 3 5 6 10 11 -9 9 -11 -12 -13
leaf_value=-0.0065195432976243306 0.0092617574898400442 0.0035791497806629794 -0.0037408222493597824 0.0013496612190487848 -0.0042688611665061696 -0.0010411596895853208 -0.0013514510781240108 0.0052556152148293209 6.3577173451814683e-05 -0.0020024054458894769 0.00013491298636028254 -8.1493604525145289e-05
leaf_weight=34 34 38 26 25 32 21 20 23 32 22 25 20
leaf_count=34 34 38 26 25 32 21 20 23 32 22 25 20
internal_value=0.000155904 -0.000810853 0.000642229 0 -0.00374316 0.00148458 -0.00238325 0.00329067 -0.00174592 -0.000724812 -0.000338008 -0.000793072
internal_weight=352 318 212 174 106 94 72 48 80 54 46 40
internal_count=352 318 212 174 106 94 72 48 80 54 46 40
is_linear=0
shrinkage=0.03


Tree=68
num_leaves=12
num_cat=0
split_feature=88 76 26 46 3 92 27 27 88 90 11
split_gain=3.63917 1.73036 0.650518 0.430273 0.363277 0.361732 0.265566 0.301011 0.184686 0.0891647 0.0821384
threshold=0.18577345297878678 0.63634335729480895 -0.36060473395294007 -0.85663608902427868 -0.44695084726052697 14.500000000000002 0.77604567869609586 -0.026801711745409799 -0.11838731916209964 0.068636279453960419 -0.08451130327357749
decision_type=2 2 2 2 2 2 2 2 2 2 2
left_child=1 2 3 -1 -5 -3 7 9 -7 10 -4
right_child=-2 5 6 4 -6 8 -8 -9 -10 -11 -12
leaf_value=-4.552990967749207e-05 0.011491473299215443 -0.0010312467461184736 0.0017938117928710218 0.00237446141298241 0.0074554586671822442 -0.0075312789482460613 0.0023197261938317252 -0.0036945210388858599 -0.0038585745495481366 -0.0017899162569230765 -0.00049417106064868991
leaf_weight=31 24 25 24 39 21 26 23 31 35 22 31
leaf_count=31 24 25 24 39 21 26 23 31 35 22 31
internal_value=0.000258309 -0.000610711 0.000777698 0.00273036 0.00421217 -0.00422633 -0.000556895 -0.00119884 -0.00548285 -0.000151686 0.000451219
internal_weight=332 308 222 91 60 86 131 108 61 77 55
internal_count=332 308 222 91 60 86 131 108 61 77 55
is_linear=0
shrinkage=0.03


Tree=69
num_leaves=15
num_cat=0
split_feature=27 2 88 66 42 60 68 32 2 66 61 20 58 47
split_gain=2.82414 2.70124 1.35763 0.844867 0.437058 0.293577 0.273244 0.267896 0.238464 0.225982 0.176298 0.0773349 0.0544561 0.0164292
threshold=0.43767092817552 1.0838944107373794 -0.12490548771035233 -1.5577430086138653 -0.37662033497959407 0.81065458285402925 -0.38093212336108684 -0.8400481715042547 -0.30710986432959919 -0.030492864151128247 0.075985075347443962 1.0000000180025095e-35 -0.33067088929337124 1.0000000180025095e-35
decision_type=2 2 2 2 2 2 2 2 2 2 2 2 2 2
left_child=2 4 -1 -4 11 6 8 -6 -5 10 12 -2 -8 -11
right_child=1 -3 3 5 7 -7 9 -9 -10 13 -12 -13 -14 -15
leaf_value=-0.0077940417539891322 -0.0018787608820927365 0.013888270702046243 -0.0067519149141854013 -0.00069262512003464552 0.0062710375950407625 0.0027418105514242326 -0.0023342525664327746 0.0012575663751775053 0.0034110238240652171 -0.00053269996462275068 -0.0043378099747947516 0.00065317701722092142 0 0.00063097846656363476
leaf_weight=31 21 20 21 30 20 23 20 22 21 21 33 20 20 22
leaf_count=31 21 20 21 30 20 23 20 22 21 21 33 20 20 22
internal_value=-0.000147939 0.00400079 -0.00192704 -0.00104756 0.00156832 -0.000398081 -0.000849856 0.00372542 0.000941773 -0.00166353 -0.00267907 -0.000572092 -0.0012284 0
internal_weight=345 103 242 211 83 190 167 42 51 116 73 41 40 43
internal_count=345 103 242 211 83 190 167 42 51 116 73 41 40 43
is_linear=0
shrinkage=0.03


Tree=70
num_leaves=12
num_cat=0
split_feature=88 2 37 88 34 96 83 9 66 10 31
split_gain=3.60234 1.54657 0.613003 0.390153 0.361056 0.33007 0.297594 0.121755 0.104823 0.030288 0.0189268
threshold=0.21514132166578107 -0.35503968009903603 0.30087902940600791 0.099005846117247165 0.3419337979257403 2.5000000000000004 1.4073921910159324 0.13899541063578477 0.69951279182118253 0.59709832475382385 1.0000000180025095e-35
decision_type=2 2 2 2 2 2 2 2 2 2 2
left_child=1 3 4 6 8 7 -1 -6 9 10 -3
right_child=-2 2 -4 -5 5 -7 -8 -9 -10 -11 -12
leaf_value=-0.0029729599918415176 0.011433858485626322 -0.00080668006274292527 -0.0038768759135720857 -0.0011226128331771855 0.0020365231777504673 0.004830989601784263 -0.0072945503212320491 -0.00076710277515004818 0.0018550992770982318 -0.0014909078567833093 0.00020339100288174799
leaf_weight=30 23 26 25 31 38 34 35 20 20 23 39
leaf_count=30 23 26 25 31 38 34 35 20 20 23 39
internal_value=0 -0.000831804 0.000516862 -0.00402121 0.00108274 0.00246373 -0.00535368 0.00101846 -6.71067e-05 -0.000539634 -0.000155173
internal_weight=344 321 225 96 200 92 65 58 108 88 65
internal_count=344 321 225 96 200 92 65 58 108 88 65
is_linear=0
shrinkage=0.03


Tree=71
num_leaves=13
num_cat=0
split_feature=88 26 92 88 10 43 80 23 27 16 45 64
split_gain=3.78711 1.55114 0.768578 0.680229 0.40733 0.291938 0.221637 0.171492 0.0987959 0.131081 0.0799465 0.0683555
threshold=0.18577345297878678 -0.36060473395294007 14.500000000000002 0.10617215291741446 0.80866162481931159 0.39683804629628466 -0.18061333316910802 0.41994423466695879 0.77604567869609586 -0.15347936014313393 0.43453788587343151 -0.19096623767788767
decision_type=2 2 2 2 2 2 2 2 2 2 2 2
left_child=1 4 8 5 6 -4 7 -1 9 -3 11 -11
right_child=-2 2 3 -5 -6 -7 -8 -9 -10 10 -12 -13
leaf_value=0.004955586237249089 0.012329082794790893 -0.0025657652556249372 -0.00433027043769817 -0.0005533001205353875 0.0064227485102809857 -0.0092605234771522115 -0.00046333055136744511 0.0012332903235175898 0.0011418800189927874 0 0.00080452194747825459 -0.0023264597975251691
leaf_weight=20 22 31 33 31 20 20 29 32 25 22 35 21
leaf_count=20 22 31 33 31 20 20 29 32 25 22 35 21
internal_value=0.000313869 -0.000508969 -0.0019405 -0.00419353 0.00255005 -0.00626118 0.0015501 0.00272929 -0.0005037 -0.000909325 -0.000210141 -0.00110559
internal_weight=341 319 218 84 101 53 81 52 134 109 78 43
internal_count=341 319 218 84 101 53 81 52 134 109 78 43
is_linear=0
shrinkage=0.03


Tree=72
num_leaves=14
num_cat=0
split_feature=2 2 80 92 94 61 1 84 25 31 65 66 67
split_gain=2.70991 1.16517 0.461756 0.315482 0.259648 0.243404 0.168348 0.164129 0.107031 0.10491 0.104379 0.083234 0.0338001
threshold=1.0838944107373794 -0.49070648735136435 -0.19413739575250802 10.500000000000002 1.0000000180025095e-35 0.18577345297879988 -0.31048008548394063 -0.022966461093513298 -0.19539720172333133 -0.74759129561769522 0.21344184177173306 -0.030492864151128247 -0.034433605328760143
decision_type=2 2 2 2 2 2 2 2 2 2 2 2 2
left_child=1 4 3 6 10 8 -3 -6 -4 -8 -1 12 -10
right_child=-2 2 5 -5 7 -7 9 -9 11 -11 -12 -13 -14
